{"fc1.weight": [[-0.15803347527980804, 0.13895080983638763, 0.14223849773406982, 0.13990098237991333, -0.018269266933202744, -0.1537747085094452, -0.05591747164726257, -0.07268521934747696, 0.1706002950668335, -0.16568058729171753, 0.11707430332899094, 0.10683895647525787, -0.2297595590353012, 0.10394211113452911, 0.07661713659763336, -0.0010771914385259151, 0.00016178794612642378], [-0.03983257710933685, -0.10630336403846741, -0.20938463509082794, 0.16762091219425201, 0.003318576607853174, -0.23603013157844543, 0.06803024560213089, -0.14798516035079956, 0.21596361696720123, -0.24070771038532257, 0.17320524156093597, -0.23573552072048187, 0.21898867189884186, -0.047735460102558136, 0.07059992849826813, -0.055286768823862076, 0.053123101592063904], [0.22980110347270966, -0.2224404662847519, 0.028039755299687386, 0.28117552399635315, -0.1961054652929306, 0.19754138588905334, -0.0471499040722847, -0.12180854380130768, 0.18354171514511108, 0.061366528272628784, 0.035385120660066605, 0.2564642131328583, -0.09840143471956253, -0.18657740950584412, -0.04083024337887764, -0.020141033455729485, -0.19423550367355347], [0.1912628561258316, -0.14498288929462433, 0.02007296495139599, 0.14078804850578308, -0.004625075031071901, -0.07630439102649689, 0.15945997834205627, 0.13789449632167816, -0.14311857521533966, 0.0458499900996685, 0.007809641771018505, 0.012768424116075039, -0.15241828560829163, -0.13760782778263092, -0.061942197382450104, 0.2151142805814743, 0.17393164336681366], [-0.09015458077192307, 0.1266944855451584, -0.21375499665737152, 0.14635643362998962, -0.17346423864364624, -0.12789814174175262, -0.18457713723182678, -0.16694825887680054, 0.20954258739948273, -0.06987673789262772, 0.22929534316062927, 0.18598023056983948, -0.05444897338747978, 0.19723965227603912, -0.23576387763023376, 0.03633980080485344, 0.21950441598892212], [-0.18644702434539795, 0.12216170132160187, -0.10174854844808578, -0.18734227120876312, -0.07965806871652603, -0.14771266281604767, -0.19311721622943878, -0.01531691662967205, -0.24061016738414764, 0.0769956037402153, -0.14476144313812256, 0.05712965130805969, -0.2335834503173828, -0.08546558022499084, 0.24007320404052734, -0.1467355638742447, 0.1505424678325653], [-0.0469294972717762, -0.056940075010061264, 0.16332194209098816, 0.18332071602344513, -0.2280014008283615, -0.19705773890018463, 0.04454490914940834, 0.10479488223791122, 0.0003157244937028736, -0.24062910676002502, 0.20551446080207825, 0.06530997902154922, 0.17149388790130615, 0.17690740525722504, 0.20114187896251678, -0.12327376008033752, 0.05977514758706093], [0.12867586314678192, 0.19982072710990906, -0.017792029306292534, -0.19122964143753052, -0.0036332891322672367, -0.007731375750154257, -0.07875759154558182, -0.14215534925460815, 0.09318215399980545, 0.1591847836971283, 0.056519657373428345, -0.07272844016551971, 0.18199855089187622, 0.21249955892562866, 0.2067258208990097, -0.11215169727802277, 0.1484525203704834], [0.21598030626773834, 0.17108727991580963, -0.03023134358227253, 0.058288753032684326, 0.17168712615966797, 0.08743312954902649, 0.01296809408813715, 0.08965236693620682, 0.1673501431941986, 0.23831456899642944, 0.19561849534511566, 0.2412712126970291, -0.2218334972858429, 0.134240061044693, 0.14788034558296204, 0.22695773839950562, -0.06774736195802689], [0.0009873888920992613, 0.14712953567504883, 0.04660821706056595, 0.20004640519618988, -0.14334537088871002, 0.036157432943582535, -0.179869145154953, 0.002018445637077093, -0.055541250854730606, 0.14296482503414154, 0.13823696970939636, -0.12783028185367584, 0.07438730448484421, -0.10707582533359528, -0.23757779598236084, 0.150044783949852, -0.19423148036003113], [0.15495750308036804, 0.1131991520524025, -0.10806719958782196, -0.20891685783863068, -0.1063733696937561, -0.10352101176977158, -0.15235771238803864, -0.09429425001144409, 0.060896288603544235, 0.07658621668815613, 0.24573184549808502, 0.20239542424678802, 0.029705533757805824, -0.11362026631832123, 0.13980209827423096, -0.14649125933647156, 0.047299932688474655], [0.15394185483455658, -0.06311716884374619, -0.08099064975976944, 0.19115470349788666, 0.22809356451034546, -0.10968045890331268, 0.24215836822986603, -0.07788345217704773, -0.04818718880414963, -0.12308637797832489, -0.10669351369142532, 0.22396939992904663, -0.05097143352031708, -0.053325749933719635, 0.11937479674816132, 0.1422981321811676, 0.09130656719207764], [0.09227527678012848, 0.15524941682815552, -0.09108372032642365, 0.14699724316596985, -0.018585456535220146, 0.14042317867279053, -0.13899829983711243, -0.0666855052113533, 0.1884734183549881, -0.23280416429042816, -0.24444516003131866, 0.025124026462435722, -0.2211102545261383, -0.05586085841059685, 0.11120273917913437, 0.11127955466508865, 0.008931610733270645], [-0.10642736405134201, 0.04752713814377785, 0.22224506735801697, 0.028446193784475327, 0.07669658213853836, 0.13349905610084534, 0.28613394498825073, -0.10906060039997101, -0.21957093477249146, -0.12160221487283707, -0.18315215408802032, -0.08994287997484207, -0.3043903112411499, 0.09368892759084702, 0.16419483721256256, 0.06754551827907562, 0.12549209594726562], [-0.2846740782260895, 0.34820520877838135, -0.0658470019698143, 0.02947891876101494, 0.13420458137989044, 0.21642886102199554, -0.09044967591762543, 0.05153551697731018, 0.01695309206843376, 0.18612855672836304, 0.16121023893356323, -0.11950068920850754, -0.21972694993019104, 0.20558111369609833, 0.16331656277179718, -0.046378958970308304, -0.09388534724712372], [-0.22218754887580872, -0.10972484201192856, -0.056197166442871094, -0.016839535906910896, -0.13810564577579498, -0.07421231269836426, -0.057293616235256195, -0.23152166604995728, -0.05934799462556839, -0.18152758479118347, -0.1756373643875122, -0.01646098494529724, -0.14108623564243317, 0.2135809361934662, -0.06751872599124908, 0.1189642921090126, 0.04071348160505295], [-0.034341081976890564, 0.016082853078842163, 0.033148620277643204, 0.12481195479631424, -0.1561865508556366, 0.13346503674983978, 0.08275651186704636, 0.015709739178419113, 0.1600627452135086, 0.05661233142018318, -0.20015735924243927, -0.2111475169658661, 0.06862135976552963, 0.06024247407913208, 0.20835073292255402, 0.0033319725189357996, -0.10224874317646027], [-0.03347364813089371, -0.041706714779138565, 0.04794953018426895, 0.1771201342344284, -0.15401749312877655, -0.19190046191215515, -0.2203529328107834, -0.0466950461268425, 0.07640278339385986, -0.06304699927568436, 0.19781044125556946, 0.15634222328662872, -0.13528837263584137, 0.21396347880363464, -0.06956622004508972, 0.055105920881032944, -0.08684522658586502], [-0.18442149460315704, -0.2304619699716568, 0.013865712098777294, -0.09213300049304962, -0.011560228653252125, -0.13177397847175598, -0.1637883186340332, -0.09004245698451996, -0.07113012671470642, 0.21369317173957825, 0.0542699471116066, -0.11033076047897339, 0.22113274037837982, -0.11263343691825867, -0.19545318186283112, -0.03875038027763367, 0.19751755893230438], [0.09130734950304031, 0.21066845953464508, -0.05152640864253044, -0.008035534992814064, 0.19396230578422546, 0.18473635613918304, 0.06597360968589783, 0.05907832458615303, -0.19368353486061096, 0.17789077758789062, 0.15748022496700287, 0.028402511030435562, -0.05730827525258064, -0.05366582050919533, 0.18641938269138336, 0.13892793655395508, -0.18032881617546082], [-0.19114163517951965, 0.19884814321994781, -0.010084997862577438, 0.1815118044614792, -0.08673691749572754, -0.20292212069034576, 0.05913832038640976, 0.20719456672668457, 0.00455886498093605, 0.20099206268787384, -0.0679941326379776, 0.19677291810512543, -0.062164127826690674, -0.21379561722278595, -0.07752855122089386, -0.22935031354427338, -0.03110577166080475], [0.025385836139321327, 0.21479611098766327, 0.033188894391059875, -0.2768236994743347, -0.02933444269001484, 0.18953493237495422, -0.23066745698451996, 0.2000586837530136, 0.08145518600940704, 0.19667500257492065, -0.0008374067838303745, 0.17048212885856628, 0.0338234081864357, 0.0003994563012383878, -0.08615682274103165, 0.10544535517692566, 0.1587723046541214], [0.17211610078811646, 0.16247043013572693, -0.19462361931800842, 0.06753925234079361, 0.1505253165960312, -0.18790079653263092, -0.2089504599571228, -0.1956823617219925, 0.10353858023881912, -0.21286891400814056, -0.21612763404846191, 0.05905791372060776, -0.02844535931944847, -0.05952690169215202, -0.2078344076871872, -0.024906065315008163, -0.10644743591547012], [0.1358334720134735, -0.12788796424865723, 0.08397296816110611, 0.1478075087070465, 0.17561616003513336, -0.2097928673028946, 0.1255628913640976, 0.03621730953454971, 0.055385757237672806, -0.12012023478746414, -0.11289387941360474, 0.25424522161483765, -0.11821219325065613, 0.052560463547706604, -0.07509910315275192, -0.22874964773654938, -0.13041891157627106], [-0.2784132957458496, 0.067445769906044, 0.03758276253938675, -0.16606993973255157, -0.005901659373193979, -0.17574553191661835, 0.06745543330907822, 0.06602995842695236, 0.17337623238563538, -0.06373640894889832, -0.2678001821041107, -0.32806044816970825, -0.11963681876659393, 0.03850174322724342, 0.22174903750419617, 0.13250963389873505, 0.09512067586183548], [-0.1176125556230545, 0.010323277674615383, 0.18980754911899567, 0.17707668244838715, 0.08166488260030746, 0.08232691884040833, -0.14332005381584167, 0.016417331993579865, 0.23897647857666016, 0.07316473871469498, -0.009707524441182613, -0.10567717254161835, -0.10057488828897476, 0.06821730732917786, 0.006619770545512438, -0.04304419830441475, 0.1742008775472641], [-0.060853321105241776, 0.028459757566452026, -0.025512071326375008, 0.22862078249454498, 0.01879780739545822, 0.16919857263565063, 0.0052330754697322845, 0.20591849088668823, -0.003302790457382798, -0.16940845549106598, 0.1917140632867813, -0.01196682546287775, 0.08073870092630386, 0.222201868891716, 0.1658553034067154, 0.07548350840806961, -0.21384604275226593], [0.07624570280313492, -0.07254114001989365, -0.10113803297281265, 0.20087122917175293, -0.2257351130247116, 0.13172376155853271, -0.060635264962911606, 0.2016642987728119, 0.19163143634796143, -0.009084596298635006, -0.18369267880916595, -0.009845804423093796, -0.03683819621801376, -0.2303554266691208, 0.06405916810035706, -0.07531315833330154, 0.2284943163394928], [-0.1313219517469406, 0.032264962792396545, 0.0714450404047966, -0.16738706827163696, 0.03030090592801571, -0.1284864842891693, 0.052376870065927505, 0.049402035772800446, -0.04347306489944458, 0.09726633131504059, -0.021306227892637253, -0.12967230379581451, -0.16457954049110413, 0.21344751119613647, -0.12975987792015076, 0.03162021189928055, -0.09008556604385376], [0.04185185581445694, -0.01659817434847355, -0.08429490774869919, -0.14365138113498688, 0.13075533509254456, 0.11257130652666092, -0.1325005143880844, 0.20842976868152618, -0.07583072036504745, 0.11136053502559662, -0.04986446350812912, 0.0009937225840985775, 0.020005859434604645, -0.006761390250176191, -0.17273269593715668, -0.07868096977472305, 0.11212316155433655], [0.06472311168909073, -0.13596493005752563, -0.1619838923215866, 0.048350606113672256, -0.06129716709256172, -0.17475080490112305, 0.15436328947544098, -0.11057183146476746, 0.1126890555024147, 0.12371771782636642, -0.1607864499092102, -0.2797771692276001, -0.0025760021526366472, 0.020885944366455078, 0.1648336499929428, 0.1448177844285965, 0.15509875118732452], [0.134525328874588, -0.30900323390960693, -0.10994488000869751, 0.30363214015960693, 0.09742186218500137, 0.11869420856237411, 0.10879737138748169, 0.09508383274078369, -0.018115563318133354, 0.052881307899951935, -0.08793151378631592, -0.03490230813622475, 0.07261952757835388, 0.18808667361736298, 0.13434317708015442, -0.22757871448993683, 0.11820277571678162], [-0.04539704695343971, -0.16097481548786163, -0.14690053462982178, -0.1291622817516327, 0.2140885591506958, -0.15278208255767822, -0.08918566256761551, 0.12965752184391022, -0.17434266209602356, -0.08799302577972412, -0.11202682554721832, 0.2149890661239624, -0.2172895222902298, -0.2414352148771286, -0.08115646243095398, 0.07727278769016266, -0.0577223002910614], [0.07859602570533752, 0.1527281105518341, 0.1339084953069687, 0.20276185870170593, 0.14814729988574982, 0.1422303020954132, 0.1808181256055832, -0.21484415233135223, -0.13468676805496216, -0.2194776087999344, 0.10855420678853989, -0.060886483639478683, 0.10374432057142258, -0.058192621916532516, 0.2409493625164032, -0.0414387509226799, -0.09291785955429077], [-0.11072758585214615, 0.0036248466931283474, -0.08496591448783875, -0.10756239295005798, 0.16362233459949493, -0.08778809010982513, -0.1158989891409874, 0.18151290714740753, -0.10949154943227768, 0.05312078818678856, -0.012177308090031147, -0.12481540441513062, -0.21689581871032715, -0.17134283483028412, 0.1572401374578476, -0.06325864046812057, 0.20453166961669922], [-0.040555331856012344, 0.2217782437801361, 0.1923614740371704, -0.23015017807483673, 0.23569078743457794, -0.08134306222200394, -0.08850830048322678, 0.08158046007156372, 0.22838465869426727, 0.1900452971458435, 0.1891121119260788, 0.13726185262203217, -0.06057015433907509, 0.18424755334854126, -0.20551839470863342, 0.09360244870185852, -0.008393385447561741], [0.14545589685440063, -0.05506567656993866, 0.14787913858890533, 0.1987898200750351, 0.03757014498114586, 0.08952616900205612, 0.16055038571357727, 0.08466030657291412, -0.023245707154273987, 0.12253296375274658, 0.04806286469101906, 0.008663658984005451, 0.057405274361371994, 0.13838069140911102, 0.05287405103445053, -0.20824137330055237, -0.0852317065000534], [-0.2008281797170639, 0.0047149634920060635, -0.2366456538438797, 0.2275589108467102, -0.1261485368013382, -0.056677259504795074, 0.14893721044063568, 0.20827890932559967, -0.22864235937595367, -0.15328027307987213, -0.16776128113269806, -0.13105030357837677, 0.1479707807302475, -0.13657379150390625, -0.042897503823041916, -0.17694342136383057, -0.07991894334554672], [-0.12599219381809235, -0.1999412626028061, 0.08030683547258377, 0.010927478782832623, -0.20406782627105713, -0.13622857630252838, -0.17796002328395844, -0.20300182700157166, 0.04392019659280777, -0.21264463663101196, -0.031715914607048035, -0.027308838441967964, 0.22287529706954956, 0.0804823637008667, -0.12079514563083649, -0.1367032676935196, -0.10845361649990082], [-0.04301789402961731, 0.019749203696846962, 0.15984176099300385, -0.15942877531051636, 0.18406102061271667, -0.005412448663264513, 0.07178273797035217, 0.11745986342430115, 0.1267850697040558, -0.04262194037437439, 0.02381560206413269, 0.2273705005645752, -0.18009965121746063, -0.13686607778072357, -0.09894096851348877, 0.19216880202293396, -0.1360948383808136], [0.06779322028160095, 0.11011628806591034, 0.23345492780208588, -0.16073404252529144, 0.2075045108795166, -0.17966406047344208, 0.0716874971985817, 0.033967357128858566, -0.035861849784851074, -0.08929157257080078, 0.1899426281452179, 0.12522955238819122, -0.1633560210466385, 0.1645769476890564, -0.13151319324970245, 0.21965573728084564, -0.07420898973941803], [-0.13038404285907745, 0.18490934371948242, -0.04762434959411621, -0.022778019309043884, -0.09936878830194473, -0.14084981381893158, 0.22777922451496124, 0.220023050904274, 0.21347349882125854, -0.1002143919467926, -0.10064883530139923, 0.11588262766599655, 0.2031434327363968, -0.2252567559480667, 0.2020392119884491, -0.1764814257621765, 0.15212100744247437], [-0.00812192540615797, -0.17033590376377106, -0.06275845319032669, -0.15847666561603546, -0.09659799188375473, 0.02532489225268364, 0.240036740899086, -0.028552046045660973, -0.02622421458363533, 0.11798268556594849, -0.16758598387241364, 0.015926450490951538, 0.2313154637813568, -0.11668781191110611, -0.0363762304186821, -0.21836824715137482, -0.177911639213562], [0.16669628024101257, -0.04570230469107628, -0.21530400216579437, 0.017521755769848824, 0.21650569140911102, 0.12361622601747513, 0.1865697205066681, -0.18059490621089935, -0.03859298303723335, -0.10050851851701736, 0.0606125108897686, -0.2186231017112732, -0.042722322046756744, 0.015510746277868748, 0.2293187975883484, -0.05707061290740967, 0.09494876116514206], [0.2754645049571991, -0.37745198607444763, -0.12657833099365234, 0.01940535567700863, 0.07857073098421097, -0.1755957007408142, -0.03712707385420799, -0.17430739104747772, 0.2210976630449295, 0.1776273548603058, -0.12186118215322495, 0.1428694874048233, 0.00018313524196855724, 0.08284701406955719, -0.15930648148059845, 0.12620821595191956, 0.044774800539016724], [-0.10158967226743698, -0.056614749133586884, 0.0626564770936966, -0.16122554242610931, -0.04863504320383072, -0.12872101366519928, -0.09966985881328583, 0.1448708176612854, -0.10849583148956299, -0.22788524627685547, -0.0771302804350853, 0.11035241931676865, 0.06025439873337746, -0.11573589593172073, -0.22930115461349487, 0.2016771137714386, 0.03001643531024456], [0.07319314777851105, -0.19282153248786926, -0.0539381168782711, -0.19874033331871033, 0.006854083854705095, -0.07638378441333771, -0.05658014118671417, -0.1253170669078827, -0.004126102663576603, -0.2298145890235901, 0.08206179738044739, -0.2271249145269394, -0.15690848231315613, 0.21639268100261688, -0.10139665752649307, 0.13130547106266022, 0.05733177810907364], [-0.093250572681427, 0.20492646098136902, 0.19058461487293243, 0.03108651004731655, -0.11958272755146027, -0.10473993420600891, -0.05797577649354935, -0.18919508159160614, -0.09601369500160217, 0.12767955660820007, -0.12631899118423462, 0.09970029443502426, -0.06290894001722336, -0.2180141657590866, 0.22278077900409698, -0.06516793370246887, -0.02644907869398594], [-0.2686280906200409, 0.05649890378117561, 0.15249022841453552, -0.20117853581905365, -0.034161265939474106, -0.15569519996643066, 0.17320093512535095, -0.13818901777267456, -0.24699600040912628, 0.14851878583431244, 0.09104084968566895, -0.08935171365737915, -0.15686139464378357, 0.05357059836387634, 0.17667360603809357, 0.10039971023797989, 0.23435349762439728], [0.09936939924955368, 0.14302656054496765, -0.187870591878891, 0.1934996098279953, 0.03511807322502136, -0.027593465521931648, 0.015252268873155117, -0.07288673520088196, -0.022030631080269814, -0.2278769165277481, -0.09226493537425995, 0.06471652537584305, 0.16497574746608734, -0.17862538993358612, -0.15810978412628174, -0.10413388907909393, -0.07550454139709473], [-0.07393211871385574, 0.20274291932582855, 0.23430347442626953, 0.1312447041273117, 0.24137738347053528, -0.04956134408712387, 0.048766739666461945, -0.11321547627449036, 0.0646776333451271, 0.03406262397766113, -0.18135561048984528, -0.15831701457500458, 0.2279486358165741, 0.07166361808776855, 0.15155278146266937, -0.16715437173843384, 0.05820377916097641], [0.07793676108121872, 0.05664421245455742, -0.11709029972553253, -0.17765051126480103, 0.026249831542372704, -0.0871942862868309, 0.10080504417419434, -0.10520680248737335, -0.060857515782117844, 0.1656154841184616, -0.11152394860982895, 0.22070708870887756, -0.08325336873531342, 0.21045465767383575, -0.20893056690692902, -0.1561739295721054, -0.029652224853634834], [0.08587023615837097, 0.147978737950325, -0.1990784853696823, -0.07309010624885559, 0.21208642423152924, 0.09342455118894577, 0.01666412316262722, -0.0686657652258873, 0.1232270672917366, 0.04533959925174713, 0.2369108945131302, -0.239905446767807, -0.1783653348684311, 0.007595978677272797, 0.18094012141227722, -0.1722111999988556, 0.05160193145275116], [-0.2227606624364853, -0.06003488972783089, 0.10516832023859024, 0.18431732058525085, -0.08476252108812332, -0.07612026482820511, 0.10680142790079117, -0.045719657093286514, 0.15598484873771667, 0.23822838068008423, 0.15665209293365479, -0.15079839527606964, -0.06491435319185257, 0.11980821937322617, 0.013538154773414135, -0.06909213960170746, 0.06579630076885223], [0.061669349670410156, 0.0755000114440918, -0.022157873958349228, -0.20202763378620148, -0.09451218694448471, 0.16905589401721954, 0.20447878539562225, 0.031191527843475342, -0.2514960765838623, 0.02717791311442852, 0.08888370543718338, 0.22426921129226685, 0.1131088137626648, 0.15248313546180725, -0.18439355492591858, 0.07524673640727997, -0.091754250228405], [0.09947826713323593, 0.05847366526722908, -0.24782027304172516, 0.21442824602127075, 0.03196695074439049, -0.09755292534828186, 0.09997306019067764, 0.2133100926876068, -0.11158713698387146, -0.11758673191070557, -0.15776827931404114, 0.07033704966306686, 0.04452117532491684, 0.10447873175144196, -0.11567829549312592, 0.12086264789104462, 0.08121465146541595], [-0.046116072684526443, -0.07950115948915482, -0.21385321021080017, 0.1646849811077118, -0.17060178518295288, 0.11896146088838577, -0.08086583018302917, -0.19904407858848572, 0.16978925466537476, -0.18407845497131348, -0.12528471648693085, -0.000607278139796108, 0.12825565040111542, 0.2279222309589386, 0.004994142800569534, -0.06848931312561035, 0.01968594267964363], [-0.2243935465812683, -0.1385919749736786, -0.2113741636276245, -0.09429845958948135, -0.0007740743458271027, 0.13286392390727997, -0.045375652611255646, 0.12004061788320541, -0.011098959483206272, -0.03460007905960083, -0.15700048208236694, -0.04558925703167915, -0.1947554647922516, 0.1682644635438919, -0.06234072521328926, 0.0016217021038755774, 0.1151852011680603], [0.08361373096704483, -0.019550949335098267, -0.14725543558597565, 0.1568596512079239, -0.19063618779182434, -0.07894812524318695, -0.052530135959386826, 0.1637226641178131, 0.15962783992290497, 0.04777718335390091, 0.1944911777973175, 0.09838489443063736, -0.16151872277259827, 0.1622501164674759, -0.22722682356834412, -0.13055120408535004, -0.17199008166790009], [0.4248606562614441, -0.059329718351364136, -0.016844941303133965, 0.21515370905399323, -0.09597843885421753, 0.22725556790828705, 0.03361893072724342, 0.15481983125209808, 0.06295213103294373, -0.0992291048169136, 0.20078939199447632, -0.018544349819421768, -0.2705414295196533, -0.13499000668525696, -0.2921268045902252, 0.015763549134135246, 0.21115323901176453], [0.11752694100141525, -0.03970229625701904, 0.16226449608802795, -0.031232843175530434, 0.16728690266609192, 0.14976564049720764, 0.03754102811217308, 0.1325395554304123, -0.09237311780452728, 0.17792069911956787, 0.06787507236003876, -0.23184770345687866, -0.04188825562596321, -0.1986362636089325, 0.14872980117797852, -0.18200629949569702, 0.1883857250213623], [0.14201976358890533, 0.20887017250061035, -0.11604823917150497, 0.01872038096189499, -0.004695968236774206, -0.12155531346797943, -0.13290321826934814, -0.09820098429918289, -0.07959084957838058, -0.2229742407798767, -0.20119519531726837, -0.12010566890239716, -0.15100665390491486, 0.023756764829158783, -0.16293860971927643, 0.011546610854566097, 0.22184734046459198], [-0.22005337476730347, 0.007863970473408699, 0.12444538623094559, -0.13570711016654968, -0.14280247688293457, -0.21796946227550507, -0.06078476831316948, -0.19243942201137543, 0.05366457998752594, -0.14897839725017548, 0.04624506086111069, -0.04684639722108841, 0.12620119750499725, -0.14847081899642944, 0.08257031440734863, 0.15476053953170776, -0.2021593600511551], [0.18126018345355988, -0.1683051586151123, 0.09731396287679672, 0.21650682389736176, 0.03127730265259743, 0.22076639533042908, 0.005038970150053501, -0.12254706025123596, -0.21344773471355438, -0.15215124189853668, -0.1302451640367508, -0.22754114866256714, -0.21897614002227783, 0.17510204017162323, 0.08770349621772766, 0.1066628247499466, -0.02783134952187538], [0.14166630804538727, 0.07324761897325516, -0.23365122079849243, -0.0613786056637764, 0.2336408644914627, 0.11007662117481232, -0.0054246787913143635, -0.08792348951101303, -0.07259416580200195, -0.19039742648601532, 0.10056189447641373, 0.060015320777893066, -0.013620649464428425, -0.04185052588582039, -0.09650830179452896, 0.18152038753032684, -0.05098314583301544], [0.1382666826248169, 0.048920031636953354, -0.12269764393568039, 0.10568747669458389, 0.002889803610742092, -0.23658733069896698, 0.19321662187576294, -0.0727514997124672, 0.15475985407829285, 0.05033586174249649, 0.178993821144104, -0.23817434906959534, -0.18868589401245117, -0.15332357585430145, -0.015406343154609203, -0.1596447080373764, -0.09594946354627609], [0.13598819077014923, -0.09986299276351929, -0.04475612938404083, 0.26454225182533264, -0.22265656292438507, -0.2037881314754486, -0.1631716638803482, 0.20060621201992035, 0.13979007303714752, -0.09978895634412766, 0.23495392501354218, 0.06874708831310272, -0.2153448611497879, -0.04597777500748634, 0.06294885277748108, 0.13287824392318726, -0.07657572627067566], [-0.1285671442747116, 0.12274280935525894, -0.1412622481584549, -0.0705689936876297, -0.23963485658168793, -0.12472519278526306, -0.10498090833425522, 0.18526840209960938, 0.11220203340053558, -0.178013876080513, 0.17215311527252197, -0.2064717561006546, 0.0013649013126268983, 0.02202068455517292, 0.004710193257778883, -0.10041313618421555, -0.054920218884944916], [-0.06526438891887665, -0.11063723266124725, 0.23591136932373047, -0.18515723943710327, -0.18250781297683716, -0.09444236010313034, 0.029792826622724533, 0.12035076320171356, -0.12955448031425476, -0.20078888535499573, 0.15698093175888062, 0.13266456127166748, -0.118900366127491, -0.1431664228439331, -0.1968069225549698, -0.08464640378952026, 0.18206024169921875], [-0.19420872628688812, 0.4012815058231354, -0.09819857776165009, -0.139179989695549, -0.09607410430908203, 0.23789697885513306, 0.05979670584201813, 0.11320210993289948, 0.03843167796730995, 0.034622397273778915, -0.11269823461771011, -0.07739356905221939, -0.10346454381942749, 0.22908850014209747, 0.4171206057071686, -0.11100196093320847, 0.020496191456913948], [0.047376204282045364, 0.050357479602098465, 0.010577861219644547, -0.16310720145702362, 0.24816809594631195, -0.009806542657315731, -0.1456712782382965, -0.2413158267736435, -0.09825004637241364, 0.016710860654711723, 0.09681505709886551, 0.1356528103351593, 0.10060879588127136, -0.03106292150914669, -0.2142437845468521, -0.12034624814987183, -0.03723709285259247], [-0.08706880360841751, 0.019803211092948914, -0.20836564898490906, -0.13878783583641052, 0.029398113489151, 0.07371842861175537, 0.10211785137653351, 0.16421467065811157, 0.05650363862514496, 0.1613852083683014, -0.14218375086784363, 0.015332413837313652, -0.014050086960196495, -0.17431437969207764, -0.08227762579917908, -0.1898801475763321, 0.08926491439342499], [-0.22070786356925964, 0.10732704401016235, -0.23429691791534424, 0.012369171716272831, -0.15363366901874542, 0.06887894123792648, -0.02349773794412613, -0.10816001147031784, 0.17408999800682068, 0.02123238518834114, -0.09392395615577698, 0.14056695997714996, 0.10487011820077896, 0.04398750513792038, 0.1561349481344223, -0.11686117202043533, 0.13010069727897644], [0.028601111844182014, 0.031700097024440765, 0.17034059762954712, 0.07895234227180481, 0.058077894151210785, 0.130034402012825, 0.13568031787872314, -0.08527807891368866, -0.11152643710374832, -0.2005317211151123, 0.18371719121932983, -0.037325169891119, -0.07233109325170517, 0.14184822142124176, 0.07431836426258087, 0.24151882529258728, 0.020174823701381683], [0.10602105408906937, 0.10919664055109024, 0.06185666844248772, -0.12234378606081009, -0.21836628019809723, -0.15565796196460724, -0.15196563303470612, -0.21371358633041382, 0.16217800974845886, 0.06767004728317261, 0.11769962310791016, 0.1314370036125183, -0.17349115014076233, 0.041042160242795944, 0.12561404705047607, 0.13545899093151093, -0.19656890630722046], [0.1462910920381546, 0.08214477449655533, 0.17402318120002747, -0.1598181426525116, 0.04438909888267517, -0.1612621247768402, -0.16720803081989288, 0.07322981208562851, 0.10692700743675232, -0.1504027098417282, 0.14920781552791595, -0.20718321204185486, 0.2070278376340866, -0.1324126273393631, 0.10433939844369888, -0.06250694394111633, 0.07269177585840225], [-0.10287503898143768, 0.15985119342803955, 0.039265889674425125, 0.029316984117031097, 0.22482627630233765, 0.04998759925365448, -0.11100968718528748, -0.17924948036670685, -0.07908906787633896, 0.00791589543223381, -0.07368312776088715, -0.2392975091934204, -0.21296393871307373, 0.14889688789844513, -0.0623306930065155, -0.06443188339471817, 0.11803727596998215], [-0.06417106091976166, 0.12166894227266312, 0.23287463188171387, -0.007979155518114567, -0.20149143040180206, -0.13975006341934204, -0.048832692205905914, -0.18450023233890533, 0.09215433895587921, -0.05146612599492073, 0.09707322716712952, -0.08999744057655334, -0.16597475111484528, -0.18797895312309265, -0.13318251073360443, -0.08296788483858109, -0.05107045918703079], [-0.010109342634677887, 0.14758335053920746, 0.05869389697909355, -0.19880324602127075, 0.23532922565937042, -0.21507605910301208, 0.01952461153268814, -0.19563983380794525, -0.10088241845369339, -0.23031650483608246, 0.21698640286922455, -0.12281474471092224, -0.05111679807305336, -0.11632605642080307, -0.18130232393741608, 0.0497489832341671, 0.026905277743935585], [0.1519744098186493, 0.15563428401947021, 0.05350682884454727, -0.09032195061445236, 0.03055221401154995, 0.009000750258564949, 0.03280756250023842, -0.15867093205451965, -0.10053815692663193, 0.02819795534014702, -0.13403044641017914, 0.15612095594406128, -0.12497537583112717, -0.030193930491805077, 0.06270106136798859, -0.21333281695842743, -0.12443982809782028], [0.2186816930770874, -0.30466747283935547, -0.08527872711420059, 0.18774621188640594, -0.0671379566192627, 0.0351233184337616, 0.15247398614883423, 0.17419922351837158, 0.0024845688603818417, 0.13922420144081116, -0.08342330157756805, -0.03657953068614006, 0.044713497161865234, 0.21394959092140198, 0.16512122750282288, -0.23044514656066895, 0.08579496294260025], [0.02448403649032116, -0.21219094097614288, 0.1572801172733307, -0.11966585367918015, -0.09834610670804977, -0.09636133909225464, 0.14059792459011078, -0.19143418967723846, 0.05833250656723976, -0.21860723197460175, -0.14621658623218536, -0.02091214247047901, -0.057398658245801926, 0.11617131531238556, -0.027450935915112495, -0.06583160161972046, 0.20308823883533478], [0.17796345055103302, -0.09742274880409241, 0.19599559903144836, -0.06117133051156998, 0.05927415192127228, 0.2372192144393921, -0.10883311927318573, -0.06391781568527222, 0.1057140976190567, -0.04235744848847389, -0.06650163978338242, 0.07607205212116241, -0.10966771095991135, 0.18530671298503876, 0.00021016495884396136, 0.07611305266618729, -0.23937413096427917], [-0.024038979783654213, 0.12657007575035095, 0.14664769172668457, 0.22273460030555725, -0.21086600422859192, -0.07751721143722534, -0.055533334612846375, 0.06367448717355728, 0.07116950303316116, -0.15076804161071777, 0.2216404378414154, 0.11614677309989929, -0.10354219377040863, 0.23758363723754883, 0.1161288172006607, -0.0640169009566307, -0.17760398983955383], [-0.14839504659175873, 0.11756079643964767, -0.07653511315584183, -0.07461376488208771, -0.19785256683826447, -0.11678960919380188, -0.06737473607063293, 0.18611782789230347, 0.0846313089132309, 0.1497511863708496, 0.15320032835006714, -0.01419187244027853, 0.23194338381290436, -0.16829228401184082, -0.0696784257888794, -0.19731870293617249, -0.2425069957971573], [0.13118693232536316, 0.08222364634275436, 0.005725195165723562, 0.057521212846040726, 0.05046948418021202, 0.08682602643966675, 0.16469568014144897, 0.1941874772310257, 0.19174803793430328, 0.18076901137828827, 0.12839746475219727, 0.11990080028772354, 0.2374170422554016, 0.04061118885874748, -0.10670547932386398, 0.13874264061450958, 0.11164448410272598], [0.23006409406661987, 0.10572411864995956, 0.172393798828125, -0.010352343320846558, -0.05255896598100662, 0.007575761526823044, -0.2292003631591797, 0.13101813197135925, -0.14715801179409027, 0.20038773119449615, 0.15851618349552155, -0.24056139588356018, 0.14414623379707336, 0.00028162161470390856, 0.018301773816347122, -0.1490638107061386, 0.1780778467655182], [0.15198169648647308, -0.19317246973514557, -0.23821957409381866, 0.16936694085597992, 0.12678976356983185, -0.21606241166591644, 0.12336032837629318, -0.00019688460452016443, -0.11618135124444962, -0.15835201740264893, 0.09728217869997025, 0.033249832689762115, -0.16852426528930664, -0.22767113149166107, -0.06186993420124054, -0.02482689544558525, -0.22404183447360992], [-0.20398305356502533, -0.044626470655202866, 0.0860605388879776, 0.14290788769721985, -0.10844355821609497, 0.02605527825653553, 0.033999305218458176, -0.18885968625545502, -0.16132180392742157, 0.06979560852050781, 0.20283381640911102, -0.18779560923576355, -0.0803057998418808, -0.16154173016548157, -0.07198937237262726, -0.0967893898487091, -0.10189735889434814], [0.04079357162117958, -0.2055523693561554, 0.19019316136837006, -0.18454813957214355, 0.18705441057682037, 0.2175399214029312, 0.1392303705215454, -0.11419173330068588, -0.22961746156215668, 0.15344378352165222, 0.10264825075864792, 0.07384365051984787, 0.13142147660255432, 0.19970129430294037, 0.13333091139793396, 0.08390595018863678, -0.06312084197998047], [0.21536454558372498, 0.0244422797113657, 0.09349816292524338, -0.10112380981445312, 0.04957183822989464, 0.23632538318634033, -0.22344200313091278, 0.08524037897586823, 0.23598431050777435, 0.08674301952123642, 0.19388245046138763, 0.14396502077579498, 0.09479329735040665, 0.19728264212608337, -0.0779709666967392, -0.08931796997785568, -0.0293814018368721], [0.07530853897333145, 0.2786199748516083, 0.029701998457312584, -0.11736010760068893, 0.02191542275249958, -0.1365501582622528, -0.24453000724315643, 0.07268041372299194, -0.12155498564243317, 0.1114332303404808, 0.15298792719841003, 0.1441759318113327, 0.08407078683376312, 0.09617293626070023, -0.16270796954631805, 0.08109905570745468, -0.22854572534561157], [0.021517347544431686, 0.21524736285209656, -0.06176600232720375, 0.14100365340709686, 0.00029210298089310527, -0.21330100297927856, 0.20313982665538788, 0.12699095904827118, -0.009724256582558155, -0.21977147459983826, 0.1244094967842102, 0.1984787881374359, -0.22375741600990295, -0.2004479020833969, -0.027842186391353607, 0.09552056342363358, -0.11356522887945175], [0.1341472566127777, 0.16101983189582825, 0.13283014297485352, 0.14137186110019684, -0.14165377616882324, -0.011465395800769329, -0.19246844947338104, 0.011517554521560669, 0.1723325401544571, -0.04418659582734108, -0.008331946097314358, -0.18666774034500122, -0.013976909220218658, 0.13571278750896454, -0.09301972389221191, 0.20162475109100342, -0.12238704413175583], [-0.13961519300937653, 0.03286871314048767, 0.2103567272424698, -0.03965074568986893, -0.17103023827075958, 0.16304726898670197, -0.23589904606342316, 0.1860126107931137, 0.1967470645904541, 0.13444821536540985, -0.005383424926549196, 0.06730087101459503, -0.07680480927228928, 0.1385599970817566, -0.12827128171920776, 0.13002343475818634, 0.0631420910358429], [-0.1897316873073578, -0.06132040545344353, -0.1965760588645935, 0.05200603976845741, 0.05812276899814606, 0.21560801565647125, 0.10997343063354492, -0.23546506464481354, 0.1408970206975937, 0.17967230081558228, -0.11982016265392303, 0.2171867936849594, -0.23484596610069275, -0.23929548263549805, 0.23183345794677734, -0.09127930551767349, 0.15218891203403473], [0.19020749628543854, -0.21830368041992188, 0.08544603735208511, -0.08500324189662933, 0.09512336552143097, 0.11761616170406342, 0.12677451968193054, -0.08096997439861298, -0.19364166259765625, -0.23664042353630066, 0.04994920268654823, 0.10948426276445389, 0.053769443184137344, -0.03587769344449043, 0.08786537498235703, 0.11439155042171478, 0.05845896154642105], [-0.002390774432569742, -0.2422468066215515, -0.17214226722717285, -0.16219808161258698, 0.1327051967382431, 0.014209394343197346, -0.13256129622459412, 0.11945748329162598, -0.132329061627388, 0.1302875578403473, -0.20982390642166138, 0.003423789283260703, -0.021593589335680008, -0.2213544398546219, -0.1307598352432251, 0.10586002469062805, -0.17413997650146484], [0.018860474228858948, 0.16861353814601898, 0.1629769504070282, -0.16566284000873566, -0.03246230632066727, 0.14020097255706787, -0.10582665354013443, 0.13060101866722107, 0.06613556295633316, 0.13346447050571442, -0.06509978324174881, -0.12445840239524841, -0.05424051731824875, -0.18929027020931244, -0.021802211180329323, 0.2358853816986084, -0.0532156340777874], [-0.1456710547208786, -0.060004279017448425, 0.06734487414360046, -0.10256046801805496, -0.07796622812747955, -0.18022525310516357, -0.2173766940832138, -0.05801911652088165, 0.21393558382987976, -0.1464737504720688, -0.17741119861602783, 0.114192433655262, -0.22675661742687225, -0.11720433086156845, -0.21811500191688538, 0.07888743281364441, -0.1013784110546112]], "fc1.bias": [0.2309742420911789, -0.04316948354244232, 0.24475568532943726, 0.13483230769634247, -0.04690873622894287, 0.03897601366043091, -0.10675732046365738, 0.12488114833831787, 0.032904304563999176, -0.20033584535121918, -0.0933016762137413, 0.002929587848484516, -0.16396461427211761, 0.14715012907981873, -0.05893999710679054, -0.22785624861717224, -0.17128922045230865, 0.15048038959503174, -0.22623993456363678, 0.22354687750339508, -0.11360681056976318, -0.08568774163722992, 0.11354631930589676, -0.016651511192321777, -0.09628736972808838, 0.20834803581237793, 0.0911286398768425, 0.15084058046340942, -0.2136985808610916, -0.035550519824028015, -0.05766689032316208, 0.23663127422332764, 0.07868906855583191, 0.18233031034469604, -0.034487929195165634, -0.04909703880548477, -0.06515692174434662, 0.13634620606899261, 0.2342499941587448, 0.1197056695818901, 0.14868241548538208, -0.23219792544841766, -0.2017669677734375, 0.24210204184055328, 0.10250093042850494, 0.18237194418907166, -9.607623360352591e-05, -0.0542103536427021, -0.06944458931684494, 0.20497876405715942, 0.07401105016469955, -0.1790580302476883, -0.13272500038146973, 0.09072337299585342, -0.1736307144165039, 0.019180607050657272, -0.021686311811208725, -0.08675050735473633, -0.24217696487903595, -0.010843857191503048, -0.2098054587841034, 0.14414192736148834, 0.015410058200359344, 0.1594836264848709, -0.043750278651714325, -0.03831141069531441, 0.01992301642894745, -0.04992136359214783, -0.1581190675497055, 0.22731269896030426, -0.08177883177995682, 0.12345322221517563, -0.02870265208184719, 0.19431769847869873, 0.10997461527585983, -0.08981049060821533, 0.17235177755355835, -0.11403702944517136, 0.10246294736862183, 0.20240718126296997, -0.19418388605117798, 0.2141527533531189, 0.12765194475650787, 0.14545701444149017, 0.1652667075395584, 0.18165223300457, -0.033881478011608124, -0.09229319542646408, -0.0733037069439888, -0.16551312804222107, -0.039583899080753326, 0.13895033299922943, -0.13563524186611176, -0.18513058125972748, 0.2165134698152542, -0.22000916302204132, 0.14806929230690002, -0.05871212109923363, 0.24165984988212585, -0.17065177857875824], "fc2.weight": [[-0.11683682352304459, -0.000347370543750003, -1.159593105316162, 0.033740315586328506, 0.014552569948136806, -0.033087946474552155, 0.013778329826891422, -0.07018451392650604, 0.03591642156243324, 0.04734939709305763, -0.12221775949001312, 0.007226877845823765, 0.0832328051328659, 0.8257172703742981, 1.228901982307434, 0.04873836040496826, -0.10290736705064774, -0.07782848924398422, 0.06627102941274643, -0.05695496127009392, 0.0873265415430069, 0.36687228083610535, -0.0062358020804822445, -0.8141083121299744, 1.228275179862976, -0.09478282928466797, 0.06923588365316391, 0.0010257840622216463, -0.07019875198602676, -0.08899062126874924, 0.2450730800628662, -0.9269570112228394, 0.09691015630960464, -0.05624331533908844, 0.09239067137241364, -0.009201410226523876, 0.01657191663980484, -0.0992121696472168, 0.005857312586158514, 0.03855258598923683, 0.01998697593808174, -0.08399830758571625, -0.027055466547608376, 0.06849445402622223, -1.2855058908462524, -0.011038566008210182, -0.07104458659887314, 0.08173202723264694, 0.8823671340942383, 0.03173728659749031, 0.021595971658825874, 0.06935568153858185, -0.12184871733188629, -0.007877725176513195, 0.16113418340682983, 0.0978485494852066, 0.020757926627993584, 0.03077566623687744, 0.03121368959546089, -1.230482816696167, -0.07683330774307251, 0.011346411891281605, -0.056306034326553345, 0.06391951441764832, -0.0679226741194725, -0.04752678424119949, 0.3653333783149719, 0.08455393463373184, 0.05821045860648155, 1.3357512950897217, -0.29126107692718506, -0.09008289873600006, -0.08240071684122086, -0.039056017994880676, 0.028002269566059113, -0.00976554211229086, -0.09073006361722946, -0.06348998844623566, -0.007572100032120943, 0.01325899362564087, -1.0725985765457153, 0.014104578644037247, -0.07908597588539124, -0.07406623661518097, -0.0025805493351072073, 0.004249279852956533, -0.020338302478194237, 0.03442341834306717, -0.03308688476681709, -0.0004326459893491119, 0.05638417229056358, 0.3239208459854126, -0.11822205036878586, -0.07984060049057007, 0.0722961574792862, -0.0784333348274231, -0.0665632113814354, -0.09248916059732437, -0.11580822616815567, -0.004071664996445179]], "fc2.bias": [0.028407106176018715]}