{"fc1.weight": [[-0.11783650517463684, 0.13986080884933472, -0.02307494916021824, -0.17353779077529907, 0.16207054257392883, -0.19794434309005737, 0.0781504288315773, -0.23516446352005005, 0.01686096005141735, -0.05860300362110138, -0.025570619851350784, 0.018225224688649178, 0.05321094021201134, 0.1808437556028366, 0.22839099168777466, -0.10608718544244766, -0.08399410545825958], [0.027799280360341072, -0.09669473022222519, 0.07293634861707687, 0.23951174318790436, -0.15000928938388824, -0.011582636274397373, -0.09873158484697342, 0.07152856886386871, -0.19949457049369812, 0.049321457743644714, 0.03869752958416939, 0.1497478038072586, -0.13407017290592194, -0.08357501775026321, -0.087898388504982, -0.07340316474437714, 0.10916552692651749], [-0.1955191195011139, -0.05995524302124977, -0.23646613955497742, -0.12967027723789215, 0.1374940276145935, 0.1483820080757141, -0.12827889621257782, -0.04205424338579178, -0.03833360970020294, 0.22794602811336517, 0.05984661728143692, 0.022337421774864197, 0.10879354178905487, -0.06787235289812088, 0.12484318763017654, -0.05045014247298241, 0.20394501090049744], [0.10229149460792542, -0.16662970185279846, 0.09146960824728012, -0.10584388673305511, 0.19470232725143433, 0.16328270733356476, -0.11255499720573425, -0.18358616530895233, 0.017757276073098183, -0.09826294332742691, 0.11050114035606384, 0.05490463227033615, -0.1036934033036232, 0.07060172408819199, 0.15189681947231293, 0.009778467006981373, 0.10047772526741028], [0.08816991001367569, 0.020433446392416954, -0.07517524063587189, -0.19878436625003815, 0.10361545532941818, 0.09012904763221741, -0.046218883246183395, 0.14245882630348206, 0.20509277284145355, -0.20438887178897858, 0.16915078461170197, 0.012875690124928951, 0.2001926600933075, -0.04956139996647835, 0.201369971036911, -0.041253942996263504, -0.20335085690021515], [0.042550697922706604, -0.23130427300930023, 0.11314883083105087, 0.18947896361351013, 0.11933153867721558, -0.22419191896915436, -0.1337590515613556, 0.050011537969112396, 0.12185080349445343, 0.13227245211601257, -0.18015502393245697, -0.12129516154527664, 0.23572762310504913, -0.04645460844039917, 0.18407903611660004, -0.178386852145195, 0.13812041282653809], [0.07458832114934921, 0.11889241635799408, -0.11091884225606918, -0.06534858047962189, 0.08778221905231476, 0.18817341327667236, 0.0054161204025149345, -0.09229777753353119, -0.16670675575733185, -0.15472210943698883, 0.18193493783473969, -0.13812895119190216, 0.17406390607357025, -0.05199490860104561, 0.1028042584657669, -0.07793936878442764, -0.2382449507713318], [-0.20996056497097015, -0.08866414427757263, 0.222539022564888, -0.08749169111251831, -0.13465048372745514, -0.2307422161102295, 0.22919021546840668, -0.024240614846348763, -0.1397983878850937, -0.032379262149333954, 0.21089375019073486, -0.21413245797157288, -0.04186489060521126, -0.057796984910964966, -0.08618591725826263, -0.028370903804898262, 0.007019905373454094], [-0.1849551945924759, 0.06457048654556274, -0.04340341314673424, 0.07185571640729904, -0.20334449410438538, -0.20243291556835175, 0.208878755569458, 0.08879256993532181, 0.10489711910486221, -0.22596538066864014, -0.10646822303533554, 0.07363440841436386, 0.1316540241241455, 0.06706169992685318, -0.045693688094615936, -0.22576171159744263, -0.16477973759174347], [-0.21389709413051605, -0.22368356585502625, 0.03940623253583908, 0.1353806108236313, -0.20642998814582825, -0.10348228365182877, -0.03852419927716255, 0.007142804097384214, 0.19564472138881683, 0.0006340800318866968, -0.0040636807680130005, -0.00946337915956974, 0.12446831166744232, 0.2275105118751526, -0.21514154970645905, 0.002239099470898509, 0.1391785591840744], [0.11776332557201385, 0.11314395070075989, 0.0001006444072118029, 0.050050657242536545, -0.04132694751024246, -0.11487997323274612, -0.24161651730537415, 0.18044669926166534, -0.21384724974632263, -0.01567285880446434, -0.23660942912101746, 0.061537738889455795, -0.18060752749443054, -0.03396478295326233, 0.010455367155373096, 0.17728808522224426, 0.00664481520652771], [0.19803638756275177, 0.22716815769672394, 0.12519733607769012, 0.22898051142692566, -0.2145286649465561, -0.1898515522480011, 0.07999264448881149, -0.10408936440944672, -0.18211893737316132, -0.12768742442131042, -0.18911391496658325, -0.150517076253891, 0.1659710705280304, 0.14609314501285553, 0.12008621543645859, 0.18550734221935272, 0.1482992023229599], [-0.026337726041674614, -0.16598521173000336, 0.16215962171554565, -0.11046676337718964, -0.009329022839665413, 0.09127901494503021, 0.20839320123195648, 0.2225112020969391, 0.10447254031896591, 0.2028055638074875, 0.05128941312432289, 0.13381393253803253, -0.22251221537590027, 0.05405067279934883, 0.03318753093481064, 0.11822066456079483, -0.15053677558898926], [0.11132801324129105, 0.1997356414794922, 0.13378801941871643, -0.10911779850721359, 0.001504577579908073, 0.13178148865699768, -0.10339930653572083, -0.1401536613702774, 0.07476309686899185, -0.16710412502288818, -0.03237396106123924, -0.17344339191913605, 0.15750014781951904, 0.13529464602470398, 0.22222062945365906, 0.1063799262046814, 0.08122082054615021], [-0.16178011894226074, -0.022140642628073692, 0.11462689936161041, 0.0679633691906929, -0.060773756355047226, 0.11934388428926468, -0.16330112516880035, -0.0667729526758194, -0.10344360023736954, -0.0038722220342606306, -0.13472001254558563, 0.19848036766052246, 0.08260783553123474, -0.07584679126739502, -0.11585238575935364, -0.007497126702219248, -0.003034597961232066], [-0.1522972285747528, -0.07521985471248627, -0.08763597905635834, -0.10557763278484344, -0.14005914330482483, 0.011218483559787273, 0.15624624490737915, -0.01948358304798603, 0.04885434731841087, 0.05852213501930237, -0.01638789288699627, 0.05911874398589134, -0.10990563035011292, 0.05371791869401932, 0.18477310240268707, -0.11977393180131912, 0.12178638577461243], [-0.03453878313302994, -0.0563768595457077, -0.07814860343933105, -0.04961714521050453, -0.22940859198570251, 0.20301879942417145, -0.23016177117824554, -0.1182524710893631, -0.19839060306549072, 0.04323922097682953, -0.11075548827648163, 0.11185043305158615, -0.24197857081890106, -0.09419360011816025, -0.18766288459300995, 0.17851360142230988, 0.09600447118282318], [0.09967517852783203, 0.11668489128351212, -0.12320584058761597, -0.22338621318340302, -0.14710263907909393, 0.19975660741329193, -0.2049754559993744, -0.13879534602165222, 0.038088083267211914, -0.13246570527553558, -0.16067618131637573, -0.1441347301006317, -0.04296993091702461, 0.11874649673700333, 0.21792906522750854, 0.18876424431800842, -0.08974465727806091], [-0.21066968142986298, -0.23252299427986145, -0.1583251953125, -0.03969579190015793, -0.12358205020427704, 0.03385899215936661, -0.007456446997821331, -0.003773919539526105, 0.07629803568124771, -0.12704738974571228, -0.17295414209365845, 0.19924739003181458, 0.005819912534207106, 0.01485778670758009, -0.1282532662153244, -0.08879221975803375, 0.1498030573129654], [-0.15830235183238983, 0.0996764749288559, 0.24071447551250458, -0.21616652607917786, -0.17780837416648865, -0.13989931344985962, 0.20150980353355408, 0.048845961689949036, 0.1913355439901352, 0.1636909395456314, -0.02757827378809452, 0.012472158297896385, 0.17576159536838531, -0.07701800763607025, -0.2251986414194107, -0.026660272851586342, -0.21372142434120178], [-0.13105593621730804, 0.22953858971595764, 0.17810799181461334, -0.23978497087955475, 0.1433672457933426, 0.07097703218460083, 0.12704148888587952, 0.20315028727054596, 0.08071450144052505, 0.09447713941335678, 0.22268767654895782, -0.21150733530521393, -0.024715792387723923, -0.0012247045524418354, 0.20811083912849426, -0.07798898220062256, -0.03100518509745598], [0.1736028790473938, -0.05999424681067467, 0.0029100431129336357, 0.14569681882858276, 0.1234077662229538, -0.2091221958398819, 0.04643625020980835, 0.03711795434355736, 0.22490154206752777, -0.1342020481824875, -0.22357289493083954, -0.136399507522583, 0.16989871859550476, -0.030387846753001213, -0.16234786808490753, -0.07441391795873642, -0.09943953901529312], [0.12260284274816513, 0.0343782901763916, -0.10403385013341904, 0.04465312883257866, 0.18355265259742737, 0.1102837473154068, -0.15486197173595428, -0.13762043416500092, -0.03370986506342888, -0.12686222791671753, -0.04728873446583748, -0.06832760572433472, -0.0900111123919487, -0.1304195374250412, -0.07673568278551102, -0.052519526332616806, -0.09905502945184708], [-0.08091188222169876, 0.07436206191778183, -0.23004664480686188, 0.04016088321805, -0.02947121486067772, -0.14824743568897247, 0.19028817117214203, 0.21665209531784058, 0.22352202236652374, 0.0956006571650505, -0.2024615854024887, -0.004202245268970728, 0.01113316509872675, -0.07837817072868347, -0.059602268040180206, -0.0424177348613739, 0.01000143587589264], [-0.24125869572162628, 0.002513681538403034, 0.16275233030319214, -0.028750792145729065, -0.09357741475105286, -0.026309246197342873, -0.148795485496521, -0.016044441610574722, 0.10741846263408661, 0.15850766003131866, 0.0817038044333458, -0.21132038533687592, 0.19260229170322418, 0.14205239713191986, 0.1322108805179596, 0.2047176957130432, 0.046334389597177505], [0.02642328292131424, 0.08179045468568802, -0.12241440266370773, 0.20100276172161102, 0.16566653549671173, -0.06803512573242188, 0.12534485757350922, -0.16705460846424103, 0.16452910006046295, 0.23094722628593445, -0.0146814389154315, 0.1612444370985031, 0.2048625499010086, -0.13583329319953918, -0.19985803961753845, -0.21589605510234833, -0.042184505611658096], [-0.21331627666950226, -0.008170614019036293, -0.1342502385377884, -0.16850973665714264, -0.04415898397564888, 0.14336895942687988, 0.08320461958646774, -0.13895121216773987, -0.09794409573078156, 0.2313622087240219, -0.03422470763325691, 0.00925139244645834, 0.10746581852436066, 0.17391987144947052, 0.18128006160259247, -0.22917622327804565, 0.01126688253134489], [0.06775927543640137, 0.14331920444965363, -0.19463588297367096, 0.16832616925239563, -0.07533050328493118, 0.21738585829734802, 0.19176830351352692, 0.06154857948422432, 0.19305703043937683, 0.10344984382390976, 0.01798267848789692, -0.24044859409332275, 0.04989525303244591, 0.18792136013507843, -0.020937912166118622, 0.14469613134860992, 0.07251867651939392], [-0.03667124733328819, 0.12505891919136047, -0.10861443728208542, -0.2205258011817932, 0.008401853032410145, 0.19539473950862885, -0.1435328871011734, -0.11327911913394928, -0.07592759281396866, 0.029384583234786987, 0.20476171374320984, 0.13533954322338104, 0.15700024366378784, -0.11641979217529297, -0.028006862848997116, -0.18209579586982727, -0.13684719800949097], [0.05416235327720642, -0.07460597157478333, -0.1638670265674591, 0.18693551421165466, 0.1115388423204422, -0.13574598729610443, -0.20768336951732635, -0.13035577535629272, 0.248299703001976, -0.08795134723186493, 0.15432016551494598, -0.07904935628175735, 0.01534677017480135, -0.2397512048482895, -0.18867124617099762, 0.07946190237998962, 0.009047210216522217], [-0.0585353821516037, -0.0962086170911789, -0.09611500799655914, 0.22273072600364685, 0.2663225829601288, -0.09269513934850693, -0.20905987918376923, 0.11039191484451294, 0.1883200854063034, 0.15123823285102844, -0.011917092837393284, -0.060634925961494446, 0.1916022002696991, -0.0625077486038208, -0.18076077103614807, -0.10313861817121506, 0.12071821838617325], [0.10609482228755951, -0.09056684374809265, -0.005522084888070822, 0.08072482794523239, 0.14057563245296478, 0.01780298724770546, 0.12492819130420685, 0.033407263457775116, 0.056860391050577164, -0.027692101895809174, -0.012379204854369164, -0.11767254024744034, 0.0010723356390371919, -0.15531352162361145, 0.1037362813949585, -0.06519514322280884, 0.20291019976139069], [0.22626589238643646, -0.19434435665607452, 0.04407691955566406, 0.01469228882342577, -0.19466005265712738, 0.0866638571023941, -0.1898331642150879, 0.14348159730434418, -0.09366077929735184, 0.22221048176288605, 0.06124183163046837, 0.04923659563064575, 0.11128630489110947, -0.07056384533643723, -0.23068617284297943, 0.06546194106340408, -0.19316059350967407], [-0.12379340082406998, 0.22383376955986023, 0.046498093754053116, 0.15803031623363495, 0.026915743947029114, 0.028531229123473167, 0.16453833878040314, 0.07774273306131363, 0.04772062972187996, 0.04831579327583313, -0.10204842686653137, 0.2228948175907135, 0.12942838668823242, 0.14362217485904694, 0.2237778902053833, 0.06171508878469467, 0.11923927813768387], [-0.1416769176721573, -0.16652023792266846, -0.024875707924365997, 0.2115022987127304, -0.2114447057247162, -0.021380331367254257, -0.1437813639640808, 0.0013924548402428627, 0.039946261793375015, -0.0862499475479126, 0.016391824930906296, 0.08027876168489456, -0.06484368443489075, -0.047958578914403915, 0.018589146435260773, -0.0684749186038971, -0.02097512222826481], [-0.06924248486757278, -0.05613032355904579, 0.2184610813856125, 0.044949743896722794, 0.2115689516067505, 0.04776095598936081, -0.05276176333427429, -0.011360861361026764, 0.02958342246711254, -0.11521650850772858, -0.01250411570072174, -0.11306974291801453, -0.22315147519111633, 0.14521890878677368, 0.11488562077283859, -0.028895435854792595, -0.21603523194789886], [-0.0595402792096138, -0.10056618601083755, -0.16988487541675568, 0.06092102453112602, 0.04287051782011986, -0.009170330129563808, 0.12575338780879974, 0.22789005935192108, -0.1625526249408722, 0.23791901767253876, 0.18720315396785736, 0.07330736517906189, -0.2534697651863098, 0.1797962635755539, 0.18854838609695435, 0.1341993659734726, 0.08590315282344818], [-0.23511750996112823, -0.11862211674451828, -0.01801430806517601, -0.1452108919620514, -0.1612831950187683, -0.0275958813726902, 0.05917365103960037, 0.00020929757738485932, 0.044271424412727356, -0.05020753666758537, 0.017902012914419174, 0.2247144728899002, -0.11128903925418854, 0.16049721837043762, 0.04139023646712303, 0.04278058186173439, 0.10615947097539902], [-0.17667540907859802, -0.11398310214281082, -0.13898588716983795, 0.1087050661444664, 0.06900838017463684, -0.18100257217884064, 0.0024171427357941866, 0.05544682964682579, 0.1121482327580452, -0.1792343109846115, -0.1192314475774765, -0.13934414088726044, 0.028562946245074272, 0.12399570643901825, -0.033890191465616226, -0.20370298624038696, -0.13574901223182678], [-0.02631959319114685, 0.06290214508771896, -0.14479102194309235, 0.051223743706941605, 0.16604764759540558, -0.16310615837574005, -0.10174108296632767, 0.2196372151374817, -0.20655018091201782, -0.027311895042657852, 0.05157851800322533, -0.12492718547582626, -0.17005771398544312, -0.14630068838596344, 0.10385048389434814, 0.11011018604040146, -0.012521641328930855], [-0.10310882329940796, -0.028826138004660606, 0.24171878397464752, 0.052985016256570816, 0.05243547633290291, -0.12402039766311646, 0.1879618614912033, 0.18987885117530823, 0.1785808503627777, -0.21268771588802338, -0.05232173576951027, 0.06675101071596146, -0.20957855880260468, 0.12321417033672333, -0.2159724086523056, 0.1981137990951538, 0.1013185903429985], [0.1355825662612915, 0.09381579607725143, 0.12389720231294632, -0.1636914163827896, -0.2096889466047287, 0.2272990494966507, -0.23018315434455872, -0.19263872504234314, 0.06716705858707428, -0.06702344864606857, -0.14903624355793, 0.24004165828227997, -0.16681982576847076, -0.044979117810726166, -0.007491546683013439, -0.03208787366747856, -0.20941132307052612], [0.015157175250351429, -0.1959395408630371, -0.12595412135124207, -0.014646117575466633, 0.05028253793716431, -0.15612897276878357, 0.13152657449245453, 0.18631145358085632, -0.16923390328884125, -0.07568014413118362, -0.03204028308391571, -0.12153472751379013, 0.2237682044506073, -0.18733249604701996, -0.14115825295448303, -0.23152019083499908, -0.13609755039215088], [-0.2302864044904709, -0.15258944034576416, -0.15504692494869232, 0.2384992390871048, 0.17325133085250854, 0.19479972124099731, -0.06523845344781876, 0.08946030586957932, 0.12950971722602844, -0.2172088772058487, -0.22623856365680695, -0.18646717071533203, -0.23398691415786743, 0.21472235023975372, 0.08348018676042557, -0.20347760617733002, 0.1778695434331894], [0.13798779249191284, -0.13567392528057098, 0.0009178273030556738, 0.03636232390999794, -0.003988565877079964, -0.16749915480613708, 0.14685042202472687, -0.23554328083992004, 0.08475901186466217, 0.1774773746728897, 0.012074900791049004, -0.07161027193069458, -0.09342067688703537, 0.19841673970222473, -0.1300162672996521, 0.1683066189289093, 0.1474490612745285], [-0.1790197640657425, 0.2209654003381729, 0.012281151488423347, 0.14977481961250305, 0.07201377302408218, 0.20532621443271637, -0.17294727265834808, 0.05962991714477539, 0.2379254251718521, 0.22023430466651917, 0.24491409957408905, 0.13673895597457886, -0.12855945527553558, -0.14002570509910583, -0.17753267288208008, 0.10893084108829498, -0.23058979213237762], [-0.16036786139011383, -0.03895597904920578, 0.15321028232574463, 0.0825503021478653, 0.21696685254573822, 0.20364755392074585, 0.213054820895195, 0.1286730021238327, 0.007843180559575558, -0.16562671959400177, -0.19597001373767853, 0.1408068835735321, -0.1562168300151825, -0.05527404695749283, 0.06756599247455597, 0.19607242941856384, 0.12157775461673737], [0.2404797375202179, 0.10807408392429352, 0.07665235549211502, 0.20226770639419556, 0.18452344834804535, -0.0072069610469043255, 0.13909392058849335, -0.05126804858446121, -0.14680500328540802, -0.004938775207847357, -0.07203181833028793, 0.19622795283794403, 0.17022979259490967, 0.1155659481883049, -0.1855195015668869, 0.03138425573706627, -0.2065649777650833], [-0.26189467310905457, 0.15844328701496124, 0.050730425864458084, -0.23406052589416504, -0.1160179078578949, 0.20115484297275543, 0.0005617482238449156, -0.1069546714425087, 0.14618928730487823, -0.018625276163220406, 0.007046952843666077, -0.135149747133255, 0.25025537610054016, -0.04064144566655159, -0.11054453253746033, -0.04189386963844299, 0.16696161031723022], [-0.038251496851444244, 0.23284807801246643, -0.18820428848266602, -0.12439697980880737, -0.03419293463230133, -0.14367811381816864, 0.12565001845359802, 0.20432451367378235, -0.01788477972149849, -0.20324382185935974, 0.12280824035406113, 0.039447203278541565, 0.04667220264673233, -0.0232072826474905, 0.0736985057592392, 0.16461284458637238, -0.23812198638916016], [-0.2354322224855423, -0.1220368817448616, -0.19853834807872772, -0.1375444531440735, 0.2125234305858612, -0.14442779123783112, 0.23863813281059265, -0.159829244017601, -0.014720278792083263, 0.1837283819913864, 0.19727732241153717, 0.08123805373907089, -0.03103976510465145, -0.023387031629681587, 0.22972862422466278, 0.21474842727184296, 0.02434004470705986], [0.07343670725822449, 0.00596849387511611, 0.08790241181850433, -0.17594735324382782, -0.22919054329395294, 0.08049745857715607, -0.0035519006196409464, -0.1397010087966919, -0.18993546068668365, 0.19002795219421387, -0.2351951152086258, -0.13146701455116272, -0.12456721812486649, -0.18224340677261353, -0.20914039015769958, 0.13563717901706696, -0.06597390025854111], [-0.12763001024723053, -0.10565952956676483, 0.10869896411895752, -0.05487074330449104, 0.1563890427350998, 0.12995167076587677, 0.22616779804229736, 0.015161263756453991, -0.0744350478053093, 0.07646670192480087, 0.08167509734630585, 0.008671526797115803, 0.08962330967187881, 0.18436162173748016, -0.10011011362075806, -0.18055091798305511, 0.1584649533033371], [0.1996995061635971, -0.1596943438053131, -0.052574627101421356, 0.20220740139484406, -0.07665251195430756, -0.11543633788824081, 0.15376482903957367, 0.043093156069517136, 0.1784825474023819, 0.2268591672182083, -0.047076597809791565, 0.41048696637153625, 0.03421809896826744, 0.1082090511918068, -0.029471853747963905, -0.3175137937068939, -0.07896557450294495], [-0.061226166784763336, 0.011075650341808796, 0.04258299246430397, -0.05314379557967186, -0.05212770402431488, -0.07192183285951614, -0.10091692209243774, -0.026662005111575127, -0.07517863810062408, 0.10936667770147324, 0.16087651252746582, -0.2269412875175476, -0.207481250166893, -0.05131138861179352, 0.1554752141237259, 0.02593924105167389, 0.23540590703487396], [0.16574153304100037, 0.035890646278858185, -0.04642026126384735, -0.19256865978240967, -0.23186513781547546, -0.2355683147907257, 0.05101674050092697, 0.21488839387893677, 0.15425266325473785, -0.08848606795072556, 0.027735905721783638, -0.18549080193042755, -0.06363421678543091, -0.09550081938505173, 0.09597183018922806, 0.15757659077644348, -0.15525230765342712], [0.14410629868507385, 0.26975128054618835, 0.23855584859848022, -0.014574358239769936, -0.09073644131422043, -0.040173497051000595, -0.03939388319849968, -0.19903652369976044, 0.15514038503170013, -3.4868565990109346e-07, -0.21579691767692566, -0.20109513401985168, -0.2970012128353119, 0.18314900994300842, 0.25957298278808594, -0.17522647976875305, -0.19767668843269348], [0.06326234340667725, -0.11424297094345093, 0.02312375418841839, 0.14539757370948792, 0.19612495601177216, 0.11593880504369736, 0.1496027261018753, 0.2254987359046936, 0.2222009152173996, -0.08856653422117233, 0.10504263639450073, 0.15443214774131775, -0.0018429404590278864, -0.23380844295024872, 0.012811273336410522, -0.11373835802078247, -0.07220734655857086], [0.22225478291511536, -0.09376407414674759, 0.05166707932949066, 0.1002417504787445, -0.09540523588657379, -0.07964456081390381, -0.09779156744480133, -0.16204117238521576, -0.0379011407494545, -0.21922072768211365, -0.08796333521604538, -0.041602276265621185, 0.048416465520858765, -0.0089089535176754, 0.23768584430217743, -0.16190317273139954, 0.23632588982582092], [-0.07203242927789688, -0.09716779738664627, 0.1644783765077591, -0.005101957358419895, -0.08952929079532623, -0.006600029766559601, 0.1641627699136734, -0.21014416217803955, -0.22884155809879303, -0.16413943469524384, 0.09944003075361252, -0.1839349865913391, 0.21344083547592163, -0.05413943529129028, 0.03336641192436218, 0.047025371342897415, 0.14278914034366608], [0.1601129025220871, 0.1737426370382309, -0.08919737488031387, 0.13670790195465088, 0.16248555481433868, 0.13729357719421387, -0.01566239260137081, 0.1428881138563156, -0.09643050283193588, -0.1633114069700241, -0.2289666384458542, -0.07053221762180328, -0.16444119811058044, -0.09011025726795197, -0.1398019939661026, -0.06846924871206284, 0.10797540098428726], [0.14048369228839874, 0.15480946004390717, -0.027954714372754097, -0.12720632553100586, 0.21364815533161163, 0.11187766492366791, 0.20237627625465393, 0.2211141139268875, 0.11316675692796707, -0.15942826867103577, 0.16656549274921417, -0.20839588344097137, -0.03922848030924797, 0.1754431575536728, -0.062009040266275406, 0.20723524689674377, 0.08336994051933289], [-0.2713262140750885, 0.25554367899894714, -0.059071578085422516, -0.07547404617071152, 0.07261689752340317, -0.1031394749879837, 0.012948840856552124, 0.1820637434720993, 0.08023960143327713, 0.00842588022351265, 0.20276138186454773, -0.300566703081131, -0.1121840700507164, -0.02261779084801674, -0.032889001071453094, -0.07008742541074753, 0.03745574131608009], [0.1007082462310791, -0.0916619598865509, 0.08133265376091003, 0.01707138493657112, 0.22420868277549744, -0.15092122554779053, -0.18231609463691711, -0.04755663871765137, -0.06095671281218529, -0.10686137527227402, 0.10010617226362228, 0.07862967997789383, 0.024987192824482918, 0.10245011001825333, -0.10932492464780807, 0.16800697147846222, -0.04804340749979019], [-0.054323889315128326, 0.011825768277049065, -0.017360234633088112, 0.11249753832817078, -0.07439301162958145, 0.056139882653951645, -0.13388113677501678, -0.12558633089065552, 0.22257965803146362, -0.08023641258478165, -0.08236581832170486, 0.17129699885845184, 0.2101738601922989, 0.056697145104408264, 0.18056507408618927, -0.1766052544116974, -0.0669674202799797], [0.03971623256802559, 0.09335312247276306, -0.02841378189623356, -0.173850879073143, -0.011619617231190205, 0.2110733836889267, -0.07773058116436005, 0.05665833130478859, -0.03335418924689293, -0.02904829941689968, -0.1824290007352829, 0.15947672724723816, 0.1017618328332901, -0.004449617117643356, -0.17936834692955017, 0.20995023846626282, -0.03079683892428875], [0.1291397660970688, 0.016613641753792763, -0.06093878671526909, 0.035692885518074036, 0.21981965005397797, -0.027036771178245544, -0.1971655786037445, 0.14214466512203217, -0.02957260049879551, -0.1228259950876236, -0.2055732160806656, 0.06446556001901627, -0.06389867514371872, 0.19140632450580597, -0.18084126710891724, -0.09192876517772675, 0.2374596893787384], [0.22219276428222656, -0.040628086775541306, -0.11720051616430283, 0.23332831263542175, -0.0737689957022667, 0.02938784845173359, 0.08840303868055344, 0.07668519020080566, -0.09383948892354965, -0.051499899476766586, 0.10442744940519333, 0.03543766960501671, -0.25592637062072754, 0.16063137352466583, 0.040449440479278564, 0.11001809686422348, -0.24176232516765594], [-0.31829702854156494, 0.2436315268278122, 0.1056775450706482, -0.0937371626496315, -0.21657128632068634, -0.18708287179470062, -0.056274499744176865, -0.019060902297496796, 0.1098599061369896, -0.04923554137349129, -0.12221577018499374, -0.038759469985961914, 0.17115938663482666, 0.18007637560367584, 0.09985100477933884, 0.07876719534397125, -0.2373841404914856], [-0.13814771175384521, -0.14992967247962952, -0.18462519347667694, 0.21666081249713898, -0.047950077801942825, 0.012028351426124573, 0.22970075905323029, -0.15823018550872803, -0.1868050992488861, 0.21837449073791504, -0.2361738532781601, 0.2165246605873108, -0.1755971759557724, -0.06340190023183823, 0.09947573393583298, 0.15388032793998718, 0.015935122966766357], [-0.1757974475622177, 0.11448696255683899, -0.13243679702281952, -0.05871405825018883, -0.19618292152881622, 0.2130691558122635, -0.18745997548103333, -0.09277555346488953, 0.1245851144194603, 0.20218044519424438, 0.04039839282631874, -0.23569093644618988, 0.0012467359192669392, 0.2416631579399109, 0.06412636488676071, 0.2158900946378708, 0.021048791706562042], [0.11265082657337189, 0.060909390449523926, 0.01671244204044342, 0.133017897605896, -0.20213435590267181, 0.06342076510190964, 0.09998743236064911, -0.18518032133579254, 0.057973843067884445, -0.23092876374721527, 0.03665165603160858, 0.16017283499240875, 0.017658913508057594, 0.11933925002813339, -0.05630653724074364, -0.2571243941783905, 0.23218828439712524], [0.3551250696182251, -0.08240167796611786, 0.028816351667046547, 0.25498107075691223, -0.10298611968755722, -0.06335995346307755, 0.050310567021369934, 0.17177388072013855, -0.03474545106291771, 0.20801129937171936, -0.1566542088985443, -0.026266364380717278, -0.03280458226799965, -0.12071791291236877, 0.10147687792778015, -0.14945819973945618, -0.11099893599748611], [0.011616923846304417, -0.23211930692195892, 0.027531549334526062, 0.041220616549253464, 0.12784914672374725, 0.17377768456935883, 0.18864135444164276, 0.2059364914894104, 0.07276055961847305, -0.11303220689296722, -0.17856551706790924, -0.1494019329547882, 0.049514953047037125, -0.08077569305896759, -0.18814902007579803, 0.09847401082515717, -0.09280505776405334], [-0.15593448281288147, 0.35289186239242554, 0.07653037458658218, 0.13724283874034882, -0.12114482372999191, -0.21935178339481354, -0.09882371872663498, 0.11165368556976318, 0.029357776045799255, 0.21314135193824768, -0.12917588651180267, 0.1539164036512375, -0.2523323893547058, -0.12608611583709717, 0.41163280606269836, -0.0008288127719424665, -0.14521344006061554], [0.07605473697185516, -0.21750439703464508, 0.15098507702350616, -0.15875627100467682, -0.03894275054335594, 0.03824123740196228, 0.13036547601222992, -0.022499991580843925, -0.14010368287563324, -0.051632095128297806, -0.21657758951187134, 0.21568995714187622, -0.10835058242082596, -0.1610039621591568, 0.22198937833309174, 0.0018407688476145267, 0.18807728588581085], [-0.24014912545681, 0.17044484615325928, 0.060980189591646194, 0.17208893597126007, -0.18887503445148468, 0.22455841302871704, 0.08324521780014038, -0.20165762305259705, 0.22709229588508606, -0.16474367678165436, 0.2364446222782135, 0.02904919721186161, 0.1650872528553009, 0.12671619653701782, 0.0794612318277359, 0.17655764520168304, -0.06497485935688019], [0.067227803170681, 0.10373669117689133, -0.1644466668367386, -0.15851230919361115, -0.20160381495952606, -0.12564967572689056, -0.2006177306175232, -0.19090598821640015, 0.09658338874578476, -0.13867388665676117, -0.10489553213119507, -0.18226447701454163, 0.0032040253281593323, 0.016428429633378983, -0.06784766167402267, -0.053377099335193634, 0.17387276887893677], [-0.09408263117074966, 0.23368415236473083, -0.16305086016654968, -0.2131081372499466, -0.10995284467935562, 0.18577171862125397, -0.10940110683441162, 0.061703406274318695, -0.19274485111236572, 0.14631935954093933, -0.12163864076137543, 0.20260193943977356, 0.061440128833055496, 0.10533404350280762, -0.1763012707233429, 0.1875646561384201, 0.21491920948028564], [-0.20669925212860107, 0.20117543637752533, -0.18528278172016144, 0.07508384436368942, -0.10380393266677856, 0.09270042181015015, -0.15610066056251526, -0.006893064361065626, 0.058684092015028, -0.22704441845417023, 0.22099903225898743, -0.048268746584653854, 0.10494961589574814, -0.05204396694898605, -0.06464409083127975, 0.0644647404551506, -0.005323115270584822], [-0.15703245997428894, -0.1840314418077469, -0.13362541794776917, -0.12465666979551315, -0.18867886066436768, -0.10288827866315842, -0.15787172317504883, -0.08190084248781204, 0.07184174656867981, -0.048010073602199554, -0.199945867061615, -0.21866823732852936, -0.1677481234073639, -0.05207771435379982, -0.21594560146331787, -0.06030780076980591, 0.13902980089187622], [-0.10451041162014008, 0.02755514346063137, -0.2295478880405426, 0.21756374835968018, -0.13441094756126404, 0.10875372588634491, -0.08325672149658203, 0.07820559293031693, -0.16806022822856903, 0.10710759460926056, -0.054617300629615784, -0.01917153038084507, 0.06019764393568039, -0.08818002790212631, 0.107547327876091, -0.10169841349124908, -0.1381513476371765], [-0.14277520775794983, 0.02395813912153244, -0.1080479770898819, -0.07048297673463821, -0.20473764836788177, -0.04352400824427605, -0.030378246679902077, 0.03933655470609665, 0.1523299515247345, 0.10618367046117783, -0.050391074270009995, -0.16626259684562683, -0.21007518470287323, 0.11820710450410843, -0.16780860722064972, 0.18043261766433716, -0.014531480148434639], [0.10380460321903229, 0.17847639322280884, 0.03926042839884758, 0.14371027052402496, 0.1585915982723236, 0.031862616539001465, -0.14257939159870148, 0.12133621424436569, 0.17800581455230713, -0.13625676929950714, -0.08776941150426865, -0.043603576719760895, -0.11504040658473969, -0.044355358928442, 0.15415611863136292, -0.06700748950242996, 0.2414189875125885], [-0.012931057251989841, -0.02816328965127468, -0.1645756959915161, 0.0853869691491127, -0.05734461545944214, 0.08706048130989075, 0.025820104405283928, 0.08203800022602081, 0.03027358464896679, -0.11125003546476364, 0.08746453374624252, -0.22063128650188446, 0.013457727618515491, 0.08108091354370117, -0.020056774839758873, -0.18701593577861786, 0.22824831306934357], [-0.16189518570899963, 0.07461781054735184, 0.004900321830064058, 0.20512999594211578, -0.2045004814863205, 0.036949075758457184, -0.14767500758171082, 0.19133123755455017, -0.2156970500946045, -0.16166791319847107, 0.13399673998355865, 0.19218797981739044, 0.0649966299533844, -0.22179752588272095, -0.017608175054192543, 0.028526054695248604, 0.10820401459932327], [-0.144222229719162, 0.20946362614631653, -0.17487210035324097, 0.08720527589321136, -0.21207714080810547, -0.17556574940681458, 0.02260734885931015, 0.16909827291965485, -0.15778565406799316, 0.1710873693227768, -0.1572527438402176, -0.2111894190311432, 0.04117269814014435, -0.20300112664699554, 0.21635504066944122, 0.03014969453215599, 0.1477968543767929], [0.11071991175413132, -0.3286620080471039, -0.27763357758522034, -0.03857320547103882, 0.09674349427223206, -0.167302206158638, 0.13211816549301147, 0.08104107528924942, 0.15000668168067932, 0.025688325986266136, -0.0068955314345657825, 0.2313576340675354, 0.09966307878494263, 0.1604158878326416, -0.23110012710094452, 0.029920663684606552, 0.12325714528560638], [0.1884024292230606, -0.0120124202221632, 0.1868433803319931, -0.016794634982943535, -0.14936725795269012, -0.14543724060058594, -0.20949901640415192, 0.08510897308588028, -0.06760653108358383, 0.11678044497966766, -0.2320692390203476, -0.028444290161132812, -0.015737276524305344, -0.14303459227085114, -0.15050488710403442, 0.09085958451032639, -0.0856965035200119], [-0.1895972341299057, -0.1860354244709015, 0.06106415390968323, -0.13714276254177094, -0.23876319825649261, 0.06789186596870422, -0.11799199879169464, -0.15847845375537872, -0.16101232171058655, -0.17073270678520203, 0.15691448748111725, -0.011925133876502514, 0.20489969849586487, 0.04768526926636696, -0.06971708685159683, 0.09365105628967285, -0.15943698585033417], [-0.037672869861125946, 0.15347029268741608, -0.12603403627872467, 0.2014297991991043, 0.02756335586309433, -0.054369550198316574, -0.05247601121664047, 0.1376478374004364, -0.1974869668483734, 0.0962720587849617, 0.07201661169528961, -0.0575970821082592, 0.06458844244480133, -0.15566694736480713, 0.035612333565950394, -0.07228662818670273, 0.1897066980600357], [0.16701148450374603, -0.19755390286445618, -0.14179851114749908, 0.0428621731698513, 0.11932387948036194, -0.19954811036586761, 0.09836356341838837, 0.08325085043907166, 0.14632479846477509, -0.12586738169193268, 0.1699129194021225, 0.2029007524251938, 0.12910205125808716, -0.15747398138046265, 0.22523242235183716, 0.17579756677150726, -0.10563603788614273], [0.08481718599796295, 0.0072878580540418625, -0.14782260358333588, 0.17696817219257355, -0.04143117740750313, -0.14253784716129303, 0.16645824909210205, -0.06369625777006149, -0.036158837378025055, -0.04831567779183388, 0.23368874192237854, 0.037088923156261444, -0.22435304522514343, -0.09747117757797241, 0.0866740345954895, 0.1355423778295517, -0.06292299181222916], [0.14130637049674988, 0.16235966980457306, 0.1531180441379547, 0.1037169098854065, -0.07440747320652008, 0.08903751522302628, 0.045795172452926636, -0.23499666154384613, 0.16197583079338074, -0.07976672053337097, -0.0010380743769928813, 0.15515682101249695, -0.14139848947525024, 0.1612223982810974, 0.23567110300064087, 0.07484570145606995, -0.131630077958107], [-0.04051002487540245, 0.10801313817501068, 0.05482003465294838, 0.14455585181713104, -0.03578390181064606, 0.1677556037902832, 0.18570156395435333, -0.13119809329509735, 0.23824378848075867, -0.13351863622665405, 0.21673986315727234, -0.14105968177318573, 0.16038160026073456, -0.14557330310344696, 0.23287372291088104, -0.10417083650827408, 0.17209728062152863], [0.2077333629131317, 0.061792343854904175, -0.16292624175548553, 0.061083581298589706, -0.12396609783172607, 0.237685427069664, -0.18806631863117218, -0.219831183552742, 0.16082364320755005, -0.2335204780101776, -0.08681226521730423, -0.00046748618478886783, -0.0850365161895752, 0.161662757396698, -0.06496768444776535, -0.12354839593172073, -0.18669307231903076], [0.22109024226665497, 0.23082542419433594, -0.0819888487458229, -0.13966549932956696, 0.0192367285490036, 0.18487989902496338, -0.23388676345348358, -0.026419606059789658, 0.15687860548496246, -0.08904806524515152, 0.21608829498291016, -0.11649563163518906, 0.057307202368974686, -0.028905877843499184, 0.14564494788646698, -0.18226933479309082, -0.03585716709494591], [0.026874398812651634, 0.16493763029575348, 0.21143873035907745, -0.20110955834388733, -0.08971068263053894, 0.1784939467906952, 0.08227647095918655, -0.15620695054531097, -0.20842143893241882, 0.024316828697919846, 0.09828708320856094, 0.22327004373073578, 0.20333600044250488, 0.1361696571111679, 0.13961926102638245, -0.02946796640753746, -0.01597866602241993], [-0.1415485292673111, 0.22212553024291992, -0.1664026975631714, 0.06656093895435333, -0.020274193957448006, -0.12888361513614655, -0.11175753176212311, -0.17048285901546478, 0.051639214158058167, 0.052928924560546875, -0.10861692577600479, -0.008230017498135567, 0.16613546013832092, -0.2110147476196289, -0.08116849511861801, 0.19708815217018127, 0.06419755518436432], [-0.009388004429638386, 0.11869179457426071, 0.08935248851776123, -0.12664934992790222, 0.19127625226974487, -0.08254998177289963, 0.18495768308639526, 0.07895682752132416, -0.034966543316841125, -0.1968909353017807, -0.05668911337852478, -0.0743885338306427, 0.22961334884166718, 0.03537881001830101, 0.12838731706142426, -0.19876672327518463, 0.1260482668876648]], "fc1.bias": [0.18321442604064941, 0.073530413210392, -0.17463594675064087, -0.01721421256661415, 0.12280254065990448, 0.10216876119375229, -0.00696325721219182, -0.17336109280586243, 0.2255084365606308, 0.11849585175514221, 0.23639096319675446, 0.028351856395602226, -0.21447288990020752, -0.12112721055746078, 0.21373437345027924, 0.03848244994878769, 0.03564593195915222, -0.0865282267332077, -0.19104668498039246, -0.035792142152786255, -0.08085998892784119, 0.06317491084337234, -0.12411410361528397, -0.020032420754432678, 0.24207746982574463, 0.2200503796339035, -0.13499343395233154, -0.13602980971336365, -0.051565587520599365, 0.17550072073936462, -0.04790187627077103, 0.14953966438770294, -0.09947874397039413, -0.18488013744354248, -0.21372370421886444, -0.03725210204720497, -0.16076691448688507, 0.18896807730197906, 0.2170824408531189, -0.23750647902488708, -0.12391582131385803, -0.118492990732193, -0.14586743712425232, -0.11715370416641235, 0.2124868631362915, 0.123275525867939, 0.006749131251126528, 0.03414696082472801, 0.09002203494310379, 0.19929073750972748, -0.003426738316193223, -0.17255982756614685, 0.04425964877009392, -0.20431651175022125, 0.17477573454380035, -0.08506172895431519, -0.14546515047550201, 0.11278045922517776, 0.05851415917277336, -0.07252940535545349, 0.012051394209265709, 0.18187765777111053, 0.05008269473910332, -0.17403355240821838, 0.0860447958111763, 0.1460629403591156, -0.03365999087691307, 0.10640150308609009, -0.21839246153831482, 0.07589232921600342, 0.13393940031528473, -0.010520130395889282, 0.11375541239976883, -0.1971490979194641, 0.17968744039535522, 0.1768823117017746, 0.08902236819267273, -0.052909526973962784, -0.2102651447057724, -0.09977898001670837, 0.07470535486936569, 0.016891462728381157, 0.15914249420166016, 0.24217192828655243, 0.1372099369764328, -0.11026035994291306, -0.19280022382736206, -0.23888073861598969, 0.17520023882389069, -0.15510664880275726, 0.19304022192955017, -0.09835159033536911, 0.09017209708690643, 0.18020521104335785, -0.14154338836669922, 0.15558336675167084, -0.1680080145597458, 0.2351197898387909, -0.061500366777181625, -0.17665019631385803], "fc2.weight": [[0.10471232235431671, 0.06376154720783234, 0.050960004329681396, 0.15604612231254578, 0.1891402155160904, 0.08491192013025284, 0.08151601999998093, -0.4792526662349701, -0.02145550213754177, -0.019532335922122, 0.08279439061880112, 0.0846407562494278, 0.1596640646457672, 0.04412747919559479, -0.012564099393785, 0.08301576226949692, 0.020276010036468506, -0.0034530640114098787, 0.04363728687167168, 0.14305339753627777, 0.19332028925418854, 0.15325258672237396, -0.0736757293343544, 0.06949453800916672, 0.10859163105487823, 0.1620454490184784, -0.07804956287145615, 0.15123562514781952, 0.02364976331591606, -0.007123035378754139, 0.4274854063987732, 0.16546133160591125, -0.08709769695997238, 0.07439253479242325, -0.02955813519656658, 0.09686064720153809, -0.27533820271492004, -0.013002884574234486, 0.00820225477218628, -0.08765338361263275, 0.13399946689605713, 0.008428752422332764, 0.018106568604707718, 0.06705506145954132, 0.1192300021648407, 0.10104986280202866, 0.03730082884430885, 0.04398835077881813, -0.6125345230102539, 0.1210891455411911, 0.042611170560121536, 0.09688717126846313, 0.147975355386734, 0.8500890731811523, -0.0913543850183487, 0.06003258377313614, -0.30742311477661133, 0.11975620687007904, 0.33830639719963074, 0.0800488069653511, 0.07926906645298004, 0.17596164345741272, -0.6169488430023193, 0.1175260841846466, 0.1910392940044403, -0.0909307450056076, 0.07322102040052414, 0.5025631785392761, -0.5971978306770325, -0.05748964473605156, 0.08703698217868805, -0.06770965456962585, 0.730743408203125, 0.1822761595249176, -0.674232542514801, 0.1729622483253479, 0.08019659668207169, -0.026589978486299515, -0.04534243419766426, -0.02182292751967907, 0.032905708998441696, 0.02816038206219673, -0.014066684059798717, 0.15220312774181366, 0.08266907930374146, 0.029079927131533623, 0.09462384134531021, 0.9198737144470215, -0.0880294069647789, 0.0063596488907933235, 0.04539468511939049, 0.13296276330947876, 0.0782962292432785, 0.040973346680402756, 0.09977739304304123, 0.09018420428037643, 0.03605848550796509, 0.18365831673145294, -0.07960926741361618, 0.2211577594280243], [-0.0428963229060173, 0.014703917317092419, -0.0772438794374466, 0.041645992547273636, 0.08384566754102707, 0.13388977944850922, 0.051068682223558426, 0.5675634741783142, 0.08143533766269684, -0.08569607883691788, -0.03386123105883598, 0.08853764832019806, -0.0386405810713768, 0.13112810254096985, 0.0035870433785021305, -0.08927494287490845, -0.016461575403809547, 0.059605516493320465, 0.08076589554548264, 0.025585833936929703, 0.0797557607293129, 0.14168062806129456, -0.017145907506346703, 0.053596850484609604, 0.03506918251514435, 0.03243282437324524, 0.09482570737600327, -0.031094005331397057, -0.02393750473856926, 0.16104182600975037, -0.3952976167201996, 0.10192760825157166, 0.05504535511136055, 0.080097496509552, 0.08872222900390625, -0.021770065650343895, 0.5291756391525269, 0.0014217019779607654, -0.013180553913116455, 0.07635394483804703, 0.07809771597385406, -0.0669640302658081, 0.04134562239050865, -0.034871019423007965, 0.03769807144999504, -0.04446939751505852, 0.06479138135910034, 0.10348208993673325, 0.6749791502952576, 0.13262583315372467, 0.12370948493480682, 0.027871882542967796, 0.11628377437591553, -0.7752763032913208, 0.07960201799869537, -0.03549380972981453, 0.6334124803543091, 0.11380406469106674, -0.315542608499527, 0.028399797156453133, 0.03495899587869644, 0.13067369163036346, 0.7920618653297424, 0.11046665161848068, 0.0746045932173729, -0.07349569350481033, 0.09771789610385895, -0.5254395008087158, 0.6159795522689819, -0.06302326917648315, -0.02092691697180271, -0.07089536637067795, -0.6062877774238586, -0.014240742661058903, 0.775759220123291, -0.2700900137424469, 0.11000413447618484, 0.056973543018102646, 0.027033710852265358, -0.017025625333189964, -0.02631397359073162, 0.0895124226808548, 0.03114643134176731, 0.13163454830646515, 0.03295249864459038, -0.08443736284971237, -0.07860616594552994, -0.82973712682724, -0.017444683238863945, -0.008776605129241943, 0.09062009304761887, -0.020099882036447525, 0.0686865970492363, 0.1332704722881317, 0.10946442931890488, 0.013663912191987038, 0.128400981426239, -0.01337641291320324, -0.08609198778867722, 0.08171062171459198], [-0.1402689665555954, -0.04155613109469414, 0.08779671043157578, -0.12995149195194244, -0.11130941659212112, -0.09278034418821335, -0.15422198176383972, 0.026448728516697884, -0.0851665511727333, 0.02382080629467964, 0.05605513975024223, -0.08824317902326584, -0.04296534135937691, -0.07397165894508362, -0.08130814880132675, 0.024003589525818825, -0.037880267947912216, 0.09791207313537598, 0.03281601890921593, -0.15182776749134064, -0.04780133441090584, -0.09433229267597198, 0.09704208374023438, 0.0523042194545269, 0.009888398461043835, -0.08814316242933273, -0.025099778547883034, -0.14300307631492615, -0.07983764261007309, -0.07986456900835037, 0.04161382094025612, 0.02130129188299179, -0.015012717805802822, -0.04100881889462471, 0.04918372631072998, 0.004869663156569004, -0.007586220279335976, -0.016486942768096924, 0.06970157474279404, -0.011140977963805199, 0.00011275527504039928, 0.0635509267449379, 0.07072789967060089, -0.0750831887125969, -0.09998500347137451, -0.026656342670321465, -0.016234440729022026, -0.0537276454269886, 0.026738053187727928, 0.02628326788544655, -0.021654319018125534, -0.05511665344238281, -0.14346915483474731, 0.0322335809469223, -0.0928439274430275, -0.06303639709949493, -0.11712012439966202, -0.0867057517170906, -0.028937246650457382, -0.0443524532020092, 0.06763362884521484, -0.03848171979188919, -0.08570162951946259, 0.003940601833164692, -0.14044804871082306, -0.025780348107218742, -0.09217347949743271, 0.05946464091539383, 0.04188430309295654, 0.03739991411566734, 0.008320487104356289, -0.09584382176399231, 0.012963429093360901, -0.024571971967816353, 0.05457083880901337, -0.03528545796871185, -0.02648620679974556, -0.04904266819357872, 0.017664600163698196, 0.09654663503170013, 0.044843222945928574, 0.02593611553311348, 0.0024945735931396484, -0.1268274188041687, 0.0618802085518837, 0.046559810638427734, -0.004914581775665283, -0.08989318460226059, -0.011140525341033936, 0.055896878242492676, -0.09018363803625107, -0.12648311257362366, -0.0975390374660492, -0.13671651482582092, 0.030309196561574936, -0.010087752714753151, -0.07576092332601547, -0.11629950255155563, -0.06025880202651024, 0.03731338307261467], [-0.0434766560792923, -0.0918923020362854, 0.049467671662569046, -0.13528943061828613, -0.0032544212881475687, -0.002221392933279276, -0.08273360133171082, -0.11746551841497421, 0.09113235771656036, -0.07868031412363052, 0.05298334360122681, 0.0019780101720243692, -0.05680418759584427, -0.12300711125135422, -0.08524429798126221, -0.054607342928647995, -0.09912905842065811, 0.03974626213312149, -0.03157072141766548, 0.02118077501654625, -0.09666010737419128, -0.10335185378789902, 0.02027132548391819, 0.008990129455924034, 0.004178237169981003, -0.033721789717674255, -0.09295304864645004, -0.07364802807569504, 0.09749934822320938, -0.014545554295182228, -0.07155828177928925, -0.15184025466442108, -0.07039989531040192, -0.002301672240719199, 0.05691415071487427, -0.07631031423807144, -0.06265930086374283, -0.022511804476380348, -0.012623501010239124, 0.08020041137933731, -0.0014851727755740285, -0.01782832108438015, 0.001300942967645824, 0.07620038092136383, -0.15075910091400146, -0.11723819375038147, -0.02190965600311756, -0.08414234220981598, -0.040180765092372894, -0.09308236092329025, -0.09481222182512283, -0.09250458329916, 0.0019800823647528887, -0.025910042226314545, -0.055735863745212555, 0.004147736821323633, -0.07014244794845581, -0.007472471334040165, 0.038594018667936325, -0.03609973564743996, -0.02669971063733101, -0.15971651673316956, 0.059117984026670456, -0.03593061864376068, 0.029011286795139313, 0.02777271531522274, 0.038311589509248734, -0.060759030282497406, -0.045872028917074203, 0.06450547277927399, -0.08816180378198624, 0.06441929191350937, 0.04568846523761749, -0.06389737129211426, -0.0801214650273323, 0.010207295417785645, -0.06425969302654266, -0.08607416599988937, -0.05828934907913208, -0.07563689351081848, -0.0024685978423804045, -0.0018222451908513904, -0.03073793649673462, -0.027603665366768837, -0.06540196388959885, 0.039299823343753815, -0.016787802800536156, 0.0284939706325531, 0.051842689514160156, 0.06942043453454971, 0.002974951406940818, -0.15615995228290558, -0.08446124196052551, 0.013933307491242886, -0.15455558896064758, 0.05351290851831436, -0.12323706597089767, -0.0025582239031791687, 0.00027000228874385357, -0.05817325413227081], [0.04559963569045067, 0.05188853666186333, -0.06617828458547592, -0.08430316299200058, -0.05528920516371727, -0.0630728080868721, -0.14076773822307587, 0.0016842872137203813, -0.08514068275690079, -0.045653510838747025, 0.02133636549115181, 0.0280263964086771, -0.10213817656040192, -0.061399564146995544, 0.061408307403326035, -0.0019264102447777987, -0.07383314520120621, 0.08930496126413345, 0.025192618370056152, -0.055338434875011444, -0.07832059264183044, 0.023546366021037102, -0.009135914035141468, 0.022105202078819275, -0.07907728105783463, -0.12125689536333084, 0.0935586616396904, -0.044963289052248, 0.04239916801452637, -0.10552828758955002, -0.09038291126489639, -0.04075602442026138, -0.003012013388797641, -0.10098713636398315, -0.08588468283414841, -0.09032125025987625, -0.024518011137843132, -0.047997452318668365, 0.01955735683441162, -0.05649806559085846, 0.02178412675857544, -0.012731648050248623, -0.07249366492033005, 0.028861451894044876, -0.1357220709323883, -0.0891575738787651, -0.016382576897740364, -0.11555678397417068, -0.11857303977012634, 0.03171776607632637, 0.022459832951426506, -0.07443912327289581, -0.09207642078399658, 0.012793075293302536, -0.01436679344624281, -0.11123247444629669, -0.03645560145378113, -0.14288225769996643, -0.012914007529616356, -0.12537166476249695, 0.0342995785176754, 0.03713320568203926, -0.020242951810359955, -0.1060957983136177, -0.08540567010641098, -0.02823794260621071, -0.04627212509512901, -0.0033727979753166437, -0.07568760961294174, 0.006068218033760786, -0.040634024888277054, -0.09149838238954544, -0.003837755648419261, -0.0711909830570221, -0.08352399617433548, 0.054022613912820816, -0.046576566994190216, 0.05037437751889229, 0.09753648191690445, -0.01670501008629799, -0.08935561031103134, 0.03022909164428711, 0.09138204902410507, -0.03901594877243042, -0.07291587442159653, 0.0042625307105481625, -0.08910185098648071, 0.057621926069259644, -0.09671435505151749, 0.04836165904998779, 0.03656647354364395, -0.07414229214191437, -0.04900789633393288, -0.031522687524557114, -0.13169674575328827, -0.05609258636832237, -0.03919487074017525, -0.0021030998323112726, -0.05861794203519821, -0.14251673221588135]], "fc2.bias": [0.19407323002815247, 0.0945904478430748, 0.019182242453098297, -0.09289062768220901, -5.211665484239347e-05]}