{"fc1.weight": [[-0.18761244416236877, -0.08758174628019333, 0.11242556571960449, 0.08919066935777664, 0.09278413653373718, 0.10722102224826813, -0.21881252527236938, -0.23451927304267883, 0.16184991598129272, -0.2189950942993164, 0.22098374366760254, 0.19108720123767853, -0.021551452577114105, 0.2156728208065033, -0.2149737924337387, -0.0681324154138565, 0.1652381718158722], [0.15857583284378052, -0.13226568698883057, -0.012115869671106339, 0.17089785635471344, 0.17821823060512543, 0.17795009911060333, 0.06994155794382095, 0.1446491777896881, 0.18028943240642548, -0.20327594876289368, 0.02106628380715847, 0.1802763193845749, 0.08872352540493011, -0.12369593977928162, -0.09438730776309967, -0.14819249510765076, 0.17555944621562958], [-0.22657857835292816, 0.003370187245309353, 0.013796273618936539, -0.22612859308719635, 0.23618918657302856, -0.005651815328747034, 0.02515290305018425, 0.0844525396823883, -0.13449284434318542, -0.24211399257183075, 0.0509568527340889, -0.11986500769853592, 0.019068492576479912, -0.15410193800926208, 0.11161919683218002, -0.16381743550300598, 0.1347670555114746], [0.1116667240858078, -0.22597578167915344, -0.16128654778003693, 0.12997108697891235, 0.20593777298927307, 0.1403784453868866, 0.16748030483722687, -0.01682100258767605, -0.2305999994277954, -0.022483401000499725, 0.12407810240983963, 0.10897707939147949, -0.12319375574588776, -0.0552089661359787, 0.07052209228277206, 0.08356501907110214, -0.24028970301151276], [-0.05782531574368477, -0.12241176515817642, -0.1420731544494629, -0.214033305644989, 0.08926479518413544, 0.12817180156707764, -0.19363467395305634, 0.23911385238170624, -0.17023740708827972, -0.08442461490631104, 0.05158010125160217, 0.04907989129424095, -0.08699626475572586, 0.033887386322021484, 0.14823143184185028, -0.19734671711921692, 0.06226615980267525], [0.10937687754631042, -0.026599671691656113, 0.07592286169528961, 0.21627286076545715, -0.07599008828401566, -0.05831286683678627, 0.11337888985872269, -0.1673872023820877, 0.11894668638706207, 0.15314079821109772, 0.09965765476226807, 0.22465112805366516, -0.11971451342105865, -0.10197293758392334, 0.22503378987312317, 0.16170628368854523, -0.1550706923007965], [-0.16142868995666504, -0.23397615551948547, -0.11726727336645126, -0.018828367814421654, 0.008329430595040321, 0.039167676120996475, -0.052810586988925934, -0.16140003502368927, 0.2202111780643463, -0.02598513662815094, -0.039044421166181564, 0.08366112411022186, 0.16475661098957062, -0.11596424877643585, 0.15781141817569733, 0.025746377184987068, -0.014315503649413586], [-0.13396002352237701, -0.0047219316475093365, 0.012165194377303123, -0.12590815126895905, -0.18108265101909637, 0.020391464233398438, 0.2117992639541626, 0.10252846032381058, 0.12913614511489868, -0.11097877472639084, -0.03121216967701912, -0.20813024044036865, -0.08932924270629883, 0.04880684241652489, 0.029548805207014084, -0.17847740650177002, -0.07153157889842987], [-0.1796635091304779, -0.1835172027349472, 0.08292165398597717, -0.20787395536899567, 0.24120180308818817, 0.1833174228668213, 0.16075581312179565, -0.1652570217847824, 0.06112536042928696, 0.23462611436843872, -0.10340754687786102, -0.19368894398212433, -0.15212149918079376, 0.0536591112613678, 0.17762118577957153, -0.10818926990032196, 0.135053813457489], [-0.16121678054332733, -0.10648609697818756, -0.03880183771252632, -0.04163729026913643, -0.15900279581546783, 0.12286718934774399, -0.06535637378692627, 0.11804132908582687, 0.07132264226675034, 0.2168933004140854, 0.23447056114673615, -0.1204804927110672, -0.06631127744913101, -0.09044092893600464, 0.2424379289150238, 0.06640550494194031, 0.15555432438850403], [0.1656997799873352, 0.2291986048221588, 0.217845618724823, 0.2376556545495987, 0.12868238985538483, -0.1962740570306778, 0.14187227189540863, -0.04335738718509674, 0.040886178612709045, -0.03824001923203468, -0.010857192799448967, -0.08147420734167099, 0.09130410850048065, 0.04763837158679962, 0.17900201678276062, 0.14098793268203735, 0.05944317206740379], [-0.056685324758291245, 0.08821322023868561, -0.09072054177522659, 0.006605725269764662, -0.16683341562747955, 0.1996833086013794, 0.17055575549602509, 0.21852150559425354, -0.031220439821481705, 0.04434344545006752, 0.20936071872711182, -0.10765065997838974, 0.03748907521367073, -0.16346947848796844, 0.1152343824505806, -0.0016502965008839965, -0.20705127716064453], [-0.01106278970837593, 0.20367205142974854, -0.09424641728401184, 0.18545116484165192, -0.1191733330488205, -0.217350572347641, 0.0620318241417408, 0.15692709386348724, 0.18806424736976624, -0.20032340288162231, 0.1960296630859375, 0.13129012286663055, 0.046076491475105286, 0.18630260229110718, -0.03948921337723732, -0.07327266037464142, -0.014392468146979809], [0.1988363415002823, -0.23160600662231445, 0.11947792768478394, -0.22330528497695923, 0.1921548992395401, -0.06073246896266937, 0.23055289685726166, -0.17797762155532837, -0.1847297102212906, -0.1689184159040451, -0.1311437487602234, -0.24019281566143036, -0.07407645136117935, 0.05753621831536293, 0.2371717095375061, -0.13541267812252045, 0.1604178547859192], [-0.08491739630699158, -0.22544659674167633, -0.10786207020282745, -0.13398899137973785, -0.12154585868120193, 0.002788841724395752, 0.17068348824977875, 0.1321723610162735, -0.20874908566474915, 0.04010605812072754, -0.10716371238231659, 0.040056012570858, -0.0931926742196083, 0.04658008739352226, -0.20584140717983246, -0.14803346991539001, 0.15783125162124634], [0.020202558487653732, 0.1048988550901413, 0.02897355519235134, -0.020616410300135612, -0.07028055191040039, -0.004929407499730587, 0.2292000949382782, -0.1404186636209488, -0.14361104369163513, 0.11033914238214493, -0.008604850620031357, 0.1623237580060959, 0.05219092592597008, 0.09554138034582138, -0.03438714146614075, -0.12601429224014282, -0.19945628941059113], [0.20999500155448914, -0.15485048294067383, -0.1192827969789505, 0.17920365929603577, 0.08597356826066971, 0.09280978888273239, 0.1282591074705124, 0.0373823307454586, -0.09576814621686935, -0.014439711347222328, -0.1487802267074585, 0.0934329405426979, -0.08480064570903778, 0.039353322237730026, -0.18399235606193542, -0.1500224471092224, 0.12547776103019714], [-0.13014383614063263, 0.004254705738276243, -0.13785775005817413, 0.0210537351667881, 0.03474860265851021, 0.11613812297582626, 0.20025256276130676, -0.2051088809967041, -0.17288745939731598, 0.20397025346755981, 0.11066865921020508, 0.19065578281879425, 0.2110496461391449, 0.002964600920677185, 0.14858387410640717, 0.08726633340120316, -0.14668938517570496], [-0.12633313238620758, -0.14864106476306915, -0.018302826210856438, -0.16994090378284454, 0.06731408089399338, -0.21775488555431366, 0.22634270787239075, 0.014925065450370312, 0.19997867941856384, -0.07414443045854568, 0.0400836244225502, -0.16649843752384186, -0.12156274914741516, -0.19110490381717682, 0.003896739799529314, 0.004527234937995672, 0.1858903467655182], [-0.22463302314281464, -0.13280338048934937, 0.09499337524175644, -0.11223456263542175, -0.07550562918186188, 0.09688445180654526, 0.1853468418121338, -0.14731653034687042, -0.12973429262638092, 0.002282352652400732, -0.09226406365633011, 0.22590361535549164, -0.06186499819159508, 0.04465000703930855, 0.15700943768024445, 0.019323378801345825, 0.08137162774801254], [0.1505393385887146, -0.19926927983760834, 0.06681739538908005, 0.06864015012979507, 0.1839221715927124, -0.08726651221513748, 0.024079659953713417, -0.16454453766345978, -0.20306482911109924, 0.1649714857339859, 0.1636144369840622, -0.15005558729171753, -0.19980832934379578, -0.23661471903324127, -0.04810033738613129, -0.0643966943025589, 0.13608555495738983], [-0.0921972468495369, -0.19137096405029297, 0.030118554830551147, -0.025479746982455254, -0.047784872353076935, -0.2124486118555069, 0.2210252434015274, 0.17879799008369446, 0.10641253739595413, -0.17025186121463776, -0.11320336163043976, -0.20928055047988892, -0.1101197898387909, 0.14192435145378113, -0.022749915719032288, -0.19553448259830475, 0.10405955463647842], [0.07652837783098221, -0.18085739016532898, -0.10893020778894424, -0.10638750344514847, 0.09522458910942078, 0.10703667253255844, 0.2222420573234558, -0.1540798842906952, 0.032135259360075, -0.13852903246879578, 0.08296646922826767, -0.1343926638364792, 0.025306735187768936, 0.09234114736318588, 0.08499592542648315, 0.02275228686630726, -0.2274562269449234], [-0.050257641822099686, 0.16032208502292633, 0.16617579758167267, 0.09085886180400848, 0.24175524711608887, 0.0008713938295841217, 0.22156980633735657, 0.20049814879894257, 0.19324718415737152, -0.06485197693109512, -0.23067297041416168, -0.033442799001932144, -0.1330690234899521, 0.05006549134850502, 0.0687117949128151, 0.20208969712257385, -0.21379226446151733], [-0.21200795471668243, 0.12829206883907318, 0.06119813397526741, 0.2304961085319519, 0.12156058102846146, 0.02752871811389923, -0.18373537063598633, -0.0976063683629036, -0.22142235934734344, 0.0515572614967823, -0.13438385725021362, 0.008138492703437805, -0.22488826513290405, 0.009747675620019436, 0.1929352730512619, -0.11226315796375275, 0.10913199186325073], [0.008563216775655746, 0.1436365395784378, 0.021681685000658035, -0.2024107128381729, 0.07020775973796844, 0.009883563965559006, -0.18870431184768677, 0.060628846287727356, 0.18682102859020233, 0.04082988575100899, 0.06830890476703644, -0.012099388986825943, 0.17064538598060608, -0.18038730323314667, -0.11990979313850403, -0.09626003354787827, -0.012058854103088379], [-0.18521837890148163, -0.0525924451649189, -0.12150498479604721, -0.0123197166249156, -0.14329597353935242, 0.014811873435974121, 0.1465737372636795, 0.11632847040891647, -0.16996091604232788, -0.21413570642471313, 0.17973504960536957, -0.04011379927396774, 0.16450123488903046, -0.1641148030757904, 0.14149877429008484, 0.0321529358625412, -0.15149128437042236], [0.062481414526700974, -0.03027818165719509, 0.21217913925647736, -0.11527948081493378, -0.22325754165649414, 0.17721489071846008, -0.0020334988366812468, -0.013910381123423576, 0.11537347733974457, 0.08982011675834656, -0.23540058732032776, 0.22260542213916779, -0.17403821647167206, -0.1359393149614334, 0.07821151614189148, 0.16302897036075592, -0.24117828905582428], [0.020408248528838158, 0.13714969158172607, 0.037238843739032745, 0.006034233141690493, -0.016685670241713524, 0.23147477209568024, 0.034666500985622406, -0.05678749457001686, -0.027812154963612556, 0.017403479665517807, -0.1575631946325302, 0.22947855293750763, -0.1574936807155609, -0.05774722620844841, 0.015960123389959335, 0.18967804312705994, -0.029123179614543915], [0.08368511497974396, -0.013297667726874352, -0.05683014914393425, 0.02233843319118023, -0.18180665373802185, 0.0171981081366539, -0.11250530183315277, -0.08503270149230957, -0.15880346298217773, -0.15562601387500763, -0.04400438815355301, -0.0268360897898674, 0.08693595230579376, -0.0400242954492569, -0.19535230100154877, 0.09250499308109283, 0.09753819555044174], [-0.12095466256141663, 0.11474168300628662, -0.24245579540729523, -0.16844713687896729, -0.1447468400001526, -0.23633383214473724, -0.06142512336373329, -0.041797153651714325, 0.17969875037670135, 0.053362034261226654, 0.23730653524398804, 0.04724941402673721, -0.007983434945344925, -0.008797495625913143, 0.19964829087257385, 0.20080485939979553, -0.1541672796010971], [-0.23571623861789703, -0.002162886317819357, 0.00590375903993845, -0.1335413157939911, -0.14841456711292267, 0.18647697567939758, -0.19972170889377594, 0.15015199780464172, 0.17061847448349, 0.13897211849689484, 0.11286444962024689, 0.0340057834982872, 0.039291247725486755, 0.05481798201799393, -0.2359224408864975, 0.05246676132082939, 0.19042670726776123], [0.22350026667118073, 0.07407469302415848, 0.214468315243721, -0.08916539698839188, -0.20843760669231415, -0.10283152759075165, -0.21101412177085876, -0.11205892264842987, -0.11702735722064972, 0.17538483440876007, -0.16700449585914612, 0.04627879336476326, -0.14823640882968903, 0.21878790855407715, 0.062459297478199005, -0.043365683406591415, -0.039994977414608], [0.004730229265987873, -0.11533456295728683, 0.20772844552993774, -0.22693713009357452, 0.21759486198425293, 0.13504508137702942, -0.08544822782278061, -0.21928739547729492, -0.07067180424928665, -0.0991315022110939, 0.09353633224964142, -0.03851289302110672, -0.16969820857048035, 0.1902696043252945, -0.038110777735710144, 0.16809788346290588, -0.13721001148223877], [0.046921256929636, 0.2280150055885315, 0.23529650270938873, -0.1316484659910202, -0.16797837615013123, -0.23054425418376923, -0.04143505170941353, 0.14738276600837708, -0.22625964879989624, -0.05586111545562744, -0.07666198164224625, 0.2255760133266449, 0.05142417550086975, -0.12559381127357483, -0.1330670267343521, 0.05479314550757408, -0.13902699947357178], [-0.0007615262875333428, 0.22778788208961487, -0.16679048538208008, 0.018121082335710526, 0.06968964636325836, -0.2353481501340866, -0.1655673384666443, 0.17799372971057892, 0.15936855971813202, -0.002327196067199111, 0.1192244216799736, 0.06256765872240067, -0.098338782787323, 0.0013896503951400518, 0.08705819398164749, 0.0077434321865439415, 0.0544215627014637], [0.13400405645370483, -0.15304608643054962, 0.05254644155502319, -0.08219283074140549, 0.21539317071437836, 0.03234941512346268, -0.1999363750219345, 0.03641500324010849, 0.08468624204397202, -0.2041374295949936, -0.13448773324489594, -0.23217222094535828, -0.10255370289087296, 0.07562627643346786, -0.04775208607316017, 0.07044854015111923, 0.15296900272369385], [-0.15885628759860992, 0.07717463374137878, 0.14464978873729706, 0.10478170216083527, 0.1083543598651886, -0.19741541147232056, -0.13990847766399384, 0.08595356345176697, 0.0552535206079483, -0.00595820089802146, -0.21835127472877502, -0.06013481691479683, 0.11341503262519836, 0.17512479424476624, -0.18374791741371155, -0.03851734846830368, 0.06024480238556862], [-0.046583790332078934, -0.11825645714998245, 0.008884376846253872, -0.13354159891605377, -0.20164692401885986, 0.12524591386318207, -0.07969970256090164, 0.2389485090970993, -0.18729829788208008, 0.1044759526848793, -0.04327544942498207, 0.15193408727645874, -0.1845044493675232, -0.06532547622919083, -0.18307261168956757, -0.16812971234321594, 0.17080293595790863], [0.20564500987529755, 0.04857753589749336, -0.051805879920721054, 0.04481726512312889, -0.14459601044654846, -0.1576440930366516, -0.062287844717502594, 0.16058886051177979, 0.1327323317527771, 0.18114782869815826, 0.1490219086408615, 0.1240047812461853, -0.23425129055976868, 0.03705214709043503, 0.16138336062431335, 0.16923697292804718, -0.19887876510620117], [0.19910049438476562, -0.1556938886642456, -0.09769423305988312, -0.07053226977586746, 0.24213945865631104, 0.14803919196128845, 0.02772694267332554, 0.22124309837818146, -0.16220727562904358, -0.03130318596959114, -0.1905541867017746, 0.16334393620491028, -0.022919517010450363, 0.04040498659014702, -0.05379803478717804, -0.1320466250181198, 0.18008418381214142], [0.20000749826431274, -0.09484788775444031, 0.14564630389213562, 0.10103406012058258, 0.03876793012022972, -0.22298021614551544, 0.20561103522777557, 0.1696115881204605, 0.1275056004524231, -0.09822799265384674, -0.08775923401117325, -0.1611243486404419, -0.07259370386600494, -0.027130939066410065, 0.2264341562986374, 0.15628579258918762, 0.19196979701519012], [-0.10672961920499802, 0.13560594618320465, 0.10035424679517746, -0.14556515216827393, 0.13633783161640167, -0.09197548776865005, -0.21781031787395477, -0.029915163293480873, 0.13459435105323792, -0.20756910741329193, 0.1413806825876236, -0.12272980064153671, 0.0904446691274643, -0.2180142104625702, -0.1389949470758438, -0.22432775795459747, 0.09443790465593338], [-0.19030894339084625, -0.2241274118423462, -0.046654943376779556, 0.08452800661325455, 0.10947752743959427, 0.049468014389276505, 0.10628069937229156, -0.027314042672514915, 0.10417471081018448, -0.2331361621618271, -0.0980854481458664, 0.12897296249866486, 0.1937692016363144, 0.20177799463272095, -0.21754027903079987, -0.1904061883687973, 0.09561311453580856], [-0.05725472792983055, 0.03286110982298851, 0.19010962545871735, 0.20694147050380707, 0.09326247125864029, -0.026562144979834557, 0.20495319366455078, 0.18314127624034882, -0.1531303972005844, -0.23780325055122375, 0.12495528161525726, -0.021986480802297592, 0.13778196275234222, -0.06045904383063316, -0.22603973746299744, -0.16297423839569092, -0.073039710521698], [-0.10721367597579956, -0.0642763301730156, 0.09082569926977158, 0.02729981765151024, 0.00015630097186658531, -0.07959157228469849, -0.1873236447572708, 0.15246893465518951, -0.027167687192559242, 0.19563376903533936, -0.16734980046749115, -0.16701842844486237, -0.021679777652025223, 0.09888288378715515, -0.1263691931962967, 0.24064026772975922, -0.1428554207086563], [-0.14629344642162323, -0.022810885682702065, 0.16371332108974457, 0.04384061321616173, -0.022808028385043144, 0.08308440446853638, 0.1657831221818924, 0.18851090967655182, 0.16452768445014954, -0.13288621604442596, 0.04686983674764633, -0.07016374170780182, -0.1640935093164444, -0.10751902312040329, -0.05090872570872307, -0.20486214756965637, -0.1276007443666458], [0.20220762491226196, 0.1845099925994873, 0.1651371270418167, 0.036208365112543106, 0.062056053429841995, 0.18923316895961761, -0.1626170426607132, -0.20010912418365479, 0.2215741127729416, 0.12243735045194626, 0.008209357038140297, 0.15666012465953827, 0.12308047711849213, 0.0955766811966896, 0.1981169432401657, 0.14658920466899872, -0.21551991999149323], [-0.03939247131347656, 0.19437390565872192, 0.09247535467147827, -0.020693426951766014, -0.15180402994155884, 0.13871312141418457, 0.20139628648757935, 0.24227739870548248, 0.024178683757781982, -0.03680170699954033, -0.17078416049480438, 0.11665566265583038, 0.12074900418519974, -0.13880355656147003, -0.23891496658325195, -0.14476343989372253, 0.017813395708799362], [0.0031871115788817406, -0.20761440694332123, 0.15375077724456787, -0.025093793869018555, -0.059555817395448685, 0.10900787264108658, 0.16876089572906494, -0.1960405707359314, 0.051643505692481995, 0.1598023623228073, 0.20827598869800568, 0.07072567194700241, -0.2097884863615036, 0.11882366240024567, 0.11452865600585938, 0.15483765304088593, -0.1653715968132019], [0.01380832027643919, 0.02007504738867283, 0.15687155723571777, -0.18681484460830688, -0.0031424707267433405, -0.14967428147792816, -0.10637021064758301, -0.16333258152008057, -0.15441833436489105, 0.06415299326181412, 0.029008401557803154, -0.1997593194246292, -0.056075502187013626, -0.07826841622591019, -0.19810298085212708, -0.09318643063306808, 0.03863450139760971], [-0.23052002489566803, -0.10249168425798416, 0.10571054369211197, -0.11134815961122513, -0.055313512682914734, -0.19159634411334991, -0.10813535004854202, 0.018047066405415535, -0.07599017024040222, -0.15742690861225128, 0.21722203493118286, 0.159840926527977, -0.12058266997337341, 0.054983679205179214, -0.05889533832669258, 0.1727314293384552, -0.005195200443267822], [0.17897866666316986, -0.09978822618722916, -0.019635576754808426, 0.07394970208406448, -0.14346148073673248, 0.17990759015083313, 0.22120195627212524, -0.10878946632146835, 0.18752722442150116, -0.07836733013391495, 0.21395179629325867, 0.14010637998580933, -0.1711139678955078, -0.003132033161818981, -0.1968660205602646, -0.1729290634393692, 0.13358941674232483], [0.031963229179382324, -0.16776393353939056, -0.06260781735181808, 0.11209361255168915, 0.21367548406124115, -0.059677883982658386, 0.027629593387246132, 0.0982002317905426, -0.046373479068279266, 0.2250487357378006, -0.0742737203836441, -0.15884362161159515, 0.020800605416297913, -0.15576790273189545, 0.0660785660147667, -0.08002207428216934, 0.14591380953788757], [-0.19776825606822968, 0.08943202346563339, -0.16137227416038513, -0.20226554572582245, -0.024337327107787132, 0.16153766214847565, 0.0176014956086874, 0.025444647297263145, 0.23934166133403778, 0.17508284747600555, -0.17635633051395416, -0.09705136716365814, 0.06469029933214188, -0.1457374393939972, 0.04219140112400055, 0.04990057274699211, -0.018409686163067818], [-0.12385906279087067, 0.1378774344921112, -0.13729825615882874, -0.07651562988758087, 0.03388744220137596, -0.009795092046260834, -0.004148509819060564, 0.06160316616296768, 0.22404377162456512, 0.22704653441905975, -0.089326873421669, -0.0021075187250971794, 0.04349206015467644, -0.01119197066873312, -0.17695248126983643, -0.2304581254720688, -0.04487309604883194], [-0.06681042164564133, 0.13737322390079498, 0.24168625473976135, 0.23306192457675934, -0.031708020716905594, -0.17711862921714783, 0.2276363968849182, -0.22627867758274078, -0.15762212872505188, 0.07005489617586136, -0.009205942042171955, 0.16379965841770172, 0.24217826128005981, -0.19498826563358307, 0.23758696019649506, 0.08310096710920334, -0.15273354947566986], [0.0578826479613781, 0.13271614909172058, -0.0233607217669487, 0.23461180925369263, -0.08645918220281601, -0.028445620089769363, -0.15438702702522278, 0.13422034680843353, 0.17516058683395386, -0.1348607838153839, 0.027296781539916992, 0.1444896012544632, 0.2351948767900467, 0.0734306052327156, -0.21790754795074463, 0.23005883395671844, -0.0014291448751464486], [-0.09641306847333908, 0.0050540491938591, 0.10555560141801834, -0.05163943022489548, 0.19935286045074463, -0.10524745285511017, -0.12925557792186737, -0.14575114846229553, -0.0776572972536087, -0.1690419316291809, 0.20003987848758698, -0.12033555656671524, 0.027823133394122124, 0.050971779972314835, -0.1329282820224762, -0.2414829134941101, -0.0893825888633728], [0.1395636945962906, 0.04375851899385452, 0.009963507764041424, 0.04668894410133362, 0.017328185960650444, -0.0822487473487854, 0.15801288187503815, -0.0864802896976471, 0.17675641179084778, -0.2286713570356369, 0.1702171266078949, -0.16386109590530396, 0.1914825588464737, 0.1803179234266281, -0.18679042160511017, -0.1498059183359146, -0.23657961189746857], [0.006078902166336775, 0.05119007080793381, 0.2366916537284851, -0.1482241451740265, -0.09553834795951843, -0.14254850149154663, -0.029601093381643295, 0.2340971827507019, -0.05600631609559059, 0.05408817157149315, 0.011922185309231281, 0.16102702915668488, -0.08840135484933853, 0.0948316678404808, -0.06760537624359131, -0.011202777735888958, 0.22462382912635803], [-0.11794561892747879, 0.04223873093724251, -0.17266367375850677, -0.030353816226124763, -0.06635788828134537, 0.07469989359378815, -0.10196741670370102, 0.041438087821006775, 0.10692348331212997, 0.20509803295135498, 0.0007405069191008806, 0.09599435329437256, 0.044026825577020645, 0.11383721232414246, 0.004641728475689888, 0.0630701333284378, -0.11665155738592148], [0.05736453831195831, 0.10458046942949295, -0.008210744708776474, 0.1503802388906479, -0.0753481388092041, 0.23488996922969818, -0.14527221024036407, 0.12800060212612152, -0.1907835453748703, 0.1435714066028595, -0.10643026232719421, 0.09609328955411911, 0.04995611310005188, -0.042940642684698105, -0.09919794648885727, 0.07339579612016678, 0.025020530447363853], [0.2311234474182129, -0.18267729878425598, 0.14370691776275635, -0.14321275055408478, 0.12720343470573425, 0.1621009111404419, -0.026765862479805946, 0.00576428510248661, -0.05310584232211113, 0.23109422624111176, 0.13480322062969208, -0.22620122134685516, -0.030530817806720734, -0.21237213909626007, 0.1713329553604126, -0.06816555559635162, 0.0730852484703064], [-0.09525913745164871, -0.18464601039886475, 0.22584442794322968, -0.06655026972293854, -0.026046408340334892, -0.10591111332178116, -0.21543344855308533, 0.1904487907886505, 0.14382153749465942, -0.04611219838261604, 0.0926063060760498, 0.23496349155902863, -0.20164375007152557, -0.18542823195457458, 0.02018735557794571, -0.034664638340473175, -0.10159129649400711], [0.10321284830570221, -0.1423816829919815, 0.04753171652555466, -0.1317833513021469, 0.18109343945980072, 0.21575000882148743, -0.014413892291486263, -0.011239907704293728, -0.06832220405340195, 0.2306881695985794, 0.016192879527807236, 0.11857885867357254, -0.16236545145511627, -0.018852943554520607, 0.0941779837012291, 0.18006516993045807, -0.09513580054044724], [0.035764675587415695, -0.14336825907230377, -0.07472360134124756, 0.15412171185016632, 0.04252372309565544, 0.13387256860733032, 0.1171012595295906, 0.09062802046537399, -0.10811857879161835, 0.22433306276798248, 0.01678995043039322, 0.056282516568899155, -0.17435520887374878, -0.1631549447774887, 0.07912726700305939, 0.16668032109737396, 0.01535765454173088], [0.01682678610086441, -0.03589478135108948, -0.074094757437706, 0.1274590790271759, -0.028650030493736267, -0.039592139422893524, 0.1243688240647316, 0.2010195553302765, -0.10636387765407562, -0.16018567979335785, -0.057987600564956665, 0.008450891822576523, -0.005816327407956123, -0.2338213324546814, -0.040471166372299194, -0.006987457163631916, -0.01247984915971756], [-0.22927530109882355, -0.19833418726921082, -0.16547854244709015, -0.2236417979001999, -0.20295195281505585, 0.13552747666835785, -0.21966184675693512, -0.020064696669578552, -0.10199996829032898, -0.17638732492923737, 0.0516238734126091, -0.10657184571027756, 0.15016955137252808, -0.06726469844579697, 0.00473907683044672, 0.12581580877304077, -0.09910643845796585], [0.0504254512488842, 0.007452080957591534, -0.08585043251514435, 0.08345005661249161, 0.08953261375427246, 0.03563130274415016, -0.16529417037963867, 0.17245838046073914, 0.1770334541797638, -0.023196440190076828, -0.2420489341020584, -0.012717914767563343, -0.1801607757806778, 0.11462178081274033, 0.0237748920917511, -0.16399967670440674, 0.05656794086098671], [0.188884899020195, -0.17084503173828125, 0.09247972071170807, -0.06865102052688599, -0.03405475988984108, -0.18141798675060272, -0.1912562996149063, -0.13860368728637695, -0.01457392331212759, -0.038283415138721466, -0.03502630814909935, -0.180571511387825, -0.039695993065834045, 0.1570330113172531, -0.03125883638858795, -0.2142961472272873, -0.11205365508794785], [0.09244262427091599, -0.0777163952589035, -0.15351220965385437, -0.21843138337135315, 0.04986671730875969, -0.21960392594337463, -0.21852488815784454, 0.16181756556034088, 0.10239818692207336, -0.006791170220822096, 0.1338733434677124, -0.1473093032836914, 0.16725854575634003, -0.004571875557303429, 0.2327558547258377, -0.08388533443212509, -0.14446613192558289], [-0.07312525808811188, 0.18758226931095123, 0.0460616871714592, -0.08481643348932266, 0.0905858650803566, -0.0718800276517868, 0.004109622444957495, 0.14657893776893616, -0.21435414254665375, 0.052414052188396454, 0.0553613044321537, -0.09351863712072372, -0.16850565373897552, 0.03833936154842377, 0.01136709377169609, -0.05269407108426094, -0.127961665391922], [-0.15443915128707886, -0.030168890953063965, -0.03732944652438164, 0.12505921721458435, -0.11121287941932678, -0.1739504039287567, 0.02205084078013897, -0.15889377892017365, -0.11423151940107346, 0.12562550604343414, -0.1399819701910019, -0.14501404762268066, 0.14428317546844482, 0.09429190307855606, -0.21366466581821442, -0.182890847325325, -0.11870581656694412], [0.15785203874111176, 0.09605663269758224, -0.23292884230613708, -0.08087123930454254, -0.04605330154299736, -0.2345803827047348, 0.08119809627532959, -0.10950088500976562, 0.13999952375888824, -0.18428991734981537, -0.1992744505405426, -0.23697230219841003, -0.13147369027137756, 0.21116963028907776, 0.22197294235229492, 0.00236021401360631, 0.07162848860025406], [-0.17536118626594543, -0.17073649168014526, 0.1566474288702011, -0.20648561418056488, 0.10567041486501694, 0.18472832441329956, -0.1280713826417923, 0.14115677773952484, 0.2042158842086792, -0.17072038352489471, 0.12647804617881775, -0.0847550556063652, 0.03833751007914543, -0.11790782958269119, 0.13840268552303314, 0.21317173540592194, -0.15595659613609314], [-0.19287915527820587, -0.2415647953748703, 0.0810549184679985, 0.2283143699169159, 0.21406184136867523, 0.2191062867641449, 0.02338682860136032, -0.2128472477197647, 0.01110159046947956, -0.04623299464583397, 0.13796183466911316, -0.0246592964977026, -0.18122825026512146, 0.034603867679834366, -0.13519400358200073, -0.22549517452716827, -0.07484529167413712], [-0.05392429605126381, -0.21729928255081177, 0.11657167226076126, -0.14420126378536224, 0.09606970101594925, -0.010753773152828217, -0.005570976063609123, 0.1826825886964798, -0.08886288106441498, 0.0024805190041661263, -0.11508559435606003, 0.10395602136850357, -0.09387550503015518, 0.05646486580371857, -0.2248627096414566, 0.23826348781585693, -0.03898110240697861], [-0.061716966331005096, 0.04225119203329086, -0.22365182638168335, 0.13883940875530243, -0.005285118240863085, -0.14330601692199707, -0.010757820680737495, 0.19892114400863647, 0.13951803743839264, 0.021805228665471077, 0.19953036308288574, 0.13229523599147797, 0.2232837975025177, -0.13094045221805573, 0.13054132461547852, 0.02254093624651432, -0.08553013950586319], [-0.022052764892578125, -0.10980752110481262, 0.0337386429309845, 0.19474411010742188, -0.2263157218694687, 0.13075894117355347, -0.04456723481416702, 0.13523045182228088, -0.003302387660369277, 0.03216588869690895, 0.09924693405628204, 0.20064261555671692, -0.22455868124961853, -0.21819278597831726, 0.21050022542476654, 0.1242658868432045, -0.1773710399866104], [-0.022303419187664986, -0.03650113195180893, 0.013093400746583939, -0.14617696404457092, 0.23416103422641754, -0.18558618426322937, 0.01613702066242695, -0.13143329322338104, 0.02047750912606716, -0.014141450636088848, -0.011630197055637836, 0.21423545479774475, 0.1848408728837967, 0.01104668527841568, -0.0036171560641378164, -0.05450393632054329, 0.1624368131160736], [-0.1677895486354828, 0.013197515159845352, 0.18215660750865936, -0.22118093073368073, 0.19975879788398743, 0.04799055680632591, 0.06941801309585571, -0.2061864584684372, 0.23685844242572784, 0.040809500962495804, -0.14347408711910248, -0.00646367808803916, 0.022495774552226067, -0.1559569090604782, -0.2229011207818985, 0.10995420813560486, -0.20007047057151794], [0.13166691362857819, -0.1309002935886383, 0.1584644913673401, -0.05059531331062317, 0.14145445823669434, 0.007817824371159077, 0.19929763674736023, 0.04371006041765213, -0.08430179208517075, -0.2370532900094986, -0.00826272927224636, -0.15391011536121368, 0.06662657111883163, 0.16423164308071136, -0.16048966348171234, 0.11863131076097488, -0.04229855164885521], [-0.0901263877749443, -0.18451201915740967, -0.11891485005617142, 0.13875648379325867, -0.044945117086172104, -0.15888340771198273, 0.14239376783370972, 0.2010805606842041, -0.10661744326353073, 0.21085642278194427, -0.1152152419090271, -0.028493326157331467, 0.2179565578699112, -0.0711667612195015, -0.08022616803646088, -0.23770275712013245, -0.11197784543037415], [-0.01832922361791134, 0.09603581577539444, -0.10245335102081299, -0.04903337359428406, -0.16403833031654358, 0.19736458361148834, -0.12594828009605408, -0.020249735563993454, 0.1977693885564804, 0.24234332144260406, 0.03938934952020645, 0.13993015885353088, 0.1627027690410614, 0.10634948313236237, -0.10547294467687607, 0.018414746969938278, -0.1884278506040573], [-0.21562284231185913, -0.07985877990722656, 0.10794311761856079, -0.011295879259705544, -0.09534694999456406, 0.16027647256851196, 0.1713147759437561, -0.023960309103131294, -0.23116953670978546, -0.13242514431476593, 0.20195242762565613, 0.02167103812098503, 0.09410656988620758, -0.2193918079137802, 0.15919934213161469, -0.2121007740497589, -0.18215160071849823], [-0.03250499442219734, -0.1710035502910614, -0.23398137092590332, -0.2129753679037094, 0.08909649401903152, 0.21966935694217682, -0.12658314406871796, -0.02318565547466278, 0.20626720786094666, 0.08942173421382904, -0.16771984100341797, -0.12648729979991913, -0.023995408788323402, 0.11479112505912781, 0.009146642871201038, -0.01762702502310276, -0.0011756689054891467], [-0.16894929111003876, -0.15449495613574982, -0.20604422688484192, 0.022312555462121964, 0.06532513350248337, -0.11841805279254913, 0.05816379562020302, 0.055788807570934296, -0.12685497105121613, 0.17268303036689758, -0.14545337855815887, -0.23697178065776825, -0.05162404850125313, 0.1484898030757904, -0.045564595609903336, 0.10153031349182129, -0.23014046251773834], [-0.09705176949501038, -0.1983177661895752, -0.20249496400356293, -0.22185395658016205, 0.22357332706451416, -0.03079351782798767, 0.08457253128290176, -0.11974073946475983, 0.211732417345047, 0.18995904922485352, -0.0451652854681015, 0.22034238278865814, -0.024326369166374207, 0.11170688271522522, 0.19312705099582672, -0.14579856395721436, -0.07646144926548004], [-0.07527375221252441, -0.11691618710756302, -0.005856458097696304, -0.0038449575658887625, -0.21147114038467407, 0.015849513933062553, 0.1062886193394661, 0.18768490850925446, -0.04008853808045387, 0.031231947243213654, -0.17409585416316986, 0.0836423859000206, 0.0570068322122097, 0.15959835052490234, 0.17992864549160004, -0.09724143892526627, 0.021650316193699837], [-0.021668992936611176, 0.06373690813779831, 0.15622881054878235, 0.012961849570274353, 0.02846238948404789, 0.07945157587528229, -0.08904165029525757, 0.16037176549434662, -0.1985267549753189, -0.007984649389982224, 0.23893627524375916, 0.03480139747262001, -0.011555573903024197, -0.0538179874420166, 0.07310637831687927, -0.11078216880559921, 0.14978177845478058], [-0.14368696510791779, -0.03240536153316498, 0.15491490066051483, 0.2352685183286667, -0.22054046392440796, -0.24011822044849396, 0.2189170867204666, 0.14962756633758545, -0.21344788372516632, -0.0762941837310791, -0.1786007136106491, -0.05630940571427345, -0.1302940547466278, -0.07868004590272903, 0.22613893449306488, -0.006290897261351347, -0.2335597574710846], [-0.11366032809019089, -0.2409164011478424, 0.19679975509643555, 0.03184168040752411, 0.027625227347016335, 0.19852475821971893, 0.03594847023487091, -0.10792744159698486, 0.009833545424044132, -0.12383593618869781, -0.026706011965870857, -0.17186613380908966, 0.22846411168575287, 0.013359049335122108, -0.11255685240030289, 0.04476981982588768, -0.12586888670921326], [-0.15617632865905762, -0.09441862255334854, 0.1945938915014267, -0.18755283951759338, -0.22521376609802246, 0.10498296469449997, -0.08985891938209534, 0.2230943888425827, -0.2066991627216339, -0.03868917375802994, -0.006901702843606472, 0.13232475519180298, -0.09260572493076324, 0.0632602870464325, -0.018041543662548065, 0.044273506850004196, -0.08243002742528915], [-0.024662014096975327, -0.05217058211565018, 0.03406566008925438, 0.18448522686958313, 0.19107279181480408, -0.1838976889848709, 0.060721829533576965, -0.04954977706074715, -0.08993200957775116, -0.22130057215690613, -0.06374330073595047, 0.032152753323316574, 0.18367260694503784, -0.04124622419476509, -0.03705862537026405, 0.11643398553133011, 0.019589779898524284], [0.14701531827449799, -0.2143649458885193, 0.17482399940490723, -0.0033254295121878386, -0.05195004120469093, -0.15658479928970337, -0.14139369130134583, 0.2246761918067932, 0.21816810965538025, -0.16956329345703125, 0.0021183472126722336, -0.05793367698788643, -0.12259680777788162, -0.00028824806213378906, -0.06588378548622131, -0.1633460968732834, -0.11799336969852448], [-0.1551925241947174, -0.1465543955564499, 0.025991758331656456, 0.0576469823718071, -0.17975910007953644, -0.23028333485126495, 0.15228161215782166, -0.17703302204608917, 0.1689658910036087, -0.016567092388868332, 0.1320895552635193, 0.2017899602651596, 0.18750324845314026, -0.20721344649791718, -0.23933348059654236, -0.15714435279369354, 0.03361005708575249], [0.17447657883167267, -0.22406917810440063, 0.06449273973703384, 0.062150511890649796, -0.23979920148849487, 0.0889948382973671, -0.054342515766620636, -0.1538618505001068, 0.11688357591629028, 0.1811520755290985, -0.1801760196685791, -0.07047779858112335, -0.03587043657898903, 0.23783574998378754, 0.05057796463370323, -0.16467338800430298, 0.11788854748010635], [-0.12710659205913544, 0.0641285851597786, 0.18626129627227783, -0.24157848954200745, -0.11117645353078842, -0.07860429584980011, 0.20301632583141327, -0.060275256633758545, -0.09380944818258286, -0.11808928847312927, 0.01139808539301157, -0.23221167922019958, 0.06664147228002548, -0.04446953535079956, -0.0009268948342651129, -0.03490503132343292, 0.11197810620069504], [-0.188431978225708, 0.13097882270812988, -0.1988859921693802, 0.20384468138217926, -0.1580207794904709, 0.03969414159655571, -0.13645103573799133, 0.02642362378537655, 0.1393280029296875, 0.23065578937530518, 0.08968498557806015, -0.15817172825336456, 0.043374646455049515, 0.17072056233882904, 0.18068602681159973, 0.1300642043352127, -0.13819076120853424]], "fc1.bias": [-0.04905771464109421, 0.2112245112657547, -0.03818170353770256, -0.08844289928674698, -0.026701530441641808, -0.12735837697982788, -0.17617790400981903, -0.05059799924492836, 0.12031693756580353, 0.10987158864736557, -0.11472583562135696, 0.23846234381198883, -0.21300248801708221, -0.027747556567192078, -0.23769144713878632, 0.003557452466338873, 0.14530982077121735, -0.23439787328243256, -0.23573002219200134, 0.0205790214240551, 0.21579387784004211, -0.018463868647813797, 0.21890155971050262, -0.10215763002634048, 0.14033369719982147, -0.06539247184991837, 0.06341052055358887, 0.1576959639787674, 0.14045390486717224, 0.11231627315282822, -0.08458784967660904, -0.09836965799331665, -0.0009399164118804038, -0.02652958780527115, -0.22492316365242004, 0.04103967174887657, -0.0843944251537323, 0.012922065332531929, 0.0654735118150711, -0.07860343158245087, -0.06156361475586891, -0.20162834227085114, -0.22216549515724182, -0.19641593098640442, -0.1622515618801117, -0.0883696973323822, -0.19606560468673706, 0.19935567677021027, 0.13769076764583588, -0.004939295817166567, 0.10421542078256607, -0.08660435676574707, 0.20369893312454224, 0.09956224262714386, -0.03650093078613281, -0.03766405209898949, 0.12232884019613266, -0.07573869079351425, 0.21549485623836517, -0.10430210083723068, 0.21220524609088898, -0.2094814032316208, -0.009242805652320385, -0.07057199627161026, -0.22221362590789795, 0.058295778930187225, 0.06911292672157288, 0.23251356184482574, -0.17344796657562256, -0.19394539296627045, -0.05821378529071808, 0.09880028665065765, -0.1123170480132103, -0.20484748482704163, 0.0032971235923469067, 0.061785951256752014, -0.04829356074333191, 0.045106563717126846, -0.19097916781902313, 0.013159207999706268, -0.03265022113919258, 0.20154809951782227, -0.23082207143306732, -0.057678673416376114, 0.1972534954547882, 0.18932636082172394, 0.0651022419333458, 0.1539934277534485, 0.025119611993432045, 0.13963207602500916, 0.16888459026813507, 0.1606002002954483, -0.04426136240363121, 0.16241559386253357, 0.025000203400850296, -0.1230689287185669, -0.18259695172309875, -0.20195074379444122, -0.11590665578842163, -0.22192491590976715], "fc2.weight": [[-0.021325886249542236, 0.025156836956739426, -0.05802434682846069, 0.006988112349063158, -0.05639851093292236, 0.04029202088713646, -0.06707940995693207, -0.008730459026992321, -0.02394612692296505, -0.040786292403936386, 0.09122221916913986, 0.07262862473726273, -0.019410986453294754, -0.025659652426838875, -0.051190365105867386, -0.0018771406030282378, 0.02446817234158516, 0.018262747675180435, -0.060922544449567795, -0.09370272606611252, 0.017757169902324677, -0.07835157215595245, 0.06804182380437851, 0.047443125396966934, 0.06231842190027237, -0.044947486370801926, -0.047964394092559814, -0.08955369144678116, -0.026654966175556183, -0.06460624933242798, 0.05908142775297165, 0.09587462991476059, 0.07527177780866623, -0.06945782154798508, -0.025679875165224075, 0.04130281135439873, 0.0002942964492831379, 0.07273127883672714, 0.07188894599676132, 0.018038956448435783, 0.07557792961597443, 0.024068336933851242, 0.011827224865555763, -0.042911577969789505, 0.04125966876745224, -0.02297952212393284, -0.03529111295938492, -0.0290501918643713, 0.004066681955009699, -0.049532536417245865, -0.04982656240463257, 0.002216136548668146, 0.08717747777700424, -0.002409936860203743, -0.04408777877688408, 0.035796117037534714, 0.035340093076229095, 0.01100327167659998, 0.04397089406847954, 0.07051967829465866, 0.0987311601638794, -0.06648802012205124, -0.0672011524438858, 0.038265012204647064, 0.01942037232220173, 0.057408880442380905, -0.06817641854286194, 0.08015988022089005, 0.042016852647066116, 0.07408815622329712, 0.027876270934939384, -0.014631684869527817, -0.0675434023141861, -0.030252767726778984, 0.08662199974060059, 0.04692227765917778, -0.0847383514046669, 0.08999203890562057, -0.07504785805940628, 0.08976917713880539, -0.0006850727368146181, -0.098911352455616, -0.03635137528181076, 0.07914503663778305, -0.06574664264917374, -0.03242773562669754, 0.04861887916922569, -0.04243825748562813, 0.08738013356924057, 0.05156202241778374, -0.09533438086509705, 0.0673559233546257, -0.02381391078233719, -0.043002426624298096, -0.0036545086186379194, -0.09762854129076004, -0.04409182071685791, 0.08030688762664795, -0.06172403320670128, -0.04646784067153931]], "fc2.bias": [-0.01966840773820877]}