{"fc1.weight": [[0.10528101772069931, -1.7277400493621826, 1.7304105758666992, 1.8710682392120361, -0.8171321749687195, -0.9137159585952759, 1.0114855766296387, 0.19090676307678223, -0.8269551992416382, -1.097913384437561, 0.4133128821849823, -4.06578254699707, -1.069636583328247, -1.1837315559387207, 0.08321546763181686, 0.32774344086647034, -3.3590171337127686, -0.6925365328788757, 1.3690320253372192, 1.5424227714538574, 2.4494826793670654, -0.5624948143959045, -0.6142842173576355, 0.7678669095039368, -0.6396304368972778, -0.830952525138855, 1.0302274227142334, 0.15748231112957, -5.31121301651001, -0.42933163046836853, 0.8848118185997009, -1.142671823501587, 1.1028828620910645, -0.2664424180984497, -16.636167526245117, -0.908983051776886, 25.02605438232422, -13.68252944946289, -0.025490621104836464, -0.04160928353667259, -0.0404219850897789, 0.03549254685640335, 0.0008764122612774372, -0.051859211176633835], [-0.0847683846950531, 2.0192039012908936, -1.6048356294631958, -2.0607120990753174, 0.6878429651260376, 1.0146996974945068, -1.1270554065704346, -0.1705254316329956, 0.9852778315544128, 1.2031456232070923, -0.5118670463562012, 4.377978801727295, 1.247158408164978, 1.3474591970443726, 0.01555974967777729, -0.4008959233760834, 3.617077350616455, 0.9330177903175354, -1.499353051185608, -1.7142598628997803, -2.6320459842681885, 0.7270151972770691, 0.6646384596824646, -0.8359453082084656, 0.4964132010936737, 0.9736549258232117, -1.2027242183685303, -0.13055099546909332, 5.592145919799805, 0.4748598635196686, -0.9095989465713501, 0.8937612771987915, -1.3364118337631226, 0.346599280834198, 17.111164093017578, 1.3212332725524902, -26.2327938079834, 14.243827819824219, 0.017529303207993507, 0.07931850105524063, -0.12278277426958084, -0.029471486806869507, 0.009784984402358532, 0.0015530673554167151], [-0.2163170725107193, 2.0332791805267334, -1.6077983379364014, -2.0094516277313232, 0.5686380863189697, 1.137682557106018, -0.9771959185600281, -0.12110379338264465, 1.0607413053512573, 1.224880337715149, -0.6676464676856995, 4.302562236785889, 0.9808177351951599, 1.2378838062286377, -0.12347681820392609, -0.18050158023834229, 3.4009013175964355, 0.8005800247192383, -1.1772314310073853, -1.599488377571106, -2.495849609375, 0.7686858177185059, 0.6235978603363037, -0.8292677998542786, 0.5215597748756409, 0.939452588558197, -1.113704800605774, -0.1861027330160141, 5.563567161560059, 0.37710055708885193, -0.9188127517700195, 1.0647587776184082, -1.142939805984497, 0.5629023909568787, 17.096630096435547, 1.206376552581787, -26.245634078979492, 14.098946571350098, 0.05757742375135422, 0.005587627179920673, -0.08937304466962814, -0.12129467725753784, -0.028609316796064377, 0.08640658855438232], [0.05379496514797211, -1.884190320968628, 1.7306503057479858, 1.8304158449172974, -0.6856235265731812, -0.8120372295379639, 1.0461206436157227, -0.0009606691310182214, -1.0541856288909912, -1.075463056564331, 0.6356693506240845, -4.15118408203125, -1.097442865371704, -1.2914118766784668, -0.007420466747134924, 0.17757506668567657, -3.411501884460449, -0.7529853582382202, 1.1520107984542847, 1.6427693367004395, 2.508842945098877, -0.7404118776321411, -0.6160178184509277, 0.7718731164932251, -0.5850465297698975, -0.9411609172821045, 1.229528784751892, 0.21197572350502014, -5.1555280685424805, -0.3412841856479645, 0.8783861994743347, -1.0618417263031006, 1.2528589963912964, -0.4673556387424469, -16.48128890991211, -1.039185881614685, 25.232879638671875, -13.57970905303955, 0.026261765509843826, -0.04295208677649498, 0.009848100133240223, 0.01626940444111824, -0.02212575636804104, -0.013142583891749382], [0.012964598834514618, -1.973102331161499, 1.4897193908691406, 1.9965808391571045, -0.7667561769485474, -1.0452535152435303, 1.0906728506088257, 0.18634378910064697, -0.7829321026802063, -0.8895231485366821, 0.4304031431674957, -4.051024913787842, -0.9578376412391663, -1.03145432472229, -0.007605712860822678, 0.24462006986141205, -3.2516658306121826, -0.650547444820404, 1.2892884016036987, 1.5174349546432495, 2.5184924602508545, -0.5439348220825195, -0.6740970015525818, 0.7008601427078247, -0.36044180393218994, -0.924753725528717, 1.2757476568222046, -0.009112697094678879, -5.11733865737915, -0.3583051562309265, 1.093854546546936, -1.1600004434585571, 1.162398099899292, -0.36135339736938477, -16.769634246826172, -1.1328974962234497, 25.490985870361328, -13.690074920654297, 0.046140559017658234, 0.00783180259168148, -0.03029177337884903, 0.07521952688694, 0.033452361822128296, -0.021309351548552513], [0.14736782014369965, -2.0342214107513428, 1.857028841972351, 1.8800657987594604, -0.7317124009132385, -1.0811564922332764, 1.1457206010818481, 0.11975546181201935, -1.0384465456008911, -1.2673473358154297, 0.49907153844833374, -4.43794584274292, -1.2339940071105957, -1.3770655393600464, -0.10076351463794708, 0.2971961498260498, -3.6279125213623047, -0.9079694151878357, 1.298758625984192, 1.6550912857055664, 2.6171929836273193, -0.7610172033309937, -0.558170735836029, 0.8878843188285828, -0.5351734757423401, -0.8749812245368958, 1.3083387613296509, 0.002874640515074134, -5.535557270050049, -0.3802117705345154, 1.0227694511413574, -0.9206638336181641, 1.3355714082717896, -0.5673505067825317, -17.16158103942871, -1.2105375528335571, 25.988536834716797, -14.056951522827148, 0.014231622219085693, 0.007999402470886707, -0.030556833371520042, 0.03318975865840912, 0.04728713259100914, 0.0031756353564560413], [-0.20456776022911072, 1.742995023727417, -1.6233941316604614, -1.7360146045684814, 0.7848103046417236, 1.0462887287139893, -0.9167888164520264, 0.033183082938194275, 0.9982350468635559, 1.0002758502960205, -0.5434914231300354, 3.952136278152466, 0.9528751373291016, 1.283796787261963, 0.07301079481840134, -0.3381577730178833, 3.1917290687561035, 0.6489743590354919, -1.2939643859863281, -1.6719077825546265, -2.2942488193511963, 0.4811563193798065, 0.6682493686676025, -0.7190592288970947, 0.5598729252815247, 0.8217089176177979, -0.9767420887947083, -0.08745753765106201, 5.181208610534668, 0.40456321835517883, -0.9378637075424194, 0.8671308755874634, -1.2283936738967896, 0.5005354881286621, 16.47623062133789, 0.8447335958480835, -25.060035705566406, 13.534655570983887, 0.048117153346538544, 0.11365289241075516, -0.07837335765361786, -0.042733240872621536, 0.05044097453355789, 0.033582910895347595], [0.023114055395126343, 1.732316493988037, -1.4920883178710938, -1.739647626876831, 0.4942439794540405, 0.9928869605064392, -1.0567647218704224, -0.03391927108168602, 0.9514078497886658, 0.8867682814598083, -0.5764954090118408, 4.093435764312744, 1.0538891553878784, 0.9860804080963135, -0.04256565868854523, -0.16287684440612793, 3.1428792476654053, 0.7679539322853088, -1.139602780342102, -1.7583330869674683, -2.392935276031494, 0.6420765519142151, 0.6314340829849243, -0.785754382610321, 0.5153152942657471, 0.8412430882453918, -1.1963452100753784, -0.10756614804267883, 5.14487886428833, 0.35956791043281555, -0.875601053237915, 1.116991639137268, -1.1644634008407593, 0.5085605382919312, 16.314897537231445, 0.834078848361969, -24.896114349365234, 13.566540718078613, -0.12008905410766602, -0.02901810221374035, 0.010369811207056046, 0.00602536229416728, -0.04713703691959381, 0.03572862967848778], [-0.021642351523041725, 1.8847107887268066, -1.8818587064743042, -1.932666301727295, 0.8260563015937805, 1.0381627082824707, -1.1341644525527954, -0.1875379979610443, 1.1048657894134521, 1.1913378238677979, -0.48042652010917664, 4.512629508972168, 1.1624131202697754, 1.33522367477417, -0.09619901329278946, -0.399972528219223, 3.6446571350097656, 0.7304436564445496, -1.3113139867782593, -1.68593430519104, -2.703932285308838, 0.7526683807373047, 0.6629865169525146, -0.8566043972969055, 0.6232160329818726, 0.9921208620071411, -1.2040077447891235, -0.07188651710748672, 5.625024795532227, 0.4960058629512787, -1.0609521865844727, 1.0696054697036743, -1.2945947647094727, 0.43245938420295715, 17.237457275390625, 1.3455923795700073, -25.972867965698242, 14.223470687866211, -0.06387777626514435, 0.09388256818056107, 0.03177163004875183, -0.09082935750484467, -0.0690193846821785, -0.04619276896119118], [-0.01328977383673191, 1.7815382480621338, -1.5321998596191406, -1.8812086582183838, 0.702210545539856, 0.7914741039276123, -0.8968753814697266, -0.05637630820274353, 0.7260614037513733, 0.9440495371818542, -0.6559911370277405, 3.9280242919921875, 1.071391224861145, 1.2136696577072144, -0.05533694103360176, -0.3030156195163727, 3.3502657413482666, 0.6951345801353455, -1.1703029870986938, -1.5937871932983398, -2.4788622856140137, 0.673606812953949, 0.7538808584213257, -0.7427946329116821, 0.5662250518798828, 0.8871458768844604, -1.2713710069656372, -0.13046295940876007, 5.223127365112305, 0.2432561218738556, -0.9901102185249329, 0.8767159581184387, -1.0888468027114868, 0.27964362502098083, 16.540388107299805, 0.8908225893974304, -24.91609001159668, 13.548590660095215, -1.5364192222477868e-05, 0.0708705261349678, -0.014721925370395184, -0.013552922755479813, -0.024661725386977196, 0.0674452856183052], [-0.18751002848148346, 1.7890307903289795, -1.676134705543518, -1.8979352712631226, 0.5813396573066711, 0.8560118079185486, -0.9814311861991882, -0.10748665779829025, 0.8540673851966858, 1.0053355693817139, -0.37945911288261414, 4.2929301261901855, 1.0566058158874512, 1.2942649126052856, 0.005595685448497534, -0.3030174672603607, 3.3364553451538086, 0.7796140909194946, -1.2759052515029907, -1.6249442100524902, -2.367299795150757, 0.591486394405365, 0.7166528105735779, -0.6515397429466248, 0.6028274297714233, 1.020867943763733, -1.164975643157959, -0.0906284749507904, 5.499838352203369, 0.49290475249290466, -1.017176628112793, 0.9522855877876282, -1.3055071830749512, 0.5969673991203308, 16.772640228271484, 0.9779109954833984, -25.553447723388672, 13.972662925720215, -0.04892990365624428, -0.0407564602792263, 0.041657183319330215, -0.05055567994713783, -0.05887218937277794, 0.015388217754662037], [-0.06576612591743469, 1.8653757572174072, -1.504433512687683, -1.8276517391204834, 0.6669113039970398, 0.8213150501251221, -1.0541751384735107, -0.04490916430950165, 1.017052412033081, 1.0989723205566406, -0.6536766886711121, 4.006776809692383, 1.1603132486343384, 1.0302923917770386, 0.0015698170755058527, -0.2682992219924927, 3.292358160018921, 0.6736204624176025, -1.2028027772903442, -1.687049150466919, -2.4268646240234375, 0.5288980603218079, 0.7774664759635925, -0.7208964228630066, 0.3835526704788208, 0.9388028979301453, -1.0635836124420166, -0.19115331768989563, 5.165996074676514, 0.5324414372444153, -0.8231150507926941, 1.1002323627471924, -1.1904628276824951, 0.2561068832874298, 16.583255767822266, 1.087127685546875, -25.06485939025879, 13.602832794189453, -0.08499908447265625, -0.032309629023075104, -0.1078105941414833, -0.0627426728606224, -0.03165590018033981, 0.04514747112989426], [0.013058511540293694, 1.9523173570632935, -1.5141878128051758, -1.973357081413269, 0.7478286623954773, 0.7510207295417786, -1.0231091976165771, -0.14483049511909485, 0.7253090739250183, 0.9406895041465759, -0.46483033895492554, 3.9153637886047363, 1.110571026802063, 1.0691368579864502, -0.09996182471513748, -0.19657687842845917, 3.414489507675171, 0.7216278910636902, -1.2987582683563232, -1.5178736448287964, -2.4191501140594482, 0.7091512084007263, 0.6634695529937744, -0.7657392024993896, 0.48795652389526367, 0.9041100740432739, -1.3265883922576904, -0.04004351794719696, 5.1376142501831055, 0.27179035544395447, -1.1274417638778687, 1.0862739086151123, -1.341495156288147, 0.28946372866630554, 16.816904067993164, 0.9592304825782776, -25.36713981628418, 13.774659156799316, -0.0038239776622503996, 0.03302709385752678, 0.021901659667491913, -0.026232048869132996, -0.05273597687482834, 0.07416756451129913], [0.12419364601373672, -2.0363173484802246, 1.9758210182189941, 2.0671520233154297, -0.7728744149208069, -1.175834059715271, 1.1597323417663574, 0.07351378351449966, -1.14340078830719, -1.1585547924041748, 0.6795547604560852, -4.728683948516846, -1.1708523035049438, -1.333540916442871, -0.12645116448402405, 0.14802181720733643, -3.849759340286255, -0.8575156927108765, 1.3632334470748901, 1.7273626327514648, 2.802459239959717, -0.705132246017456, -0.6448784470558167, 1.0149163007736206, -0.5854330658912659, -0.9136486053466797, 1.2606618404388428, -0.007608648389577866, -5.732313632965088, -0.48962268233299255, 1.0593291521072388, -1.207957148551941, 1.29941725730896, -0.5559598207473755, -17.827730178833008, -1.331382155418396, 27.0382022857666, -14.88988971710205, 0.03576689213514328, -0.021516412496566772, 0.08813279867172241, 0.013004468753933907, -0.016192831099033356, -0.028968719765543938], [0.15684880316257477, -2.1231181621551514, 1.814935326576233, 1.8793742656707764, -0.9391369223594666, -1.1035186052322388, 0.9830315709114075, 0.01413812581449747, -0.8939263224601746, -1.1672838926315308, 0.5909780263900757, -4.556530952453613, -1.1284935474395752, -1.43938148021698, 0.09467019140720367, 0.32415565848350525, -3.52321457862854, -0.7964526414871216, 1.4590506553649902, 1.8797450065612793, 2.464144468307495, -0.7079134583473206, -0.7553706169128418, 0.7621163725852966, -0.4934854209423065, -1.0475927591323853, 1.2838231325149536, 0.19421613216400146, -5.592742443084717, -0.5961077809333801, 0.831588625907898, -1.1430988311767578, 1.2560248374938965, -0.40469104051589966, -17.561342239379883, -1.3524266481399536, 26.415529251098633, -14.337848663330078, -0.02678675763309002, -0.04150468111038208, 0.06163056939840317, -0.02169584296643734, 0.0009955978021025658, -0.038289930671453476], [-0.1991787701845169, 2.004869222640991, -1.489566683769226, -1.7944893836975098, 0.8390841484069824, 0.9952747225761414, -0.9070148468017578, -0.18726840615272522, 0.8067213296890259, 1.1975988149642944, -0.4901672601699829, 4.121331691741943, 1.0332049131393433, 1.3426796197891235, -0.057328395545482635, -0.3370467722415924, 3.4484689235687256, 0.8332594037055969, -1.2527159452438354, -1.6690974235534668, -2.369744062423706, 0.5664527416229248, 0.7634077072143555, -0.8665087819099426, 0.6191338300704956, 0.8861327171325684, -1.2291452884674072, -0.16370423138141632, 5.43452787399292, 0.45111680030822754, -0.7700386643409729, 1.012694001197815, -1.190684199333191, 0.35607054829597473, 16.8007869720459, 0.9965996146202087, -25.547584533691406, 13.893915176391602, 0.014938026666641235, 0.01573965512216091, -0.011416293680667877, -0.032402943819761276, -0.024467619135975838, 0.04435621201992035], [0.06887354701757431, 2.0006442070007324, -1.9028172492980957, -2.0176970958709717, 0.8328897953033447, 1.2467340230941772, -1.0803934335708618, -0.018204208463430405, 0.9905350804328918, 1.1724023818969727, -0.5960988998413086, 4.483003616333008, 1.3165245056152344, 1.4003523588180542, -0.1576744168996811, -0.1749424785375595, 3.7917163372039795, 0.9983819723129272, -1.3561582565307617, -1.842599630355835, -2.4508392810821533, 0.6838830709457397, 0.6834055781364441, -0.9742975831031799, 0.5269536972045898, 0.9636136293411255, -0.9273414015769958, -0.1499413400888443, 5.708548069000244, 0.41255202889442444, -0.9241732358932495, 0.937545120716095, -1.1931477785110474, 0.6149378418922424, 17.059131622314453, 1.3908171653747559, -25.957605361938477, 14.015260696411133, -0.08834756165742874, -0.02946607954800129, -0.06114357337355614, -0.07203628122806549, -0.009949821047484875, -0.03728631138801575], [-0.21590222418308258, 1.9132232666015625, -1.749067783355713, -2.031170129776001, 0.6259484887123108, 1.0387715101242065, -0.9793176054954529, -0.179290771484375, 0.9690136909484863, 1.1769909858703613, -0.45055630803108215, 4.1228108406066895, 1.0223881006240845, 1.2114945650100708, 0.08304145932197571, -0.3578740060329437, 3.4778378009796143, 0.9156407117843628, -1.3742434978485107, -1.66526460647583, -2.5854058265686035, 0.6980727910995483, 0.7030493021011353, -0.7988165616989136, 0.4073680341243744, 0.9134299755096436, -1.1403863430023193, -0.03031025640666485, 5.501318454742432, 0.3605034053325653, -1.0497961044311523, 1.1100211143493652, -1.145974040031433, 0.5035348534584045, 17.04485511779785, 1.0449572801589966, -25.54612159729004, 13.84499454498291, -0.025479383766651154, -0.053948432207107544, 0.0019678836688399315, -0.11903601884841919, -0.10652586072683334, 0.0773199051618576], [0.16813042759895325, -2.089822292327881, 1.6791377067565918, 1.9802716970443726, -0.6939749121665955, -1.1139791011810303, 1.1793149709701538, 0.22305148839950562, -0.9748705625534058, -1.1039958000183105, 0.4500086009502411, -4.515120029449463, -1.1141213178634644, -1.2349516153335571, -0.09862963110208511, 0.26960471272468567, -3.613024950027466, -0.7156633138656616, 1.1840423345565796, 1.6032196283340454, 2.677989959716797, -0.6861788034439087, -0.6249550580978394, 0.8791732788085938, -0.365016371011734, -0.9709449410438538, 1.1856207847595215, 0.003025537123903632, -5.603148937225342, -0.4996703565120697, 0.9449059367179871, -1.206281304359436, 1.2765685319900513, -0.44056910276412964, -17.278419494628906, -1.2177950143814087, 26.15623664855957, -14.188838958740234, 0.06636844575405121, -0.09732174873352051, 0.07775712013244629, 0.06109853461384773, 0.082435742020607, -0.019819682464003563], [-0.11243820935487747, 2.0296413898468018, -1.6905176639556885, -2.0982353687286377, 0.8567512631416321, 1.1336866617202759, -1.0749181509017944, 0.056900788098573685, 1.0487184524536133, 1.2298325300216675, -0.5741608142852783, 4.78835391998291, 1.043558955192566, 1.5427857637405396, -0.03855011239647865, -0.286804735660553, 3.699796676635742, 0.8900994062423706, -1.5018703937530518, -1.8604097366333008, -2.6343891620635986, 0.5667518377304077, 0.8244023323059082, -1.0611770153045654, 0.3408513367176056, 0.8597114682197571, -1.161747932434082, -0.1468001753091812, 5.868129730224609, 0.6102334856987, -1.0319819450378418, 1.06429123878479, -1.2050535678863525, 0.61166912317276, 17.627866744995117, 1.6016132831573486, -26.552873611450195, 14.363027572631836, -0.044579390436410904, 0.021735943853855133, -0.05285831540822983, -0.03516136109828949, -0.031945325434207916, 0.0635576844215393], [0.1712328940629959, -1.9453246593475342, 1.7707419395446777, 1.7434089183807373, -0.7503116726875305, -1.0794053077697754, 0.9811833500862122, -0.0196550153195858, -1.0939068794250488, -1.2457714080810547, 0.5611535310745239, -4.3516364097595215, -1.1500812768936157, -1.3533008098602295, -0.15992699563503265, 0.2940138280391693, -3.457197666168213, -0.8875775337219238, 1.2309951782226562, 1.797342300415039, 2.3123064041137695, -0.7035980224609375, -0.8091409206390381, 0.8298285603523254, -0.41281768679618835, -1.064748764038086, 1.2355362176895142, 0.16658125817775726, -5.461837291717529, -0.3545989990234375, 0.9506357312202454, -0.9989098310470581, 1.218629002571106, -0.3880893290042877, -16.809019088745117, -1.227678656578064, 25.48923110961914, -13.92084789276123, 0.004323296248912811, 0.014416337944567204, 0.029967747628688812, -0.006789133418351412, 0.06999754905700684, -0.1186128556728363], [-0.053908079862594604, 1.7489725351333618, -1.6250667572021484, -1.9454965591430664, 0.6281126737594604, 1.0112323760986328, -1.0199795961380005, -0.09484333544969559, 0.9627191424369812, 1.0559537410736084, -0.4292369782924652, 3.8853275775909424, 0.9025667309761047, 1.2208771705627441, 0.059546615928411484, -0.35297060012817383, 3.201737403869629, 0.7919674515724182, -1.1547927856445312, -1.6028727293014526, -2.2921640872955322, 0.5345283150672913, 0.6502648591995239, -0.7330668568611145, 0.5501332879066467, 0.9396530389785767, -1.1759382486343384, 0.009072010405361652, 5.186776161193848, 0.28677505254745483, -0.9978991746902466, 1.1189219951629639, -1.3255976438522339, 0.468705952167511, 16.572790145874023, 0.9275329113006592, -25.11130714416504, 13.486804008483887, 0.04396818205714226, 0.037721775472164154, -0.07784692198038101, -0.12445209920406342, -0.04134101793169975, -0.020758802071213722], [0.025106128305196762, 2.0592803955078125, -1.78902268409729, -2.093536138534546, 0.836136519908905, 0.9565203189849854, -1.1011996269226074, 0.012609406374394894, 1.098915934562683, 1.315313458442688, -0.7207724452018738, 4.582751750946045, 1.2041717767715454, 1.4123448133468628, -0.07946128398180008, -0.36729323863983154, 3.485092878341675, 0.982088565826416, -1.4320443868637085, -1.8622279167175293, -2.537477970123291, 0.6444631814956665, 0.566597044467926, -0.8839870691299438, 0.361176997423172, 0.9147381782531738, -1.0745770931243896, -0.2582866847515106, 5.5901780128479, 0.46875354647636414, -0.7554831504821777, 1.036554217338562, -1.3158738613128662, 0.6685335636138916, 17.107189178466797, 1.307199239730835, -25.838977813720703, 13.892932891845703, 0.005122272297739983, -0.009912155568599701, -0.059217069298028946, -0.03383335471153259, 0.015113693661987782, 0.09245896339416504], [0.08701233565807343, -2.0762715339660645, 1.6138954162597656, 2.0861120223999023, -0.5952066779136658, -1.0602935552597046, 1.130141258239746, 0.03172820433974266, -1.128521203994751, -1.2950305938720703, 0.5962650179862976, -4.289297580718994, -1.0014084577560425, -1.424392819404602, -0.07314049452543259, 0.31109103560447693, -3.5718178749084473, -0.779392421245575, 1.1446611881256104, 1.7005209922790527, 2.524095058441162, -0.7464401721954346, -0.6279201507568359, 0.824569582939148, -0.609622061252594, -0.8229783773422241, 1.2557957172393799, 0.04771608114242554, -5.5082902908325195, -0.46737489104270935, 0.8480668663978577, -0.9204055070877075, 1.0718482732772827, -0.4089559018611908, -17.247339248657227, -1.4364449977874756, 25.95394515991211, -14.274141311645508, 0.06723301857709885, -0.07821138203144073, 0.05909859389066696, -0.010135665535926819, 0.0006609082920476794, -0.022207358852028847], [-0.24241399765014648, 1.7948980331420898, -1.6409435272216797, -2.047823667526245, 0.6308094263076782, 1.1224324703216553, -0.9025858044624329, -0.16767564415931702, 0.9151392579078674, 1.025010585784912, -0.5731067061424255, 4.157658576965332, 1.0536341667175293, 1.376315951347351, 0.12714388966560364, -0.3057413101196289, 3.332897186279297, 0.7422621846199036, -1.3511239290237427, -1.7624987363815308, -2.4218366146087646, 0.5841248035430908, 0.5554652810096741, -0.818907618522644, 0.5101398825645447, 1.012973666191101, -1.2692979574203491, 0.02462887018918991, 5.356466770172119, 0.44891732931137085, -0.8218578696250916, 1.1064984798431396, -1.218611240386963, 0.3849051296710968, 17.211088180541992, 1.227221131324768, -26.047725677490234, 14.067636489868164, -0.012507368810474873, 0.04049202799797058, -0.04597124084830284, -0.0006202146178111434, -0.08467430621385574, 0.09322421252727509], [-0.07704497128725052, 2.056746244430542, -1.854110598564148, -1.938460350036621, 0.8689466714859009, 1.1544188261032104, -1.1214767694473267, -0.018294811248779297, 1.0250025987625122, 1.4705004692077637, -0.6921996474266052, 4.874516010284424, 1.2515369653701782, 1.544373631477356, -0.16847388446331024, -0.22075125575065613, 3.6831612586975098, 0.7690149545669556, -1.253601312637329, -1.9124294519424438, -2.5789918899536133, 0.6859230995178223, 0.657850444316864, -0.8590130805969238, 0.33036160469055176, 0.9647923111915588, -1.0956989526748657, -0.21518999338150024, 5.718027591705322, 0.5662270188331604, -0.7958552837371826, 1.133167028427124, -1.3465561866760254, 0.6785083413124084, 17.37150001525879, 1.232304573059082, -26.261873245239258, 14.090791702270508, 0.003837011521682143, -0.010197348892688751, -0.010642454028129578, -0.01579274982213974, -0.018154699355363846, 0.036743201315402985], [-0.1824462115764618, 1.925526738166809, -1.8966797590255737, -2.106177568435669, 0.882047176361084, 1.1919617652893066, -1.2585862874984741, 0.07224830240011215, 1.0761090517044067, 1.4291716814041138, -0.5192855596542358, 4.714751243591309, 1.1894680261611938, 1.4111045598983765, 0.0289890356361866, -0.37734124064445496, 3.6536240577697754, 0.7454552054405212, -1.3746103048324585, -1.781309723854065, -2.7499804496765137, 0.6546428203582764, 0.8030885457992554, -0.7930458188056946, 0.3506413698196411, 0.8692002296447754, -1.2259455919265747, -0.01714596524834633, 5.877553939819336, 0.6388052701950073, -1.024543046951294, 1.0558689832687378, -1.3166401386260986, 0.5671040415763855, 17.516681671142578, 1.3067446947097778, -26.361377716064453, 14.365767478942871, -0.09593576937913895, 0.005394537001848221, -0.001221270184032619, -0.00823866669088602, 0.0015268472488969564, 0.06448432803153992], [-0.2205440104007721, 1.8062703609466553, -1.5193387269973755, -1.6926735639572144, 0.6798892021179199, 0.856132447719574, -0.9177316427230835, -0.0007116342894732952, 0.779907763004303, 0.9294901490211487, -0.4746679961681366, 3.990900993347168, 1.047500729560852, 1.2590221166610718, -0.09976784139871597, -0.306305468082428, 3.3238399028778076, 0.6799789667129517, -1.2019493579864502, -1.733690857887268, -2.383981943130493, 0.7036346197128296, 0.7343847155570984, -0.8485273122787476, 0.6089130640029907, 0.951072096824646, -1.2491109371185303, 0.04166986048221588, 5.0339531898498535, 0.48257166147232056, -0.8435949683189392, 0.9246378540992737, -1.0291597843170166, 0.35031843185424805, 16.517623901367188, 1.1006855964660645, -24.917919158935547, 13.554789543151855, 0.038107555359601974, 0.058567728847265244, -0.1565561294555664, -0.05722859129309654, -0.028836669400334358, 0.04551652818918228], [-0.23786044120788574, 1.7677780389785767, -1.5927454233169556, -1.7470667362213135, 0.5171874165534973, 0.7740551233291626, -1.0260218381881714, -0.06322358548641205, 0.9042136073112488, 1.1265243291854858, -0.48603224754333496, 3.965155839920044, 1.1703656911849976, 1.2918933629989624, 0.09076336771249771, -0.35502371191978455, 3.196112632751465, 0.7258707284927368, -1.2627009153366089, -1.8121176958084106, -2.4849493503570557, 0.6453241109848022, 0.5487317442893982, -0.6951456069946289, 0.43410611152648926, 0.8389648199081421, -1.0408213138580322, -0.20365719497203827, 5.259398460388184, 0.5462989807128906, -0.939082682132721, 1.1133557558059692, -1.114548683166504, 0.2647874355316162, 16.800188064575195, 1.1269084215164185, -25.37694549560547, 13.61885929107666, -0.0936204269528389, 0.018784422427415848, 0.04644346609711647, 0.04511496424674988, 0.041341833770275116, -0.03346772864460945], [-0.2156747728586197, 1.6698071956634521, -1.4681872129440308, -1.8691068887710571, 0.793752133846283, 0.7537570595741272, -1.0789802074432373, -0.14643658697605133, 0.9743490219116211, 0.8284276723861694, -0.4653007984161377, 4.042967319488525, 1.1519556045532227, 1.227517008781433, 0.08342006057500839, -0.24506257474422455, 3.090559482574463, 0.7089266777038574, -1.2227370738983154, -1.5049630403518677, -2.2199435234069824, 0.4736277461051941, 0.5854836702346802, -0.7679460644721985, 0.6934444308280945, 0.8452560901641846, -1.2122806310653687, -0.11461831629276276, 5.1373610496521, 0.5494226813316345, -1.0166306495666504, 0.9240891933441162, -1.2183111906051636, 0.46948015689849854, 16.444669723510742, 1.0294212102890015, -24.854717254638672, 13.412238121032715, 0.06857351213693619, -0.04096508026123047, -0.008762831799685955, -0.07633145153522491, -0.053467802703380585, -0.04153728112578392], [0.15397809445858002, -2.080631732940674, 1.8539434671401978, 1.9370051622390747, -0.7625588774681091, -1.0608642101287842, 1.1359899044036865, 0.15191037952899933, -0.9348547458648682, -1.3224068880081177, 0.5246431827545166, -4.655844688415527, -1.1658856868743896, -1.3661717176437378, -0.04790373891592026, 0.27343136072158813, -3.782055139541626, -0.9658849239349365, 1.3175119161605835, 1.8788349628448486, 2.690478563308716, -0.7793188691139221, -0.5822879076004028, 0.8650385737419128, -0.6619710922241211, -1.0760588645935059, 1.1155177354812622, 0.022836729884147644, -5.788369655609131, -0.40210455656051636, 0.8309756517410278, -1.1440160274505615, 1.1633825302124023, -0.40671172738075256, -17.625940322875977, -1.3213180303573608, 26.65270233154297, -14.435626029968262, 0.028077101334929466, 0.023291341960430145, 0.09577438980340958, 0.051017407327890396, 0.07239335775375366, -0.03730145841836929], [-0.03990395367145538, -1.9566360712051392, 1.7646135091781616, 1.8371326923370361, -0.7166680693626404, -1.096176028251648, 0.9341633915901184, 0.1943425089120865, -0.9071657061576843, -1.1108787059783936, 0.4561821222305298, -4.246279239654541, -1.1552366018295288, -1.3061641454696655, 0.1184047982096672, 0.39866504073143005, -3.4135382175445557, -0.8856104612350464, 1.1665536165237427, 1.8152034282684326, 2.6001269817352295, -0.7216333150863647, -0.784283459186554, 0.7368462085723877, -0.3841772675514221, -0.9989161491394043, 1.192152500152588, -0.07881826162338257, -5.356904029846191, -0.40435364842414856, 0.9891330599784851, -1.0187908411026, 1.2524421215057373, -0.37683969736099243, -16.788639068603516, -1.1431037187576294, 25.31560516357422, -13.947227478027344, 0.03564784675836563, 0.042902249842882156, -0.034068506211042404, 0.02911212481558323, 0.0789264515042305, -0.03746066987514496], [0.13330285251140594, -1.81728994846344, 1.5411325693130493, 1.7992579936981201, -0.6839572787284851, -0.8748416304588318, 0.9232001900672913, 0.07875508815050125, -0.8174837231636047, -1.00486159324646, 0.6455846428871155, -4.245743274688721, -1.2314066886901855, -1.3323450088500977, -0.11538561433553696, 0.33873283863067627, -3.330441474914551, -0.8082615733146667, 1.2349705696105957, 1.7976874113082886, 2.303386926651001, -0.6833201050758362, -0.7073767781257629, 0.8231024742126465, -0.38057541847229004, -0.7570200562477112, 1.2760450839996338, 0.16128070652484894, -5.186547756195068, -0.3576112687587738, 0.8772886395454407, -1.05698823928833, 1.0687899589538574, -0.27759480476379395, -16.72943878173828, -1.0634510517120361, 25.410829544067383, -13.758938789367676, -0.07147929072380066, -0.08016452938318253, -0.031592462211847305, 0.04650292173027992, -0.04264505207538605, -0.014685796573758125], [0.04907545819878578, -1.9478236436843872, 1.6945945024490356, 1.8968505859375, -0.8010221719741821, -1.0694048404693604, 0.9488791227340698, 0.10064196586608887, -0.804889976978302, -0.9285852313041687, 0.4407542049884796, -4.116742134094238, -0.9434205889701843, -1.1794707775115967, -0.07503136247396469, 0.2728046178817749, -3.3173367977142334, -0.687560498714447, 1.3225233554840088, 1.6738905906677246, 2.366194486618042, -0.6670986413955688, -0.7890589833259583, 0.8361163139343262, -0.7077004909515381, -0.8265885710716248, 1.0603989362716675, 0.16789843142032623, -5.251781463623047, -0.49853506684303284, 1.005122423171997, -1.0124298334121704, 1.0639744997024536, -0.4306897819042206, -16.481138229370117, -1.0177162885665894, 24.978918075561523, -13.597966194152832, -0.0714770257472992, -0.10891344398260117, 0.007518528029322624, -0.038651853799819946, 0.012425321154296398, 0.012604630552232265], [-0.04738032817840576, -1.9933215379714966, 1.922755241394043, 2.1002767086029053, -0.8324379920959473, -0.9711090922355652, 1.0177775621414185, -0.019732732325792313, -1.0097527503967285, -1.303541898727417, 0.46895426511764526, -4.428931713104248, -1.0353214740753174, -1.289729356765747, -0.02509654499590397, 0.3018067181110382, -3.532292604446411, -0.9861002564430237, 1.4641411304473877, 1.7144373655319214, 2.813296318054199, -0.6773957014083862, -0.7756649255752563, 0.9010228514671326, -0.320150226354599, -0.8303351998329163, 1.2522659301757812, -0.04529808089137077, -5.643754005432129, -0.38648664951324463, 0.8736169338226318, -0.988541305065155, 1.3209456205368042, -0.4168265759944916, -17.560020446777344, -1.2871265411376953, 26.394580841064453, -14.343597412109375, 0.0905526727437973, 0.03825102373957634, 0.020790215581655502, -0.003407382871955633, 0.050816673785448074, -0.09781540185213089], [-0.18631990253925323, 1.8435691595077515, -1.85726797580719, -2.0603556632995605, 0.6568577885627747, 1.2104218006134033, -1.0326807498931885, -0.16017408668994904, 1.1120072603225708, 1.377379298210144, -0.631334125995636, 4.58233118057251, 1.1699470281600952, 1.3912367820739746, 0.10437430441379547, -0.2747936248779297, 3.447291851043701, 0.817675769329071, -1.2576148509979248, -1.6757450103759766, -2.6031737327575684, 0.8263246417045593, 0.6592061519622803, -0.9808182120323181, 0.38930895924568176, 1.0418020486831665, -1.1189708709716797, -0.08706464618444443, 5.684187889099121, 0.4541124105453491, -1.005172848701477, 1.0373543500900269, -1.1900339126586914, 0.39940714836120605, 17.097793579101562, 1.310607671737671, -25.85051727294922, 13.934340476989746, -0.03608570247888565, 0.020634280517697334, -0.09774255007505417, -0.03479636088013649, -0.0675244927406311, 0.09522749483585358], [-0.1702948808670044, 2.0626676082611084, -1.7684742212295532, -1.8381083011627197, 0.8852291703224182, 0.9488632082939148, -1.202496886253357, -0.14551135897636414, 0.8685218095779419, 1.205264925956726, -0.578670859336853, 4.3902082443237305, 0.9767345190048218, 1.3630924224853516, 0.045707765966653824, -0.3590161204338074, 3.438528060913086, 0.7869962453842163, -1.2786098718643188, -1.581796407699585, -2.448542356491089, 0.6477917432785034, 0.7665137648582458, -0.7928251028060913, 0.5137527585029602, 0.9858937859535217, -0.9784486293792725, -0.12211950123310089, 5.404644012451172, 0.3472997844219208, -0.8453640341758728, 0.9839794039726257, -1.1568626165390015, 0.44420361518859863, 17.1346435546875, 1.219312310218811, -25.794116973876953, 14.1654052734375, -0.10032039880752563, -0.024397706612944603, 0.0093377735465765, -0.0357784777879715, -0.03484036400914192, 0.07116113603115082], [-0.04613369330763817, 2.0033247470855713, -1.6633599996566772, -1.8751963376998901, 0.6523869037628174, 1.1607924699783325, -0.9965283870697021, 0.05467028543353081, 0.9523082971572876, 1.236862301826477, -0.4720144271850586, 4.291369438171387, 1.055979609489441, 1.4050014019012451, -0.05664820224046707, -0.38041239976882935, 3.522113561630249, 0.8036707639694214, -1.3470889329910278, -1.7536201477050781, -2.406428337097168, 0.6324156522750854, 0.6022511124610901, -0.8094136714935303, 0.5783786177635193, 0.8298436403274536, -0.9827014803886414, -0.08528317511081696, 5.683102130889893, 0.44380509853363037, -0.7436277866363525, 0.9931595921516418, -1.1793533563613892, 0.6429051160812378, 17.286394119262695, 1.2962615489959717, -25.814725875854492, 14.21204948425293, 0.05504043027758598, 0.004002145957201719, -0.07620008289813995, -0.005748891271650791, -0.00136592669878155, 2.306366695847828e-05], [-0.17741242051124573, 2.0392651557922363, -1.5935885906219482, -2.0136709213256836, 0.649355411529541, 1.1712217330932617, -1.0738993883132935, 0.00790741853415966, 0.9843556880950928, 1.1775110960006714, -0.4642558991909027, 4.177766799926758, 1.228507161140442, 1.1651864051818848, 0.11034554988145828, -0.4325595796108246, 3.544516086578369, 0.6535345315933228, -1.326309323310852, -1.626501441001892, -2.394127607345581, 0.535947859287262, 0.8447136878967285, -0.7800898551940918, 0.5075212717056274, 1.0077030658721924, -1.1617212295532227, -0.17748458683490753, 5.450343132019043, 0.5074362754821777, -1.0008550882339478, 0.925021767616272, -1.3167093992233276, 0.4938686788082123, 16.928850173950195, 1.1740623712539673, -25.835859298706055, 13.917987823486328, -0.10366135835647583, 0.0913599357008934, -0.1241808608174324, -0.016088057309389114, 0.04267242178320885, 0.06062451750040054], [-0.01658158376812935, 1.8966814279556274, -1.6539490222930908, -2.039391040802002, 0.6077302098274231, 0.9362492561340332, -0.9329112768173218, -0.026525869965553284, 0.8945247530937195, 1.1899850368499756, -0.6448429822921753, 4.253834247589111, 1.1224074363708496, 1.3278886079788208, 0.10345286130905151, -0.3462916910648346, 3.5631296634674072, 0.9424931406974792, -1.3106269836425781, -1.6985063552856445, -2.5324578285217285, 0.6731532216072083, 0.7286982536315918, -0.9163157939910889, 0.46663567423820496, 0.8791661262512207, -0.9901769161224365, -0.09040414541959763, 5.557385444641113, 0.3356389105319977, -0.7367318272590637, 1.0398224592208862, -1.263443946838379, 0.5810255408287048, 17.034893035888672, 1.153072714805603, -25.661649703979492, 13.826457023620605, -0.09728236496448517, 0.031194398179650307, 0.06039319559931755, 0.051249951124191284, -0.02006087824702263, 0.06246178224682808], [0.1057400330901146, -2.051170825958252, 1.6406235694885254, 1.991054892539978, -0.8821336030960083, -0.9506511092185974, 1.1726983785629272, 0.019779425114393234, -0.9639869928359985, -1.2152235507965088, 0.6576710343360901, -4.246978282928467, -1.192046046257019, -1.2267175912857056, 0.0744747743010521, 0.31254664063453674, -3.529716968536377, -0.7161002159118652, 1.2657335996627808, 1.6312717199325562, 2.57431697845459, -0.759209156036377, -0.8003615736961365, 0.9293690919876099, -0.41084086894989014, -1.075892448425293, 1.3012964725494385, 0.1986190527677536, -5.615124225616455, -0.507824182510376, 1.052191972732544, -1.1907167434692383, 1.110647201538086, -0.5838881731033325, -17.092544555664062, -1.3624287843704224, 26.00539779663086, -14.071430206298828, -0.054721567779779434, 0.022102052345871925, -0.043123405426740646, 0.003414051840081811, 0.02723122201859951, 0.05764900520443916], [-0.032506972551345825, -1.9962570667266846, 1.8444453477859497, 1.9741497039794922, -0.8189241290092468, -1.0203310251235962, 1.024925708770752, 0.05498407781124115, -0.9332979321479797, -1.1724921464920044, 0.5393511652946472, -4.31843376159668, -1.2262599468231201, -1.2112257480621338, 0.04559127986431122, 0.34928151965141296, -3.487825870513916, -0.8394330739974976, 1.213109016418457, 1.697893500328064, 2.3933098316192627, -0.537900984287262, -0.5095154047012329, 0.7412557005882263, -0.5934393405914307, -0.8358413577079773, 1.1093899011611938, -0.033020563423633575, -5.255476951599121, -0.5870544910430908, 1.0334832668304443, -0.9992385506629944, 1.1880145072937012, -0.4944530725479126, -17.075702667236328, -1.3234241008758545, 25.71996307373047, -13.766192436218262, -0.05285691097378731, -0.042806562036275864, 0.01807686872780323, 0.09340601414442062, -0.004912917502224445, 0.049047086387872696], [-0.028050731867551804, 1.9596054553985596, -1.7196674346923828, -1.9645522832870483, 0.7169864773750305, 0.9067957401275635, -1.0851458311080933, -0.2183302491903305, 0.9424222111701965, 1.0085591077804565, -0.5369060039520264, 4.222273826599121, 1.2089539766311646, 1.3288252353668213, 0.09299909323453903, -0.30574989318847656, 3.199049234390259, 0.7730618119239807, -1.1521395444869995, -1.6547491550445557, -2.3608779907226562, 0.4926099181175232, 0.6471065878868103, -0.7146220803260803, 0.6518239974975586, 0.8947562575340271, -1.155018925666809, -0.03950820490717888, 5.191199779510498, 0.4425213038921356, -0.9707977175712585, 0.9534870386123657, -1.284009337425232, 0.5650894045829773, 16.519563674926758, 0.9775685667991638, -25.169734954833984, 13.645139694213867, -0.041201427578926086, -0.02261532098054886, 0.0328269861638546, -0.08358883857727051, -0.028622647747397423, 0.04247969016432762], [-0.26811590790748596, 1.8232275247573853, -1.575498104095459, -2.0279314517974854, 0.536054253578186, 0.8300814628601074, -1.117525577545166, -0.19278393685817719, 0.8524401783943176, 1.1626819372177124, -0.41594263911247253, 4.379353046417236, 0.9976476430892944, 1.2520538568496704, 0.10249887406826019, -0.2689161002635956, 3.495898962020874, 0.6279708743095398, -1.2578449249267578, -1.71897292137146, -2.5013999938964844, 0.5492785573005676, 0.7314721345901489, -0.7548170685768127, 0.5138351917266846, 0.9557873010635376, -1.172683596611023, -0.007118618581444025, 5.449530124664307, 0.36291736364364624, -1.1182992458343506, 1.060593605041504, -1.200943946838379, 0.45073840022087097, 17.378660202026367, 1.3481487035751343, -26.14323616027832, 14.078707695007324, 0.01967298798263073, 0.08622189611196518, -0.043657854199409485, -0.07357636094093323, 0.020434362813830376, 0.01007439661771059], [-0.18767163157463074, 1.825576901435852, -1.6711702346801758, -1.8544255495071411, 0.611009955406189, 1.151862621307373, -0.9961122274398804, -0.09928147494792938, 1.0921348333358765, 1.0159589052200317, -0.46247318387031555, 4.362199783325195, 1.2200411558151245, 1.160036325454712, -0.09851021319627762, -0.4155881404876709, 3.503349542617798, 0.835146427154541, -1.2832179069519043, -1.7937071323394775, -2.414588212966919, 0.6161395311355591, 0.7695977687835693, -0.8646619915962219, 0.4663163125514984, 0.8312782645225525, -1.039730191230774, 0.05925316363573074, 5.505335330963135, 0.4216878414154053, -0.8225240707397461, 1.0629884004592896, -1.139528512954712, 0.637443482875824, 16.972291946411133, 1.219395399093628, -25.420677185058594, 13.924186706542969, -0.08419863879680634, 0.08098900318145752, -0.05468619614839554, 0.03968019038438797, -0.015414210967719555, 0.005130619276314974], [-0.22596783936023712, 1.80784273147583, -1.6747490167617798, -2.0896506309509277, 0.8668494820594788, 1.02993905544281, -1.0109816789627075, -0.2313435971736908, 0.9018504023551941, 1.2491899728775024, -0.7108318209648132, 4.380080223083496, 1.066941261291504, 1.4745354652404785, -0.16703914105892181, -0.286994993686676, 3.4535446166992188, 0.8075831532478333, -1.3763823509216309, -1.682739019393921, -2.6191768646240234, 0.7976658344268799, 0.5807576179504395, -0.8739656805992126, 0.5567071437835693, 0.8880505561828613, -1.0990426540374756, -0.08814132958650589, 5.431785583496094, 0.3659924864768982, -0.9977842569351196, 1.077469825744629, -1.1141561269760132, 0.36417362093925476, 17.163646697998047, 1.2956126928329468, -26.03188133239746, 14.002867698669434, 0.05910469591617584, 0.056054383516311646, -0.05154082551598549, -0.05726240202784538, 0.02246491052210331, -0.02246309071779251], [-0.15165390074253082, 2.0427143573760986, -1.8224729299545288, -1.8795138597488403, 0.6630232334136963, 1.07252836227417, -0.9887593388557434, -0.017898980528116226, 0.9921688437461853, 1.2805817127227783, -0.5663923025131226, 4.467695713043213, 1.1640629768371582, 1.2367665767669678, 0.06751462817192078, -0.25597018003463745, 3.4594850540161133, 0.822847306728363, -1.1906760931015015, -1.7688928842544556, -2.4177908897399902, 0.7534511089324951, 0.8149735927581787, -0.7685787677764893, 0.658484935760498, 1.0507463216781616, -1.195137619972229, -0.18173982203006744, 5.366549491882324, 0.309071809053421, -1.016983985900879, 1.0294806957244873, -1.1726733446121216, 0.5857856273651123, 16.91374969482422, 1.3416438102722168, -25.728227615356445, 13.9168701171875, 0.04744803532958031, -0.002495038788765669, -0.10291767120361328, -0.09865617752075195, 0.021365074440836906, -0.033249109983444214], [0.008364981040358543, 1.89697265625, -1.7821475267410278, -2.0282554626464844, 0.7189050316810608, 0.9760549068450928, -1.0302170515060425, -0.23504085838794708, 0.9159030914306641, 1.0772470235824585, -0.5441128611564636, 4.088852405548096, 1.0704129934310913, 1.1414480209350586, -0.04626709222793579, -0.22788146138191223, 3.3855018615722656, 0.776007354259491, -1.267760157585144, -1.5817224979400635, -2.604090690612793, 0.517539381980896, 0.7000976800918579, -0.6743854880332947, 0.3757533133029938, 0.9544826745986938, -1.2713428735733032, -0.005548318848013878, 5.436615467071533, 0.5564270615577698, -1.0928879976272583, 1.0510144233703613, -1.2826833724975586, 0.34690171480178833, 17.038331985473633, 1.19175124168396, -25.7582950592041, 13.81447982788086, 0.059263456612825394, -0.009335351176559925, 0.011082970537245274, -0.09492070227861404, -0.020887957885861397, 0.07351744920015335], [-0.0014376448234543204, 1.6893447637557983, -1.4620745182037354, -1.9862687587738037, 0.5311545729637146, 0.7565366625785828, -1.0668967962265015, -0.046360742300748825, 0.7961602807044983, 1.0088669061660767, -0.5222852826118469, 4.028269290924072, 1.1110895872116089, 1.2400099039077759, -0.013779643923044205, -0.277992844581604, 3.349177360534668, 0.8608801960945129, -1.2949919700622559, -1.6824772357940674, -2.396305561065674, 0.7258081436157227, 0.7540193796157837, -0.7994162440299988, 0.5685556530952454, 0.7521401047706604, -1.14533531665802, 0.006456050090491772, 5.110317707061768, 0.3526015281677246, -0.9600216746330261, 1.149078130722046, -1.1777935028076172, 0.48451751470565796, 16.522897720336914, 1.0365694761276245, -25.319704055786133, 13.670641899108887, -0.07071530818939209, -0.06036621332168579, 0.020159434527158737, -0.09407699853181839, -0.03196979686617851, 0.06779109686613083], [0.10546158999204636, -2.0291199684143066, 1.7391144037246704, 1.9947974681854248, -0.692284107208252, -0.9943073391914368, 0.8711423277854919, 0.09732147306203842, -0.8849825859069824, -1.0472387075424194, 0.6150047779083252, -4.071138858795166, -0.9574994444847107, -1.326336145401001, -0.06831097602844238, 0.2535689175128937, -3.3348124027252197, -0.7027662396430969, 1.2734440565109253, 1.4854414463043213, 2.4258854389190674, -0.7944124341011047, -0.6794379949569702, 0.8394650816917419, -0.5842339992523193, -0.7449834942817688, 1.1530264616012573, 0.15264731645584106, -5.267200946807861, -0.4435257911682129, 1.0501028299331665, -1.0667939186096191, 1.2297366857528687, -0.5715091824531555, -16.8279972076416, -1.0683622360229492, 25.14443016052246, -13.891215324401855, -0.008072875440120697, -0.04711003974080086, 0.0684874951839447, 0.06162412837147713, 0.06084321066737175, 0.03393081948161125], [0.008119690231978893, -1.8664441108703613, 1.5896810293197632, 2.1252763271331787, -0.8313857913017273, -0.944614052772522, 1.132856011390686, 0.10878171771764755, -1.024414300918579, -1.161596655845642, 0.5779162645339966, -4.4865875244140625, -1.0845544338226318, -1.1665735244750977, -0.11321135610342026, 0.2552596926689148, -3.3930931091308594, -0.8279421329498291, 1.379088044166565, 1.7327183485031128, 2.4740846157073975, -0.7512039542198181, -0.7607216238975525, 0.9723402857780457, -0.4813392162322998, -0.9560261964797974, 1.3105993270874023, 0.1549055278301239, -5.575936794281006, -0.4450075030326843, 0.8745799660682678, -1.1760611534118652, 1.293668508529663, -0.4916166663169861, -17.32489013671875, -1.228495717048645, 26.04128646850586, -14.279633522033691, -0.03959202766418457, -0.019651373848319054, 0.0975811779499054, 0.050937362015247345, 0.004475829191505909, 0.020082952454686165], [-0.10410062968730927, 2.03562593460083, -1.6372822523117065, -1.8640345335006714, 0.588198721408844, 1.0756089687347412, -0.9919077754020691, -0.2554737627506256, 0.8118382692337036, 1.1090041399002075, -0.47367674112319946, 4.3249101638793945, 1.173232913017273, 1.1566400527954102, 0.06225716322660446, -0.21702151000499725, 3.6593940258026123, 0.8915330171585083, -1.4690228700637817, -1.869106411933899, -2.661843776702881, 0.7713363170623779, 0.5467724204063416, -0.8668809533119202, 0.4764799177646637, 0.9915353059768677, -1.2491391897201538, -0.10906677693128586, 5.509491920471191, 0.5228341817855835, -1.0773382186889648, 1.0531715154647827, -1.2532498836517334, 0.48525288701057434, 17.372711181640625, 1.2661854028701782, -26.333402633666992, 14.173583030700684, 0.06494108587503433, -0.04694058373570442, -0.11919388920068741, -0.1355559378862381, -0.03407116234302521, 0.10175425559282303], [0.1842154860496521, -1.899396538734436, 1.6492091417312622, 1.8402103185653687, -0.7186663746833801, -0.9844277501106262, 0.9360317587852478, 0.22941742837429047, -0.8701832890510559, -1.0975571870803833, 0.7093384861946106, -4.296794414520264, -1.248579740524292, -1.138185977935791, 0.09251347929239273, 0.4181916117668152, -3.4317519664764404, -0.9165791869163513, 1.1956992149353027, 1.8537266254425049, 2.4556126594543457, -0.7044786810874939, -0.5287214517593384, 0.8814496397972107, -0.35002216696739197, -0.9048691391944885, 1.0662362575531006, 0.06950154900550842, -5.37521505355835, -0.5169776678085327, 1.1112596988677979, -1.1898623704910278, 1.1189299821853638, -0.40502727031707764, -17.298145294189453, -1.1392782926559448, 25.986509323120117, -13.968798637390137, 0.05705929175019264, 0.024807432666420937, -0.014119600877165794, -0.01095732394605875, 0.03297976776957512, -0.08466649800539017], [0.09650739282369614, -2.152539014816284, 1.7252388000488281, 1.900702953338623, -0.7227984070777893, -1.0345014333724976, 1.0497924089431763, 0.05669214576482773, -0.9414759874343872, -1.2265304327011108, 0.7207292318344116, -4.601880073547363, -1.0352247953414917, -1.360196828842163, 0.055923063308000565, 0.22245272994041443, -3.750471353530884, -0.7561429142951965, 1.4283865690231323, 1.6893936395645142, 2.7245845794677734, -0.8642905354499817, -0.6042118072509766, 0.8649543523788452, -0.4750792980194092, -0.9944453835487366, 1.2144397497177124, 0.12944093346595764, -5.570241451263428, -0.5456363558769226, 0.9831314086914062, -1.1334037780761719, 1.3512663841247559, -0.39899003505706787, -17.487184524536133, -1.4343671798706055, 26.609956741333008, -14.347214698791504, 0.04074809327721596, -0.09094124287366867, 0.12006061524152756, 0.02580178901553154, -0.02389359101653099, -0.006424915976822376], [0.02455594763159752, 2.0279459953308105, -1.5477418899536133, -1.8661435842514038, 0.8691043257713318, 1.100152850151062, -1.1901966333389282, -0.18493430316448212, 1.074630618095398, 1.0672638416290283, -0.6812140345573425, 4.444033622741699, 1.076849341392517, 1.4652841091156006, 0.09085288643836975, -0.41236191987991333, 3.5991146564483643, 0.7261319756507874, -1.2513551712036133, -1.7182104587554932, -2.4502527713775635, 0.6701209545135498, 0.7245742082595825, -0.8553647994995117, 0.5672383904457092, 1.0680807828903198, -0.9578681588172913, -0.11046569049358368, 5.485915184020996, 0.33565017580986023, -0.7615997195243835, 0.9822977781295776, -1.1684544086456299, 0.5513585805892944, 17.07354736328125, 1.1614797115325928, -25.53470802307129, 13.798970222473145, 0.040087245404720306, -0.025474118068814278, -0.10679876804351807, -0.09431921690702438, 0.017961259931325912, -0.00793398730456829], [0.04642113670706749, -1.7830991744995117, 1.660275936126709, 1.8898553848266602, -0.7402212023735046, -0.8578101992607117, 0.8350182771682739, 0.09746582806110382, -0.8052613139152527, -0.9347894191741943, 0.5881884694099426, -4.0231781005859375, -1.0924268960952759, -1.0561809539794922, 0.016434790566563606, 0.29466721415519714, -3.4008922576904297, -0.7408820986747742, 1.2018585205078125, 1.7209877967834473, 2.243504762649536, -0.6423043012619019, -0.7799023985862732, 0.7322026491165161, -0.4530259370803833, -0.8765311241149902, 1.043365716934204, 0.06567399203777313, -5.20662260055542, -0.44932934641838074, 0.9885979294776917, -1.1663694381713867, 1.1091992855072021, -0.39009028673171997, -16.458818435668945, -1.1035717725753784, 25.199771881103516, -13.506561279296875, 0.07731825113296509, -0.11753298342227936, 0.08168643712997437, 0.025325579568743706, 0.052310626953840256, 0.009340126067399979], [0.0034610789734870195, 1.7111797332763672, -1.652051568031311, -1.7435837984085083, 0.5850871801376343, 0.911812424659729, -1.029462456703186, -0.26786503195762634, 0.9280250668525696, 0.9520153403282166, -0.4317741096019745, 3.9319565296173096, 1.009037971496582, 1.1064072847366333, -0.042897287756204605, -0.41743576526641846, 3.083231210708618, 0.8228909373283386, -1.1925904750823975, -1.7079969644546509, -2.303114891052246, 0.6012444496154785, 0.6452620029449463, -0.7751450538635254, 0.4424048662185669, 0.8284120559692383, -1.2076733112335205, -0.047733765095472336, 5.236021041870117, 0.2506566643714905, -0.8922900557518005, 1.0922834873199463, -1.0466252565383911, 0.4752379059791565, 16.401552200317383, 0.8698296546936035, -24.654029846191406, 13.421714782714844, -0.09634702652692795, 0.07774149626493454, -0.024977130815386772, -0.04363486170768738, 0.010118304751813412, 0.06704257428646088], [-0.045199330896139145, -1.9097048044204712, 1.6897432804107666, 1.8569315671920776, -0.6422212719917297, -0.870247483253479, 1.1100804805755615, 0.22297748923301697, -0.8837076425552368, -1.10206139087677, 0.5292490720748901, -4.375133991241455, -1.0660001039505005, -1.1291738748550415, 0.06554357707500458, 0.2656255066394806, -3.452005624771118, -0.8652458190917969, 1.1987123489379883, 1.729992389678955, 2.516345500946045, -0.7877898216247559, -0.7796211242675781, 0.7906869649887085, -0.3748885989189148, -0.9437643885612488, 1.1072633266448975, 0.20414161682128906, -5.450136661529541, -0.48798346519470215, 1.0371781587600708, -1.1665674448013306, 1.239805817604065, -0.43752655386924744, -17.040346145629883, -1.2830123901367188, 25.778804779052734, -14.127763748168945, -0.06362811475992203, -0.09692998975515366, -0.005368804559111595, 0.08923632651567459, 0.0805937722325325, -0.01825609803199768], [0.007787870243191719, 1.7908873558044434, -1.6159847974777222, -1.8758643865585327, 0.5313828587532043, 0.851705014705658, -0.8282067775726318, -0.14746306836605072, 0.9950568675994873, 1.0417119264602661, -0.5250808000564575, 3.892115592956543, 1.085633635520935, 1.047115445137024, -0.10400546342134476, -0.3473285138607025, 3.2053120136260986, 0.709323525428772, -1.1220614910125732, -1.6742409467697144, -2.3822669982910156, 0.5720275044441223, 0.5377618670463562, -0.6742218136787415, 0.6239385604858398, 0.8056915998458862, -1.1410224437713623, -0.09579258412122726, 5.049736976623535, 0.4011082649230957, -0.9300695657730103, 0.9388489127159119, -1.0147548913955688, 0.4465118646621704, 16.5538387298584, 0.8154526352882385, -24.922401428222656, 13.535943031311035, 0.03234385699033737, 0.039704643189907074, -0.025264713913202286, -0.0361524261534214, -0.017555493861436844, -0.00622705789282918], [-0.20919984579086304, 1.719390630722046, -1.6996253728866577, -1.942204236984253, 0.5531654953956604, 0.8957162499427795, -0.9368881583213806, -0.15160882472991943, 0.8075299263000488, 1.0750148296356201, -0.4706764221191406, 3.9535207748413086, 1.1509277820587158, 1.263416051864624, -0.11947526037693024, -0.19513796269893646, 3.1338157653808594, 0.6680353283882141, -1.2352771759033203, -1.677680253982544, -2.4033710956573486, 0.7063276767730713, 0.8174104690551758, -0.7041312456130981, 0.4203530550003052, 0.9247841835021973, -1.1279218196868896, -0.03830058500170708, 5.112493991851807, 0.3773733377456665, -0.7755107283592224, 1.129127025604248, -1.034974217414856, 0.3979659080505371, 16.348491668701172, 0.944126307964325, -24.558935165405273, 13.35633373260498, -0.053619060665369034, 0.047255806624889374, -0.07636770606040955, -0.02481941320002079, -0.039003610610961914, -0.03818266838788986], [-0.11041796952486038, 2.064899444580078, -1.7837213277816772, -1.7927625179290771, 0.612352192401886, 1.1414307355880737, -1.1017017364501953, -0.14521853625774384, 1.0850741863250732, 1.3124926090240479, -0.4446828365325928, 4.299602508544922, 1.0243041515350342, 1.183062195777893, -0.13495436310768127, -0.37309813499450684, 3.644524097442627, 0.8063180446624756, -1.3031017780303955, -1.8192311525344849, -2.524770736694336, 0.5945607423782349, 0.8008222579956055, -0.7294051647186279, 0.5233234763145447, 0.891143262386322, -0.9782907962799072, -0.03594491630792618, 5.4187798500061035, 0.4637705087661743, -0.8964361548423767, 1.0089521408081055, -1.173927664756775, 0.4154444932937622, 16.944347381591797, 1.1965577602386475, -25.534374237060547, 13.95688533782959, -0.056333594024181366, -0.015123164281249046, -0.0356210395693779, -0.03036859631538391, 0.042326394468545914, 0.12115470319986343], [0.010708770714700222, -1.856342077255249, 1.5760287046432495, 1.863720417022705, -0.5907703638076782, -1.1063613891601562, 1.0144200325012207, 0.05180570110678673, -0.8402897119522095, -1.0007632970809937, 0.6019960641860962, -4.18724250793457, -1.0967785120010376, -1.1286813020706177, -0.06699677556753159, 0.34285297989845276, -3.445467233657837, -0.8740043640136719, 1.2201865911483765, 1.7453560829162598, 2.3597168922424316, -0.7645586133003235, -0.7422651052474976, 0.8935766220092773, -0.5449994802474976, -1.0358175039291382, 1.121983289718628, 0.11719715595245361, -5.376053333282471, -0.456322580575943, 1.026962399482727, -1.0945531129837036, 1.1513245105743408, -0.5446563959121704, -17.019824981689453, -1.2863796949386597, 25.88835334777832, -14.005167961120605, 0.03568389639258385, -0.07974912971258163, 0.015749668702483177, 0.02154155634343624, 0.06515657156705856, -0.1106356680393219], [0.061278991401195526, -1.945762038230896, 1.7745929956436157, 1.9160559177398682, -0.7091469764709473, -1.0236315727233887, 0.9925997257232666, 0.231771320104599, -0.8426022529602051, -1.1818143129348755, 0.44110462069511414, -4.170831203460693, -1.2280423641204834, -1.2800263166427612, 0.059047795832157135, 0.4120368957519531, -3.4468274116516113, -0.8216310143470764, 1.3898884057998657, 1.7120240926742554, 2.551086902618408, -0.7712460160255432, -0.5906494855880737, 0.6958990097045898, -0.6400181651115417, -0.8311134576797485, 1.2996867895126343, 0.04560878500342369, -5.334810733795166, -0.43122977018356323, 1.0269464254379272, -0.9558029174804688, 1.2003955841064453, -0.4669594466686249, -17.3314208984375, -1.1650570631027222, 26.1219425201416, -14.192601203918457, 0.0438431054353714, -0.08590991795063019, -0.0009814524091780186, 0.016653336584568024, 0.024732932448387146, -0.02111775428056717], [-0.02010923996567726, 2.0754764080047607, -1.7461882829666138, -1.8780791759490967, 0.6178988218307495, 0.9851804375648499, -1.041566252708435, -0.026145687326788902, 1.0139142274856567, 1.280860424041748, -0.5923605561256409, 4.6006550788879395, 1.001320481300354, 1.3006054162979126, -0.10609046369791031, -0.33049923181533813, 3.651538848876953, 0.7168149948120117, -1.3613033294677734, -1.6638416051864624, -2.5690457820892334, 0.6720353960990906, 0.8732029795646667, -0.9841701984405518, 0.4015975892543793, 0.9205477833747864, -0.9420254230499268, -0.11870542913675308, 5.488901615142822, 0.499756395816803, -0.9162687659263611, 1.0439069271087646, -1.228407382965088, 0.39569351077079773, 17.200483322143555, 1.4113292694091797, -26.035049438476562, 14.201780319213867, -0.06461414694786072, 0.06873679906129837, -0.07616948336362839, -0.0034644969273358583, 0.05014563351869583, 0.018499355763196945], [0.12132981419563293, -1.8746508359909058, 1.8689682483673096, 1.827986717224121, -0.8153783679008484, -1.0848050117492676, 1.114540696144104, 0.17678043246269226, -0.9717256426811218, -1.3296397924423218, 0.5213186144828796, -4.36860990524292, -1.1247633695602417, -1.3228682279586792, -0.1471179574728012, 0.28115296363830566, -3.4252405166625977, -0.8614293932914734, 1.1774812936782837, 1.7230185270309448, 2.6847877502441406, -0.5888763666152954, -0.7035455107688904, 0.9270530343055725, -0.4253314733505249, -1.0967116355895996, 1.1264954805374146, 0.08889230340719223, -5.416882038116455, -0.35672464966773987, 0.969357430934906, -0.9962056875228882, 1.240824818611145, -0.47690385580062866, -17.329687118530273, -1.3644157648086548, 26.01874542236328, -14.150830268859863, -0.0017433316679671407, -0.07356874644756317, -0.023794420063495636, 0.06653659790754318, -0.035071421414613724, 0.04088583588600159], [0.010834924876689911, 2.017794609069824, -1.9725126028060913, -2.0472960472106934, 0.6943103671073914, 1.2822693586349487, -1.150633454322815, 0.023051371797919273, 1.0296320915222168, 1.3886992931365967, -0.6684858202934265, 4.750570774078369, 1.215698003768921, 1.3819382190704346, 0.11452572792768478, -0.14409536123275757, 3.687930107116699, 0.7798870801925659, -1.4245238304138184, -1.9009015560150146, -2.7457613945007324, 0.801887571811676, 0.660940408706665, -0.892799973487854, 0.595045804977417, 1.0208015441894531, -1.0417990684509277, -0.17143651843070984, 5.606520175933838, 0.4945359528064728, -0.8569626808166504, 0.9503601789474487, -1.1283749341964722, 0.5875405073165894, 17.14583396911621, 1.4374127388000488, -26.185382843017578, 14.21509838104248, -0.011793874204158783, 0.034760937094688416, -0.0732252448797226, 0.011135892942547798, -0.04658865928649902, 0.08976296335458755], [-0.11206486821174622, 2.0038890838623047, -1.8064444065093994, -1.9743554592132568, 0.7209246158599854, 1.2026898860931396, -1.231356143951416, -0.08761602640151978, 0.8664537668228149, 1.3622870445251465, -0.5355766415596008, 4.538297653198242, 1.1779823303222656, 1.2738990783691406, -0.07114258408546448, -0.3123385012149811, 3.5632495880126953, 0.7085007429122925, -1.45405912399292, -1.7398197650909424, -2.6300435066223145, 0.7624003887176514, 0.7686729431152344, -0.7353107333183289, 0.4079854488372803, 1.0435081720352173, -1.147216796875, 0.01859125867486, 5.713756561279297, 0.46555468440055847, -0.8626165390014648, 1.1457393169403076, -1.1823713779449463, 0.48146575689315796, 17.27130126953125, 1.2289249897003174, -26.220844268798828, 14.241608619689941, -0.04000617563724518, 0.06031506136059761, -0.1118757426738739, 0.009458811953663826, 0.03351534530520439, 0.021855805069208145], [-0.03576310724020004, 2.009573459625244, -1.8175573348999023, -1.8997341394424438, 0.8434155583381653, 1.0217113494873047, -1.0725141763687134, -0.04200504720211029, 0.9791618585586548, 1.114135980606079, -0.6911489963531494, 4.559147834777832, 1.2586857080459595, 1.2545416355133057, 0.11219292879104614, -0.17926864326000214, 3.6195201873779297, 0.8009389638900757, -1.317030906677246, -1.7805910110473633, -2.519911527633667, 0.6226947903633118, 0.6699878573417664, -0.8867281675338745, 0.38507771492004395, 1.042312741279602, -1.0872520208358765, -0.13818015158176422, 5.609041690826416, 0.4538472592830658, -0.9313629269599915, 0.9467838406562805, -1.1448832750320435, 0.5708081126213074, 16.89037322998047, 1.3532426357269287, -25.57639503479004, 13.933289527893066, -0.021993834525346756, 0.03225171938538551, -0.08963927626609802, -0.016351068392395973, -0.06238866224884987, 0.06186465919017792], [-0.16939592361450195, 1.8422256708145142, -1.711408257484436, -1.847336769104004, 0.6174787282943726, 0.8173505067825317, -0.9747285842895508, 0.04648420214653015, 0.992828905582428, 1.0840120315551758, -0.4823369085788727, 4.084037780761719, 0.938463032245636, 1.288867712020874, 0.03647845983505249, -0.42824164032936096, 3.1567113399505615, 0.8619515895843506, -1.3125938177108765, -1.5223039388656616, -2.4065206050872803, 0.5826641321182251, 0.7877733111381531, -0.7341294288635254, 0.399213045835495, 0.9108402132987976, -0.9536228179931641, -0.03659718111157417, 5.227015018463135, 0.3874102532863617, -1.0411667823791504, 1.1271100044250488, -1.1274114847183228, 0.3960970342159271, 16.401569366455078, 0.9861570000648499, -24.807151794433594, 13.513547897338867, 0.0013569416478276253, 0.006800002884119749, -0.012189601548016071, -0.046243902295827866, -0.036313630640506744, 0.03846447542309761], [0.20979365706443787, -1.9809819459915161, 1.7340061664581299, 1.7663214206695557, -0.621898353099823, -0.8126369714736938, 0.8618161678314209, 0.2304215282201767, -1.0288472175598145, -1.1205236911773682, 0.612804114818573, -4.206507682800293, -0.993134617805481, -1.2567143440246582, 0.002466576173901558, 0.3289692997932434, -3.497462034225464, -0.7276230454444885, 1.3649177551269531, 1.6417096853256226, 2.381714344024658, -0.6484987735748291, -0.520463764667511, 0.762232780456543, -0.5506322383880615, -1.013926386833191, 1.1353588104248047, 0.08436927944421768, -5.2553911209106445, -0.5812579989433289, 0.9331721663475037, -1.072778344154358, 1.0907111167907715, -0.4149284362792969, -16.618501663208008, -1.0327154397964478, 25.188711166381836, -13.848322868347168, 0.002223443239927292, -0.008234450593590736, 0.0537935346364975, -0.0011560497805476189, -0.01792333647608757, 0.0027449519839137793], [0.14987044036388397, -2.0341970920562744, 1.7435939311981201, 1.9250342845916748, -0.7799407839775085, -1.078307032585144, 1.258492112159729, 0.07396180927753448, -0.8690149188041687, -1.0786691904067993, 0.4594334661960602, -4.632100582122803, -1.2348426580429077, -1.3676756620407104, -0.047581981867551804, 0.3842235207557678, -3.4998066425323486, -0.7583770751953125, 1.2217347621917725, 1.6521226167678833, 2.6639938354492188, -0.8556105494499207, -0.5135787725448608, 0.8685237169265747, -0.6155403852462769, -1.0777273178100586, 1.1822450160980225, 0.11885969340801239, -5.638276100158691, -0.46503356099128723, 1.091841220855713, -1.1640408039093018, 1.2885483503341675, -0.3575996160507202, -17.478487014770508, -1.3573416471481323, 26.499515533447266, -14.373720169067383, 0.003740551183000207, 0.02922852709889412, -0.033465560525655746, 0.00848798081278801, 0.0476679801940918, 0.03851315379142761], [0.023357180878520012, -1.9432533979415894, 1.6907448768615723, 1.9358818531036377, -0.8433628678321838, -1.2050877809524536, 1.1820112466812134, 0.1679103970527649, -0.9294763803482056, -1.2118600606918335, 0.5579594373703003, -4.380899429321289, -1.1127194166183472, -1.400154709815979, -0.09512800723314285, 0.15593773126602173, -3.56734561920166, -0.7573466300964355, 1.3113629817962646, 1.9075020551681519, 2.4866602420806885, -0.6461480259895325, -0.5555636882781982, 0.9797006845474243, -0.48819661140441895, -0.8729215860366821, 1.1800469160079956, 0.004204419441521168, -5.547214508056641, -0.5061835646629333, 0.9557737708091736, -1.1657038927078247, 1.3587969541549683, -0.4578837454319, -17.243417739868164, -1.2450931072235107, 26.42003059387207, -14.209615707397461, -0.06204518675804138, -0.048457249999046326, 0.06702256947755814, 0.07566605508327484, 0.046092692762613297, -0.07043809443712234], [0.03714573383331299, 1.7470978498458862, -1.5126153230667114, -1.8715286254882812, 0.5653336644172668, 0.8317772150039673, -1.0547763109207153, -0.1546287089586258, 0.970434844493866, 0.9914688467979431, -0.5384949445724487, 4.021261692047119, 1.0078208446502686, 1.2208561897277832, -0.08758863061666489, -0.24582737684249878, 3.3172316551208496, 0.7623948454856873, -1.1095294952392578, -1.6955465078353882, -2.194127082824707, 0.6872460246086121, 0.5894795656204224, -0.8320512771606445, 0.418992280960083, 0.7624868154525757, -1.194191813468933, -0.0856049507856369, 5.197366714477539, 0.5247982144355774, -0.8462757468223572, 1.0304875373840332, -1.10980224609375, 0.5192711353302002, 16.416467666625977, 0.8762562870979309, -24.632890701293945, 13.354329109191895, -0.07450038194656372, 0.07598259299993515, 0.016860565170645714, -0.03177320212125778, -0.0010466817766427994, -0.011373049579560757], [-0.06426575779914856, 1.8096741437911987, -1.7675435543060303, -2.0063090324401855, 0.754602313041687, 0.9668667912483215, -0.9589138031005859, -0.03944072499871254, 0.9191892743110657, 0.8963801264762878, -0.4088042676448822, 4.21523904800415, 1.0534499883651733, 1.041345238685608, -0.0895172655582428, -0.17185895144939423, 3.4124133586883545, 0.8145336508750916, -1.3916287422180176, -1.5411194562911987, -2.4157681465148926, 0.6086662411689758, 0.7293403148651123, -0.954935610294342, 0.6512815952301025, 0.7742076516151428, -1.148691177368164, -0.0542476661503315, 5.300846099853516, 0.3656425476074219, -1.1137202978134155, 1.0732691287994385, -1.216799259185791, 0.5043374300003052, 16.820833206176758, 1.1044527292251587, -25.470298767089844, 13.725762367248535, 0.041179314255714417, 0.08279218524694443, -0.07618207484483719, -0.0402674525976181, -0.08705012500286102, -0.041637517511844635], [0.22817189991474152, -1.781522512435913, 1.5938897132873535, 1.8760453462600708, -0.6515758037567139, -0.8179579377174377, 0.9665137529373169, 0.06573212891817093, -0.8249654769897461, -1.0058730840682983, 0.38681915402412415, -4.03127908706665, -1.1373825073242188, -1.057350993156433, -0.03248946741223335, 0.36187541484832764, -3.384889602661133, -0.8391786813735962, 1.3604425191879272, 1.7202988862991333, 2.374156951904297, -0.5733801126480103, -0.7587071657180786, 0.8252418041229248, -0.6442369222640991, -0.9284523725509644, 1.1934179067611694, 0.12406250089406967, -5.302556037902832, -0.44426199793815613, 1.0225062370300293, -0.9573082327842712, 1.0624585151672363, -0.5193575620651245, -16.804645538330078, -1.0918229818344116, 25.36106300354004, -13.662799835205078, 0.028423799201846123, 0.021530188620090485, -0.002754742978140712, -0.04551529511809349, -0.022540703415870667, 0.020472578704357147], [0.17847083508968353, -1.8888012170791626, 1.7391184568405151, 1.7235853672027588, -0.810364842414856, -1.0180144309997559, 0.9228624701499939, 0.09835635125637054, -0.8340919613838196, -1.098210334777832, 0.4660031497478485, -4.141220569610596, -0.9312050342559814, -1.157420039176941, 0.10478957742452621, 0.32465940713882446, -3.3340134620666504, -0.804334282875061, 1.1250150203704834, 1.7541486024856567, 2.3149657249450684, -0.7072338461875916, -0.7622553110122681, 0.7829136252403259, -0.4226229190826416, -0.7897549867630005, 1.2767771482467651, -0.01933036372065544, -5.138094425201416, -0.3091781735420227, 0.8242533802986145, -1.0378093719482422, 1.0861389636993408, -0.2971191704273224, -16.48333168029785, -0.8724138736724854, 24.919679641723633, -13.485980987548828, -0.043286990374326706, -0.11414151638746262, -0.03070591762661934, 0.026609526947140694, -0.006453551817685366, 0.037510666996240616], [-0.0660131499171257, 1.8457750082015991, -1.5357993841171265, -1.7362847328186035, 0.6388165950775146, 0.875321626663208, -0.9920931458473206, -0.0071400743909180164, 0.8187001943588257, 1.1356041431427002, -0.4319228529930115, 4.067493438720703, 1.1607844829559326, 1.1450552940368652, -0.03795253112912178, -0.33328667283058167, 3.378856897354126, 0.8532999753952026, -1.3055869340896606, -1.7415447235107422, -2.3279261589050293, 0.5152369737625122, 0.5598276257514954, -0.7169843316078186, 0.5342201590538025, 0.911844789981842, -1.046748161315918, -0.16604982316493988, 5.455928802490234, 0.4502711594104767, -0.8963608741760254, 0.9893928170204163, -1.184632420539856, 0.4635799825191498, 16.77006721496582, 1.0609279870986938, -25.420988082885742, 13.651594161987305, 0.012533090077340603, 0.09386716783046722, -0.030127452686429024, -0.08826099336147308, -0.0691281333565712, 0.08447890728712082], [0.01571611501276493, -1.8722482919692993, 1.5534193515777588, 1.877692699432373, -0.7525507211685181, -1.0780563354492188, 1.0004116296768188, -0.005808861926198006, -0.8826252222061157, -1.061195969581604, 0.5984680652618408, -4.343296051025391, -1.2102872133255005, -1.2890512943267822, 0.010608651675283909, 0.2642214298248291, -3.496569871902466, -0.7377454042434692, 1.4337027072906494, 1.7401962280273438, 2.6615824699401855, -0.6840011477470398, -0.668851912021637, 0.6944007873535156, -0.38897058367729187, -0.8523171544075012, 1.1642069816589355, -0.01012757420539856, -5.581707954406738, -0.391795814037323, 0.8817090392112732, -0.9494464993476868, 1.263620138168335, -0.3959217071533203, -17.22300148010254, -1.2407524585723877, 26.31693458557129, -14.320895195007324, -0.06797780841588974, -0.058187905699014664, 0.09298893809318542, 0.06325972080230713, 0.04764169827103615, 0.027538705617189407], [-0.08763735741376877, 1.8512824773788452, -1.4365031719207764, -1.8145816326141357, 0.7229240536689758, 1.0399330854415894, -0.9694567322731018, -0.2237415611743927, 0.803688108921051, 1.13932466506958, -0.6523011922836304, 3.9438159465789795, 0.8868951201438904, 1.1372674703598022, 0.057323504239320755, -0.23086011409759521, 3.2662386894226074, 0.6803560256958008, -1.1826436519622803, -1.5368893146514893, -2.20749568939209, 0.47149306535720825, 0.7147052884101868, -0.8996921181678772, 0.6398235559463501, 0.719793975353241, -1.1454356908798218, -0.05022052302956581, 5.0516357421875, 0.457881361246109, -0.7525261044502258, 1.0379841327667236, -1.1753956079483032, 0.5680200457572937, 16.35848617553711, 1.0499674081802368, -24.593868255615234, 13.235175132751465, -0.07575467228889465, -0.04508040100336075, -0.14253684878349304, -0.035508640110492706, 0.011965055018663406, 0.08429624140262604], [-0.029962018132209778, 1.9322423934936523, -1.6112905740737915, -2.0520668029785156, 0.7115949392318726, 0.9232489466667175, -0.9150326251983643, -0.11445924639701843, 0.936315655708313, 1.3453048467636108, -0.6921903491020203, 4.56074857711792, 1.0792109966278076, 1.3771766424179077, -0.0809214636683464, -0.261024534702301, 3.521681547164917, 0.9424060583114624, -1.1593650579452515, -1.749677062034607, -2.578266143798828, 0.5956387519836426, 0.7984603643417358, -0.9765833020210266, 0.5769997239112854, 1.0229887962341309, -1.0316437482833862, -0.2344299852848053, 5.423224925994873, 0.35426419973373413, -0.7929500937461853, 1.095677375793457, -1.1220580339431763, 0.40124958753585815, 17.040836334228516, 1.4239426851272583, -25.893848419189453, 14.160096168518066, -0.010214662179350853, 0.04362666979432106, -0.02134593576192856, 0.04059269279241562, 0.06405966728925705, -0.050463806837797165], [0.10921833664178848, -1.9523277282714844, 1.6893670558929443, 1.9130525588989258, -0.7927882075309753, -1.1210654973983765, 1.062368631362915, -0.0694466233253479, -1.016242504119873, -1.3010222911834717, 0.5970805883407593, -4.211987018585205, -1.2394441366195679, -1.2226037979125977, -0.04660977050662041, 0.2784779965877533, -3.4908032417297363, -0.7978153228759766, 1.1398850679397583, 1.7767404317855835, 2.501424551010132, -0.6029700636863708, -0.5934116244316101, 0.9126783609390259, -0.6480289101600647, -0.8711361289024353, 1.1083266735076904, 0.008001981303095818, -5.478837490081787, -0.5747756361961365, 1.0706496238708496, -0.989591658115387, 1.0619053840637207, -0.3689044117927551, -17.118364334106445, -1.3972562551498413, 25.875722885131836, -14.080199241638184, -0.02961578220129013, -0.010346765629947186, 0.048524145036935806, 0.06138774752616882, 0.07937256991863251, 0.009015659801661968], [0.16383223235607147, -1.8515359163284302, 1.7194005250930786, 1.927267074584961, -0.6480370759963989, -1.0542941093444824, 0.8942652940750122, 0.1812562793493271, -0.8687683343887329, -0.9322636127471924, 0.5509260892868042, -3.978980779647827, -1.1639397144317627, -1.1207005977630615, -0.010903126560151577, 0.3732818067073822, -3.255216598510742, -0.8415446877479553, 1.1047723293304443, 1.6760615110397339, 2.4814884662628174, -0.6508804559707642, -0.7320490479469299, 0.7467473745346069, -0.4536775052547455, -0.9821670651435852, 1.0542261600494385, 0.165002703666687, -5.106456756591797, -0.38263505697250366, 0.7722726464271545, -1.0890471935272217, 1.005776047706604, -0.31497934460639954, -16.658164978027344, -0.8945278525352478, 24.869407653808594, -13.560820579528809, -0.05101930722594261, -0.09486374258995056, 0.07856420427560806, 0.01475637499243021, 0.0638049840927124, -0.11712631583213806], [0.032077472656965256, 1.9017084836959839, -1.6090197563171387, -1.7055643796920776, 0.6140570640563965, 0.761172890663147, -1.0782026052474976, -0.03785952553153038, 0.8157290816307068, 1.044995665550232, -0.36305975914001465, 3.9927849769592285, 0.8928158283233643, 1.1859991550445557, 0.0378803126513958, -0.17103834450244904, 3.3220486640930176, 0.8611067533493042, -1.0527383089065552, -1.7296876907348633, -2.2728869915008545, 0.6098785996437073, 0.7090033888816833, -0.7196760773658752, 0.5361691117286682, 0.8632814288139343, -0.9860464930534363, -0.05048096925020218, 5.092142105102539, 0.4175785183906555, -0.9238524436950684, 0.9884053468704224, -1.1682480573654175, 0.42570760846138, 16.223453521728516, 0.9603665471076965, -24.77557945251465, 13.233476638793945, 0.022389203310012817, 0.050525374710559845, -0.1025305911898613, -0.04150301590561867, -0.0034883080516010523, -0.06267346441745758], [0.2032732218503952, -2.047461748123169, 1.8307809829711914, 1.8735460042953491, -0.8188616037368774, -1.1262364387512207, 1.0463768243789673, 0.23652897775173187, -0.9753307700157166, -0.998147189617157, 0.6061675548553467, -4.371652126312256, -1.2012356519699097, -1.428722620010376, -0.08792059868574142, 0.3003188371658325, -3.6027112007141113, -0.7645140886306763, 1.2926628589630127, 1.8214524984359741, 2.675349473953247, -0.7213121652603149, -0.7171308994293213, 0.7271813750267029, -0.6013615131378174, -1.047326683998108, 1.189918875694275, 0.044802140444517136, -5.594066619873047, -0.4121931791305542, 0.9221349954605103, -1.1485124826431274, 1.0624350309371948, -0.5522687435150146, -17.174747467041016, -1.0985500812530518, 25.82174301147461, -14.037839889526367, 0.07721734791994095, 0.006272830069065094, 0.009462933987379074, -0.004984433297067881, 0.08234734833240509, 0.03848414495587349], [-0.05511830747127533, -1.9874283075332642, 1.7015236616134644, 2.132205009460449, -0.7860545516014099, -1.1864228248596191, 1.1735867261886597, -0.014272292144596577, -1.032244086265564, -1.1961684226989746, 0.4710367023944855, -4.595598220825195, -1.0608444213867188, -1.4384187459945679, 0.14771148562431335, 0.3174242377281189, -3.6740686893463135, -0.7940589785575867, 1.3036410808563232, 1.8199814558029175, 2.7402255535125732, -0.769544780254364, -0.8115822672843933, 0.7312386631965637, -0.39676377177238464, -0.9400230646133423, 1.0813034772872925, 0.2384195327758789, -5.768801689147949, -0.5885846018791199, 1.0769065618515015, -1.09506094455719, 1.288275957107544, -0.5982449650764465, -17.549428939819336, -1.358148455619812, 26.51751136779785, -14.530292510986328, -0.011044111102819443, -0.0063223871402442455, 0.06959164142608643, 0.04533172771334648, 0.04658493027091026, 0.00799472164362669], [-0.1747155785560608, 2.1178858280181885, -1.8494007587432861, -2.023181676864624, 0.7939318418502808, 1.0246472358703613, -1.1488332748413086, -0.08727904409170151, 0.973923921585083, 1.2682431936264038, -0.5575445294380188, 4.559470176696777, 1.1263647079467773, 1.5889031887054443, -0.08714605867862701, -0.2653452455997467, 3.8618106842041016, 0.9612303376197815, -1.2763495445251465, -1.8919399976730347, -2.547684907913208, 0.7680732011795044, 0.6437258720397949, -0.794419527053833, 0.5310658812522888, 0.9362891912460327, -1.1631709337234497, -0.08512306958436966, 5.748699188232422, 0.6014921069145203, -0.805040717124939, 0.9937097430229187, -1.1430234909057617, 0.47298914194107056, 17.440160751342773, 1.4002364873886108, -26.625009536743164, 14.525659561157227, -0.03046075627207756, 0.06143158674240112, -0.01052935142070055, -0.031558312475681305, -0.04584191367030144, 0.07350059598684311], [-0.21041998267173767, 1.8479104042053223, -1.7646433115005493, -1.8440955877304077, 0.8743851780891418, 1.0625364780426025, -1.2006348371505737, 0.013761191628873348, 0.8819110989570618, 1.2918787002563477, -0.5793209671974182, 4.600396633148193, 1.0212769508361816, 1.2710319757461548, 0.09325375407934189, -0.1890663206577301, 3.4784774780273438, 0.9296151399612427, -1.3906962871551514, -1.7252947092056274, -2.4639053344726562, 0.6818744540214539, 0.5583974123001099, -0.9976710677146912, 0.5014564394950867, 0.9968361854553223, -1.185299277305603, -0.08908475190401077, 5.521063327789307, 0.5626748204231262, -0.8038401007652283, 1.1210989952087402, -1.3373467922210693, 0.36362358927726746, 17.224647521972656, 1.1980613470077515, -25.990110397338867, 13.893003463745117, 0.06423692405223846, -0.0038157023955136538, -0.03928760811686516, -0.0668989047408104, 0.028863785788416862, -0.013101202435791492], [0.03945127874612808, 1.9990736246109009, -1.6880369186401367, -1.7593517303466797, 0.625401496887207, 1.0373727083206177, -1.0798436403274536, -0.09170372039079666, 0.9373781085014343, 1.0602903366088867, -0.5801536440849304, 4.364957332611084, 1.1654523611068726, 1.383163571357727, -0.16002699732780457, -0.34393110871315, 3.6420764923095703, 0.7392376065254211, -1.2810595035552979, -1.8269673585891724, -2.5029571056365967, 0.7329868078231812, 0.8676862120628357, -0.9346725344657898, 0.5104681849479675, 0.7937609553337097, -0.9720166921615601, -0.07949516177177429, 5.412407398223877, 0.3892239034175873, -0.8345011472702026, 1.1447036266326904, -1.3092974424362183, 0.6511262059211731, 16.881128311157227, 1.0793347358703613, -25.44129753112793, 13.814157485961914, -0.009204776957631111, 0.07292266190052032, -0.03026590310037136, -0.07551649212837219, 0.013837871141731739, 0.10609018802642822], [0.057395126670598984, -2.083836793899536, 1.7849876880645752, 1.8615244626998901, -0.6367810964584351, -0.9147114753723145, 1.1279881000518799, 0.0026569401379674673, -1.1256942749023438, -1.282035231590271, 0.5284973978996277, -4.48468542098999, -1.2667521238327026, -1.1742382049560547, -0.12560279667377472, 0.16019867360591888, -3.6345348358154297, -0.8796812295913696, 1.3240939378738403, 1.8195703029632568, 2.5867862701416016, -0.5928957462310791, -0.8244577646255493, 0.9932364225387573, -0.6302133202552795, -0.8783145546913147, 1.298540711402893, 0.02508595585823059, -5.460999488830566, -0.42153963446617126, 1.0351401567459106, -1.176126480102539, 1.180986762046814, -0.3729647994041443, -17.115816116333008, -1.3595728874206543, 25.975444793701172, -14.26231575012207, -0.07440988719463348, -0.06304951757192612, 0.09014015644788742, 0.07385040074586868, 0.06429573148488998, 0.01813318207859993], [0.028882095590233803, 1.6817371845245361, -1.7246829271316528, -1.6989039182662964, 0.6256466507911682, 0.884215772151947, -1.0711827278137207, -0.20882399380207062, 0.8157455325126648, 0.8849856853485107, -0.41447365283966064, 3.923564910888672, 1.0251027345657349, 1.2261677980422974, 0.08120827376842499, -0.2529844343662262, 3.1892828941345215, 0.8703847527503967, -1.1173436641693115, -1.597013235092163, -2.254573106765747, 0.5818682909011841, 0.6199900507926941, -0.6759498119354248, 0.4417194128036499, 0.9651631712913513, -1.2178378105163574, -0.05050821974873543, 5.282955169677734, 0.28504207730293274, -1.0433177947998047, 1.1068060398101807, -1.1349561214447021, 0.3050503730773926, 16.57219886779785, 1.0821876525878906, -24.789960861206055, 13.465787887573242, 0.022717459127306938, -0.041032955050468445, 0.05373460426926613, -0.06915196776390076, 0.022017702460289, -0.10420510917901993], [0.1617904156446457, -1.7678385972976685, 1.6974550485610962, 1.8481342792510986, -0.7008874416351318, -0.8528266549110413, 0.8802769184112549, 0.030900336802005768, -0.922890841960907, -1.0317356586456299, 0.4695304036140442, -3.903691053390503, -0.912065863609314, -1.2168278694152832, -0.07205088436603546, 0.2823948264122009, -3.3057103157043457, -0.7762734889984131, 1.1429911851882935, 1.5543949604034424, 2.3138363361358643, -0.6881759762763977, -0.586124837398529, 0.6359821557998657, -0.5547470450401306, -0.8155454993247986, 1.0140268802642822, -0.0008377486956305802, -5.066445827484131, -0.3915887475013733, 0.867439866065979, -0.9230813980102539, 1.113825798034668, -0.4366329312324524, -16.60873794555664, -0.8814253211021423, 25.083330154418945, -13.577999114990234, -0.008491706103086472, 0.006277016829699278, 0.06064590439200401, 0.0646558403968811, 0.008320530876517296, -0.019533857703208923], [-0.06735493242740631, 2.0016520023345947, -1.514032006263733, -1.9585908651351929, 0.6473426222801208, 0.8971028327941895, -0.908359706401825, -0.2474813312292099, 0.7460031509399414, 0.934058427810669, -0.46523723006248474, 3.9342291355133057, 0.9031298756599426, 1.2297419309616089, -0.029190262779593468, -0.29127413034439087, 3.273247241973877, 0.7863938808441162, -1.141669750213623, -1.5198854207992554, -2.4974591732025146, 0.46178022027015686, 0.5896015763282776, -0.6449363231658936, 0.5316874980926514, 0.8987669348716736, -1.0815725326538086, -0.21654577553272247, 5.3498735427856445, 0.44312021136283875, -1.088761329650879, 1.0062541961669922, -1.089306116104126, 0.42050331830978394, 16.92207145690918, 1.102405071258545, -25.565610885620117, 14.017475128173828, -0.022979851812124252, 0.09336380660533905, -0.12180126458406448, 0.01779220998287201, -0.04491102695465088, 0.013338714838027954], [0.0020944196730852127, -1.9182299375534058, 1.741818904876709, 1.9807837009429932, -0.633593738079071, -1.0428534746170044, 1.0021950006484985, -0.0047753676772117615, -0.980444610118866, -1.2545968294143677, 0.6495495438575745, -4.44474458694458, -1.2561877965927124, -1.2443368434906006, 0.1251269280910492, 0.24964074790477753, -3.674755334854126, -0.7408050894737244, 1.3913544416427612, 1.6378836631774902, 2.7000834941864014, -0.7270981669425964, -0.6967895030975342, 0.6877317428588867, -0.650574803352356, -0.8281987905502319, 1.108662486076355, 0.09401903301477432, -5.563060760498047, -0.607065737247467, 1.0133193731307983, -0.9649713635444641, 1.192530870437622, -0.33887749910354614, -17.270902633666992, -1.3600457906723022, 26.153743743896484, -14.136561393737793, 0.05495327338576317, -0.014999368228018284, 0.10352012515068054, 0.05887870490550995, -0.016994155943393707, 0.00813034363090992], [0.018098140135407448, 1.9304031133651733, -1.720580816268921, -1.9146627187728882, 0.6710281372070312, 0.8451663255691528, -0.8751752376556396, -0.14258374273777008, 0.7498481869697571, 1.002788782119751, -0.6229206323623657, 4.163150787353516, 1.1438978910446167, 1.203936219215393, -0.018282923847436905, -0.1831125169992447, 3.2618868350982666, 0.8520565032958984, -1.2936190366744995, -1.754468560218811, -2.324662685394287, 0.4778572916984558, 0.7247412204742432, -0.6967204809188843, 0.4928506016731262, 0.9545753598213196, -1.0645426511764526, 0.04583049193024635, 5.364301681518555, 0.47690412402153015, -0.97005295753479, 1.1352392435073853, -1.2443910837173462, 0.3686124086380005, 16.7919864654541, 1.0464972257614136, -25.286174774169922, 13.712191581726074, 0.03465840220451355, -0.010554145090281963, -0.04712550342082977, -0.0889035165309906, -0.04641108214855194, 0.02517552487552166], [0.20262743532657623, -1.885255217552185, 1.775863766670227, 1.8629218339920044, -0.6358928084373474, -0.9844425916671753, 0.9125980734825134, 0.18396666646003723, -0.9864822030067444, -0.9423890113830566, 0.7126163244247437, -4.152727127075195, -1.2085870504379272, -1.2136889696121216, 0.020980466157197952, 0.2946593463420868, -3.2832207679748535, -0.8679813146591187, 1.1639273166656494, 1.5728373527526855, 2.573650360107422, -0.735170841217041, -0.6252106428146362, 0.8845068216323853, -0.4137551784515381, -0.717841625213623, 1.239960789680481, -0.0034943430218845606, -5.1847429275512695, -0.5298432111740112, 1.1038732528686523, -1.120495080947876, 1.1481316089630127, -0.458670973777771, -16.859643936157227, -1.159016728401184, 25.472463607788086, -13.735668182373047, -0.04215097799897194, -0.0037311427295207977, 0.035029973834753036, 0.05893435329198837, 0.008016707375645638, -0.008253018371760845], [0.09061092883348465, -1.8625471591949463, 1.5850087404251099, 1.8215835094451904, -0.7023115754127502, -1.0029019117355347, 1.0813686847686768, 0.17759700119495392, -0.9065629243850708, -1.1729203462600708, 0.5151455402374268, -4.11379861831665, -0.9446527361869812, -1.1535546779632568, 0.14340965449810028, 0.3271147906780243, -3.2616028785705566, -0.8595583438873291, 1.165917158126831, 1.546187400817871, 2.4879815578460693, -0.6649627685546875, -0.7165625691413879, 0.8652905821800232, -0.5365201234817505, -0.8567216396331787, 1.095930576324463, 0.19529655575752258, -5.2210283279418945, -0.38952478766441345, 1.0676307678222656, -1.095210313796997, 1.1121269464492798, -0.29804888367652893, -16.69757080078125, -1.0687344074249268, 25.0988826751709, -13.752141952514648, -0.01873861439526081, -0.016096418723464012, -0.04224561154842377, -0.03223995119333267, -0.037628788501024246, 0.024330878630280495], [-0.04636996611952782, -1.868858814239502, 1.6195863485336304, 1.7748982906341553, -0.6351150870323181, -0.97572261095047, 1.0362064838409424, 0.12371621280908585, -0.8495969176292419, -1.044541358947754, 0.5466272830963135, -4.163529872894287, -1.0026888847351074, -1.277673363685608, -0.10207211971282959, 0.2522929310798645, -3.316598892211914, -0.8163366317749023, 1.1976401805877686, 1.6466165781021118, 2.560568332672119, -0.5565848350524902, -0.640024721622467, 0.7366657257080078, -0.3671492636203766, -0.7983989119529724, 1.1435588598251343, 0.18061763048171997, -5.1462321281433105, -0.4865887761116028, 0.8092529773712158, -1.1202932596206665, 1.2038207054138184, -0.4735644459724426, -16.601913452148438, -1.1836423873901367, 25.042022705078125, -13.64453411102295, 0.08873093873262405, -0.0025129748973995447, 0.10539421439170837, 0.01197490282356739, 0.06765677034854889, -0.0326865129172802], [-0.028005890548229218, 2.0085339546203613, -1.755105972290039, -1.8046687841415405, 0.688775897026062, 1.032341480255127, -1.0783507823944092, 0.07553339004516602, 1.078518033027649, 1.0684138536453247, -0.5721012949943542, 4.214428424835205, 0.9674558043479919, 1.3913447856903076, 0.04075973480939865, -0.297535240650177, 3.3186068534851074, 0.9195950627326965, -1.1665385961532593, -1.7873928546905518, -2.3741331100463867, 0.5206708908081055, 0.8226485252380371, -0.7865164279937744, 0.5115670561790466, 0.9556344151496887, -1.1997835636138916, -0.022216295823454857, 5.33761739730835, 0.491964727640152, -1.03546941280365, 0.9924335479736328, -1.18967604637146, 0.3540557324886322, 16.93986701965332, 1.058231234550476, -25.476905822753906, 13.800697326660156, 0.04833264276385307, -0.0026920887175947428, -0.08117666840553284, -0.05776647850871086, 0.008313431404531002, 0.09257517009973526], [0.2116713672876358, -2.048530101776123, 1.803910493850708, 2.217146873474121, -0.8349706530570984, -1.2700467109680176, 1.2092100381851196, -0.027532445266842842, -1.1558321714401245, -1.382576584815979, 0.7754215002059937, -4.758291244506836, -1.2121949195861816, -1.538354516029358, -0.0213755052536726, 0.2755592465400696, -3.592987537384033, -0.7510269284248352, 1.2910280227661133, 1.8091257810592651, 2.6326608657836914, -0.68230140209198, -0.5725114345550537, 0.9354084730148315, -0.40220463275909424, -1.132769227027893, 1.2635143995285034, 0.21192437410354614, -5.740894794464111, -0.6590717434883118, 1.0626327991485596, -1.0209397077560425, 1.193159580230713, -0.5982529520988464, -17.398237228393555, -1.4041203260421753, 26.511646270751953, -14.470810890197754, 0.08421345800161362, -0.04696274548768997, -0.011419374495744705, 0.06548412144184113, 0.06895449012517929, -0.05809400603175163], [0.06561992317438126, -1.968022346496582, 1.7314788103103638, 2.0704569816589355, -0.6756182909011841, -1.05020272731781, 1.073513150215149, 0.10328959673643112, -1.0565650463104248, -1.011712670326233, 0.47638192772865295, -4.249691963195801, -1.2159346342086792, -1.1361973285675049, 0.02974635362625122, 0.2766796946525574, -3.5226686000823975, -0.6412867307662964, 1.3920294046401978, 1.6248875856399536, 2.5431904792785645, -0.6412599682807922, -0.5586484670639038, 0.7438701391220093, -0.5391074419021606, -0.7404126524925232, 1.1557209491729736, -0.044534482061862946, -5.443572521209717, -0.563677191734314, 1.034924864768982, -1.1358498334884644, 1.2711412906646729, -0.35917162895202637, -16.804838180541992, -1.2728774547576904, 25.62797737121582, -13.855746269226074, 0.032018713653087616, -0.061525966972112656, 0.12404459714889526, 0.10949172079563141, 0.05786930397152901, -0.06156504526734352]], "fc1.bias": [-0.20671753585338593, 0.15525957942008972, 0.141440749168396, -0.2307494431734085, -0.10065559297800064, -0.2691046893596649, 0.25615382194519043, 0.23770296573638916, 0.20782576501369476, 0.23895330727100372, 0.15032517910003662, 0.19265331327915192, 0.04215991497039795, -0.21865513920783997, -0.16245244443416595, 0.06397184729576111, 0.2737056314945221, 0.14900222420692444, -0.08705806732177734, 0.29200974106788635, -0.07970978319644928, 0.22811327874660492, 0.35343068838119507, -0.14726199209690094, 0.11556991189718246, 0.2724107801914215, 0.21313251554965973, 0.13270603120326996, 0.1895558089017868, 0.06430307030677795, -0.1657486855983734, -0.11867530643939972, -0.20035500824451447, -0.11631284654140472, -0.2905634045600891, 0.11969935148954391, 0.30539700388908386, 0.12839873135089874, 0.1641664057970047, 0.08504870533943176, -0.08110214024782181, -0.11148349195718765, 0.16120761632919312, 0.3040386736392975, 0.09096786379814148, 0.2738831341266632, 0.1354523003101349, 0.03917892649769783, 0.1431414783000946, -0.3189939856529236, -0.17148876190185547, 0.1447257399559021, -0.28813356161117554, -0.28018108010292053, 0.08452974259853363, -0.13475745916366577, 0.26716822385787964, -0.21268527209758759, 0.10475864261388779, 0.1408267468214035, 0.23662307858467102, -0.09430311620235443, -0.21534757316112518, 0.3354155421257019, -0.2739996910095215, 0.1678764671087265, 0.08284315466880798, 0.09336044639348984, 0.06026029959321022, -0.1108444556593895, -0.19193138182163239, -0.2969248592853546, 0.1008390486240387, 0.23174703121185303, -0.26673373579978943, -0.2870188355445862, 0.09704666584730148, -0.17473731935024261, 0.2846052050590515, 0.08412150293588638, -0.1332729458808899, -0.09348056465387344, 0.06670933216810226, -0.07224839180707932, -0.23293231427669525, 0.05209479480981827, 0.23745977878570557, 0.34631165862083435, -0.14640513062477112, 0.03702718764543533, -0.09146171808242798, 0.06628787517547607, -0.19221563637256622, 0.053463250398635864, -0.24315840005874634, -0.2957875430583954, -0.31028035283088684, 0.12631279230117798, -0.3362014591693878, -0.19720648229122162], "fc2.weight": [[2.2265572547912598, -2.173257827758789, -1.9634917974472046, 2.366617202758789, 2.066664218902588, 2.4524085521698, -1.9882445335388184, -1.9856327772140503, -2.3822741508483887, -1.836913824081421, -2.110395908355713, -1.9981839656829834, -1.8717970848083496, 2.697486639022827, 2.4326257705688477, -2.0476255416870117, -2.584726333618164, -2.170849323272705, 2.3381457328796387, -2.38037109375, 2.3873512744903564, -1.9763643741607666, -2.456951856613159, 2.1990582942962646, -2.0763845443725586, -2.693929433822632, -2.4845283031463623, -1.9316774606704712, -2.009708881378174, -1.9534116983413696, 2.4968514442443848, 2.3597946166992188, 2.194835901260376, 2.1418166160583496, 2.4022300243377686, -2.3494181632995605, -2.163895606994629, -2.185591459274292, -2.134387731552124, -2.2525625228881836, 2.3881521224975586, 2.379345655441284, -2.1739182472229004, -1.9572521448135376, -2.2701478004455566, -2.147886276245117, -2.2349395751953125, -2.0831942558288574, -1.9721858501434326, 2.1512880325317383, 2.393173933029175, -2.161470890045166, 2.374824047088623, 2.4526214599609375, -2.24888277053833, 2.1915202140808105, -1.9487513303756714, 2.299856662750244, -1.9028948545455933, -2.0808818340301514, -2.304307460784912, 2.215470552444458, 2.2312886714935303, -2.2736878395080566, 2.3775794506073, -2.6266090869903564, -2.2730371952056885, -2.3397486209869385, -2.0520012378692627, 2.2455694675445557, 2.4266793727874756, 2.5111169815063477, -2.0641911029815674, -2.010850429534912, 2.166037082672119, 2.2217347621917725, -2.0644242763519287, 2.168525218963623, -1.8875895738601685, -2.218351125717163, 2.2414917945861816, 2.1967666149139404, -2.014888286590576, 2.4427175521850586, 2.450608015060425, -2.338344097137451, -2.3364880084991455, -2.3348228931427, 2.4817473888397217, -1.985244631767273, 2.051865816116333, -1.7523409128189087, 2.2219974994659424, -2.091668128967285, 2.3490214347839355, 2.1419036388397217, 2.193530797958374, -2.2026002407073975, 2.699051856994629, 2.367412567138672]], "fc2.bias": [0.3139065206050873]}