{"fc1.weight": [[0.19754189252853394, 1.8022102117538452, -1.7696540355682373, -0.9671704173088074, 0.6996171474456787, 0.06692853569984436, -1.3135207891464233, 1.009763479232788, 0.899254322052002, -0.07048633694648743, -0.6313784122467041, 4.568958759307861, 0.9982573986053467, -0.09048191457986832, -0.05415862798690796, -0.02442025952041149, 0.11743813753128052, 0.9315921664237976, -0.9725245833396912, -1.9477801322937012, -1.9360054731369019, 0.7947490215301514, -0.040108710527420044, -1.1980527639389038, 1.5559542179107666, 0.9434959888458252, -0.05675213411450386, -0.2082163691520691, 3.299794912338257, 0.7133647799491882, -0.01815844513475895, 0.8320302963256836, -0.6902951598167419, -0.08661555498838425, 1.1401416063308716, 0.3051629960536957, -1.2807196378707886, 0.9234738349914551, -0.030696190893650055, -0.023497404530644417, -0.006138265132904053, 0.016838686540722847, 0.058599378913640976, -0.08884935826063156], [0.13152387738227844, 1.6679048538208008, -1.8193753957748413, -0.9873286485671997, 0.7753384709358215, -0.10253967344760895, -1.2157684564590454, 1.0764566659927368, 1.00551438331604, -0.008527309633791447, -0.8385093212127686, 4.9243669509887695, 1.231332778930664, 0.1825401335954666, 0.05418974533677101, 0.13245494663715363, 0.27447226643562317, 0.9856602549552917, -1.1825594902038574, -2.1543848514556885, -2.2232768535614014, 0.6529627442359924, -0.1817011833190918, -1.2009114027023315, 1.550913691520691, 1.071254849433899, -0.039622969925403595, -0.22843137383460999, 3.495532274246216, 0.7094340324401855, -0.12199646234512329, 0.7828220725059509, -0.5744019150733948, 0.08871815353631973, 1.0102288722991943, 0.15620191395282745, -1.342125654220581, 1.17363703250885, -0.030764266848564148, -0.04832944646477699, -0.07512131333351135, 0.01522888895124197, 0.048484403640031815, 0.004160328768193722], [-0.12356030195951462, -1.7856894731521606, 1.804145097732544, 0.7389546632766724, -0.7452825307846069, -0.029275598004460335, 1.1088612079620361, -0.7772565484046936, -0.9744789004325867, -0.05006067454814911, 0.6160693764686584, -3.9641103744506836, -1.0165445804595947, -0.05354835465550423, -0.06635059416294098, -0.09980081021785736, -0.18284864723682404, -0.7091299295425415, 0.9219040870666504, 1.7620115280151367, 1.911942720413208, -0.7739506363868713, 0.2207353562116623, 1.0413322448730469, -1.574699878692627, -1.083437442779541, 0.04269064962863922, 0.4252655506134033, -2.801762819290161, -0.6482870578765869, 0.14949771761894226, -0.8483551740646362, 0.6977670788764954, 0.10650298744440079, -0.8564754128456116, -0.18833307921886444, 1.0619746446609497, -0.8229170441627502, 0.009144348092377186, 0.0032911645248532295, 0.02987988106906414, 0.00013059473712928593, 0.10368945449590683, -0.04134829714894295], [0.0005586088518612087, 1.7532479763031006, -1.802583932876587, -0.9043400883674622, 0.7372243404388428, 0.0902700275182724, -1.152039647102356, 0.9676413536071777, 0.9930045008659363, 0.07910216599702835, -0.6251534223556519, 4.5980424880981445, 1.130741834640503, 0.15592332184314728, 0.03925547003746033, -0.052301544696092606, 0.27071452140808105, 0.8777384757995605, -0.911078691482544, -2.048508405685425, -2.0059962272644043, 0.726597011089325, -0.06719159334897995, -1.2874844074249268, 1.6061633825302124, 1.0720059871673584, -0.25751134753227234, -0.16489841043949127, 3.292412519454956, 0.6409449577331543, -0.12442199140787125, 1.0302234888076782, -0.6181052923202515, -0.13910287618637085, 0.8998867869377136, 0.24966903030872345, -1.1870023012161255, 1.0040717124938965, -0.044389307498931885, -0.050232939422130585, 0.020288987085223198, -0.0056694429367780685, 0.03820788115262985, -0.043991200625896454], [0.0873129665851593, 1.6619676351547241, -1.7925128936767578, -0.8634128570556641, 0.6116467118263245, -0.02301877923309803, -1.094330072402954, 0.9620574712753296, 0.9040516018867493, 0.1381443738937378, -0.6898908019065857, 4.008174896240234, 1.0861473083496094, -0.03026948869228363, 0.17101721465587616, -0.006714447867125273, 0.14364580810070038, 0.7728083729743958, -0.7726684808731079, -1.9427580833435059, -1.6679075956344604, 0.5086231231689453, 0.01139003410935402, -1.1310876607894897, 1.584216594696045, 0.7942578792572021, -0.04332267865538597, -0.14729070663452148, 2.7287700176239014, 0.5696853399276733, 0.02661801502108574, 0.9679614305496216, -0.5608262419700623, -0.046834442764520645, 0.7873068451881409, 0.4084463119506836, -0.9756903052330017, 0.8750596046447754, -0.0276412945240736, -0.013341073878109455, 0.043517421931028366, 0.04651380702853203, -0.07318586111068726, 0.005573621019721031], [-0.21516790986061096, -1.6406270265579224, 1.8861709833145142, 0.7668047547340393, -0.7737745642662048, 0.09810464829206467, 1.3390072584152222, -0.9508078098297119, -1.0208696126937866, 0.11129478365182877, 0.5943498611450195, -4.325647354125977, -1.018857717514038, 0.04132036492228508, 0.07007934153079987, -0.07034968584775925, -0.2035440355539322, -1.0686075687408447, 0.9304718971252441, 2.087049722671509, 1.9683752059936523, -0.8639307618141174, 0.06579267978668213, 1.2790262699127197, -1.6142213344573975, -1.1424959897994995, 0.10738509148359299, 0.32827603816986084, -3.1807618141174316, -0.9000217318534851, 0.1308109313249588, -0.8069692850112915, 0.49669748544692993, 0.10357388854026794, -0.8501086831092834, -0.1527649313211441, 1.2622543573379517, -1.1260168552398682, -0.07139985263347626, 0.06874066591262817, 0.007386064622551203, -0.06010789796710014, 0.023336803540587425, -0.05774208530783653], [0.12237905710935593, 1.6144165992736816, -1.8841065168380737, -0.8906114101409912, 0.7483624219894409, -0.0583769828081131, -1.0854679346084595, 0.8904100656509399, 0.8289895057678223, -0.09333486109972, -0.6479702591896057, 4.347292423248291, 0.9662781953811646, 0.10782120376825333, 0.10753849893808365, -0.1262841522693634, 0.20974187552928925, 0.9637588858604431, -0.8259899616241455, -1.9018352031707764, -1.8596354722976685, 0.5678056478500366, -0.07362629473209381, -1.1897963285446167, 1.779439926147461, 1.0893679857254028, -0.1464734971523285, -0.1883794367313385, 3.0143446922302246, 0.5917901992797852, -0.17266027629375458, 0.8221570253372192, -0.44927147030830383, 0.07971019297838211, 0.8636506795883179, 0.43244701623916626, -1.1566325426101685, 1.0991535186767578, 0.033183664083480835, -0.013676336966454983, -0.12504929304122925, -0.018218480050563812, 0.042798787355422974, 0.02950282394886017], [-0.07750392705202103, -1.9530433416366577, 1.892768383026123, 0.782315194606781, -0.7882876396179199, 0.17744019627571106, 1.3722689151763916, -0.8706091642379761, -1.0543357133865356, -0.0002122334117302671, 0.7961605191230774, -4.326288223266602, -1.0591094493865967, -0.1721591353416443, -0.11005707830190659, -0.12112830579280853, -0.044292204082012177, -0.9036097526550293, 1.0127203464508057, 1.8923978805541992, 2.2178878784179688, -0.6069530844688416, -0.06235708296298981, 1.0491068363189697, -1.714625597000122, -1.0316781997680664, 0.157967671751976, 0.29126644134521484, -3.2169322967529297, -0.9272728562355042, 0.1320050060749054, -0.8038361668586731, 0.6835005283355713, 0.10881651937961578, -1.03207266330719, -0.1896609216928482, 1.245661735534668, -1.1756905317306519, -0.06410721689462662, 0.00667688949033618, -0.039366215467453, -0.08824636042118073, -0.04675393924117088, -0.03711353987455368], [0.22494208812713623, 1.4217498302459717, -1.7862001657485962, -0.7562143802642822, 0.7287394404411316, 0.037318624556064606, -1.0565356016159058, 0.89952552318573, 0.846213161945343, -0.12244259566068649, -0.6212667226791382, 3.6445465087890625, 0.7966586947441101, 0.06229276955127716, -0.037573155015707016, 0.061722468584775925, 0.04265990108251572, 0.8225864768028259, -0.8820816278457642, -1.865422010421753, -1.6681506633758545, 0.660553514957428, -0.0806400254368782, -0.940243661403656, 1.6502444744110107, 0.9317299127578735, -0.2299736589193344, -0.26843610405921936, 2.71883225440979, 0.5311400294303894, -0.02573862485587597, 0.7025864720344543, -0.5350967049598694, -0.058659788221120834, 0.9595651030540466, 0.31040915846824646, -0.8048745393753052, 0.8833184242248535, -0.047251347452402115, 0.021914826706051826, -0.031725503504276276, 0.016749676316976547, 0.024754635989665985, 0.0011879338417202234], [-0.11017249524593353, -1.6289547681808472, 1.8871381282806396, 0.8853723406791687, -0.7252459526062012, -0.08022410422563553, 1.30093252658844, -0.8506256341934204, -0.839329719543457, 0.05383926257491112, 0.6086432933807373, -4.187949180603027, -1.0530946254730225, 0.0756622850894928, -0.1797267198562622, 0.03936510533094406, -0.15457142889499664, -0.8759211301803589, 1.0679311752319336, 1.9913257360458374, 2.0066068172454834, -0.7736333608627319, 0.06393354386091232, 0.9649385809898376, -1.725380301475525, -1.0713664293289185, 0.0818527415394783, 0.3946608901023865, -2.870170831680298, -0.8137804269790649, 0.05830032750964165, -0.9367938041687012, 0.6011435985565186, 0.0003346505109220743, -0.9503379464149475, -0.2275272011756897, 1.1468076705932617, -0.9644848704338074, -0.07832112908363342, 0.01581183262169361, 0.03841087222099304, -0.04946713149547577, -0.036355189979076385, -0.025120366364717484], [0.01830238290131092, 1.7988338470458984, -2.0353360176086426, -0.7776818871498108, 0.7792274355888367, -0.11248467862606049, -1.3737120628356934, 1.0792335271835327, 0.981949508190155, 0.04402842000126839, -0.7606565356254578, 4.585514545440674, 0.9251751899719238, 0.10236924141645432, 0.004566006828099489, 0.03038516640663147, 0.30839574337005615, 0.8408409357070923, -1.0374233722686768, -1.8752412796020508, -2.016819715499878, 0.7424546480178833, 0.01558726280927658, -1.2099555730819702, 1.6547704935073853, 1.054218053817749, -0.2314767986536026, -0.20300297439098358, 3.4160032272338867, 0.6625017523765564, -0.15961922705173492, 0.7613003849983215, -0.5172094702720642, 0.0471065528690815, 1.0369384288787842, 0.22649231553077698, -1.1469351053237915, 1.1770946979522705, -0.05900757014751434, -0.07976669073104858, -0.08279771357774734, -0.0006531656254082918, 0.00684680650010705, 0.08146468549966812], [0.16224588453769684, 1.666464924812317, -1.7795462608337402, -0.7384753823280334, 0.7598636150360107, -0.14716218411922455, -1.0896668434143066, 0.8850664496421814, 0.7140935659408569, 0.08528867363929749, -0.5249484181404114, 3.8354732990264893, 0.8802132606506348, 0.060905490070581436, -0.01695568859577179, -0.14292478561401367, 0.2642352283000946, 0.6752546429634094, -0.8580449223518372, -1.7977900505065918, -1.8144537210464478, 0.6289957165718079, -0.006694998126477003, -1.0943876504898071, 1.6883622407913208, 0.9564884305000305, -0.04178762435913086, -0.3621021509170532, 2.578118085861206, 0.6050359606742859, -0.02258155681192875, 0.9684399366378784, -0.5428889989852905, -0.11965768039226532, 0.9658624529838562, 0.35749542713165283, -0.8586691617965698, 0.7895050644874573, -0.025450019165873528, 0.021560460329055786, -0.0241689532995224, 0.027405841276049614, -0.02902493253350258, 0.006289070937782526], [0.15256240963935852, 1.6430888175964355, -1.6129597425460815, -0.7819419503211975, 0.6199609637260437, -0.021223217248916626, -1.0876585245132446, 0.7780718803405762, 0.9392496347427368, 0.008417271077632904, -0.5180691480636597, 3.671780824661255, 0.9553571343421936, -0.04390428587794304, 0.17472083866596222, -0.1074092909693718, 0.16389012336730957, 0.8356457352638245, -0.8349841237068176, -1.755435585975647, -1.810981273651123, 0.6269601583480835, 0.06337624043226242, -1.1348236799240112, 1.7099947929382324, 0.8549608588218689, -0.27538418769836426, -0.38348326086997986, 2.6906473636627197, 0.6233479976654053, -0.09350702911615372, 0.8995413184165955, -0.6631818413734436, 0.004710961598902941, 0.7836479544639587, 0.3297191560268402, -1.0304088592529297, 0.8276227712631226, -0.016949642449617386, -0.006931354757398367, -0.028990307822823524, -0.03603413328528404, 0.05398895591497421, 0.04987291619181633], [0.1189718171954155, 1.6937880516052246, -1.9216169118881226, -0.8425542116165161, 0.8499534726142883, -0.169986292719841, -1.445874810218811, 0.9035890102386475, 1.000740647315979, 0.05916308984160423, -0.6575501561164856, 4.523900985717773, 1.1438785791397095, -0.06569819152355194, 0.18396715819835663, -0.046245865523815155, 0.08128583431243896, 1.036606788635254, -1.058541178703308, -2.0650904178619385, -1.9482570886611938, 0.7818948030471802, -0.15207244455814362, -1.2373714447021484, 1.5599344968795776, 1.073534607887268, -0.09064929932355881, -0.5043237209320068, 3.3350706100463867, 0.8320049047470093, -0.037376224994659424, 0.8398259878158569, -0.48707035183906555, 0.08049850165843964, 1.1228126287460327, 0.41990476846694946, -1.3359569311141968, 0.9407462477684021, -0.0319419763982296, 0.020560234785079956, -0.011436901986598969, 0.005131646525114775, 0.017677361145615578, 0.01768268458545208], [-0.0708836168050766, -1.7734843492507935, 1.7629413604736328, 0.8498902320861816, -0.811209499835968, -0.07985882461071014, 1.2779065370559692, -0.7820152044296265, -1.0145467519760132, 0.1268846094608307, 0.6627612709999084, -4.216532230377197, -0.9636094570159912, -0.048469338566064835, 0.022414105013012886, -0.12185557931661606, -0.2880537509918213, -0.8493258953094482, 0.871632993221283, 1.9481333494186401, 1.9306278228759766, -0.7436415553092957, 0.15636330842971802, 1.084511637687683, -1.5840390920639038, -1.0678400993347168, 0.17886993288993835, 0.34273743629455566, -2.948148250579834, -0.5959407091140747, 0.06038755550980568, -0.8368412256240845, 0.6112855672836304, -0.06075679138302803, -0.930732250213623, -0.3709259331226349, 1.1712162494659424, -1.114516258239746, -0.047443099319934845, -0.05694440379738808, 0.06382939964532852, 0.045771412551403046, -0.015743447467684746, 0.016931628808379173], [-0.12018148601055145, -1.668302297592163, 1.7517584562301636, 0.8248365521430969, -0.7512573599815369, -0.014226817525923252, 1.2356958389282227, -1.0143887996673584, -0.9635453224182129, -0.0273304246366024, 0.6790704131126404, -3.9609107971191406, -1.0505670309066772, -0.10961391031742096, -0.0667937621474266, -0.0077243526466190815, -0.27544116973876953, -0.7393088936805725, 1.0377570390701294, 1.792001485824585, 1.972359299659729, -0.5514571070671082, -0.11032909154891968, 1.1006040573120117, -1.6171315908432007, -0.8291028738021851, 0.07883012294769287, 0.3271001875400543, -2.818986654281616, -0.8369191884994507, -0.01195114478468895, -0.8324853181838989, 0.660297155380249, -0.09155403822660446, -0.7641162872314453, -0.1625489890575409, 1.0767749547958374, -0.9260548949241638, -0.00733010983094573, -0.0006978832534514368, 0.05880025401711464, 0.02965446002781391, -0.007091916166245937, 0.054994452744722366], [-0.01851615123450756, -1.8226039409637451, 1.9042216539382935, 0.8936448097229004, -0.8340412974357605, -0.08727579563856125, 1.4056880474090576, -1.100348711013794, -0.8929693698883057, -0.12910786271095276, 0.800849437713623, -4.552049160003662, -1.1775763034820557, -0.13903537392616272, -0.1554999053478241, 0.07106348127126694, -0.18463897705078125, -0.9187974333763123, 0.9747278094291687, 2.0792722702026367, 2.1024463176727295, -0.7894847393035889, 0.03512396663427353, 1.2038031816482544, -1.7726815938949585, -1.1068813800811768, 0.20284274220466614, 0.4117610454559326, -3.0116915702819824, -0.7120732069015503, 0.18796221911907196, -0.7554551959037781, 0.49622467160224915, 0.14877793192863464, -0.9613440632820129, -0.4089564383029938, 1.2467775344848633, -1.1478431224822998, 0.06182027608156204, -0.02402913011610508, 0.025103149935603142, -0.04690929129719734, -0.0030006347224116325, 0.010510673746466637], [0.043249282985925674, 2.018110513687134, -1.8850544691085815, -0.998266875743866, 0.9201155304908752, 0.043047841638326645, -1.3372143507003784, 0.8654791712760925, 1.146498441696167, 0.15621691942214966, -0.7940866351127625, 4.607910633087158, 1.1529539823532104, -0.09552320837974548, 0.029834536835551262, -0.07192149758338928, 0.0578322596848011, 0.836595356464386, -0.9559605717658997, -2.135443925857544, -2.3571300506591797, 0.8181288838386536, -0.157087042927742, -1.2974722385406494, 1.5456253290176392, 0.9854959845542908, -0.2288103550672531, -0.35951340198516846, 3.361517906188965, 0.9384005665779114, -0.1697467565536499, 1.0146663188934326, -0.5484965443611145, -0.06873597949743271, 0.991009533405304, 0.4046104848384857, -1.092621922492981, 1.1840624809265137, -0.054414451122283936, -0.022999808192253113, 0.005445064976811409, 0.058911506086587906, -0.05268571525812149, -0.007176029961556196], [-0.21201026439666748, -1.765073537826538, 1.7072831392288208, 0.7323663830757141, -0.5541121363639832, 0.18506300449371338, 1.2007018327713013, -0.9089393615722656, -0.8049274682998657, 0.08205166459083557, 0.5106109976768494, -3.83140230178833, -0.8774466514587402, 0.015769261866807938, -0.17772816121578217, -0.1408739537000656, -0.21228042244911194, -0.8102995157241821, 1.035105586051941, 1.8454593420028687, 1.9070720672607422, -0.7184194922447205, -0.06358896195888519, 1.1862424612045288, -1.5626904964447021, -0.8328534960746765, 0.12984079122543335, 0.17990665137767792, -2.683225154876709, -0.6653227210044861, 0.20436981320381165, -0.969211757183075, 0.4388872981071472, 0.11587692052125931, -0.8612525463104248, -0.1277853548526764, 0.9783210158348083, -0.950611412525177, 0.023704782128334045, -0.060952138155698776, -0.0001221223792526871, -0.06812074035406113, -0.001769211026839912, -0.058631278574466705], [-0.134856715798378, -2.0053513050079346, 2.0171377658843994, 0.9148514270782471, -0.7831071019172668, 0.05531274154782295, 1.380373477935791, -0.9357576966285706, -1.061224341392517, 0.06445213407278061, 0.8438140153884888, -4.696715831756592, -1.136101245880127, -0.07189367711544037, -0.02488042786717415, -0.06572216749191284, -0.2641040086746216, -1.0052706003189087, 1.1751303672790527, 2.1314873695373535, 2.140270233154297, -0.8042014837265015, 0.02858118526637554, 1.2178363800048828, -1.6155049800872803, -0.9705628752708435, 0.26898443698883057, 0.22664758563041687, -3.3297696113586426, -0.8878638744354248, 0.2435077726840973, -0.9340295195579529, 0.7030498385429382, 0.08035514503717422, -1.0940154790878296, -0.29398414492607117, 1.2590540647506714, -1.103865385055542, -0.03936551883816719, -0.010973435826599598, -0.02332499995827675, -0.05919533222913742, -0.01940825581550598, 0.06768938153982162], [-0.08056142181158066, -1.7161550521850586, 1.5613888502120972, 0.7601906657218933, -0.5799988508224487, -0.011302177794277668, 1.243644118309021, -0.7921349406242371, -0.8280687928199768, 0.106134332716465, 0.6337239146232605, -4.035475254058838, -0.8871251940727234, -0.12311634421348572, -0.14789363741874695, -0.04106764867901802, -0.06504861265420914, -0.8842400312423706, 0.9597055315971375, 1.9340472221374512, 1.775473952293396, -0.7691367268562317, 0.16969437897205353, 1.0199947357177734, -1.7467217445373535, -1.0742895603179932, 0.0013530850410461426, 0.24519649147987366, -2.6747632026672363, -0.8134195804595947, 0.10734043270349503, -0.9760841727256775, 0.48729783296585083, 0.18978707492351532, -0.9569923281669617, -0.15413954854011536, 1.1047165393829346, -0.9205292463302612, 0.03210194781422615, -0.04027529060840607, 0.027527904137969017, 0.06369902938604355, -0.037467293441295624, -0.05663272738456726], [0.09380041062831879, 1.5494810342788696, -1.7481776475906372, -0.6884961724281311, 0.6304441094398499, 0.019779261201620102, -1.1195919513702393, 0.8597676753997803, 0.9609691500663757, 0.13220937550067902, -0.5853031277656555, 3.9577176570892334, 0.9850617051124573, -0.02900402806699276, 0.04327107593417168, 0.04622755944728851, 0.2531125545501709, 0.7379811406135559, -0.9300960898399353, -1.6778713464736938, -1.7858593463897705, 0.7153730988502502, -0.07322855293750763, -1.1820764541625977, 1.6805301904678345, 0.9519175887107849, -0.21645145118236542, -0.4113459587097168, 2.6493284702301025, 0.5577273964881897, -0.1760217845439911, 0.7193595170974731, -0.5897225737571716, -0.1823360025882721, 0.8995944261550903, 0.3615395724773407, -0.812958300113678, 0.8967918157577515, 0.09748365730047226, -0.07070103287696838, -0.06902321428060532, -0.020476575940847397, -0.03511086478829384, -0.05619802325963974], [0.2333356738090515, 1.4907193183898926, -1.7755241394042969, -0.6619400978088379, 0.7389816641807556, -0.0257022175937891, -1.2784427404403687, 0.9680611491203308, 0.9733794331550598, 0.0687280148267746, -0.539476215839386, 3.9021143913269043, 0.8588628768920898, 0.08668819814920425, 0.09004208445549011, 0.09337003529071808, 0.05628354847431183, 0.9594768285751343, -0.7991026639938354, -1.808637022972107, -1.7893850803375244, 0.7418532371520996, -0.20146240293979645, -1.053052544593811, 1.4866610765457153, 0.9155799150466919, -0.1116674393415451, -0.41966676712036133, 2.6723341941833496, 0.7354435920715332, -0.25389233231544495, 0.7630172371864319, -0.6786843538284302, -0.10125706344842911, 0.781772255897522, 0.2866765260696411, -0.8871974945068359, 0.9803087115287781, 0.0817694291472435, 0.01897643506526947, -0.02490791492164135, 0.016345413401722908, 0.009044360369443893, -0.10458268970251083], [0.013959085568785667, -1.7852617502212524, 1.6970595121383667, 0.7728210091590881, -0.728543221950531, 0.11701636016368866, 1.0300147533416748, -0.846875786781311, -0.8731287717819214, 0.14709483087062836, 0.666698694229126, -3.785186290740967, -0.9963751435279846, -0.00743408827111125, -0.20669493079185486, -0.04176174849271774, -0.015679379925131798, -0.9820829629898071, 0.8452354073524475, 1.7479485273361206, 1.9600549936294556, -0.7114494442939758, 0.17433026432991028, 1.1942551136016846, -1.7105712890625, -0.8824589252471924, 0.24971476197242737, 0.3608706295490265, -2.7651326656341553, -0.547599732875824, 0.18290911614894867, -0.8593026399612427, 0.4698807895183563, 0.12927818298339844, -1.008932113647461, -0.39377713203430176, 1.0472463369369507, -0.8785709738731384, -0.08373112976551056, -0.07001464068889618, -0.05143621191382408, 0.05433088168501854, 0.06627532094717026, -0.06374447792768478], [-0.030398309230804443, 1.6736944913864136, -1.7772672176361084, -0.6775828003883362, 0.6413485407829285, 0.05732177197933197, -1.1005021333694458, 0.9177829027175903, 0.950755774974823, 0.054087214171886444, -0.7180439829826355, 3.87935733795166, 0.997230052947998, 0.11316686123609543, 0.044807665050029755, 0.11141987890005112, 0.26587149500846863, 0.8517405986785889, -0.9259899258613586, -1.9352864027023315, -1.9166791439056396, 0.7254478335380554, -0.10754305869340897, -1.1450514793395996, 1.6097898483276367, 1.0176129341125488, -0.08464905619621277, -0.4162592589855194, 2.632161855697632, 0.6632472276687622, -0.18178406357765198, 0.7996137738227844, -0.6069847941398621, -0.06283131241798401, 0.948890209197998, 0.2887118458747864, -1.0270977020263672, 1.0070171356201172, -0.02672308124601841, -0.04960799217224121, -0.12158804386854172, -0.018001506105065346, 0.023287784308195114, 0.012074204161763191], [-0.0010965606197714806, -1.6285446882247925, 1.5925315618515015, 0.8982858061790466, -0.6168689131736755, 0.08243682235479355, 1.2302244901657104, -0.8471189141273499, -0.7721474170684814, -0.035025615245103836, 0.457694411277771, -3.9250144958496094, -0.875924289226532, -0.20041365921497345, -0.22372618317604065, 0.09348400682210922, -0.04809379577636719, -0.8879588842391968, 0.9634020328521729, 1.7743425369262695, 1.932414174079895, -0.6613175272941589, -0.08261775970458984, 1.1464005708694458, -1.7278963327407837, -0.981065034866333, 0.09757881611585617, 0.38393452763557434, -2.8089699745178223, -0.7248151302337646, 0.13431642949581146, -0.7543199062347412, 0.5035389065742493, 0.017883403226733208, -0.9945448637008667, -0.4106065630912781, 1.0795586109161377, -0.8937190771102905, -0.08499076217412949, -0.03359303995966911, 0.059850119054317474, 0.04069114476442337, 0.007976359687745571, -0.006285849492996931], [-0.2026354819536209, -1.972762107849121, 1.7672473192214966, 1.0062001943588257, -0.7168131470680237, 0.0376102514564991, 1.1927878856658936, -0.9467340111732483, -0.8764036893844604, 0.03983576223254204, 0.8768085837364197, -4.317206382751465, -1.1068929433822632, -0.17498569190502167, 0.043905455619096756, 0.12826970219612122, -0.31574034690856934, -1.0154293775558472, 1.0596835613250732, 2.095452070236206, 2.192950487136841, -0.7346504330635071, 0.1478981375694275, 1.3284105062484741, -1.7305017709732056, -0.9567529559135437, 0.0339093953371048, 0.21745245158672333, -3.2731311321258545, -0.7635417580604553, 0.06068906933069229, -1.0552703142166138, 0.6296359896659851, -0.023359265178442, -0.8955904245376587, -0.2929897904396057, 1.1229524612426758, -1.1685221195220947, 0.03192063421010971, -0.017015576362609863, 0.03046291507780552, -0.0102138826623559, 0.07388655096292496, -0.017220592126250267], [0.061510227620601654, 1.5872106552124023, -1.6882647275924683, -0.8352705836296082, 0.6988034844398499, 0.10609961301088333, -1.1541144847869873, 0.831192135810852, 0.7926473021507263, 0.0003560875484254211, -0.6751734018325806, 3.670177936553955, 0.9936529994010925, -0.011331590823829174, 0.11006694287061691, -0.04228748753666878, 0.14262667298316956, 0.9373193383216858, -0.9991228580474854, -1.6717535257339478, -1.7532199621200562, 0.6948333978652954, -0.16307319700717926, -1.049590826034546, 1.5352081060409546, 0.8739574551582336, -0.22607730329036713, -0.13480128347873688, 2.646467447280884, 0.6652345657348633, -0.05856960266828537, 0.7244939804077148, -0.3869042992591858, -0.141278937458992, 0.7443695664405823, 0.12792325019836426, -0.9767876863479614, 0.9264711737632751, -0.02429485321044922, -0.060864947736263275, -0.04692576825618744, -0.0012065030168741941, -0.07283461838960648, 0.021109705790877342], [0.03639813885092735, 1.733108639717102, -1.5720889568328857, -0.688383162021637, 0.7860531806945801, -0.0938335433602333, -1.2323408126831055, 1.0221153497695923, 0.8418681621551514, -0.03449583426117897, -0.7324563264846802, 3.7911648750305176, 0.914462149143219, 0.1016811802983284, 0.10591509938240051, 0.016103407368063927, 0.11144404858350754, 0.7825825214385986, -0.8165600895881653, -1.7715089321136475, -1.7742643356323242, 0.6730141043663025, 0.01005359273403883, -1.1437416076660156, 1.6154842376708984, 0.8492045402526855, 0.05503552407026291, -0.3913085162639618, 2.9451799392700195, 0.8343411087989807, -0.123841293156147, 0.7698709964752197, -0.6202845573425293, 0.0018816019874066114, 0.8368623852729797, 0.4591672718524933, -0.9403621554374695, 0.8654826879501343, 0.04118388146162033, -0.016632890328764915, -0.07454731315374374, 0.016756540164351463, 0.0018446834292262793, -0.011387101374566555], [-0.22862033545970917, -1.631967544555664, 1.8063459396362305, 0.9291715025901794, -0.7393325567245483, 0.018014980480074883, 1.1660151481628418, -0.9817281365394592, -0.8398460149765015, -0.05731258541345596, 0.7908511161804199, -4.393458843231201, -0.9494423866271973, -0.03561977669596672, 0.05807117745280266, -0.14098012447357178, -0.2599748373031616, -0.9680324792861938, 1.0962239503860474, 2.1197080612182617, 2.02065372467041, -0.6020394563674927, -0.05752764269709587, 1.0897529125213623, -1.5942316055297852, -0.946489691734314, 0.11342806369066238, 0.47765418887138367, -2.9224672317504883, -0.7798517346382141, 0.08972141146659851, -0.9516851902008057, 0.6302323937416077, 0.20649883151054382, -1.1005899906158447, -0.3548888862133026, 1.114489197731018, -0.9512857794761658, 0.046823009848594666, -0.06574234366416931, 0.016162389889359474, -0.05779946595430374, 0.013029228895902634, -0.0033664556685835123], [-0.10284458845853806, -1.7266488075256348, 1.881608009338379, 0.7918289303779602, -0.5672860145568848, 0.09379086643457413, 1.1513086557388306, -0.840697705745697, -0.8402814865112305, 0.018924586474895477, 0.5293371081352234, -4.100302696228027, -1.1146479845046997, -0.07665367424488068, -0.16221417486667633, -0.13022257387638092, -0.19672419130802155, -0.7934936285018921, 0.8459801077842712, 1.9303691387176514, 1.8575693368911743, -0.5827915072441101, -0.08601036667823792, 1.209194302558899, -1.7539647817611694, -1.1056764125823975, 0.030280377715826035, 0.39769139885902405, -2.853853225708008, -0.8274056315422058, 0.06716401875019073, -1.0225012302398682, 0.6927599906921387, 0.1452021598815918, -0.8815702199935913, -0.31700119376182556, 1.100981593132019, -0.9729916453361511, 0.02064942941069603, 0.0009500104351900518, -0.02110549621284008, -0.023627065122127533, 0.012565759010612965, 0.07473746687173843], [-0.18889926373958588, -1.9024784564971924, 1.7968275547027588, 0.7897862792015076, -0.6669009923934937, 0.17639859020709991, 1.4335505962371826, -0.9850561022758484, -0.9678598046302795, -0.09242293983697891, 0.5996852517127991, -4.346007823944092, -1.2362102270126343, 0.09228583425283432, 0.04614156484603882, -0.12816601991653442, -0.10823940485715866, -0.8382567167282104, 1.0294761657714844, 2.003981590270996, 2.2368955612182617, -0.6729836463928223, 0.14542129635810852, 1.1226131916046143, -1.6107889413833618, -0.9593619704246521, 0.016112467274069786, 0.2691977024078369, -3.1824100017547607, -0.7966875433921814, 0.20614813268184662, -0.9747346639633179, 0.507051408290863, 0.1259530931711197, -1.1636544466018677, -0.33179500699043274, 1.0473662614822388, -1.0043519735336304, -0.06115712597966194, 0.024891624227166176, 0.07758024334907532, -0.04806999862194061, 0.0582895390689373, 0.07664209604263306], [0.15138503909111023, 1.6794674396514893, -1.8120392560958862, -0.9365501999855042, 0.7682011127471924, -0.2071295976638794, -1.1954132318496704, 0.8173753023147583, 0.9676073789596558, -0.09662564098834991, -0.4921298921108246, 3.893484354019165, 0.843721866607666, 0.16633102297782898, -0.05831032618880272, 0.09237837046384811, 0.1184571385383606, 0.7324795722961426, -0.9360955357551575, -1.9622405767440796, -1.7049555778503418, 0.7232145667076111, 0.04270373284816742, -0.9477333426475525, 1.7366944551467896, 0.8638522624969482, -0.028121722862124443, -0.16972140967845917, 2.67655348777771, 0.734592616558075, -0.15289206802845, 0.7340404987335205, -0.5013871788978577, 0.030056573450565338, 0.8131086230278015, 0.30441781878471375, -0.8872520327568054, 0.8165668249130249, -0.025905558839440346, -0.062314219772815704, 0.046335265040397644, -0.017009716480970383, 0.03117036446928978, -0.04570438712835312], [0.235452800989151, 2.0158817768096924, -1.8956727981567383, -1.005439281463623, 0.7036092877388, -0.06735454499721527, -1.3933979272842407, 0.9262170195579529, 1.1389089822769165, -0.06741723418235779, -0.6797295212745667, 4.421623706817627, 1.0551668405532837, 0.19589842855930328, 0.11280039697885513, 0.1415683627128601, 0.2649533450603485, 0.9878780841827393, -1.0409529209136963, -2.1165976524353027, -1.9406241178512573, 0.7831096053123474, -0.09396868199110031, -1.2256823778152466, 1.6600120067596436, 1.1556051969528198, -0.25637194514274597, -0.3623170554637909, 3.0929667949676514, 0.8658492565155029, -0.20846837759017944, 0.8190336227416992, -0.734172523021698, -0.11433591693639755, 0.881997287273407, 0.3592107892036438, -1.0928889513015747, 1.1457303762435913, 0.061454497277736664, 0.00014076456136535853, -0.09815811365842819, -0.025065351277589798, -0.0338403657078743, 0.021189942955970764], [-0.1076575443148613, -1.7031025886535645, 1.7478946447372437, 0.755118191242218, -0.5300488471984863, -0.07428072392940521, 1.1281981468200684, -0.8628701567649841, -0.756120502948761, 0.08755362778902054, 0.5917444825172424, -3.875295877456665, -0.9997206926345825, -0.1437886655330658, -0.019487306475639343, 0.07099532335996628, -0.2702521085739136, -0.8599382638931274, 1.0296142101287842, 1.8378705978393555, 1.8901516199111938, -0.7578915953636169, 0.0072745769284665585, 1.1063406467437744, -1.7752879858016968, -0.8717360496520996, 0.18475311994552612, 0.36177974939346313, -2.7277157306671143, -0.790538489818573, 0.05173816159367561, -0.8492226600646973, 0.49775946140289307, 0.1915362924337387, -0.942138135433197, -0.35127636790275574, 1.0040651559829712, -1.09596586227417, 0.031279727816581726, 0.013222144916653633, 0.10859038680791855, -0.022259796038269997, -0.06615763902664185, 0.06556189060211182], [0.07772748917341232, 1.829882025718689, -2.0636770725250244, -1.073388934135437, 0.6758829355239868, -0.04570077359676361, -1.2015182971954346, 0.8895626068115234, 1.1094930171966553, 0.10085960477590561, -0.7216535806655884, 4.775569915771484, 1.127833366394043, 0.10923350602388382, -0.022924358025193214, -0.11784650385379791, 0.1290566772222519, 1.0477195978164673, -1.0226285457611084, -1.9165189266204834, -1.9447906017303467, 0.6128765940666199, 0.04375234991312027, -1.3614846467971802, 1.5791302919387817, 1.0362777709960938, -0.20382514595985413, -0.2852572202682495, 3.5535006523132324, 0.7040135860443115, 0.01259472593665123, 0.8683568835258484, -0.4692886173725128, 0.11830992996692657, 1.048728346824646, 0.1972893923521042, -1.2638596296310425, 1.2267850637435913, -0.04666290432214737, 0.05631750822067261, -0.08597233146429062, 0.007575565483421087, -0.03620686009526253, 0.05062803626060486], [-0.08221659064292908, -1.8105369806289673, 1.9784705638885498, 0.7860743999481201, -0.7749019265174866, 0.051983099430799484, 1.2247074842453003, -1.099997639656067, -1.0937391519546509, 0.015728501603007317, 0.7716577053070068, -4.44769287109375, -1.1260815858840942, -0.09350267797708511, 0.03195773810148239, -0.018689580261707306, -0.2545945942401886, -0.8861173987388611, 1.1292906999588013, 2.031857967376709, 2.1262142658233643, -0.8297548294067383, 0.162777841091156, 1.1818681955337524, -1.75016188621521, -0.9257287383079529, 0.10560531914234161, 0.25705039501190186, -3.252784013748169, -0.9176551699638367, 0.14136841893196106, -0.8054842948913574, 0.5801766514778137, 0.125374436378479, -1.1135802268981934, -0.318717360496521, 1.0954115390777588, -1.0407564640045166, -0.08205687999725342, 0.051359742879867554, -5.630727537209168e-05, -0.08064193278551102, -0.018734585493803024, -0.030271761119365692], [0.1206074133515358, 1.5492128133773804, -1.707571268081665, -0.6400911808013916, 0.5233321189880371, -0.185233935713768, -0.9571265578269958, 0.9452028870582581, 0.720962643623352, 0.045458752661943436, -0.6056109666824341, 3.908698081970215, 0.8181257843971252, 0.052603740245103836, 0.035342030227184296, 0.05444776266813278, 0.2767634391784668, 0.9249929785728455, -0.8566171526908875, -1.766312599182129, -1.9296892881393433, 0.6301136612892151, -0.023376744240522385, -1.0654672384262085, 1.597228765487671, 0.9919699430465698, -0.048527877777814865, -0.3729889988899231, 2.8438103199005127, 0.7720369100570679, -0.18507833778858185, 0.8314836025238037, -0.6644375324249268, -0.19903980195522308, 0.917656660079956, 0.41244277358055115, -0.9263371229171753, 0.9568936228752136, -0.005527163855731487, -0.05844865366816521, -0.06666877865791321, -0.034051571041345596, -0.04371805489063263, 0.04403993487358093], [-0.19866783916950226, -1.7336784601211548, 1.9912782907485962, 0.8044729232788086, -0.7065929770469666, 0.16158956289291382, 1.2397042512893677, -1.0502513647079468, -1.0189275741577148, 0.05399173125624657, 0.7219605445861816, -4.164299964904785, -1.1736332178115845, -0.08574536442756653, -0.03328965604305267, -0.10027986019849777, -0.08691708743572235, -0.9481076598167419, 1.0200318098068237, 2.111353635787964, 2.135887861251831, -0.7663296461105347, 0.19200991094112396, 1.153167486190796, -1.6291368007659912, -0.8833175301551819, 0.1972934752702713, 0.19187352061271667, -3.0740914344787598, -0.8059293031692505, 0.1540284901857376, -0.972011387348175, 0.5543709397315979, -0.059488460421562195, -0.9231218099594116, -0.3535189628601074, 1.1956301927566528, -1.0171526670455933, -0.003161903703585267, -0.01973813585937023, -0.0362781323492527, -0.0783563107252121, -0.041056063026189804, -0.03996789827942848], [-0.029488062486052513, -1.7968393564224243, 1.7942372560501099, 0.9346221089363098, -0.5499413013458252, -0.10941587388515472, 1.210310697555542, -0.7679414749145508, -0.7988194227218628, -0.11668410897254944, 0.5744740962982178, -3.9301390647888184, -0.8733826875686646, -0.03856140002608299, -0.14242500066757202, 0.06475503742694855, -0.07767751067876816, -0.8802845478057861, 0.9357471466064453, 1.7874773740768433, 1.838935136795044, -0.777255654335022, 0.11103366315364838, 1.0630064010620117, -1.520767092704773, -1.0948983430862427, 0.059672243893146515, 0.3019196093082428, -2.8331925868988037, -0.6559264063835144, 0.20447583496570587, -0.9003424644470215, 0.4654155671596527, 0.1909511387348175, -0.9467062950134277, -0.27626195549964905, 1.0412095785140991, -0.9674966931343079, -0.10593017935752869, 0.011446232907474041, 0.09071005135774612, -0.003194583347067237, -0.01962318830192089, -0.015090789645910263], [-0.0035787876695394516, 1.6445502042770386, -1.7904963493347168, -0.9731153845787048, 0.659881055355072, 0.08966844528913498, -1.242124080657959, 0.9729421138763428, 1.0285706520080566, 0.11211974918842316, -0.7120977640151978, 4.217109680175781, 0.8791786432266235, 0.10528162866830826, 0.15531791746616364, -0.11466161906719208, 0.13310322165489197, 0.7771790623664856, -0.8936353921890259, -1.7876068353652954, -1.8294808864593506, 0.5974410772323608, -0.08506061136722565, -1.1822363138198853, 1.6368972063064575, 1.018283724784851, -0.016069428995251656, -0.2390739470720291, 3.042915105819702, 0.7996365427970886, -0.037550393491983414, 0.8463011384010315, -0.6643182039260864, -0.16524046659469604, 0.9753754138946533, 0.3418671786785126, -1.0241940021514893, 1.0186467170715332, -0.0708436667919159, -0.020047415047883987, -0.009688490070402622, -0.01580899767577648, -0.05730133131146431, 0.035942643880844116], [0.1056065633893013, 1.7225555181503296, -1.498244047164917, -0.8899117112159729, 0.5955128073692322, -0.08465579897165298, -1.1836657524108887, 0.9069123268127441, 0.9159002900123596, -0.029475867748260498, -0.47779354453086853, 3.88569712638855, 0.9040127396583557, -0.10587923228740692, -0.008733713068068027, 0.06527465581893921, 0.07526014000177383, 0.7533693909645081, -0.9803643226623535, -1.9199700355529785, -1.6759170293807983, 0.7406743764877319, -0.19556587934494019, -1.1510196924209595, 1.7348003387451172, 0.9358018040657043, -0.13308250904083252, -0.14831750094890594, 2.681891679763794, 0.6800807118415833, 0.022284720093011856, 0.898408055305481, -0.4942042827606201, 0.016702668741345406, 0.750715434551239, 0.18505489826202393, -0.810227632522583, 0.879111111164093, -0.002908645663410425, 0.0455312505364418, -0.07779843360185623, 0.047212064266204834, 0.0755126103758812, -0.04645273834466934], [-0.01795811764895916, 1.7774380445480347, -1.8169546127319336, -0.931242048740387, 0.6632372140884399, -0.18234606087207794, -1.1227632761001587, 0.9934687614440918, 0.9262558221817017, 0.053867485374212265, -0.7020568251609802, 3.8614256381988525, 0.9297176003456116, 0.12090054899454117, 0.10569269210100174, -0.08293604105710983, 0.06043055281043053, 0.7742543816566467, -0.9847466349601746, -1.8212926387786865, -1.7838448286056519, 0.6929821372032166, 0.009066829457879066, -1.008549451828003, 1.5018987655639648, 0.8589360117912292, -0.01969083771109581, -0.1776331216096878, 2.9013757705688477, 0.8232595920562744, -0.1541936844587326, 0.9650980234146118, -0.47182971239089966, -0.175018772482872, 0.7481979131698608, 0.18236391246318817, -0.985016405582428, 0.9863513112068176, -0.011222396045923233, 0.016383511945605278, -0.06398336589336395, 0.034438855946063995, 0.03288867324590683, 0.009044347330927849], [0.006006191950291395, 1.7824360132217407, -1.824196457862854, -0.6937054395675659, 0.8062177300453186, 0.059813402593135834, -1.2912787199020386, 0.8360738158226013, 0.9994491338729858, 0.003610371146351099, -0.5304512977600098, 3.9230566024780273, 0.9028962850570679, 0.08754555135965347, 0.13040009140968323, -0.0016308999620378017, 0.3024847209453583, 0.8169960975646973, -0.9275798201560974, -1.8799312114715576, -1.8165137767791748, 0.5353798866271973, -0.1124245896935463, -1.0929713249206543, 1.6800113916397095, 1.0904877185821533, -0.06295915693044662, -0.2216971218585968, 2.8671340942382812, 0.60602205991745, -0.08560474216938019, 0.8662464618682861, -0.5832382440567017, -0.015119228512048721, 0.9831385612487793, 0.2641647160053253, -1.1084249019622803, 0.8399440050125122, -0.08034912496805191, 0.009687040001153946, -0.08104433119297028, 0.05467398464679718, -0.006812404841184616, 0.07495228946208954], [-0.05244528874754906, -1.846326470375061, 1.9519270658493042, 0.9340029954910278, -0.6645350456237793, -0.05501711741089821, 1.2605242729187012, -0.8730660676956177, -0.9207069277763367, 0.00200090603902936, 0.7987877726554871, -4.4265360832214355, -1.0204318761825562, -0.15202391147613525, -0.2557278573513031, -0.11409804224967957, -0.13619893789291382, -0.9220243096351624, 0.862153947353363, 2.0719878673553467, 2.2778403759002686, -0.6387900710105896, -0.06627677381038666, 1.0924766063690186, -1.8159610033035278, -1.0274913311004639, 0.03169355168938637, 0.17730072140693665, -3.045274496078491, -0.6574026346206665, 0.026721840724349022, -1.11137855052948, 0.6438245177268982, 0.220494344830513, -0.9684404730796814, -0.2510530650615692, 1.108038067817688, -1.0072340965270996, -0.02854653261601925, 0.054253414273262024, 0.09981716424226761, 0.004491111263632774, 0.028087355196475983, 0.036946333944797516], [0.18343231081962585, 1.466522216796875, -1.726127028465271, -0.8763354420661926, 0.5874304175376892, -0.04496488720178604, -1.0111114978790283, 0.9721550941467285, 0.9343166351318359, -0.10641852021217346, -0.6673561930656433, 3.9224331378936768, 1.0405431985855103, 0.12520228326320648, 0.2184091955423355, -0.1055220514535904, 0.24379776418209076, 0.764240562915802, -0.9592199325561523, -1.8299963474273682, -1.6585004329681396, 0.665410041809082, -0.12430726736783981, -1.093772292137146, 1.5172184705734253, 0.8537043929100037, -0.14271795749664307, -0.35155975818634033, 2.9475786685943604, 0.7241308093070984, -0.0042132968083024025, 0.8174065351486206, -0.5158554911613464, -0.1353471279144287, 0.827286422252655, 0.3362807631492615, -1.0067996978759766, 0.7938281893730164, 0.0858033150434494, 0.06054888293147087, -0.01128596905618906, 0.08979512751102448, 0.006228526122868061, -0.017705947160720825], [0.0804809033870697, 1.7693554162979126, -1.8449703454971313, -0.8311771154403687, 0.8440606594085693, -0.13160888850688934, -1.3467899560928345, 0.9056181907653809, 0.9817771315574646, 0.1493421345949173, -0.7977302670478821, 4.3192877769470215, 1.0148340463638306, -0.030609456822276115, 0.03180510550737381, 0.15176492929458618, 0.16428673267364502, 0.957762598991394, -1.078015923500061, -2.0250566005706787, -2.016117572784424, 0.7926392555236816, -0.1078316792845726, -1.274990439414978, 1.4983586072921753, 0.9265902042388916, 0.01021734531968832, -0.3269904851913452, 3.2752959728240967, 0.6582063436508179, 0.017325395718216896, 0.9578003883361816, -0.7091660499572754, 0.06055516004562378, 1.028213620185852, 0.2800646722316742, -1.263417363166809, 0.8966569900512695, 0.03691459447145462, -0.047980841249227524, -0.0652565136551857, -0.00029750968678854406, 0.04533364251255989, -0.016577860340476036], [0.01817943900823593, 1.7559796571731567, -1.9875301122665405, -1.0111156702041626, 0.7036425471305847, -0.10210541635751724, -1.4076883792877197, 0.9906885623931885, 1.042649269104004, -0.02664373070001602, -0.8767015933990479, 4.50136137008667, 1.157052993774414, 0.08077187836170197, -0.01877758465707302, 0.0643920749425888, 0.24020729959011078, 1.0944359302520752, -0.9789853692054749, -2.091827869415283, -2.102003574371338, 0.7958102822303772, -0.13427314162254333, -1.2174396514892578, 1.5892608165740967, 1.0221611261367798, 0.010214613750576973, -0.29332152009010315, 3.3288967609405518, 0.746337890625, 0.0049242558889091015, 0.9904010891914368, -0.6001012921333313, -0.01946031115949154, 0.9132516980171204, 0.3304896056652069, -1.2091089487075806, 1.1409790515899658, -0.05223760008811951, 0.018787793815135956, 0.030352845788002014, 0.043460819870233536, -0.02178998477756977, -0.04697459563612938], [0.21260806918144226, 1.7888211011886597, -2.0902860164642334, -1.0754117965698242, 0.6818296313285828, 0.05615903064608574, -1.241762399673462, 1.0098720788955688, 1.0524265766143799, 0.09188027679920197, -0.7232571840286255, 4.567795276641846, 1.0315937995910645, 0.14403285086154938, 0.15116964280605316, 0.025928324088454247, 0.2726229727268219, 1.0314626693725586, -0.9452636241912842, -2.1716392040252686, -2.036958932876587, 0.7630391120910645, -0.018483031541109085, -1.2773792743682861, 1.4701433181762695, 1.1039707660675049, -0.164678156375885, -0.4302554726600647, 3.3733596801757812, 0.8185668587684631, -0.2551528215408325, 0.9837439656257629, -0.7485901117324829, -0.09489050507545471, 1.012103796005249, 0.3719308078289032, -1.1456259489059448, 1.1662495136260986, -0.057547107338905334, 0.010455403476953506, -0.027195053175091743, 0.03347357362508774, -0.03869464248418808, 0.016457518562674522], [-0.17465007305145264, -1.7348748445510864, 1.7795602083206177, 0.9108608961105347, -0.5747261643409729, 0.04478488489985466, 1.193208932876587, -0.7994595170021057, -0.8689149618148804, 0.12820866703987122, 0.6839639544487, -4.312111854553223, -0.9841358661651611, -0.09977757930755615, -0.17743270099163055, 0.1330569088459015, -0.26151981949806213, -0.9379271268844604, 0.8662130832672119, 1.8792824745178223, 2.0927274227142334, -0.8499135971069336, -0.0007854331051930785, 1.143554925918579, -1.6989713907241821, -1.1597503423690796, 0.23678407073020935, 0.25801756978034973, -2.9902098178863525, -0.7827520966529846, 0.2093547135591507, -0.8571430444717407, 0.7037394642829895, 0.07670144736766815, -0.9392500519752502, -0.17320454120635986, 1.1371597051620483, -0.9963246583938599, 0.03143707290291786, -0.01979871466755867, -0.04537825286388397, -0.06004792079329491, 0.05539640411734581, 0.08814296871423721], [-0.08614080399274826, -1.8512345552444458, 1.704119324684143, 0.8537084460258484, -0.5672475099563599, 0.08040621876716614, 1.124617576599121, -1.035528540611267, -0.9914425015449524, -0.1398543417453766, 0.8415149450302124, -4.336852073669434, -1.127142071723938, -0.044318705797195435, 0.04636453464627266, -0.058701638132333755, -0.29461777210235596, -0.9195845127105713, 0.9621641039848328, 1.9040287733078003, 2.161818265914917, -0.747330904006958, 0.0075004021637141705, 1.1702800989151, -1.5960018634796143, -0.9930353164672852, 0.15461201965808868, 0.3800423741340637, -2.9026787281036377, -0.7981434464454651, 0.17302270233631134, -0.8662106990814209, 0.7021028399467468, 0.1720387190580368, -0.9550501704216003, -0.2473006248474121, 1.198716163635254, -1.0619313716888428, 0.04350157827138901, 0.04728444665670395, 0.0024555425625294447, 0.04947999492287636, 0.013865719549357891, -0.06536919623613358], [-0.007796272169798613, 1.8864837884902954, -1.9598232507705688, -0.940069854259491, 0.707313060760498, -0.1865336298942566, -1.3311383724212646, 1.0792776346206665, 0.9195314049720764, -0.1404397040605545, -0.6818829774856567, 4.496677875518799, 1.114970326423645, 0.09607139229774475, 0.05556883662939072, 0.018417133018374443, 0.25428929924964905, 1.0651739835739136, -1.0497230291366577, -1.9235485792160034, -2.253573179244995, 0.760046124458313, -0.0047462088987231255, -1.1109362840652466, 1.4861010313034058, 1.1319217681884766, -0.13118857145309448, -0.2795611321926117, 3.1920244693756104, 0.7520850300788879, -0.08168789744377136, 0.7829073071479797, -0.680681586265564, -0.15708720684051514, 1.0912634134292603, 0.3798644244670868, -1.0724506378173828, 1.0074326992034912, -0.08041158318519592, 0.04763312637805939, 0.06739037483930588, 0.07303335517644882, -0.03383820131421089, -0.019147580489516258], [0.05303538590669632, 1.773675560951233, -1.9137967824935913, -0.8888459205627441, 0.7577540278434753, -0.17032569646835327, -1.2733628749847412, 0.9080594182014465, 0.8655458688735962, 0.12569275498390198, -0.8722959756851196, 4.610548496246338, 1.0335181951522827, 0.17795778810977936, 0.19861741364002228, -0.1507214456796646, 0.3000452220439911, 1.111214518547058, -1.062991976737976, -1.9600008726119995, -2.078981399536133, 0.8717085719108582, 0.10804365575313568, -1.1131091117858887, 1.574989676475525, 1.1684496402740479, -0.2783443331718445, -0.4266776740550995, 3.416698694229126, 0.8431892395019531, -0.057607922703027725, 0.7494348883628845, -0.7041140794754028, -0.07696974277496338, 0.9545369744300842, 0.43701162934303284, -1.0774222612380981, 1.0565093755722046, -0.01869156025350094, -0.006248673424124718, 0.011658289469778538, -0.01955565996468067, 0.005604547448456287, -0.03090539015829563], [0.1435619443655014, 1.8480037450790405, -1.7622244358062744, -0.763671875, 0.7709125876426697, 0.014839112758636475, -1.1731178760528564, 0.8545569181442261, 0.8904318809509277, 0.10259348154067993, -0.7247600555419922, 4.590243339538574, 0.9763107299804688, 0.135309636592865, -0.028926903381943703, -0.05223073437809944, 0.3696606755256653, 0.8608037233352661, -0.9315769672393799, -1.9704333543777466, -2.0211775302886963, 0.8759990930557251, -0.1242920309305191, -1.287524938583374, 1.6654174327850342, 0.9818702340126038, -0.2073887139558792, -0.32827234268188477, 3.3414220809936523, 0.8143984079360962, -0.18331478536128998, 0.8265582323074341, -0.5973082184791565, -0.10106595605611801, 1.0728052854537964, 0.22882992029190063, -1.156333327293396, 1.0427573919296265, -0.02273580990731716, -0.002057123463600874, 0.0010759471915662289, 0.02179677225649357, -0.06020544841885567, -0.04586228355765343], [-0.07921772450208664, -1.4859659671783447, 1.8059813976287842, 0.8459394574165344, -0.7609385848045349, -0.03121173568069935, 1.1320477724075317, -0.8016536831855774, -0.8167070746421814, -0.11555157601833344, 0.6367251873016357, -4.096613883972168, -1.0119370222091675, -0.10128098726272583, -0.10316779464483261, 0.026124928146600723, -0.11423581838607788, -0.9775617122650146, 0.8708798289299011, 1.8514232635498047, 2.031752347946167, -0.5254025459289551, 0.00652970839291811, 1.1744017601013184, -1.6675145626068115, -0.9658182263374329, 0.11482293158769608, 0.3312287926673889, -2.9224226474761963, -0.8167974948883057, 0.20410843193531036, -0.9202624559402466, 0.5393639206886292, 0.17824320495128632, -0.9400944113731384, -0.22552447021007538, 1.1356040239334106, -1.0526119470596313, -0.059179745614528656, 0.05263729393482208, 0.05468647554516792, 0.08510680496692657, -0.03309687599539757, 0.03223947063088417], [-0.2020503282546997, -1.9811875820159912, 1.9652773141860962, 0.9367945790290833, -0.8449035882949829, 0.13913387060165405, 1.3732514381408691, -0.8111379742622375, -1.136239767074585, 0.09250850230455399, 0.7485151290893555, -4.305777549743652, -1.1943449974060059, -0.01656533032655716, -0.1578287035226822, -0.03832528367638588, -0.1448836326599121, -0.9283368587493896, 0.9422897100448608, 1.8891719579696655, 2.401750087738037, -0.8881852626800537, 0.1548941284418106, 1.0380052328109741, -1.7109959125518799, -1.1276854276657104, 0.35930684208869934, 0.15867897868156433, -3.12973952293396, -0.8347995281219482, 0.35763609409332275, -1.0856188535690308, 0.6237512826919556, 0.07600872963666916, -1.0268845558166504, -0.18566393852233887, 1.3390051126480103, -1.0842891931533813, 0.05391896516084671, 0.01860727183520794, 0.041641488671302795, 0.05108087509870529, 0.07323409616947174, 0.0014499813551083207], [0.1944737285375595, 1.6696243286132812, -1.8940943479537964, -1.0316566228866577, 0.6620245575904846, -0.02648264355957508, -1.3981610536575317, 0.985295832157135, 0.8636561036109924, -0.0767832025885582, -0.701748788356781, 4.627384185791016, 1.123610496520996, 0.03266746178269386, 0.02334519848227501, 0.0383639857172966, 0.05557229369878769, 1.0434321165084839, -0.9769723415374756, -1.948093295097351, -1.9519108533859253, 0.6670478582382202, -0.008573370985686779, -1.0657681226730347, 1.523210883140564, 0.9535846710205078, -0.10260174423456192, -0.3208506405353546, 3.3844993114471436, 0.6644273996353149, -0.052032265812158585, 0.7574871182441711, -0.5213755965232849, -0.15833008289337158, 0.9901525378227234, 0.33246684074401855, -1.0894001722335815, 1.1910922527313232, 0.030444949865341187, -0.025918055325746536, 0.07813110947608948, -0.05591168254613876, -0.0908021479845047, -0.09598326683044434], [0.18850363790988922, 1.5182117223739624, -1.6768819093704224, -0.6869456768035889, 0.6097652316093445, -0.08992267400026321, -1.0232977867126465, 0.9223361015319824, 0.7869134545326233, -0.036351557821035385, -0.5771684050559998, 3.5714592933654785, 0.7803252935409546, 0.0446905680000782, 0.06775281578302383, 0.034321170300245285, 0.1418207287788391, 0.7583235502243042, -0.7641633152961731, -1.859102487564087, -1.8861185312271118, 0.6065520644187927, -0.07673536986112595, -0.9800279140472412, 1.5617700815200806, 0.9146479964256287, -0.03625452518463135, -0.1499006599187851, 2.759305715560913, 0.6036968231201172, -0.14507146179676056, 0.9312337636947632, -0.5221354961395264, -0.00025463945348747075, 0.870670735836029, 0.1459173858165741, -0.7759866714477539, 0.8136367201805115, -0.008546736091375351, 0.0016112951561808586, -0.09141718596220016, 0.003589506261050701, 0.009046299383044243, 0.05274740979075432], [-0.07299897074699402, -1.667616367340088, 1.9940334558486938, 0.8343520760536194, -0.843722403049469, 0.14360836148262024, 1.3971943855285645, -0.844122052192688, -0.877993106842041, 0.1057572290301323, 0.6477392911911011, -4.248773097991943, -0.9583742618560791, -0.10691555589437485, -0.11274980753660202, -0.13662366569042206, -0.2645423710346222, -0.961503267288208, 1.1022239923477173, 1.9886791706085205, 1.8672971725463867, -0.7460368871688843, 0.18240290880203247, 1.181991457939148, -1.5806095600128174, -0.9597562551498413, 0.0597803071141243, 0.39556631445884705, -2.985722780227661, -0.8084478378295898, 0.018745502457022667, -0.8550275564193726, 0.5775339007377625, -0.0077066910453140736, -0.9559020400047302, -0.3187151849269867, 1.113692283630371, -1.0682469606399536, -0.0007908990955911577, -0.05616334080696106, 0.10780364274978638, -0.016181686893105507, -0.06158606335520744, -0.024972787126898766], [-0.04995229095220566, -1.994088053703308, 1.7896534204483032, 1.0436033010482788, -0.6885187029838562, 0.04293288663029671, 1.269526481628418, -1.0072613954544067, -0.9979774355888367, -0.1381562352180481, 0.7856410145759583, -4.438215255737305, -1.1922959089279175, -0.10302790999412537, -0.06005047261714935, 0.002369244582951069, -0.17460833489894867, -0.8395466804504395, 1.0091735124588013, 2.1792829036712646, 2.179863929748535, -0.8632386326789856, 0.20265407860279083, 1.055416464805603, -1.8255901336669922, -1.0128018856048584, 0.22999083995819092, 0.2736918032169342, -3.0106654167175293, -0.7290204167366028, 0.12267563492059708, -1.0222574472427368, 0.6558408737182617, 0.19715122878551483, -1.1074576377868652, -0.38093939423561096, 1.051469326019287, -1.1569396257400513, -0.05601748824119568, 0.045301683247089386, -0.055002667009830475, -0.055362768471241, 0.0787714496254921, 0.022150978446006775], [0.22979053854942322, 1.5959091186523438, -1.7161035537719727, -0.7600969076156616, 0.6735069751739502, -0.12915217876434326, -1.169421672821045, 0.8761587738990784, 0.6922209858894348, 0.09112883359193802, -0.7156949043273926, 3.8237171173095703, 0.8668885827064514, 0.16563627123832703, -0.009764911606907845, 0.1402374804019928, 0.01524929329752922, 0.7434552311897278, -0.8344197273254395, -1.8284401893615723, -1.7984979152679443, 0.676644504070282, -0.04933885857462883, -0.9152014851570129, 1.7453657388687134, 0.7898727059364319, -0.19244669377803802, -0.13885442912578583, 2.6940343379974365, 0.7171759009361267, -0.028168274089694023, 0.8995888233184814, -0.4898557662963867, 0.07046825438737869, 0.7353370785713196, 0.2817574441432953, -0.8079506754875183, 0.9589864611625671, 0.088458351790905, 0.00917543563991785, -0.10795554518699646, -0.06674077361822128, 0.015485435724258423, -0.04435161128640175], [0.06392582505941391, 1.6535365581512451, -1.6028116941452026, -0.7640402913093567, 0.5212207436561584, -0.14477130770683289, -1.0582160949707031, 0.9602641463279724, 0.9318455457687378, -0.15134400129318237, -0.5409932136535645, 4.026383876800537, 0.95786052942276, 0.0011711007682606578, 0.14131349325180054, 0.04364984109997749, 0.14017875492572784, 0.9228978753089905, -0.8225290775299072, -1.9386039972305298, -1.9763069152832031, 0.5486034154891968, 0.07582713663578033, -1.061811923980713, 1.6672239303588867, 0.8715046644210815, -0.20619820058345795, -0.32124418020248413, 2.727625608444214, 0.599994957447052, -0.14043158292770386, 0.9863955974578857, -0.44511011242866516, -0.13682951033115387, 0.969233512878418, 0.3887949287891388, -1.1075119972229004, 0.967544674873352, -0.07894553989171982, 0.0746922641992569, 0.024597804993391037, 0.060402389615774155, 0.047268640249967575, -0.11381454020738602], [-0.02002624422311783, 1.5218799114227295, -1.7442532777786255, -0.8653990626335144, 0.6353011131286621, -0.02500292658805847, -1.1868914365768433, 0.9989781975746155, 0.7779769897460938, 0.07992186397314072, -0.5678844451904297, 3.884065628051758, 0.9920223355293274, 0.011179680936038494, 0.02408488281071186, -0.12358526885509491, 0.15537004172801971, 0.8951160907745361, -1.0421009063720703, -1.7211214303970337, -1.9088635444641113, 0.6105002164840698, -0.09968014806509018, -0.9312213063240051, 1.6757007837295532, 0.9892612099647522, -0.20609214901924133, -0.3428761661052704, 2.6740713119506836, 0.7813681364059448, -0.11218128353357315, 0.8681779503822327, -0.42129459977149963, -0.12653911113739014, 0.8164787888526917, 0.28795555233955383, -0.87873375415802, 0.9550755023956299, -0.013722500763833523, -0.003208323149010539, 0.049198735505342484, -0.04755039140582085, 0.006884902250021696, 0.022188350558280945], [-0.10033056885004044, -1.8972629308700562, 1.7974565029144287, 0.970496654510498, -0.7859280705451965, 0.033591218292713165, 1.3737469911575317, -0.8979840874671936, -1.1141183376312256, -0.04854102432727814, 0.7628598809242249, -4.402173042297363, -1.227827548980713, -0.12600956857204437, -0.03810686245560646, -0.15173302590847015, -0.240562304854393, -1.0593818426132202, 0.8060115575790405, 2.165105104446411, 2.2740964889526367, -0.6646261215209961, 0.1602715253829956, 1.1817295551300049, -1.7968465089797974, -1.0162917375564575, 0.06110873818397522, 0.33533862233161926, -3.1130034923553467, -0.8893133997917175, 0.258209228515625, -0.8389798998832703, 0.5099321007728577, 0.03274892270565033, -1.0543147325515747, -0.14439982175827026, 1.3417798280715942, -1.057010293006897, -0.03814331069588661, -0.045964065939188004, 0.034383878111839294, 0.022400356829166412, -0.03721906244754791, 0.0048371730372309685], [-0.046365704387426376, -1.7786426544189453, 1.9398396015167236, 0.9945656657218933, -0.8071131110191345, -0.015437978319823742, 1.2421430349349976, -1.0513510704040527, -0.9376541376113892, -0.15459813177585602, 0.8415041565895081, -4.41652250289917, -1.1288508176803589, -0.191192165017128, -0.06488333642482758, 0.06975990533828735, -0.2626984417438507, -0.7985740303993225, 1.1276254653930664, 2.1289868354797363, 2.1694116592407227, -0.5904049873352051, 0.07735293358564377, 1.2506728172302246, -1.6543188095092773, -0.9715694189071655, 0.19235704839229584, 0.21281476318836212, -3.2966606616973877, -0.7341486811637878, 0.11481856554746628, -0.8703988790512085, 0.5824145078659058, 0.15405531227588654, -1.0891131162643433, -0.3844663202762604, 1.185118556022644, -1.1795997619628906, 0.010323838330805302, 0.003733671735972166, -0.0007993002072907984, 0.0022278728429228067, -0.023211898282170296, -0.037196677178144455], [-0.2793501615524292, -1.7565505504608154, 1.9149292707443237, 0.8036583662033081, -0.7070891261100769, 0.13050858676433563, 1.2609007358551025, -1.0510737895965576, -0.9490793347358704, -0.11896564066410065, 0.6327659487724304, -4.1852240562438965, -1.0748504400253296, -0.1159299910068512, 0.018559075891971588, 0.09242592006921768, -0.20802897214889526, -0.9233527779579163, 0.9685680866241455, 1.926463007926941, 2.009636163711548, -0.7514490485191345, 0.025154296308755875, 1.061715006828308, -1.5359588861465454, -0.9057148098945618, 0.09532562643289566, 0.35912197828292847, -3.18357253074646, -0.7037882208824158, 0.01638524979352951, -0.8153231143951416, 0.6165056824684143, -0.053034014999866486, -0.8577433228492737, -0.2633691132068634, 1.0027601718902588, -1.0143318176269531, 0.047659482806921005, -0.022384516894817352, 0.046644821763038635, -0.052220989018678665, 0.04782673716545105, 0.05127820372581482], [0.015575875528156757, -1.6659953594207764, 1.8828141689300537, 0.8795077204704285, -0.6679811477661133, -0.04165372997522354, 1.180302619934082, -0.9554572105407715, -0.8035935163497925, -0.06151100993156433, 0.6716262698173523, -3.898185968399048, -1.1333693265914917, -0.12086522579193115, 0.0002622721076477319, -0.05180159956216812, -0.22791795432567596, -0.9180408120155334, 0.9604311585426331, 1.9489268064498901, 1.7772305011749268, -0.5503286123275757, -0.012939720414578915, 1.1905254125595093, -1.641995906829834, -0.9039357304573059, 0.07178016752004623, 0.34158357977867126, -2.7634589672088623, -0.759917676448822, 0.07237850874662399, -0.7250638604164124, 0.5465613603591919, -0.05735049396753311, -0.8355935215950012, -0.3665916323661804, 0.9505384564399719, -1.0707577466964722, -0.06821917742490768, 0.08616846054792404, 0.13411197066307068, -0.04543544724583626, -0.07417763024568558, -0.02311459556221962], [-0.12714871764183044, -1.9660831689834595, 1.83612060546875, 0.9296771287918091, -0.6294194459915161, -0.06321533769369125, 1.459073543548584, -1.0546834468841553, -0.9991994500160217, 0.0337831974029541, 0.7400160431861877, -4.522849082946777, -1.1711626052856445, -0.00986974872648716, -0.08626880496740341, -0.030977725982666016, -0.2667345702648163, -1.091784954071045, 1.1060781478881836, 1.9172744750976562, 2.2195379734039307, -0.6586648225784302, 0.13197945058345795, 1.1274653673171997, -1.6621501445770264, -1.027984857559204, 0.26198944449424744, 0.4126277267932892, -3.1645216941833496, -0.7186996340751648, 0.1048392578959465, -0.8988963961601257, 0.7340089678764343, -0.020724443718791008, -1.1094887256622314, -0.4231191575527191, 1.290568470954895, -1.2188525199890137, -0.05394919961690903, -0.028269704431295395, 0.0644339844584465, 0.018070487305521965, 0.06306163221597672, 0.02026260457932949], [-0.008496015332639217, -1.6642032861709595, 1.8800958395004272, 1.0079265832901, -0.7977385520935059, -0.028426147997379303, 1.2340080738067627, -0.8729813694953918, -0.9810831546783447, -0.03575025871396065, 0.7948645353317261, -4.064146518707275, -1.0956686735153198, -0.06663312762975693, -0.11688297241926193, 0.13490091264247894, -0.1854907125234604, -0.7738409638404846, 0.8721621632575989, 1.8708142042160034, 2.163550615310669, -0.8126623034477234, 0.1158694177865982, 1.047462821006775, -1.4513270854949951, -0.9642171263694763, 0.04238618165254593, 0.2541402578353882, -2.953500509262085, -0.775815486907959, 0.07559791207313538, -0.9276958703994751, 0.7044044733047485, -0.009221313521265984, -0.9328777194023132, -0.34169331192970276, 1.1963509321212769, -0.8961718678474426, -0.06406205147504807, 0.055780187249183655, 0.1207972839474678, -0.028102250769734383, 0.042583707720041275, -0.015354222618043423], [-0.1415448635816574, -1.834181547164917, 1.6242016553878784, 0.9364423155784607, -0.6914893388748169, 0.20626746118068695, 1.2454679012298584, -1.0004645586013794, -0.7590514421463013, 0.016621733084321022, 0.7591490149497986, -4.140140533447266, -0.8765242099761963, 0.11029256880283356, -0.1324758678674698, -0.11032304167747498, -0.2169555127620697, -0.8452122211456299, 0.9835524559020996, 1.7677512168884277, 1.9540256261825562, -0.7775068283081055, 0.0815902054309845, 0.9843325018882751, -1.7164394855499268, -0.9206658601760864, 0.2374052107334137, 0.2514066994190216, -2.8368794918060303, -0.7541807889938354, 0.043218549340963364, -0.7647329568862915, 0.5519487857818604, -0.011150605976581573, -1.0045009851455688, -0.26218652725219727, 1.0240641832351685, -1.0229603052139282, -0.05182962492108345, 0.09388816356658936, 0.11409687995910645, 0.050232432782649994, 0.0651765838265419, 0.020387770608067513], [0.20145142078399658, 1.6512668132781982, -1.8184361457824707, -0.9185692667961121, 0.5140823721885681, 0.0972653329372406, -1.2928425073623657, 0.9237872958183289, 0.8013790249824524, -0.06570859998464584, -0.7409646511077881, 3.8837356567382812, 0.9588537216186523, 0.078423410654068, 0.1975874900817871, 0.11572125554084778, 0.14867040514945984, 0.8681231141090393, -1.0822312831878662, -1.8707869052886963, -1.876380205154419, 0.8003355860710144, -0.08992207050323486, -1.0043885707855225, 1.7024133205413818, 0.921039879322052, -0.11262158304452896, -0.1732027232646942, 2.8599605560302734, 0.5518941283226013, -0.18460209667682648, 0.9819474816322327, -0.502918541431427, -0.07622649520635605, 0.8908203840255737, 0.3933948874473572, -1.1081421375274658, 0.865352988243103, 0.006922729313373566, -0.07348284870386124, -0.05519615486264229, -0.024080876260995865, -0.00865490734577179, -0.0029489127919077873], [0.028782187029719353, 1.729924201965332, -1.9489319324493408, -1.068253517150879, 0.7689352035522461, -0.028187036514282227, -1.268949031829834, 1.1108238697052002, 0.9262492656707764, -0.016161050647497177, -0.8267710208892822, 4.789778709411621, 1.149211049079895, 0.029702531173825264, 0.16555024683475494, -0.05384622514247894, 0.17062631249427795, 1.1061981916427612, -1.164167881011963, -1.898023247718811, -2.0437145233154297, 0.8581767082214355, -0.016034046187996864, -1.2910609245300293, 1.7598294019699097, 1.1070059537887573, -0.18364715576171875, -0.3492582142353058, 3.33764910697937, 0.9044733047485352, -0.003725646762177348, 0.8000792264938354, -0.740214467048645, -0.003872029250487685, 1.0009689331054688, 0.16025882959365845, -1.1908159255981445, 1.127303957939148, 0.018907053396105766, -0.043828241527080536, -0.09666819125413895, 0.008822932839393616, -0.032081492245197296, 0.05941544473171234], [0.05922582000494003, 1.581678032875061, -1.7480281591415405, -0.8440899848937988, 0.559811532497406, -0.05845271795988083, -1.1348474025726318, 0.9520071744918823, 1.020004391670227, -0.0177705567330122, -0.6593691110610962, 4.203591823577881, 0.9988552927970886, 0.10929466784000397, 0.11858216673135757, 0.12271739542484283, 0.12158778309822083, 0.8265576958656311, -0.8117312788963318, -1.9439407587051392, -1.8745142221450806, 0.6310528516769409, -0.10855662077665329, -1.0040836334228516, 1.8045560121536255, 0.9484098553657532, -0.05300447344779968, -0.27995944023132324, 2.872701644897461, 0.6799558997154236, -0.19640880823135376, 0.8260753154754639, -0.6444386839866638, -0.0069136167876422405, 0.9166010618209839, 0.24232417345046997, -0.9392496347427368, 0.8638317584991455, 0.007862141355872154, 0.016196081414818764, -0.011061625555157661, 0.04144766926765442, -0.02961183339357376, -0.05628218874335289], [0.1675746589899063, 1.6207919120788574, -1.6219345331192017, -0.6687226295471191, 0.5244824886322021, 0.06698834151029587, -0.9546194672584534, 0.7083234786987305, 0.8121157288551331, -0.14378848671913147, -0.6844494938850403, 3.7757179737091064, 0.9492624402046204, 0.023923661559820175, -0.08594014495611191, 0.09323589503765106, 0.1424485296010971, 0.6949202418327332, -0.8165714740753174, -1.6888290643692017, -1.758925199508667, 0.4985654354095459, -0.0039352173916995525, -0.9545590877532959, 1.4314059019088745, 0.9822735786437988, -0.027699215337634087, -0.1664172112941742, 2.5245628356933594, 0.7394618988037109, -0.23125618696212769, 0.6634939908981323, -0.6320390105247498, -0.049328986555337906, 0.8235746622085571, 0.18598215281963348, -0.8595485687255859, 0.921082079410553, -0.07306154817342758, -0.0006709912559017539, -0.043824803084135056, 0.021029110997915268, 0.061274077743291855, -0.12334045022726059], [0.24368734657764435, 1.661903977394104, -1.8139448165893555, -0.6460044980049133, 0.5816417932510376, -0.1362990438938141, -1.2729424238204956, 0.7275115847587585, 0.8419368267059326, 0.03866810351610184, -0.48126649856567383, 4.001463890075684, 1.0614573955535889, -0.058585382997989655, 0.11113213747739792, -0.058925826102495193, 0.13092467188835144, 0.9827966690063477, -0.9974014759063721, -1.7349179983139038, -1.7235286235809326, 0.6804153323173523, -0.09738580882549286, -1.1917955875396729, 1.5303703546524048, 1.053335428237915, -0.26209455728530884, -0.2411629855632782, 2.760915517807007, 0.8172572255134583, -0.26441213488578796, 0.7486045360565186, -0.675577700138092, -0.1358926147222519, 0.8535716533660889, 0.34176406264305115, -0.9937121868133545, 0.8792299628257751, -0.009339705109596252, 0.03109380416572094, -0.008234083652496338, 0.03849228471517563, 0.07131759077310562, -0.0009454928222112358], [-0.1114216297864914, -1.568518042564392, 1.7468101978302002, 0.8357805609703064, -0.6731292605400085, -0.10948257148265839, 1.2044475078582764, -0.8049570918083191, -0.8149454593658447, 0.10117411613464355, 0.46743136644363403, -3.9421865940093994, -0.9511403441429138, 0.0627361461520195, -0.17046566307544708, 0.02338423952460289, -0.16017599403858185, -0.9246734976768494, 0.8995118141174316, 1.9290058612823486, 1.9216809272766113, -0.558071494102478, 0.02670183591544628, 1.1308073997497559, -1.564250111579895, -0.8706444501876831, 0.22648362815380096, 0.18516306579113007, -2.786926031112671, -0.8249639272689819, 0.22664575278759003, -0.7951251864433289, 0.6723594665527344, 0.19049322605133057, -0.8827573657035828, -0.17200984060764313, 0.8048841953277588, -1.1037508249282837, 0.03049473650753498, -0.047028083354234695, -0.0739099383354187, -0.057524580508470535, -0.00513543002307415, 0.019281597808003426], [0.19288693368434906, 1.4113510847091675, -1.7419226169586182, -0.8420922160148621, 0.5586687922477722, -0.06892000138759613, -1.1101152896881104, 0.825914204120636, 0.9037240743637085, 0.06285911053419113, -0.5126528739929199, 3.706648826599121, 0.7690144181251526, 0.0751728042960167, 0.2242404669523239, 0.06791874021291733, 0.2107762098312378, 0.7560011744499207, -0.8684002757072449, -1.7297461032867432, -1.7790523767471313, 0.736187219619751, -0.0693020224571228, -0.9974091649055481, 1.532981038093567, 0.7408431768417358, -0.025795264169573784, -0.19767017662525177, 2.6970720291137695, 0.6144493818283081, -0.026150502264499664, 0.7097301483154297, -0.6309379935264587, -0.15146750211715698, 0.8070662021636963, 0.29063311219215393, -0.8704185485839844, 0.7201568484306335, -0.03734365105628967, -0.014661204069852829, -0.10744468867778778, -0.06563527137041092, 0.08121345192193985, -0.01280482392758131], [0.03306090459227562, 1.7787877321243286, -1.629789113998413, -0.7548949718475342, 0.5584772825241089, 0.0791730135679245, -1.0017026662826538, 0.8506975173950195, 0.8963059186935425, -0.028776781633496284, -0.7162692546844482, 4.039684772491455, 0.903826117515564, 0.07582443952560425, 0.008961733430624008, 0.1301734894514084, 0.20229189097881317, 0.8613939881324768, -0.8382254242897034, -1.857704997062683, -1.9348660707473755, 0.7973217368125916, -0.12137158215045929, -0.9439669847488403, 1.7402936220169067, 1.074643850326538, -0.27383390069007874, -0.39085954427719116, 2.9399263858795166, 0.6731050610542297, -0.2658599019050598, 0.8514373898506165, -0.40753087401390076, -0.09763969480991364, 0.852465033531189, 0.16020339727401733, -1.011764407157898, 0.8547840118408203, 0.05943246930837631, -0.033308859914541245, 0.04387595131993294, 0.0691794827580452, -0.07521768659353256, 0.06036508455872536], [0.19672946631908417, 1.5052616596221924, -1.7233011722564697, -0.6893928647041321, 0.6214414238929749, 0.12374195456504822, -1.2271134853363037, 0.7442066073417664, 0.8717337250709534, -0.03068913146853447, -0.6203080415725708, 3.885714054107666, 0.8585916757583618, 0.13279986381530762, 0.10270927101373672, -0.06750301271677017, 0.05039665475487709, 0.9998508095741272, -0.9535272121429443, -1.8066076040267944, -1.8221168518066406, 0.5444737076759338, -0.024868732318282127, -1.1579328775405884, 1.624824047088623, 1.0430256128311157, 0.017623955383896828, -0.13661694526672363, 2.9430201053619385, 0.6571251153945923, -0.23761402070522308, 0.9695096015930176, -0.3879784047603607, -0.10997729003429413, 0.7825230360031128, 0.17685724794864655, -0.944119393825531, 0.8587473630905151, -0.01986607350409031, 0.04791698977351189, -0.09696120768785477, -0.027239976450800896, 0.01973440684378147, -0.04446917399764061], [0.16387221217155457, 1.4816683530807495, -1.7998162508010864, -0.932759165763855, 0.6663599610328674, -0.183435320854187, -1.2275266647338867, 0.8332605957984924, 0.9150190353393555, 0.10698312520980835, -0.5639192461967468, 3.8980443477630615, 0.8566867709159851, 0.005295978859066963, 0.0213082954287529, 0.0007009902619756758, 0.2559376060962677, 0.7975713610649109, -1.0291463136672974, -1.911561131477356, -1.8657408952713013, 0.708763837814331, 0.0717732161283493, -1.1809020042419434, 1.4320191144943237, 1.0488255023956299, -0.021501746028661728, -0.235138937830925, 2.9530842304229736, 0.6333408355712891, -0.22100138664245605, 0.9506455659866333, -0.6880269646644592, -0.053678203374147415, 0.980871856212616, 0.15625275671482086, -0.9257560968399048, 1.0361531972885132, -0.012734157033264637, 0.02119218185544014, -0.0554577074944973, -0.07350926846265793, -0.04327578842639923, -0.011626681312918663], [-0.15984398126602173, -1.7434239387512207, 1.9303289651870728, 0.9649549722671509, -0.6757797002792358, 0.008096948266029358, 1.4074108600616455, -1.0216145515441895, -1.0251084566116333, 0.1184106394648552, 0.8152911067008972, -4.178948879241943, -1.1255635023117065, -0.14321407675743103, -0.07552645355463028, -0.11001662909984589, -0.14155320823192596, -1.0337492227554321, 1.0533342361450195, 1.8924095630645752, 2.020063877105713, -0.7070282697677612, -0.05195186659693718, 1.271783709526062, -1.5954512357711792, -0.9820424914360046, 0.10113606601953506, 0.28531351685523987, -3.0982584953308105, -0.6404207944869995, 0.08798155933618546, -0.8082819581031799, 0.5190973281860352, -0.02115132473409176, -1.0405367612838745, -0.20409834384918213, 1.2147037982940674, -0.9405439496040344, 0.01479321252554655, 0.06049744039773941, -0.005748612340539694, -0.07455097883939743, -0.033485542982816696, -0.03902549296617508], [0.01585352048277855, 1.9530003070831299, -1.7376981973648071, -0.8866861462593079, 0.8309008479118347, -0.002848149975761771, -1.177404761314392, 0.8493093848228455, 0.9089978933334351, 0.009103893302381039, -0.5959456562995911, 4.511171340942383, 1.0418672561645508, -0.126867413520813, -0.04934672266244888, -0.08633805066347122, 0.028175752609968185, 0.7771046161651611, -1.1439416408538818, -1.8749068975448608, -2.0550453662872314, 0.8064023852348328, 0.032784197479486465, -1.0883010625839233, 1.7919578552246094, 1.185041069984436, -0.1518383026123047, -0.2615114450454712, 3.1272242069244385, 0.8764679431915283, -0.3047049045562744, 0.9441753029823303, -0.5927278399467468, 0.019645091146230698, 1.142189383506775, 0.12490760535001755, -1.2913793325424194, 0.9953750967979431, 0.02305799163877964, 0.033146828413009644, -0.10720230638980865, 0.07719702273607254, 0.025033680722117424, 0.015433905646204948], [0.21031109988689423, 1.6276249885559082, -1.6063085794448853, -0.6610114574432373, 0.5608175992965698, 0.05786661431193352, -1.1684885025024414, 0.8225975632667542, 0.9450511336326599, 0.06153502315282822, -0.773370623588562, 3.9174582958221436, 0.838320791721344, 0.09202812612056732, 0.01826213300228119, 0.08484545350074768, 0.13422974944114685, 0.8294222950935364, -0.9082510471343994, -1.743062973022461, -1.7896729707717896, 0.5146109461784363, -0.04928923025727272, -1.0814948081970215, 1.6473337411880493, 1.0215991735458374, -0.0830540657043457, -0.17629897594451904, 2.68570613861084, 0.5966707468032837, -0.12652979791164398, 0.7870159149169922, -0.6168131828308105, 0.08078434318304062, 0.8881738185882568, 0.2801254391670227, -1.0520868301391602, 0.9162803888320923, -0.016060786321759224, -0.05586954206228256, -0.08206092566251755, -0.026999402791261673, 0.08519236743450165, -0.037472181022167206], [-0.04998933523893356, -1.500874638557434, 1.676211953163147, 0.7626895904541016, -0.7750387787818909, 0.04787372797727585, 1.288479208946228, -0.9317451119422913, -0.9463824033737183, 0.003328532911837101, 0.6806820034980774, -3.92521595954895, -1.0872867107391357, -0.15267759561538696, 0.006166920531541109, -0.06169665977358818, -0.25049614906311035, -0.8493075966835022, 0.8372577428817749, 1.976652979850769, 1.9549198150634766, -0.752258837223053, 0.17155015468597412, 0.9596626162528992, -1.495469093322754, -0.9992778301239014, 0.21388231217861176, 0.31428855657577515, -2.7499704360961914, -0.5705379247665405, 0.14248846471309662, -0.8013118505477905, 0.4200519621372223, 0.07481316477060318, -0.7830871343612671, -0.17394784092903137, 1.0276851654052734, -0.9822832345962524, 0.029453210532665253, -0.04652693122625351, 0.03578769043087959, -0.05486030876636505, 0.013348491862416267, -0.05897166207432747], [-0.1757311224937439, -1.8399699926376343, 1.7436436414718628, 0.8200889825820923, -0.7699373364448547, 0.06509746611118317, 1.1706753969192505, -0.8553095459938049, -0.8893340229988098, 0.13166669011116028, 0.7491595149040222, -4.1829609870910645, -0.8972980380058289, -0.13293768465518951, -0.10224181413650513, -0.09360355883836746, -0.04639863967895508, -0.729145348072052, 1.0478508472442627, 1.8845387697219849, 1.884236454963684, -0.5614795088768005, 0.015343772247433662, 1.1370487213134766, -1.7233984470367432, -1.0936158895492554, 0.2259315550327301, 0.2727365791797638, -2.825734853744507, -0.7488567233085632, 0.09186308085918427, -0.9688145518302917, 0.5415751934051514, -0.036980025470256805, -0.8050156235694885, -0.4111649990081787, 1.1604856252670288, -1.0980894565582275, -0.04935600608587265, -0.05911535397171974, 0.025444205850362778, -0.03087460994720459, -0.06542261689901352, -0.05304329842329025], [0.15612013638019562, 1.8182388544082642, -1.9120938777923584, -0.9814955592155457, 0.6273733973503113, -0.12436342984437943, -1.2802202701568604, 0.8137412071228027, 0.9018526673316956, 0.09358609467744827, -0.6730368137359619, 4.273126125335693, 1.0951234102249146, -0.08651597052812576, 0.17316974699497223, 0.06091393902897835, 0.23660224676132202, 0.9936188459396362, -0.9519507884979248, -1.7964940071105957, -1.92609703540802, 0.63424152135849, -0.1399068385362625, -1.0986915826797485, 1.4848175048828125, 1.0810085535049438, -0.0016403545159846544, -0.33626142144203186, 2.9668145179748535, 0.5946505665779114, 0.022242030128836632, 0.9623754620552063, -0.7049632668495178, -0.026453567668795586, 1.064183235168457, 0.14255614578723907, -1.1594581604003906, 0.8744420409202576, -0.03523598238825798, -0.0571073479950428, -0.07836515456438065, 0.06610734015703201, 0.00035876312176696956, -0.010366012342274189], [0.13665926456451416, 1.9332631826400757, -1.8924320936203003, -1.0142232179641724, 0.8730207085609436, -0.18248958885669708, -1.2285529375076294, 0.8683784008026123, 0.9369603991508484, 0.06036464497447014, -0.6921171545982361, 4.672759056091309, 1.0367085933685303, 0.09481023997068405, -0.03228539973497391, -0.1743667870759964, 0.20343050360679626, 0.8339364528656006, -0.9971147179603577, -2.202735185623169, -2.1917927265167236, 0.837444543838501, -0.15807601809501648, -1.101524829864502, 1.6431928873062134, 0.977360725402832, -0.052237775176763535, -0.3905922472476959, 3.37257719039917, 0.8830718398094177, -0.09588797390460968, 0.8857459425926208, -0.5033392310142517, -0.0814792662858963, 1.1359457969665527, 0.3122943043708801, -1.2223479747772217, 1.031972050666809, 0.020053517073392868, 0.01758332923054695, -0.006288282573223114, -0.042881157249212265, -0.0007723864982835948, -0.08385543525218964], [-0.08134172111749649, -1.7460925579071045, 1.7721927165985107, 0.82798171043396, -0.5870619416236877, -0.015040166676044464, 1.0567139387130737, -0.8812618255615234, -0.914107084274292, -0.04943374916911125, 0.776877224445343, -4.022303104400635, -0.872706949710846, -0.11295890063047409, -0.07651937752962112, 0.13667625188827515, -0.18979394435882568, -0.7631281018257141, 0.8063709735870361, 1.8007184267044067, 1.9165329933166504, -0.5840349793434143, 0.085602305829525, 1.152890682220459, -1.7169784307479858, -0.8568349480628967, 0.14605505764484406, 0.36094236373901367, -2.7043073177337646, -0.8330009579658508, 0.04514690488576889, -0.9830371737480164, 0.44258272647857666, 0.13853691518306732, -0.9229757189750671, -0.40381020307540894, 1.1051089763641357, -0.9742655158042908, -0.04357300326228142, -0.01435253955423832, 0.04734761267900467, -0.024223485961556435, 0.05565011873841286, -0.012396175414323807], [0.06074340268969536, 1.4247643947601318, -1.634709119796753, -0.9082568883895874, 0.4962448477745056, 0.02819029614329338, -1.1003429889678955, 0.7142921090126038, 0.7710191011428833, -0.059718452394008636, -0.5398284792900085, 3.771747350692749, 0.8286875486373901, 0.05938349664211273, 0.08882490545511246, 0.12245175987482071, 0.013331356458365917, 0.7710441946983337, -1.0296213626861572, -1.6921600103378296, -1.8432302474975586, 0.5751389861106873, -0.05269550532102585, -1.0188485383987427, 1.5482524633407593, 1.0081980228424072, -0.11644137650728226, -0.16481976211071014, 2.6355347633361816, 0.6948744654655457, -0.023616084828972816, 0.7228742241859436, -0.5630334615707397, -0.18531690537929535, 0.9480742812156677, 0.32603681087493896, -1.0248332023620605, 0.9661942720413208, -0.04766625165939331, 0.03051803819835186, 0.04019312560558319, 0.027006009593605995, -0.02873186022043228, -0.04489155858755112], [0.08652425557374954, 1.5513685941696167, -1.785376787185669, -0.7247404456138611, 0.7737741470336914, -0.1121259331703186, -1.1264727115631104, 0.7750563621520996, 0.7880271673202515, -0.08686021715402603, -0.7246106863021851, 4.013191223144531, 0.8902590274810791, 0.11917638033628464, 0.19047397375106812, -0.007435958366841078, 0.06360212713479996, 0.8296787142753601, -0.9748406410217285, -1.7413930892944336, -1.8529446125030518, 0.7001749277114868, -0.10378723591566086, -1.0978842973709106, 1.65082585811615, 1.0435670614242554, -0.17950335144996643, -0.4201774299144745, 2.7858502864837646, 0.6718956232070923, -0.25981050729751587, 0.8766286969184875, -0.44474855065345764, -0.026409946382045746, 0.9422551393508911, 0.32820338010787964, -0.8364648222923279, 0.8487537503242493, 0.05542447045445442, -0.07270675152540207, -0.03477919474244118, 0.03700210899114609, -0.0034262484405189753, 0.05763452127575874], [0.21283145248889923, 1.7617520093917847, -1.9811292886734009, -1.0121703147888184, 0.8840656280517578, -0.0708649754524231, -1.492569923400879, 0.8950528502464294, 1.0381841659545898, 0.11153823882341385, -0.7834182977676392, 4.741427898406982, 1.075719952583313, 0.13937324285507202, -0.11231189221143723, 0.0703204795718193, 0.2487488090991974, 1.0659526586532593, -1.045754075050354, -1.9726654291152954, -2.0946929454803467, 0.6415912508964539, -0.07533976435661316, -1.2674368619918823, 1.6150437593460083, 1.1663029193878174, -0.13828177750110626, -0.2591767907142639, 3.583275318145752, 0.8226251602172852, -0.26441100239753723, 0.8848364949226379, -0.6214345097541809, -0.1686648279428482, 0.9335301518440247, 0.3286663293838501, -1.1272521018981934, 1.1531126499176025, 0.0712260901927948, 0.02558046020567417, 0.011676250025629997, -0.010933983139693737, -0.027808206155896187, -0.027620118111371994], [-0.23117779195308685, -1.9152857065200806, 1.949727177619934, 0.8582310676574707, -0.8642831444740295, 0.03517962619662285, 1.282294750213623, -0.9128261804580688, -1.0828121900558472, 0.044102929532527924, 0.8722448945045471, -4.413796901702881, -1.2239307165145874, -0.14807648956775665, -0.10090027004480362, -0.05839823558926582, -0.12799806892871857, -0.9386768937110901, 0.9854924082756042, 2.074211597442627, 2.105623483657837, -0.741654098033905, 0.15829159319400787, 1.3016444444656372, -1.7933363914489746, -0.9963063597679138, 0.03581017628312111, 0.37194132804870605, -3.138345241546631, -0.7775576114654541, 0.1256289780139923, -0.7940440773963928, 0.7013264894485474, -0.06976645439863205, -1.0877656936645508, -0.21637821197509766, 1.2735798358917236, -0.9678560495376587, 0.005573603790253401, -0.031017690896987915, 0.0030327439308166504, -0.01593870110809803, -0.047170501202344894, 0.07473919540643692], [0.02409042976796627, 1.8477610349655151, -1.833539605140686, -0.7614724636077881, 0.698261559009552, -0.1680588573217392, -1.20638108253479, 1.1155766248703003, 1.0022717714309692, 0.0048766471445560455, -0.8468011021614075, 4.591679096221924, 0.9628744125366211, 0.1300484538078308, 0.0996101126074791, 0.13552618026733398, 0.30739548802375793, 1.0870221853256226, -1.083627462387085, -2.0930044651031494, -2.0091123580932617, 0.8429494500160217, -0.17144496738910675, -1.320892572402954, 1.5336016416549683, 1.09574556350708, -0.14033955335617065, -0.23705732822418213, 3.170790910720825, 0.7063162922859192, 0.013878011144697666, 0.9870491027832031, -0.5196548104286194, -0.18174660205841064, 1.0111291408538818, 0.3728771209716797, -1.1412112712860107, 0.948840320110321, 0.014921871945261955, -0.05926813185214996, -0.02035912498831749, -0.06271548569202423, -0.06729071587324142, -0.07427088171243668], [0.16239604353904724, 1.813476800918579, -1.683127522468567, -0.7061042785644531, 0.6248572468757629, -0.1769239902496338, -1.2795695066452026, 0.7637962102890015, 0.9242218732833862, 0.11246201395988464, -0.6395880579948425, 4.250100612640381, 0.9355120062828064, -0.05743411183357239, 0.16390807926654816, -0.050452444702386856, 0.1717458963394165, 0.9405598044395447, -0.9098837375640869, -1.8943819999694824, -1.856628179550171, 0.6184871792793274, -0.14611156284809113, -1.242185354232788, 1.6448935270309448, 1.0682138204574585, -0.26184654235839844, -0.27321285009384155, 2.9188520908355713, 0.7740851044654846, 0.0021949352230876684, 0.7670758962631226, -0.5771359801292419, -0.1387946903705597, 0.9401938319206238, 0.22525478899478912, -0.9298124313354492, 0.9627265334129333, -0.06257032603025436, -0.0436486080288887, 0.056191638112068176, 0.028146233409643173, 0.013682946562767029, 0.007434719242155552], [0.226669579744339, 1.6954386234283447, -1.872431755065918, -0.864689290523529, 0.5789323449134827, 0.0013892020797356963, -1.1014728546142578, 0.7478101253509521, 0.9080056548118591, 0.05823543295264244, -0.8068865537643433, 4.105597019195557, 1.1156591176986694, -0.1011807918548584, 0.15786834061145782, -0.05043674632906914, 0.30373460054397583, 0.9813545942306519, -0.9782012104988098, -1.9344438314437866, -1.7697230577468872, 0.6575679779052734, -0.07282991707324982, -1.1993582248687744, 1.5274012088775635, 0.9180605411529541, -0.10091323405504227, -0.2890163064002991, 3.0266613960266113, 0.610352098941803, -0.003153233788907528, 0.8194526433944702, -0.6061998605728149, 0.07937218248844147, 0.8344603776931763, 0.13200777769088745, -0.8694754242897034, 1.0472586154937744, -0.03475295379757881, -0.016909068450331688, -0.09098318219184875, -0.04710898548364639, -0.061712682247161865, 0.0854162722826004], [-0.1196439117193222, -1.8391356468200684, 1.8487727642059326, 1.0384687185287476, -0.7053709030151367, 0.12943904101848602, 1.2977426052093506, -1.069522738456726, -1.1116070747375488, 0.08809429407119751, 0.6658697128295898, -4.542891502380371, -0.9735929369926453, 0.048588402569293976, -0.2169663906097412, -0.1409701406955719, -0.1615518480539322, -1.0437740087509155, 1.1278678178787231, 2.1369359493255615, 2.073946237564087, -0.6353189945220947, 0.10551789402961731, 1.14629328250885, -1.6216357946395874, -1.0281751155853271, 0.05574497953057289, 0.36667585372924805, -3.267322540283203, -0.828484058380127, 0.06788157671689987, -0.9458374977111816, 0.4988257884979248, 0.13272523880004883, -0.9896149635314941, -0.19145198166370392, 1.12477445602417, -1.17569899559021, -0.06262896209955215, 0.0006209951243363321, 0.059740662574768066, -0.0075187706388533115, 0.06687460094690323, -0.0167658980935812], [0.15281766653060913, 1.654945969581604, -1.9524874687194824, -0.9048900604248047, 0.7767066955566406, 0.02457791566848755, -1.2982559204101562, 1.1095942258834839, 0.8849250078201294, 0.019154543057084084, -0.7599822878837585, 4.477445125579834, 0.9953616261482239, 0.139266237616539, 0.02325441502034664, -0.08086427301168442, 0.1696351021528244, 0.8348626494407654, -1.0975772142410278, -1.8407505750656128, -1.9347234964370728, 0.6176119446754456, -0.13861052691936493, -1.2887029647827148, 1.6053531169891357, 1.1135406494140625, -0.1752873808145523, -0.36949479579925537, 3.217249870300293, 0.9065775871276855, -0.029760293662548065, 0.8940021991729736, -0.44073131680488586, -0.16154088079929352, 1.1391392946243286, 0.3069964051246643, -1.0181595087051392, 1.1068079471588135, 0.10024642944335938, 0.072519950568676, -0.10419204831123352, -0.04583554342389107, -0.005067917983978987, -0.02728321962058544], [0.07516882568597794, 1.3724915981292725, -1.601686716079712, -0.8498904705047607, 0.6697937250137329, -0.07685651630163193, -0.932676374912262, 0.8210672736167908, 0.8989047408103943, 0.044723037630319595, -0.623515248298645, 3.5374481678009033, 0.8425893187522888, 0.09867284446954727, 0.10164573043584824, 0.09085032343864441, 0.07150542736053467, 0.6948592066764832, -0.9699204564094543, -1.5973314046859741, -1.709062099456787, 0.44218626618385315, 0.025707188993692398, -1.0319820642471313, 1.6630960702896118, 0.8121861219406128, -0.20040754973888397, -0.28167906403541565, 2.483457565307617, 0.5827000737190247, -0.05966298282146454, 0.7451923489570618, -0.5118820071220398, 0.023671742528676987, 0.7733783721923828, 0.37773847579956055, -0.8263179659843445, 0.7945728898048401, -0.07077228277921677, -0.03280401974916458, 0.044302064925432205, 0.013266532681882381, -0.05372573435306549, -0.01771554723381996], [0.18168702721595764, 1.5044512748718262, -1.6602529287338257, -0.8580381274223328, 0.7254421710968018, -0.11726033687591553, -1.045629620552063, 0.8110122084617615, 0.916300892829895, 0.11435852944850922, -0.6759060621261597, 3.691741704940796, 0.8030082583427429, 0.017168106511235237, 0.1259068101644516, -0.039109520614147186, -0.029369113966822624, 0.8866135478019714, -0.8871834874153137, -1.7586745023727417, -1.6777766942977905, 0.5859838128089905, -0.039288539439439774, -0.8901492357254028, 1.5649642944335938, 0.9945670366287231, -0.26700830459594727, -0.12823453545570374, 2.7880666255950928, 0.6816731691360474, -0.22050727903842926, 0.8473566770553589, -0.5104658007621765, -0.18506668508052826, 0.9421420693397522, 0.14962045848369598, -1.025689721107483, 0.9157931804656982, -0.06805446743965149, -0.07415004074573517, -0.03125536069273949, -0.0482335090637207, 0.014811327680945396, -0.11798654496669769], [0.2542417347431183, 1.5785475969314575, -2.0844078063964844, -0.9428624510765076, 0.7002102136611938, 0.07278937846422195, -1.4615780115127563, 0.9009041786193848, 0.8334522843360901, 0.1514481157064438, -0.8929495215415955, 4.700986862182617, 1.18685781955719, 0.16385652124881744, 0.14340676367282867, -0.10027403384447098, 0.06934067606925964, 1.04889976978302, -1.2152873277664185, -2.0242340564727783, -2.0060768127441406, 0.7280558943748474, -0.1645844578742981, -1.103771686553955, 1.6842361688613892, 1.1018873453140259, -0.030462628230452538, -0.2839560806751251, 3.246995449066162, 0.6006534695625305, -0.06197875738143921, 0.9154524803161621, -0.619346559047699, -0.031189121305942535, 1.1230028867721558, 0.4207349717617035, -1.1748204231262207, 1.1024303436279297, 0.06101137772202492, 0.0492682158946991, -0.09022331982851028, -0.03877619653940201, -0.04762065410614014, 0.021094705909490585]], "fc1.bias": [0.03071454167366028, -0.18363210558891296, -0.025293925777077675, -0.18294312059879303, -0.16118384897708893, -0.014381146989762783, -0.16868002712726593, 0.23636020720005035, -0.0009036306291818619, 0.16199104487895966, 0.05121144279837608, -0.10629820823669434, -0.05374991148710251, -0.05046822875738144, 0.20325976610183716, 0.10308142751455307, -0.036621809005737305, -0.0984116718173027, 0.09099341183900833, -0.05737299099564552, 0.21992042660713196, 0.04708915203809738, -0.010584979318082333, -0.054754454642534256, -0.025436561554670334, 0.21747787296772003, 0.12194738537073135, 0.01883113570511341, -0.1548834890127182, -0.019424591213464737, 0.17257553339004517, 0.10598490387201309, -0.12111204117536545, -0.1163807138800621, 0.134970024228096, -0.2058420479297638, 0.20458874106407166, -0.09410614520311356, 0.057872142642736435, 0.1198907122015953, -0.13934507966041565, -0.144090935587883, -0.06879595667123795, -0.214881032705307, 0.14109833538532257, -0.15389922261238098, 0.07479027658700943, -0.037233948707580566, -0.1368512511253357, -0.004471227526664734, -0.0018848933978006244, -0.1295403093099594, -0.2303421050310135, -0.12636837363243103, 0.04841752350330353, 0.11258956789970398, 0.0429094098508358, -0.14622393250465393, -0.04015743359923363, 0.25583404302597046, -0.22145795822143555, -0.17723573744297028, -0.14122772216796875, 0.21822045743465424, -0.0032855456229299307, 0.1018010824918747, 0.07440689206123352, 0.11098014563322067, 0.0005283667705953121, 0.008723240345716476, -0.023245396092534065, -0.08228211104869843, -0.07623682916164398, -0.05341357737779617, 0.07046876847743988, -0.007226417772471905, -0.042951878160238266, -0.21437592804431915, -0.1402738392353058, 0.021390235051512718, -0.01757558062672615, -0.2448708862066269, -0.16624803841114044, 0.017417673021554947, 0.22340545058250427, -0.07165706902742386, 0.0022409602534025908, 0.024373771622776985, -0.12864048779010773, -0.01829329878091812, -0.08842985332012177, -0.041964780539274216, -0.08400710672140121, 0.03237459436058998, -0.022409707307815552, 0.14259089529514313, -0.16136489808559418, -0.15266719460487366, -0.016107283532619476, -0.07772291451692581], "fc2.weight": [[-1.7206783294677734, -2.076399803161621, 2.049901008605957, -1.9073410034179688, -1.6398053169250488, 2.342498540878296, -1.7008821964263916, 2.2944538593292236, -1.3727736473083496, 2.1369388103485107, -1.8976236581802368, -1.5005203485488892, -1.4790213108062744, -2.127501964569092, 2.1549854278564453, 1.928759217262268, 2.37387752532959, -2.1914238929748535, 1.870360016822815, 2.6063668727874756, 2.0696895122528076, -1.5187193155288696, -1.5608974695205688, 1.955532431602478, -1.6993460655212402, 1.836525797843933, 2.2846322059631348, -1.4855180978775024, -1.6925735473632812, 2.204315423965454, 2.0972845554351807, 2.196439266204834, -1.4719239473342896, -2.095121383666992, 1.947951316833496, -2.1316866874694824, 2.3552956581115723, -1.5590782165527344, 2.322418451309204, 1.9169557094573975, -1.6564960479736328, -1.4947227239608765, -1.42951238155365, -1.647664189338684, 2.229642152786255, -1.5914194583892822, -1.946000337600708, -2.2308177947998047, -2.088738203048706, 2.09460186958313, 2.153477907180786, -1.8069742918014526, -1.9539622068405151, -1.9290518760681152, 2.177370071411133, 2.557159662246704, -1.8021855354309082, -1.3553165197372437, 2.2975006103515625, 2.350924253463745, -1.444811224937439, -1.5057399272918701, -1.5081316232681274, 2.4849166870117188, 2.3765013217926025, 1.9758301973342896, 2.0958917140960693, 2.3327324390411377, 2.250396490097046, 1.9948481321334839, -1.647946834564209, -2.102698802947998, -1.5577893257141113, -1.2701352834701538, -1.6681241989135742, 1.9064639806747437, -1.305728793144226, -1.4578698873519897, -1.6936427354812622, -1.6041111946105957, 2.3106541633605957, -1.6682184934616089, -1.477887511253357, 2.046205520629883, 2.083371162414551, -1.7961616516113281, -1.8760288953781128, 1.9880651235580444, -1.3825174570083618, -1.5384453535079956, -2.1891019344329834, 2.4586105346679688, -2.001722812652588, -1.630859375, -1.7029039859771729, 2.3392462730407715, -1.9265539646148682, -1.2288177013397217, -1.4260472059249878, -2.144068479537964]], "fc2.bias": [0.28580620884895325]}