{"fc1.weight": [[0.16260181367397308, -0.07856086641550064, 0.01501393411308527, 0.1553780734539032, -0.28157415986061096, -0.1493774652481079, 0.20535778999328613, -0.07473473995923996, -0.10175927728414536, 0.038095343858003616, 0.056884925812482834, -0.13192149996757507, -0.24637724459171295, -0.0029171740170568228, 0.22877880930900574, 0.08503120392560959, -0.14104804396629333], [0.10510598868131638, -0.0592818558216095, 0.09987855702638626, -0.022421229630708694, -0.07663369923830032, 0.22072865068912506, 0.21569812297821045, 0.025250110775232315, -0.07035601884126663, 0.2134576290845871, 0.23257680237293243, -0.20976467430591583, -0.09341619908809662, -0.07330264151096344, 0.011587802320718765, -0.19695331156253815, -0.21999965608119965], [-0.011610421352088451, -0.15814922749996185, -0.14551785588264465, 0.12059105187654495, -0.05688299983739853, -0.08470558375120163, 0.2126164734363556, 0.21583610773086548, -0.048144515603780746, 0.09595390409231186, 0.20324532687664032, 0.04710444435477257, 0.08396733552217484, -0.06509348750114441, 0.1805921494960785, 0.1926802396774292, -0.09423185139894485], [-0.055595092475414276, 0.07639731466770172, -0.18168765306472778, 0.04476545378565788, 0.06352119147777557, 0.18692219257354736, 0.1856641322374344, 0.030357083305716515, 0.19733121991157532, -0.12913931906223297, -0.17948772013187408, 0.03343432769179344, 0.18371444940567017, -0.13733994960784912, -0.08594058454036713, 0.11839491873979568, 0.02094736509025097], [0.05614098906517029, 0.14534619450569153, -0.11043094098567963, -0.18149735033512115, 0.00012498872820287943, -0.1703823059797287, -0.1577194184064865, 0.035349953919649124, 0.17053979635238647, -0.03802458941936493, -0.09713368117809296, 0.1905384063720703, -0.0760505422949791, -0.0077870613895356655, 0.23545297980308533, 0.23929189145565033, 0.14424052834510803], [0.3110576570034027, -0.020254939794540405, -0.09902340173721313, 0.17398691177368164, 0.0002754750894382596, 0.07773140072822571, 0.0938667356967926, 0.11174692958593369, -0.020723456516861916, 0.09151250869035721, 0.17497913539409637, 0.29472464323043823, 0.04215462878346443, -0.06718219816684723, -0.24042242765426636, -0.24223005771636963, -0.20868343114852905], [0.18024004995822906, 0.08285391330718994, -0.0633176788687706, -0.09894342720508575, -0.15220224857330322, -0.2178879827260971, -0.05117492005228996, -0.13469061255455017, -0.0590774305164814, -0.23923783004283905, -0.2164633423089981, -0.153725728392601, 0.03727772459387779, -0.1998702585697174, -0.021596133708953857, -0.07779795676469803, 0.02482849359512329], [0.10114132612943649, -0.049627698957920074, 0.14366906881332397, 0.06981431692838669, -0.14507052302360535, -0.06636311858892441, 0.20875437557697296, 0.006281732115894556, 0.15543624758720398, 0.2066565752029419, 0.013824453577399254, -0.05208297446370125, 0.21331800520420074, -0.12586325407028198, -0.1805720031261444, -0.23353703320026398, 0.22486144304275513], [-0.09136120975017548, 0.2303764373064041, 0.13031557202339172, 0.14676469564437866, 0.1165887862443924, 0.15898101031780243, 0.15058714151382446, 0.159959614276886, 0.12597906589508057, -0.15902426838874817, -0.13201096653938293, -0.12737883627414703, 0.13886797428131104, -0.03068220429122448, -0.17967458069324493, -0.11942707002162933, 0.14143607020378113], [-0.012343731708824635, 0.00791462417691946, 0.22717952728271484, 0.20604264736175537, 0.02826015092432499, 0.1625330001115799, 0.032924849539995193, 0.0355253666639328, 0.023665502667427063, 0.1283976286649704, -0.10884322971105576, 0.15464483201503754, -0.1573438197374344, -0.20700083673000336, -0.05165118724107742, 0.07369349896907806, -0.18669603765010834], [-0.16842253506183624, 0.0573832169175148, 0.03996311500668526, 0.07400480657815933, 0.007928385399281979, 0.05330285057425499, 0.03753793612122536, -0.09034456312656403, -0.040862005203962326, -0.13624434173107147, -0.012384957633912563, 0.17780397832393646, -0.07935992628335953, 0.08085603266954422, -0.080208420753479, -0.08314965665340424, -0.10747154802083969], [-0.1609102040529251, 0.14752842485904694, -0.0005797244957648218, 0.2310919165611267, -0.17980434000492096, 0.05629798397421837, -0.13117367029190063, 0.14810572564601898, 0.17980486154556274, -0.23553971946239471, 0.001125043141655624, 0.19256438314914703, 0.15196429193019867, 0.13632822036743164, 0.08324131369590759, 0.21372680366039276, 0.18114522099494934], [0.1957777440547943, 0.06635647267103195, -0.23279404640197754, -0.14588339626789093, 0.11767667531967163, 0.2300461381673813, 0.10748808085918427, 0.21613313257694244, 0.06668373197317123, 0.01190856657922268, 0.037286482751369476, -0.10230820626020432, -0.08143867552280426, 0.23081478476524353, -0.09422218799591064, 0.13474895060062408, -0.01211569644510746], [0.19285455346107483, 0.14032438397407532, 0.09619422256946564, 0.04027782753109932, 0.10528330504894257, -0.21196961402893066, 0.16027678549289703, -0.009385199286043644, -0.07085160911083221, 0.06966417282819748, -0.07073081284761429, 0.1427670270204544, 0.052528489381074905, -0.1942669302225113, -0.053196050226688385, -0.09416020661592484, -0.10888005048036575], [0.1010643020272255, -0.1910465955734253, -0.20402148365974426, 0.013846022076904774, -0.16606035828590393, 0.18972913920879364, -0.19023796916007996, -0.0864887610077858, 0.10092031955718994, -0.14650194346904755, -0.054754145443439484, 0.10367273539304733, -0.022583119571208954, 0.0005014872876927257, 0.10387300699949265, 0.15354931354522705, -0.20426470041275024], [0.04514536261558533, -0.08245627582073212, 0.19850052893161774, -0.1245579645037651, 0.018972843885421753, -0.21934019029140472, -0.1799822449684143, 0.12530691921710968, 0.15561528503894806, 0.08276202529668808, 0.09618257731199265, -0.04381151497364044, 0.10807940363883972, -0.07808361202478409, -0.004530270583927631, -0.04534396529197693, -0.22397440671920776], [0.13399836421012878, -0.13397105038166046, 0.05020514875650406, -0.14506608247756958, -0.05050539970397949, 0.20138849318027496, 0.22086836397647858, 0.2188824862241745, -0.1271083801984787, -0.07651073485612869, -0.024184487760066986, -0.2223130613565445, -0.18977424502372742, 0.12880170345306396, 0.18181979656219482, 0.1532924920320511, 0.1023193746805191], [0.1337357759475708, -0.3728131353855133, 0.11003569513559341, 0.0008295885636471212, -0.17892859876155853, 0.07370832562446594, -0.11343751102685928, -0.18285974860191345, -0.018053384497761726, -0.11912289261817932, 0.21298593282699585, 0.20506349205970764, 0.14800895750522614, -0.1934654414653778, -0.21930645406246185, 0.09648613631725311, -0.19321750104427338], [-0.02890590764582157, 0.13576048612594604, 0.05008411034941673, -0.23905816674232483, 0.2363213449716568, 0.09021225571632385, -0.1012393981218338, -0.009434321895241737, 0.12348522245883942, 0.18620549142360687, -0.01764029636979103, 0.2238200157880783, -0.07275538146495819, -0.08527663350105286, 0.21131980419158936, 0.14983472228050232, 0.004514715634286404], [0.046219173818826675, 0.09177454560995102, 0.060053516179323196, 0.1519404500722885, -0.06589531153440475, -0.12288904935121536, -0.11749542504549026, -0.06866680830717087, -0.015631889924407005, 0.04338071867823601, 0.13178172707557678, 0.056061189621686935, -0.055024679750204086, -0.012066255323588848, -0.11520442366600037, -0.2077924609184265, 0.031653229147195816], [0.17971587181091309, 0.08847707509994507, -0.0044631934724748135, 0.15706394612789154, 0.19181343913078308, -0.16784489154815674, -0.030728435143828392, -0.04027583450078964, -0.015075063332915306, -0.17862454056739807, 0.09142053872346878, 0.10944673418998718, -0.2000819593667984, 0.017060715705156326, 0.17717865109443665, 0.12213177233934402, -0.2093857377767563], [-0.20793986320495605, 0.30977147817611694, 0.11333522945642471, 0.03805703669786453, -0.15216825902462006, -0.009673417545855045, -0.06141120567917824, -0.20351219177246094, 0.12183299660682678, 0.19436362385749817, -0.10360202938318253, -0.006183670833706856, -0.013551592826843262, -0.06527286767959595, 0.10126043856143951, 0.03803190961480141, 0.09167622774839401], [-0.023345397785305977, 0.029396753758192062, -0.18199560046195984, 0.16601158678531647, 0.1139029860496521, 0.01309030782431364, 0.12359654158353806, 0.09141065180301666, 0.09285491704940796, -0.012896276079118252, -0.06606552004814148, -0.04811233654618263, 0.022250423207879066, 0.05017879977822304, -0.21265281736850739, -0.22495734691619873, -0.24066278338432312], [0.1868746131658554, 0.08450192213058472, -0.0585065521299839, -0.12612204253673553, -0.09120812267065048, -0.17012880742549896, -0.17518427968025208, 0.1460479348897934, -0.021681714802980423, 0.0914589986205101, -0.24106359481811523, -0.17037110030651093, -0.14641989767551422, -0.2293645590543747, 0.06564667075872421, 0.01266543846577406, -0.0029651212971657515], [-0.013207229785621166, -0.056205231696367264, 0.04074586555361748, 0.09642381966114044, 0.1834145039319992, -0.13287733495235443, 0.17656852304935455, -0.07318146526813507, 0.07273092120885849, -0.2313840389251709, 0.21313001215457916, -0.016297398135066032, 0.08120156079530716, -0.2092507928609848, 0.022400911897420883, -0.0784497857093811, -0.1382972151041031], [-0.1623244285583496, 0.07123880833387375, 0.04072493314743042, -0.20177339017391205, -0.009061119519174099, 0.164598748087883, 0.061687301844358444, 0.09720867872238159, 0.05271965637803078, 0.1839853823184967, 0.047624148428440094, 0.11553021520376205, -0.15698778629302979, -0.03768056258559227, -0.042374130338430405, -0.2041826695203781, 0.10411202907562256], [-0.14645788073539734, -0.14663630723953247, 0.22996895015239716, 0.23614761233329773, -0.22018547356128693, -0.24251148104667664, 0.13724465668201447, 0.23379725217819214, -0.08877050876617432, -0.022769806906580925, 0.1923936903476715, -0.023498980328440666, 0.11588777601718903, -0.0609905980527401, 0.19411598145961761, -0.16355815529823303, -0.09772329032421112], [0.2306656837463379, -0.03789364546537399, -0.005625794176012278, 0.034143492579460144, -0.11595036834478378, -0.14618711173534393, -0.18426212668418884, 0.06920389086008072, 0.1836947500705719, 0.14668932557106018, 0.11076340824365616, 0.012049746699631214, 0.09720075875520706, 0.12427115440368652, 0.16121502220630646, -0.04132252559065819, -0.05830954387784004], [0.1906590759754181, -0.08846259117126465, 0.14760221540927887, 0.17140856385231018, -0.04010007530450821, 0.04273027554154396, 0.06963823735713959, -0.08515575528144836, -0.05569738522171974, -0.044409915804862976, 0.15204687416553497, 0.23142212629318237, 0.03770380839705467, 0.16310356557369232, 0.23511843383312225, 0.011866528540849686, -0.12420109659433365], [0.0029780741315335035, 0.119939424097538, 0.13313601911067963, 0.12197919934988022, -0.1709432750940323, -0.16913548111915588, 0.10637729614973068, 2.5529736376483925e-05, -0.16051293909549713, 0.22305215895175934, -0.2102847695350647, 0.05712447687983513, -0.06031930819153786, 0.03939443826675415, -0.06280674040317535, -0.06237166374921799, -0.21453748643398285], [-0.32088208198547363, 0.2961205244064331, 0.18342743813991547, 0.006212636362761259, -0.05855381861329079, -0.15094389021396637, 0.07784657925367355, 0.2516961395740509, -0.1615634560585022, -0.11394596099853516, -0.00015247927512973547, -0.10203178972005844, -0.04903971403837204, 0.23951824009418488, 0.1904880404472351, -0.11363104730844498, -0.04936081916093826], [0.1396201103925705, -0.061113301664590836, -0.0558256134390831, 0.09034016728401184, 0.188890278339386, -0.12173286825418472, 0.006972278002649546, -0.142170250415802, 0.211055725812912, 0.09641832858324051, 0.16793766617774963, 0.07580877840518951, -0.17094466090202332, -0.12818007171154022, 0.007298121694475412, 0.039621803909540176, 0.009751290082931519], [-0.15785975754261017, -0.2117568850517273, -0.1960292011499405, 0.2039530724287033, -0.18109916150569916, 0.04675024002790451, -0.11939442157745361, -0.07425227016210556, -0.01388988271355629, -0.19962430000305176, -0.22980177402496338, -0.0579921118915081, -0.12451416254043579, -0.11168172955513, 0.036416709423065186, 0.04794071242213249, 0.005865594372153282], [-0.18073830008506775, -0.024981556460261345, -0.005122687667608261, -0.10462354868650436, -0.010015434585511684, -0.21306921541690826, 0.04583938047289848, 0.22771672904491425, 0.14841994643211365, -0.08014807850122452, -0.07412956655025482, 0.17876970767974854, 0.046619150787591934, -0.04295460507273674, -0.13698938488960266, -0.1520482301712036, -0.07574328780174255], [0.2335727959871292, -0.21898899972438812, 0.0472930483520031, 0.20138084888458252, 0.1573878973722458, -0.19843517243862152, 0.046362824738025665, 0.05400135740637779, 0.12605547904968262, -0.1684439331293106, -0.20391178131103516, -0.11622247844934464, -0.10598797351121902, 0.024661606177687645, 0.21723443269729614, -0.22717544436454773, 0.15796445310115814], [0.13729791343212128, 0.03345074877142906, 0.17632579803466797, -0.23872241377830505, 0.17944297194480896, -0.23088960349559784, 0.089948371052742, 0.05474671348929405, 0.03937564417719841, -0.1471104621887207, -0.07434366643428802, -0.07673313468694687, 0.07200603187084198, 0.051174283027648926, 0.16351227462291718, -0.1781916618347168, 0.24173422157764435], [-0.21002353727817535, -0.1428409367799759, 0.10522371530532837, -0.2339637279510498, -0.1458401083946228, -0.09000961482524872, 0.04486982896924019, 0.2380727380514145, 0.23426786065101624, -0.08864548802375793, 0.14685474336147308, -0.12912529706954956, -0.23279471695423126, 0.17062462866306305, -0.18269582092761993, -0.013163860887289047, -0.21437320113182068], [-0.20414401590824127, 0.12210314720869064, 0.08488435298204422, 0.22739379107952118, 0.0542442724108696, 0.07376191765069962, 0.1668521761894226, -0.1858639419078827, -0.13778294622898102, -0.027043739333748817, 0.08776796609163284, -0.13128408789634705, -0.11518152803182602, 0.07648714631795883, -0.11450691521167755, -0.09880135208368301, 0.10058999806642532], [0.011118821799755096, 0.19580437242984772, -0.07020402699708939, 0.23132330179214478, -0.13057567179203033, 0.14557382464408875, 0.15609705448150635, -0.08723878115415573, -0.17060400545597076, -0.10826661437749863, -0.11369984596967697, -0.1823042333126068, -0.1875399947166443, 0.02027500607073307, 0.10035736858844757, 0.1496131867170334, -0.11897169798612595], [0.08854961395263672, -0.019709911197423935, -0.11005348712205887, 0.10144146531820297, -0.1119784563779831, 0.20992350578308105, 0.11834362894296646, -0.09925490617752075, 0.10644888132810593, 0.2261924296617508, -0.0364561453461647, -0.11452712118625641, -0.22786648571491241, -0.09560684114694595, 0.021013690158724785, -0.04846799001097679, 0.07284943759441376], [0.18763121962547302, -0.0056079840287566185, -0.16495390236377716, 0.16775774955749512, -0.14779135584831238, -0.13838507235050201, -0.23839761316776276, -0.15111826360225677, -0.14248056709766388, -0.09568531066179276, 0.14749717712402344, 0.16952037811279297, -0.11202304065227509, 0.09031732380390167, -0.22231031954288483, 0.2136184424161911, -0.027212010696530342], [-0.10354103893041611, -0.08780624717473984, 0.16294260323047638, 0.1675596982240677, 0.12589944899082184, -0.015392840839922428, 0.0768023207783699, 0.028944216668605804, -0.010384878143668175, 0.23143526911735535, 0.20200465619564056, 0.04086669161915779, 0.2073158323764801, 0.21189860999584198, -0.18761254847049713, 0.15119440853595734, 0.0026243585161864758], [-0.021803811192512512, -0.043708644807338715, 0.19937674701213837, 0.02644328400492668, 0.1775093823671341, -0.22084194421768188, 0.08855036646127701, 0.06586512923240662, -0.16053295135498047, -0.11671605706214905, 0.0793878510594368, 0.07234647125005722, -0.08863632380962372, -0.10698214173316956, 0.22909735143184662, 0.20062154531478882, -0.15607744455337524], [0.14159861207008362, 0.06542271375656128, -0.07011841982603073, -0.10100887715816498, -0.1805165708065033, -0.13836172223091125, 0.17260423302650452, 0.12338417768478394, 0.17270395159721375, 0.03571838513016701, -0.0031487734522670507, 0.09718629717826843, 0.06179425120353699, -0.1389847844839096, -0.015436961315572262, -0.06847705692052841, -0.21090245246887207], [0.30265873670578003, -0.24633221328258514, -0.033596597611904144, 0.16799336671829224, 0.2275373935699463, 0.1559632271528244, -0.03632095083594322, 0.11954773217439651, -0.13404978811740875, 0.16744065284729004, 0.01591780036687851, -0.08795293420553207, -0.19538626074790955, 0.12303417176008224, 0.13460591435432434, -0.14461301267147064, 0.1771976351737976], [0.21799127757549286, -0.20814327895641327, 0.24217936396598816, -0.06536795198917389, -0.03557069972157478, -0.12025830149650574, -0.05385114997625351, 0.06580455601215363, -0.06687518954277039, 0.08425182849168777, -0.06549753993749619, -0.02692488022148609, 0.017146499827504158, 0.08046458661556244, 0.1660713404417038, 0.232477605342865, -0.06478551030158997], [-0.09192825108766556, -0.23428113758563995, -0.06103609874844551, 0.09332213550806046, 0.16501159965991974, -0.15532705187797546, -0.18740375339984894, 0.10550202429294586, 0.2495070844888687, -0.15639793872833252, -0.0178087055683136, 0.25643596053123474, -0.01927443966269493, 0.08806321024894714, -0.19607144594192505, 0.16638138890266418, 0.20206578075885773], [0.07038412243127823, 0.12135310471057892, 0.03284277766942978, 0.2231207937002182, -0.12066151201725006, -0.13895726203918457, -0.08140791207551956, -0.22199290990829468, -0.07054152339696884, -0.1015327200293541, -0.07412618398666382, 0.15627992153167725, 0.21741808950901031, 0.1523251235485077, 0.1381170004606247, 0.12278848886489868, -0.14595544338226318], [0.02474077232182026, -0.13174104690551758, -0.2380170375108719, -0.04592987522482872, 0.1418478935956955, 0.19231119751930237, 0.23547978699207306, -0.11415117233991623, -0.08796301484107971, 0.11965426057577133, 0.02201920934021473, 0.17284533381462097, -0.15157534182071686, -0.14997367560863495, 0.22366689145565033, 0.04982074722647667, -0.10124078392982483], [0.007114990148693323, 0.04008278623223305, -0.16585096716880798, 0.241332545876503, -0.1041869968175888, -0.01120428740978241, 0.15578849613666534, -0.11877615749835968, 0.11008471250534058, 0.054512638598680496, -0.08854114264249802, 0.23309259116649628, 0.06271303445100784, 0.014407849870622158, 0.2098827362060547, -0.07744233310222626, 0.025784946978092194], [0.39264941215515137, 0.011574394069612026, -0.06437627226114273, 0.19634081423282623, -0.06674069911241531, -0.16327592730522156, 0.09956704080104828, 0.17484530806541443, 0.028990499675273895, 0.13701121509075165, 0.1286347657442093, -0.08680997043848038, -0.24717813730239868, -0.1478724479675293, -0.23339511454105377, 0.003076316090300679, -0.00965528842061758], [0.13719318807125092, -0.16074730455875397, 0.08108820021152496, -0.0413256473839283, -0.04359250143170357, -0.04232882335782051, -0.03561129420995712, 0.09203961491584778, 0.09001455456018448, 0.017192037776112556, -0.17118951678276062, 0.05726759508252144, -0.1681966930627823, 0.2016894370317459, 0.07552757114171982, -0.07138863205909729, 0.16193579137325287], [0.0797169953584671, -0.1010919138789177, 0.19276081025600433, 0.0755530446767807, 0.12968964874744415, -0.030095888301730156, 0.23624549806118011, -0.07601232081651688, 0.19559603929519653, 0.09544628858566284, 0.12486105412244797, 0.19139331579208374, 0.23612062633037567, 0.1252315640449524, 0.03230888023972511, -0.20818811655044556, 0.2309422641992569], [-0.14977282285690308, 0.10147105157375336, 0.031224187463521957, 0.1513606458902359, -0.17111343145370483, 0.10702072829008102, -0.040101733058691025, 0.10367835313081741, 0.15043926239013672, -0.005360965151339769, 0.20910532772541046, -0.0667417123913765, -0.16370296478271484, 0.09996556490659714, 0.1136317104101181, -0.15481887757778168, -0.03202187269926071], [-0.07300067692995071, 0.15178853273391724, -0.15461789071559906, -0.2410726249217987, -0.08120202273130417, 0.1559257209300995, 0.09772355109453201, 0.15419866144657135, 0.1554533988237381, -0.06509027630090714, -0.08210762590169907, -0.021933628246188164, -0.0031745925080031157, 0.11264780908823013, -0.20448021590709686, 0.0846877470612526, 0.04503222927451134], [-0.22448061406612396, 0.1821974515914917, 0.11488240212202072, -0.02788768894970417, 0.1581711620092392, -0.006613214500248432, -0.21200589835643768, 0.08278730511665344, -0.16873162984848022, -0.030297204852104187, 0.015393735840916634, -0.23249952495098114, 0.17666998505592346, -0.059365928173065186, 0.12098252773284912, -0.06137798726558685, 0.05934932082891464], [0.10627271234989166, -0.014695616438984871, -0.3154964745044708, 0.11730208247900009, 0.24960100650787354, -0.021256135776638985, -0.08422480523586273, 0.033968936651945114, 0.07066988945007324, -0.12609659135341644, -0.24543648958206177, 0.1399487555027008, 0.2569507956504822, 0.21677805483341217, 0.011393822729587555, -0.054436612874269485, 0.18249589204788208], [-0.10707435011863708, 0.10839805006980896, -0.09951595216989517, 0.22034209966659546, 0.015791572630405426, -0.102774478495121, -0.19660285115242004, -0.1609206348657608, -0.06729482114315033, 0.22976115345954895, -0.15216688811779022, -0.06865645945072174, 0.0324745774269104, -0.029372438788414, 0.07043726742267609, -0.166387677192688, -0.1410842090845108], [0.09282104671001434, 0.16957300901412964, 0.1123494878411293, -0.22221942245960236, 0.09133367985486984, -0.16871096193790436, -0.12795424461364746, 0.19779370725154877, -0.17041242122650146, -0.18837310373783112, -0.1831345111131668, 0.09401907026767731, 0.007145327981561422, -0.09063893556594849, 0.21457570791244507, 0.10014336556196213, -0.13387197256088257], [-0.19872291386127472, 0.02877371944487095, 0.15995407104492188, 0.23956702649593353, 0.03946506977081299, -0.04107107222080231, -0.0391220822930336, 0.23280254006385803, -0.046502891927957535, -0.002022342523559928, 0.15130622684955597, 0.04588931053876877, 0.01567310467362404, -0.03926554322242737, -0.09615863859653473, 0.08315177261829376, -0.20560498535633087], [0.19089682400226593, -0.19133323431015015, -0.22822034358978271, -0.18305937945842743, 0.11180304735898972, 0.02894609607756138, 0.19409403204917908, -0.038294170051813126, 0.1365133374929428, -0.17122481763362885, -0.1911028027534485, -0.11155465990304947, 0.09280842542648315, 0.017259662970900536, -0.007864980027079582, 0.14355634152889252, 0.07132603973150253], [0.2299295961856842, -0.24056823551654816, 0.11487239599227905, 0.2098677009344101, -0.22789400815963745, -0.21933533251285553, 0.021833475679159164, 0.20766237378120422, -0.10724331438541412, -0.004374056123197079, -0.17871931195259094, -0.07148994505405426, -0.1646968424320221, -0.10006202757358551, 0.20522959530353546, -0.21672236919403076, 0.2032887488603592], [0.13649483025074005, -0.013658755458891392, -0.12295898795127869, 0.09694217145442963, 0.133136585354805, -0.06867323070764542, -0.09831003099679947, 0.03106142394244671, 0.2025873064994812, 0.00930042751133442, 0.003932330757379532, 0.22980768978595734, -0.10687895119190216, 0.07035785168409348, 0.11619935184717178, -0.20144999027252197, -0.1990322768688202], [0.213282972574234, -0.19536973536014557, 0.020091526210308075, 0.1165705993771553, -0.11560145020484924, 0.1714625358581543, -0.11629445850849152, 0.23556478321552277, -0.23846682906150818, 0.020100172609090805, -0.1047578752040863, -0.1273375004529953, 0.24043411016464233, 0.020305709913372993, 0.029239846393465996, -0.13501818478107452, 0.06742706894874573], [-0.04853825271129608, 0.06469057500362396, 0.1544765830039978, 0.02325093001127243, -0.17676840722560883, 0.1446356326341629, -0.07553551346063614, 0.24096190929412842, -0.2273830622434616, 0.11412247270345688, 0.24666118621826172, -0.14344501495361328, 0.045541778206825256, 0.1844366043806076, 0.12479572743177414, 0.08358891308307648, -0.0511331669986248], [-0.14484184980392456, 0.10367018729448318, 0.14116278290748596, 0.20207005739212036, 0.2086980789899826, -0.010031914338469505, 0.10057201236486435, 0.18461330235004425, -0.030977141112089157, -0.05249038338661194, 0.17481234669685364, 0.18384689092636108, -0.18773654103279114, 0.13688252866268158, -0.1437322199344635, 0.11792009323835373, 0.08936908096075058], [-0.01045879628509283, 0.07215287536382675, 0.07272646576166153, -0.20856207609176636, 0.1273413449525833, -0.15502764284610748, -0.22933119535446167, -0.16968852281570435, 0.2612229883670807, 0.03296087682247162, -0.002526275347918272, -0.08528181910514832, -0.06038287281990051, -0.21657031774520874, -0.07963965833187103, -0.041358064860105515, -0.09548437595367432], [-0.2198992669582367, -0.030263319611549377, 0.21962648630142212, -0.08398237079381943, -0.23357288539409637, 0.023384198546409607, -0.16324956715106964, 0.17302924394607544, 0.1836201548576355, -0.18819108605384827, -0.030597317963838577, 0.14132897555828094, -0.23219041526317596, 0.12445761263370514, -0.22638021409511566, 0.20029960572719574, -0.1055101826786995], [-0.07721681147813797, -0.04098540544509888, 0.1160646602511406, 0.18114183843135834, -0.16683784127235413, 0.1605536788702011, 0.23490174114704132, -0.19539815187454224, 0.07330501079559326, -0.0888223797082901, 0.10551651567220688, -0.0828937515616417, -0.14398126304149628, 0.006198955234140158, 0.021374143660068512, 0.05773930251598358, 0.21978029608726501], [-0.05814141780138016, 0.06727215647697449, -0.14301614463329315, 0.18814241886138916, 0.05362305790185928, -0.18159987032413483, 0.021448679268360138, 0.2078867405653, -0.06981614232063293, 0.10895360261201859, 0.20132842659950256, -0.13541625440120697, -0.16149698197841644, -0.10097111761569977, -0.048563774675130844, -0.22161124646663666, -0.19944915175437927], [0.2156713753938675, -0.15935948491096497, 0.11911614239215851, 0.06251836568117142, -0.10464633256196976, 0.1399272084236145, -0.1753821223974228, -0.0777583122253418, 0.18684470653533936, 0.15933941304683685, 0.10384227335453033, -0.1300869584083557, -0.019676025956869125, -0.1950061023235321, -0.03147093579173088, 0.08610870689153671, -0.022053731605410576], [-0.014653130434453487, -0.15326689183712006, 0.0519719161093235, -0.03479650244116783, 0.11158552020788193, 0.07782778888940811, -0.19058480858802795, 0.0993637666106224, -0.12791039049625397, -0.15305635333061218, -0.07285460829734802, 0.19918963313102722, 0.13143521547317505, 0.23510994017124176, -0.18517804145812988, 0.12161649018526077, -0.08638158440589905], [0.144332155585289, -0.23411248624324799, 0.17982949316501617, -0.08832120895385742, -0.2080562561750412, -0.08213728666305542, 0.21162375807762146, -0.030804937705397606, 0.18894702196121216, -0.03677262365818024, 0.2382308393716812, 0.11701420694589615, 0.2007046341896057, -0.1399529129266739, -0.046013664454221725, 0.011890091933310032, 0.03166468068957329], [-0.029780782759189606, 0.21314533054828644, -0.15116383135318756, 0.10114523768424988, 0.16871076822280884, -0.0159438606351614, -0.009765726514160633, 0.20704317092895508, 0.11609584093093872, -0.08351246267557144, -0.04508444294333458, 0.11540774255990982, -0.1973651647567749, 0.18633243441581726, -0.06721657514572144, 0.1235557571053505, 0.20298832654953003], [0.15162767469882965, 0.08745299279689789, 0.028400834649801254, -0.2419108748435974, 0.177012637257576, 0.09739042073488235, -0.17569062113761902, 0.17803466320037842, -0.16121016442775726, 0.1905389130115509, -0.22908800840377808, 0.17210309207439423, -0.09678346663713455, -0.1577090620994568, 0.07946233451366425, -0.20084942877292633, -0.07936058938503265], [0.39396336674690247, -0.2067846953868866, -0.18856218457221985, 0.17039306461811066, -0.06688149273395538, 0.1268310695886612, -0.010728426277637482, -0.13381452858448029, -0.047967176884412766, 0.010610572062432766, 0.16112112998962402, 0.19697339832782745, -0.07906852662563324, 0.139856219291687, 0.0642302930355072, -0.09931387007236481, -0.09619499742984772], [0.04960412159562111, 0.05953267216682434, -0.14578713476657867, 0.007975932210683823, -0.21125644445419312, 0.07899594306945801, 0.1421045958995819, 0.010716192424297333, -0.0598459467291832, -0.21454794704914093, 0.11113139986991882, -0.004967978689819574, -0.24480034410953522, -0.19651365280151367, 0.11081692576408386, 0.21002982556819916, -0.22530964016914368], [0.18961340188980103, -0.12722407281398773, 0.05355248227715492, -0.07887051999568939, -0.07413231581449509, 0.05097233131527901, 0.004138593096286058, 0.008642321452498436, 0.12416458129882812, 0.024263860657811165, 0.2064885050058365, -0.0679953470826149, 0.12068895250558853, 0.225129172205925, 0.1302156001329422, -0.1385345607995987, -0.19776730239391327], [0.18825264275074005, -0.12432343512773514, 0.07041729241609573, -0.050965066999197006, -0.07065355032682419, 0.022252390161156654, -0.2368912547826767, 0.21336455643177032, -0.1093008816242218, 0.05477325618267059, 0.07719256728887558, 0.12763775885105133, 0.23156584799289703, -0.16210240125656128, 0.20177245140075684, -0.18932995200157166, 0.20094658434391022], [-0.1315416693687439, 0.23401205241680145, 0.014511395245790482, 0.0512826070189476, 0.059237539768218994, -0.07555699348449707, 0.17223989963531494, -0.07628439366817474, -0.17858262360095978, 0.08731725811958313, 0.11304330825805664, 0.03632153570652008, 0.007670592982321978, -0.17082153260707855, 0.2357761114835739, -0.22178451716899872, -0.09551702439785004], [-0.3663107454776764, 0.09332766383886337, 0.05214707925915718, -0.1199648305773735, 0.1752324402332306, -0.10391737520694733, 0.09849809110164642, 0.13090644776821136, 0.19191120564937592, 0.10406151413917542, -0.013768666423857212, 0.01785014010965824, -0.05033862963318825, -0.012310397811233997, -0.24604608118534088, 0.06492483615875244, 0.10052461922168732], [0.10992034524679184, -0.20592375099658966, -0.2232159674167633, 0.2156141847372055, -0.03069009818136692, 0.06812389194965363, -0.0843031257390976, 0.005345111712813377, -0.22163037955760956, 0.22605064511299133, -0.2313583344221115, -0.11023090034723282, 0.16866634786128998, 0.15643945336341858, 0.08768892288208008, 0.08046972751617432, 0.07053906470537186], [-0.050583139061927795, 8.109956252155825e-05, -0.11227981001138687, -0.17426563799381256, 0.23348453640937805, 0.06411106884479523, 0.15914228558540344, 0.23917743563652039, 0.2002166211605072, 0.06167299300432205, -0.04211276024580002, -0.04005280137062073, 0.19759123027324677, -0.029068510979413986, -0.09145792573690414, -0.06337255239486694, -0.16303731501102448], [-0.008683216758072376, 0.0022418557200580835, -0.1074615865945816, 0.18336723744869232, -0.03029157593846321, 0.10016632080078125, 0.1829102635383606, 0.18209168314933777, -0.059215642511844635, -0.20363694429397583, 0.09320790320634842, 0.11930380761623383, 0.04556606709957123, 0.08928915858268738, 0.10163579881191254, -0.21945875883102417, 0.08033467829227448], [0.14103108644485474, -0.19986799359321594, 0.12532059848308563, 0.10379387438297272, -0.0059697371907532215, 0.052664607763290405, 0.07191475480794907, -0.18407593667507172, 0.014279854483902454, 0.06705904006958008, -0.04252684488892555, 0.04940275847911835, 0.1459786593914032, 0.11057602614164352, 0.16272544860839844, -0.013047256506979465, 0.13817301392555237], [0.10811842978000641, -0.14486850798130035, -0.1784045547246933, 0.1478080302476883, 0.25387996435165405, 0.05786385387182236, -0.23291906714439392, 0.08307567983865738, -0.05018875002861023, -0.07993374019861221, -0.10112997889518738, 0.3642752468585968, 0.03458283469080925, -0.17140692472457886, 0.053115587681531906, 0.12945733964443207, -0.23634102940559387], [0.030590377748012543, 0.11941136419773102, -0.16334876418113708, -0.2250191569328308, -0.1859048306941986, -0.21507227420806885, 0.10555638372898102, -0.07428352534770966, 0.1711423099040985, -0.04417598620057106, 0.09130830317735672, -0.15133756399154663, 0.19725558161735535, -0.0957380160689354, 0.16253982484340668, -0.008892125450074673, -0.11457225680351257], [0.06724683195352554, -0.17921316623687744, 0.23388279974460602, 0.06875554472208023, -0.15560351312160492, -0.12133656442165375, -0.03488330543041229, -0.18882116675376892, -0.04495581239461899, 0.08736032992601395, 0.09045740962028503, -0.20025883615016937, 0.087264284491539, 0.015558047220110893, 0.16330894827842712, 0.049636777490377426, -0.12104949355125427], [0.11618407070636749, 0.007665108423680067, -0.22536443173885345, 0.12177854776382446, 0.06691256910562515, 0.20843133330345154, 0.22788573801517487, -0.01653861440718174, 0.17355985939502716, -0.07066024094820023, -0.2293592393398285, 0.2326768934726715, -0.1640295386314392, -0.09845570474863052, 0.15891121327877045, 0.06366046518087387, 0.06361079216003418], [0.03145197033882141, 0.008684881031513214, -0.04478699341416359, -0.07976461201906204, -0.09675897657871246, 0.15669097006320953, 0.17390304803848267, -0.12057451903820038, -0.14568525552749634, 0.1843138039112091, 0.2239166647195816, -0.1042199581861496, -0.19832277297973633, -0.1887798309326172, -0.012800575233995914, -0.13142621517181396, -0.06892401725053787], [-0.2123723328113556, 0.27917277812957764, -0.05561061576008797, 0.008842295035719872, -0.004767873790115118, 0.11894408613443375, 0.009164053946733475, 0.10447072237730026, -0.00560564361512661, 0.1166047602891922, -0.11258438229560852, 0.01465830858796835, -0.12178905308246613, -0.07033044099807739, 0.28892698884010315, 0.019628139212727547, -0.1790807545185089], [-0.1496460884809494, -0.14269611239433289, 0.05760728567838669, -0.055366046726703644, 0.15036138892173767, -0.12020761519670486, 0.08929188549518585, 0.22173310816287994, 0.21911585330963135, -0.05079136788845062, 0.20656749606132507, 0.14412496984004974, 0.19001184403896332, -0.039180051535367966, -0.10817316919565201, 0.048986390233039856, 0.21270933747291565], [0.08727943152189255, -0.07308941334486008, 0.1376129686832428, -0.10315456241369247, -0.03949245065450668, -0.056365638971328735, -0.24136009812355042, -0.058182213455438614, -0.18834370374679565, 0.012360469438135624, -0.16604222357273102, 0.20564723014831543, 0.04473697394132614, -0.17082689702510834, -0.07259749621152878, -0.11327911168336868, 0.2022753357887268], [-0.07642993330955505, 0.04577389359474182, -0.11673308908939362, -0.1463070809841156, -0.03559556603431702, 0.22375652194023132, 0.023355141282081604, 0.1860654056072235, 0.012180459685623646, 0.07963213324546814, 0.14171704649925232, 0.05770156905055046, 0.2295786291360855, -0.10635589808225632, -0.058462925255298615, 0.08479341864585876, 0.012705886736512184], [0.13124924898147583, -0.1262935847043991, 0.12789547443389893, -0.16008052229881287, 0.20073248445987701, 0.006994251627475023, -0.1885976493358612, -0.14898347854614258, -0.12531958520412445, 0.14096087217330933, -0.029665179550647736, 0.09794244915246964, 0.0013351304223760962, 0.174056276679039, -0.07900340110063553, -0.11578678339719772, 0.22375372052192688], [-0.09272530674934387, 0.14345087110996246, 0.14153729379177094, 0.1757267266511917, 0.22106702625751495, 0.1528725028038025, 0.078148752450943, -0.14165684580802917, 0.12742328643798828, 0.14973129332065582, 0.1323946714401245, 0.16172203421592712, -0.09413611888885498, -0.008107325062155724, 0.21730342507362366, -0.17276042699813843, 0.20557443797588348], [0.05426463484764099, -0.05016759783029556, 0.07271525263786316, 0.06291618198156357, 0.04582208767533302, -0.09745090454816818, -0.1328122913837433, -0.05398076772689819, 0.14423373341560364, -0.09530233591794968, -0.10680265724658966, -0.19222430884838104, 0.2168406993150711, 0.12347548454999924, -0.19618839025497437, -0.21253527700901031, 0.1325952410697937], [-0.10625768452882767, -0.17499610781669617, 0.2141120284795761, 0.15486538410186768, 0.23675192892551422, -0.06513936817646027, 0.03984738141298294, -0.004280292894691229, 0.011569943279027939, -0.1421860307455063, 0.16766566038131714, -0.007302429992705584, -0.07935697585344315, 0.09131021052598953, 0.1633969098329544, -0.031509652733802795, 0.22592870891094208], [-0.1805671751499176, -0.14731557667255402, -0.10676136612892151, 0.21516282856464386, 0.06650698930025101, -0.21319912374019623, 0.061514291912317276, 0.24171662330627441, -0.061087947338819504, 0.07443302869796753, -0.023106232285499573, -0.024226447567343712, -0.128977969288826, 0.06979728490114212, -0.1913159191608429, -0.029273847118020058, -0.026235433295369148], [-0.002650003181770444, 0.23996567726135254, 0.06103797256946564, -0.026449428871273994, 0.17978838086128235, 0.01964527927339077, -0.22433073818683624, 0.1340339332818985, 0.14321279525756836, 0.06025940552353859, -0.20402584969997406, -0.13120996952056885, -0.01856262981891632, -0.11625158041715622, 0.17306870222091675, 0.04995964840054512, -0.04913874715566635]], "fc1.bias": [-0.003891163505613804, 0.0471034049987793, 0.19620083272457123, -0.15917958319187164, 0.1751316785812378, -0.002492438768967986, 0.161971777677536, -0.12235778570175171, 0.04037971794605255, -0.15473732352256775, 0.21763776242733002, -0.18176957964897156, -0.18679454922676086, 0.13513560593128204, -0.00424192612990737, 0.07032236456871033, -0.031485892832279205, 0.18157610297203064, 0.05624597147107124, 0.17015239596366882, 0.10502222180366516, -0.21489770710468292, -0.09178677946329117, -0.24137501418590546, -0.1835303008556366, -0.04122604429721832, -0.07029169052839279, -0.1840052753686905, 0.006310615688562393, -0.2136164754629135, 0.007803413085639477, 0.1926426738500595, -0.045568063855171204, 0.17246803641319275, 0.11258161813020706, 0.06884759664535522, -0.08489331603050232, 0.2326008528470993, 0.1294952630996704, -0.1852174550294876, -0.12746277451515198, 0.07503285259008408, 0.196983203291893, -0.11909113079309464, 0.015210301615297794, -0.07031985372304916, 0.04382524639368057, 0.1646738499403, -0.126485213637352, 0.21429692208766937, -0.21209196746349335, 0.11152539402246475, -0.011881793849170208, -0.04579031467437744, 0.016759390011429787, 0.0028300753328949213, -0.18808959424495697, 0.1970445215702057, 0.17425858974456787, -0.2045285552740097, 0.001164884539321065, 0.18879584968090057, -0.17356011271476746, 0.05855043977499008, -0.1468530148267746, -0.19841375946998596, 0.2269381582736969, -0.11153126507997513, 0.10694250464439392, -0.13853628933429718, 0.053924210369586945, -0.21170729398727417, -0.13717365264892578, -0.022152667865157127, 0.2122030258178711, -0.17393054068088531, 0.16416035592556, 0.10686169564723969, 0.13006773591041565, 0.1654583215713501, -0.08136668056249619, -0.14350707828998566, -0.17383863031864166, 0.1463058888912201, -0.2278067022562027, -0.1464150846004486, 0.08680422604084015, -0.15520721673965454, 0.04367675259709358, -0.012640082277357578, -0.046075768768787384, 0.18539084494113922, 0.0537724494934082, 0.11306276172399521, -0.11258981376886368, -0.08123252540826797, -0.11269820481538773, 0.026744119822978973, -0.00931922160089016, 0.17581337690353394], "fc2.weight": [[0.5392584204673767, -0.06953534483909607, 0.09044092893600464, -0.012678488157689571, 0.07236034423112869, -1.054483413696289, -0.054196786135435104, 0.07441449165344238, 0.007916877046227455, -0.012332038022577763, 0.01896531693637371, 0.011951043270528316, -0.019737176597118378, 0.0429082028567791, 0.0035385966766625643, -0.04912930727005005, -0.06313130259513855, -0.9745774865150452, -0.09562638401985168, -0.0352209210395813, 0.05641297623515129, 0.6776571273803711, -0.018875181674957275, -0.004858005326241255, 0.03935908153653145, -0.09025370329618454, 0.04597361013293266, -0.03399870544672012, -0.058830440044403076, -0.03663870319724083, 1.1276649236679077, -0.05029097944498062, 0.05806753784418106, -0.06184588745236397, -0.06597033888101578, -0.09970024228096008, -0.09494926780462265, -0.09150034189224243, 0.06369713693857193, -0.044212497770786285, 0.07798633724451065, 0.053564202040433884, -0.07250562310218811, 0.025569375604391098, -0.9805867671966553, 0.07430486381053925, -0.9309946894645691, 0.06064766272902489, 0.006757207214832306, -0.06430794298648834, -0.8608253598213196, -0.09211337566375732, -0.0526416078209877, -0.12135735899209976, -0.02809011936187744, 0.9115200042724609, -1.09830641746521, 0.0966227650642395, 0.004864196293056011, -0.04360665753483772, 0.07829753309488297, 0.02625364065170288, 0.07513538748025894, 0.032733213156461716, -0.10023366659879684, -0.08498982340097427, 0.385262668132782, 0.05705065652728081, 0.06451696902513504, 0.00032676459522917867, -0.04184810072183609, 0.030648380517959595, -0.07416440546512604, 0.24747809767723083, -0.03680244833230972, -1.0400786399841309, -0.25761663913726807, 0.058081161230802536, -0.07412877678871155, -0.07407157868146896, 0.6997305750846863, 0.022245168685913086, -0.013510429300367832, 0.030265217646956444, 0.016383837908506393, -1.0367323160171509, 0.07683286815881729, 0.06778553873300552, 0.0236845500767231, 0.07626517862081528, 1.096187710762024, 0.023310769349336624, -0.05499995872378349, 0.018690895289182663, 0.018419349566102028, -0.04216287285089493, 0.08050933480262756, 0.0885806530714035, 0.05100574716925621, -0.09779798984527588]], "fc2.bias": [-0.01883724145591259]}