{"fc1.weight": [[0.9951403737068176, -1.0844955444335938, -0.35644447803497314, 0.05917127802968025, 0.16184699535369873, 0.05265027657151222, -0.569221019744873, -0.03285561129450798, -0.02847233973443508, 0.28656336665153503, -0.6612349152565002, 0.626136064529419, 0.2509419620037079, 0.19540393352508545, -1.1583585739135742, -0.21205134689807892, 0.2657880187034607], [0.18588203191757202, -0.06075986102223396, 0.13082464039325714, -0.2342924326658249, 0.14158880710601807, 0.17777946591377258, 0.0049640522338449955, -0.07405319809913635, 0.14383025467395782, -0.14092543721199036, -0.014948723837733269, 0.013154960237443447, -0.036062583327293396, 0.12980501353740692, -0.23569004237651825, -0.03419611230492592, 0.14616329967975616], [0.05443038046360016, -0.50432288646698, -0.24603112041950226, 0.15390992164611816, -0.025130201131105423, 0.14041045308113098, -0.33056339621543884, 0.16394995152950287, 0.03147458657622337, -0.08426166325807571, -0.11317872256040573, 0.41515880823135376, 0.15196815133094788, 0.01296911109238863, -0.5407431125640869, -0.22034354507923126, 0.16819660365581512], [-0.6500106453895569, 0.6634953618049622, 0.3204801082611084, -0.290847510099411, -0.0363529771566391, -0.2688084840774536, 0.2338285744190216, 0.0908217653632164, 0.17083990573883057, -0.006378443446010351, 0.37746942043304443, -0.5707664489746094, -0.09716066718101501, -0.03211174160242081, 0.5577720999717712, 0.23426608741283417, 0.03434630110859871], [-0.09657477587461472, 0.1941400170326233, 0.3367937207221985, -0.27137500047683716, -0.017894702032208443, 0.07406794279813766, 0.0023469426669180393, -0.16117417812347412, 0.11465625464916229, 0.04593021422624588, 0.36644917726516724, -0.011380122974514961, 0.24411819875240326, 0.17519769072532654, 0.34334027767181396, 0.1228117048740387, -0.15274274349212646], [0.01132898684591055, -0.2912338674068451, -0.19285957515239716, 0.06612712889909744, 0.07795506715774536, 0.17656157910823822, -0.23400069773197174, 0.11529354006052017, -0.005218662321567535, -0.021724635735154152, 0.009279560297727585, 0.4277856647968292, -0.2541396915912628, -0.03219383582472801, -0.5374240875244141, -0.3094598054885864, -0.08440667390823364], [-0.3431394100189209, 0.6022614240646362, 0.11672382801771164, -0.34900394082069397, 0.11671663075685501, 0.018060266971588135, 0.3612639009952545, -0.22355003654956818, 0.07579993456602097, 0.14760828018188477, 0.33848780393600464, -0.3907521665096283, 0.11028964072465897, 0.21337895095348358, 0.47287169098854065, 0.18390938639640808, 0.01916860044002533], [-0.28814345598220825, 0.448429137468338, 0.17271433770656586, -0.09894023835659027, 0.2198157012462616, 0.0764588713645935, 0.3654922842979431, 0.022478651255369186, -0.07613929361104965, 0.03732557222247124, 0.31733596324920654, -0.0015559121966362, -0.18116216361522675, -0.1887642741203308, 0.525583028793335, 0.190952867269516, 0.17806459963321686], [0.45472800731658936, -0.7299284338951111, -0.0954250916838646, 0.08325603604316711, 0.13749399781227112, 0.1419033706188202, -0.3255470395088196, 0.026420259848237038, -0.25678345561027527, 0.17771974205970764, -0.35270416736602783, 0.23279938101768494, -0.05516700819134712, -0.163998544216156, -0.3453989624977112, -0.3394666910171509, 0.1493297666311264], [-0.23627445101737976, 0.5646483898162842, 0.4256206452846527, -0.15390130877494812, 0.1444387286901474, -0.13081243634223938, 0.3588062822818756, 0.11207038164138794, -0.09916289895772934, -0.24232988059520721, 0.12336838245391846, -0.05861084535717964, 0.039967577904462814, 0.19314296543598175, 0.24155282974243164, 0.04530954360961914, 0.07109029591083527], [0.11160307377576828, -0.24721749126911163, -0.3303709626197815, -0.12104309350252151, -0.14563137292861938, -0.20305560529232025, -0.36705294251441956, -0.031359151005744934, 0.04416484385728836, 0.04367708042263985, 0.03160664439201355, -0.02747184969484806, -0.11483455449342728, -0.09319888800382614, -0.597369372844696, -0.10545547306537628, -0.14999593794345856], [0.13234004378318787, -0.36498546600341797, -0.3245667815208435, 0.16633640229701996, -0.14434897899627686, 0.26604050397872925, -0.4390357732772827, -0.24323582649230957, -0.17092196643352509, -0.09245438128709793, -0.3258098065853119, 0.5355005264282227, -0.10979493707418442, -0.11666925996541977, -0.23866821825504303, 0.00364301516674459, -0.028875483199954033], [0.42470085620880127, -0.28363117575645447, -0.21543876826763153, -0.044660698622465134, -0.31066155433654785, 0.29065629839897156, -0.0756061002612114, 0.027154531329870224, -0.1650267243385315, -0.006037089973688126, -0.12749509513378143, 0.26601579785346985, -0.3102109730243683, -0.12416169047355652, -0.4958150386810303, -0.20826543867588043, -0.08657896518707275], [0.41196945309638977, -0.33484917879104614, -0.49831604957580566, 0.1759399175643921, -0.03204648196697235, -0.004825212061405182, -0.22949768602848053, -0.0928899422287941, 0.051696471869945526, 0.002196491928771138, -0.12876690924167633, 0.10369057208299637, -0.05529244989156723, -0.04962100461125374, -0.48936986923217773, -0.03653358668088913, -0.15097461640834808], [-0.06506447494029999, -0.3368277847766876, -0.3810223937034607, 0.05032144859433174, -0.02898366190493107, 0.22871574759483337, -0.3422834575176239, -0.190614715218544, -0.18273094296455383, 0.022429073229432106, 0.02654947340488434, 0.23403218388557434, 0.03345964476466179, 0.13753575086593628, -0.2564399242401123, -0.18566837906837463, 0.1916189342737198], [0.2540283799171448, -0.7033939361572266, -0.14998070895671844, -0.09082276374101639, 0.10243216902017593, 0.2962014675140381, -0.1975315362215042, 0.20507694780826569, -0.12901394069194794, 0.2696477770805359, -0.44958966970443726, 0.338907390832901, 0.20256100594997406, -0.01682441495358944, -0.6612463593482971, -0.33040282130241394, 0.2397172898054123], [0.8544172048568726, -1.274336576461792, -0.6753208637237549, 0.1419411301612854, 0.17843733727931976, 0.3112698197364807, -0.3688238561153412, 0.10421610623598099, -0.00391331035643816, 0.08613381534814835, -0.3870333433151245, 0.7944921851158142, -0.1280704140663147, -0.09972482919692993, -0.6849375367164612, -0.267173707485199, 0.0920775756239891], [0.2811855673789978, 0.0401652567088604, 0.023759374395012856, -0.216576486825943, -0.2683477997779846, 0.07215747237205505, -0.3178798258304596, -0.020383602008223534, 0.007854782044887543, -0.19937124848365784, -0.08476400375366211, -0.12357945740222931, -0.0961022675037384, -0.10561856627464294, 0.03415800258517265, -0.11710943281650543, 0.16874420642852783], [-0.6159515976905823, 0.5783509016036987, 0.38802167773246765, -0.08749708533287048, 0.1459304839372635, -0.19646361470222473, 0.43800848722457886, -0.21446150541305542, 0.131197988986969, -0.05339685082435608, 0.03870737925171852, -0.42256656289100647, 0.2299179583787918, 0.0989755168557167, 0.6536485552787781, -0.11651329696178436, 0.1481204479932785], [-0.15945756435394287, 0.6640726327896118, 0.4486192464828491, -0.24945342540740967, 0.3148004114627838, -0.06367753446102142, 0.09512682259082794, -0.12009798735380173, 0.051693979650735855, 0.1608591079711914, 0.14488814771175385, -0.2607893943786621, 0.021025683730840683, -0.23218369483947754, 0.25253263115882874, 0.306425005197525, -0.11648911237716675], [0.01119961217045784, -0.5816308856010437, -0.07761669158935547, 0.26734867691993713, 0.03535213693976402, -0.05524883419275284, -0.14278267323970795, 0.1863958239555359, -0.20080611109733582, 0.17210648953914642, -0.3500550091266632, 0.16615016758441925, -0.3205300271511078, 0.2162703275680542, -0.3069416284561157, 0.08310524374246597, -0.0452817864716053], [-0.6241205930709839, 0.5290230512619019, 0.44342952966690063, -0.23768652975559235, 0.13196955621242523, -0.19758367538452148, 0.30687910318374634, -0.01957162655889988, 0.20794722437858582, 0.09412768483161926, 0.14432188868522644, -0.39238932728767395, 0.172199547290802, -0.0005687570082955062, 0.736771821975708, 0.20865486562252045, -0.24743753671646118], [0.4345763623714447, -0.6248201131820679, -0.3307691514492035, -0.0410468764603138, -0.036582645028829575, -0.0736515149474144, -0.11692912876605988, 0.09096315503120422, -0.050424423068761826, -0.09058934450149536, -0.22099360823631287, 0.39501437544822693, -0.19553527235984802, -0.25860103964805603, -0.3525862395763397, -0.21338191628456116, 0.11797519773244858], [-0.05588109418749809, 0.5485882759094238, 0.2389802783727646, 0.12125622481107712, -0.009088349528610706, -0.13535663485527039, 0.24815259873867035, 0.16787491738796234, 0.20475095510482788, 0.08412467688322067, 0.39800408482551575, -0.1762075275182724, -0.03268204629421234, -0.04645530506968498, 0.4124630391597748, 0.07606183737516403, 0.09824953228235245], [0.5646477937698364, -1.072862148284912, -0.5317711234092712, 0.07645819336175919, -0.18159551918506622, 0.14683641493320465, -0.5217370986938477, 0.045623261481523514, 0.09786073863506317, -0.11521610617637634, -0.14179761707782745, 0.6678651571273804, 0.13110533356666565, 0.02966080978512764, -0.7575569748878479, -0.2610512673854828, -0.030569348484277725], [1.1407511234283447, -1.3229470252990723, -0.6649680733680725, 0.15673993527889252, 0.19006431102752686, -0.060516491532325745, -0.44902703166007996, -0.2404465228319168, -0.11189564317464828, 0.225696861743927, -0.6321685314178467, 0.7706459164619446, 0.19010694324970245, 0.19013096392154694, -1.009384274482727, -0.11084765195846558, -0.14613954722881317], [-0.05163431912660599, 0.10080272704362869, 0.007190608885139227, 0.005771530792117119, 0.08072040975093842, 0.05124318227171898, -0.057158395648002625, -0.1083436906337738, 0.2285141497850418, -0.16908347606658936, 0.23274773359298706, -0.08966092765331268, 0.06336861848831177, 0.005435456987470388, 0.17210014164447784, -0.10425197333097458, -0.21086765825748444], [-0.1457872837781906, -0.3234894573688507, 0.04690798372030258, -0.10426691919565201, -0.23872965574264526, 0.05757782980799675, -0.09924162179231644, 0.21672692894935608, -0.025898175314068794, 0.09315355122089386, -0.04282371327280998, -0.05498073995113373, -0.24599827826023102, -0.22946766018867493, -0.2243230938911438, -0.18471992015838623, 0.1862526535987854], [-0.12747211754322052, 0.15479402244091034, -0.07976077497005463, 0.18999242782592773, -0.030907591804862022, 0.1516619771718979, 0.23168151080608368, 0.04656393453478813, -0.04511817544698715, 0.1610504388809204, -0.055400408804416656, -0.2671438157558441, -0.0018528439104557037, -0.11010561883449554, 0.19513298571109772, 0.1318911910057068, -0.1372167468070984], [-0.512326717376709, 1.008443832397461, 0.43903517723083496, -0.3340929448604584, 0.071757011115551, -0.3723817467689514, 0.2264702022075653, -0.181585893034935, -0.1434307098388672, 0.12345724552869797, 0.29835760593414307, -0.6668037176132202, 0.1009976714849472, -0.1903424710035324, 0.8756893277168274, 0.1958877593278885, 0.0556785985827446], [1.0328748226165771, -1.1283259391784668, -0.4303208887577057, 0.3558948338031769, -0.009173057042062283, 0.19809333980083466, -0.44234704971313477, -0.2628394365310669, 0.17066435515880585, -0.08597970008850098, -0.5801359415054321, 0.8613338470458984, 0.205068901181221, -0.0391986258327961, -0.9762257933616638, -0.08382932096719742, 0.14631842076778412], [-0.2151113748550415, 0.604602038860321, 0.03182138502597809, -0.2552919089794159, 0.27126023173332214, 0.11068974435329437, 0.2986501455307007, 0.16847538948059082, 0.00866168923676014, 0.14053578674793243, 0.20870257914066315, -0.18234433233737946, 0.008441928774118423, -0.04364421218633652, 0.417968213558197, 0.11908998340368271, 0.19318240880966187], [-1.11969792842865, 1.2661912441253662, 0.6500857472419739, -0.28049924969673157, -0.09419291466474533, 0.004282732494175434, 0.32959532737731934, 0.03373701870441437, -0.2616923153400421, 0.08206231892108917, 0.5505101084709167, -0.5252380967140198, 0.08490719646215439, -0.1557939648628235, 1.0037821531295776, 0.312327116727829, -0.3210625946521759], [-0.07208627462387085, 0.4647901654243469, 0.16756094992160797, -0.11671814322471619, 0.04099654406309128, 0.20954912900924683, 0.05460119619965553, 0.09998636692762375, 0.2986822724342346, 0.11574231833219528, 0.42252740263938904, -0.1840439885854721, 0.19258588552474976, -0.1892063468694687, 0.16442357003688812, -0.03168443590402603, 0.14734451472759247], [0.1894705593585968, 0.34402361512184143, 0.1939307004213333, 0.0029574185609817505, 0.16949373483657837, -0.1440284103155136, -0.09648095816373825, 0.11586998403072357, -0.1382509171962738, -0.15830378234386444, 0.05281061679124832, -0.24701666831970215, -0.11899194121360779, -0.20124290883541107, 0.22388631105422974, 0.21968291699886322, 0.09115317463874817], [0.3478083610534668, -0.39208322763442993, 0.0012098826700821519, 0.2751869261264801, -0.2464994490146637, 0.24061354994773865, -0.005858457647264004, -0.18210668861865997, -0.22660523653030396, 0.1471976488828659, -0.2974833846092224, 0.23025140166282654, -0.04178157448768616, 0.20978425443172455, -0.29695621132850647, -0.30054205656051636, 0.062447138130664825], [0.7450682520866394, -0.9256362318992615, -0.5750668048858643, 0.24920138716697693, -0.18393640220165253, 0.11633934825658798, -0.3081475496292114, 0.14637067914009094, -0.008194060064852238, -0.00871602725237608, -0.4500765800476074, 0.37933510541915894, -0.046116799116134644, -0.23962359130382538, -0.5331289768218994, -0.1774396449327469, -0.14195889234542847], [0.49183571338653564, -0.6513269543647766, -0.15333010256290436, 0.05415766313672066, -0.02590489573776722, -0.12124823778867722, -0.4353210926055908, -0.04372628033161163, -0.06481004506349564, -0.03277817368507385, -0.16243773698806763, 0.43604597449302673, 0.06606754660606384, -0.18329523503780365, -0.6907377243041992, 0.023302067071199417, -0.16362985968589783], [1.0231385231018066, -1.354581594467163, -0.4223066568374634, 0.2050064355134964, -0.03989904373884201, 0.03634396195411682, -0.3889337182044983, -0.06757168471813202, 0.04398157447576523, 0.1724846512079239, -0.47778329253196716, 0.9729993343353271, 0.2245633751153946, -0.16382475197315216, -1.2730236053466797, -0.3177858591079712, -0.08467307686805725], [-0.23156745731830597, 0.14039084315299988, -0.023750383406877518, 0.17068307101726532, 0.14371861517429352, 0.13182629644870758, 0.18132448196411133, 0.19987283647060394, -0.04736778140068054, -0.1530831903219223, 0.25636935234069824, -0.2604142427444458, -0.08953119069337845, -0.22187477350234985, 0.060583196580410004, -0.1664537936449051, 0.029265185818076134], [-0.40384671092033386, 0.4542955756187439, 0.1592157483100891, 0.1766832172870636, -0.0876692533493042, -0.21099057793617249, 0.30593931674957275, 0.11174089461565018, 0.15953341126441956, -0.23903512954711914, 0.016304899007081985, -0.41993236541748047, 0.2550751566886902, -0.09809380024671555, 0.34011632204055786, 0.21052907407283783, -0.24494202435016632], [0.09700959175825119, 0.3755464553833008, 0.10308123379945755, -0.21516957879066467, 0.24213506281375885, 0.03959067910909653, 0.2630544602870941, 0.0667622983455658, -0.14548125863075256, 0.2332354187965393, 0.09790970385074615, 0.012648409232497215, 0.2632782757282257, 0.1610032618045807, -0.02478543296456337, 0.041535634547472, -0.23259133100509644], [-0.2980031669139862, 0.569494903087616, 0.22532807290554047, -0.16296477615833282, 0.302077054977417, -0.19005680084228516, 0.3664306104183197, -0.19112685322761536, 0.12066587805747986, -0.1089414730668068, 0.06302343308925629, -0.021947497501969337, 0.1109892874956131, -0.03718842938542366, 0.5016252398490906, 0.27758195996284485, -0.24984300136566162], [0.5518931746482849, -0.75942462682724, -0.39469558000564575, 0.25091788172721863, 0.14847061038017273, 0.0703778862953186, -0.33685365319252014, -0.22172801196575165, -0.16047842800617218, 0.0363948754966259, -0.4997323155403137, 0.4587549567222595, -0.11325149238109589, -0.05427174270153046, -0.6672685742378235, -0.3314259946346283, 0.1967703253030777], [-0.4775732159614563, 0.957283079624176, 0.4708039164543152, 0.04469259828329086, -0.05016452446579933, -0.3308902084827423, 0.29639771580696106, -0.09669599682092667, 0.1935654580593109, -0.07197155058383942, 0.1651543229818344, -0.23947227001190186, 0.1401873081922531, 0.11691653728485107, 0.40678727626800537, 0.17689606547355652, 0.09466870129108429], [-0.3339773416519165, 0.38787004351615906, 0.08153826743364334, 0.03745137155056, 0.27905935049057007, -0.11848866939544678, 0.047487858682870865, 0.18360882997512817, 0.24682514369487762, -0.10912173241376877, 0.2841198444366455, -0.2855019271373749, -0.08919178694486618, -0.21688921749591827, 0.6177078485488892, 0.12421383708715439, 0.037434983998537064], [0.6979522109031677, -1.2115404605865479, -0.39766326546669006, 0.23895446956157684, -0.0514160580933094, 0.006216735113412142, -0.34856176376342773, -0.07234542816877365, -0.039671238511800766, 0.2796962261199951, -0.43419596552848816, 0.4814937114715576, 0.19327814877033234, 0.21570628881454468, -0.6275311708450317, -0.18498550355434418, 0.2771248519420624], [0.5449299812316895, -1.0234653949737549, -0.26640769839286804, 0.1388319730758667, -0.1159331426024437, 0.33983322978019714, -0.1531265825033188, -0.2707578241825104, 0.23114538192749023, -0.09660568088293076, -0.4347749948501587, 0.6559103727340698, 0.02478725276887417, -0.16122682392597198, -0.7696707844734192, -0.12395460903644562, 0.1194445863366127], [0.22091792523860931, -0.2718522548675537, -0.30577829480171204, -0.16873273253440857, 0.08541957288980484, 0.07652518898248672, -0.28177979588508606, -0.19904541969299316, 0.12133646011352539, -0.2228417694568634, 0.08319348841905594, 0.10711703449487686, -0.05594382807612419, -0.14269891381263733, -0.008751590736210346, -0.03360028564929962, 0.028172621503472328], [0.04836771637201309, 0.167474165558815, 0.16871747374534607, -0.22786760330200195, 0.1911572366952896, -0.24918042123317719, 0.26044461131095886, -0.11172233521938324, 0.2486247718334198, 0.07836025953292847, 0.10701598972082138, 0.02227863110601902, 0.034062717109918594, 0.1696498692035675, -0.05670376494526863, 0.23093661665916443, -0.06405573338270187], [-0.771388590335846, 0.9943759441375732, 0.4412170946598053, 0.03879551589488983, -0.0706750899553299, 0.04500746726989746, 0.16067394614219666, 0.24293950200080872, 0.1520688384771347, -0.060640476644039154, 0.38689368963241577, -0.5879607796669006, 0.23061954975128174, -0.028039397671818733, 0.4725531041622162, 0.322174072265625, -0.021505000069737434], [0.6239593029022217, -0.4299190938472748, -0.3990006744861603, -0.03786406293511391, -0.0831301286816597, 0.10146566480398178, -0.31598761677742004, 0.1684003323316574, 0.10791896283626556, -0.1615624874830246, -0.40050020813941956, 0.2225159853696823, -0.11650773882865906, -0.20056642591953278, -0.528533935546875, -0.22029897570610046, 0.1479952186346054], [-0.4992475211620331, 0.7371788024902344, 0.5188741683959961, -0.11490490287542343, 0.07942842692136765, -0.11122195422649384, 0.1763744354248047, -0.003910718951374292, 0.06600814312696457, -0.18956542015075684, 0.2870083153247833, -0.14596791565418243, -0.17958934605121613, 0.027706049382686615, 0.6814709901809692, 0.35421431064605713, -0.11952055245637894], [-0.1305520385503769, 0.459867924451828, 0.12397826462984085, 0.11231081187725067, 0.16728542745113373, -0.11175350844860077, 0.4096774756908417, 0.17958509922027588, 0.2420194447040558, -0.05362518131732941, -0.04507044330239296, -0.4963042140007019, -0.06333865225315094, -0.21999146044254303, 0.6568595767021179, 0.2591371238231659, -0.14447693526744843], [0.4886518716812134, -0.7362127304077148, -0.28005701303482056, 0.41862013936042786, -0.2155047357082367, 0.11165541410446167, -0.25075623393058777, 0.06227796524763107, -0.09616758674383163, -0.03365965560078621, -0.4219045341014862, 0.569443941116333, -0.11087643355131149, -0.2330763041973114, -0.7528931498527527, -0.28369462490081787, -0.001641852781176567], [-0.49509477615356445, 0.5928440690040588, 0.3656504452228546, 0.06928888708353043, 0.22167210280895233, 0.07540697604417801, 0.08636019378900528, 0.19993194937705994, 0.15237845480442047, -0.25812169909477234, 0.24243934452533722, -0.5586082339286804, 0.1253253072500229, -0.16081471741199493, 0.7446345686912537, 0.17169667780399323, 0.17643727362155914], [0.06521196663379669, -0.24270643293857574, -0.208915576338768, 0.14824560284614563, 0.1689811646938324, 0.20256896317005157, -0.13246755301952362, 0.1768042892217636, 0.148224338889122, 0.0036302420776337385, -0.224893257021904, 0.09587866067886353, 0.11692068725824356, 0.08118084818124771, -0.19330020248889923, -0.17067214846611023, 0.03934329375624657], [0.013675819151103497, -0.3275385797023773, -0.33117541670799255, 0.2257382869720459, -0.07117561995983124, 0.0714731216430664, 0.06520193815231323, -0.12796437740325928, -0.2273743599653244, -0.2148432731628418, -0.04020050913095474, 0.0958021879196167, -0.034263331443071365, 0.02053261362016201, -0.04297412559390068, -0.2902444005012512, -0.005029568914324045], [-0.08761890232563019, -0.04672250524163246, 0.07083752006292343, -0.16923971474170685, -0.012706351466476917, -0.08190873265266418, 0.14695385098457336, -0.23008187115192413, 0.16522417962551117, 0.1728900969028473, 0.10553349554538727, -0.13699494302272797, 0.17803144454956055, 0.23649205267429352, 0.15040558576583862, 0.22278201580047607, -0.042918380349874496], [0.505345344543457, -0.5921337008476257, -0.3661511540412903, -0.019089851528406143, -0.13230252265930176, -0.13813333213329315, -0.3620215356349945, -0.18939273059368134, -0.24334987998008728, 0.18947060406208038, -0.07743564248085022, 0.2673441469669342, -0.21248024702072144, 0.17414700984954834, -0.505359411239624, 0.005680665373802185, 0.07462073862552643], [0.5598421692848206, -0.8862859606742859, -0.4910453259944916, 0.08512246608734131, -0.28641343116760254, 0.1488344967365265, -0.15423670411109924, 0.0926394835114479, 0.0279743243008852, 0.0593460276722908, -0.24994605779647827, 0.37094345688819885, -0.02710157446563244, -0.08566276729106903, -0.5415021181106567, -0.28697749972343445, -0.12918472290039062], [0.12044175714254379, 0.2763668894767761, 0.12721557915210724, -0.015127530321478844, 0.02782842516899109, -0.18702004849910736, -0.0457567535340786, 0.03863988071680069, 0.03963243588805199, -0.14591675996780396, -0.10698430240154266, -0.07729040831327438, -0.1523827761411667, 0.12412554770708084, 0.2876366078853607, 0.08628401905298233, -0.040115613490343094], [0.6154353022575378, -0.8199713230133057, -0.6046248078346252, 0.05106835439801216, -0.03875812888145447, 0.07527575641870499, -0.32606035470962524, -0.045430008322000504, -0.19498173892498016, 0.2257472574710846, -0.15085554122924805, 0.27303755283355713, 0.11526187509298325, -0.05509261041879654, -0.7656631469726562, -0.10737689584493637, -0.11696850508451462], [1.206119418144226, -1.3165007829666138, -0.6410238146781921, 0.44872087240219116, 0.14520595967769623, -0.01493567693978548, -0.4872460663318634, -0.18942423164844513, 0.09627175331115723, -0.044023558497428894, -0.46099853515625, 0.5926690697669983, 0.10120301693677902, -0.032920289784669876, -1.032228946685791, -0.011063824407756329, -0.13679540157318115], [0.3017655909061432, -0.48782747983932495, -0.018978973850607872, 0.25694984197616577, 0.1080562174320221, 0.1843414306640625, -0.08504988253116608, 0.001358139212243259, -0.09590864926576614, -0.13071967661380768, -0.3088696599006653, 0.1287088841199875, 0.12190628796815872, -0.166525200009346, -0.6127688884735107, -0.3051454722881317, 0.18992531299591064], [0.15623629093170166, 0.19498024880886078, 0.15962155163288116, 0.01241287961602211, -0.14444658160209656, -0.11753983795642853, 0.013651084154844284, 0.08718639612197876, 0.227633535861969, 0.20660725235939026, 0.04660257324576378, -0.10324364900588989, -0.09558247029781342, 0.008051357232034206, -0.15754090249538422, 0.11771436035633087, -0.029180200770497322], [-0.06114749237895012, 0.5836182236671448, 0.46021807193756104, -0.11551452428102493, 0.20169441401958466, -0.056882116943597794, -0.029345329850912094, -0.014909490942955017, -0.1881452053785324, 0.11277887970209122, 0.39305272698402405, -0.2919602692127228, -0.011418391019105911, -0.21067741513252258, 0.4708878993988037, 0.14651885628700256, -0.25881731510162354], [0.6094402074813843, -1.1643842458724976, -0.5491605401039124, 0.1521042287349701, 0.1750682145357132, -0.018613386899232864, -0.19931824505329132, 0.1399368941783905, 0.08607342839241028, -0.10845161974430084, -0.3811497688293457, 0.36480003595352173, 0.08060082793235779, 0.01781831867992878, -0.7805781960487366, -0.1894725114107132, -0.1059788316488266], [-0.14503486454486847, 0.3263672888278961, 0.16412495076656342, 0.07065434753894806, 0.17682711780071259, -0.24447718262672424, 0.2530938684940338, 0.22342003881931305, -0.03641345351934433, -0.19899502396583557, 0.02155471220612526, -0.3697624206542969, 0.0045635029673576355, -0.06349126249551773, 0.49723339080810547, 0.10910534113645554, 0.135223850607872], [0.6289978623390198, -0.9690183401107788, -0.44010263681411743, 0.08570589870214462, -0.022180337458848953, 0.3808378279209137, -0.48330846428871155, 0.09320633858442307, 0.006660663057118654, 0.3246952295303345, -0.3304656147956848, 0.7003126740455627, -0.07212258130311966, 0.19767506420612335, -0.8505842089653015, -0.21662403643131256, -0.09152959287166595], [0.6108698844909668, -1.0139901638031006, -0.6408277750015259, 0.29308009147644043, -0.18159270286560059, -0.009561631828546524, -0.17484620213508606, -0.14674925804138184, -0.02653631754219532, 0.015663819387555122, -0.5555841326713562, 0.4743926525115967, 0.1135871633887291, 0.2161276787519455, -0.6956073045730591, -0.25593599677085876, 0.3016825020313263], [0.1640436351299286, -0.11685527861118317, -0.2554050087928772, 0.10738488286733627, -0.2616691291332245, 0.07331055402755737, 0.07650168985128403, 0.14970417320728302, -0.04702508822083473, -0.22470659017562866, 0.033241841942071915, -0.01900450885295868, -0.28187990188598633, -0.051675014197826385, -0.2400258481502533, -0.1950865238904953, -0.07475513219833374], [-0.05119166895747185, 0.19742265343666077, 0.1893415004014969, -0.1517108678817749, -0.13146191835403442, -0.19536463916301727, 0.015861015766859055, 0.030534718185663223, 0.1872081756591797, 0.23121266067028046, 0.08545263856649399, -0.1905859410762787, 0.163118377327919, 0.14242953062057495, 0.40835487842559814, -0.011619309894740582, 0.1116265058517456], [-0.23305924236774445, 0.5752717852592468, 0.353887140750885, -0.22891460359096527, 0.16646836698055267, -0.309320867061615, 0.37700796127319336, -0.0010342375608161092, 0.11330925673246384, -0.06022074073553085, 0.25030505657196045, -0.2690228521823883, 0.1014472246170044, -0.12631435692310333, 0.41615772247314453, 0.13145358860492706, 0.11182555556297302], [-0.16567277908325195, 0.44751277565956116, 0.24145470559597015, 0.030210087075829506, -0.03274485841393471, -0.26954594254493713, 0.3540162742137909, -0.13657668232917786, 0.2843625247478485, -0.24241895973682404, 0.425605833530426, 0.02553977072238922, 0.2520827054977417, 0.1915108561515808, 0.16473862528800964, -0.09615965187549591, 0.18360000848770142], [0.5240049362182617, -1.0412936210632324, -0.407973051071167, 0.43494728207588196, -0.12312588840723038, 0.018661588430404663, -0.38616201281547546, -0.24381722509860992, -0.09554065018892288, 0.14274390041828156, -0.08442696928977966, 0.6287285089492798, -0.013772252947092056, 0.08727223426103592, -0.6485409140586853, -0.2391480952501297, -0.02245699241757393], [-0.43126142024993896, 0.5517190098762512, 0.4038938879966736, 0.016414383426308632, 0.1821407675743103, -0.15779991447925568, 0.26866328716278076, -0.005843848455697298, 0.006198243238031864, 0.047538019716739655, 0.25339290499687195, -0.20999854803085327, 0.1822095811367035, 0.24321845173835754, 0.5307793617248535, 0.12924490869045258, -0.24739132821559906], [0.5160781741142273, -1.04426908493042, -0.2581457197666168, 0.06338783353567123, 0.04401963949203491, -0.0557691864669323, -0.4684355854988098, -0.09068077802658081, 0.04183731973171234, -0.08035009354352951, -0.15455445647239685, 0.5835381150245667, -0.09152917563915253, -0.1946593075990677, -0.5202356576919556, -0.2789320945739746, 0.09483201056718826], [0.4002619683742523, -0.5890734791755676, -0.1728099286556244, -0.04182405769824982, -0.23731908202171326, -0.17465822398662567, -0.27977800369262695, -0.12371957302093506, -0.016648778691887856, -0.15962201356887817, 0.015312766656279564, 0.24768397212028503, -0.07300201058387756, -0.06414211541414261, -0.5229665040969849, -0.059704624116420746, 0.10274796187877655], [-0.38131415843963623, 0.5049207806587219, 0.4830836355686188, -0.23846296966075897, -0.0918680727481842, -0.17059893906116486, 0.09364619106054306, -0.0007418799796141684, 0.122979074716568, -0.1465252935886383, 0.34346938133239746, -0.024808622896671295, 0.04375121742486954, -0.14454692602157593, 0.5153059959411621, -0.06802642345428467, 0.06332822889089584], [-0.5532121658325195, 0.8194314241409302, 0.41360610723495483, -0.3028309643268585, 0.12873394787311554, -0.15444223582744598, 0.34629157185554504, 0.1444045454263687, -0.1862981617450714, -0.2537415027618408, 0.3182598948478699, -0.19672565162181854, 0.1615692675113678, -0.19754451513290405, 0.3066181540489197, 0.29963308572769165, 0.06119317188858986], [-0.15854376554489136, 0.48240724205970764, -0.029092928394675255, -0.07470156252384186, -0.008026286959648132, -0.015554284676909447, 0.24588894844055176, 0.10234384983778, -0.05291840434074402, 0.15596163272857666, 0.2625456750392914, -0.07033229619264603, 0.2900658845901489, 0.010227824561297894, 0.3179799020290375, 0.049314092844724655, -0.08045600354671478], [0.2565402686595917, -0.481486052274704, -0.42054283618927, 0.22939449548721313, 0.03899766504764557, 0.011167340911924839, -0.11956681311130524, -0.18352164328098297, 0.10219286382198334, -0.012395258992910385, -0.20800073444843292, 0.47093385457992554, -0.04361874237656593, -0.11302686482667923, -0.4120273292064667, -0.2812231779098511, -0.015972616150975227], [0.5182940363883972, -0.6283215880393982, -0.25010764598846436, 0.11902372539043427, -0.20802676677703857, 0.06527144461870193, -0.23524828255176544, 0.17259731888771057, -0.022125914692878723, -0.017372947186231613, -0.398196280002594, 0.3914383351802826, 0.10158605128526688, 0.17648223042488098, -0.8802535533905029, -0.34159791469573975, 0.046992842108011246], [0.16152521967887878, 0.0578162856400013, -0.01813628152012825, -0.12119252234697342, 0.06356564909219742, -0.10262524336576462, 0.12455277144908905, 0.03138934075832367, 0.17192761600017548, 0.07004579901695251, 0.18527083098888397, 0.16769029200077057, -0.12842752039432526, 0.01086227037012577, 0.18608662486076355, 0.20593000948429108, 0.11352278292179108], [-0.7009789347648621, 0.645628809928894, 0.3749729096889496, -0.07163002341985703, -0.08752613514661789, -0.20628827810287476, 0.034870970994234085, 0.18939368426799774, 0.08402794599533081, -0.033213406801223755, 0.3013319969177246, -0.527345597743988, 0.07018981873989105, 0.24347881972789764, 0.6721704006195068, 0.20627079904079437, 0.10202706605195999], [0.04617087543010712, 0.4866027235984802, 0.3913768529891968, 0.0378325991332531, -0.13823196291923523, 0.0266217440366745, 0.05156911537051201, 0.02797452174127102, -0.016348816454410553, 0.10238293558359146, 0.292315274477005, -0.17281612753868103, 0.05556371808052063, -0.054595883935689926, 0.13000783324241638, 0.3383393883705139, -0.15987324714660645], [0.3220176696777344, -0.23781394958496094, -0.24213777482509613, 0.2456202208995819, -0.019156549125909805, -0.008702369406819344, -0.2185223400592804, -0.20522189140319824, 0.014688068069517612, -0.16129256784915924, -0.4356645345687866, -0.05099111422896385, -0.050622355192899704, -0.19980256259441376, -0.35383450984954834, 0.021036744117736816, 0.23630917072296143], [-0.21061912178993225, -0.05588531866669655, 0.041995689272880554, -0.007584256585687399, -0.03511262685060501, 0.11110606044530869, 0.33252474665641785, 0.14388979971408844, 0.297630250453949, 0.04704821854829788, -0.08902979642152786, 0.005478018894791603, -0.06268967688083649, 0.11016898602247238, 0.36410942673683167, 0.2982012629508972, -0.06500671803951263], [1.5064353942871094, -1.657280683517456, -0.8648874759674072, 0.16288384795188904, 0.1009296253323555, 0.4277796149253845, -0.6438823938369751, 0.02747870795428753, -0.07869986444711685, 0.32420581579208374, -0.34521180391311646, 1.2580149173736572, 0.015569551847875118, 0.16818037629127502, -1.4693018198013306, -0.023774854838848114, 0.2938793897628784], [-0.3147980868816376, 0.5423822402954102, 0.023266278207302094, -0.1537443846464157, 0.15975448489189148, -0.16814984381198883, 0.22485831379890442, -0.17096391320228577, 0.08495816588401794, 0.22005552053451538, 0.0387469083070755, -0.14983470737934113, 0.3259097933769226, 0.24198195338249207, 0.23553434014320374, 0.2639690339565277, 0.09537066519260406], [1.0738273859024048, -1.4712835550308228, -0.6498519778251648, 0.4612266719341278, 0.19744756817817688, 0.1052025705575943, -0.36718401312828064, 0.07551281154155731, -0.0974372923374176, 0.23930686712265015, -0.5594891905784607, 0.6598024368286133, 0.028795868158340454, -0.04703034088015556, -0.9899677038192749, -0.039495039731264114, 0.11074626445770264], [0.5409975647926331, -0.7043321132659912, -0.6339049339294434, 0.04159872978925705, 0.12465421855449677, -0.10328526049852371, -0.24531368911266327, -0.1339428573846817, -0.26503807306289673, 0.190157949924469, -0.28157082200050354, 0.6514274477958679, 0.07620015740394592, -0.25315260887145996, -0.5725289583206177, -0.3115982711315155, 0.026998011395335197], [0.9145004153251648, -1.0700016021728516, -0.18716442584991455, 0.25070568919181824, 0.11509746313095093, -0.053879264742136, -0.3203883171081543, -0.005983130540698767, -0.12648016214370728, 0.2939690351486206, -0.47296541929244995, 0.6972548365592957, 0.14919058978557587, -0.010350006632506847, -0.9880580902099609, -0.12431295216083527, 0.030693260952830315], [-0.08303175121545792, -0.1372549682855606, 0.12002675235271454, -0.10605112463235855, -0.135772705078125, 0.008167458698153496, -0.07143256813287735, -0.08555111289024353, 0.11940284818410873, -0.08492175489664078, -0.014632127247750759, 0.109565369784832, -0.039362888783216476, 0.15923742949962616, 0.2309827208518982, -0.0737987607717514, -0.2215612828731537], [-0.20447050034999847, -0.16048935055732727, 0.20397557318210602, 0.15597420930862427, 0.2428261786699295, 0.15109054744243622, 0.05384444817900658, 0.04390750080347061, -0.16291898488998413, 0.20202620327472687, 0.1935572326183319, 0.0900299921631813, 0.03379546478390694, -0.1472087949514389, -0.03221367299556732, -0.008107260800898075, 0.008847924880683422], [-0.518546462059021, 0.5433759689331055, 0.35693761706352234, 0.08321410417556763, 0.22574160993099213, 0.09968385845422745, 0.32293668389320374, 0.24583496153354645, 0.1893138587474823, -0.07549097388982773, 0.08438980579376221, -0.07304390519857407, 0.29416829347610474, -0.042869944125413895, 0.2870842218399048, 0.23575150966644287, 0.07576256990432739], [0.3805987536907196, -0.7061700224876404, -0.22694267332553864, 0.24266262352466583, -0.26918846368789673, 0.12041545659303665, -0.2724624574184418, -0.21536557376384735, 0.10425359010696411, 0.017438407987356186, -0.28140684962272644, 0.45001310110092163, -0.06788183748722076, -0.024092482402920723, -0.6894382834434509, 0.014895258471369743, 0.18609964847564697], [0.15340961515903473, -0.3587877154350281, -0.23961567878723145, -0.10290982574224472, 0.08802992105484009, -0.07322846353054047, -0.15847088396549225, -0.09302524477243423, -0.27790525555610657, -0.1306210160255432, 0.04315376281738281, 0.2505752146244049, -0.12145434319972992, -0.14200706779956818, -0.21904529631137848, -0.33441072702407837, -0.07444557547569275], [0.8739771246910095, -1.11298406124115, -0.33672887086868286, 0.14194943010807037, -0.06202799081802368, -0.0030932012014091015, -0.44691002368927, 0.019841212779283524, 0.12838107347488403, -0.12325382977724075, -0.6036104559898376, 0.7087846994400024, 0.2352525144815445, 0.001021658186800778, -0.7753058671951294, -0.2745542526245117, 0.29332277178764343]], "fc1.bias": [1.0427048206329346, -0.010995142161846161, 0.17565113306045532, -0.3212880492210388, 0.03731584548950195, 0.07798811793327332, -0.34184616804122925, -0.09003281593322754, 0.255651593208313, 0.04695339500904083, 0.22976887226104736, 0.22859807312488556, 0.17729078233242035, 0.017612088471651077, 0.07316066324710846, 0.28929486870765686, 1.0019948482513428, 0.2377527505159378, -0.42336305975914, -0.15254811942577362, 0.26464906334877014, -0.6902778148651123, 0.32940390706062317, -0.30520185828208923, 0.9512096643447876, 1.163689136505127, 0.03265492990612984, -0.1613207459449768, 0.008433187380433083, -0.8102525472640991, 0.7740474939346313, -0.17592976987361908, -1.073186993598938, -0.22736716270446777, -0.13887692987918854, -0.0043367985635995865, 0.8927740454673767, 0.2806500792503357, 1.2343202829360962, -0.06152086704969406, 0.05981798842549324, 0.18205837905406952, -0.4285319149494171, 0.9184184074401855, -0.5206494331359863, -0.0681527853012085, 0.6670079231262207, 0.5214309692382812, -0.14541621506214142, 0.04100487753748894, -0.7308962345123291, 0.3189183175563812, -0.6129764914512634, -0.2799082100391388, 0.9777336716651917, -0.6369887590408325, -0.006925259716808796, 0.17482522130012512, 0.19674980640411377, 0.32848039269447327, 0.6689460873603821, -0.04990347847342491, 0.7438986301422119, 0.9359550476074219, 0.19289632141590118, -0.07689446955919266, -0.1685483157634735, 0.6922383308410645, 0.061945486813783646, 0.9928324818611145, 1.0480802059173584, 0.1568802446126938, -0.1666872799396515, -0.42726364731788635, -0.028986193239688873, 0.7650375962257385, -0.45434924960136414, 0.5555846691131592, 0.17585721611976624, -0.08292917907238007, -0.33961355686187744, -0.058369383215904236, 0.010468000546097755, 0.7300494909286499, 0.054990168660879135, -0.2672739028930664, -0.03668120875954628, 0.2057723104953766, 0.184653639793396, 1.4668580293655396, -0.2729724943637848, 1.1054340600967407, 0.7377497553825378, 0.6244288086891174, 0.2419642210006714, 0.00711301201954484, -0.3827464282512665, 0.4224841594696045, -0.045757271349430084, 0.7987067699432373], "fc2.weight": [[-2.5908942222595215, -0.07618647813796997, -0.988543689250946, 1.626384973526001, 0.7101355195045471, -0.8783693313598633, 1.4117122888565063, 1.0636779069900513, -1.2568416595458984, 0.9562822580337524, -0.8409048318862915, -1.244248390197754, -1.08269202709198, -0.9762927889823914, -0.7384496927261353, -1.4769248962402344, -2.5356569290161133, -0.1919088214635849, 1.5085630416870117, 1.1780906915664673, -0.7821812033653259, 1.7893904447555542, -1.0500768423080444, 1.0539424419403076, -2.232445240020752, -2.8527944087982178, 0.25689297914505005, -0.4311707615852356, 0.2620777189731598, 2.117727041244507, -2.5408761501312256, 0.9960448741912842, 2.664703607559204, 0.7173777222633362, 0.3900638520717621, -0.8059781193733215, -2.1142525672912598, -1.3174680471420288, -2.9589133262634277, 0.26246845722198486, 0.892008900642395, 0.4147733151912689, 1.1762927770614624, -2.012958526611328, 1.71211838722229, 1.0656558275222778, -2.2144198417663574, -2.0122323036193848, -0.34344324469566345, 0.40172088146209717, 1.9074760675430298, -1.4645099639892578, 1.5669960975646973, 1.238491177558899, -2.0413694381713867, 1.668877363204956, -0.39255744218826294, -0.46408993005752563, 0.3370635211467743, -1.4891289472579956, -1.832157850265503, 0.281352162361145, -1.9148885011672974, -2.798891544342041, -0.8678643703460693, 0.11327468603849411, 1.1181771755218506, -2.1300346851348877, 0.8105623722076416, -2.3724751472473145, -2.307499885559082, -0.4183599352836609, 0.5167533755302429, 1.4043174982070923, 0.9117234945297241, -2.131988048553467, 1.4151016473770142, -1.8534213304519653, -0.9940112233161926, 1.0691306591033936, 1.5815542936325073, 0.686811089515686, -1.1370751857757568, -1.8178908824920654, 0.2476152926683426, 1.5954787731170654, 0.6879149675369263, -0.7023612260818481, 0.4127858281135559, -3.7056665420532227, 0.7639376521110535, -2.9268670082092285, -1.799509048461914, -2.3132593631744385, 0.037704359740018845, 0.0818580612540245, 1.1783132553100586, -1.5590585470199585, -0.685120165348053, -2.338104248046875]], "fc2.bias": [-0.33117151260375977]}