{"fc1.weight": [[-0.2174830585718155, 0.2870052754878998, -0.1088704764842987, -0.047369133681058884, 0.04248335584998131, 0.028087295591831207, 0.010889498516917229, 0.013188214972615242, -0.19293911755084991, 0.17526301741600037, -0.131265789270401, -0.02354472316801548, 0.08454526215791702, -0.15033414959907532, 0.3658965229988098, -0.01603717729449272, -0.2354976236820221], [-0.15299727022647858, -0.05582214891910553, 0.2205006331205368, 0.18692877888679504, 0.04477382078766823, 0.041486479341983795, -0.01961095817387104, -0.19819185137748718, 0.20920801162719727, -0.07953031361103058, -0.08395283669233322, 0.1250978261232376, -0.053722966462373734, -0.12659716606140137, 0.16517417132854462, 0.047144219279289246, -0.16159920394420624], [0.0635669082403183, 0.14094620943069458, 0.03595462813973427, 0.1403646022081375, -0.1997511386871338, 0.18679913878440857, 0.02072809264063835, -0.002382823498919606, -0.19899463653564453, -0.09759292751550674, 0.13470573723316193, -0.21948397159576416, 0.003174852579832077, 0.1502484828233719, -0.192045196890831, -0.17817449569702148, -0.06754997372627258], [0.192851260304451, -0.005440870765596628, -0.2767428755760193, -0.021832142025232315, 0.03457002341747284, -0.0401553139090538, -0.21672451496124268, -0.10982463508844376, 0.07059194892644882, -0.11529210954904556, 0.18993160128593445, -0.16768915951251984, -0.07164957374334335, 0.12276705354452133, 0.18356522917747498, -0.04088808596134186, -0.235786572098732], [0.216335728764534, -0.08900429308414459, -0.03478095680475235, 0.21558263897895813, -0.009207387454807758, -0.20271828770637512, -0.1565331071615219, 0.14280398190021515, -0.06405861675739288, -0.09159263223409653, 0.08258288353681564, -0.23650498688220978, -0.053519636392593384, -0.012402825988829136, -0.16372986137866974, -0.06401661038398743, -0.030231140553951263], [0.1435748040676117, 0.1820424199104309, -0.11627012491226196, 0.09785615652799606, -0.22294600307941437, 0.051094476133584976, -0.09162137657403946, -0.1016593798995018, 0.0020417177584022284, 0.17265261709690094, -0.03643609955906868, -0.17792195081710815, 0.19629579782485962, -0.21919547021389008, -0.21844437718391418, 0.009755528531968594, 0.1337210088968277], [-0.22790488600730896, -0.0873403549194336, 0.13981939852237701, -0.003755242098122835, -0.07430263608694077, -0.157656729221344, 0.1340978741645813, 0.028230568394064903, -0.08951737731695175, 0.05577533319592476, -0.08871002495288849, -0.10926588624715805, -0.11240864545106888, -0.029888873919844627, 0.04519454389810562, -0.20880115032196045, 0.13295583426952362], [0.20823463797569275, -0.23065443336963654, 0.009268711321055889, 0.209031879901886, -0.07600480318069458, 0.20345281064510345, -0.06591564416885376, 0.14145466685295105, 0.019370825961232185, 0.22500929236412048, 0.10909486562013626, 0.2402735948562622, -0.16571418941020966, 0.23601162433624268, 0.23948943614959717, 0.03445103392004967, -0.15612119436264038], [0.09179412573575974, -0.1765732616186142, 0.12639965116977692, 0.023100731894373894, 0.23754186928272247, -0.2008354663848877, -0.2251104712486267, 0.2484058290719986, 0.08362076431512833, 0.16682380437850952, -0.11990426480770111, 0.2205577939748764, 0.13265077769756317, 0.17737533152103424, -0.23784326016902924, 0.0206438098102808, -0.12884505093097687], [0.22561688721179962, -0.060070719569921494, 0.04586302861571312, 0.1890150010585785, 0.06116751581430435, -0.20840267837047577, 0.2196064442396164, -0.14734257757663727, -0.015235701575875282, 0.0441284254193306, -0.22974851727485657, -0.155762180685997, 0.23871801793575287, 0.2232167273759842, -0.03748013824224472, -0.19327107071876526, 0.1916416734457016], [0.1753966361284256, 0.07860985398292542, 0.02411699667572975, 0.20686736702919006, -0.19755756855010986, -0.17698076367378235, 0.04448132589459419, -0.19482117891311646, -0.03677034750580788, -0.19299256801605225, -0.011932256631553173, -0.21874961256980896, 0.05321794003248215, -0.21989810466766357, 0.12943647801876068, 0.013300126418471336, 0.08466825634241104], [-0.03871661052107811, 0.04181152209639549, 0.19004705548286438, -0.1971917450428009, -0.11903917789459229, 0.010716504417359829, 0.19196656346321106, -0.1304817646741867, -0.2150115817785263, 0.055287811905145645, 0.214377760887146, 0.1122199073433876, -0.11154364049434662, -0.02383234165608883, 0.2052430361509323, 0.1981232762336731, -0.060147974640131], [0.1897955685853958, 0.10095605999231339, 0.12617863714694977, 0.008318298496305943, 0.1638166457414627, 0.09748629480600357, 0.21551857888698578, 0.21179373562335968, -0.029132453724741936, 0.22001715004444122, -0.21099701523780823, 0.21109400689601898, -0.21662618219852448, 0.019108068197965622, 0.0876365676522255, -0.14736992120742798, -0.04200572520494461], [-0.12569290399551392, -0.11958900839090347, -0.13364940881729126, 0.15242189168930054, -0.179206982254982, -0.19047048687934875, 0.04956281930208206, 0.13333699107170105, 0.0280140433460474, 0.1622270792722702, -0.18372850120067596, -0.10503997653722763, -0.1633559614419937, 0.21308603882789612, -0.22640927135944366, 0.19314035773277283, -0.2401648312807083], [0.2258884161710739, -0.02524121105670929, -0.17083564400672913, -0.18453267216682434, -0.012054904364049435, -0.1400480717420578, -0.04355800896883011, -0.21475163102149963, -0.22382321953773499, -0.0896822139620781, 0.21644487977027893, 0.17016272246837616, 0.21407729387283325, -0.013885687105357647, 0.2204437404870987, 0.1750824898481369, 0.03222242370247841], [-0.1858654022216797, -0.051812514662742615, 0.24226832389831543, 0.19045571982860565, 0.07148908823728561, 0.09344375133514404, 0.19914938509464264, 0.19113652408123016, -0.20537903904914856, 0.20549069344997406, 0.21450653672218323, -0.09058383107185364, -0.22047965228557587, 0.022696195170283318, -0.13177114725112915, 0.1251884400844574, -0.18218101561069489], [-0.23637346923351288, -0.1709585338830948, -0.23869086802005768, 0.10993000864982605, 0.13117291033267975, -0.07282931357622147, -0.11343663185834885, 0.071044921875, 0.1611393392086029, -0.22206786274909973, 0.025362709537148476, -0.162002831697464, -0.1987336426973343, -0.16639989614486694, -0.02533235028386116, -0.09035366773605347, -0.012755703181028366], [-0.0005621746531687677, -0.11626166850328445, -0.07579897344112396, -0.09642749279737473, 0.009207243099808693, 0.2287212610244751, -0.11971653997898102, -0.16082118451595306, -0.1762695014476776, -0.19506467878818512, 0.02952287159860134, 0.23114395141601562, -0.1781873255968094, 0.1746038794517517, -0.052909526973962784, -0.2198292464017868, -0.20852361619472504], [-0.036312032490968704, 0.2335975468158722, 0.0011702728224918246, -0.12492366880178452, 0.010739174671471119, -0.05620875582098961, -0.11048854887485504, 0.06157465651631355, 0.2161162942647934, -0.016590245068073273, 0.15618456900119781, -0.16071690618991852, -0.11075234413146973, -0.2165890783071518, -0.17833469808101654, 0.1490882784128189, -0.057390354573726654], [0.13386397063732147, -0.16052120923995972, 0.06298711895942688, -0.0024283607490360737, 0.05286974087357521, 0.06574878841638565, 0.15750135481357574, 0.23489077389240265, -0.07633810490369797, 0.01292434986680746, -0.05284097418189049, -0.21756456792354584, 0.2275892198085785, 0.12897582352161407, 0.11229544878005981, -0.07238385826349258, -0.17420722544193268], [-0.05552778020501137, -0.2315795123577118, -0.042256586253643036, 0.13948658108711243, -0.04777531698346138, 0.21664100885391235, 0.12725841999053955, 0.17465011775493622, -0.06012692302465439, -0.010021882131695747, -0.08991209417581558, -0.19558921456336975, 0.07782203704118729, -0.09257207065820694, -0.019818615168333054, -0.004370436538010836, -0.18896564841270447], [0.05499255657196045, -0.23172110319137573, -0.012804362922906876, -0.1539440006017685, -0.027749232947826385, -0.15359733998775482, 0.12222576886415482, -0.05740998685359955, -0.0754166916012764, 0.21016475558280945, -0.21922847628593445, -0.21194753050804138, 0.1506289690732956, 0.03603113070130348, 0.014326403848826885, -0.1541595607995987, -0.20756687223911285], [0.23107756674289703, -0.2635534405708313, 0.052723538130521774, 0.17311280965805054, 0.16546085476875305, -0.03903621435165405, -0.09827972203493118, 0.2923470735549927, 0.02149658463895321, 0.022886043414473534, -0.04814372584223747, -0.028981449082493782, -0.24681831896305084, -0.024638475850224495, 0.18273626267910004, -0.15423119068145752, 0.21680313348770142], [-0.18994496762752533, 0.015770593658089638, 0.24025999009609222, -0.18262311816215515, -0.21447141468524933, -0.10788066685199738, 0.04038669541478157, 0.16960233449935913, 0.1423577517271042, 0.06112536042928696, -0.01790051907300949, -0.06437379866838455, 0.12630316615104675, 0.022059474140405655, -0.2034502625465393, -0.21427078545093536, 0.18748605251312256], [0.06392084807157516, 0.030036097392439842, 0.014368384145200253, 0.10555742681026459, -0.23049715161323547, 0.02348995953798294, -0.16267123818397522, -0.20863912999629974, -0.0999331921339035, 0.1945684850215912, 0.15303900837898254, -0.04333162680268288, -0.19701282680034637, 0.1503368765115738, 0.18767380714416504, -0.13874147832393646, -0.15009565651416779], [0.048230789601802826, 0.19490236043930054, -0.18845227360725403, 0.022740114480257034, -0.02124744839966297, -0.010395980440080166, -0.09050742536783218, -0.16993404924869537, -0.20042774081230164, -0.14317715167999268, -0.17386280000209808, -0.22951403260231018, -0.042440108954906464, 0.05558080971240997, -0.2297455072402954, 0.2409287840127945, 0.14673292636871338], [-0.15632568299770355, -0.15689808130264282, -0.16694055497646332, 0.002183315809816122, 0.08371251821517944, 0.09868700057268143, -0.012388494797050953, 0.09011799097061157, -0.04467194899916649, 0.2218497395515442, 0.10489124059677124, 0.04905465245246887, 0.14506515860557556, -0.04798763617873192, 0.13961687684059143, -0.23770417273044586, 0.23070664703845978], [0.11195142567157745, 0.07636771351099014, 0.08180884271860123, 0.16409450769424438, -0.055595844984054565, -0.18048301339149475, -0.10864122956991196, -0.10072249919176102, -0.13094429671764374, -0.09574897587299347, -0.0918835774064064, -0.23204141855239868, -0.010800842195749283, -0.15473851561546326, 0.09453406929969788, -0.2143745869398117, 0.11744809150695801], [-0.05528329312801361, 0.01497193519026041, 0.19076021015644073, 0.19338247179985046, 0.2229773998260498, -0.1919974982738495, -0.10346376895904541, 0.17316702008247375, 0.027585407719016075, 0.22547127306461334, 0.2070338875055313, -0.18216724693775177, -0.187906414270401, -0.11619341373443604, -0.23406288027763367, -0.016906287521123886, 0.04845976456999779], [-0.18068423867225647, 0.08522258698940277, -0.12395407259464264, 0.0823538526892662, 0.19828753173351288, 0.032931115478277206, -0.07704662531614304, 0.12276656180620193, 0.06002015992999077, 0.16420871019363403, 0.21522276103496552, -0.16329838335514069, -0.10277588665485382, 0.12918482720851898, 0.08239250630140305, -0.0009350018808618188, -0.17489565908908844], [0.23538771271705627, -0.3516826629638672, -0.07557199150323868, 0.20385582745075226, 0.07487419247627258, -0.06877575069665909, 0.00783683080226183, -0.11287287622690201, 0.19489209353923798, 0.20776203274726868, -0.06522231549024582, -0.02606666088104248, 0.08209452778100967, -0.0004337037680670619, -0.28542205691337585, 0.05621994659304619, 0.16600638628005981], [0.03829336166381836, 0.15902036428451538, 0.01635461486876011, -0.006853187456727028, 0.06726111471652985, 0.15117180347442627, 0.009580474346876144, 0.15538015961647034, -0.1975628137588501, 0.08905413746833801, -0.23895642161369324, -0.00882993545383215, -0.23611585795879364, -0.05014843866229057, -0.12785141170024872, 0.22622168064117432, 0.16484425961971283], [0.16218914091587067, -0.04301879182457924, -0.04114702716469765, 0.1935596913099289, -0.014623132534325123, 0.2071867138147354, -0.15758830308914185, -0.09252522885799408, -0.04786331206560135, 0.16830775141716003, 0.21730607748031616, 0.04329892620444298, 0.22911444306373596, -0.08372574299573898, 0.21855990588665009, 0.213334321975708, 0.20104768872261047], [-0.21230344474315643, 0.22281315922737122, -0.16516739130020142, -0.17861942946910858, -0.03243352100253105, -0.09920962899923325, 0.05060381069779396, -0.018055683001875877, -0.08153995871543884, 0.122826486825943, -0.014644701033830643, -0.04415947571396828, -0.14852695167064667, -0.2408619374036789, -0.09656164795160294, -0.088136225938797, -0.18639244139194489], [0.059412382543087006, 0.22981105744838715, -0.025785380974411964, 0.14331109821796417, 0.13021302223205566, -0.05980845168232918, -0.05541054531931877, 0.17150631546974182, 0.017566483467817307, -0.10112765431404114, -0.2277820110321045, 0.04616990685462952, -0.0030162096954882145, 0.02703830413520336, 0.1712096780538559, 0.22348205745220184, 0.18370430171489716], [0.21496178209781647, 0.1523175686597824, -0.13656146824359894, 0.16479548811912537, 0.2325892597436905, -0.14756396412849426, -0.2002284675836563, -0.05475148931145668, -0.006823199335485697, 0.16538354754447937, -0.1727391481399536, 0.10692140460014343, 0.013914030976593494, -0.19328543543815613, 0.24227933585643768, -0.06556656956672668, 0.015490160323679447], [0.16282841563224792, -0.35560813546180725, 0.16147828102111816, 0.14250828325748444, 0.10789772868156433, -0.18960653245449066, -0.19683030247688293, -0.08424599468708038, 0.2319842129945755, -0.22412905097007751, 0.07832465320825577, -0.09745176136493683, -0.24560071527957916, 0.19356665015220642, -0.09037072211503983, -0.018385548144578934, -0.05301415175199509], [0.031714294105768204, -0.189653679728508, -0.05867436155676842, -0.2047046571969986, 0.0712997242808342, -0.08875344693660736, 0.007111838553100824, 0.049704402685165405, -0.09227453172206879, 0.01838036999106407, 0.1968912035226822, 0.15157122910022736, 0.08942285925149918, 0.23089906573295593, 0.13489432632923126, 0.06092727929353714, 0.001450193114578724], [0.08781442791223526, 0.23309901356697083, -0.1062338724732399, 0.1416195183992386, -0.02277255803346634, -0.2085229903459549, -0.05673275142908096, -0.09938187897205353, -0.023748885840177536, -0.19398346543312073, 0.1679794192314148, 0.021780092269182205, 0.07002798467874527, 0.025112101808190346, 0.2420491725206375, -0.24191954731941223, 0.13716581463813782], [-0.18359000980854034, -0.18144500255584717, -0.23838604986667633, -0.16292986273765564, -0.10670740902423859, 0.24033498764038086, -0.09384714812040329, 0.17922595143318176, 0.00536520779132843, -0.0139197101816535, 0.16919004917144775, 0.08840527385473251, 0.08063478767871857, 0.15289540588855743, -0.21240630745887756, -0.10410888493061066, 0.1928950697183609], [-0.18848451972007751, 0.23845426738262177, -0.08937353640794754, -0.09483906626701355, 0.14413635432720184, 0.22522027790546417, -0.21540838479995728, -0.17510390281677246, -0.12967640161514282, 0.1784364879131317, -0.11298879981040955, -0.08285000920295715, -0.2008439153432846, 0.15152089297771454, 0.00470027606934309, -0.09969599545001984, 0.0654212087392807], [0.11628763377666473, -0.12937620282173157, -0.07037394493818283, 0.07173621654510498, 0.08079458773136139, 0.23778922855854034, -0.23154190182685852, 0.10928982496261597, -0.14732638001441956, -0.043467167764902115, -0.008903083391487598, -0.03261890634894371, -0.007025708444416523, 0.03644169121980667, -0.00411771796643734, 0.07558591663837433, -0.23634372651576996], [-0.19938036799430847, -0.19042515754699707, -0.19684885442256927, -0.21824339032173157, 0.07218731194734573, -0.014411430805921555, -0.1708998680114746, -0.11251398921012878, -0.10096357762813568, -0.12893815338611603, -0.061507146805524826, 0.12946823239326477, 0.21889908611774445, -0.05255280062556267, 0.15403640270233154, 0.21560102701187134, 0.09486309438943863], [-0.1517801284790039, 0.05724944546818733, -0.009062393568456173, -0.18206463754177094, 0.19933733344078064, -0.22337430715560913, -0.14181752502918243, -0.0630105659365654, 0.18295001983642578, 0.07822166383266449, -0.1319393813610077, -0.04555022343993187, -0.08752141147851944, 0.010298967361450195, 0.21012067794799805, 0.20117217302322388, 0.09887757152318954], [-0.164750337600708, 0.1036413237452507, 0.21081200242042542, -0.1166677251458168, 0.19902442395687103, -0.12943577766418457, 0.14071476459503174, -0.14088153839111328, -0.16866068542003632, 0.13822658360004425, 0.0884726345539093, -0.03004416450858116, 0.07114174216985703, -0.21441060304641724, 0.13999097049236298, -0.1500423550605774, 0.07979435473680496], [0.1850140243768692, -0.029459957033395767, -0.17015427350997925, 0.1878267526626587, -0.10361632704734802, 0.15927231311798096, 0.054263729602098465, -0.06281685829162598, 0.08492419123649597, -0.20488198101520538, -0.05673019587993622, 0.1800747662782669, 0.12156636267900467, -0.19179733097553253, 0.10185818374156952, 0.1124601662158966, 0.16915887594223022], [0.030526943504810333, -0.10247515141963959, 0.22161448001861572, 0.13273780047893524, 0.1425025910139084, -0.11990782618522644, 0.10550540685653687, -0.012924609705805779, 0.060839906334877014, 0.05046335607767105, 0.0515853613615036, 0.13817022740840912, 0.11566546559333801, -0.06166605278849602, 0.21121060848236084, 0.19282236695289612, -0.08210652321577072], [-0.20053870975971222, 0.004718057345598936, 0.01718943566083908, 0.036677442491054535, 0.11864405870437622, 0.241668239235878, 0.0640840083360672, -0.23883970081806183, 0.13753511011600494, -0.07742813229560852, -0.18721728026866913, -0.1894029825925827, 0.06482136249542236, -0.12792858481407166, -0.06148705631494522, -0.1667426973581314, -0.10705459862947464], [-0.2321951538324356, -0.1748397797346115, -0.006278146989643574, -0.135081946849823, -0.24107982218265533, -0.19696830213069916, 0.056136246770620346, -0.10319096595048904, 0.06948856264352798, -0.03634023666381836, 0.05015324056148529, 0.23250903189182281, 0.09517057985067368, 0.21840998530387878, -0.0023953428026288748, -0.21506325900554657, -0.22784385085105896], [-0.21948879957199097, -0.03735847771167755, -0.1353681981563568, -0.01905839703977108, -0.05642910301685333, -0.1923181116580963, -0.1294567584991455, -0.18632608652114868, 0.07063158601522446, 0.03136555105447769, 0.21626774966716766, -0.03428305312991142, -0.18688762187957764, 0.20278191566467285, -0.138228178024292, -0.011815526522696018, -0.1763336956501007], [-0.18106724321842194, -0.13016586005687714, -0.050369564443826675, 0.22713814675807953, -0.02059006504714489, -0.07767044752836227, -0.0706360712647438, 0.18089382350444794, 0.03405039384961128, -0.0964646190404892, -0.02363056130707264, 0.040364883840084076, 0.18397019803524017, -0.14924611151218414, 0.2199680507183075, 0.23679111897945404, 0.14056453108787537], [0.23071078956127167, 0.01812564954161644, 0.1138310506939888, 0.03809499368071556, 0.1341259479522705, -0.0949103981256485, 0.12261472642421722, 0.11934209614992142, 0.016677655279636383, -0.14751657843589783, 0.0521356537938118, 0.10606078803539276, -0.1056295856833458, -0.027697740122675896, 0.05106224864721298, -0.18351425230503082, 0.15158820152282715], [-0.19391894340515137, 0.08055200427770615, 0.13363756239414215, 0.05424445495009422, 0.1380804479122162, -0.1372426450252533, 0.13543841242790222, -0.1366272121667862, -0.12437617033720016, -0.19225510954856873, 0.04037046432495117, 0.04439031332731247, 0.15246309340000153, 0.08216368407011032, -0.049802716821432114, 0.042561497539281845, -0.1614975482225418], [0.20151329040527344, -0.1974419206380844, 0.014376595616340637, 0.1640544980764389, -0.1984267383813858, 0.03481753170490265, -0.16006647050380707, -0.023153100162744522, -0.23244215548038483, 0.037793610244989395, 0.029855335131287575, -0.14140291512012482, -0.12468159943819046, 0.06140763312578201, 0.08550484478473663, -0.15433599054813385, 0.13875116407871246], [0.02842404507100582, -0.2345840334892273, 0.09672494977712631, -0.006334626115858555, -0.2119397670030594, -0.06861283630132675, 0.1798521876335144, -0.1768387258052826, -0.04802872613072395, 0.18591143190860748, -0.07760494947433472, -0.21705926954746246, -0.007344914134591818, -0.16165249049663544, 0.1213039755821228, 0.19811983406543732, 0.2254192978143692], [0.1818660944700241, -0.2548429071903229, -0.18496249616146088, -0.07232362031936646, 0.09816520661115646, -0.23374508321285248, -0.06920909136533737, 0.014312436804175377, 0.029458697885274887, 0.09924684464931488, 0.18918141722679138, 0.09814587980508804, -0.14430509507656097, -0.05852580443024635, 0.03720526397228241, 0.09221935272216797, -0.15488916635513306], [0.1768801361322403, -0.21384675800800323, -0.0071129086427390575, 0.06297246366739273, -0.18158206343650818, -0.07923117280006409, -0.09206569194793701, 0.10648562759160995, -0.012706696055829525, 0.11878188699483871, -0.20087070763111115, -0.10317763686180115, 0.034480150789022446, 0.02632242999970913, -0.2335043102502823, 0.007019810378551483, -0.03745810687541962], [0.16897740960121155, -0.10715031623840332, 0.10772036015987396, 0.013509525917470455, 0.02186048962175846, -0.07041418552398682, 0.19466757774353027, 0.028481531888246536, 0.06295434385538101, -0.23018448054790497, 0.16981256008148193, -0.08938955515623093, -0.1950990855693817, -0.24310852587223053, 0.16025665402412415, 0.02350778877735138, 0.03348606079816818], [0.09269023686647415, 0.20521031320095062, -0.13099172711372375, -0.04196250066161156, 0.05857030302286148, -0.023951634764671326, -0.22890600562095642, 0.04860731586813927, 0.23292310535907745, -0.20463821291923523, 0.16001173853874207, 0.11290287226438522, -0.012128503993153572, -0.2314387708902359, 0.1446729451417923, 0.07217470556497574, 0.18390217423439026], [0.12228978425264359, 0.24045051634311676, -0.18495412170886993, -0.12844198942184448, -0.01930798962712288, 0.06831754744052887, 0.1583239734172821, -0.03613400459289551, 0.01621060259640217, 0.19333244860172272, 0.21275366842746735, 0.03846218064427376, 0.05711382254958153, -0.16200648248195648, -0.23452267050743103, -0.025544481351971626, 0.18826544284820557], [-0.23701417446136475, -0.21363778412342072, 0.02190578542649746, 0.1741873174905777, -0.02903234213590622, 0.21620628237724304, -0.10990267992019653, -0.2082889974117279, -0.08322783559560776, -0.08032476156949997, 0.13869504630565643, 0.22806034982204437, -0.040698274970054626, -0.07575303316116333, -0.047391172498464584, -0.10700350999832153, 0.1299714297056198], [-0.16582030057907104, 0.19062161445617676, 0.002081208396703005, -0.08479992300271988, 0.017389943823218346, 0.012244241312146187, -0.15375447273254395, 0.18457941710948944, -0.16502130031585693, 0.07960374653339386, -0.1558229625225067, -0.2338101714849472, 0.07575438916683197, -0.016334809362888336, -0.08214326947927475, -0.00014346382522489876, 0.21508227288722992], [0.33460134267807007, -0.11465805768966675, -0.15213389694690704, 0.11331257969141006, -0.0857248604297638, 0.18516018986701965, 0.16264456510543823, 0.1476219743490219, -0.18948332965373993, -0.035095445811748505, -0.010467084124684334, 0.13354624807834625, 0.024762576445937157, -0.11574359238147736, 0.059253204613924026, -0.08026302605867386, 0.1815055012702942], [-0.0756378322839737, 0.160878986120224, 0.12323048710823059, -0.125057652592659, -0.144865483045578, 0.05748429149389267, 0.17491231858730316, 0.19088153541088104, 0.21555225551128387, 0.10306461900472641, -0.15465115010738373, 0.1875702440738678, -0.20258232951164246, 0.1559416800737381, -0.1086055114865303, 0.22171859443187714, 0.1463160663843155], [-0.21829746663570404, 0.17093592882156372, -0.1441190391778946, 0.20881034433841705, -0.19659632444381714, -0.11084303259849548, 0.22993242740631104, -0.06982443481683731, -0.06161158159375191, -0.0250095147639513, -0.21245606243610382, 0.025199295952916145, -0.07611105591058731, -0.035286057740449905, -0.1144276037812233, 0.2258005440235138, 0.0721723660826683], [-0.04028419032692909, -0.08778595179319382, -0.19599823653697968, 0.09620776027441025, -0.18187697231769562, -0.015061677433550358, -0.20685315132141113, 0.22914323210716248, 0.07636918872594833, -0.15424485504627228, -0.16577094793319702, 0.04178726300597191, -0.0888502225279808, -0.1566213220357895, 0.19876979291439056, -0.1692703366279602, 0.18002167344093323], [-0.3078211843967438, -0.07996970415115356, 0.10572900623083115, -0.1404876410961151, -0.11453212797641754, -0.09282463788986206, 0.18218746781349182, 0.3324229419231415, 0.00999750941991806, 0.011465241201221943, -0.21761156618595123, 0.24077562987804413, 0.26958686113357544, 0.14552117884159088, -0.05155376344919205, 0.054920412600040436, 0.018409565091133118], [0.11129001528024673, -0.06441394984722137, -0.31626585125923157, 0.20137248933315277, 0.16469649970531464, -0.07851876318454742, -0.016915449872612953, 0.05659867823123932, 0.18095339834690094, -0.046525295823812485, -0.030666882172226906, 0.10375532507896423, 0.05826714634895325, -0.04168948531150818, -0.2362724244594574, 0.08422669023275375, 0.1039545014500618], [-0.000677333096973598, 0.1737789809703827, 0.09269754588603973, 0.23144200444221497, 0.04259562864899635, -0.023446938022971153, 0.21487483382225037, 0.23611441254615784, -0.031156744807958603, -0.20386819541454315, -0.12277764827013016, 0.10254575312137604, 0.08360624313354492, 0.04590732231736183, -0.0508955679833889, 0.19745787978172302, 0.02160894125699997], [-0.15635830163955688, -0.21152950823307037, -0.22415947914123535, -0.06419184803962708, 0.10115514695644379, -0.07553370296955109, -0.060158293694257736, 0.03389331325888634, 0.010426974855363369, 0.04975520074367523, 0.0686262995004654, 0.08989398926496506, 0.03519900143146515, 0.15992072224617004, 0.1643984615802765, -0.13596637547016144, -0.025824036449193954], [-0.061503101140260696, 0.2386751025915146, -0.164838969707489, 0.09107182919979095, -0.2073681652545929, -0.0793500617146492, -0.061674814671278, 0.1429821103811264, 0.022595465183258057, 0.1675131469964981, -0.15931451320648193, 0.10091948509216309, -0.12815557420253754, -0.11821930855512619, -0.05752158910036087, -0.056667082011699677, -0.21532025933265686], [0.22861486673355103, 0.019715607166290283, -0.07484801113605499, 0.20868830382823944, 0.036188531666994095, 0.041964150965213776, 0.04989935830235481, 0.20985561609268188, -0.2364266961812973, -0.17441052198410034, -0.1764364391565323, 0.07791059464216232, 0.20615254342556, -0.004486699588596821, 0.18677687644958496, -0.035686928778886795, -0.04756395146250725], [0.1482894867658615, -0.2101307511329651, 0.07247059792280197, 0.06747237592935562, -0.12571074068546295, -0.10814491659402847, 0.1729630082845688, -0.0069892494939267635, -0.08858899772167206, 0.16131266951560974, -0.019146868959069252, 0.23231597244739532, -0.16446727514266968, -0.13116863369941711, 0.0852154865860939, 0.20202654600143433, 0.03633474186062813], [0.12757842242717743, 0.15855672955513, 0.21034054458141327, -0.20181146264076233, 0.1842634677886963, 0.13818717002868652, 0.15643876791000366, 0.13720382750034332, 0.08109117299318314, 0.2178071290254593, 0.06947887688875198, 0.18435682356357574, -0.06345652043819427, -0.10250356793403625, -0.07018879055976868, -0.16359739005565643, -0.14502665400505066], [-0.04079582542181015, -0.0030819277744740248, -0.008414548821747303, 0.16425254940986633, 0.21253938972949982, 0.1330254226922989, 0.20357154309749603, 0.1929023414850235, 0.045578908175230026, 0.22495965659618378, 0.09109024703502655, 0.1431993544101715, 0.13502177596092224, -0.011109136044979095, 0.14343436062335968, 0.0699467658996582, -0.10789236426353455], [-0.085785411298275, -0.17393752932548523, 0.05195833370089531, -0.09559495747089386, 0.1556123048067093, -0.18597137928009033, -0.16322565078735352, -0.0435657873749733, 0.15924637019634247, 0.013511447235941887, -0.1775088608264923, 0.1311141401529312, -0.027397166937589645, -0.23956087231636047, -0.048419415950775146, -0.2065272182226181, 0.17582572996616364], [-0.15057139098644257, -0.0002941561979241669, -0.08356088399887085, -0.10562242567539215, 0.13444851338863373, -0.046682827174663544, -0.0342307947576046, -0.00814022682607174, 0.21366825699806213, -0.17170782387256622, 0.18855921924114227, 0.14034630358219147, 0.05446683615446091, -0.15571628510951996, 0.22670039534568787, -0.1763991415500641, -0.11377627402544022], [0.05206269025802612, 0.05858301371335983, 0.20532988011837006, -0.06477724015712738, -0.18410368263721466, 0.1991797238588333, -0.05320601165294647, 0.18233907222747803, -0.2580932378768921, -0.06509524583816528, 0.0928901880979538, -0.10030310600996017, 0.08430952578783035, -0.21821817755699158, 0.18550431728363037, -0.12157443165779114, -0.1588127613067627], [0.02699335291981697, -0.08266058564186096, 0.23235830664634705, 0.09685683250427246, -0.19792817533016205, 0.06018171086907387, 0.08489062637090683, -0.23608523607254028, 0.11583127081394196, 0.04002239182591438, -0.20621196925640106, 0.16036033630371094, 0.18547898530960083, -0.22495359182357788, -0.24146929383277893, 0.09732480347156525, 0.2302016168832779], [-0.0739845484495163, -0.022737925872206688, -0.06786689162254333, 0.2140464037656784, -0.16190283000469208, -0.20256195962429047, -0.030186984688043594, 0.15845052897930145, 0.029545210301876068, 0.20107699930667877, 0.16447393596172333, -0.17257516086101532, -0.03437718003988266, -0.07606896013021469, 0.19915713369846344, -0.08585568517446518, 0.10512740164995193], [0.07410218566656113, -0.20476670563220978, -0.13779816031455994, -0.07384032756090164, -0.19031964242458344, 0.17116601765155792, -0.13474054634571075, 0.21643391251564026, 0.07553916424512863, 0.05331765487790108, -0.1943625658750534, -0.17300401628017426, 0.18920640647411346, 0.08377350121736526, -0.17052826285362244, 0.0742795318365097, 0.08974193781614304], [-0.09195172041654587, 0.18605470657348633, -0.23661020398139954, -0.0680599957704544, -0.10401294380426407, -0.0015178773319348693, -0.0022866607178002596, -0.2151314616203308, 0.1873888522386551, 0.07765550166368484, -0.09397120028734207, -0.08709077537059784, -0.018654171377420425, -0.2147565484046936, -0.11043684184551239, -0.16180557012557983, -0.1470990777015686], [-0.05958079546689987, 0.120755136013031, -0.05330189689993858, -0.1855877935886383, -0.18330435454845428, -0.038547269999980927, -0.19011177122592926, 0.08313746005296707, -0.05484296381473541, 0.17668980360031128, -0.0643000677227974, -0.04259311407804489, 0.001512326067313552, 0.034563157707452774, 0.03993530198931694, -0.0916471853852272, 0.19590245187282562], [-0.07194910198450089, 0.09080345928668976, 0.012832465581595898, -0.1705310046672821, -0.21914257109165192, -0.23751993477344513, 0.010248295962810516, 0.022980954498052597, -0.10960893332958221, -0.12245140224695206, -0.23358766734600067, -0.08401671797037125, -0.13640734553337097, -0.03314202278852463, 0.03369942680001259, 0.18294785916805267, 0.059019893407821655], [0.2855374217033386, -0.27080467343330383, -0.14057835936546326, -0.057258713990449905, 0.14372538030147552, 0.23593278229236603, 0.12028177082538605, -0.10441252589225769, -0.1060585007071495, 0.21766774356365204, 0.24434342980384827, 0.09428563714027405, 0.08869980275630951, 0.12305997312068939, -0.35181352496147156, -0.077545166015625, -0.15027524530887604], [0.21527555584907532, -0.06734675168991089, -0.23534910380840302, 0.06283964216709137, 0.14287695288658142, -0.05576347932219505, -0.19063632190227509, 0.12256687879562378, -0.07918445020914078, -0.1673678606748581, -0.0009336424409411848, -0.047324150800704956, -0.01915603317320347, -0.12450338155031204, -0.016753751784563065, -0.00781568419188261, -0.03539450839161873], [-0.09022797644138336, -0.24081943929195404, -0.2403934746980667, 0.2273481786251068, 0.3230263292789459, 0.12631911039352417, -0.08226430416107178, -0.02908378280699253, 0.09347128868103027, -0.17628365755081177, -0.15475870668888092, 0.21985000371932983, 0.2150188386440277, -0.23094868659973145, -0.06199396029114723, 0.0219965148717165, -0.07912629842758179], [0.20170865952968597, -0.028392652049660683, 0.0264327023178339, -0.11900581419467926, 0.18207810819149017, 0.17184682190418243, 0.12825177609920502, -0.19840118288993835, 0.0945005863904953, 0.06493527442216873, 0.059641916304826736, 0.17947529256343842, 0.11666436493396759, -0.020792191848158836, 0.1704532355070114, -0.02163669839501381, -0.2135991007089615], [0.13983425498008728, -0.22186219692230225, -0.06890498846769333, 0.003681833390146494, -0.04073762521147728, -0.16341207921504974, -0.20955611765384674, -0.009460256434977055, -0.16033188998699188, -0.027639800682663918, -0.05643881857395172, -0.0017297769663855433, -0.14469043910503387, -0.14613819122314453, 0.03162894397974014, 0.1158742681145668, -0.1151844784617424], [-0.1599220335483551, -0.09763265401124954, 0.24128642678260803, 0.1791900098323822, -0.21774891018867493, 0.16884338855743408, 0.02428380958735943, 0.012196708470582962, -0.07786422222852707, 0.035318899899721146, 0.19013839960098267, -0.09934519976377487, -0.079072505235672, -0.17676514387130737, -0.14114420115947723, -0.03438907489180565, -0.001879196846857667], [-0.020021675154566765, 0.021970348432660103, 0.051992855966091156, -0.13266494870185852, 0.2103956788778305, 0.18579484522342682, -0.13929995894432068, 0.1928526759147644, -0.1491372287273407, -0.10871270298957825, -0.10969890654087067, 0.1669045388698578, 0.09029442816972733, -0.10181021690368652, -0.11318211257457733, -0.2360672652721405, -0.17649780213832855], [0.06537759304046631, -0.02708381600677967, -0.19932051002979279, -0.15581431984901428, 0.16034561395645142, -0.11817599833011627, -0.13253366947174072, -0.15181303024291992, 0.06907284259796143, 0.2048206776380539, 0.07126660645008087, 0.1271658092737198, 0.03749609738588333, 0.00532344076782465, 0.11977826803922653, 0.0860464945435524, -0.03748079016804695], [0.21805468201637268, 0.11555426567792892, -0.09590215235948563, -0.08745469897985458, 0.06813149154186249, 0.2356461137533188, -0.18755489587783813, -0.1426808089017868, 0.23595166206359863, -0.1586838811635971, 0.1853732466697693, 0.16398680210113525, 0.0556894913315773, 0.05226605013012886, 0.18128278851509094, 0.13360431790351868, -0.21505995094776154], [-0.0872524231672287, 0.0735999345779419, 0.08464492112398148, -0.13759198784828186, -0.07642742991447449, -0.15909108519554138, -0.06941050291061401, -0.1775086224079132, -0.08866012096405029, -0.07331310957670212, 0.2051805704832077, 0.14379917085170746, 0.0728876143693924, -0.11172258108854294, -0.13406901061534882, 0.22030581533908844, 0.1831338107585907], [-0.3086403012275696, 0.20757699012756348, 0.002982138190418482, -0.012239371426403522, -0.13889963924884796, 0.09756607562303543, 0.06904533505439758, -0.039893824607133865, 0.01709744893014431, -0.10786990076303482, 0.1281169205904007, 0.0020960329566150904, -0.2308400720357895, -0.20991311967372894, 0.2533854842185974, 0.05432676151394844, 0.09830879420042038], [-0.09290449321269989, 0.06113947927951813, -0.07022866606712341, -0.24259166419506073, -0.1108570396900177, -0.21624121069908142, 0.15157584846019745, -0.16544845700263977, 0.13620918989181519, 0.09242087602615356, -0.05503471940755844, 0.2057608813047409, 0.2096603363752365, -0.12948136031627655, -0.1278371661901474, -0.06080380827188492, 0.19152717292308807], [-0.11973456293344498, -0.07495106011629105, 0.23033758997917175, 0.1312505155801773, -0.22879888117313385, 0.02601500414311886, 0.026584045961499214, -0.14036723971366882, -0.20181310176849365, -0.002526200609281659, 0.08580587059259415, -0.03427218273282051, -0.10907118022441864, -0.07668638229370117, -0.07927599549293518, 0.21882110834121704, -0.08062334358692169], [-0.13588999211788177, 0.006097674835473299, -0.02844868414103985, -0.0703032836318016, -0.22159768640995026, 0.19882351160049438, 0.09558533132076263, 0.0730917826294899, 0.027774734422564507, -0.03654797375202179, -0.21822743117809296, -0.008923004381358624, -0.040270399302244186, 0.05256607383489609, -0.06472598016262054, 0.19326797127723694, -0.1841641515493393], [-0.44829049706459045, 0.1428356170654297, -0.07552120089530945, 0.14611710608005524, 0.031600892543792725, 0.09523194283246994, 0.1408710926771164, 0.04542464390397072, -0.017505189403891563, -0.22511690855026245, -0.03136247396469116, 0.11582044512033463, 0.24097995460033417, 0.1494912952184677, 0.08468705415725708, -0.12255453318357468, -0.08230787515640259], [0.004241892136633396, -0.1264885663986206, 0.12211364507675171, -0.1473679393529892, -0.10410850495100021, -0.2239341288805008, 0.26125937700271606, -0.20226901769638062, 0.2715165317058563, -0.04658351093530655, -0.17516493797302246, 0.043423544615507126, -0.17206846177577972, 0.1808289736509323, -0.16111403703689575, 0.007257676683366299, 0.019511640071868896]], "fc1.bias": [-0.17306740581989288, 0.17343249917030334, 0.014412042684853077, -0.0422188937664032, 0.22279320657253265, -0.09067772328853607, -0.07346261292695999, -0.18912339210510254, -0.15130206942558289, -0.10684940963983536, 0.05572623759508133, 0.016894584521651268, 0.13061287999153137, -0.05596661940217018, 0.012083572335541248, -0.008097262121737003, -0.029645459726452827, -0.10219640284776688, 0.08436844497919083, -0.17809563875198364, -0.08300009369850159, -0.23809804022312164, 0.1798197627067566, 0.06965509802103043, 0.14557458460330963, -0.20683565735816956, 0.08041268587112427, 0.1545182317495346, 0.12097018957138062, 0.09003870189189911, 0.15380670130252838, -0.06795769929885864, -0.11563155055046082, 0.11275741457939148, -0.14122596383094788, 0.02960755117237568, 0.004248009994626045, 0.007986499927937984, 0.1895933598279953, 0.007624664343893528, 0.22845055162906647, 0.031907081604003906, -0.13439016044139862, 0.012228214181959629, -0.08537621051073074, -0.1914990246295929, -0.10489055514335632, -0.1020430251955986, -0.050003472715616226, -0.026976894587278366, 0.17621563374996185, 0.062083374708890915, 0.09630047529935837, -0.2356547862291336, 0.014316482469439507, -0.12827815115451813, -0.24147740006446838, 0.08393661677837372, 0.12573835253715515, -0.24037903547286987, -0.06607422232627869, -0.13916276395320892, 0.20473958551883698, -0.19677740335464478, -0.2059728503227234, 0.12119679898023605, -0.14858640730381012, 0.03892944008111954, -0.004741389770060778, -0.014814012683928013, -0.18992383778095245, 0.18952324986457825, -0.14356686174869537, -0.13979366421699524, 0.23888938128948212, 0.18798846006393433, 0.19612298905849457, 0.0159385334700346, -0.034235574305057526, 0.07220476120710373, 0.1488509178161621, -0.022345053032040596, 0.11586710065603256, 0.10767610371112823, 0.18423639237880707, 0.0977882593870163, -0.14384450018405914, -0.13147111237049103, 0.15689606964588165, -0.14498840272426605, -0.01263826061040163, -0.19128933548927307, 0.15064993500709534, 0.13363826274871826, 0.09612157195806503, 0.2210390418767929, 0.03285428509116173, 0.05431560054421425, 0.04957956820726395, -0.1474427878856659], "fc2.weight": [[1.3545290231704712, -0.07141430675983429, -0.07553328573703766, -0.40144020318984985, -0.08901979774236679, 0.09550889581441879, -0.0318605899810791, -0.04549039155244827, 0.19687199592590332, 0.05670357868075371, -0.019699769094586372, -0.09310068190097809, 0.032720837742090225, 0.080612912774086, -0.05261605605483055, -0.00111973041202873, 0.019886791706085205, -0.04365277290344238, -0.04430244863033295, 0.0643496960401535, -0.035926319658756256, -0.01144862174987793, -1.0009582042694092, 0.06677963584661484, -0.03767674043774605, -0.026527797803282738, -0.12002333998680115, -0.07775069773197174, -0.03009449876844883, -0.08237031102180481, -1.134573221206665, 0.014603300020098686, -0.10578645020723343, 0.0655403733253479, -0.07516239583492279, 0.06552410125732422, -0.9159640073776245, 0.031887542456388474, -0.06956558674573898, -0.08572894334793091, 0.08198266476392746, -0.006303846836090088, -0.002959870733320713, 0.02671874687075615, -0.029170989990234375, -0.06675002723932266, 0.052829641848802567, 0.07215040177106857, 0.005518543999642134, -0.0337577722966671, 0.04583502188324928, 0.06718047708272934, 0.061720527708530426, -0.04680631309747696, 0.4711170792579651, 0.14677047729492188, 0.007042515557259321, 0.05603551119565964, 0.052227530628442764, -0.044984977692365646, -0.030309593304991722, 0.039630260318517685, -1.0655521154403687, -0.10971412807703018, -0.08003290742635727, -0.017110789194703102, 0.7875822186470032, -1.4787325859069824, 0.06944384425878525, -0.08071597665548325, 0.06919918209314346, 0.032980237156152725, -0.09393929690122604, 0.013772306963801384, 0.03760110214352608, -0.01408839225769043, 0.046937406063079834, 0.7173253297805786, 0.04891682416200638, -0.26419782638549805, 0.09525194019079208, 0.07594648748636246, -0.012107121758162975, -0.03322673961520195, -1.3646069765090942, 0.027595246210694313, -1.0353578329086304, 0.06732947379350662, -0.08876001834869385, -0.033330049365758896, 0.0716596245765686, 0.024911532178521156, -0.022240133956074715, -0.07291311025619507, 1.177033543586731, 0.31116539239883423, 0.03212053328752518, -0.08268369734287262, 0.6863266229629517, -0.7247260212898254]], "fc2.bias": [-0.0816740170121193]}