{"fc1.weight": [[0.08785058557987213, 1.6096999645233154, -1.7576581239700317, -0.7221798300743103, 0.6641102433204651, -0.07558587193489075, -1.242700457572937, 0.7644867300987244, 0.8362656831741333, 0.14175815880298615, -0.6993492245674133, 3.9523282051086426, 1.1101270914077759, 0.004134707152843475, 0.06264636665582657, -0.04997611790895462, 0.16740037500858307, 0.7580195665359497, -0.843682587146759, -1.9069894552230835, -1.8110836744308472, 0.647088885307312, 0.03705195337533951, -1.1105812788009644, 1.5329910516738892, 0.8589842319488525, -0.24482321739196777, -0.20272774994373322, 2.7830564975738525, 0.7864180207252502, -0.08409744501113892, 0.8870654106140137, -0.6373687386512756, -0.10097838938236237, 0.7834985256195068, 0.22234389185905457, -0.8408110737800598, 0.8576565384864807, 0.05820596590638161, 0.08851324021816254, -0.1037110835313797, 0.04782683402299881, 0.08066581189632416, -0.029191046953201294], [0.21390731632709503, 1.6201473474502563, -1.7861140966415405, -0.821854829788208, 0.8318541646003723, 0.06444502621889114, -1.2399588823318481, 0.729480504989624, 0.9120873212814331, 0.16307300329208374, -0.7848030924797058, 4.050384521484375, 0.9244908094406128, -0.10219886153936386, 0.24090546369552612, 0.03447043150663376, 0.1056591272354126, 0.7533479928970337, -1.0410408973693848, -2.0254087448120117, -2.100515604019165, 0.7772707343101501, 0.014793905429542065, -1.0838451385498047, 1.5274385213851929, 1.0733946561813354, -0.20990315079689026, -0.2209276705980301, 3.086815595626831, 0.6749157905578613, -0.12187343835830688, 0.9099576473236084, -0.5727558732032776, -0.1663239747285843, 0.9286377429962158, 0.19442495703697205, -1.076879858970642, 1.0231199264526367, 0.03813522681593895, -0.01759013533592224, -0.09918585419654846, 0.03708342835307121, 0.03205784782767296, -0.10679386556148529], [0.15450938045978546, 1.973583459854126, -1.9554439783096313, -1.005674123764038, 0.598147451877594, 0.01604710891842842, -1.2883305549621582, 0.8956546783447266, 0.924762487411499, 0.11086096614599228, -0.7414320111274719, 4.528545379638672, 1.1069635152816772, 0.13905151188373566, 0.03285912051796913, -0.03653385490179062, 0.27944591641426086, 0.8289824724197388, -1.0913420915603638, -2.0235769748687744, -2.1591155529022217, 0.6034500598907471, -0.09350720793008804, -1.3065272569656372, 1.4975550174713135, 1.0677510499954224, -0.09438867121934891, -0.35503247380256653, 3.1465189456939697, 0.7610573768615723, -0.11057773977518082, 0.8202257752418518, -0.5985142588615417, 0.023358479142189026, 1.0099526643753052, 0.17631134390830994, -1.1137990951538086, 1.1562176942825317, -0.04460764303803444, 0.022559111937880516, -0.026727255433797836, -0.043265510350465775, -0.07929078489542007, 0.030105486512184143], [0.0228323582559824, 1.7516255378723145, -1.7921357154846191, -0.8402311205863953, 0.6258134841918945, -0.20456813275814056, -1.1808116436004639, 0.6679564714431763, 1.0277581214904785, -0.08553631603717804, -0.6138604879379272, 3.9406607151031494, 0.8977043628692627, 0.011328082531690598, 0.17133285105228424, -0.08418487012386322, 0.2763045132160187, 0.7399888634681702, -1.036860466003418, -1.7093411684036255, -1.8702541589736938, 0.7079554200172424, -0.039623361080884933, -0.9537288546562195, 1.6916344165802002, 1.0386589765548706, -0.10167764127254486, -0.30710935592651367, 2.7578465938568115, 0.5963672399520874, -0.1901119202375412, 0.8891369700431824, -0.5945799350738525, -0.1188473328948021, 0.8290235996246338, 0.3085315525531769, -1.078191876411438, 1.042791485786438, -0.09424272924661636, 0.0649084821343422, 0.028363676741719246, 0.05383194983005524, -0.04940935596823692, -0.018748711794614792], [0.02238238789141178, 1.7963299751281738, -1.9618335962295532, -1.0368188619613647, 0.8163419365882874, 0.08987215161323547, -1.5115854740142822, 1.0751959085464478, 0.9668367505073547, -0.07072722911834717, -0.8121480941772461, 4.751594066619873, 1.0706323385238647, 0.1403445154428482, 0.11731083691120148, 0.09793946146965027, 0.16409887373447418, 1.1326528787612915, -1.1577059030532837, -1.9750807285308838, -2.1680829524993896, 0.69854736328125, 0.06001759320497513, -1.2611021995544434, 1.5701158046722412, 1.0604023933410645, -0.20656684041023254, -0.4132244288921356, 3.3699347972869873, 0.9623783826828003, -1.1331387213431299e-05, 0.7969948053359985, -0.7325097918510437, 0.007208786439150572, 0.9742443561553955, 0.4166811406612396, -1.2484139204025269, 1.0151411294937134, 0.06322445720434189, 0.07834643125534058, -0.12871621549129486, 0.058258332312107086, -0.006022346671670675, -0.05079290270805359], [-0.1788696050643921, -1.6491827964782715, 1.925407886505127, 1.1145076751708984, -0.7623977065086365, 0.15741084516048431, 1.1567070484161377, -0.8789070248603821, -0.8504903316497803, -0.043245669454336166, 0.5805131793022156, -4.190523624420166, -1.1462327241897583, -0.12404484301805496, -0.0897151455283165, -0.05782373994588852, -0.2075970619916916, -0.9925286173820496, 0.891983687877655, 1.9583603143692017, 2.1812567710876465, -0.7095330357551575, -0.039794523268938065, 1.2630194425582886, -1.5275903940200806, -0.9000450372695923, 0.15860018134117126, 0.4459129869937897, -2.8972179889678955, -0.8451544642448425, 0.04767725244164467, -0.864764392375946, 0.49222931265830994, -0.05013878643512726, -0.9832643270492554, -0.18922409415245056, 1.0952030420303345, -1.0431500673294067, 0.06123821437358856, -0.025189097970724106, 0.11614879965782166, 0.048057302832603455, -0.027391836047172546, 0.08902587741613388], [0.17935077846050262, 1.7609219551086426, -1.9790807962417603, -0.8969932198524475, 0.8203572034835815, -0.07081934809684753, -1.2985237836837769, 0.9768985509872437, 0.9800432920455933, 0.06730612367391586, -0.9052256345748901, 4.726780891418457, 0.9521132111549377, 0.19128243625164032, 0.024983761832118034, 0.013001137413084507, 0.12686875462532043, 0.9787336587905884, -0.9295754432678223, -1.9863139390945435, -2.155397891998291, 0.6825522780418396, -0.03737206012010574, -1.3791613578796387, 1.6721993684768677, 1.1499743461608887, -0.1208382248878479, -0.26744163036346436, 3.2841856479644775, 0.7397045493125916, -0.21309180557727814, 0.9413095712661743, -0.7214106321334839, -0.18527396023273468, 1.1551798582077026, 0.2638683319091797, -1.1487209796905518, 1.1427658796310425, 0.04445386677980423, 0.06294006109237671, -0.01739407330751419, 0.05095740035176277, 0.001498091733083129, -0.10061316192150116], [0.2571469843387604, 1.7670036554336548, -1.6850295066833496, -0.7872527837753296, 0.7798111438751221, -0.0876152366399765, -1.2625646591186523, 0.8114876747131348, 1.0463720560073853, -0.10863066464662552, -0.7451074719429016, 4.141654968261719, 0.9167439937591553, -0.08806480467319489, -0.02742507867515087, 0.003064023796468973, 0.11138977855443954, 0.9215443134307861, -1.0463740825653076, -1.915704369544983, -1.8217546939849854, 0.5387880802154541, -0.1273246556520462, -0.9642118215560913, 1.6985689401626587, 0.9816151261329651, -0.00797355268150568, -0.2745324671268463, 2.878952741622925, 0.6095961928367615, -0.0906347930431366, 0.788093090057373, -0.6292329430580139, -0.20500852167606354, 1.0257799625396729, 0.4122754633426666, -0.9386470317840576, 1.0703890323638916, 0.01668657921254635, 0.01432713307440281, -0.02877679280936718, 0.004959411919116974, -0.03435439616441727, -0.05465960130095482], [-0.2718504071235657, -1.893606424331665, 1.8843951225280762, 1.0539816617965698, -0.6450404524803162, -0.022331196814775467, 1.3378334045410156, -1.0093498229980469, -0.9551659822463989, -0.02354191057384014, 0.6331652402877808, -4.24653434753418, -0.9776504039764404, 0.032675109803676605, -0.013039662502706051, -0.13166804611682892, -0.13208383321762085, -0.8290905952453613, 0.8407564759254456, 2.1246731281280518, 1.9315426349639893, -0.7419390082359314, 0.16276560723781586, 1.2593908309936523, -1.5386103391647339, -1.1206849813461304, 0.22842718660831451, 0.2158714234828949, -3.265298843383789, -0.7715570330619812, 0.21973277628421783, -0.905125081539154, 0.6323299407958984, 0.04015982523560524, -1.0609421730041504, -0.31059277057647705, 0.9788923263549805, -1.0081493854522705, -0.05353380739688873, -0.05760212242603302, 0.041276805102825165, -0.031258080154657364, -0.030527040362358093, 0.10063337534666061], [0.12608806788921356, 1.4648146629333496, -1.7642357349395752, -0.8810287117958069, 0.7569068074226379, -0.03182273358106613, -1.0765074491500854, 0.6972437500953674, 0.9298588037490845, 0.060067590326070786, -0.5747988224029541, 3.8588950634002686, 0.86527419090271, 0.0541081577539444, 0.12847524881362915, 0.12042805552482605, 0.17682576179504395, 0.837805986404419, -0.861953616142273, -1.8615553379058838, -1.860387921333313, 0.6235849261283875, -0.07079588621854782, -1.1618741750717163, 1.710754156112671, 1.0122978687286377, -0.1063343957066536, -0.38377341628074646, 2.8925323486328125, 0.722838282585144, -0.2774958312511444, 0.909113883972168, -0.5915316939353943, -0.2389150708913803, 0.9707035422325134, 0.2731216251850128, -0.8369947671890259, 0.9160402417182922, 0.05181301757693291, 0.08765879273414612, -0.12815558910369873, -0.03289896994829178, -0.08174256980419159, -0.09397021681070328], [0.1295207291841507, 1.6208094358444214, -1.8144192695617676, -0.826362669467926, 0.7536483407020569, -0.1862190216779709, -1.1965173482894897, 0.987042248249054, 0.871051549911499, 0.08510670065879822, -0.5494616627693176, 3.973543643951416, 0.979942798614502, -0.022264884784817696, 0.23553335666656494, 0.028485598042607307, 0.21262675523757935, 0.8840208053588867, -0.8519463539123535, -1.9514533281326294, -2.000110149383545, 0.5949316620826721, -0.16975389420986176, -0.95460444688797, 1.7705299854278564, 0.9483499526977539, -0.20486021041870117, -0.3394532799720764, 3.0569679737091064, 0.5696269273757935, -0.06691089272499084, 0.8876770734786987, -0.6327528357505798, -0.10627160221338272, 0.8780776262283325, 0.1270422637462616, -0.9525724649429321, 0.9426730275154114, -0.014724628999829292, 0.07523580640554428, -0.0839773491024971, -0.026689749211072922, -0.0010399228194728494, -0.08067727833986282], [0.25651147961616516, 1.914433479309082, -1.938260555267334, -1.046972393989563, 0.7371017932891846, 0.07427352666854858, -1.3313570022583008, 0.9683645963668823, 0.9114465117454529, -0.12445726990699768, -0.6495748162269592, 4.339457988739014, 0.9975100755691528, 0.079103484749794, -0.013664173893630505, 0.003092029830440879, 0.19568076729774475, 0.9372795820236206, -0.8800485134124756, -2.028019428253174, -1.984721064567566, 0.8196312189102173, -0.003900705836713314, -1.0186928510665894, 1.6619527339935303, 1.1134332418441772, -0.11889702826738358, -0.3034517168998718, 3.0791542530059814, 0.7175744771957397, -0.07624050974845886, 0.8636754751205444, -0.45210641622543335, -0.19237186014652252, 0.9379825592041016, 0.4312135577201843, -1.227926254272461, 0.9338942766189575, -0.07037685811519623, 0.07922035455703735, -0.04068245738744736, -0.04206036403775215, -0.02721771039068699, -0.08664630353450775], [0.1843641698360443, 1.8313905000686646, -1.6953487396240234, -0.9914978742599487, 0.5182003974914551, 0.0818544253706932, -1.1806464195251465, 0.6957326531410217, 0.9930230975151062, 0.03210574761033058, -0.7203523516654968, 4.13274621963501, 0.985336422920227, -0.024617694318294525, 0.08447195589542389, -0.12930996716022491, 0.2482454627752304, 0.7625662684440613, -0.8843749165534973, -1.851863980293274, -1.9751440286636353, 0.7015935182571411, -0.011338642798364162, -1.0655921697616577, 1.5831979513168335, 0.8560764789581299, -0.1584489941596985, -0.29229333996772766, 2.8750689029693604, 0.6525713801383972, -0.2295425981283188, 0.8040398359298706, -0.5175177454948425, -0.0064165606163442135, 0.8575829267501831, 0.18079806864261627, -1.0044426918029785, 0.9930493831634521, -0.0699964240193367, 0.030771976336836815, -0.1609259694814682, 0.021372631192207336, -0.053662486374378204, 0.07630567252635956], [0.03332666680216789, 1.6855545043945312, -1.7899465560913086, -1.0980669260025024, 0.813697338104248, -0.08029718697071075, -1.1953566074371338, 0.7311190962791443, 0.9247184991836548, 0.019148722290992737, -0.6629469990730286, 4.313559532165527, 1.0903853178024292, -0.012544631026685238, 0.10886217653751373, -0.030826088041067123, 0.1075151264667511, 0.9635014533996582, -0.959915041923523, -2.1069772243499756, -2.1228890419006348, 0.8113504648208618, -0.03916332125663757, -1.2170391082763672, 1.5484833717346191, 0.9137907028198242, -0.17836220562458038, -0.2028885781764984, 3.034531354904175, 0.8856645226478577, -0.0893951952457428, 1.0206834077835083, -0.6161401867866516, -0.014461809769272804, 0.8706231117248535, 0.24241453409194946, -1.0147123336791992, 0.9422047734260559, -0.024507541209459305, -0.05814570561051369, -0.11275479942560196, 0.049622226506471634, 0.017648689448833466, -0.01997058279812336], [0.24965858459472656, 1.8251687288284302, -1.7573292255401611, -0.8689103126525879, 0.6598390340805054, -0.06190619245171547, -1.2887463569641113, 0.7512061595916748, 1.0166950225830078, 0.14760109782218933, -0.7284408211708069, 4.194204807281494, 0.9137489199638367, 0.07351046800613403, -0.060367897152900696, 0.027506396174430847, 0.10088280588388443, 0.8592137694358826, -0.8890716433525085, -1.8902491331100464, -2.0363354682922363, 0.7955694794654846, -0.13619866967201233, -1.1972804069519043, 1.6846104860305786, 0.9487698674201965, -0.15036658942699432, -0.4284340739250183, 3.140075922012329, 0.6957656145095825, 0.009274489246308804, 0.8197261095046997, -0.6647120714187622, 0.010338224470615387, 0.9944847822189331, 0.4321090579032898, -1.172230839729309, 1.0119919776916504, 0.0646737813949585, -0.015085309743881226, -0.05214155092835426, -0.015437081456184387, -0.05736945942044258, -0.09921223670244217], [0.1537284106016159, 1.711716890335083, -2.0014708042144775, -1.141666293144226, 0.6448371410369873, -0.019224820658564568, -1.373795747756958, 1.0084141492843628, 0.9805071949958801, 0.07336561381816864, -0.8878964185714722, 4.640310287475586, 1.165730357170105, 0.18070097267627716, 0.04640109837055206, -0.13835635781288147, 0.2020757794380188, 1.0475244522094727, -0.9767192602157593, -1.9863656759262085, -2.070279121398926, 0.7946135997772217, -0.004690452013164759, -1.2618900537490845, 1.671553373336792, 0.9996992945671082, -0.09339388459920883, -0.22804699838161469, 3.4603986740112305, 0.6687722206115723, -0.05550225451588631, 0.8546491265296936, -0.7094859480857849, -0.0639147087931633, 0.9501401782035828, 0.2791363000869751, -1.0989861488342285, 1.1580795049667358, 0.03173275291919708, 0.042314354330301285, -0.1116938516497612, -0.009964093565940857, -0.059646107256412506, 0.00016443725326098502], [0.04117573797702789, 1.6213089227676392, -1.8591070175170898, -1.075041651725769, 0.7840352058410645, -0.14798970520496368, -1.3287914991378784, 0.978436291217804, 1.0165108442306519, 0.09519662708044052, -0.6103899478912354, 4.26658821105957, 1.1658200025558472, -0.0788155123591423, -0.06296283006668091, -0.13515517115592957, 0.29531702399253845, 0.9973359704017639, -1.043762445449829, -1.8138386011123657, -2.09617018699646, 0.6229383945465088, 0.026622336357831955, -1.1887768507003784, 1.5907565355300903, 1.0799589157104492, -0.23848232626914978, -0.34829697012901306, 2.9767675399780273, 0.7347554564476013, -0.07862332463264465, 0.8477013111114502, -0.4843214452266693, -0.028620503842830658, 0.8924404382705688, 0.1958087533712387, -0.9127293229103088, 0.8816292881965637, -0.04978957027196884, 0.0511125810444355, 0.008663449436426163, -0.011730971746146679, -0.017708726227283478, -0.14366760849952698], [-0.018320001661777496, 1.9103381633758545, -1.9653724431991577, -0.9371010661125183, 0.6516571044921875, -0.06482455134391785, -1.2532442808151245, 0.8709977865219116, 1.1276756525039673, -0.05286361277103424, -0.810207724571228, 4.725614547729492, 1.1377111673355103, -0.06736578792333603, 0.030572237446904182, 0.01751089282333851, 0.15872305631637573, 0.9320359826087952, -0.9827326536178589, -2.0228347778320312, -2.275651454925537, 0.7779915928840637, 0.06275353580713272, -1.1497430801391602, 1.485229730606079, 0.9523943662643433, -0.10364686697721481, -0.3521844148635864, 3.4485838413238525, 0.6781466603279114, -0.0863586813211441, 1.0124449729919434, -0.6008020639419556, -0.09147484600543976, 1.0288221836090088, 0.3836509585380554, -1.258314609527588, 1.009536862373352, 0.027953054755926132, 0.09109365195035934, 0.002491458086296916, 0.048345278948545456, 0.01750514656305313, -0.03832753747701645], [0.12289032340049744, 1.8791494369506836, -1.7835793495178223, -0.9296093583106995, 0.6128979921340942, 0.09001155942678452, -1.3423913717269897, 0.7440220713615417, 1.0229824781417847, -0.03465019538998604, -0.7780843377113342, 4.071300029754639, 0.8963067531585693, -0.09987743198871613, 0.06940533965826035, -0.13854295015335083, 0.0807853639125824, 0.80752032995224, -0.9632146954536438, -1.8337699174880981, -2.1010327339172363, 0.8126136064529419, 0.10476432740688324, -1.1682283878326416, 1.7052644491195679, 0.925564169883728, -0.05176449567079544, -0.2371436506509781, 3.1499273777008057, 0.7036771774291992, -0.09405723214149475, 0.8852859735488892, -0.4422069787979126, -0.02748648077249527, 0.842887282371521, 0.3555811047554016, -0.9740720391273499, 1.1342206001281738, -0.06721416115760803, -0.06300598382949829, -0.13659511506557465, -0.05648106336593628, -0.043533168733119965, 0.03491270914673805], [0.28103742003440857, 1.9643758535385132, -1.9201066493988037, -0.8489990234375, 0.6886553764343262, 0.05970586836338043, -1.3923503160476685, 0.8417900204658508, 0.9780496954917908, 0.06600557267665863, -0.6972525119781494, 4.881571292877197, 1.1187924146652222, 0.036563385277986526, 0.10569256544113159, 0.08531082421541214, 0.08837611973285675, 1.032710313796997, -1.0845979452133179, -1.9836626052856445, -2.161560297012329, 0.6939611434936523, 0.05770966783165932, -1.333906650543213, 1.7344774007797241, 1.24099862575531, -0.14733090996742249, -0.2703605890274048, 3.506880760192871, 0.6689705848693848, 0.007468768861144781, 0.7836763858795166, -0.757042407989502, -0.1715502142906189, 1.0384116172790527, 0.2259349524974823, -1.300408959388733, 1.1701146364212036, -0.01602950319647789, 0.07513109594583511, -0.05966726690530777, -0.02562723495066166, 0.008731911890208721, -0.055418241769075394], [0.16514188051223755, 1.644528865814209, -1.4996613264083862, -0.8290911316871643, 0.48332661390304565, -0.17543746531009674, -1.2152074575424194, 0.6653011441230774, 0.8063552975654602, -0.006436575669795275, -0.5740445256233215, 3.8316874504089355, 1.0430963039398193, 0.10838402062654495, 0.1965084969997406, 0.12907643616199493, 0.2519197165966034, 0.8607560396194458, -0.8248367309570312, -1.7703166007995605, -1.9616926908493042, 0.6253339648246765, -0.11006563901901245, -1.0736790895462036, 1.5221589803695679, 0.8158982396125793, -0.2017415463924408, -0.3879386782646179, 2.71395206451416, 0.5503553152084351, -0.17185942828655243, 0.9777721166610718, -0.6299527883529663, -0.07109224051237106, 0.7940577864646912, 0.348916620016098, -0.863869845867157, 0.7524827718734741, -0.02946590818464756, 0.05368778854608536, 0.038778435438871384, 0.054386213421821594, -0.08217675238847733, -0.029362482950091362], [0.12012794613838196, 1.6745914220809937, -1.8239468336105347, -0.9155918955802917, 0.6814139485359192, -0.18846547603607178, -1.2200056314468384, 0.7544369697570801, 0.8022958040237427, -0.0011097622336819768, -0.7386561632156372, 4.321988582611084, 1.0847457647323608, -0.07424432784318924, 0.1899193376302719, 0.09300388395786285, 0.19042234122753143, 0.8053393363952637, -0.8389927744865417, -2.0731306076049805, -2.0878756046295166, 0.6136494278907776, -0.03333263471722603, -1.1274635791778564, 1.5700498819351196, 1.0781574249267578, -0.07870098948478699, -0.37408310174942017, 2.9834797382354736, 0.7460018396377563, -0.12075857818126678, 0.8629063963890076, -0.6269721984863281, -0.02896953746676445, 0.8002731800079346, 0.4157596230506897, -1.082357406616211, 1.0638477802276611, 0.06736540794372559, 0.01691785454750061, -0.132132425904274, -0.016883453354239464, 0.061392225325107574, -0.01735316589474678], [0.022294675931334496, -1.9703164100646973, 1.888723611831665, 0.9955494999885559, -0.784063458442688, 0.08724956959486008, 1.3287776708602905, -0.8888625502586365, -1.0850614309310913, 0.00800973828881979, 0.7704183459281921, -4.400537014007568, -1.036487102508545, -0.006344595458358526, -0.08315179497003555, 0.044769302010536194, -0.29526180028915405, -1.02322256565094, 0.9396641254425049, 1.9998080730438232, 2.0910263061523438, -0.6553946137428284, 0.17235440015792847, 1.2590526342391968, -1.5939182043075562, -1.1616451740264893, 0.031445372849702835, 0.1934981346130371, -2.9421746730804443, -0.7126868367195129, 0.24029035866260529, -0.8758754134178162, 0.5380200743675232, -0.056023113429546356, -0.8714889287948608, -0.3248209059238434, 1.1617372035980225, -1.081689476966858, 0.02300199680030346, 0.011675742454826832, 0.09359409660100937, -0.03792637959122658, -0.028549466282129288, 0.03088499791920185], [0.22116847336292267, 1.8857465982437134, -1.9252469539642334, -1.0038127899169922, 0.7610934376716614, -0.08226160705089569, -1.267842411994934, 0.8227226734161377, 0.934359073638916, -0.1395886391401291, -0.7818868160247803, 5.123184680938721, 1.153368353843689, 0.17362935841083527, 0.16777180135250092, 0.08334348350763321, 0.30821970105171204, 1.0363582372665405, -0.9725425243377686, -2.1863203048706055, -2.366567850112915, 0.8348661065101624, 0.05452483519911766, -1.2117445468902588, 1.6593444347381592, 1.0044938325881958, -0.3111487030982971, -0.42390361428260803, 3.5320332050323486, 0.7131970524787903, -0.1600932627916336, 0.8083720207214355, -0.7095007300376892, -0.042457327246665955, 1.0145014524459839, 0.3765093982219696, -1.189897894859314, 1.0382510423660278, -0.06443073600530624, 0.06932523101568222, -0.05372551083564758, 0.02769399620592594, -0.07643020153045654, -0.033077046275138855], [0.19625501334667206, 1.7152436971664429, -1.6847054958343506, -0.9480417966842651, 0.7756174802780151, -0.19072799384593964, -1.067529320716858, 0.7761532664299011, 0.94130539894104, -0.13600097596645355, -0.7947157025337219, 4.19344425201416, 0.94966721534729, -0.038316696882247925, 0.16953355073928833, -0.02045290544629097, 0.23655177652835846, 0.817246675491333, -0.8293629884719849, -2.073373794555664, -2.0710527896881104, 0.7598893642425537, 0.05681214481592178, -1.049964427947998, 1.5862140655517578, 0.8613240122795105, -0.12404366582632065, -0.17230452597141266, 2.980205774307251, 0.8153170943260193, -0.11977208405733109, 0.9140192270278931, -0.4753403067588806, -0.19651763141155243, 0.9918715357780457, 0.29343733191490173, -1.012789011001587, 0.8047346472740173, 0.009983198717236519, 0.0897873267531395, 1.5995383364497684e-06, -0.0649951696395874, -0.09235262870788574, -0.11989804357290268], [0.14083588123321533, 1.7212077379226685, -1.6139683723449707, -0.7645530104637146, 0.6545442938804626, -0.07673484086990356, -0.9881102442741394, 0.7822825312614441, 0.7403044104576111, -0.015958471223711967, -0.5225328207015991, 3.9028260707855225, 0.9361979365348816, -0.03620784357190132, 0.040655042976140976, -0.12273835390806198, 0.1985427439212799, 0.7812707424163818, -0.7829228639602661, -1.873304843902588, -1.712389349937439, 0.7378391623497009, 0.02994365431368351, -1.0265628099441528, 1.6240414381027222, 0.8950862288475037, -0.27213773131370544, -0.3013412058353424, 2.7959611415863037, 0.5182347297668457, -0.021786248311400414, 0.7360892295837402, -0.6117014288902283, -0.030388258397579193, 0.8044776916503906, 0.23764611780643463, -1.0313036441802979, 0.867821216583252, -0.0055697085335850716, 0.03777361288666725, -0.17262232303619385, 0.04651866480708122, 0.036354877054691315, 0.016003945842385292], [0.005104410462081432, -1.8072278499603271, 1.9770091772079468, 1.0612581968307495, -0.8406161665916443, 0.10970017313957214, 1.2440681457519531, -0.8240199685096741, -1.0238577127456665, -0.02759355679154396, 0.7620473504066467, -4.278080940246582, -1.129448652267456, 0.02122899889945984, -0.053362730890512466, 0.08032453805208206, -0.1843416839838028, -0.9250117540359497, 0.8105951547622681, 1.9579213857650757, 2.16459584236145, -0.7954419851303101, 0.05411335453391075, 1.0732301473617554, -1.663402795791626, -1.1077252626419067, 0.2703012526035309, 0.21093139052391052, -3.0465407371520996, -0.9003040790557861, 0.13055601716041565, -0.9392303228378296, 0.4457257091999054, 0.18692097067832947, -1.0712429285049438, -0.2975759506225586, 1.176344633102417, -0.9944374561309814, 0.03891725465655327, -0.005926310550421476, 0.12388622015714645, -0.0806647315621376, -0.0740295872092247, -0.03853442892432213], [-0.01055445522069931, -1.6627851724624634, 1.7920341491699219, 0.7620022296905518, -0.7230793237686157, 0.10437791049480438, 1.0814062356948853, -0.9409435987472534, -0.8991961479187012, -0.05984578654170036, 0.6847410202026367, -4.100579261779785, -0.9808247089385986, -0.06283601373434067, -0.027575230225920677, 0.05430322885513306, -0.10611061751842499, -1.033198356628418, 1.0040093660354614, 1.9234951734542847, 1.9382023811340332, -0.6023944020271301, 0.1772724688053131, 1.0187773704528809, -1.5624183416366577, -1.0687741041183472, 0.061615727841854095, 0.2687440514564514, -2.9755425453186035, -0.8485257029533386, 0.21515247225761414, -0.8963211178779602, 0.4909328818321228, 0.1301223337650299, -0.8845949172973633, -0.2602589428424835, 1.052329182624817, -1.1361578702926636, 0.030684063211083412, -0.005286813247948885, 0.14911800622940063, -0.08997228741645813, -0.10588492453098297, 0.06994383782148361], [0.18954940140247345, 1.583314061164856, -1.6830241680145264, -1.0119209289550781, 0.5534374117851257, -0.08285292983055115, -1.168607234954834, 0.6730276942253113, 0.9146555662155151, -0.013283839449286461, -0.5093160271644592, 4.04492712020874, 1.0037239789962769, 0.07425025850534439, 0.06383012980222702, -0.06667140871286392, 0.29161372780799866, 0.8281041383743286, -0.8422991037368774, -1.860268235206604, -1.8353089094161987, 0.7957229018211365, -0.11518172919750214, -1.1291519403457642, 1.650973916053772, 0.821557879447937, -0.11457256227731705, -0.3578433096408844, 2.7856860160827637, 0.6790636777877808, -0.11719649285078049, 0.841681718826294, -0.5952174067497253, -0.207102432847023, 0.9150306582450867, 0.19464685022830963, -1.0615177154541016, 0.837604820728302, -0.026395760476589203, -0.04480057582259178, 0.005357273388653994, -0.04521118104457855, -0.0956224650144577, 0.028712866827845573], [0.04667247459292412, 1.5927577018737793, -1.7147372961044312, -1.054867148399353, 0.5753926038742065, -0.08224637806415558, -1.106620192527771, 0.8977884650230408, 0.9801971316337585, 0.13344138860702515, -0.6967790722846985, 4.12294340133667, 1.0284423828125, 0.10696940869092941, 0.19748443365097046, -0.12990522384643555, 0.15373347699642181, 0.9230383634567261, -0.8658580183982849, -1.963789463043213, -2.034572124481201, 0.6658812761306763, 0.03429383039474487, -1.1953074932098389, 1.496645450592041, 0.9894142150878906, -0.19705450534820557, -0.37514081597328186, 3.075584650039673, 0.685242772102356, -0.07112838327884674, 0.7533459067344666, -0.7032183408737183, -0.17869555950164795, 1.0489388704299927, 0.42027559876441956, -0.8973782062530518, 0.9615554809570312, 0.026042141020298004, -0.04864118993282318, -0.17689497768878937, -0.07374843209981918, 0.025983037427067757, -0.08610141277313232], [0.1533764898777008, 1.705272912979126, -2.0212011337280273, -1.0655380487442017, 0.9087912440299988, -0.002308168914169073, -1.4022175073623657, 0.7880917191505432, 1.0371553897857666, 0.023363960906863213, -0.6498359441757202, 4.727173328399658, 1.1813817024230957, 0.13200712203979492, -0.03574768081307411, -0.08446698635816574, 0.32119378447532654, 0.8627545833587646, -0.8814898729324341, -1.898268461227417, -2.096452474594116, 0.6196339130401611, 0.05708204582333565, -1.325079321861267, 1.5748746395111084, 1.1006500720977783, -0.16896696388721466, -0.42727699875831604, 3.3229002952575684, 0.7198693156242371, -0.13203196227550507, 0.7982571721076965, -0.6850919723510742, -0.04100637882947922, 1.0071465969085693, 0.33186689019203186, -1.2367453575134277, 1.0972143411636353, -0.04242222383618355, 0.031070973724126816, -0.06891608983278275, 0.039666514843702316, -0.0024489322677254677, 0.03172909468412399], [-0.004410896450281143, 1.7948877811431885, -1.8443620204925537, -0.9832587838172913, 0.5694844722747803, -0.004963594954460859, -1.0883474349975586, 0.8478843569755554, 0.7908194065093994, -0.060431525111198425, -0.7327715158462524, 3.9358572959899902, 0.9277793765068054, -0.021780870854854584, 0.2115890085697174, -0.00888033863157034, 0.14370377361774445, 0.8963486552238464, -0.933287501335144, -1.976163387298584, -2.1159908771514893, 0.804837167263031, -0.0073370072059333324, -1.1010416746139526, 1.4581516981124878, 1.0948385000228882, 0.0030313211027532816, -0.41076257824897766, 2.9468514919281006, 0.7438165545463562, -0.08664914965629578, 0.9489784836769104, -0.7026705741882324, -0.005475533660501242, 0.818167507648468, 0.2226354032754898, -1.156304121017456, 1.0742897987365723, -0.07001009583473206, 0.03096676431596279, -0.02895505353808403, 0.04270270839333534, -0.03968476504087448, 0.022082671523094177], [0.04826816916465759, 1.793511986732483, -1.8161200284957886, -0.8565934896469116, 0.609546959400177, -0.10756015032529831, -1.179172396659851, 0.8161270618438721, 0.7534639239311218, -0.14809055626392365, -0.6915497779846191, 4.091772556304932, 0.9953240752220154, -0.03712337091565132, 0.0890670120716095, 0.07821828871965408, 0.06739415228366852, 0.7496498823165894, -1.0781766176223755, -2.033097982406616, -1.928711175918579, 0.6716772317886353, -0.08698515594005585, -1.102634310722351, 1.6481420993804932, 1.094738245010376, -0.13500352203845978, -0.3188523054122925, 2.81516432762146, 0.6916404962539673, -0.03439236432313919, 0.9200683832168579, -0.5504404306411743, 0.039956528693437576, 0.9929237961769104, 0.3130456805229187, -1.0142487287521362, 1.0731656551361084, -0.06177239865064621, 0.07131904363632202, -0.03299909457564354, 0.05848855897784233, -0.036590270698070526, -0.04808352142572403], [0.019968541339039803, -1.6421105861663818, 1.8439171314239502, 0.814798891544342, -0.6149778366088867, -0.045786239206790924, 1.3219088315963745, -0.7032114863395691, -1.0631004571914673, -0.09664594382047653, 0.5694500207901001, -4.073701858520508, -1.1685911417007446, -0.08045637607574463, -0.16902361810207367, -0.04546523839235306, -0.010328412987291813, -0.9368618130683899, 0.8034541010856628, 1.8208658695220947, 2.0959620475769043, -0.7940974235534668, 0.12649205327033997, 1.0117828845977783, -1.6255396604537964, -0.882601261138916, 0.009865162894129753, 0.3607085943222046, -3.0020997524261475, -0.6520065665245056, 0.1164768859744072, -0.8420609831809998, 0.5583093166351318, 0.1425563395023346, -1.0043095350265503, -0.2494860738515854, 1.1659311056137085, -1.0405014753341675, -0.06754915416240692, 0.04539261758327484, 0.051498305052518845, 0.0628889873623848, -0.06670180708169937, 0.0739947184920311], [0.26325103640556335, 1.9537994861602783, -2.052377700805664, -1.0949409008026123, 0.8115108013153076, 0.06021710857748985, -1.3421424627304077, 0.8556960225105286, 0.9850037693977356, 0.08312448114156723, -0.707712709903717, 4.652929306030273, 1.2078495025634766, -0.06705303490161896, 0.23648473620414734, -0.10776830464601517, 0.15119339525699615, 0.8029606938362122, -0.8950845003128052, -2.0122363567352295, -2.214637517929077, 0.9055871367454529, 0.011460833251476288, -1.1940484046936035, 1.6418917179107666, 0.9689750075340271, -0.2717452645301819, -0.4617747366428375, 3.1025335788726807, 0.6683384776115417, -0.19608767330646515, 0.982501745223999, -0.6366038918495178, -0.2037145495414734, 1.1730375289916992, 0.27879682183265686, -1.2874045372009277, 1.2303963899612427, 0.030984511598944664, 0.003179635852575302, -0.06455042958259583, -0.04678242281079292, -0.023876532912254333, -0.10218904912471771], [-0.22201597690582275, -1.8813694715499878, 1.7889598608016968, 0.9580511450767517, -0.614065408706665, 0.1548822671175003, 1.2291589975357056, -0.7951081395149231, -0.9139149188995361, 0.014258326031267643, 0.5764714479446411, -4.240497589111328, -1.118445873260498, -0.13845688104629517, 0.02614256925880909, -0.09887538105249405, -0.05861996114253998, -1.0017081499099731, 0.8254348635673523, 1.9359287023544312, 2.1409382820129395, -0.6729884147644043, 0.03442121297121048, 1.0495128631591797, -1.5234334468841553, -1.0764338970184326, 0.2084054797887802, 0.16738253831863403, -2.9839963912963867, -0.8750203847885132, 0.2892220616340637, -0.854569137096405, 0.7434440851211548, 0.12117739021778107, -0.9712231159210205, -0.2377004474401474, 1.1275765895843506, -1.1621277332305908, -0.03806173428893089, 0.03493933752179146, 0.06369150429964066, 0.0245954692363739, 0.046227939426898956, 0.11014789342880249], [-0.041469596326351166, 1.9331932067871094, -1.7895212173461914, -0.8541128039360046, 0.7842653393745422, -0.1523374766111374, -1.396742343902588, 0.7933885455131531, 0.9400442838668823, -0.015776891261339188, -0.8097617626190186, 4.452390193939209, 1.119966983795166, -0.08479345589876175, 0.1625114530324936, -0.1211550310254097, 0.10612427443265915, 0.9860734939575195, -0.8280543684959412, -1.9477323293685913, -2.027233362197876, 0.7433789372444153, -0.0964181125164032, -1.040286660194397, 1.6023567914962769, 1.0863662958145142, -0.2195364236831665, -0.2805524170398712, 3.1342482566833496, 0.7621632218360901, -0.026494115591049194, 0.9072940349578857, -0.6060641407966614, -0.05817301943898201, 0.837007999420166, 0.13878659904003143, -0.97206050157547, 1.020033359527588, 0.014596378430724144, 0.07230334728956223, -0.07462281733751297, 0.03062606044113636, -0.021854927763342857, -0.006938366685062647], [-0.22607135772705078, -1.8700662851333618, 1.935489535331726, 1.077875018119812, -0.8078655004501343, 0.05267316848039627, 1.1297372579574585, -0.756486177444458, -0.9172185063362122, 0.1559978425502777, 0.743929386138916, -4.394714832305908, -1.1080235242843628, -0.1487545520067215, 0.06715648621320724, -0.0857730507850647, -0.2743595838546753, -0.8488568067550659, 1.0334265232086182, 2.0449862480163574, 2.08522891998291, -0.739913284778595, -0.044206615537405014, 1.1942591667175293, -1.5207743644714355, -1.0577284097671509, 0.03937544673681259, 0.25211289525032043, -3.027130603790283, -0.8904017210006714, 0.25573864579200745, -0.9049261212348938, 0.47158384323120117, -0.021874796599149704, -0.8796258568763733, -0.1865943819284439, 1.0548474788665771, -0.9119133353233337, 0.009721191599965096, -0.03224901109933853, 0.16420753300189972, 0.03179645910859108, -0.03695766255259514, 0.07937759160995483], [-0.11000057309865952, -1.9818729162216187, 1.8685916662216187, 1.1507720947265625, -0.8086628913879395, -0.0762365534901619, 1.475159764289856, -0.927651584148407, -0.9972440600395203, 0.0031961887143552303, 0.7232597470283508, -4.563453674316406, -1.0267945528030396, -0.15153981745243073, -0.11033625155687332, -0.10990210622549057, -0.19924554228782654, -0.8425769209861755, 0.9364535212516785, 1.9702502489089966, 2.2348339557647705, -0.6974179148674011, -0.009975876659154892, 1.2990690469741821, -1.662804126739502, -1.1037312746047974, 0.10482190549373627, 0.30866479873657227, -3.2550578117370605, -0.9154483079910278, 0.016747254878282547, -1.0053225755691528, 0.6045857667922974, 0.12474260479211807, -1.024486780166626, -0.2519822120666504, 1.3496161699295044, -1.138999581336975, 0.04762469232082367, 0.04169570654630661, 0.05868491157889366, 0.03442921116948128, -0.04442460089921951, 0.06738408654928207], [0.10390210151672363, 1.9084668159484863, -1.6897552013397217, -0.9049957394599915, 0.7371693849563599, 0.023545052856206894, -1.1373095512390137, 1.0206331014633179, 1.0553107261657715, 0.027106212452054024, -0.7222079038619995, 4.4275126457214355, 1.0859347581863403, -0.05925111100077629, 0.15056921541690826, -0.12616315484046936, 0.06310705840587616, 0.865205705165863, -1.0293176174163818, -2.023829698562622, -2.0212697982788086, 0.5731595158576965, -0.1690644472837448, -1.2199205160140991, 1.7169800996780396, 0.9696221947669983, -0.13319812715053558, -0.3038700520992279, 3.091188907623291, 0.6250522136688232, -0.22059482336044312, 0.9165657758712769, -0.4625099003314972, -0.14778198301792145, 1.0755462646484375, 0.18560557067394257, -0.9488871097564697, 0.9017200469970703, 0.016580205410718918, 0.014360170811414719, -0.04499571770429611, -0.03406866267323494, -0.08207470178604126, -0.09351318329572678], [0.056964579969644547, 1.5497528314590454, -1.7901262044906616, -1.0168274641036987, 0.7798668146133423, -0.03110034577548504, -1.0959633588790894, 0.9126928448677063, 0.7762492895126343, 0.07527019083499908, -0.7315592169761658, 4.1552653312683105, 1.0156877040863037, -0.09960371255874634, 0.03379277139902115, -0.10751427710056305, 0.035801440477371216, 0.9181786775588989, -1.0841643810272217, -2.001438856124878, -1.9707657098770142, 0.78260737657547, 0.017803745344281197, -1.185712218284607, 1.5257368087768555, 1.1074469089508057, -0.2415170669555664, -0.22793786227703094, 2.811757802963257, 0.7691283226013184, -0.17678186297416687, 1.0231316089630127, -0.6992297172546387, -0.05792582780122757, 0.8693971633911133, 0.26368993520736694, -0.9953184127807617, 1.0062205791473389, 0.03312867879867554, 0.0890219658613205, -0.04729597270488739, -0.02285885624587536, 0.05536308512091637, -0.08044490218162537], [0.16206865012645721, 1.692577838897705, -2.0721969604492188, -1.0975371599197388, 0.7217873334884644, -0.12768061459064484, -1.4218530654907227, 0.9903952479362488, 1.0716136693954468, 0.12981250882148743, -0.8872695565223694, 4.511845588684082, 1.0388805866241455, 0.06109229475259781, 0.16319847106933594, 0.01788514479994774, 0.33526623249053955, 1.025658369064331, -1.1641228199005127, -2.054401397705078, -2.1423964500427246, 0.8444738388061523, -0.09091383963823318, -1.2232062816619873, 1.4811729192733765, 1.068984031677246, -0.02684967778623104, -0.453605055809021, 3.353350877761841, 0.6984810829162598, -0.002485068514943123, 0.7999643683433533, -0.5756189227104187, 0.05878189206123352, 0.8976492881774902, 0.28217872977256775, -1.207701325416565, 1.2439290285110474, -0.02637290582060814, 0.08251278847455978, -0.05005674064159393, 0.05920470878481865, 0.03690497204661369, -0.013063888065516949], [0.15955013036727905, 1.8804818391799927, -1.923906683921814, -1.0218100547790527, 0.8524954915046692, -0.04613940045237541, -1.4174641370773315, 0.9381768107414246, 0.9357988238334656, -0.049769412726163864, -0.8296647071838379, 4.67788028717041, 0.972548246383667, 0.04751482605934143, 0.024241963401436806, -0.10445137321949005, 0.33469024300575256, 1.0327106714248657, -1.1593363285064697, -2.0104193687438965, -2.210843324661255, 0.6593518257141113, 0.08574659377336502, -1.2939112186431885, 1.5960708856582642, 1.140335202217102, -0.12574999034404755, -0.48367345333099365, 3.2950377464294434, 0.8524743318557739, 0.0208283681422472, 0.9794295430183411, -0.6080164313316345, -0.09449570626020432, 0.9285483956336975, 0.4784456193447113, -1.3021390438079834, 1.23369300365448, 0.06480304896831512, 0.03478772193193436, -0.025296146050095558, -0.02565697953104973, -0.048492755740880966, -0.037105102092027664], [-0.2475205957889557, -1.7956103086471558, 1.7370268106460571, 0.796455979347229, -0.8213364481925964, 0.058270640671253204, 1.2746825218200684, -1.0124247074127197, -0.8468653559684753, 0.09852864593267441, 0.5767064690589905, -4.441556453704834, -1.0341638326644897, 0.01019332930445671, -0.1467842310667038, 0.09907173365354538, -0.2852947413921356, -0.8320081233978271, 0.8472558856010437, 2.0059077739715576, 2.0426218509674072, -0.8222535848617554, 0.18007533252239227, 1.168753743171692, -1.5607527494430542, -1.1839327812194824, 0.24850672483444214, 0.39796173572540283, -3.068718433380127, -0.7949825525283813, 0.1926666796207428, -0.8372572660446167, 0.5870713591575623, -0.10628535598516464, -0.8601991534233093, -0.43520933389663696, 1.0972187519073486, -1.0097568035125732, 0.046534083783626556, -0.006473899818956852, 0.026954285800457, -0.0025124072562903166, 0.01861019805073738, 0.10032261908054352], [0.12352795898914337, 1.6980153322219849, -1.789119839668274, -0.8998042345046997, 0.758263349533081, 0.003703183028846979, -1.2332340478897095, 0.9828973412513733, 1.0227864980697632, -0.04694228246808052, -0.7648156881332397, 4.308727264404297, 1.1598756313323975, 0.005776772275567055, 0.08955477178096771, 0.015571669675409794, 0.012035434134304523, 0.8860281705856323, -0.9398330450057983, -2.012249231338501, -2.0816266536712646, 0.6879035830497742, -0.10315114259719849, -1.1959329843521118, 1.601336121559143, 0.9990836381912231, -0.16161257028579712, -0.1831154078245163, 3.0973825454711914, 0.8047065734863281, -0.24263142049312592, 0.7940821051597595, -0.6306675672531128, -0.050998177379369736, 0.9248118996620178, 0.18732549250125885, -1.1196999549865723, 1.1313189268112183, 0.05420307070016861, 0.0749569833278656, -0.0947488397359848, 0.06604321300983429, 0.05595231056213379, -0.10045050829648972], [0.04936263710260391, 1.9301267862319946, -1.9115464687347412, -0.8654481172561646, 0.7008716464042664, -0.09008689224720001, -1.1436617374420166, 0.9545905590057373, 0.9839265942573547, -0.06220012903213501, -0.7584847211837769, 4.479135036468506, 0.9685131311416626, -0.06388943642377853, 0.1402532309293747, 0.11914870142936707, 0.19695813953876495, 1.0072145462036133, -0.891605794429779, -2.132509231567383, -2.0855579376220703, 0.7692806124687195, -0.05350806191563606, -1.083235740661621, 1.7441657781600952, 0.9736019968986511, -0.21093283593654633, -0.3960815966129303, 3.1533968448638916, 0.7122504711151123, -0.06704927980899811, 0.8702295422554016, -0.6482972502708435, 0.03902542591094971, 0.9028459191322327, 0.3122994005680084, -1.0082471370697021, 1.2033578157424927, -0.001542675425298512, 0.10724853724241257, -0.10604196041822433, 0.07010477781295776, -0.056681860238313675, -0.06968274712562561], [-0.016072513535618782, 1.8895938396453857, -1.7252390384674072, -0.8786584138870239, 0.8274775743484497, 0.07917439192533493, -1.1571309566497803, 0.9147874116897583, 0.9113137722015381, 0.08736260235309601, -0.5701013207435608, 4.199172496795654, 0.8981000185012817, -0.05671175941824913, -0.02813938818871975, -0.08968725055456161, 0.15235738456249237, 1.0400116443634033, -1.074736475944519, -2.046116828918457, -1.9754010438919067, 0.666996419429779, -0.1896408051252365, -0.9886770844459534, 1.5763919353485107, 1.0300548076629639, -0.20579886436462402, -0.28378960490226746, 3.0964813232421875, 0.5991614460945129, -0.10717736929655075, 0.8859162330627441, -0.7100546360015869, -0.0004583420814014971, 1.0109721422195435, 0.40099719166755676, -1.1656452417373657, 0.9712164998054504, 0.0851401537656784, 0.02241799421608448, -0.13718436658382416, -0.006987732369452715, 0.032089963555336, -0.0638393834233284], [0.03031073324382305, 1.8330729007720947, -1.8372876644134521, -0.9868125319480896, 0.7796196341514587, 0.0774146169424057, -1.28144371509552, 0.7712739109992981, 0.8699346780776978, 0.013405299745500088, -0.8605287075042725, 4.4994425773620605, 1.0275969505310059, -0.07908622920513153, 0.0137181943282485, -0.11839789897203445, 0.1821783035993576, 0.8509856462478638, -1.0611577033996582, -2.0657942295074463, -2.1434926986694336, 0.8533836007118225, 0.020393526181578636, -1.040605902671814, 1.502117395401001, 0.9660797715187073, -0.16619090735912323, -0.42288511991500854, 3.198629856109619, 0.6343654990196228, -0.03844186291098595, 0.8210031986236572, -0.6155871748924255, -0.12682439386844635, 1.1030919551849365, 0.42080599069595337, -1.0701028108596802, 1.153210997581482, -0.08862262219190598, 0.05586269497871399, -0.0660073310136795, 0.09931724518537521, -0.007319020573049784, 0.04058567062020302], [0.10270136594772339, 1.5440315008163452, -1.5742295980453491, -0.9502562880516052, 0.5299548506736755, 0.04156634956598282, -1.1817790269851685, 0.8442721962928772, 0.7915201783180237, -0.07188978046178818, -0.7506259679794312, 3.835740327835083, 1.0908421277999878, 0.05071064084768295, -0.008029717020690441, 0.06179168447852135, 0.08184243738651276, 0.9637582898139954, -0.9490700364112854, -1.9152131080627441, -1.7149375677108765, 0.5191192030906677, -0.14108432829380035, -1.151239037513733, 1.4406756162643433, 0.9563546776771545, -0.11314485967159271, -0.32001686096191406, 2.652111053466797, 0.6639775037765503, -0.2669699788093567, 0.7886035442352295, -0.40996885299682617, -0.07139850407838821, 0.9724072813987732, 0.2713247537612915, -0.9865824580192566, 1.018407940864563, 0.07174477726221085, -0.011209065094590187, -0.15166854858398438, -0.07508392632007599, 0.06533898413181305, -0.07019210606813431], [-0.03897828981280327, -1.667850136756897, 1.8882650136947632, 0.9692833423614502, -0.7776384949684143, 0.15126864612102509, 1.2621792554855347, -0.83365398645401, -0.9062892198562622, -0.06339246779680252, 0.6007508039474487, -4.209592342376709, -1.17911696434021, -0.11303010582923889, -0.007678160443902016, -0.12395261228084564, -0.21307359635829926, -0.8253847360610962, 0.8617712259292603, 2.006913900375366, 1.9884037971496582, -0.6657372117042542, 0.06087635084986687, 1.0398871898651123, -1.6079566478729248, -1.0273165702819824, 0.12159109115600586, 0.2049313634634018, -2.8163769245147705, -0.6489723324775696, 0.08486495912075043, -1.0565580129623413, 0.662976086139679, 0.17027568817138672, -0.985481321811676, -0.25812220573425293, 1.1347606182098389, -0.9078338742256165, -0.014327384531497955, 0.03764818608760834, 0.12676329910755157, 0.03729576990008354, -0.021890949457883835, 0.0032005293760448694], [0.07905766367912292, 1.594699740409851, -1.6970570087432861, -0.7702758312225342, 0.6702916622161865, -0.016889013350009918, -1.2405709028244019, 0.68735271692276, 0.7636238932609558, 0.1086556687951088, -0.6492857336997986, 4.0336594581604, 1.1139355897903442, 0.10221105068922043, 0.14828750491142273, -0.05871729552745819, 0.2258126139640808, 0.7255822420120239, -0.8706161379814148, -1.681261420249939, -1.9173557758331299, 0.6039035320281982, 0.05278290435671806, -1.1245523691177368, 1.5983555316925049, 0.9558405876159668, -0.15296722948551178, -0.1944015771150589, 2.7192203998565674, 0.5535523891448975, -0.27541759610176086, 0.9355047345161438, -0.6015981435775757, -0.031427741050720215, 0.8976649045944214, 0.1773822158575058, -1.0522328615188599, 0.8301761746406555, -0.039974622428417206, -0.016657844185829163, -0.0010588729055598378, -0.06817954033613205, -0.06255093216896057, -0.009469350799918175], [-0.22777341306209564, -1.6954118013381958, 1.8008872270584106, 0.8385093212127686, -0.8526560068130493, 0.18042540550231934, 1.3576838970184326, -0.8653908371925354, -1.0465435981750488, -0.033201664686203, 0.7973129153251648, -4.311251640319824, -1.0107183456420898, -0.07846378535032272, -0.006868528667837381, -0.038607873022556305, -0.22003373503684998, -1.0658522844314575, 1.0196565389633179, 1.9125947952270508, 1.9918479919433594, -0.8070048689842224, -0.08296066522598267, 1.0081883668899536, -1.6710542440414429, -1.0843505859375, 0.27118873596191406, 0.278897762298584, -3.011403799057007, -0.7036643028259277, 0.2211429327726364, -0.8126475811004639, 0.5768998265266418, 0.029025254771113396, -1.0029996633529663, -0.20957107841968536, 0.9370625615119934, -0.9084197282791138, 0.04700499027967453, -0.07458936423063278, 0.15510734915733337, -0.026136815547943115, -0.058076318353414536, 0.08045835047960281], [0.10538738965988159, 1.658726692199707, -1.7240712642669678, -0.8963898420333862, 0.6931536793708801, -0.14397840201854706, -1.11080801486969, 0.8700935244560242, 0.9074717164039612, 0.07476375252008438, -0.5826366543769836, 3.9328455924987793, 0.785263180732727, -0.003517745528370142, 0.015871500596404076, -0.004641743376851082, 0.0623503103852272, 0.9358336925506592, -0.9772258996963501, -1.8770869970321655, -2.024782419204712, 0.663152277469635, -0.12617598474025726, -1.1082428693771362, 1.6643725633621216, 0.8887964487075806, -0.02531888522207737, -0.21297520399093628, 2.868692636489868, 0.5631968975067139, -0.11386597901582718, 0.9853161573410034, -0.4869575500488281, -0.16029688715934753, 0.894138514995575, 0.24820508062839508, -0.9647432565689087, 1.0450630187988281, -0.028431475162506104, 0.05436253547668457, -0.09626434743404388, 0.06537038832902908, 0.04376202076673508, 0.023633476346731186], [-0.009853447787463665, -2.164626121520996, 1.8222867250442505, 1.0071134567260742, -0.6926596164703369, 0.13985078036785126, 1.2423354387283325, -0.7717887759208679, -1.098243236541748, -0.034434325993061066, 0.7369630932807922, -4.3723673820495605, -1.0486066341400146, -0.13330568373203278, 0.0006018559215590358, 0.03295721486210823, -0.2471078783273697, -1.075777292251587, 0.8717367053031921, 2.1151437759399414, 2.2895939350128174, -0.6673291921615601, 0.17753565311431885, 1.1236131191253662, -1.6898921728134155, -1.0995408296585083, 0.18204635381698608, 0.16757416725158691, -3.051424264907837, -0.9172084331512451, 0.1102781891822815, -1.0681291818618774, 0.7267709970474243, 0.230344757437706, -1.1930800676345825, -0.42792025208473206, 1.124661922454834, -0.999752938747406, -0.07888663560152054, 0.016939915716648102, 0.12398408353328705, 0.026698417961597443, 0.011402752250432968, 0.029354508966207504], [0.2218436747789383, 1.6392990350723267, -1.6053547859191895, -0.8164904117584229, 0.7712761163711548, -0.06559969484806061, -1.213715672492981, 0.8035973310470581, 0.7595735192298889, -0.06904809176921844, -0.5902153253555298, 3.7930872440338135, 0.8442376255989075, 0.005517285782843828, 0.04120507463812828, -0.133401021361351, 0.13808442652225494, 0.7023245096206665, -1.0482542514801025, -1.9455443620681763, -1.929153561592102, 0.6888056993484497, 0.06577499955892563, -1.0096549987792969, 1.43831467628479, 0.910112738609314, -0.08102130889892578, -0.374838262796402, 2.8192334175109863, 0.7315222024917603, -0.13560758531093597, 0.8722622394561768, -0.6110381484031677, -0.00021123941405676305, 0.7518782615661621, 0.4029485285282135, -1.0730916261672974, 0.977418839931488, -0.08890851587057114, -0.07600557059049606, -0.16111363470554352, 0.013742215931415558, 0.07495484501123428, 0.03128567337989807], [0.23827190697193146, 1.6519463062286377, -1.9065709114074707, -1.0433188676834106, 0.6278942227363586, 0.08898039162158966, -1.1967617273330688, 0.8562883138656616, 1.051557183265686, -0.13882501423358917, -0.826310396194458, 4.171713352203369, 0.942425012588501, 0.0982302576303482, 0.1986638903617859, -0.12951146066188812, 0.28060224652290344, 0.8868040442466736, -1.0812922716140747, -1.8840874433517456, -1.915542483329773, 0.6582340002059937, -0.09664097428321838, -1.0652188062667847, 1.5821881294250488, 1.1633347272872925, -0.13438600301742554, -0.3812861144542694, 3.076150894165039, 0.7797742486000061, -0.2746449112892151, 0.852085292339325, -0.46725013852119446, -0.10404859483242035, 1.0532779693603516, 0.4022216200828552, -1.0240166187286377, 0.882077157497406, 0.011718238703906536, -0.017139863222837448, -0.15991967916488647, -0.025584204122424126, 0.008260654285550117, -0.0358012355864048], [-0.17747201025485992, -2.0044162273406982, 2.058555841445923, 0.9658816456794739, -0.8225846886634827, 0.120277538895607, 1.497398018836975, -0.9916180968284607, -0.8768668174743652, -0.10139603912830353, 0.7126827239990234, -4.681620121002197, -1.2189373970031738, -0.13022887706756592, -0.21307967603206635, -0.005370730999857187, -0.24848462641239166, -0.8224073648452759, 0.9662326574325562, 2.074810028076172, 2.3044588565826416, -0.8290439248085022, -0.07603993266820908, 1.1313707828521729, -1.5211842060089111, -1.0036509037017822, 0.26403117179870605, 0.42965084314346313, -3.2726290225982666, -0.7620627880096436, 0.25222712755203247, -0.7986893057823181, 0.583465039730072, -0.041530512273311615, -1.0655992031097412, -0.3394975960254669, 1.267287015914917, -1.2550629377365112, -0.03509792312979698, -0.006578715983778238, 0.12644074857234955, 0.016683990135788918, -0.011949272826313972, 0.04121430218219757], [-0.17591623961925507, -2.022123098373413, 1.8700836896896362, 1.0173205137252808, -0.8067944645881653, 0.10062284022569656, 1.4084854125976562, -0.7901852130889893, -1.0171383619308472, -0.16132713854312897, 0.7679308652877808, -4.484092712402344, -0.9687418341636658, -0.180686816573143, -0.16397947072982788, 0.1256987452507019, -0.17048175632953644, -1.0401829481124878, 0.9767810106277466, 2.0891501903533936, 2.0521135330200195, -0.6120481491088867, -0.037306323647499084, 1.1956692934036255, -1.5098751783370972, -1.1118230819702148, 0.1978316754102707, 0.4118502736091614, -3.0484983921051025, -0.7092210650444031, 0.10982587188482285, -0.982397735118866, 0.5950160622596741, -0.0006994337309151888, -0.9823235869407654, -0.30791857838630676, 1.1550321578979492, -1.055219292640686, -0.005950737278908491, 0.0208450797945261, 0.01309322752058506, -0.06209827587008476, -0.05327523127198219, 0.022409025579690933], [-0.07189289480447769, -1.9032875299453735, 1.7797530889511108, 0.9789211750030518, -0.5941069722175598, -0.057006578892469406, 1.1892640590667725, -1.0177443027496338, -0.8629483580589294, -0.10596232861280441, 0.7307241559028625, -4.263535976409912, -0.9957697987556458, 0.015277663245797157, -0.008311144076287746, 0.07663923501968384, -0.09498711675405502, -0.9181191325187683, 1.0019404888153076, 1.8144222497940063, 1.855819821357727, -0.7280552387237549, 0.2011163979768753, 1.0617092847824097, -1.7492557764053345, -0.9353594183921814, 0.09159670770168304, 0.1321977823972702, -3.0122196674346924, -0.7534527778625488, 0.25790247321128845, -1.0647910833358765, 0.6937577128410339, 0.0017436542548239231, -0.8184306621551514, -0.19473247230052948, 0.9534947872161865, -0.888786792755127, -0.08064106106758118, -0.012898709625005722, 0.15541444718837738, 0.042711835354566574, -0.007939915172755718, -0.05311202257871628], [-0.10116685181856155, -1.993539810180664, 2.0590100288391113, 1.0017518997192383, -0.8527176380157471, -0.00580201018601656, 1.3343932628631592, -0.9961318373680115, -0.9827564358711243, -0.14978653192520142, 0.8142468333244324, -4.52005672454834, -1.1378004550933838, 0.05280197039246559, -0.14426492154598236, 0.07356619089841843, -0.20469345152378082, -0.8889939188957214, 1.1320152282714844, 2.1035680770874023, 2.068476438522339, -0.7656380534172058, -0.005594868212938309, 1.2431275844573975, -1.6438345909118652, -1.2192453145980835, 0.09123633801937103, 0.40037551522254944, -3.248166561126709, -0.8173626661300659, 0.15594922006130219, -0.8600215315818787, 0.7002673745155334, -0.01307057123631239, -1.1551039218902588, -0.33100181818008423, 1.0964363813400269, -1.0764275789260864, 0.010778040625154972, -0.06083197891712189, 0.14973753690719604, -0.0755472332239151, -0.06975743919610977, 0.003472350537776947], [-0.09981943666934967, -1.7439225912094116, 1.7303540706634521, 0.8405129313468933, -0.7495723962783813, 0.08308400213718414, 1.3068230152130127, -0.8945001363754272, -1.0220158100128174, 0.15099911391735077, 0.630709171295166, -4.0594377517700195, -1.061540961265564, -0.013043904677033424, -0.18449415266513824, -0.026857949793338776, -0.13807594776153564, -0.9731633067131042, 0.9269613027572632, 2.0150346755981445, 1.847906231880188, -0.6898776888847351, -0.06439918279647827, 1.2427276372909546, -1.5436547994613647, -1.0316303968429565, 0.07314830273389816, 0.2316446155309677, -3.0458104610443115, -0.6264210343360901, 0.0036901854909956455, -0.8518537282943726, 0.46892011165618896, 0.078057199716568, -0.9517374634742737, -0.13921093940734863, 1.160162329673767, -0.8463027477264404, -0.030433516949415207, 0.044175367802381516, 0.03420863673090935, 0.06882490962743759, 0.052630696445703506, 0.004690323956310749], [0.10879730433225632, 1.9343430995941162, -2.077476978302002, -0.9897280931472778, 0.8393216729164124, -0.05846162512898445, -1.5223064422607422, 0.8520587086677551, 0.9345218539237976, 0.16189143061637878, -0.7816963791847229, 4.700052261352539, 0.9858880639076233, 0.0865570530295372, -0.06586448848247528, -0.043535273522138596, 0.22587254643440247, 0.9788578152656555, -1.1232516765594482, -2.100794553756714, -2.0201876163482666, 0.6799403429031372, -0.1725766658782959, -1.2672821283340454, 1.6295539140701294, 1.1065247058868408, 0.009936727583408356, -0.23137785494327545, 3.265904664993286, 0.6317768096923828, -0.0728609710931778, 0.8756179809570312, -0.6219421625137329, 0.06769683957099915, 1.1532502174377441, 0.25827211141586304, -1.1946560144424438, 1.21034836769104, 0.04084871709346771, 0.04588979110121727, -0.029308177530765533, 0.04999614506959915, 0.03973427787423134, 0.013516307808458805], [-0.23294927179813385, -1.9403990507125854, 1.6987005472183228, 1.0358021259307861, -0.7789596319198608, -0.03878238424658775, 1.0955259799957275, -0.8374155163764954, -0.8276844024658203, 0.05555202066898346, 0.8013282418251038, -4.339574813842773, -0.9311068654060364, 0.04338967427611351, 0.03725836053490639, -0.09573326259851456, -0.02659606747329235, -1.035482406616211, 1.0081689357757568, 1.8685874938964844, 2.0258374214172363, -0.7916105389595032, 0.08438703417778015, 1.252417802810669, -1.5918782949447632, -1.0205163955688477, 0.25641772150993347, 0.2354387789964676, -2.8638596534729004, -0.8015178442001343, 0.06723099946975708, -0.9946743249893188, 0.5113683938980103, -0.02433081530034542, -0.9404786229133606, -0.2620197832584381, 1.0436620712280273, -0.9939559698104858, 0.05818449705839157, -0.014789135195314884, 0.05964599549770355, -0.018892863765358925, 0.09375640004873276, -0.057549480348825455], [-0.002345699118450284, 1.8449078798294067, -1.8221067190170288, -0.951627254486084, 0.8309007883071899, 0.08399347960948944, -1.326246976852417, 1.069799542427063, 1.1335012912750244, -0.08587769418954849, -0.8566831946372986, 4.604345798492432, 1.045989751815796, -0.014876292087137699, 0.17978785932064056, 0.1430915892124176, 0.05894077569246292, 0.9942938089370728, -1.0730842351913452, -1.9343299865722656, -2.1059610843658447, 0.7266810536384583, -0.004385579843074083, -1.277936577796936, 1.6198978424072266, 1.0113804340362549, -0.18999968469142914, -0.394731730222702, 3.2166852951049805, 0.6545367240905762, -0.1389254927635193, 0.9712134003639221, -0.7003266215324402, -0.023832030594348907, 1.0166490077972412, 0.28891220688819885, -1.0490663051605225, 1.1313644647598267, -0.07824696600437164, 0.00021934289543423802, -0.043187014758586884, 0.07218591123819351, 0.029998691752552986, -0.05282342806458473], [-0.1282745897769928, -1.7626954317092896, 1.9409964084625244, 0.8933084607124329, -0.6437727808952332, 0.008832956664264202, 1.2192097902297974, -0.8601540923118591, -1.132638931274414, -0.08317268639802933, 0.6833122372627258, -4.475861549377441, -1.2049380540847778, -0.11703379452228546, -0.03705938160419464, -0.1426898092031479, -0.057155791670084, -1.0314702987670898, 0.8435274362564087, 2.0829544067382812, 2.195612668991089, -0.6944187879562378, 0.11446443945169449, 1.2716929912567139, -1.7048295736312866, -1.1988919973373413, 0.15456484258174896, 0.31354981660842896, -3.1266236305236816, -0.808515727519989, 0.25192582607269287, -0.8002154231071472, 0.6991167068481445, 0.14158126711845398, -1.0205886363983154, -0.43539249897003174, 1.1767784357070923, -0.9726089239120483, -0.03618251532316208, 0.04544350132346153, 0.10436920076608658, 0.032118868082761765, -0.03290151432156563, 0.044552139937877655], [-0.20784197747707367, -1.8868787288665771, 1.7294375896453857, 0.8459792137145996, -0.765002965927124, 0.20995019376277924, 1.1723867654800415, -0.7743915915489197, -0.9829277992248535, 0.06603250652551651, 0.6009824872016907, -4.396239280700684, -1.1260696649551392, -0.031771980226039886, 0.04223345220088959, 0.15361177921295166, -0.18520687520503998, -0.9682376980781555, 0.9247782826423645, 2.0929677486419678, 1.9466561079025269, -0.6273539662361145, -0.07251934707164764, 1.192195177078247, -1.5776960849761963, -0.941739559173584, 0.16485610604286194, 0.21809636056423187, -2.9083328247070312, -0.8591194748878479, 0.18868796527385712, -0.9877284169197083, 0.5389237999916077, -0.049414653331041336, -1.0234535932540894, -0.39221009612083435, 1.2546201944351196, -1.010169267654419, 0.01987653225660324, 0.0394866019487381, 0.09637350589036942, -0.053422462195158005, -0.04358483850955963, -0.028914984315633774], [-0.18175406754016876, -2.0332698822021484, 1.9678831100463867, 1.0322810411453247, -0.7669456601142883, 0.09707135707139969, 1.47025728225708, -0.9907349944114685, -1.0416587591171265, -0.0978158563375473, 0.608212947845459, -4.652352809906006, -1.1440693140029907, -0.20512816309928894, 0.06685546785593033, -0.04644935578107834, -0.3286855220794678, -0.9431127905845642, 1.0137362480163574, 2.191964626312256, 2.2067339420318604, -0.8889554142951965, -0.036668792366981506, 1.0792537927627563, -1.5236539840698242, -0.9656583070755005, 0.02408483996987343, 0.4495731294155121, -3.1257874965667725, -0.7052276730537415, 0.073020339012146, -0.7970743179321289, 0.7341809868812561, 0.08465349674224854, -0.9888496398925781, -0.2599172294139862, 1.2329227924346924, -1.0776599645614624, -0.056530267000198364, 0.023822104558348656, 0.10968399047851562, -0.03950819745659828, 0.023815374821424484, -0.04893023520708084], [0.19135543704032898, 1.545693278312683, -1.8914711475372314, -1.0080033540725708, 0.6918633580207825, -0.07372396439313889, -1.2469630241394043, 0.8624563813209534, 0.8015724420547485, 0.04283561930060387, -0.6974358558654785, 4.029028415679932, 1.1034257411956787, 0.08627176284790039, 0.0951584056019783, 0.0316181555390358, 0.1101236343383789, 0.867062509059906, -0.9653905630111694, -1.897101640701294, -2.0051686763763428, 0.586997389793396, -0.05286671221256256, -1.1820502281188965, 1.693511724472046, 0.993660032749176, -0.1698232740163803, -0.2266189008951187, 2.8411269187927246, 0.8067356944084167, -0.31767985224723816, 0.7034521698951721, -0.5069805383682251, 0.016588058322668076, 1.0101487636566162, 0.24210885167121887, -0.9140434861183167, 0.9875173568725586, -0.014203677885234356, 0.04111868143081665, -0.009873243980109692, 0.03299226984381676, -0.06649965047836304, -0.11796125024557114], [-0.1753619760274887, -1.7108291387557983, 1.6643022298812866, 0.824402391910553, -0.7110792994499207, 0.15418320894241333, 1.2785168886184692, -0.8817313313484192, -0.9734334945678711, -0.014787676744163036, 0.6133157014846802, -4.091357231140137, -0.9676406383514404, 0.02803266979753971, -0.20012018084526062, -0.11465231329202652, -0.019023727625608444, -0.9740393161773682, 1.079982876777649, 1.9209589958190918, 2.1171655654907227, -0.6476492285728455, 0.022488994523882866, 1.2102208137512207, -1.6731551885604858, -1.1412450075149536, 0.2919260859489441, 0.18002137541770935, -2.899822950363159, -0.8657358288764954, 0.02304569073021412, -0.7889703512191772, 0.6703361868858337, 0.20697902143001556, -0.91291743516922, -0.2659185230731964, 0.9110726118087769, -0.9978482127189636, 0.021318404003977776, -0.03544076159596443, 0.085859015583992, 0.013507798314094543, 0.015875177457928658, 0.04300019145011902], [0.13724935054779053, 1.8613616228103638, -1.9275710582733154, -1.0389443635940552, 0.6707197427749634, -0.0425676666200161, -1.2015303373336792, 0.781033456325531, 1.066203236579895, -0.1363859474658966, -0.7268609404563904, 4.287930488586426, 1.193082571029663, 0.09443129599094391, 0.12642048299312592, 0.13722194731235504, 0.27707353234291077, 0.8339836001396179, -1.014072060585022, -1.9573851823806763, -2.094280242919922, 0.8333370685577393, -0.20573773980140686, -1.175506591796875, 1.5547360181808472, 0.9539947509765625, -0.24041640758514404, -0.18242555856704712, 3.1256768703460693, 0.849590539932251, -0.2541661560535431, 0.8333786129951477, -0.7008087038993835, -0.17613525688648224, 1.1046448945999146, 0.1494971513748169, -1.050075888633728, 1.0024471282958984, 0.08322396129369736, 0.03525670990347862, -0.11717624217271805, -0.058627303689718246, 0.017669677734375, -0.02851659059524536], [-0.020383328199386597, -1.9862303733825684, 1.888266921043396, 0.8544862866401672, -0.8495506644248962, -0.0048666419461369514, 1.3824280500411987, -0.9126951694488525, -0.9830622673034668, -0.08498327434062958, 0.790696382522583, -4.600587368011475, -1.1165155172348022, -0.14954836666584015, -0.04237494245171547, 8.381842781091109e-05, -0.24985221028327942, -0.8642825484275818, 1.1227071285247803, 2.079301118850708, 1.9973654747009277, -0.6202004551887512, 0.09749004244804382, 1.1559937000274658, -1.5139323472976685, -0.9866765141487122, 0.18640196323394775, 0.33209487795829773, -3.213263750076294, -0.7405872941017151, 0.28176432847976685, -0.9977632761001587, 0.7115698456764221, -0.06934239715337753, -1.132214903831482, -0.19643864035606384, 1.1100757122039795, -1.1695343255996704, -0.013246371410787106, -0.07903893291950226, 0.07956988364458084, -0.0037874500267207623, -0.04202238842844963, 0.03882405906915665], [-0.2355356067419052, -1.8069974184036255, 1.7716413736343384, 1.0304728746414185, -0.6781876683235168, 0.016920307651162148, 1.3417558670043945, -0.8279671669006348, -0.896687924861908, -0.01828494481742382, 0.7926050424575806, -4.293636322021484, -0.9990431070327759, -0.01853863336145878, -0.14606481790542603, 0.049064673483371735, -0.07672816514968872, -0.9915933012962341, 0.9786054491996765, 2.113172769546509, 1.9627175331115723, -0.7514190673828125, 0.15600688755512238, 1.2072639465332031, -1.5833674669265747, -1.1833419799804688, 0.030018866062164307, 0.2295939028263092, -3.252660036087036, -0.9323083162307739, 0.15215007960796356, -1.0402041673660278, 0.4642043113708496, -0.07797220349311829, -0.919989287853241, -0.2327757179737091, 1.2690798044204712, -1.0641695261001587, -0.016220202669501305, -0.05808456614613533, 0.08629488199949265, -0.05333453044295311, 0.0023646384943276644, 0.031848542392253876], [0.19665881991386414, 1.7823821306228638, -1.6647981405258179, -0.9842953085899353, 0.6940730214118958, -0.007862303406000137, -1.0555680990219116, 0.741498589515686, 0.8740398287773132, 0.05423222482204437, -0.6263863444328308, 3.913057565689087, 1.0671944618225098, -0.07045842707157135, -0.021028121933341026, -0.08818520605564117, 0.13916850090026855, 0.8420442342758179, -0.9497279524803162, -1.9342437982559204, -2.002701759338379, 0.7394832968711853, -0.030226582661271095, -1.1335331201553345, 1.7171063423156738, 0.8834333419799805, -0.2364966869354248, -0.3181729316711426, 2.799379825592041, 0.7572252750396729, -0.027699066326022148, 0.858302891254425, -0.5628727674484253, -0.04665910825133324, 0.7867415547370911, 0.2199355661869049, -1.0285948514938354, 1.014185905456543, -0.08348987251520157, 0.08788689225912094, -0.06534597277641296, 0.02219970151782036, -0.06011863425374031, -0.05719692260026932], [0.1830231249332428, 1.858329176902771, -1.6742796897888184, -0.836186408996582, 0.738053560256958, -0.018440593034029007, -1.1264070272445679, 0.8991718292236328, 0.7851191759109497, 0.02051476575434208, -0.693779468536377, 3.958937406539917, 0.8679717779159546, -0.05339678004384041, 0.02853773906826973, -0.010480884462594986, 0.10009638965129852, 0.8428153991699219, -0.9263643622398376, -1.9880911111831665, -2.1087374687194824, 0.766619861125946, 0.01636168546974659, -1.170689344406128, 1.590846300125122, 0.8729968070983887, -0.0934402197599411, -0.276127427816391, 2.941420316696167, 0.6096136569976807, -0.031247179955244064, 0.9474887847900391, -0.6920238137245178, -0.01872379705309868, 0.9809852838516235, 0.2814171016216278, -0.9651241898536682, 0.8959762454032898, -0.02394244261085987, 0.0780666172504425, -0.16208578646183014, 0.07944855093955994, -0.009651588276028633, 0.026400718837976456], [0.18556877970695496, 1.7067323923110962, -1.8568506240844727, -1.100836157798767, 0.7264477610588074, 0.01968666911125183, -1.4628418684005737, 0.9312783479690552, 1.0799939632415771, -0.04374370723962784, -0.8461114764213562, 4.672504425048828, 1.2006076574325562, 0.1929902285337448, -0.031326912343502045, -0.08337172120809555, 0.051377180963754654, 0.909480631351471, -1.1375092267990112, -2.093116283416748, -2.114260196685791, 0.6711956262588501, -0.0018029642524197698, -1.211606740951538, 1.556971788406372, 0.952613115310669, -0.11222045868635178, -0.47741663455963135, 3.3987951278686523, 0.695419192314148, 0.0033421767875552177, 0.8471651077270508, -0.5273059010505676, -0.0615207813680172, 1.0394811630249023, 0.16367901861667633, -1.1757469177246094, 1.2193928956985474, 0.06534610688686371, 0.033854078501462936, -0.0945681482553482, 0.019469033926725388, 0.03744969516992569, 0.035039037466049194], [-0.20055440068244934, -1.8716716766357422, 1.7705655097961426, 0.751844584941864, -0.658633291721344, 0.15361325442790985, 1.0217132568359375, -0.7915515899658203, -0.8757501244544983, 0.015651008114218712, 0.6071695685386658, -4.053704261779785, -1.0752164125442505, 0.07731600105762482, 0.005414479412138462, 0.11413723230361938, -0.32325711846351624, -0.7543580532073975, 0.8248493671417236, 1.8230997323989868, 1.892565131187439, -0.5541331768035889, -0.02033854089677334, 1.1328946352005005, -1.6373381614685059, -0.8833236694335938, 0.022864563390612602, 0.36561575531959534, -2.875725507736206, -0.8328802585601807, 0.170761838555336, -0.9090899229049683, 0.578941285610199, 0.10188070684671402, -1.0834177732467651, -0.42597538232803345, 0.9061848521232605, -0.8774161338806152, -0.05858933925628662, 0.032961778342723846, 0.13369527459144592, 0.025989534333348274, 0.01473410613834858, 0.06144144758582115], [0.040680792182683945, -1.907225251197815, 1.8133021593093872, 0.8725798726081848, -0.6923077702522278, 0.02593141794204712, 1.089860200881958, -0.8245702981948853, -0.8739897608757019, 0.1139913871884346, 0.8000550866127014, -4.135420322418213, -0.9248260259628296, -0.005556956399232149, 0.008261613547801971, -0.05077467858791351, -0.2962578535079956, -1.016710877418518, 0.9291752576828003, 1.783543586730957, 1.9262429475784302, -0.8407702445983887, -0.061350587755441666, 1.1785626411437988, -1.4528969526290894, -0.9951236844062805, 0.1582164764404297, 0.41768670082092285, -2.8153076171875, -0.5890170931816101, 0.06876717507839203, -0.782019317150116, 0.5319823622703552, 0.21801891922950745, -1.1040583848953247, -0.27559322118759155, 0.9884419441223145, -1.0789204835891724, 0.09163687378168106, 0.03687899559736252, 0.09193476289510727, -0.03476124256849289, 0.08233480155467987, -0.01415078155696392], [0.2330249547958374, 1.8602656126022339, -1.843014121055603, -0.9345377087593079, 0.647384762763977, 0.0742468535900116, -1.2410086393356323, 0.9634209275245667, 0.8683377504348755, 0.03138172999024391, -0.7178182601928711, 4.113846778869629, 1.0491466522216797, 0.11845473200082779, 0.22127871215343475, -0.15224646031856537, 0.1852756142616272, 0.8160759806632996, -0.9724327325820923, -1.8411865234375, -1.923984169960022, 0.5510218143463135, -0.20858457684516907, -1.0921714305877686, 1.5925003290176392, 0.9983547329902649, -0.29104095697402954, -0.41127756237983704, 3.003932476043701, 0.6059760451316833, -0.19914688169956207, 0.9258615970611572, -0.5386697053909302, 0.05008602514863014, 0.9228725433349609, 0.3414596617221832, -0.901870846748352, 1.0939351320266724, 0.014184853062033653, -0.002292865887284279, -0.1624111831188202, -0.05191429331898689, -0.06516813486814499, 0.02565227635204792], [0.21168252825737, 1.961226463317871, -2.015458583831787, -1.0479623079299927, 0.8942562341690063, -0.06807071715593338, -1.4046669006347656, 0.8429057598114014, 0.9064330458641052, 0.0696689784526825, -0.7980864644050598, 4.591823101043701, 1.105623483657837, -0.03452740237116814, 0.03151397779583931, 0.003307477105408907, 0.22393502295017242, 1.0516351461410522, -1.042627215385437, -2.0953168869018555, -2.393705368041992, 0.8758161664009094, 0.02490750141441822, -1.1518704891204834, 1.706309199333191, 1.1159805059432983, -0.2357739955186844, -0.30833232402801514, 3.1839377880096436, 0.8772906064987183, -0.29330211877822876, 0.9617274403572083, -0.6490337252616882, -0.06950388103723526, 1.1006509065628052, 0.3889874815940857, -1.3288511037826538, 1.089585542678833, -0.016525039449334145, 0.04663527011871338, 0.007306705228984356, 0.09329470247030258, -0.043948944658041, -0.05133621394634247], [0.05123309791088104, 1.5061286687850952, -1.6100387573242188, -0.8207316994667053, 0.6494685411453247, -0.15943531692028046, -1.0107378959655762, 0.8631591796875, 0.9450398087501526, -0.0076384698040783405, -0.495130717754364, 3.9724419116973877, 0.8114246129989624, -0.057526905089616776, 0.022175874561071396, 0.10992463678121567, 0.14183378219604492, 0.7531868815422058, -0.9478690028190613, -1.7053296566009521, -1.8777004480361938, 0.4868854284286499, 0.020762216299772263, -0.9954402446746826, 1.4538253545761108, 0.8532820343971252, -0.26426294445991516, -0.32061901688575745, 2.7571513652801514, 0.5909451246261597, -0.29443997144699097, 0.7495281100273132, -0.5218603610992432, -0.19042569398880005, 0.7328372597694397, 0.23834121227264404, -1.0078266859054565, 0.9968318939208984, 0.05434270575642586, -0.035673774778842926, -0.09021259099245071, -0.013653387315571308, 0.043177466839551926, 0.05787258595228195], [0.0543903186917305, 1.7230275869369507, -1.5809836387634277, -0.8847976326942444, 0.6617323160171509, -0.11167518049478531, -1.131962776184082, 0.7807582020759583, 0.8582202792167664, -0.12870116531848907, -0.6342846155166626, 3.9979002475738525, 1.0543233156204224, 0.13562536239624023, 0.11801807582378387, -0.17752705514431, 0.2236579805612564, 0.8813112378120422, -1.034969687461853, -1.742567777633667, -1.999289870262146, 0.5021153092384338, 0.0408121719956398, -1.006161093711853, 1.5272438526153564, 0.7921712398529053, -0.12084844708442688, -0.3152698874473572, 2.7837209701538086, 0.7359408736228943, -0.055296774953603745, 0.9732761383056641, -0.6796458959579468, 0.008036013692617416, 0.7745561003684998, 0.22812941670417786, -1.0148051977157593, 1.0190646648406982, 0.02347569167613983, -0.03373100608587265, -0.13290834426879883, -0.0923963338136673, -0.06178521364927292, 0.039563003927469254], [-0.17222416400909424, -2.112351417541504, 1.7016185522079468, 0.9620621800422668, -0.6711231470108032, 0.20963908731937408, 1.0739153623580933, -0.6573835015296936, -0.9591575860977173, 0.13595330715179443, 0.5274790525436401, -3.7705976963043213, -1.1109747886657715, 0.018032001331448555, -0.2972615659236908, -0.13293145596981049, -0.0024305337574332952, -0.8976396322250366, 0.9237380027770996, 2.104191780090332, 2.0299017429351807, -0.7434301376342773, 0.28799521923065186, 0.913986086845398, -1.9961808919906616, -1.0758204460144043, 0.2919180691242218, 0.28148892521858215, -2.4651834964752197, -0.7352178692817688, 0.13534687459468842, -1.0611881017684937, 0.6858195662498474, 0.3472959101200104, -0.8709580302238464, -0.18171417713165283, 0.8489783406257629, -0.9440125226974487, 0.017769556492567062, -0.13517887890338898, 0.07593236863613129, -0.10717343538999557, -0.051611848175525665, 0.08775553852319717], [0.14659154415130615, 1.6792259216308594, -1.9712284803390503, -1.0941280126571655, 0.8777486085891724, -0.029655905440449715, -1.4058493375778198, 0.9843184947967529, 1.0400819778442383, 0.1029057428240776, -0.6085770726203918, 4.3352813720703125, 1.090397834777832, 0.07522401213645935, -0.07319796085357666, -0.10250996798276901, 0.31776344776153564, 0.9992563724517822, -0.8854253888130188, -2.1317124366760254, -2.079474449157715, 0.8079519271850586, -0.08278261125087738, -1.0653460025787354, 1.57747483253479, 0.9627558588981628, -0.13283918797969818, -0.3076949119567871, 3.3047633171081543, 0.7691614031791687, -0.2012389749288559, 0.9555455446243286, -0.6473276615142822, -0.17050668597221375, 0.9559335708618164, 0.14838817715644836, -0.9752427935600281, 1.162450909614563, 0.014478612691164017, -0.020313289016485214, -0.14037249982357025, 0.002728861989453435, -0.007627333980053663, 0.03965083509683609], [0.16165806353092194, 1.870317816734314, -1.8458738327026367, -0.8567344546318054, 0.7038336992263794, -0.21047280728816986, -1.3967829942703247, 0.8767217993736267, 0.988220751285553, -0.07332143932580948, -0.7253930568695068, 4.2971014976501465, 1.1009665727615356, 0.13210882246494293, 0.14987747371196747, 0.12634974718093872, 0.01814831979572773, 0.9403637051582336, -0.9005938172340393, -1.9529279470443726, -2.0120890140533447, 0.6290425062179565, -0.021213002502918243, -1.2232428789138794, 1.4798545837402344, 1.1429195404052734, -0.0995992049574852, -0.47177213430404663, 3.051172971725464, 0.7305474281311035, -0.010093634948134422, 0.9785809516906738, -0.48950353264808655, 0.013861021026968956, 1.048317313194275, 0.28796622157096863, -1.1268584728240967, 0.9374520182609558, -0.003067345591261983, 0.05955476686358452, -0.09088201075792313, 0.06358303874731064, 0.036741722375154495, -0.0374872200191021], [-0.12340419739484787, -1.6254830360412598, 1.826582431793213, 1.0275112390518188, -0.5896578431129456, 0.10384735465049744, 1.0983015298843384, -0.9627249240875244, -0.802854061126709, -0.027416350319981575, 0.5847878456115723, -4.252507209777832, -0.9109953045845032, 0.0012915843399241567, -0.0225885771214962, -0.11530477553606033, -0.020119251683354378, -0.8615238070487976, 0.9561861753463745, 2.0183815956115723, 2.131739377975464, -0.6992757320404053, 0.11329546570777893, 1.1834962368011475, -1.6584842205047607, -0.9915851354598999, 0.09074593335390091, 0.25309109687805176, -2.8603718280792236, -0.8520411252975464, 0.19202685356140137, -1.0337177515029907, 0.5344346165657043, -0.01171546895056963, -0.873347282409668, -0.23279675841331482, 0.9845588207244873, -1.0119916200637817, -0.02049347385764122, -0.09351425617933273, -0.007488447241485119, -0.03992228955030441, -0.06692606210708618, 0.10498902946710587], [-0.2438199371099472, -1.5909959077835083, 1.8815356492996216, 0.9127547144889832, -0.7313138842582703, -0.03476112335920334, 1.161230444908142, -0.915673017501831, -0.8312106728553772, -0.1025955080986023, 0.6782780289649963, -3.9506237506866455, -0.9212830066680908, 0.10720666497945786, -0.1442907154560089, 0.03577189892530441, -0.23627908527851105, -0.971586287021637, 1.0569921731948853, 1.9899636507034302, 1.9466067552566528, -0.7460968494415283, 0.16881094872951508, 1.163955807685852, -1.5101990699768066, -1.135280728340149, 0.2578558623790741, 0.3263123333454132, -2.973867893218994, -0.7767581939697266, 0.049822378903627396, -0.9195883274078369, 0.5622562766075134, 0.015854472294449806, -0.8700400590896606, -0.31260624527931213, 1.1121914386749268, -1.0989162921905518, -0.03914211317896843, -0.10279743373394012, 0.051065076142549515, -0.07956427335739136, 0.018574023619294167, 0.08074777573347092], [0.1312577873468399, 1.8292654752731323, -1.6912963390350342, -1.0664873123168945, 0.7104520797729492, -0.0186591986566782, -1.2395501136779785, 0.7083799839019775, 1.0303350687026978, 0.05887660011649132, -0.6490036249160767, 4.178474426269531, 1.0045379400253296, 0.09340332448482513, 0.13217584788799286, 0.0792720764875412, -0.029210902750492096, 0.9494946599006653, -0.8950046896934509, -1.952646255493164, -1.9828956127166748, 0.5156512260437012, 0.00324193830601871, -1.0347867012023926, 1.5821964740753174, 0.8743565678596497, -0.05369517579674721, -0.431237131357193, 3.023287057876587, 0.7340287566184998, -0.1434081643819809, 0.8109962940216064, -0.6361832022666931, -0.1574890911579132, 0.9805885553359985, 0.13643547892570496, -1.054846167564392, 0.8523744344711304, 0.049791354686021805, -0.05690796300768852, -0.1026063933968544, 0.030267126858234406, -0.011908348649740219, 0.02740521728992462], [0.1412152200937271, 1.8611966371536255, -1.908632755279541, -1.1400107145309448, 0.642382800579071, -0.06454597413539886, -1.2904176712036133, 0.8536512851715088, 1.0723732709884644, 0.1107429713010788, -0.9148188829421997, 4.713140964508057, 1.1763895750045776, -0.08572858572006226, 0.1992284506559372, -0.0037353092338889837, 0.15841887891292572, 0.8206554651260376, -0.9894306659698486, -1.9303652048110962, -2.1215336322784424, 0.8978720307350159, 0.015460148453712463, -1.1606032848358154, 1.5559942722320557, 1.200055718421936, -0.03254085034132004, -0.5043581128120422, 3.3806707859039307, 0.8870202302932739, -0.1918020099401474, 0.8784979581832886, -0.6882002353668213, -0.07413569837808609, 1.0530149936676025, 0.354500412940979, -1.2658945322036743, 0.9423050284385681, 0.039896249771118164, 0.04900640994310379, -0.11057814955711365, -0.028996270149946213, -0.043153032660484314, 0.014185366220772266], [-0.1283523291349411, -1.808382511138916, 1.9702097177505493, 0.8607385158538818, -0.7855342626571655, 0.0525277778506279, 1.3628792762756348, -0.9718232750892639, -1.118402361869812, -0.026045680046081543, 0.7200030088424683, -4.399259090423584, -1.1404908895492554, 0.023195620626211166, -0.19618074595928192, -0.035540930926799774, -0.08134037256240845, -1.0498498678207397, 1.0912518501281738, 2.0948429107666016, 2.1767945289611816, -0.7731387615203857, -0.03537527471780777, 1.0025219917297363, -1.6301733255386353, -0.9338465332984924, 0.23635859787464142, 0.22027571499347687, -3.1933467388153076, -0.6217801570892334, 0.21417473256587982, -0.9240427613258362, 0.6911592483520508, 0.2014811635017395, -0.9917039275169373, -0.38050663471221924, 1.1876484155654907, -0.9308371543884277, -0.056482888758182526, -0.032469358295202255, 0.08798513561487198, -0.022810926660895348, -0.028121283277869225, -0.014905204065144062], [-0.19843973219394684, -1.6859996318817139, 1.7007161378860474, 0.9039113521575928, -0.7419533133506775, 0.19784636795520782, 1.235479712486267, -0.7295314073562622, -0.8358405828475952, 0.07578445225954056, 0.7159175872802734, -4.068950653076172, -1.0374566316604614, 0.04521163925528526, -0.21227046847343445, 0.05500102788209915, -0.25099313259124756, -0.9058319926261902, 0.9645175337791443, 1.9383137226104736, 1.9156497716903687, -0.5983949303627014, 0.015471028164029121, 1.0631704330444336, -1.7613236904144287, -1.0757187604904175, 0.034728679805994034, 0.20774194598197937, -2.968076467514038, -0.6255125403404236, 0.2246590405702591, -0.8162890672683716, 0.5641918182373047, -0.061205387115478516, -1.0434941053390503, -0.25298380851745605, 0.9565394520759583, -1.0604866743087769, -0.04342889040708542, 0.06745968014001846, 0.1854904741048813, 0.02896728366613388, -0.030403492972254753, 0.030122090131044388], [-0.01334647461771965, 1.663590431213379, -1.7695438861846924, -1.0124692916870117, 0.6296216249465942, -0.03044232167303562, -1.1803278923034668, 0.9225261211395264, 0.8567602634429932, -0.022132141515612602, -0.5161171555519104, 4.022523880004883, 0.8522607684135437, 0.030189665034413338, 0.19968880712985992, 0.11911328136920929, 0.022963494062423706, 0.7308399677276611, -0.8072651028633118, -1.747029185295105, -1.9458534717559814, 0.626269519329071, -0.05435668304562569, -1.0298184156417847, 1.658331036567688, 1.000836968421936, -0.21439483761787415, -0.36409658193588257, 2.8187830448150635, 0.7009304761886597, -0.07098089158535004, 0.7066105008125305, -0.5527706146240234, -0.2071133702993393, 0.8299102783203125, 0.1673804074525833, -0.9620130658149719, 1.0270816087722778, 0.07983387261629105, -0.020032094791531563, -0.04081253334879875, -0.052520714700222015, -0.02130015194416046, 0.024798305705189705], [0.2031538337469101, 2.0410754680633545, -1.9368486404418945, -1.036695122718811, 0.8444990515708923, 0.04002774506807327, -1.490364909172058, 1.017082691192627, 1.1112934350967407, -0.12116014212369919, -0.7036188840866089, 4.757935523986816, 1.216481328010559, -0.10164929181337357, 0.17590220272541046, 0.08486699312925339, 0.22717782855033875, 0.835446834564209, -0.9735426902770996, -2.0612356662750244, -2.338670015335083, 0.7948492169380188, -0.09548460692167282, -1.4029228687286377, 1.625383734703064, 1.0433475971221924, -0.19135738909244537, -0.35917285084724426, 3.5677990913391113, 0.8980947732925415, -0.09716182947158813, 0.9573060870170593, -0.604938268661499, -0.14971357583999634, 1.1403692960739136, 0.3164154291152954, -1.4002596139907837, 1.0995509624481201, -0.03733987361192703, -0.06527864933013916, -0.13835395872592926, 0.05555290728807449, 0.006477071437984705, -0.003976581152528524], [-0.14274060726165771, -1.8397014141082764, 1.8723942041397095, 0.9501157402992249, -0.8256914019584656, 0.030624227598309517, 1.4584921598434448, -0.9140798449516296, -1.1331926584243774, -0.05946569889783859, 0.8185667395591736, -4.708068370819092, -1.2278237342834473, -0.08799633383750916, -0.09262530505657196, 0.08996398746967316, -0.09544698148965836, -1.0442750453948975, 1.0816082954406738, 2.102116584777832, 2.2022645473480225, -0.863999605178833, 0.12374550849199295, 1.3243165016174316, -1.5432432889938354, -1.1336517333984375, 0.11842401325702667, 0.29543429613113403, -3.352299928665161, -0.8434836268424988, 0.1498080939054489, -0.9218816161155701, 0.5086721777915955, 0.18812546133995056, -0.9087666869163513, -0.4267875552177429, 1.333614706993103, -1.1444441080093384, 0.041473496705293655, -0.02459598332643509, 0.04369218274950981, 0.027428846806287766, 0.018076423555612564, -0.020502693951129913], [0.06936080753803253, 1.7131086587905884, -1.853939414024353, -1.0425682067871094, 0.6505958437919617, 0.04107992723584175, -1.1982965469360352, 0.7239146828651428, 1.0141912698745728, -0.04055759310722351, -0.7669584155082703, 4.037910461425781, 1.0842643976211548, -0.08025332540273666, -0.019967183470726013, -0.12564407289028168, 0.05492595583200455, 0.7973899245262146, -0.8049908876419067, -1.8438440561294556, -2.0542562007904053, 0.7680588364601135, 0.07888272404670715, -0.9583026170730591, 1.6671868562698364, 0.9675089716911316, -0.23314990103244781, -0.18516726791858673, 2.93593692779541, 0.6415092349052429, -0.059897229075431824, 0.7952754497528076, -0.4310380220413208, 0.033317092806100845, 0.9014744758605957, 0.14703457057476044, -1.1485989093780518, 1.009577989578247, 0.09337849915027618, 0.059207987040281296, -0.022472701966762543, -0.0010560175869613886, -0.059295136481523514, -0.08154156059026718], [-0.019882768392562866, -1.9165959358215332, 1.7627161741256714, 1.0244544744491577, -0.6118457317352295, 0.10246843099594116, 1.2011997699737549, -0.9538007974624634, -0.8757662773132324, -0.033101730048656464, 0.6750528216362, -4.310575485229492, -1.1623378992080688, -0.039705321192741394, -0.13776648044586182, 0.08052242547273636, -0.02860892377793789, -0.9090118408203125, 0.9138484001159668, 2.096996545791626, 2.029722213745117, -0.6320204734802246, 0.14240364730358124, 1.1747015714645386, -1.7751586437225342, -1.1380800008773804, 0.00825462769716978, 0.3245803117752075, -3.2065162658691406, -0.8873735070228577, 0.09883739054203033, -0.9076364636421204, 0.5909985303878784, 0.06521489471197128, -1.1207411289215088, -0.21802587807178497, 1.0833103656768799, -1.158144235610962, -0.002417000476270914, -0.057966504245996475, 0.15400105714797974, -0.10092350095510483, -0.02465321309864521, -0.064851775765419], [-0.18942303955554962, -1.826420545578003, 1.7576830387115479, 1.019426703453064, -0.7222796082496643, 0.029580870643258095, 1.2537524700164795, -0.8073615431785583, -0.8125335574150085, -0.01855132356286049, 0.6220706701278687, -4.235712051391602, -1.1522736549377441, 0.020210612565279007, -0.037695664912462234, 0.007079100701957941, -0.09105703234672546, -0.9532499313354492, 1.0472604036331177, 1.8075634241104126, 2.0174789428710938, -0.7188882231712341, 0.17302271723747253, 1.1362437009811401, -1.545023798942566, -1.061352252960205, 0.08282481133937836, 0.3707898259162903, -3.0597331523895264, -0.6357842683792114, 0.1809932440519333, -0.8064744472503662, 0.46476736664772034, -0.03514248877763748, -0.827765703201294, -0.3727405071258545, 1.0271937847137451, -0.9757583141326904, -0.043877143412828445, -0.027142765000462532, 0.12935218214988708, -0.018846381455659866, -0.02698449231684208, 0.002820826368406415], [0.017465736716985703, 1.6208152770996094, -1.7201226949691772, -0.9308637380599976, 0.6601862907409668, -0.058789972215890884, -1.193772315979004, 0.6313692331314087, 0.9545642733573914, 0.019564824178814888, -0.6841384172439575, 3.9636471271514893, 0.8998920321464539, -0.08860532194375992, 0.1585918515920639, -0.010714407078921795, 0.24792326986789703, 0.8387624621391296, -1.0523366928100586, -1.9369758367538452, -1.7781418561935425, 0.6674039959907532, -0.060435984283685684, -0.9685232639312744, 1.675187349319458, 1.0264792442321777, -0.12510670721530914, -0.1931549459695816, 2.8816115856170654, 0.6213417649269104, -0.11805857717990875, 0.9268654584884644, -0.5767130851745605, -0.22062371671199799, 0.723352313041687, 0.3370135724544525, -0.9392016530036926, 0.8236043453216553, 0.019619647413492203, 0.06819530576467514, -0.010545678436756134, -0.07607202231884003, -0.07718352973461151, -0.12998788058757782], [0.0270307045429945, -1.8141504526138306, 1.9287525415420532, 0.8471221327781677, -0.825135350227356, -0.07901746034622192, 1.330243706703186, -0.7843325734138489, -0.939486026763916, 0.09722185134887695, 0.5295262336730957, -4.311703205108643, -1.0633972883224487, -0.09214041382074356, -0.10280508548021317, -0.00986324343830347, -0.05138327181339264, -0.9194962978363037, 1.0389622449874878, 1.9798438549041748, 1.8899414539337158, -0.6362451314926147, -0.018857335671782494, 1.2315946817398071, -1.6532995700836182, -1.1337225437164307, 0.2545923888683319, 0.19309379160404205, -2.831660747528076, -0.7109164595603943, 0.07185613363981247, -0.950743556022644, 0.49547630548477173, 0.020318327471613884, -0.9308112859725952, -0.40206119418144226, 1.178206205368042, -1.1064872741699219, -0.004283342510461807, -0.015433630906045437, 0.08813093602657318, -0.002773056272417307, -0.07199465483427048, 0.04346965625882149], [-0.23611514270305634, -1.8661555051803589, 1.7980906963348389, 1.0189025402069092, -0.7491469383239746, 0.1461247056722641, 1.331017017364502, -0.9902191162109375, -0.8692272305488586, 0.008715108968317509, 0.7023200988769531, -4.555624008178711, -1.020448088645935, 0.031791675835847855, -0.09527362138032913, 0.06704056262969971, -0.2962157428264618, -1.0708070993423462, 1.03659188747406, 2.146719217300415, 2.0529232025146484, -0.7968854308128357, 0.004663776606321335, 1.1442664861679077, -1.6054250001907349, -1.2200709581375122, 0.17172160744667053, 0.31624969840049744, -3.2177422046661377, -0.7850006222724915, 0.25560691952705383, -0.9875630736351013, 0.6978520154953003, 0.16382761299610138, -1.0852752923965454, -0.18769723176956177, 1.191288948059082, -1.1791599988937378, -0.017744513228535652, 0.025466369464993477, 0.1504378318786621, -0.00813357811421156, -0.025560110807418823, 0.02470390684902668], [0.18868915736675262, 1.7589095830917358, -1.8253155946731567, -0.7989411354064941, 0.7228561639785767, 0.01720573380589485, -1.2956331968307495, 0.9887800216674805, 1.0492051839828491, -0.03803197294473648, -0.743876576423645, 4.15728759765625, 1.1531034708023071, -0.015538621693849564, 0.08375665545463562, 0.1049337238073349, 0.0750289335846901, 0.7446833252906799, -1.0369659662246704, -1.9046014547348022, -1.9385930299758911, 0.7538015246391296, -0.1048828512430191, -1.113223671913147, 1.6233493089675903, 0.9292739629745483, -0.2259429544210434, -0.26826050877571106, 2.9219744205474854, 0.823716402053833, -0.1530238837003708, 0.7851831316947937, -0.4971958100795746, 0.03679288178682327, 0.8690895438194275, 0.31499549746513367, -1.1012451648712158, 1.0225809812545776, 0.04107307270169258, -0.04775860533118248, -0.10901958495378494, -0.046225741505622864, 0.001501590246334672, -0.12424799799919128]], "fc1.bias": [-0.09681238234043121, -0.1896427869796753, 0.028595035895705223, -0.21209502220153809, -0.11538375914096832, 0.14149998128414154, -0.022332802414894104, -0.18945257365703583, -0.035414744168519974, -0.22169403731822968, -0.03269670903682709, -0.2328309863805771, -0.061591971665620804, -0.18599864840507507, -0.07919859141111374, -0.017426082864403725, -0.10359011590480804, -0.11520680040121078, -0.1450965255498886, -0.20612451434135437, -0.2564513385295868, 0.018457463011145592, -0.008614850230515003, -0.026748113334178925, -0.23617298901081085, -0.07748968154191971, 0.2156231552362442, 0.1874098926782608, 0.014813386835157871, -0.07697281986474991, -0.0718214139342308, -0.05055451765656471, 0.010325842536985874, 0.23246407508850098, -0.037922799587249756, 0.11446166038513184, -0.025912584736943245, 0.08622146397829056, 0.2024959921836853, 0.030007733032107353, -0.029548903927206993, -0.16202838718891144, -0.13003113865852356, 0.09765969961881638, -0.08381812274456024, -0.17418868839740753, -0.16046123206615448, -0.04535624757409096, 0.03204530477523804, 0.03547612205147743, -0.1454838514328003, 0.1990707516670227, -0.24948088824748993, 0.26592034101486206, 0.018556252121925354, -0.18442514538764954, 0.007026808802038431, 0.11636560410261154, -0.03852606192231178, 0.1277811974287033, -0.019696364179253578, -0.053367603570222855, 0.238697811961174, -0.20697776973247528, 0.011707216501235962, 0.23642860352993011, 0.030848806723952293, -0.04310733079910278, 0.10801093280315399, -0.1337476372718811, 0.01936372183263302, 0.21979260444641113, -0.158206969499588, -0.12093237787485123, 0.05840422213077545, 0.1755882352590561, -0.018416283652186394, -0.09747728705406189, -0.20250093936920166, 0.0058159907348454, -0.2273849993944168, 0.15477651357650757, -0.154026597738266, -0.26049402356147766, 0.040678929537534714, 0.15212778747081757, -0.07332201302051544, -0.16446493566036224, -0.045198775827884674, 0.15871889889240265, -0.040956076234579086, -0.04721595346927643, 0.05500908941030502, -0.14883534610271454, 0.21948303282260895, 0.11668410152196884, 0.001605473691597581, 0.21676672995090485, 0.0022426063660532236, -0.1324818879365921], "fc2.weight": [[-1.573288083076477, -1.7097337245941162, -1.7518311738967896, -1.5010839700698853, -2.1552422046661377, 2.3776016235351562, -1.9292572736740112, -1.6119288206100464, 2.299617052078247, -1.5050246715545654, -1.5080416202545166, -1.7578703165054321, -1.488621473312378, -1.6230790615081787, -1.6571624279022217, -1.9639924764633179, -1.5989112854003906, -1.8835924863815308, -1.6453096866607666, -2.1311841011047363, -1.3383840322494507, -1.6720384359359741, 2.3889987468719482, -1.9722620248794556, -1.4881669282913208, -1.2980440855026245, 2.368652105331421, 2.142531156539917, -1.4809679985046387, -1.5370709896087646, -2.011582374572754, -1.6624835729599, -1.6123751401901245, 2.2391958236694336, -2.104382276535034, 2.259300708770752, -1.6219515800476074, 2.3808674812316895, 2.566892623901367, -1.6039968729019165, -1.6620004177093506, -2.144822835922241, -2.2384517192840576, 2.1485118865966797, -1.7813602685928345, -1.7536019086837769, -1.6612427234649658, -1.7649691104888916, -1.5731194019317627, 2.303544521331787, -1.5041223764419556, 2.1912243366241455, -1.5043842792510986, 2.497011661529541, -1.4282455444335938, -1.6381829977035522, 2.6361279487609863, 2.4642844200134277, 2.0319929122924805, 2.607175827026367, 2.258394956588745, -2.176830291748047, 2.152820110321045, -1.8175972700119019, 2.4207065105438232, 2.3819918632507324, 2.5437874794006348, -1.4729454517364502, 2.251631736755371, -1.7860156297683716, 2.4965994358062744, 2.3418712615966797, -1.4942481517791748, -1.4972234964370728, -1.9505419731140137, 1.9868086576461792, 2.138704776763916, -1.5595941543579102, -2.063180446624756, -1.1983925104141235, -1.3037391901016235, 2.1960201263427734, -1.8924351930618286, -1.7522026300430298, 2.1575958728790283, 2.372814416885376, -1.3333505392074585, -1.8588428497314453, 2.4619758129119873, 2.166717290878296, -1.3809458017349243, -2.14231014251709, 2.7347614765167236, -1.585135579109192, 2.3159148693084717, 2.075127601623535, -1.4503909349441528, 2.432224988937378, 2.545741558074951, -1.641455054283142]], "fc2.bias": [0.5287609696388245]}