{"fc1.weight": [[-0.22323401272296906, -2.2480289936065674, 1.726740837097168, 0.914762556552887, -0.5980737805366516, 0.007739688269793987, 1.1561683416366577, -1.2604275941848755, -0.937110185623169, 0.16413195431232452, 0.7274479866027832, -4.417093753814697, -0.9997581243515015, -0.060174841433763504, -0.06970557570457458, -0.09226467460393906, -0.2820313572883606, -0.9684046506881714, 0.8912206888198853, 2.0574631690979004, 2.9051270484924316, -0.9052779078483582, 0.019571732729673386, 1.09141206741333, -1.3803373575210571, -0.9735235571861267, 0.319935142993927, 0.27650120854377747, -2.689018726348877, -0.8607906699180603, 0.28489598631858826, -1.0816673040390015, 0.6651753187179565, 0.21858081221580505, -0.951575756072998, -0.3869067430496216, 1.1493386030197144, -1.194835901260376, -0.04912497475743294, 0.07787927985191345, 0.04410390928387642, -0.07294581830501556, 0.049246493726968765, 0.04600430652499199], [-0.19571354985237122, -1.9185991287231445, 1.6847697496414185, 0.8341031670570374, -0.5683610439300537, 0.14109763503074646, 1.3140339851379395, -1.1684377193450928, -1.01762855052948, -0.14782877266407013, 0.643446147441864, -4.446565628051758, -0.9524252414703369, -0.02958090789616108, -0.1214577928185463, 0.05512503534555435, -0.25741779804229736, -0.9699138402938843, 1.123956561088562, 1.7699766159057617, 2.59658145904541, -0.776930034160614, 0.13492132723331451, 1.2435520887374878, -1.124863624572754, -0.8749068379402161, 0.032880932092666626, 0.2634931206703186, -2.8873379230499268, -0.6265390515327454, -0.001678726403042674, -0.9869833588600159, 0.7127630710601807, 0.0010252447100356221, -0.8443965911865234, -0.19929242134094238, 1.0186580419540405, -0.9306164979934692, -0.041911981999874115, -0.04897479712963104, -0.03026852011680603, 0.007522623986005783, 0.009452595375478268, -0.08936712890863419], [0.23489290475845337, 1.8464699983596802, -1.7200911045074463, -0.6406595706939697, 0.7649146318435669, -0.005042178090661764, -1.2059288024902344, 1.3385698795318604, 0.8883424997329712, -0.08421780169010162, -0.744868814945221, 4.4025774002075195, 0.923178493976593, -0.0629037544131279, 0.15831993520259857, 0.10626758635044098, 0.11326991021633148, 0.8964830636978149, -0.976219117641449, -1.939731240272522, -2.498985767364502, 0.677640974521637, -0.1274043321609497, -1.1207387447357178, 1.2851775884628296, 0.9547411799430847, -0.125242680311203, -0.2850356101989746, 2.703728437423706, 0.6650483012199402, -0.08760792016983032, 0.8254082202911377, -0.4602818191051483, -0.045977313071489334, 0.9606570601463318, 0.42424774169921875, -1.080047369003296, 0.8896200060844421, -0.06801193207502365, 0.02572849951684475, 0.042624372988939285, -0.048770252615213394, 0.02369844727218151, -0.012862971052527428], [-0.182408407330513, -1.7643933296203613, 1.812256932258606, 0.7359408736228943, -0.6044774651527405, 0.11676616966724396, 1.0664982795715332, -1.1630936861038208, -0.7957195043563843, 0.0507306233048439, 0.5644070506095886, -4.373428821563721, -0.962805449962616, 0.03844889625906944, -0.19039997458457947, 0.06115502491593361, -0.24705582857131958, -0.9231546521186829, 1.1341440677642822, 1.8209036588668823, 2.5287187099456787, -0.7636717557907104, -0.05390777066349983, 1.068399429321289, -1.457499623298645, -0.8553059101104736, 0.18892715871334076, 0.2740670442581177, -2.622836112976074, -0.6311144232749939, 0.058067210018634796, -0.9901660084724426, 0.6349500417709351, 0.03815034031867981, -0.8538054823875427, -0.3342847228050232, 0.9577535390853882, -1.1466175317764282, 0.0979718342423439, -0.02048465982079506, -0.046166762709617615, 0.020292876288294792, 0.005043709184974432, -0.022728033363819122], [-0.1664743274450302, -1.8831372261047363, 1.5889778137207031, 0.8834269642829895, -0.6383291482925415, -0.09192140400409698, 1.2450282573699951, -1.1988048553466797, -0.9400913119316101, 0.07472909241914749, 0.8045050501823425, -4.140334606170654, -0.868520975112915, -0.08274419605731964, 0.0030322030652314425, -0.06110650300979614, -0.2942029535770416, -0.8396714329719543, 1.0395337343215942, 1.9013851881027222, 2.6202752590179443, -0.7211838960647583, -0.08071570843458176, 0.9315109252929688, -1.3607174158096313, -1.005403995513916, 0.23314979672431946, 0.32700762152671814, -2.771808624267578, -0.6654596924781799, 0.19027118384838104, -0.9278184771537781, 0.5555630326271057, 0.07029560208320618, -1.0213532447814941, -0.35944390296936035, 1.0374431610107422, -0.9657771587371826, -0.0034250218886882067, 0.08073897659778595, -0.047364745289087296, -0.06234074383974075, 0.0383845753967762, -0.05967782065272331], [0.057287923991680145, 1.901455283164978, -1.6515170335769653, -0.7466493248939514, 0.5250658392906189, -0.17445045709609985, -1.176157832145691, 1.3502424955368042, 0.8667997717857361, 0.1155574768781662, -0.5152198076248169, 4.415604591369629, 1.0639188289642334, 0.0012977998703718185, 0.14877383410930634, 0.018249405547976494, 0.21456976234912872, 0.7800760269165039, -1.0046459436416626, -1.8954569101333618, -2.4130566120147705, 0.8193725943565369, 0.0017045740969479084, -1.0136100053787231, 1.2891955375671387, 1.0762892961502075, -0.22699905931949615, -0.31956756114959717, 2.7920260429382324, 0.57435542345047, -0.0489591546356678, 1.012534737586975, -0.6814036965370178, -0.05430183932185173, 0.8368586301803589, 0.20091058313846588, -0.9193878173828125, 0.9907492995262146, -0.07223866879940033, 0.013448403216898441, -0.04097874462604523, -0.03192077949643135, -0.04123884066939354, 0.023518897593021393], [-0.10126252472400665, -1.7689249515533447, 1.917728304862976, 0.7972711324691772, -0.7218260169029236, -0.07330924272537231, 1.26768958568573, -1.3588907718658447, -1.0440500974655151, -0.11488267034292221, 0.6950700879096985, -4.47481632232666, -1.181667685508728, -0.011833881959319115, 0.09607043862342834, -0.09323485940694809, -0.21818174421787262, -0.960187554359436, 0.9792742729187012, 1.8639615774154663, 2.5616047382354736, -0.8496304154396057, -0.03246702253818512, 1.2714439630508423, -1.1317660808563232, -1.1134185791015625, 0.19227999448776245, 0.18146531283855438, -2.844219923019409, -0.5715574026107788, 0.03659731149673462, -1.0512806177139282, 0.5847063064575195, 0.0930592492222786, -0.9624136090278625, -0.22022370994091034, 1.0687161684036255, -1.050792932510376, 0.08012566715478897, -0.04472397267818451, 0.065520741045475, 0.056523170322179794, 0.08819366246461868, -0.017504263669252396], [0.11535046249628067, 1.6779701709747314, -1.5145663022994995, -0.7381287217140198, 0.6757086515426636, -0.112032450735569, -1.1997151374816895, 1.2409905195236206, 0.9865702986717224, 0.13467636704444885, -0.5987961888313293, 4.056931495666504, 0.9793526530265808, 0.03601010516285896, 0.15802188217639923, -0.07836782187223434, 0.039882708340883255, 0.711148738861084, -1.0334705114364624, -1.8472318649291992, -2.316800832748413, 0.7960217595100403, 0.01018136739730835, -0.9890943169593811, 1.374548077583313, 1.0282435417175293, -0.1408206671476364, -0.3801219165325165, 2.5232014656066895, 0.5525285005569458, -0.21266323328018188, 0.8557552695274353, -0.6123672127723694, -0.08122321218252182, 0.9170855283737183, 0.16630509495735168, -0.9296199083328247, 1.0181186199188232, 0.04270131140947342, -0.04265134781599045, -0.07411275058984756, 0.02640242502093315, -0.04850609973073006, -0.03997577726840973], [0.16578729450702667, 1.9763851165771484, -1.929041862487793, -0.9295143485069275, 0.7742310762405396, -0.10446770489215851, -1.2455977201461792, 1.2878226041793823, 0.897101879119873, -0.022483767941594124, -0.7798594236373901, 4.890079975128174, 1.0710383653640747, 0.17474666237831116, 0.05604365095496178, 0.1778385490179062, 0.16225966811180115, 1.0576555728912354, -0.9528899192810059, -1.973547339439392, -2.677170515060425, 0.9068493843078613, -0.1338864266872406, -1.2346984148025513, 1.1945728063583374, 0.9482340216636658, -0.014316345565021038, -0.3099483847618103, 3.0976219177246094, 0.8232556581497192, -0.08869925886392593, 1.0599040985107422, -0.5224241614341736, -0.17401619255542755, 0.8953381180763245, 0.3557712137699127, -1.1232879161834717, 1.0676226615905762, 0.037487711757421494, -0.07977798581123352, -0.10542359948158264, -0.04530967026948929, -0.06250621378421783, 0.01277643907815218], [-0.21820275485515594, -1.964872121810913, 1.753611445426941, 0.8350839018821716, -0.5698314309120178, 0.14404381811618805, 1.3825808763504028, -1.2969168424606323, -0.8817409873008728, 0.10564326494932175, 0.7139794230461121, -4.6657490730285645, -1.1561720371246338, -0.20211853086948395, -0.2102157473564148, -0.15034683048725128, -0.04015772044658661, -0.8968238830566406, 1.0846984386444092, 2.0337750911712646, 2.519028425216675, -0.7283042073249817, -0.05374288186430931, 1.2433876991271973, -1.3513238430023193, -1.0982530117034912, 0.08266196399927139, 0.3421294093132019, -2.9058048725128174, -0.8436365127563477, 0.17538444697856903, -0.9919653534889221, 0.7833707332611084, 0.12308330088853836, -1.1384015083312988, -0.2864242494106293, 1.1485819816589355, -0.9786938428878784, 0.03195485100150108, 0.061499036848545074, 0.012044068425893784, 0.01287053432315588, -0.028542105108499527, -0.003401086200028658], [-0.0432044193148613, -1.9119168519973755, 1.5498086214065552, 0.8192131519317627, -0.6875793933868408, -0.11959443986415863, 1.2857643365859985, -1.1698405742645264, -0.9207792282104492, -0.16035182774066925, 0.6068358421325684, -4.350506782531738, -0.9603486657142639, -0.15776465833187103, -0.10412997007369995, 0.030936764553189278, -0.31973937153816223, -0.8790044784545898, 1.0490918159484863, 1.7504246234893799, 2.501490354537964, -0.6776167154312134, 0.13534753024578094, 1.2040326595306396, -1.1638288497924805, -0.866014838218689, 0.17254911363124847, 0.35818880796432495, -2.786923408508301, -0.684561550617218, 0.2726685106754303, -0.8573161363601685, 0.7030074596405029, 0.07793357223272324, -1.035393238067627, -0.22065305709838867, 0.8488256335258484, -1.13127601146698, 0.06202193722128868, 0.07113359868526459, -0.012843843549489975, -0.06605736166238785, 0.04745256528258324, -0.05064401775598526], [0.039974138140678406, 1.8328243494033813, -1.8399040699005127, -0.7038244605064392, 0.5495217442512512, -0.1428503841161728, -1.3249461650848389, 1.3093210458755493, 0.9980394840240479, 0.07308358699083328, -0.6088871955871582, 4.672901153564453, 1.0877569913864136, 0.040212105959653854, -0.013905340805649757, -0.07220286130905151, 0.1687910407781601, 0.9946666359901428, -0.9613783955574036, -2.025595188140869, -2.5018131732940674, 0.8682799339294434, -0.03721944987773895, -1.2174925804138184, 1.2640198469161987, 1.1387367248535156, -0.1288653314113617, -0.4578162431716919, 2.837775945663452, 0.790644645690918, -0.22245880961418152, 0.7838825583457947, -0.5507586002349854, 0.031787607818841934, 1.049301028251648, 0.4419634938240051, -1.100608468055725, 1.0013765096664429, -0.00491195498034358, 0.057093411684036255, -0.09172649681568146, 0.032854873687028885, -0.043682701885700226, 0.0583561509847641], [0.08876501768827438, 1.7866699695587158, -1.7775338888168335, -0.8146586418151855, 0.6863600015640259, 0.01702973246574402, -1.2470821142196655, 1.3511747121810913, 1.0374631881713867, 0.00012111513206036761, -0.8263709545135498, 4.783918857574463, 1.0579460859298706, 0.13211689889431, -0.06966742873191833, 0.13931651413440704, 0.2385464906692505, 0.9745168685913086, -1.1595250368118286, -2.019591808319092, -2.7255337238311768, 0.8715230822563171, 0.07478971034288406, -1.2837717533111572, 1.139106273651123, 1.030531644821167, -0.1581186205148697, -0.2246515303850174, 3.131758451461792, 0.6733145117759705, -0.08291598409414291, 0.8405172824859619, -0.529801607131958, -0.18836654722690582, 1.0629063844680786, 0.4292927384376526, -1.1917651891708374, 1.1446858644485474, -0.08657150715589523, -0.08628483861684799, -0.020846378058195114, 0.028330449014902115, -0.012773215770721436, 0.05356361344456673], [-0.017258625477552414, 1.7033874988555908, -1.5797489881515503, -0.7345072031021118, 0.6460760235786438, 0.07915084809064865, -1.0029377937316895, 1.169751763343811, 0.7300516963005066, 0.0882917195558548, -0.5047280192375183, 3.945401906967163, 0.8363903760910034, -0.016987279057502747, -0.05364086851477623, 0.07580122351646423, 0.10356546938419342, 0.9206539392471313, -1.0492918491363525, -1.8227059841156006, -2.288574457168579, 0.6830488443374634, -0.01428619772195816, -0.8718443512916565, 1.1742393970489502, 0.9704669117927551, -0.03204111009836197, -0.36137378215789795, 2.5563740730285645, 0.5910441279411316, -0.11510003358125687, 0.7498918771743774, -0.550709068775177, 0.018687088042497635, 0.8462491035461426, 0.3744439482688904, -1.0114840269088745, 0.8249995708465576, 0.03235700726509094, -0.035583820194005966, -0.10451918095350266, 0.023463886231184006, -0.011364150792360306, 0.0017356723546981812], [0.0620996430516243, 1.676472783088684, -1.6632522344589233, -0.7854664325714111, 0.5475172996520996, 0.044152241200208664, -1.150173544883728, 1.1924355030059814, 0.889079749584198, -0.129865363240242, -0.7536484003067017, 4.17148494720459, 1.0724499225616455, -0.0723375752568245, 0.16237126290798187, 0.08720209449529648, 0.08138084411621094, 0.6986764669418335, -0.9186849594116211, -1.933164358139038, -2.547755241394043, 0.8576227426528931, -0.18003709614276886, -0.9541671872138977, 1.2403911352157593, 0.8997190594673157, -0.017911793664097786, -0.25860774517059326, 2.8390207290649414, 0.658572793006897, -0.2849681079387665, 1.005948543548584, -0.6073952317237854, -0.025517422705888748, 0.8796238303184509, 0.20031990110874176, -1.0485203266143799, 1.010040521621704, 0.023281533271074295, -0.038047339767217636, -0.013964750804007053, -0.01882597804069519, 0.02469663694500923, 0.10059439390897751], [0.020733339712023735, 1.6748619079589844, -1.6605466604232788, -0.6666103601455688, 0.601958155632019, -0.1189047321677208, -1.2650928497314453, 1.130645513534546, 0.752081573009491, -0.05898896977305412, -0.7704603672027588, 4.522950649261475, 1.1494766473770142, 0.1456618458032608, 0.19013775885105133, 0.055063847452402115, 0.014269455336034298, 0.9988325238227844, -1.1387690305709839, -1.8514254093170166, -2.5821495056152344, 0.7945088744163513, 0.014150272123515606, -1.0856956243515015, 1.1459424495697021, 1.0827786922454834, -0.22988231480121613, -0.23150093853473663, 2.802525043487549, 0.7708837389945984, -0.16108766198158264, 1.013512134552002, -0.7309359908103943, -0.20499065518379211, 1.064436674118042, 0.2736368477344513, -1.0208197832107544, 1.049818992614746, 0.016065867617726326, 0.0443236418068409, -0.07528114318847656, 0.06295779347419739, 0.05520514398813248, 0.03393816202878952], [0.21622367203235626, 1.592429518699646, -1.7561585903167725, -0.8218013048171997, 0.6204071044921875, 0.09412689507007599, -1.1772030591964722, 1.2360992431640625, 0.9183536767959595, 0.08166412264108658, -0.5417897701263428, 4.143299579620361, 0.8689397573471069, -0.10405478626489639, 0.21019338071346283, 0.032767701894044876, 0.16759182512760162, 0.8518121838569641, -1.0883128643035889, -1.6910216808319092, -2.6137876510620117, 0.7676674723625183, -0.022664189338684082, -1.0913258790969849, 1.2459608316421509, 0.839887261390686, -0.10921861231327057, -0.10929302871227264, 2.742940902709961, 0.5211864113807678, -0.2382371425628662, 0.7820919156074524, -0.5089012980461121, -0.15371853113174438, 0.9338765740394592, 0.24699760973453522, -0.8242581486701965, 0.8236832618713379, 0.07326948642730713, -0.0010585038689896464, -0.0365624725818634, -0.05184056982398033, 0.02744949236512184, 0.10790266841650009], [0.24735061824321747, 1.6374189853668213, -1.6442533731460571, -0.8104336857795715, 0.7045803070068359, -0.1959327608346939, -1.314735770225525, 1.1620826721191406, 0.9804109930992126, 0.07553447037935257, -0.7927396893501282, 4.187690258026123, 0.8353885412216187, -0.09949834644794464, 0.17448748648166656, 0.014601536095142365, 0.2727016806602478, 0.8742280602455139, -1.1546094417572021, -1.787203311920166, -2.5082690715789795, 0.826450526714325, 0.03499152883887291, -0.9715292453765869, 1.2087677717208862, 0.9355043768882751, -0.2979138493537903, -0.27248209714889526, 2.8762736320495605, 0.6991651654243469, -0.11138993501663208, 0.9219072461128235, -0.66044020652771, -0.0873696580529213, 0.8901852965354919, 0.36503785848617554, -1.1298953294754028, 1.037044882774353, -0.04840743541717529, 0.009547628462314606, -0.08264311403036118, -0.06085488572716713, 0.06216485798358917, -0.03637625649571419], [-0.004536755383014679, -2.003774642944336, 1.8282241821289062, 0.7601993680000305, -0.8330146670341492, 0.003721349174156785, 1.2860621213912964, -1.4017434120178223, -0.8918333649635315, -0.15741291642189026, 0.8667933344841003, -4.459552764892578, -0.9306483864784241, -0.19383969902992249, -0.1448664516210556, -0.056935299187898636, -0.2973082661628723, -0.9347328543663025, 0.9655501842498779, 1.963114857673645, 2.6612067222595215, -0.6903988122940063, -0.07666309177875519, 1.0952702760696411, -1.2745423316955566, -1.0029151439666748, 0.2853843569755554, 0.4165593087673187, -3.0215561389923096, -0.602265477180481, 0.09099885821342468, -0.938572108745575, 0.5383475422859192, 0.10706990212202072, -0.9783982634544373, -0.3422030508518219, 1.0051888227462769, -1.1881086826324463, -0.023249730467796326, 0.0005553210503421724, 0.06587707251310349, 0.04398685321211815, 0.0492633581161499, -0.08843094855546951], [-0.2168159931898117, -2.0559566020965576, 1.917068600654602, 0.8566305041313171, -0.7206375598907471, 0.13138139247894287, 1.5164695978164673, -1.1787726879119873, -0.8747794032096863, -0.19825339317321777, 0.7965040802955627, -4.804238796234131, -1.252510905265808, 0.01759967766702175, -0.17469099164009094, 0.11180449277162552, -0.3060983419418335, -1.071404218673706, 1.0642331838607788, 1.890141487121582, 2.8477532863616943, -0.8859719634056091, 0.04312391206622124, 1.370202898979187, -1.1089528799057007, -0.968305766582489, 0.27876827120780945, 0.48286065459251404, -3.057558059692383, -0.8999652862548828, 0.2113322764635086, -0.9535927772521973, 0.6816967725753784, 0.007391556166112423, -1.122892141342163, -0.43220755457878113, 1.281677484512329, -1.075513482093811, -0.041257523000240326, -0.028602832928299904, 0.03788547217845917, -0.02509334683418274, -0.04250309243798256, -0.04395957663655281], [0.12887339293956757, 2.037527322769165, -1.9005229473114014, -0.8901954889297485, 0.7376695871353149, -0.06039809808135033, -1.3078806400299072, 1.4087409973144531, 0.9054610729217529, 0.11892096698284149, -0.7380207777023315, 4.8706512451171875, 1.1481066942214966, -0.040554437786340714, 0.03866126388311386, 0.117037832736969, 0.2398938536643982, 1.0386158227920532, -1.0769072771072388, -1.9390026330947876, -2.8324878215789795, 0.8233068585395813, 0.02097308449447155, -1.2377564907073975, 1.1214821338653564, 0.956666111946106, -0.025538481771945953, -0.5052523612976074, 3.1458890438079834, 0.7408990263938904, -0.0997639149427414, 0.8306677341461182, -0.6734163165092468, -0.03700920194387436, 1.17095947265625, 0.37488654255867004, -1.3117077350616455, 0.9740970730781555, -0.004719008691608906, -0.09706515818834305, -0.004925212822854519, 0.006785670295357704, -0.06455300748348236, 0.0804118737578392], [-0.044185083359479904, 1.6792346239089966, -1.6197088956832886, -0.6177826523780823, 0.45034059882164, -0.06619196385145187, -1.2083983421325684, 1.1622239351272583, 0.878760039806366, -0.07933707535266876, -0.7554342150688171, 3.970454692840576, 1.0503060817718506, -0.044783204793930054, -0.015123311430215836, 0.08447517454624176, 0.19985580444335938, 0.6645193696022034, -0.9878115653991699, -1.6705914735794067, -2.3753645420074463, 0.6977096199989319, -0.19940002262592316, -1.0524317026138306, 1.3974446058273315, 0.9823318719863892, -0.18337655067443848, -0.16582617163658142, 2.4850385189056396, 0.7282094955444336, -0.16423706710338593, 1.01885986328125, -0.6925169229507446, 0.0333910770714283, 0.8284597992897034, 0.37600645422935486, -0.8378918170928955, 0.9261143207550049, 0.05811462923884392, 0.049421485513448715, 0.019929885864257812, -0.060685839504003525, 0.05102412775158882, 0.06668170541524887], [-0.2861831784248352, -1.8545154333114624, 1.7925831079483032, 0.7685813903808594, -0.6981073021888733, 0.11733106523752213, 1.2358827590942383, -1.3479360342025757, -0.9352582693099976, -0.040728382766246796, 0.8866854310035706, -4.660216808319092, -1.0722318887710571, -0.15811477601528168, -0.07276883721351624, -0.1604870706796646, -0.20898102223873138, -0.9002091288566589, 0.8969019651412964, 1.8875559568405151, 2.612539529800415, -0.8301291465759277, 0.035705044865608215, 1.201697587966919, -1.2912542819976807, -1.1274077892303467, 0.22730176150798798, 0.3844066262245178, -3.079805612564087, -0.7946584224700928, 0.2718867063522339, -1.038919448852539, 0.7343193292617798, -0.02349061146378517, -1.0068721771240234, -0.21741396188735962, 1.2434635162353516, -1.0906590223312378, -0.0047321743331849575, -0.032777588814496994, 0.012638317421078682, 0.07381229102611542, 0.08341799676418304, 0.030580343678593636], [0.04112408310174942, 2.13847017288208, -1.8116962909698486, -0.9977746605873108, 0.6741174459457397, -0.19901148974895477, -1.4547820091247559, 1.1753838062286377, 1.0601452589035034, 0.1356327086687088, -0.7011918425559998, 4.7838454246521, 1.0358268022537231, 0.10147973150014877, 0.11245236545801163, 0.12120182067155838, 0.12086304277181625, 1.0677138566970825, -0.9974259734153748, -1.9013546705245972, -2.827045202255249, 0.8344362378120422, -0.18098261952400208, -1.2211990356445312, 1.2852309942245483, 1.1377748250961304, -0.1559145152568817, -0.28670722246170044, 3.0174620151519775, 0.7448630928993225, -0.05412234738469124, 0.9777805209159851, -0.6612966656684875, -0.22599363327026367, 0.9381634593009949, 0.27006831765174866, -1.0454708337783813, 1.1999187469482422, -0.057054512202739716, -0.06500311940908432, -0.07965037226676941, 0.035039905458688736, 0.0025525419041514397, 0.04745510220527649], [-0.1922328770160675, -1.60471773147583, 1.8100836277008057, 0.7630809545516968, -0.7562954425811768, 0.00609412370249629, 1.1386115550994873, -1.2136989831924438, -0.8318665623664856, -0.03721611574292183, 0.5719792246818542, -4.212594509124756, -1.0540937185287476, -0.10249846428632736, -0.0263817198574543, 0.08765646815299988, -0.08123204112052917, -0.9290724396705627, 1.0067508220672607, 1.7292951345443726, 2.5731759071350098, -0.8558387756347656, 0.2016887664794922, 1.1115304231643677, -1.1534093618392944, -0.8764379620552063, 0.07791873812675476, 0.33263275027275085, -2.8321571350097656, -0.8003725409507751, 0.08037135750055313, -0.8425174355506897, 0.6180770397186279, -0.07806991785764694, -0.9533504843711853, -0.23178435862064362, 1.054480791091919, -0.9375108480453491, 0.08445169031620026, -0.03388893976807594, 0.07952041923999786, 0.00597952539101243, -0.030891552567481995, -0.02054290845990181], [0.051254503428936005, 1.6587426662445068, -1.7427054643630981, -0.8064202070236206, 0.7160647511482239, -0.20225301384925842, -1.189988374710083, 1.2091022729873657, 0.9784204959869385, 0.08484304696321487, -0.5917625427246094, 4.080455303192139, 0.9044073224067688, 0.06633923947811127, 0.17176282405853271, 0.0864054411649704, 0.2324681282043457, 0.9324005246162415, -1.1220862865447998, -1.9434688091278076, -2.617488384246826, 0.7127497792243958, -0.1116824820637703, -0.939874529838562, 1.2218796014785767, 0.9276024103164673, -0.20602060854434967, -0.2177261859178543, 2.6173994541168213, 0.79397052526474, -0.012488317675888538, 0.7805632948875427, -0.5821813941001892, -0.08511130511760712, 0.889936089515686, 0.33417531847953796, -0.8000823855400085, 0.8499143719673157, -0.07594316452741623, -0.049446169286966324, 0.007760767359286547, -0.10470347851514816, -0.044901132583618164, -0.05845581740140915], [-0.21715059876441956, -1.9789268970489502, 1.7964211702346802, 0.7347545027732849, -0.7351410984992981, 0.14064432680606842, 1.2815918922424316, -1.3676007986068726, -0.961729109287262, -0.09703774005174637, 0.5778337717056274, -4.491168975830078, -0.934036910533905, -0.0150177963078022, -0.09643653780221939, 0.06740181893110275, -0.04601862281560898, -1.003876805305481, 1.1038556098937988, 2.0445351600646973, 2.765080451965332, -0.8780735731124878, 0.007056813687086105, 1.031765103340149, -1.3776285648345947, -1.1865994930267334, 0.11179234087467194, 0.38363340497016907, -2.8701093196868896, -0.7052702903747559, 0.2205057293176651, -0.878947913646698, 0.7392638325691223, 0.1969657689332962, -1.0188745260238647, -0.1781810224056244, 1.0231430530548096, -1.0809468030929565, -0.03381035104393959, 0.08044450730085373, -0.005904633551836014, -0.01525577250868082, 0.029238497838377953, -0.08434373140335083], [0.2673574388027191, 1.6433320045471191, -1.6130917072296143, -0.7341191172599792, 0.6398767232894897, 0.09849804639816284, -1.325307011604309, 1.1652687788009644, 0.8481284379959106, -0.025099631398916245, -0.6323019862174988, 4.48551082611084, 1.0230381488800049, -0.00860053114593029, 0.0899067372083664, -0.0650172084569931, 0.1295430213212967, 0.8023934960365295, -0.9340745806694031, -1.8549851179122925, -2.483546018600464, 0.8093180656433105, -0.14337220788002014, -1.1512274742126465, 1.1783502101898193, 0.9666690230369568, -0.0953945741057396, -0.361913800239563, 2.863154888153076, 0.566564679145813, -0.006894511636346579, 0.7745051383972168, -0.689991295337677, 0.005670217797160149, 0.8667052984237671, 0.3581066429615021, -1.1163519620895386, 1.0997843742370605, -0.03580152243375778, -0.06344379484653473, -0.08867551386356354, 0.07236943393945694, 0.03929437696933746, 0.09906734526157379], [-0.061421431601047516, -2.063246488571167, 1.7253146171569824, 0.7352328896522522, -0.47646355628967285, 0.16555728018283844, 1.1196765899658203, -1.3619788885116577, -0.8391667604446411, -0.04084474593400955, 0.608990490436554, -4.167295455932617, -0.9666492938995361, 0.07003776729106903, -0.02186906524002552, -0.14227841794490814, -0.12458670139312744, -0.7736660242080688, 0.916910707950592, 1.8948352336883545, 2.9351611137390137, -0.7451301217079163, 0.16353146731853485, 1.0348016023635864, -1.513475775718689, -1.059094786643982, 0.18386632204055786, 0.3087430000305176, -2.586893081665039, -0.696082353591919, 0.2784683108329773, -1.036144733428955, 0.5097100138664246, 0.041637200862169266, -1.115889549255371, -0.31774982810020447, 0.8565341830253601, -0.9870076179504395, -0.034468892961740494, -0.05072535201907158, 0.013665554113686085, -0.031153526157140732, -0.004143752157688141, 0.056315530091524124], [-0.017741581425070763, -1.7764488458633423, 1.7473280429840088, 0.705814778804779, -0.5944332480430603, -0.08636467158794403, 1.2692590951919556, -1.0500282049179077, -0.8318436741828918, -0.08997008204460144, 0.6145411133766174, -4.111443042755127, -0.8810995817184448, -0.08078749477863312, -0.13277561962604523, -0.05729486420750618, -0.2672956883907318, -1.021986722946167, 0.9080411195755005, 1.7933893203735352, 2.59729266166687, -0.7647873163223267, 0.12460710108280182, 0.9453098177909851, -1.2393912076950073, -0.917594850063324, 0.1798570305109024, 0.22095894813537598, -2.6321327686309814, -0.6130943894386292, 0.26026251912117004, -0.9209058284759521, 0.6186531782150269, 0.19593536853790283, -0.9211121201515198, -0.41709432005882263, 1.0468342304229736, -0.9544593691825867, 0.035317350178956985, -0.022367769852280617, -0.0578543096780777, -0.023622892796993256, -0.05044985190033913, 0.025998378172516823], [-0.026029927656054497, -1.7820199728012085, 1.8166792392730713, 0.6792191863059998, -0.7379419803619385, -0.11715812236070633, 1.155495047569275, -1.2393203973770142, -0.8044532537460327, 0.0901612862944603, 0.7181602716445923, -4.462075233459473, -1.02615487575531, 0.042792756110429764, 0.0026363334618508816, 0.054249223321676254, -0.1852797269821167, -0.9608088135719299, 0.9829267859458923, 1.8005512952804565, 2.6100313663482666, -0.647362232208252, 0.17115646600723267, 1.0808519124984741, -1.4153733253479004, -1.0032963752746582, 0.12414585798978806, 0.25396230816841125, -2.9000601768493652, -0.5629398822784424, 0.07071632146835327, -0.7737879753112793, 0.5547782778739929, -0.08283990621566772, -1.004176139831543, -0.3913995325565338, 1.0916898250579834, -1.0561949014663696, 0.08245652168989182, 0.01718294806778431, -0.017085151746869087, -0.05453546345233917, 0.07369028776884079, -0.10989055037498474], [0.17916662991046906, 1.7781081199645996, -1.635727882385254, -0.8509024381637573, 0.5488952994346619, -0.05662531033158302, -1.264564037322998, 1.1151013374328613, 0.8689113855361938, 0.0605374276638031, -0.6318718194961548, 4.221889495849609, 1.0753839015960693, 0.13160385191440582, 0.13737908005714417, 0.12704847753047943, 0.004935557954013348, 0.7727097272872925, -1.0344542264938354, -1.7959153652191162, -2.604522466659546, 0.838269054889679, -0.029957836493849754, -1.1850998401641846, 1.1365162134170532, 0.8786681890487671, -0.1685502976179123, -0.23202218115329742, 2.6928131580352783, 0.677750825881958, -0.0539720244705677, 0.8334068655967712, -0.7116734981536865, -0.05267797410488129, 0.8669763803482056, 0.1087203174829483, -0.9713844656944275, 1.0457581281661987, 0.03977910056710243, -0.0021651466377079487, -0.03709303215146065, -0.07494620233774185, -0.018295103684067726, 0.09191162139177322], [0.18316064774990082, 1.8803601264953613, -1.8505505323410034, -0.7156965136528015, 0.5290234684944153, -0.06729384511709213, -1.2625174522399902, 1.1258233785629272, 0.8613746166229248, 0.0982385128736496, -0.6972631812095642, 4.626229763031006, 1.1807637214660645, 0.0582292303442955, 0.033099789172410965, 0.10382206737995148, 0.07935583591461182, 0.8257399201393127, -0.9834796786308289, -2.0142838954925537, -2.745527982711792, 0.620453417301178, -0.2054806500673294, -1.0945717096328735, 1.1743505001068115, 1.0516976118087769, -0.18275797367095947, -0.18600834906101227, 2.926726818084717, 0.7708017230033875, -0.1414928138256073, 1.0483546257019043, -0.6683179140090942, -0.1472441405057907, 1.0239405632019043, 0.27138033509254456, -0.9326353669166565, 1.1460119485855103, -0.019429253414273262, 0.04433603584766388, -0.10325457155704498, -0.05246744304895401, 0.03208547830581665, 0.016669681295752525], [0.3017491102218628, 2.0626604557037354, -1.900324821472168, -0.7790825366973877, 0.6563495993614197, -0.012017815373837948, -1.32888662815094, 1.2648853063583374, 1.0302016735076904, -0.06534004956483841, -0.7689734697341919, 4.748416900634766, 1.2086201906204224, 0.0672912448644638, -0.04616055265069008, 0.17496715486049652, 0.14108771085739136, 1.09639573097229, -1.1669737100601196, -2.108093023300171, -2.678401470184326, 0.8428514003753662, 0.03731624409556389, -1.3173770904541016, 1.1921229362487793, 1.1338400840759277, -0.21534106135368347, -0.19257117807865143, 3.1905996799468994, 0.6520185470581055, -0.05786723643541336, 0.8398114442825317, -0.6881288886070251, -0.13082732260227203, 1.0009547472000122, 0.2546482980251312, -1.040673017501831, 1.1352641582489014, -0.03359748795628548, -0.0386393703520298, -0.07481671869754791, 0.04405376687645912, -0.0565798245370388, 0.020363450050354004], [0.09248770028352737, 1.654880404472351, -1.5290716886520386, -0.6570211052894592, 0.5832874774932861, -0.1279488503932953, -1.2727609872817993, 1.3393126726150513, 0.8902814984321594, 0.011889062821865082, -0.7150779366493225, 4.271786689758301, 0.9045954346656799, -0.03790276497602463, -0.03377280384302139, -0.013505089096724987, 0.14455576241016388, 0.9582684636116028, -1.0066616535186768, -1.736831545829773, -2.4360904693603516, 0.7775269150733948, -0.16440324485301971, -0.9260938763618469, 1.2700650691986084, 0.9472039937973022, -0.0864228829741478, -0.326453298330307, 2.8105223178863525, 0.582650363445282, -0.10452806949615479, 0.907576322555542, -0.7074909806251526, 0.09274537116289139, 0.8451523780822754, 0.21171990036964417, -0.9823501110076904, 0.9594868421554565, -0.03843235597014427, 0.08443883061408997, -0.09138507395982742, 0.04551749676465988, -0.042246121913194656, 0.11197417229413986], [0.19041743874549866, 1.720967173576355, -1.62148118019104, -0.6107666492462158, 0.6769541501998901, -0.050115134567022324, -1.307112455368042, 1.0847856998443604, 0.8337812423706055, -0.08371508121490479, -0.5129071474075317, 4.403675079345703, 1.0837962627410889, -0.0004990064189769328, 0.13588735461235046, 0.15767422318458557, 0.26552125811576843, 0.8686292171478271, -0.8828029632568359, -1.886295199394226, -2.599384307861328, 0.6252893805503845, -0.013679301366209984, -1.1995031833648682, 1.207342505455017, 1.0657970905303955, -0.18981975317001343, -0.35491108894348145, 2.7991435527801514, 0.8123611211776733, -0.20730586349964142, 0.9913003444671631, -0.6818417310714722, 0.014681311324238777, 0.9145867824554443, 0.3102837800979614, -0.9110446572303772, 0.8742185831069946, -0.06978226453065872, -0.002968254964798689, 0.03670418635010719, -0.0027761803939938545, -0.04387460649013519, -0.037541281431913376], [-0.03404458984732628, -1.870623230934143, 1.893791675567627, 0.6891887187957764, -0.6467553377151489, 0.1446290910243988, 1.254652738571167, -1.2153624296188354, -0.9372348189353943, -0.11510584503412247, 0.7764416933059692, -4.592316627502441, -1.0735665559768677, 0.05993311107158661, 0.059696443378925323, -0.1860094964504242, -0.11950288712978363, -0.8356517553329468, 1.0955168008804321, 1.950460433959961, 2.647761106491089, -0.7852637767791748, 0.12532107532024384, 1.1528263092041016, -1.3145027160644531, -1.1914448738098145, -0.008270889520645142, 0.2860296368598938, -2.9732425212860107, -0.791266918182373, 0.07125978916883469, -0.7910204529762268, 0.52631014585495, 0.09289300441741943, -0.9428354501724243, -0.4432613253593445, 1.0879372358322144, -1.1360857486724854, -0.051038239151239395, -0.0247213002294302, -0.03147316351532936, -0.056122664362192154, 0.07176778465509415, -0.016082070767879486], [0.25617265701293945, 1.9204580783843994, -1.728227972984314, -0.9943893551826477, 0.7242465615272522, -0.011101461946964264, -1.176544427871704, 1.2641139030456543, 0.9499408602714539, 0.13865597546100616, -0.722025990486145, 4.612029552459717, 1.0048929452896118, 0.010166442953050137, -0.05293452367186546, 0.13238176703453064, 0.12921907007694244, 0.7733988165855408, -1.0671501159667969, -1.9869340658187866, -2.723081111907959, 0.815190315246582, -0.018392449244856834, -1.208825707435608, 1.3277225494384766, 0.9536311626434326, -0.034931015223264694, -0.4023580849170685, 3.0194530487060547, 0.7861422896385193, -0.11566779762506485, 0.949925422668457, -0.7404188513755798, -0.05171686038374901, 1.011435627937317, 0.30397599935531616, -1.1987791061401367, 1.07262122631073, -0.009680974297225475, -0.014326237142086029, -0.02019406668841839, 0.00913955643773079, -0.028978561982512474, 0.09282512962818146], [-0.05315803736448288, -1.6243157386779785, 1.5738619565963745, 0.7082386612892151, -0.5885888934135437, 0.12446217238903046, 1.2578848600387573, -1.2913763523101807, -0.9669771194458008, -0.11478040367364883, 0.6849014759063721, -4.148960590362549, -1.0368812084197998, 0.008935263380408287, -0.06253428757190704, -0.05277848243713379, -0.1115352064371109, -0.8442240953445435, 0.9505475163459778, 1.6444602012634277, 2.5718631744384766, -0.733267068862915, 0.08892487734556198, 0.9195371866226196, -1.4349420070648193, -1.1336227655410767, 0.1296929568052292, 0.2685575485229492, -2.6036665439605713, -0.6696710586547852, 0.17739439010620117, -0.9716793298721313, 0.5518701076507568, 0.14851415157318115, -0.8047094941139221, -0.21311381459236145, 0.9648738503456116, -0.9460021257400513, 0.09498824924230576, -0.025149492546916008, 0.059061046689748764, -0.06944864988327026, -0.02952997013926506, 0.02861071564257145], [-0.13691146671772003, -1.9103307723999023, 1.79752516746521, 0.7300477623939514, -0.6911357045173645, 0.0975852906703949, 1.449314832687378, -1.3587082624435425, -0.961121141910553, -0.059708572924137115, 0.7537260055541992, -4.736989974975586, -1.0343801975250244, 0.01772938296198845, -0.1485145092010498, -0.10572033375501633, -0.2042965292930603, -1.108486294746399, 0.9457793831825256, 1.885159969329834, 2.6727757453918457, -0.739077627658844, 0.17513956129550934, 1.2424358129501343, -1.3971459865570068, -1.243367314338684, 0.059032537043094635, 0.24896559119224548, -2.9014148712158203, -0.6542770266532898, 0.20764867961406708, -0.95321124792099, 0.5416325926780701, 0.14810636639595032, -1.1050862073898315, -0.22752037644386292, 1.2759438753128052, -1.1895277500152588, -0.05605905130505562, 0.04444289952516556, -0.023448627442121506, -0.05948536470532417, -0.0047123064287006855, -0.06389731913805008], [0.10227005183696747, 1.8176733255386353, -1.8729175329208374, -0.8688302636146545, 0.6057974696159363, 0.026409080252051353, -1.2025214433670044, 1.2871156930923462, 0.8234906792640686, -0.005418785847723484, -0.6935564279556274, 4.610267162322998, 1.039005994796753, 0.09526930749416351, 0.18266138434410095, 0.14733639359474182, 0.059187039732933044, 0.8922675251960754, -1.1368733644485474, -1.9861223697662354, -2.623769521713257, 0.7391940951347351, -0.09876806288957596, -1.0367233753204346, 1.4076260328292847, 1.1104192733764648, -0.08149276673793793, -0.34693270921707153, 2.79935884475708, 0.796421468257904, -0.033438850194215775, 0.8573112487792969, -0.6803818941116333, -0.05670148879289627, 1.0092418193817139, 0.2155863493680954, -1.122597336769104, 0.9212199449539185, -0.014679941348731518, 0.03317809849977493, 0.0035884769167751074, -0.0028943256475031376, -0.05628360062837601, 0.003184684319421649], [0.08801112323999405, 1.860427975654602, -1.988417625427246, -0.7502617835998535, 0.764935314655304, 0.0075668771751224995, -1.4126787185668945, 1.2900303602218628, 0.9078176021575928, 0.16983629763126373, -0.7489563226699829, 4.8625168800354, 1.1662650108337402, 0.1339794099330902, -0.01334653701633215, -0.03643495962023735, 0.21951885521411896, 1.0921902656555176, -0.9289723038673401, -1.8275455236434937, -2.7086570262908936, 0.8396686911582947, -0.1259196549654007, -1.2932722568511963, 1.130360722541809, 1.0528331995010376, -0.23773516714572906, -0.2691813111305237, 3.1757919788360596, 0.7757635712623596, -0.14662984013557434, 1.0340882539749146, -0.5704904794692993, -0.05202338099479675, 0.9383297562599182, 0.32053208351135254, -1.2960925102233887, 1.001166582107544, -0.052565306425094604, 0.02283172495663166, 0.02875458262860775, 0.02016160637140274, -0.03866970166563988, 0.09572667628526688], [0.2763398587703705, 1.7261266708374023, -1.5715305805206299, -0.7461323738098145, 0.6856928467750549, -0.0676846131682396, -1.097968339920044, 1.033926248550415, 0.9133813977241516, -0.04574926197528839, -0.6924999952316284, 4.065168380737305, 1.0080275535583496, 0.0037068964447826147, 0.11179548501968384, -0.07000064849853516, 0.2152060717344284, 0.7448464035987854, -0.912082850933075, -1.7187879085540771, -2.585453987121582, 0.7055305242538452, -0.015380489639937878, -0.9875128269195557, 1.20137619972229, 0.8605955839157104, -0.14370498061180115, -0.38651543855667114, 2.685913324356079, 0.5460140705108643, -0.17673836648464203, 0.9335266947746277, -0.5544123649597168, -0.1272544264793396, 1.0244537591934204, 0.17548182606697083, -0.9823204278945923, 1.0188740491867065, 0.013016879558563232, 0.038796089589595795, 0.006401097401976585, -0.02422039955854416, -0.05859663337469101, 0.02180878072977066], [-0.06676548719406128, -1.9775946140289307, 1.7077479362487793, 0.9474721550941467, -0.6059580445289612, 0.13254161179065704, 1.266445517539978, -1.156019687652588, -1.0554590225219727, -0.09253351390361786, 0.7680762410163879, -4.552983283996582, -0.993282675743103, -0.09031473100185394, -0.1843053698539734, 0.02744392864406109, -0.1755824238061905, -0.8424399495124817, 0.9537084102630615, 1.9802827835083008, 2.7368996143341064, -0.6741728782653809, -0.05298202112317085, 1.1445157527923584, -1.2372698783874512, -1.100097417831421, 0.16601009666919708, 0.4420112371444702, -2.880506992340088, -0.8348795175552368, 0.09712322056293488, -0.886041522026062, 0.7147716283798218, 0.0024460069835186005, -1.0017549991607666, -0.3805772662162781, 0.951103150844574, -0.9892562031745911, 0.05139482393860817, 0.07172808051109314, 0.04396047070622444, 0.06851338595151901, -0.03201666101813316, 0.02472909353673458], [-0.09764657914638519, -2.0260887145996094, 2.0246551036834717, 0.8328694701194763, -0.7717366814613342, -0.11874591559171677, 1.3126530647277832, -1.242674708366394, -0.8864359855651855, -0.004774386063218117, 0.6605282425880432, -4.7584404945373535, -1.0209853649139404, 0.06145700067281723, 0.01152617484331131, 0.024586575105786324, -0.14886875450611115, -0.9916953444480896, 1.022367000579834, 1.8567925691604614, 2.7557597160339355, -0.9221477508544922, 0.20050589740276337, 1.2505475282669067, -1.4134514331817627, -1.0848870277404785, 0.15314622223377228, 0.29307010769844055, -3.1389989852905273, -0.6886564493179321, 0.011598999612033367, -0.9801807403564453, 0.7374405860900879, -0.05285637080669403, -0.9989616870880127, -0.27013838291168213, 1.2734448909759521, -1.2132822275161743, -0.04142768681049347, -0.018055099993944168, 0.005468429997563362, 0.04442695900797844, -0.03945576399564743, -0.07357373833656311], [0.09308081120252609, 1.627475619316101, -1.674012541770935, -0.6899995803833008, 0.623960554599762, 0.048381321132183075, -1.3320012092590332, 1.0807157754898071, 0.8193568587303162, -0.06835263222455978, -0.7931764125823975, 4.305243015289307, 1.0286322832107544, 0.0875389575958252, -0.025897173210978508, -0.05781947448849678, 0.2595866322517395, 0.8191854357719421, -1.010287880897522, -1.7317198514938354, -2.5074846744537354, 0.8766299486160278, 0.06557264178991318, -1.127111792564392, 1.262431263923645, 1.018656849861145, -0.19749513268470764, -0.34212440252304077, 2.7609355449676514, 0.8426090478897095, -0.2536066770553589, 0.8397129774093628, -0.6508944034576416, -0.06581787765026093, 0.9527134299278259, 0.3130146265029907, -1.1060775518417358, 1.106141209602356, -0.006163955666124821, -0.07200300693511963, -0.08850531280040741, 0.010849147103726864, 0.012883523479104042, 0.022986948490142822], [-0.1307128369808197, -1.9334683418273926, 1.7756165266036987, 0.6373394131660461, -0.541043221950531, -0.11654799431562424, 1.2709932327270508, -1.0956313610076904, -0.8896446228027344, -0.12729334831237793, 0.7555859684944153, -4.4072394371032715, -0.9775070548057556, 0.019476721063256264, -0.17849382758140564, -0.14782755076885223, -0.26710188388824463, -1.0159053802490234, 0.8959360718727112, 1.7450969219207764, 2.5699689388275146, -0.6995286345481873, -0.024291884154081345, 1.0729724168777466, -1.3579912185668945, -0.993416965007782, 0.0808001160621643, 0.40694645047187805, -2.8127574920654297, -0.6276325583457947, 0.1904153972864151, -0.8625034689903259, 0.6569015383720398, 0.18503034114837646, -0.868895411491394, -0.16789990663528442, 0.9395277500152588, -1.021626591682434, 0.014554840512573719, 0.08000154048204422, 0.0534302294254303, 0.08576125651597977, 0.05568220838904381, -0.07685447484254837], [0.011201688088476658, -1.7635033130645752, 1.7344012260437012, 0.7555626034736633, -0.6288137435913086, 0.14142432808876038, 1.0630730390548706, -1.2079366445541382, -0.7529355883598328, 0.00046435720287263393, 0.5235480070114136, -4.340460300445557, -0.8959419131278992, -0.04041315242648125, -0.014198648743331432, -0.09966004639863968, -0.14656072854995728, -0.8981525301933289, 0.9878297448158264, 1.7246376276016235, 2.434701919555664, -0.842665433883667, 0.2070160061120987, 1.0541597604751587, -1.403676152229309, -0.9372813701629639, 0.24128314852714539, 0.18725961446762085, -2.6645729541778564, -0.7827959656715393, 0.1487739533185959, -1.0731099843978882, 0.5733839869499207, 0.04262298718094826, -0.8619964718818665, -0.29930755496025085, 0.9010639190673828, -0.8283753991127014, 0.04726661741733551, 0.05971871316432953, -0.03323850408196449, -0.07394381612539291, 0.020704522728919983, -0.061486050486564636], [0.26536303758621216, 1.6107127666473389, -1.5192047357559204, -0.6780793070793152, 0.4792846441268921, -0.1752755045890808, -1.0618367195129395, 1.194682240486145, 0.8269395232200623, -0.005406046751886606, -0.5075589418411255, 4.16036319732666, 1.0102076530456543, -0.105911485850811, 0.13162004947662354, -0.030134784057736397, 0.021184051409363747, 0.9088417887687683, -0.8734633922576904, -1.6868085861206055, -2.352242946624756, 0.6756508350372314, -0.19763214886188507, -1.0028932094573975, 1.2334246635437012, 1.0590883493423462, -0.26444798707962036, -0.2806189954280853, 2.689714193344116, 0.6000791788101196, -0.23461543023586273, 0.9664426445960999, -0.5381700396537781, 0.005434529855847359, 0.9211695194244385, 0.18216131627559662, -0.8341025114059448, 0.8764339685440063, -0.07978052645921707, -0.0206390880048275, 0.050635408610105515, 0.0037440918385982513, 0.011991695500910282, -0.00048775706090964377], [0.0749751403927803, 1.6896626949310303, -1.5635417699813843, -0.8257342576980591, 0.7405184507369995, -0.06447777897119522, -1.2251931428909302, 1.0634865760803223, 0.7568726539611816, -0.01899012178182602, -0.5078017711639404, 4.103448390960693, 0.9328494071960449, 0.006708275992423296, 0.09009856730699539, 0.18429888784885406, 0.1539577692747116, 0.9172809720039368, -1.045371174812317, -1.8567330837249756, -2.337148904800415, 0.6671257019042969, 0.02490251511335373, -0.9984110593795776, 1.1840606927871704, 1.045861005783081, -0.17330610752105713, -0.39001449942588806, 2.4873554706573486, 0.7550015449523926, -0.2516452968120575, 0.9624981880187988, -0.57635098695755, -0.10048280656337738, 0.7580389976501465, 0.25361374020576477, -0.8896455764770508, 1.0041841268539429, -0.05048716068267822, -0.070619136095047, -0.05147041752934456, 0.037978656589984894, 0.03344282880425453, -0.030438169836997986], [0.26048046350479126, 1.5729711055755615, -1.521283745765686, -0.5979071259498596, 0.7285791039466858, -0.09553343057632446, -1.1329822540283203, 1.0963870286941528, 0.9587392807006836, 0.030813122168183327, -0.6695385575294495, 4.095126628875732, 0.8368782997131348, 0.08742227405309677, 0.04947875812649727, -0.08724957704544067, 0.0705946832895279, 0.9127132892608643, -1.0358154773712158, -1.870037317276001, -2.4895362854003906, 0.7273013591766357, -0.19659917056560516, -1.1200296878814697, 1.2821828126907349, 1.043067455291748, -0.1717979460954666, -0.1705736666917801, 2.774317979812622, 0.6439185738563538, -0.02993091568350792, 0.7374321818351746, -0.7460159659385681, -0.19816596806049347, 0.8229323625564575, 0.3939324915409088, -0.9088958501815796, 1.0352823734283447, -0.07101115584373474, 0.03990824893116951, -0.09885280579328537, -0.07393834739923477, -0.02299925498664379, 0.022877095267176628], [0.008542060852050781, 2.07201886177063, -1.8445439338684082, -0.8960914015769958, 0.642676830291748, -0.10869300365447998, -1.2088356018066406, 1.3360443115234375, 0.9198724031448364, -0.06796979904174805, -0.6510295271873474, 5.0558857917785645, 1.1411198377609253, -0.05336620658636093, -0.07252807915210724, 0.08735384047031403, 0.22061896324157715, 1.0800458192825317, -1.1160415410995483, -2.0965359210968018, -2.8571243286132812, 0.7938351035118103, -0.09390388429164886, -1.187606930732727, 1.1526821851730347, 1.0785225629806519, -0.03149852529168129, -0.450102299451828, 3.307344675064087, 0.8152233362197876, -0.20896577835083008, 1.0554503202438354, -0.5481066703796387, -0.1067839115858078, 1.0777708292007446, 0.38335558772087097, -1.159937858581543, 1.1606357097625732, 0.05810565501451492, -0.0022269543260335922, -0.03016352839767933, 0.036876264959573746, -0.059258073568344116, -0.001189648755826056], [0.25064101815223694, 1.9247170686721802, -1.8054118156433105, -0.9573432803153992, 0.6063649654388428, 0.009305686689913273, -1.362944483757019, 1.3919225931167603, 1.0371782779693604, 0.044007573276758194, -0.7209447026252747, 4.776301860809326, 1.1320518255233765, -0.0053168172016739845, 0.054552555084228516, 0.10739178955554962, 0.07945122569799423, 0.845547080039978, -1.100449562072754, -1.8936766386032104, -2.898754835128784, 0.9420415163040161, 0.043338291347026825, -1.131640911102295, 1.3196078538894653, 1.1122881174087524, -0.30984336137771606, -0.3189792037010193, 3.0547749996185303, 0.7888015508651733, -0.04688059911131859, 0.9074946641921997, -0.7617281079292297, -0.09711824357509613, 0.9617537260055542, 0.16745275259017944, -1.0430760383605957, 1.184286117553711, -0.058863960206508636, 0.01705070398747921, -0.0552016980946064, 0.021052313968539238, -0.04798271879553795, 0.04134882614016533], [0.24855150282382965, 1.658981204032898, -1.8525434732437134, -0.7746449112892151, 0.5346893668174744, 0.09539470821619034, -1.263984203338623, 1.1866456270217896, 0.7911563515663147, 0.18559220433235168, -0.7158473134040833, 4.44044828414917, 1.0498241186141968, 0.13389499485492706, 0.043130263686180115, -0.11269991844892502, 0.28706273436546326, 1.0412304401397705, -1.1573973894119263, -1.9482632875442505, -2.6835198402404785, 0.8833339214324951, 0.06468243896961212, -1.2565916776657104, 1.327817678451538, 0.9544588923454285, -0.10101421922445297, -0.28601932525634766, 3.1130788326263428, 0.7868356108665466, -0.13698908686637878, 0.804684042930603, -0.6060749292373657, -0.0527600422501564, 0.9953610897064209, 0.23651644587516785, -1.0088387727737427, 1.0991612672805786, -0.0718790665268898, -0.0015313182957470417, -0.04804462566971779, -0.03300585597753525, 0.06457080692052841, 0.021155353635549545], [0.10633042454719543, 1.58063805103302, -1.6673773527145386, -0.7904428243637085, 0.6449776291847229, -0.08484788239002228, -1.2442065477371216, 1.3222213983535767, 0.9243995547294617, -0.045427028089761734, -0.7004819512367249, 4.136301517486572, 0.9652382135391235, 0.10429199039936066, 0.21338672935962677, 0.11463727802038193, 0.06872010231018066, 0.905938982963562, -0.9393391609191895, -1.891829013824463, -2.3088772296905518, 0.6983493566513062, -0.10901065170764923, -1.0753173828125, 1.248299479484558, 0.9465850591659546, 0.03539714217185974, -0.12525157630443573, 2.834423303604126, 0.571018636226654, -0.07241735607385635, 0.7560157179832458, -0.7012726068496704, -0.08224035054445267, 1.0350364446640015, 0.1447504311800003, -1.0168657302856445, 0.9774631857872009, -0.003984365146607161, -0.04219219461083412, 0.0006470520165748894, -0.024906761944293976, 0.08629436045885086, -0.02139485627412796], [0.24174761772155762, 1.7480632066726685, -1.6583160161972046, -0.6929202675819397, 0.602910578250885, -0.15769879519939423, -1.0074495077133179, 1.1684633493423462, 0.922382116317749, 0.12346784770488739, -0.70907062292099, 4.113826274871826, 1.04633367061615, 0.001425412716343999, 0.21330970525741577, -0.08311032503843307, 0.292462557554245, 0.6910644173622131, -1.1090748310089111, -1.8242708444595337, -2.2902615070343018, 0.672752857208252, -0.14272205531597137, -1.124282717704773, 1.167190432548523, 0.9351826310157776, -0.26814520359039307, -0.16380269825458527, 2.4896240234375, 0.7130021452903748, -0.02822204865515232, 0.8080583810806274, -0.6125336289405823, 0.048082053661346436, 0.9897866249084473, 0.18710605800151825, -1.0266194343566895, 0.8929666876792908, -0.010229856707155704, -0.05915866047143936, -0.04057309031486511, -0.1001904159784317, 0.03515569865703583, -0.0671563446521759], [-0.25625163316726685, -2.0723586082458496, 1.9920804500579834, 0.7666448354721069, -0.8480741381645203, 0.033157460391521454, 1.441575527191162, -1.1678420305252075, -1.0029584169387817, 0.01745847798883915, 0.900992751121521, -4.878420352935791, -1.0866857767105103, -0.19392560422420502, 0.06533534079790115, -0.09996691346168518, -0.1529136598110199, -0.8920164704322815, 1.094222068786621, 1.9863024950027466, 2.8857486248016357, -0.9348347783088684, 0.10855323821306229, 1.1485059261322021, -1.1853539943695068, -1.1777077913284302, -0.00021171900152694434, 0.4139916002750397, -3.2357418537139893, -0.7752885222434998, 0.06181470304727554, -0.9263454675674438, 0.6872919201850891, -0.050288695842027664, -0.9746618866920471, -0.30773797631263733, 1.239283561706543, -1.2551329135894775, 0.04087994620203972, 0.02044806443154812, -0.021643783897161484, 0.08091621845960617, 0.030761323869228363, 0.05545208603143692], [0.27953991293907166, 1.8498671054840088, -1.8914687633514404, -0.7319557070732117, 0.7559741139411926, 0.013978720642626286, -1.211521029472351, 1.1566401720046997, 0.9832934141159058, -0.05034395307302475, -0.8620331287384033, 4.78916072845459, 1.078068494796753, -0.02696131356060505, 0.11472771316766739, -0.12052839994430542, 0.2770136296749115, 0.9760839939117432, -1.1304763555526733, -2.042311429977417, -2.580268383026123, 0.8095725774765015, -0.0005570268258452415, -1.0580003261566162, 1.2411291599273682, 1.1677658557891846, -0.12838688492774963, -0.29244092106819153, 3.1560604572296143, 0.6780428290367126, -0.009666120633482933, 0.8687591552734375, -0.6629406213760376, -0.03605612739920616, 1.0823205709457397, 0.252349317073822, -1.1147310733795166, 0.9147700071334839, -0.06196470558643341, -0.049774061888456345, -0.10778412222862244, -0.08715623617172241, -0.027553478255867958, 0.05849294736981392], [-0.13951578736305237, -2.022562265396118, 1.78937828540802, 0.8405476212501526, -0.784852921962738, 0.12828466296195984, 1.3388652801513672, -1.2459526062011719, -1.0635430812835693, 0.03940708935260773, 0.8002051115036011, -4.774779319763184, -1.1083372831344604, -0.15616652369499207, -0.021891282871365547, 0.04176996648311615, -0.2017199993133545, -0.9763231873512268, 0.9591325521469116, 1.9322584867477417, 2.9084627628326416, -0.8362090587615967, 0.19082680344581604, 1.1854325532913208, -1.2107629776000977, -1.2168024778366089, 0.052126672118902206, 0.3769790232181549, -2.809507369995117, -0.7119764089584351, 0.28648075461387634, -0.8586646914482117, 0.5248298645019531, -0.03685741126537323, -1.0475928783416748, -0.15339094400405884, 1.2122070789337158, -1.0550765991210938, 0.06217881664633751, -0.014030497521162033, -0.023423047736287117, 0.029279647395014763, 0.026028646156191826, -0.06756705045700073], [0.15186820924282074, 1.729063868522644, -1.5680274963378906, -0.8092736601829529, 0.6752181649208069, -0.08968742936849594, -1.1787141561508179, 1.223976731300354, 0.7763078808784485, 0.09072338044643402, -0.6812316179275513, 3.9183335304260254, 1.0436667203903198, -0.13500244915485382, 0.013159624300897121, -0.11744344979524612, 0.18583092093467712, 0.7308229804039001, -0.854697585105896, -1.7706509828567505, -2.581465482711792, 0.686087965965271, -0.19047117233276367, -0.9090704321861267, 1.3238376379013062, 0.9003820419311523, -0.08605903387069702, -0.16667211055755615, 2.5690786838531494, 0.7474212050437927, -0.10417107492685318, 0.9914825558662415, -0.5032877922058105, -0.15957288444042206, 0.8301770687103271, 0.164911687374115, -1.0309654474258423, 0.753368079662323, -0.042108263820409775, 0.03745609521865845, 0.028563499450683594, -0.09047608822584152, 0.05566176027059555, 0.08743882179260254], [-0.21156516671180725, -1.8090766668319702, 1.6709301471710205, 0.6938745975494385, -0.7796423435211182, 0.08580426871776581, 1.3456963300704956, -1.395077109336853, -0.9822245836257935, 0.09812326729297638, 0.8333061933517456, -4.457665920257568, -0.9814631938934326, -0.051452554762363434, -0.05272529274225235, -0.15346449613571167, -0.27348145842552185, -1.0487477779388428, 1.1370233297348022, 1.8007781505584717, 2.7682013511657715, -0.6937699317932129, 0.11382657289505005, 1.1543935537338257, -1.178208351135254, -0.9280910491943359, 0.2447037249803543, 0.3968620002269745, -2.99194598197937, -0.7797529101371765, 0.23051808774471283, -0.8438460230827332, 0.519777774810791, 0.0016916311578825116, -1.1012061834335327, -0.3868321180343628, 1.0903372764587402, -0.9417073130607605, 0.02366560697555542, -0.0406171977519989, -0.02816125564277172, 0.0634545385837555, 0.03146081045269966, -0.07776475697755814], [0.13460059463977814, 1.5747514963150024, -1.7767972946166992, -0.6807204484939575, 0.653937816619873, 0.11130793392658234, -1.2145708799362183, 1.1102569103240967, 0.8847298622131348, -0.07092243432998657, -0.6099677085876465, 4.1748785972595215, 1.0345669984817505, 0.16226036846637726, 0.1272319257259369, 0.0333588682115078, 0.023082414641976357, 0.8694097399711609, -0.9366390109062195, -1.8839107751846313, -2.3491580486297607, 0.5897112488746643, -0.027031030505895615, -0.9525673985481262, 1.401369333267212, 0.899691104888916, -0.13324199616909027, -0.3464559018611908, 2.690356731414795, 0.6123183369636536, -0.15009912848472595, 0.8154993057250977, -0.5252050757408142, -0.11060136556625366, 0.8370589017868042, 0.41370704770088196, -0.9174474477767944, 0.8846065402030945, -0.09414767473936081, 0.01472481805831194, 0.048205260187387466, 0.07211172580718994, -0.05231679230928421, 0.10106491297483444], [0.21830762922763824, 1.6791785955429077, -1.8004448413848877, -0.8349396586418152, 0.6260836720466614, -0.05288505181670189, -1.2260940074920654, 1.3256959915161133, 0.9645058512687683, -0.10290325433015823, -0.7939111590385437, 4.380169868469238, 1.154471755027771, 0.028735633939504623, -0.08146853744983673, 0.022389302030205727, 0.04934437945485115, 0.8996996879577637, -1.156004548072815, -1.7358124256134033, -2.4561033248901367, 0.8200114965438843, -0.08266661316156387, -1.158554196357727, 1.125030755996704, 1.0469419956207275, -0.19600513577461243, -0.38509687781333923, 2.8768656253814697, 0.6830203533172607, -0.1602558046579361, 0.8043408393859863, -0.49690937995910645, 0.03335535153746605, 1.0830670595169067, 0.4206216335296631, -1.0417596101760864, 1.076910376548767, 0.04036521539092064, 0.051077425479888916, -0.11169634014368057, -0.06560564786195755, -0.04316246509552002, -0.052986398339271545], [-0.1373429298400879, -1.618298888206482, 1.6829254627227783, 0.7314304709434509, -0.6087274551391602, 0.16190190613269806, 1.163392424583435, -1.2426954507827759, -0.9980438947677612, 0.12758871912956238, 0.6944577693939209, -4.207222938537598, -1.0243958234786987, -0.13106444478034973, -0.0599200464785099, 0.12186694890260696, -0.238076850771904, -0.7473265528678894, 1.1560465097427368, 1.7763340473175049, 2.6161561012268066, -0.8264303207397461, 0.18402178585529327, 0.9650150537490845, -1.1939581632614136, -0.8572471141815186, 0.04601798206567764, 0.42049822211265564, -2.6404199600219727, -0.6199684143066406, 0.17330902814865112, -1.0052491426467896, 0.5405025482177734, 0.015362921170890331, -0.9076266884803772, -0.345803827047348, 0.8634559512138367, -1.0792338848114014, 0.05963515490293503, -0.051072582602500916, -0.01084264274686575, 0.08269087970256805, -0.05583655461668968, 0.011707529425621033], [0.28049296140670776, 1.6832783222198486, -1.6338261365890503, -0.7366799712181091, 0.5351780652999878, 0.020849252119660378, -1.055171251296997, 1.2365694046020508, 0.8691309690475464, -0.02861505188047886, -0.5115945339202881, 4.242538928985596, 1.1219227313995361, -0.09266956150531769, 0.20425795018672943, 0.07882917672395706, 0.16167756915092468, 0.7621497511863708, -1.0059436559677124, -1.6385869979858398, -2.378988027572632, 0.6335965394973755, -0.023057473823428154, -1.0456937551498413, 1.2191351652145386, 0.9297785758972168, -0.12662266194820404, -0.36887601017951965, 2.6983487606048584, 0.5934183597564697, -0.22069640457630157, 0.9647326469421387, -0.7167632579803467, -0.08698424696922302, 0.8745774030685425, 0.19691284000873566, -1.0004807710647583, 0.8858599066734314, -0.04917518422007561, 0.04908941686153412, -0.12238585203886032, -0.026068026199936867, -0.06984611600637436, -0.0008282599737867713], [-0.006102453451603651, 1.7502176761627197, -1.8040390014648438, -0.5987868309020996, 0.5784850120544434, -0.035876914858818054, -1.0852130651474, 1.1388309001922607, 0.8994417190551758, 0.15467460453510284, -0.7907350659370422, 4.305444240570068, 0.9738073348999023, -0.03441765531897545, -0.051789648830890656, 0.12141939997673035, 0.08321613073348999, 0.9433460831642151, -0.8714651465415955, -1.8923808336257935, -2.4958419799804688, 0.6159989237785339, -0.18102020025253296, -1.0682408809661865, 1.2584551572799683, 1.1044785976409912, -0.03345504775643349, -0.20598368346691132, 2.816118001937866, 0.6810702681541443, -0.08826790750026703, 1.002668023109436, -0.7159252762794495, -0.10063543915748596, 1.0031392574310303, 0.3019673228263855, -1.0625972747802734, 0.8983421325683594, -0.0765116885304451, -0.005958969239145517, 0.03332649916410446, 0.033600836992263794, -0.037057437002658844, 0.10783225297927856], [0.23172612488269806, 2.039438247680664, -1.760512351989746, -1.0113531351089478, 0.6172221899032593, 0.07111230492591858, -1.2627443075180054, 1.2303236722946167, 1.0064865350723267, -0.10759560763835907, -0.7942460179328918, 4.861309051513672, 1.183239221572876, 0.020540442317724228, 0.049165476113557816, -0.018901515752077103, 0.19639432430267334, 0.9806661605834961, -0.9842506647109985, -1.9736909866333008, -2.7254579067230225, 0.9557129144668579, 0.059386834502220154, -1.2852840423583984, 1.1832094192504883, 1.111193060874939, -0.04733346775174141, -0.28926435112953186, 3.2585067749023438, 0.8294234871864319, -0.2976382374763489, 0.8120359182357788, -0.6162530779838562, -0.04063098505139351, 1.0734487771987915, 0.19919352233409882, -1.3106120824813843, 1.0663524866104126, 0.04441775754094124, -0.04852628335356712, 0.005097848363220692, -0.05778978019952774, -0.002961385063827038, 0.01043388620018959], [0.13426242768764496, 1.7447479963302612, -1.5850884914398193, -0.6592223644256592, 0.6433565020561218, -0.07738204300403595, -1.25291907787323, 1.1346285343170166, 0.8453611135482788, -0.06422597169876099, -0.6794404983520508, 3.963456869125366, 0.9059322476387024, 0.010902397334575653, 0.18865224719047546, -0.02780146896839142, 0.16991998255252838, 0.7883418202400208, -1.0771422386169434, -1.6989506483078003, -2.335127592086792, 0.7937647104263306, -0.0638057142496109, -0.9916625022888184, 1.3017057180404663, 0.7984103560447693, -0.20562562346458435, -0.3363953232765198, 2.59698224067688, 0.7408422827720642, -0.049004457890987396, 0.9723344445228577, -0.7194926142692566, 0.004800558555871248, 0.84759521484375, 0.2857299745082855, -1.0137267112731934, 1.042167067527771, -0.021731389686465263, -0.043329790234565735, -0.10660498589277267, 0.03690356761217117, -0.03720228746533394, -0.0017436784692108631], [-0.11831166595220566, -1.9791133403778076, 1.8414026498794556, 0.7603647708892822, -0.8696552515029907, -0.09520912170410156, 1.2646112442016602, -1.212105631828308, -1.0248934030532837, -0.03388676419854164, 0.8259989023208618, -4.72364616394043, -1.0438119173049927, 0.027714936062693596, 0.012645821087062359, 0.0334429107606411, -0.1788557767868042, -0.9358100891113281, 1.0637309551239014, 2.0222156047821045, 2.8812222480773926, -0.9784321188926697, 0.12823063135147095, 1.2183009386062622, -1.3165541887283325, -1.070643663406372, 0.1884002983570099, 0.42803657054901123, -3.039100408554077, -0.9417716264724731, 0.030727144330739975, -0.9795698523521423, 0.7159503102302551, 0.027551399543881416, -1.1181632280349731, -0.22399015724658966, 1.245590090751648, -1.1652848720550537, -0.049380410462617874, 0.04996543377637863, 0.006629639770835638, -0.0379481203854084, 0.0760827586054802, -0.08640091121196747], [0.17136940360069275, 1.6756196022033691, -1.8784327507019043, -0.6753895282745361, 0.7452055811882019, 0.018027806654572487, -1.3557614088058472, 1.1729731559753418, 0.878386378288269, 0.1257319450378418, -0.7122756838798523, 4.439256191253662, 1.0620664358139038, 0.08181685954332352, 0.023038987070322037, -0.014897022396326065, -0.014372204430401325, 0.9733034372329712, -0.925585925579071, -1.7557247877120972, -2.670736789703369, 0.6722540259361267, 0.034921642392873764, -1.065934419631958, 1.3477579355239868, 0.8384346961975098, -0.08916135132312775, -0.16970142722129822, 2.7928478717803955, 0.5917266011238098, -0.19039107859134674, 0.9694187045097351, -0.5446189641952515, 0.037858735769987106, 0.9987382888793945, 0.2536245584487915, -1.148585557937622, 0.8310872912406921, 0.01915033906698227, -0.023620571941137314, -0.04891148582100868, -0.007613221183419228, 0.04004878178238869, 0.02091904915869236], [-0.08521848171949387, -1.813614845275879, 1.718119740486145, 0.8995709419250488, -0.7364309430122375, 0.16993498802185059, 1.4022971391677856, -1.3073713779449463, -0.9927038550376892, -0.10961097478866577, 0.8272247910499573, -4.6887383460998535, -1.2040376663208008, -0.011447849683463573, -0.10020444542169571, -0.0760565847158432, -0.11765668541193008, -1.0046521425247192, 1.0553817749023438, 1.8762298822402954, 2.736640214920044, -0.9305080771446228, 0.09981974214315414, 1.2058196067810059, -1.2449485063552856, -0.9060412049293518, 0.2557106912136078, 0.2599443793296814, -2.8857550621032715, -0.6346418261528015, 0.09385387599468231, -0.9031890034675598, 0.6728376746177673, 0.18197382986545563, -1.0202288627624512, -0.39813432097435, 1.0962432622909546, -1.17104971408844, -0.045027948915958405, -0.026655593886971474, 0.012467818334698677, -0.031532708555459976, 0.006545422598719597, 0.038095034658908844], [0.16772203147411346, 1.8949127197265625, -1.6331199407577515, -0.8473072052001953, 0.6614958047866821, -0.011933624744415283, -1.1888195276260376, 1.2619863748550415, 1.0454729795455933, 0.044132500886917114, -0.8319692015647888, 4.521637916564941, 1.014704704284668, 0.08232709020376205, 0.00082114472752437, 0.06929755210876465, 0.18627136945724487, 0.9000151753425598, -1.114383339881897, -1.7507057189941406, -2.64212965965271, 0.8127694129943848, -0.07304708659648895, -1.2162717580795288, 1.166755199432373, 0.9922230839729309, -0.13662029802799225, -0.35175496339797974, 3.12422776222229, 0.6673567891120911, -0.14012356102466583, 0.947441816329956, -0.5418248772621155, -0.15742100775241852, 0.8829094767570496, 0.2259666919708252, -1.1097482442855835, 0.9279385805130005, 0.07431010901927948, 0.0035038425121456385, -0.019454367458820343, 0.036190327256917953, 0.03880458325147629, -0.0007161686662584543], [0.011607359163463116, 1.686140775680542, -1.7561891078948975, -0.6644870638847351, 0.739716649055481, -0.06575966626405716, -1.1062220335006714, 1.31282377243042, 0.8165155053138733, -0.12112753093242645, -0.6980577707290649, 4.085113525390625, 1.020560383796692, 0.09043771773576736, -0.020115260034799576, -0.09045964479446411, 0.19844095408916473, 0.7907450795173645, -0.8820255398750305, -1.8936432600021362, -2.5216944217681885, 0.7522311210632324, 0.0653078481554985, -1.0601935386657715, 1.3119251728057861, 1.0034289360046387, -0.13880525529384613, -0.24471436440944672, 2.797304391860962, 0.6489050984382629, -0.09243825078010559, 0.8588722348213196, -0.6411067247390747, -0.07696277648210526, 0.9909390807151794, 0.16731905937194824, -1.0337501764297485, 0.9971897006034851, 0.022397484630346298, 0.016247881576418877, 0.018620464950799942, -0.04018266871571541, 0.04325135797262192, 0.07546290010213852], [-0.07444901019334793, -1.8706892728805542, 1.7253121137619019, 0.61299067735672, -0.6487191915512085, 0.1140257865190506, 1.075592279434204, -1.0712441205978394, -0.8715963959693909, 0.031570348888635635, 0.5903054475784302, -4.120376110076904, -0.9489634037017822, -0.09128256142139435, 0.07217567414045334, -0.09420978277921677, -0.06723162531852722, -0.8201738595962524, 0.9030082821846008, 1.8096047639846802, 2.6118946075439453, -0.6975051164627075, 0.2030218243598938, 0.942488431930542, -1.359659194946289, -1.073205590248108, 0.03527605161070824, 0.3498944342136383, -2.7010724544525146, -0.7728484869003296, 0.22315628826618195, -1.0181127786636353, 0.6525484919548035, -0.05282684415578842, -1.0177524089813232, -0.37331622838974, 1.0199968814849854, -1.024819254875183, 0.09366880357265472, -0.05279691517353058, -0.048060569912195206, 0.038450125604867935, -0.06388220936059952, 0.046376943588256836], [-0.07259458303451538, -1.6738489866256714, 1.7966995239257812, 0.635348379611969, -0.5996378660202026, -0.134071946144104, 1.2875078916549683, -1.1689660549163818, -0.9938419461250305, -0.01733013242483139, 0.7031074166297913, -4.294923305511475, -1.0626027584075928, 0.04746902361512184, -0.14636783301830292, 0.08506746590137482, -0.12420239299535751, -0.8163209557533264, 0.8207607865333557, 1.7558870315551758, 2.612311840057373, -0.7912269830703735, 0.08451433479785919, 1.1913745403289795, -1.284980058670044, -1.0398542881011963, 0.11444919556379318, 0.3406912088394165, -2.627224922180176, -0.7369670867919922, 0.13173837959766388, -1.0421651601791382, 0.6106124520301819, 0.06840331852436066, -0.9685584902763367, -0.4275059998035431, 0.8039224743843079, -0.8761084079742432, 0.054658859968185425, -0.04727586358785629, 0.04711504653096199, 0.005111231002956629, 0.0446590892970562, 0.015796033665537834], [-0.17228758335113525, -1.8599973917007446, 1.766973853111267, 0.7313731908798218, -0.6858023405075073, 0.09272702783346176, 1.1445910930633545, -1.164860486984253, -0.8005483746528625, -0.13019710779190063, 0.6461929082870483, -4.295688629150391, -1.1683012247085571, -0.11989128589630127, -0.14820453524589539, -0.057489097118377686, -0.13540051877498627, -0.9771521687507629, 0.8272188901901245, 1.8450757265090942, 2.4279510974884033, -0.6415563821792603, -0.08678033947944641, 1.0040476322174072, -1.3042696714401245, -0.8565558195114136, 0.11306434124708176, 0.29209640622138977, -2.6229472160339355, -0.6309000849723816, 0.23797889053821564, -0.9911386370658875, 0.6999281644821167, -0.020470574498176575, -0.8852790594100952, -0.15832099318504333, 1.0697590112686157, -0.8474506139755249, -0.009158402681350708, -0.051435720175504684, 0.1064172312617302, -0.006915534380823374, -0.08821975439786911, -0.04784097149968147], [0.12094870209693909, 1.9003269672393799, -1.5964341163635254, -0.7450398802757263, 0.6023754477500916, 0.006337539292871952, -1.2212289571762085, 1.1162232160568237, 0.8134698271751404, -0.023506324738264084, -0.7107796669006348, 4.343106746673584, 1.1601696014404297, 0.16175107657909393, 0.10767314583063126, 0.03877042233943939, 0.18966050446033478, 0.7991330027580261, -1.0954560041427612, -1.8136882781982422, -2.44083309173584, 0.8128103017807007, -0.0362272709608078, -1.0518152713775635, 1.3297642469406128, 1.0035141706466675, -0.30466851592063904, -0.24932336807250977, 2.894859790802002, 0.6693135499954224, -0.09988801181316376, 0.8151394724845886, -0.5253490805625916, -0.062360528856515884, 0.8259829878807068, 0.3200902044773102, -1.1225190162658691, 0.9176391363143921, -0.09063366055488586, 0.025359945371747017, 0.03803194686770439, 0.00754027022048831, 0.01314213965088129, -0.04824289679527283], [0.06627612560987473, 1.82235586643219, -1.7722914218902588, -0.6626228094100952, 0.6818106770515442, -0.06383465975522995, -1.2216442823410034, 1.1988166570663452, 0.9606288075447083, 0.026465578004717827, -0.6155635118484497, 4.174685478210449, 0.9345514178276062, 0.004269533324986696, 0.15197157859802246, 0.0330708809196949, 0.27533450722694397, 0.7506319880485535, -0.8634943962097168, -1.7991613149642944, -2.642155408859253, 0.7385390996932983, -0.07480321079492569, -1.1938389539718628, 1.1956795454025269, 1.049865484237671, -0.26251423358917236, -0.2862078547477722, 2.8267297744750977, 0.52916020154953, -0.08152732253074646, 0.8399957418441772, -0.6789852976799011, 0.06690961867570877, 0.9978718161582947, 0.37336766719818115, -0.874374508857727, 0.9926140904426575, 0.056625522673130035, -0.015274290926754475, -0.11707761883735657, 0.03217887878417969, -0.020854679867625237, -0.02933662198483944], [0.22124049067497253, 1.6522337198257446, -1.6534227132797241, -0.799244225025177, 0.5349034667015076, -0.18513734638690948, -1.186744213104248, 1.261051058769226, 0.9205716848373413, -0.0754404217004776, -0.7211904525756836, 4.081005573272705, 1.0924478769302368, -0.0968070849776268, 0.1892637312412262, -0.024645864963531494, 0.1373424381017685, 0.8316909670829773, -1.0457820892333984, -1.6463088989257812, -2.4754936695098877, 0.7601001858711243, -0.08196868002414703, -0.9062817692756653, 1.1306190490722656, 0.9909124374389648, -0.02887294813990593, -0.4186698794364929, 2.5598337650299072, 0.7017500996589661, -0.12386103719472885, 0.8188335299491882, -0.6108409762382507, -0.09442607313394547, 1.0112651586532593, 0.27766159176826477, -1.0007209777832031, 0.947606086730957, -0.05368584766983986, -0.003437013365328312, -0.026079200208187103, -0.02548839896917343, -0.04066755995154381, 0.0030885436572134495], [-0.24394264817237854, -1.9967128038406372, 1.901349663734436, 0.6997461318969727, -0.6169959902763367, 0.13006579875946045, 1.2173216342926025, -1.385170340538025, -0.9586195349693298, -0.10589828342199326, 0.8298394680023193, -4.521754264831543, -1.238123893737793, -0.028557084500789642, -0.06597845256328583, 0.08810495585203171, -0.14007560908794403, -0.8908436298370361, 1.1228002309799194, 1.9136039018630981, 2.8603928089141846, -0.9233396649360657, 0.1650441735982895, 1.0626052618026733, -1.3625608682632446, -1.1942775249481201, 0.2428826242685318, 0.1717931032180786, -3.106687545776367, -0.602999746799469, 0.12372563779354095, -0.8846027851104736, 0.6177231669425964, 0.15790492296218872, -0.9916675686836243, -0.3959799110889435, 1.0506361722946167, -1.2147071361541748, 0.07753846049308777, 0.01638750359416008, -0.04401574656367302, -0.06190110370516777, -0.04422196000814438, 0.011639945209026337], [0.2149939388036728, 1.5574827194213867, -1.6925911903381348, -0.6371522545814514, 0.6392665505409241, -0.09807974845170975, -1.2519705295562744, 1.2461144924163818, 0.889441967010498, 0.019325189292430878, -0.5166261792182922, 4.007346153259277, 0.9027512669563293, -0.04782741144299507, 0.026259329169988632, 0.019924210384488106, 0.15909801423549652, 0.7100510597229004, -0.9772423505783081, -1.6891673803329468, -2.295867681503296, 0.5754058361053467, 0.08998629450798035, -0.967108428478241, 1.407359004020691, 0.8600022196769714, -0.24660159647464752, -0.37609654664993286, 2.682401418685913, 0.6478517651557922, -0.07007505744695663, 0.9304662346839905, -0.6936628818511963, 0.0988193154335022, 0.9899345636367798, 0.3084696829319, -0.9123137593269348, 1.0848102569580078, 0.05136968940496445, -0.07002455741167068, 0.029891761019825935, -0.027252038940787315, 0.03648893162608147, -0.013978936709463596], [0.21348296105861664, 1.7079532146453857, -1.7942970991134644, -0.7055243253707886, 0.6384170055389404, -0.1951148957014084, -1.1080098152160645, 1.3015176057815552, 0.8695035576820374, -0.007435527164489031, -0.7732303738594055, 4.232205867767334, 1.0374681949615479, 0.14936646819114685, -0.05839305371046066, 0.0028877861332148314, 0.19630175828933716, 0.9827074408531189, -1.1204955577850342, -1.9707740545272827, -2.487431526184082, 0.8396457433700562, -0.20603331923484802, -1.0882419347763062, 1.1816213130950928, 1.102400541305542, -0.0320754200220108, -0.2370147407054901, 2.818643093109131, 0.597260594367981, -0.22885550558567047, 1.0006163120269775, -0.5147376656532288, -0.1449017971754074, 0.9049952626228333, 0.2327774167060852, -0.8599346280097961, 1.1036615371704102, -0.07359367609024048, 0.03384275361895561, -0.12234783917665482, -0.043477609753608704, 0.010438131168484688, -0.043059732764959335], [-0.019713256508111954, 2.243403673171997, -1.7067437171936035, -0.8978540301322937, 0.449368417263031, -0.11984193325042725, -1.1036797761917114, 1.334786295890808, 1.034273386001587, 0.019000567495822906, -0.5632208585739136, 4.312957286834717, 1.0659210681915283, 0.03633377328515053, 0.1597795933485031, -0.06857740879058838, 0.0382099412381649, 0.7417078018188477, -0.9652488827705383, -2.080138921737671, -3.1208131313323975, 0.692931056022644, -0.12959237396717072, -1.1001381874084473, 1.44632089138031, 1.0531824827194214, -0.2853831350803375, -0.13136865198612213, 2.566317319869995, 0.6819745898246765, -0.26199260354042053, 1.1611082553863525, -0.7378440499305725, -0.10781510174274445, 1.192184567451477, 0.1469341367483139, -0.9662922024726868, 1.140763521194458, 0.0050051514990627766, -0.07758990675210953, -0.011769115924835205, -0.007253957446664572, 0.05347950756549835, 0.052230220288038254], [-0.21744407713413239, -1.9275233745574951, 1.8123587369918823, 0.739757239818573, -0.5859273076057434, -0.09006854146718979, 1.2424571514129639, -1.3152413368225098, -0.884711742401123, 0.13487564027309418, 0.5732550024986267, -4.351761817932129, -0.9879481792449951, -0.06021237373352051, -0.17817726731300354, -0.032440003007650375, -0.04793820530176163, -0.8229141235351562, 0.9150094389915466, 1.8046711683273315, 2.7034029960632324, -0.674355149269104, 0.13909457623958588, 1.1539181470870972, -1.240504503250122, -1.0847101211547852, 0.22904151678085327, 0.22701512277126312, -2.989021062850952, -0.8110502362251282, 0.16463154554367065, -0.9258772134780884, 0.5074867606163025, 0.1973063349723816, -0.9519052505493164, -0.39175355434417725, 1.184025526046753, -1.1783760786056519, 0.021165527403354645, 0.046930115669965744, 0.05077746510505676, 0.07498283684253693, -0.020897429436445236, 0.03076932020485401], [-0.273813396692276, -2.0801193714141846, 2.040579080581665, 0.8207094669342041, -0.7807729840278625, -0.02306470461189747, 1.4529471397399902, -1.3522228002548218, -0.9585074186325073, 0.011370334774255753, 0.784702479839325, -4.801867485046387, -0.9651036262512207, -0.06241166964173317, -0.00642586313188076, -0.14254166185855865, -0.12389076501131058, -0.9413178563117981, 0.9793465733528137, 2.0851008892059326, 2.7686667442321777, -0.948319673538208, 0.02207188308238983, 1.2647061347961426, -1.2117761373519897, -1.217492699623108, 0.0504952147603035, 0.42901092767715454, -3.110079765319824, -0.8828023672103882, 0.1405024528503418, -1.0678397417068481, 0.6421751379966736, 0.1981952041387558, -1.0834319591522217, -0.4251643717288971, 1.3032493591308594, -1.1164817810058594, -0.05584009364247322, -0.036591511219739914, 0.05586126074194908, 0.0347873792052269, 0.0072970702312886715, -0.05801437795162201], [0.20383614301681519, 1.5866918563842773, -1.641897439956665, -0.6561843156814575, 0.7205569744110107, -0.045469675213098526, -1.3109689950942993, 1.0796421766281128, 0.9219067692756653, -0.04101363942027092, -0.6854779720306396, 4.316598415374756, 0.8732234239578247, 0.12985247373580933, 0.17675985395908356, 0.006928030401468277, 0.2471446692943573, 0.6936911344528198, -0.9351882338523865, -1.8671648502349854, -2.6106719970703125, 0.6686176061630249, 0.01519411988556385, -1.044446349143982, 1.1346286535263062, 0.8710805773735046, -0.060968104749917984, -0.24580533802509308, 2.8149335384368896, 0.7737868428230286, -0.08905011415481567, 0.9612507820129395, -0.586925745010376, -0.160487100481987, 0.7624436616897583, 0.14139637351036072, -1.037926435470581, 1.0339853763580322, -0.08929768949747086, 0.04258418455719948, -0.0012566016521304846, -0.06086599454283714, 0.016118725761771202, 0.04073508456349373], [0.23677954077720642, 1.6385438442230225, -1.8222054243087769, -0.7255232930183411, 0.6855646967887878, -0.10596209764480591, -1.1748101711273193, 1.154552936553955, 1.0124894380569458, 0.039260756224393845, -0.5841017365455627, 4.47598123550415, 0.9234010577201843, 0.006723036058247089, -0.053964342921972275, 0.10332178324460983, 0.11039337515830994, 0.846480667591095, -0.9821518659591675, -1.9498580694198608, -2.4956984519958496, 0.8774087429046631, -0.02734951116144657, -1.1680819988250732, 1.248672604560852, 1.0727585554122925, -0.03489222377538681, -0.37535279989242554, 2.9116482734680176, 0.6859338879585266, -0.18160325288772583, 0.9877769351005554, -0.7134785056114197, -0.16003170609474182, 0.8547199368476868, 0.2691001892089844, -0.9696933627128601, 1.0670865774154663, -0.012643951922655106, 0.0320090651512146, -0.09577732533216476, 0.0072041950188577175, -0.04492728039622307, 0.03527216613292694], [-0.044746365398168564, -1.887732744216919, 1.6180251836776733, 0.8241886496543884, -0.6053130030632019, -0.02037956193089485, 1.2697919607162476, -1.3257478475570679, -1.0696535110473633, 0.05032196640968323, 0.5983713865280151, -4.281125545501709, -1.136893630027771, -0.028630951419472694, -0.24221710860729218, -0.11947890371084213, -0.11528004705905914, -0.8218086957931519, 1.0494673252105713, 1.8242592811584473, 2.7170403003692627, -0.7026976943016052, 0.14965803921222687, 1.0203791856765747, -1.3706636428833008, -0.8857635259628296, 0.05379970371723175, 0.39740362763404846, -2.8762426376342773, -0.6288060545921326, 0.021402793005108833, -1.0245198011398315, 0.6199740767478943, -0.017857171595096588, -0.9838507771492004, -0.15334422886371613, 1.0557607412338257, -0.9405209422111511, -0.009958852082490921, -0.018954649567604065, 0.028323376551270485, 0.04788455367088318, 0.07005679607391357, -0.004548631142824888], [-0.214358851313591, -1.708824634552002, 1.8174183368682861, 0.8120759725570679, -0.5209463834762573, 0.13330116868019104, 1.251779556274414, -1.111043095588684, -0.7726912498474121, 0.05532299354672432, 0.6020030379295349, -4.357125282287598, -1.1178522109985352, 0.03889594227075577, -0.18826110661029816, 0.041763272136449814, -0.08497359603643417, -0.823694109916687, 1.0775494575500488, 1.8530104160308838, 2.7430734634399414, -0.8444045782089233, -0.002140670781955123, 1.0036530494689941, -1.3195444345474243, -1.1148920059204102, 0.17247223854064941, 0.1374940127134323, -2.793321132659912, -0.8306297063827515, 0.21994100511074066, -1.0609780550003052, 0.6957871317863464, 0.038156237453222275, -1.0196903944015503, -0.19432786107063293, 0.9786986708641052, -1.0381877422332764, 0.0739283412694931, 0.07167018949985504, -0.013046135194599628, -0.0513279065489769, 0.055545952171087265, 0.054451800882816315], [-0.07350614666938782, -1.8781819343566895, 1.723874568939209, 0.6143884658813477, -0.6030685305595398, 0.1453559249639511, 1.200424075126648, -1.3317042589187622, -0.8554929494857788, 0.050816748291254044, 0.7259485721588135, -4.268277168273926, -1.0800427198410034, 0.048451900482177734, -0.12620103359222412, 0.07834633439779282, -0.08978573232889175, -1.022212266921997, 0.8525416851043701, 1.9058488607406616, 2.5229990482330322, -0.7109948992729187, -0.03420504182577133, 0.8992817997932434, -1.3739221096038818, -0.8582149147987366, 0.1472989320755005, 0.27483272552490234, -2.546267032623291, -0.607001006603241, 0.06230570375919342, -0.920181393623352, 0.6129733324050903, 0.030066723003983498, -1.0747268199920654, -0.31323906779289246, 0.9025527238845825, -0.8735599517822266, 0.05157625302672386, -0.02454978972673416, 0.05827390402555466, 0.035202961415052414, -0.04853500798344612, -0.08442549407482147], [-0.0008297390886582434, 1.9205106496810913, -1.686269760131836, -0.6915311813354492, 0.4806586503982544, 0.0940454974770546, -1.13089919090271, 1.3457971811294556, 0.9669160842895508, -0.05781398341059685, -0.7578907012939453, 4.589657783508301, 1.021937370300293, -0.08159248530864716, 0.20554053783416748, -0.0763111263513565, 0.2053402066230774, 0.7371393442153931, -0.9599831104278564, -1.9017558097839355, -2.4724366664886475, 0.6074588894844055, 0.03600621968507767, -1.1233747005462646, 1.1611583232879639, 1.0855892896652222, -0.04928380995988846, -0.27452340722084045, 2.9589757919311523, 0.8111920356750488, -0.10722924768924713, 0.8879804611206055, -0.5635868310928345, 0.0234006829559803, 1.091616153717041, 0.24087989330291748, -0.8651422262191772, 0.9550270438194275, 0.008400585502386093, -0.062115319073200226, 0.03219509497284889, -0.0833054706454277, -0.08116064965724945, -0.009432008489966393], [-0.3058467209339142, -1.843711495399475, 1.734999656677246, 0.7268199920654297, -0.8326303958892822, 0.08646149933338165, 1.3562861680984497, -1.4175041913986206, -0.8283542990684509, 0.055175382643938065, 0.8103707432746887, -4.745139122009277, -1.1490956544876099, 0.04803729057312012, 0.06491950154304504, -0.0012209218693897128, -0.2676139175891876, -0.9882755279541016, 1.00516676902771, 2.000140428543091, 2.74151611328125, -0.7096105217933655, 0.026659902185201645, 1.292378544807434, -1.331223964691162, -1.1317718029022217, 0.009354542009532452, 0.16173399984836578, -3.1585795879364014, -0.8662136197090149, 0.06536749005317688, -0.9113950133323669, 0.725732147693634, 0.09296903759241104, -1.0916696786880493, -0.461408793926239, 1.1317352056503296, -1.0332099199295044, -0.06749837100505829, 0.025623859837651253, 0.07713020592927933, -0.04901140555739403, 0.046203263103961945, -0.018530348315835], [-0.12316545099020004, -1.8610143661499023, 1.7931292057037354, 0.675430178642273, -0.5171723365783691, 0.034460049122571945, 1.1415958404541016, -1.092522144317627, -1.007873296737671, 0.06518145650625229, 0.5368010997772217, -4.199765682220459, -1.0674824714660645, -0.04776022955775261, -0.16256649792194366, 0.0827651098370552, -0.2631637156009674, -0.7314538359642029, 1.0199171304702759, 1.8608237504959106, 2.390976667404175, -0.7114002704620361, 0.04085403308272362, 1.156277060508728, -1.2175489664077759, -1.036578893661499, 0.10369973629713058, 0.27631425857543945, -2.537324905395508, -0.6156906485557556, 0.10493753850460052, -0.9978073835372925, 0.5520429015159607, 0.11048036813735962, -0.8706615567207336, -0.2785918414592743, 0.8554179668426514, -1.0235403776168823, -0.004874653182923794, -0.052034903317689896, 0.02563060261309147, 0.011300266720354557, 0.007767412345856428, -0.03562796860933304], [0.008374251425266266, -1.6898934841156006, 1.8269758224487305, 0.6703827381134033, -0.5024287104606628, 0.07005687803030014, 1.1551378965377808, -1.3234809637069702, -1.0034440755844116, 0.03763703629374504, 0.5754694938659668, -4.4104719161987305, -0.9150014519691467, -0.08528393507003784, -0.09937718510627747, -0.09072266519069672, -0.150197833776474, -0.8468456864356995, 1.1588242053985596, 1.9881430864334106, 2.5653438568115234, -0.6557817459106445, -0.06501173973083496, 1.236849069595337, -1.2624250650405884, -1.0711989402770996, 0.057139359414577484, 0.18167591094970703, -2.868929386138916, -0.6595402359962463, 0.1594843715429306, -0.8965672254562378, 0.5763149261474609, 0.09721145778894424, -0.9757116436958313, -0.385196715593338, 0.9186515808105469, -1.0831444263458252, 0.09062335640192032, 0.025472983717918396, -0.025238100439310074, -0.040571458637714386, 0.0515865683555603, -0.047308702021837234], [0.12183725088834763, 1.6667488813400269, -1.7935436964035034, -0.7698131203651428, 0.7214338183403015, 0.12037540227174759, -1.0186362266540527, 1.0799670219421387, 0.7306295037269592, 0.04395123943686485, -0.5649133324623108, 4.358664035797119, 1.0406348705291748, 0.16421909630298615, 0.07788748294115067, -0.10494640469551086, 0.040911462157964706, 0.9101433157920837, -0.9486326575279236, -1.8427132368087769, -2.5210537910461426, 0.6658782958984375, 0.005988452583551407, -1.1797783374786377, 1.141926646232605, 0.8610342741012573, -0.0627463310956955, -0.3505312204360962, 2.881998062133789, 0.7512674927711487, -0.07356758415699005, 0.7784842252731323, -0.6762204766273499, -0.06955897063016891, 1.0715118646621704, 0.24691703915596008, -0.8386799097061157, 0.9630506038665771, 0.00637022266164422, 0.005520011764019728, -0.0874163880944252, -0.0777696967124939, 0.03030814602971077, -0.004711405374109745], [-0.11579438298940659, -1.8249378204345703, 1.947298526763916, 0.8348734974861145, -0.6296780705451965, -0.05045478790998459, 1.33504056930542, -1.1450928449630737, -1.057600975036621, -0.17321427166461945, 0.8262122869491577, -4.488174915313721, -1.0724667310714722, -0.0016111999284476042, -0.14550340175628662, -0.10811415314674377, -0.3338065445423126, -1.0713690519332886, 0.9688636064529419, 2.056389808654785, 2.6603424549102783, -0.8657681345939636, 0.16286537051200867, 1.2677273750305176, -1.1563135385513306, -1.1282005310058594, 0.21625712513923645, 0.23813281953334808, -2.9851043224334717, -0.7770114541053772, -0.01167774386703968, -0.7805646657943726, 0.7330002188682556, 0.01952981762588024, -1.0192567110061646, -0.16200801730155945, 0.9704356789588928, -1.066894292831421, -0.001837591640651226, 0.024686230346560478, 0.08726221323013306, 0.0032143318094313145, 0.07007363438606262, 0.01437600888311863], [-0.2602076828479767, -1.7993708848953247, 2.0212411880493164, 0.875006914138794, -0.7785748839378357, 0.04522838816046715, 1.3408222198486328, -1.2844948768615723, -0.864194929599762, -0.13228461146354675, 0.7225729823112488, -4.754738807678223, -1.0607279539108276, 0.015135393477976322, -0.10034877061843872, 0.016206132248044014, -0.3245004713535309, -0.8908849358558655, 0.9233092665672302, 2.027716636657715, 2.796159029006958, -0.6992393136024475, 0.0025412586983293295, 1.098473310470581, -1.4163506031036377, -0.9709889888763428, 0.09386630356311798, 0.32320570945739746, -3.185455322265625, -0.8814737200737, 0.22951632738113403, -0.8530042767524719, 0.564777672290802, -0.06649474799633026, -1.130997657775879, -0.3457602858543396, 1.2198282480239868, -0.9754047989845276, -0.0006946232169866562, 0.04921412467956543, -0.0072821518406271935, 0.049016132950782776, -0.03879152983427048, -0.046527307480573654], [-0.12388402968645096, -2.006713628768921, 1.7910442352294922, 0.7515999674797058, -0.5757298469543457, -0.041922759264707565, 1.4411156177520752, -1.2519587278366089, -0.8686889410018921, -0.08451452106237411, 0.6796747446060181, -4.596140384674072, -1.1583590507507324, -0.019993364810943604, -0.04629352316260338, -0.06762081384658813, -0.19049029052257538, -0.9134097099304199, 1.025390625, 1.8382010459899902, 2.591128349304199, -0.813075840473175, 0.18217654526233673, 1.229428768157959, -1.4345061779022217, -0.924967348575592, 0.07216337323188782, 0.40315619111061096, -2.8865773677825928, -0.7296111583709717, 0.03870455548167229, -1.0635380744934082, 0.6276510953903198, 0.007447458803653717, -1.1799908876419067, -0.27010682225227356, 1.231377363204956, -0.9443843960762024, 0.01407364197075367, 0.026590296998620033, 0.08627690374851227, 0.08098012953996658, 0.009072661399841309, -0.05013764649629593], [-0.2237885445356369, -1.9287503957748413, 1.9133116006851196, 0.6852242350578308, -0.8284523487091064, -0.08351261913776398, 1.2388619184494019, -1.119603157043457, -0.871688961982727, -0.05227554216980934, 0.6431365609169006, -4.532938480377197, -1.1042228937149048, -0.03141774982213974, 0.007325944025069475, -0.011174923740327358, -0.22950226068496704, -1.0759586095809937, 0.8741049766540527, 1.9660239219665527, 2.6376845836639404, -0.747694194316864, 0.08090496808290482, 1.1513482332229614, -1.1991654634475708, -1.0343812704086304, 0.1295069307088852, 0.3520589768886566, -2.794267416000366, -0.7432558536529541, 0.2592141926288605, -0.8849616050720215, 0.6007382273674011, -0.09339911490678787, -0.8952399492263794, -0.22200952470302582, 1.087208867073059, -1.052423119544983, 0.07445990294218063, 0.03942665457725525, 0.07652067393064499, 0.016549700871109962, -0.06527157127857208, -0.10038848966360092], [-0.07602373510599136, -1.6608436107635498, 1.6596983671188354, 0.7604693174362183, -0.5292581915855408, -0.037071872502565384, 1.2349835634231567, -1.2428840398788452, -0.9800906777381897, 0.09540925920009613, 0.648004412651062, -4.011788845062256, -0.9594455361366272, 0.06461024284362793, -0.050254084169864655, -0.13158005475997925, -0.1584600955247879, -0.976822018623352, 1.0237910747528076, 1.7134572267532349, 2.5323867797851562, -0.8399331569671631, 0.05138680338859558, 1.107961893081665, -1.2251750230789185, -1.045531153678894, 0.14153018593788147, 0.19615161418914795, -2.682828903198242, -0.6572474837303162, 0.1724773645401001, -0.8005303740501404, 0.6904904246330261, -0.05642908439040184, -0.9848740696907043, -0.30738142132759094, 0.8725008964538574, -0.8860533237457275, 0.026517106220126152, -0.0720951035618782, 0.10456147789955139, 0.03751775249838829, 0.0595150887966156, -0.07503600418567657]], "fc1.bias": [0.14154040813446045, 0.07039064168930054, -0.049098677933216095, 0.16783328354358673, 0.19002170860767365, -0.18041899800300598, 0.20375902950763702, -0.04927605763077736, -0.20891991257667542, -0.0672694519162178, 0.18597686290740967, 0.03192467242479324, -0.23147766292095184, -0.1539757400751114, 0.0375061072409153, -0.20178072154521942, -0.22165894508361816, -0.021730821579694748, 0.15887919068336487, -0.029556341469287872, -0.04432724416255951, -0.02449013851583004, 0.04046410322189331, -0.14146098494529724, 0.08003747463226318, -0.12670861184597015, -0.039129018783569336, 0.020502157509326935, 0.06442223489284515, 0.10189615935087204, -0.03346122428774834, -0.04101724550127983, -0.028837015852332115, -0.06735371798276901, 0.03133239969611168, -0.21193881332874298, 0.07727843523025513, -0.15817925333976746, 0.14501771330833435, 0.21737442910671234, -0.020001918077468872, -0.11738653481006622, -0.19714877009391785, -0.034566011279821396, 0.03429211676120758, 0.04593280702829361, -0.023681381717324257, 0.10623271763324738, -0.16982786357402802, -0.15936852991580963, 0.06459851562976837, -0.1447647660970688, -0.18891148269176483, -0.20182564854621887, -0.06861868500709534, -0.07524746656417847, 0.07307904213666916, -0.06422585248947144, -0.004747594241052866, 0.030958203598856926, 0.05631314218044281, -0.06539860367774963, -0.018221935257315636, 0.03732489421963692, -0.09425336867570877, -0.012373383156955242, -0.18538199365139008, 0.0023999058175832033, 0.15811322629451752, -0.023582933470606804, 0.018697097897529602, -0.15593214333057404, 0.0046247923746705055, 0.24436873197555542, 0.08075173944234848, 0.15013764798641205, -0.17172026634216309, -0.08392766118049622, -0.08992110192775726, 0.22000949084758759, -0.20510731637477875, -0.01880474202334881, -0.07190494984388351, 0.028165007010102272, 0.05519620701670647, -0.035271160304546356, 0.010789447464048862, 0.20423747599124908, 0.06778667867183685, 0.017532672733068466, -0.2462986707687378, 0.19036665558815002, 0.1686915159225464, 0.021923454478383064, -0.155742347240448, -0.01159494835883379, 0.060001272708177567, -0.04064797982573509, 0.12465348094701767, 0.10592175275087357], "fc2.weight": [[2.3503940105438232, 2.143674850463867, -1.930712342262268, 1.9954724311828613, 2.104199171066284, -1.784188985824585, 2.340447187423706, -1.7034714221954346, -2.201610565185547, 2.3675496578216553, 2.0198171138763428, -2.106015205383301, -2.111790180206299, -1.5500202178955078, -1.7356678247451782, -1.8410722017288208, -1.6108665466308594, -1.7035921812057495, 2.249654531478882, 2.6612632274627686, -2.258915662765503, -1.5612472295761108, 2.2992806434631348, -2.1831581592559814, 2.035533905029297, -1.7100640535354614, 2.2364797592163086, -1.8937801122665405, 2.04583740234375, 1.9755947589874268, 2.033973455429077, -1.6277520656585693, -1.9605227708816528, -2.438983678817749, -1.7972779273986816, -1.9185891151428223, 2.242610216140747, -1.8611681461334229, 1.830994725227356, 2.387603282928467, -2.0482640266418457, -2.278939962387085, -1.7392197847366333, 2.244854688644409, 2.473752975463867, -1.936627984046936, 1.9817767143249512, 1.9170870780944824, -1.5958658456802368, -1.7335596084594727, -1.7781405448913574, -2.3258132934570312, -1.967478632926941, -2.0753772258758545, -1.9128817319869995, -1.7538869380950928, 2.7061779499053955, -2.068403720855713, 2.427788496017456, -1.5587726831436157, 2.133253812789917, -1.7786457538604736, -1.8669933080673218, 2.10825514793396, -1.630916714668274, -1.9039058685302734, -2.1782243251800537, -1.7227290868759155, 2.4244320392608643, -1.7490098476409912, 2.313322067260742, -1.880016565322876, -1.8268156051635742, 2.081890344619751, 2.0791356563568115, 2.0045206546783447, -1.676018476486206, -1.7637006044387817, -1.7132941484451294, 2.318507194519043, -1.7844163179397583, -1.8583436012268066, -1.8754379749298096, 2.128117561340332, 2.8000435829162598, -1.6551284790039062, -1.96284019947052, 1.9610525369644165, 2.184706687927246, 2.013347864151001, -1.7416988611221313, 2.3265302181243896, 2.0993354320526123, 2.139544725418091, -1.8467442989349365, 2.3977863788604736, 2.361319065093994, 2.227381467819214, 2.199342727661133, 1.976500391960144]], "fc2.bias": [0.11087168753147125]}