{"fc1.weight": [[-0.27427008748054504, 0.37240269780158997, 0.07770152390003204, -0.1735631376504898, 0.0566830150783062, -0.23114977777004242, -0.18928338587284088, -0.003467625007033348, 0.05335409939289093, 0.05070231482386589, -0.09063605964183807, -0.2498425394296646, 0.09238467365503311, -0.15199516713619232, 0.13206316530704498, -0.10211797803640366, 0.08889402449131012], [0.21542717516422272, -0.13216547667980194, 0.024213379248976707, 0.1246715635061264, -0.12536436319351196, -0.08607251197099686, 0.0645240843296051, 0.0712357684969902, -0.07468876242637634, 0.21254771947860718, 0.09340737760066986, 0.08236353099346161, 0.22887365520000458, 0.2361169010400772, -0.04188099876046181, -0.04272105172276497, 0.10381058603525162], [-0.19928278028964996, 0.16949671506881714, 0.18428011238574982, 0.3301474153995514, 0.19721277058124542, 0.1688411980867386, 0.43745189905166626, 0.0922757163643837, -0.19101811945438385, 0.21301724016666412, -0.13535815477371216, 0.0047600241377949715, 0.18265709280967712, 0.07002285122871399, -0.20413675904273987, -0.24452030658721924, 0.10626045614480972], [0.12330403178930283, -0.05043180659413338, -0.2634674310684204, -0.23330432176589966, -0.16218999028205872, 0.001149238320067525, -0.0611976757645607, -0.12657323479652405, 0.087662473320961, -0.15117290616035461, 0.25341320037841797, -0.003985230345278978, -0.06767605245113373, -0.0927375853061676, 0.2342343032360077, -0.04763844609260559, -0.08672637492418289], [-0.10437623411417007, 0.012827088125050068, -0.06560659408569336, -0.1651783287525177, 0.08442744612693787, -0.028010515496134758, 0.18654674291610718, 0.12100719660520554, -0.14522933959960938, 0.17214007675647736, -0.12478382885456085, 0.053480491042137146, -0.1632605791091919, -0.22619448602199554, -0.21501187980175018, 0.20235109329223633, 0.13466447591781616], [-0.15092968940734863, 0.04128074645996094, 0.0202559232711792, -0.18774917721748352, -0.1425420641899109, 0.18051481246948242, -0.11232387274503708, 0.0767439752817154, 0.0029159700497984886, -0.04110018536448479, 0.23734238743782043, -0.0683162733912468, 0.15931330621242523, -0.15930669009685516, -0.14741840958595276, -0.23070508241653442, 0.17216771841049194], [-0.07325974851846695, 0.07200364768505096, -0.07463271915912628, -0.18929383158683777, 0.03351861611008644, 0.19227708876132965, -0.22353871166706085, -0.1686297506093979, 0.029215924441814423, -0.05906693637371063, -0.06400008499622345, 0.056586358696222305, 0.06452721357345581, 0.2113141119480133, -0.05747824162244797, 0.1711205095052719, -0.19707126915454865], [0.10076390206813812, -0.178008034825325, -0.18387866020202637, -0.09031327813863754, 0.07001974433660507, -0.19210843741893768, -0.018212271854281425, 0.005696080159395933, -0.2026626020669937, -0.2044411152601242, 0.032673899084329605, -0.21332550048828125, -0.0864681750535965, -0.20493434369564056, -0.15566174685955048, -0.20814350247383118, -0.049869291484355927], [-0.5062111616134644, -0.216337189078331, -0.08425270020961761, -0.30646127462387085, 0.06950781494379044, -0.06456755846738815, 0.2678070366382599, 0.17735716700553894, -0.01634460873901844, -0.14442932605743408, 0.4288584291934967, -0.38769927620887756, 0.07106155157089233, -0.21099431812763214, -0.18751882016658783, 0.027864791452884674, 0.024818532168865204], [-0.010916308499872684, -0.1760769635438919, -0.24649398028850555, 0.3224792778491974, -0.24612295627593994, -0.17440348863601685, 0.2581460475921631, -0.16567423939704895, -0.17164136469364166, 0.16521529853343964, -0.17859409749507904, 0.1913353055715561, 0.24209390580654144, 0.1269957423210144, -0.09220864623785019, 0.1817452311515808, 0.21260695159435272], [0.1638702005147934, 0.06891090422868729, 0.08356321603059769, -0.04459980130195618, -0.04690389707684517, 0.18745146691799164, 0.043951090425252914, -0.02123633772134781, -0.18093976378440857, -0.08774024993181229, -0.08670087903738022, 0.013415227644145489, -0.04150039330124855, 0.21454906463623047, 0.07125289738178253, -0.20466385781764984, -0.0825054943561554], [-0.23371003568172455, 0.3380449414253235, 0.0820971131324768, -0.4719429910182953, -0.12652716040611267, 0.1289576292037964, -0.15658751130104065, -0.21196606755256653, 0.07545846700668335, -0.1386200189590454, 0.23862947523593903, -0.1637759506702423, 0.2966567873954773, 0.032872363924980164, -0.030724968761205673, -0.3218488395214081, 0.19601111114025116], [0.10181087255477905, 0.2868480682373047, 0.2587960660457611, -0.5229085087776184, -0.17024016380310059, -0.01954096183180809, -0.0987621396780014, -0.12214671820402145, -0.19819775223731995, -0.10353998839855194, 0.3420325219631195, -0.26362013816833496, -0.4951646327972412, -0.2504799962043762, 0.21290500462055206, 0.09475072473287582, 0.14652757346630096], [-0.4488339126110077, 0.16550520062446594, -0.007860133424401283, -0.14295099675655365, 0.07613086700439453, 0.21878904104232788, -0.01199280098080635, -0.012058572843670845, 0.045406945049762726, 0.08757216483354568, -0.02010519430041313, 0.07068397849798203, -0.13528980314731598, 0.08294500410556793, 0.2867850363254547, 0.0353957936167717, 0.06165838986635208], [0.016408594325184822, -0.0517183318734169, 0.015976324677467346, 0.1427081972360611, 0.021021496504545212, -0.041942235082387924, -0.1803179532289505, 0.1432633101940155, 0.00038864181260578334, -0.20519906282424927, -0.03939420357346535, -0.05569275841116905, -0.21255046129226685, -0.11412125080823898, -0.17747662961483002, -0.06431145966053009, -0.1728532314300537], [0.44131892919540405, 0.043611153960227966, -0.09926817566156387, -0.12231876701116562, -0.22506055235862732, -0.18685553967952728, -0.07338246703147888, 0.24979223310947418, 0.11939114332199097, 0.22954128682613373, -0.06720732897520065, -0.19544310867786407, -0.1050901859998703, -0.09657729417085648, -0.18584199249744415, 0.158294215798378, -0.15812833607196808], [0.17747697234153748, -0.09250862151384354, -0.03318411856889725, 0.11207114160060883, 0.12085684388875961, -0.01605132594704628, 0.19742563366889954, -0.23717555403709412, -0.017900343984365463, -0.19831304252147675, 0.07246150076389313, -0.10092773288488388, 0.06580457836389542, -0.04955568537116051, 0.2295941561460495, -0.2388039529323578, 0.11013995856046677], [-0.14779572188854218, 0.20617346465587616, 0.023376623168587685, -0.03415355458855629, -0.07386380434036255, -0.004588876385241747, -0.030582310631871223, 0.04201379418373108, -0.2122521549463272, -0.15149952471256256, -0.015818258747458458, 0.2112616002559662, -0.18278099596500397, -0.22374539077281952, 0.15175575017929077, -0.09281620383262634, 0.037137094885110855], [0.0032127825543284416, -0.05246869847178459, 0.14720866084098816, 0.06339987367391586, 0.21446597576141357, -0.08719631284475327, 0.0291996318846941, 0.0892942026257515, -0.23675094544887543, 0.0006449918146245182, 0.19631122052669525, 0.1470623016357422, 0.0727303996682167, -0.15330685675144196, -0.062169767916202545, -0.02373250387609005, -0.20828671753406525], [-0.0033363327383995056, 0.026746338233351707, -0.1275700181722641, -0.10685804486274719, 0.04177214577794075, 0.09925159066915512, 0.2289893925189972, 0.08327613770961761, 0.04216465726494789, 0.02942536398768425, 0.009632603265345097, 0.007736787665635347, 0.19765569269657135, -0.2026819884777069, -0.008370334282517433, -0.20251841843128204, -0.19358082115650177], [0.08988329023122787, 0.07225340604782104, 0.22162681818008423, 0.025030765682458878, -0.06438533216714859, -0.18088914453983307, -0.11664993315935135, -0.04049721732735634, -0.141278937458992, 0.22865404188632965, -0.2152455747127533, 0.08454864472150803, -0.181942418217659, -0.1916712522506714, 0.18136931955814362, -0.02816464751958847, -0.12092754244804382], [0.17084141075611115, -0.059345390647649765, -0.14004051685333252, -0.20485477149486542, 0.07829782366752625, -0.23586449027061462, -0.1510033905506134, 0.22918596863746643, -0.059029579162597656, -0.18613089621067047, 0.16744399070739746, -0.09328380972146988, -0.11626149713993073, -0.05273021012544632, -0.16868838667869568, -0.07612617313861847, 0.20120690762996674], [0.11680733412504196, -0.06488662213087082, -0.2780939042568207, 0.3161297142505646, -0.18868744373321533, -0.1702946424484253, 0.23487408459186554, -0.1729094386100769, 0.06698203831911087, -0.13488073647022247, -0.07620123773813248, -0.051934435963630676, -0.08940060436725616, 0.20919227600097656, -0.14470519125461578, 0.15243367850780487, -0.17820878326892853], [-0.07237943261861801, -0.04595598205924034, -0.09664876013994217, 0.17362330853939056, -0.23897382616996765, 0.16840830445289612, -0.0911715179681778, 0.17467668652534485, 0.1856512874364853, -0.057572998106479645, 0.0797935500741005, -0.12119954824447632, -0.11141391098499298, -0.12453963607549667, -0.14595697820186615, 0.02333417907357216, -0.1796627938747406], [-0.06449826806783676, 0.13717755675315857, -0.2069108635187149, 0.07042441517114639, 0.07632691413164139, 0.1754361242055893, -0.05234116315841675, -0.0035896035842597485, 0.044041406363248825, -0.06159938871860504, 0.045164305716753006, -0.048957087099552155, 0.14452233910560608, 0.22151826322078705, 0.011942156590521336, -0.17498831450939178, -0.04447009786963463], [-0.14860521256923676, -0.08138631284236908, 0.0625748336315155, 0.11558598279953003, 0.03996742516756058, 0.19841985404491425, 0.12302947789430618, 0.17629170417785645, -0.2366616129875183, -0.21754609048366547, -0.14159522950649261, -0.02669149823486805, 0.14352230727672577, -0.14011549949645996, -0.042666319757699966, -0.10044103860855103, -0.2052604705095291], [-0.09441625326871872, -0.08531283587217331, 0.03501506149768829, -0.17774653434753418, 0.1793622225522995, 0.004620333202183247, 0.23835143446922302, 0.022907864302396774, 0.16867008805274963, -0.24083758890628815, -0.11930017173290253, 0.0842001661658287, -0.033949114382267, -0.011995969340205193, 0.22484831511974335, 0.08522167056798935, 0.12163765728473663], [-0.1966036856174469, 0.19483040273189545, -0.1661287546157837, -0.21785154938697815, 0.08154524862766266, -0.1966133713722229, -0.14456064999103546, -0.12117616087198257, -0.18415597081184387, -0.143801748752594, -0.2285970151424408, 0.20930804312229156, 0.10410945862531662, -0.10929363965988159, -0.14011624455451965, 0.08079603314399719, 0.032358087599277496], [0.20845073461532593, -0.0020313053391873837, -0.22156593203544617, 0.1577039510011673, 0.0015687921550124884, 0.21198317408561707, -0.207585409283638, 0.1658841073513031, -0.1045944094657898, -0.009527853690087795, 0.10064099729061127, 0.028802458196878433, -0.19781182706356049, -0.22052188217639923, -0.1793825924396515, -0.022485453635454178, -0.12754197418689728], [-0.22302500903606415, 0.1686040759086609, 0.17687644064426422, -0.06644615530967712, 0.08750882744789124, 0.16901656985282898, 0.07109586149454117, 0.051762185990810394, 0.23574002087116241, -0.23973973095417023, -0.08139221370220184, 0.02176501974463463, -0.20651128888130188, -0.21535393595695496, -0.12581129372119904, 0.21289947628974915, -0.1274506002664566], [0.059859499335289, 0.2373545616865158, 0.09363403916358948, -0.09497707337141037, -0.019161555916070938, 0.17827369272708893, 0.20476120710372925, 0.10328271985054016, -0.14222313463687897, -0.0966893658041954, -0.049890682101249695, 0.12162943184375763, -0.23733942210674286, 0.21562668681144714, -0.10781208425760269, -0.02918008342385292, 0.0034936778247356415], [0.02882087603211403, -0.10904554277658463, 0.12799465656280518, 0.04880348965525627, 0.1596561223268509, 0.20474201440811157, 0.15232446789741516, -0.14101216197013855, -0.15172943472862244, 0.19743946194648743, -0.13372108340263367, -0.003035725560039282, 0.10733655095100403, -0.20778173208236694, 0.07979153096675873, 0.021083226427435875, -0.22082458436489105], [0.012711090967059135, 0.1239117681980133, -0.23603805899620056, 0.02529609389603138, -0.18333536386489868, -0.1881677806377411, 0.04640311375260353, 0.02053646184504032, 0.019589634612202644, 0.09217773377895355, 0.05676015093922615, 0.15256720781326294, -0.1051853746175766, -0.06638960540294647, -0.16312555968761444, 0.138574481010437, -0.033415477722883224], [0.21433228254318237, -0.12162508070468903, -0.11230415850877762, -0.03198951110243797, 0.12798894941806793, -0.04972920939326286, 0.16515816748142242, 0.05025992542505264, 0.04978836327791214, 0.02423885092139244, -0.11592908948659897, -0.15282654762268066, 0.14440584182739258, 0.022824827581644058, -0.01120914425700903, 0.1151912733912468, 0.1461907923221588], [-0.40074506402015686, 0.061914850026369095, 0.20843887329101562, -0.029290026053786278, -0.06474336981773376, -0.2118465006351471, 0.0683058649301529, -0.13664759695529938, 0.15916839241981506, -0.2279287725687027, 0.10911844670772552, 0.23316313326358795, -0.03715086355805397, -0.23980940878391266, 0.10960038751363754, -0.14081043004989624, -0.06057250499725342], [0.010039815679192543, 0.12216537445783615, 0.1643107533454895, -0.0991419106721878, 0.2140393704175949, -0.06804544478654861, -0.21344098448753357, -0.22663258016109467, -0.18776875734329224, 0.09615445137023926, 0.04601078853011131, 0.07419580221176147, 0.11508719623088837, 0.18885593116283417, -0.1988314539194107, -0.1485169529914856, -0.03567672520875931], [0.008047321811318398, 0.22079379856586456, -0.04485771059989929, 0.17161713540554047, -0.22226519882678986, 0.1666661649942398, -0.1713823825120926, 0.04661182686686516, 0.2238992154598236, -0.16975516080856323, -0.15386894345283508, -0.011966732330620289, -0.01974637433886528, 0.04065123572945595, 0.12272847443819046, -0.0335899293422699, -0.18477341532707214], [-0.11797473579645157, -0.032785095274448395, 0.08322972059249878, 0.023175016045570374, 0.15415650606155396, 0.10497234761714935, 0.07194479554891586, -0.10395509004592896, 0.14679451286792755, 0.03779277205467224, 0.17388616502285004, -0.20462797582149506, 0.1180325299501419, 0.10459281504154205, -0.15803386270999908, 0.04681095480918884, 0.1151198297739029], [-0.10555592179298401, -0.2224714457988739, 0.23578408360481262, -0.04735054820775986, 0.17891117930412292, -0.08752504736185074, 0.008717349730432034, 0.022866027429699898, 0.2309923619031906, -0.22318871319293976, -0.09804714471101761, 0.127891406416893, 0.07207894325256348, 0.0345245897769928, 0.1522241085767746, -0.18487605452537537, 0.03532714024186134], [0.5286715030670166, 0.04393681138753891, -0.36917921900749207, -0.053548187017440796, 0.1187749058008194, -0.1847236603498459, -0.33055558800697327, 0.20408394932746887, -0.06642784178256989, 0.20063559710979462, -0.015715694054961205, 0.43381962180137634, 0.16529037058353424, 0.2178933322429657, -0.1617332398891449, 0.14242778718471527, -0.1866721510887146], [0.04532789811491966, 0.05004900321364403, 0.20055128633975983, 0.23385927081108093, 0.1190137192606926, -0.0862557515501976, -0.23973827064037323, 0.014207703992724419, -0.21841031312942505, -0.047462742775678635, -0.0023740180768072605, 0.09972620755434036, -0.09038394689559937, -0.22034397721290588, 0.050610754638910294, -0.11784829199314117, -0.24169880151748657], [0.18736308813095093, 0.1660432368516922, -0.0586254708468914, 0.03133091330528259, -0.23544812202453613, 0.1025703027844429, -0.03829099237918854, 0.08933242410421371, 0.0630488246679306, -0.09261306375265121, 0.12395921349525452, 0.1724817007780075, 0.09640959650278091, -0.23380309343338013, 0.018048858270049095, 0.21604374051094055, 0.21098239719867706], [0.08352037519216537, -0.18239696323871613, 0.11306213587522507, -0.18889857828617096, 0.2399430125951767, 0.2109479010105133, -0.04339540749788284, -0.23444868624210358, 0.06670859456062317, -0.09669163078069687, -0.14613546431064606, -0.010605331510305405, 0.03654403239488602, -0.013873768970370293, 0.11369269341230392, -0.09164562821388245, 0.1301192045211792], [0.167639821767807, 0.16744853556156158, -0.011573297902941704, -0.17336055636405945, -0.19441284239292145, 0.18128998577594757, 0.10786062479019165, -0.22789375483989716, -0.24118483066558838, 0.08740890026092529, 0.18740063905715942, -0.12399382889270782, -0.22703363001346588, -0.22416828572750092, 0.04050745069980621, -0.2088438868522644, 0.2404523342847824], [-0.21778272092342377, -0.16317561268806458, 0.14673301577568054, 0.10868816077709198, -0.189447820186615, -0.16830597817897797, 0.22512008249759674, 0.20351825654506683, 0.05820927396416664, 0.11260746419429779, -0.056020066142082214, -0.009666715748608112, 0.03447360917925835, 0.09648801386356354, -0.22349661588668823, -0.07809310406446457, 0.12252882868051529], [0.23342248797416687, 0.0677894875407219, -0.23683537542819977, -0.015697231516242027, 0.20589648187160492, -0.046598102897405624, 0.21081681549549103, -0.11695776879787445, 0.1292063444852829, 0.10722015053033829, 0.2306373119354248, 0.03718777745962143, 0.14855988323688507, 0.1444004476070404, 0.1015685424208641, 0.08953061699867249, 0.019584141671657562], [-0.17658722400665283, -0.08738213032484055, -0.21310977637767792, 0.010776439681649208, -0.15755648910999298, -0.061923373490571976, -0.027217185124754906, 0.1249430775642395, 0.1808767318725586, 0.0947493240237236, -0.20904554426670074, 0.07974130660295486, -0.17740067839622498, -0.16804485023021698, -0.16685444116592407, 0.031334616243839264, -0.05936895310878754], [0.05432875454425812, 0.17770694196224213, 0.11409372091293335, 0.13252995908260345, 0.15467770397663116, -0.006215869449079037, 0.16897791624069214, -0.01609686017036438, 0.033680979162454605, -0.14991547167301178, -0.04396836459636688, 0.11874707788228989, 0.11367804557085037, -0.034648969769477844, 0.13392376899719238, 0.155974343419075, 0.09274858236312866], [0.06552694737911224, -0.1015629693865776, 0.04457758739590645, -0.06244346871972084, 0.0124437240883708, -0.15327219665050507, 0.11058070510625839, 0.11116061359643936, -0.006301632151007652, 0.09410019218921661, 0.036627862602472305, -0.21101810038089752, -0.05563037842512131, -0.15399593114852905, 0.24302087724208832, 0.14060015976428986, -0.16886287927627563], [-0.39299899339675903, -0.131606325507164, 0.15837013721466064, -0.4401454031467438, 0.13116201758384705, -0.17634862661361694, 0.372424453496933, -0.3234122097492218, -0.2515501081943512, 0.0055894022807478905, 0.07604669779539108, 0.017981892451643944, -0.2541552186012268, -0.1797787845134735, -0.12335336208343506, 0.30597037076950073, -0.17351707816123962], [-0.1345781534910202, -0.04070885851979256, -0.04340905323624611, 0.09414879977703094, 0.2025185078382492, -0.03150361031293869, -0.214697927236557, 0.0065040369518101215, -0.1665055900812149, 0.06562329828739166, 0.17514771223068237, 0.23795683681964874, -0.23301471769809723, -0.1977284997701645, 0.23692412674427032, -0.19404464960098267, 0.1563894897699356], [0.2125326544046402, 0.11760890483856201, 0.02478804439306259, -0.21753185987472534, -0.033275336027145386, 0.0019974950700998306, 0.06926720589399338, 0.15016891062259674, -0.12390173971652985, -0.1893732249736786, 0.2199031412601471, -0.08699574321508408, 0.16187873482704163, 0.10779719054698944, -0.23432649672031403, 0.23954863846302032, -0.20854239165782928], [0.017577772960066795, -0.17569440603256226, -0.09616706520318985, 0.23182208836078644, -0.013871808536350727, -0.1093793734908104, -0.1418745070695877, 0.05026239529252052, 0.06613258272409439, -0.01923932321369648, 0.006613986101001501, 0.16720254719257355, -0.09783715754747391, -0.1275976598262787, -0.17102289199829102, 0.2351226657629013, -0.01654738374054432], [-0.06307599693536758, -0.19184166193008423, -0.19987380504608154, -0.2159706950187683, -0.0069002569653093815, 0.2003355473279953, 0.0357043631374836, -0.033982452005147934, -0.11221617460250854, -0.153013676404953, 0.002206226112321019, 0.12309672683477402, -0.018503796309232712, -0.11799222975969315, -0.21918603777885437, 0.03934548795223236, 0.17636457085609436], [-0.20014435052871704, -0.1408161073923111, 0.0650191530585289, -0.13945801556110382, -0.005458998028188944, -0.07524827867746353, -0.2059219926595688, 0.06466705352067947, -0.07601509243249893, -0.16562336683273315, -0.09225142747163773, 0.038428209722042084, 0.014512079767882824, -0.12095795571804047, -0.17782802879810333, -0.15696890652179718, -0.13845738768577576], [-0.21620865166187286, -0.17370155453681946, -0.02904757857322693, 0.09453349560499191, -0.1186072826385498, -0.07443734258413315, 0.08815976232290268, 0.062260523438453674, 0.06795978546142578, 0.14531008899211884, -0.16411830484867096, 0.026743223890662193, -0.015136994421482086, 0.02324908971786499, -0.01660308986902237, 0.0654374286532402, -0.1702442467212677], [0.21237771213054657, 0.058492500334978104, -0.15447008609771729, 0.1551811844110489, 0.11200760304927826, 0.020742231979966164, 0.07705207169055939, -0.2396097034215927, -0.15353456139564514, -0.18324516713619232, 0.20309601724147797, 0.20625968277454376, 0.19505484402179718, 0.14929917454719543, -0.12003686279058456, 0.17381353676319122, 0.0521298423409462], [0.17241428792476654, -0.2007274478673935, -0.2385925054550171, -0.213898167014122, -0.0800871029496193, -0.12825937569141388, 0.1827409267425537, 0.2256513237953186, -0.16381174325942993, -0.0849037766456604, 0.007964901626110077, -0.15294894576072693, 0.05975722149014473, 0.07482985407114029, 0.0883919894695282, -0.16272355616092682, 0.025138087570667267], [-0.009871937334537506, 0.17238585650920868, -0.18806417286396027, 0.194736510515213, -0.11341621726751328, 0.12532779574394226, 0.06443676352500916, -0.0660812258720398, 0.17901061475276947, 0.12063000351190567, 0.0746024027466774, 0.12447106838226318, -0.23526830971240997, 0.1787407100200653, -0.09343806654214859, 0.016078434884548187, -0.24011188745498657], [-0.07395149022340775, -0.14509351551532745, -0.03635121136903763, 0.20255540311336517, -0.13201819360256195, 0.19290675222873688, 0.2328343391418457, -0.153635635972023, 0.24003952741622925, -0.15757058560848236, -0.058074623346328735, -0.16975116729736328, 0.05005718022584915, -0.0617445670068264, 0.016012106090784073, 0.03689951449632645, -0.07197695225477219], [0.236830934882164, 0.154424250125885, 0.21312260627746582, -0.09813862293958664, 0.1820710152387619, -0.0012633209116756916, -0.09808864444494247, 0.11747193336486816, -0.10831785202026367, -0.2100057750940323, -0.12097098678350449, 0.24458014965057373, -0.16894447803497314, -0.20213277637958527, 0.2746000587940216, -0.2326613962650299, 0.11869345605373383], [-0.06584079563617706, 0.1147216185927391, -0.23666788637638092, 0.16232258081436157, 0.24463556706905365, 0.03408678621053696, 0.1513577699661255, -0.1309267282485962, 0.1499319076538086, -0.10820512473583221, 0.19867907464504242, 0.2139892727136612, -0.16179026663303375, 0.0478634238243103, -0.10747046768665314, -0.3076694905757904, -0.0890209898352623], [-0.3771228790283203, -0.4972416162490845, -0.2017756700515747, -0.20685364305973053, 0.5811995267868042, 0.21834909915924072, -0.5744695663452148, -0.12781809270381927, 0.4115457236766815, -0.16820672154426575, -0.046966105699539185, 0.2808433771133423, 0.13220670819282532, 0.07869242131710052, -0.04989343509078026, 0.20526304841041565, 0.2560212314128876], [0.11803022772073746, -0.13261128962039948, 0.049203913658857346, 0.2321588695049286, 0.01406075805425644, -0.20610222220420837, 0.012073981575667858, 0.2270525097846985, -0.07834704965353012, -0.15259401500225067, 0.014783140271902084, 0.06969574093818665, -0.24192428588867188, 0.17517375946044922, 0.031599514186382294, -0.0927843302488327, 0.20891040563583374], [-0.016787812113761902, -0.07338552922010422, -0.09486769139766693, 0.13354159891605377, -0.23889882862567902, -0.1283259242773056, -0.11933642625808716, 0.00940749142318964, 0.22313165664672852, 0.2144780308008194, -0.16413770616054535, 0.1693764477968216, -0.1713210940361023, -0.12282255291938782, 0.13481175899505615, -0.021691573783755302, -0.19133597612380981], [0.3424212336540222, -0.47239619493484497, 0.24828992784023285, 0.1281242072582245, 0.266869455575943, 0.15985290706157684, 0.030481252819299698, -0.2880060076713562, 0.0395941399037838, 0.1862032264471054, -0.2076624035835266, -0.07026491314172745, -0.040793731808662415, -0.09611053764820099, -0.22118714451789856, -0.15072281658649445, -0.18135061860084534], [-0.170328289270401, 0.1245134174823761, -0.1660464107990265, 0.12283847481012344, 0.058177318423986435, 0.11536242812871933, -0.14080548286437988, -0.04982006549835205, -0.2007584571838379, -0.19514307379722595, -0.051193781197071075, 0.07767923921346664, 0.199868842959404, 0.15390682220458984, -0.13125790655612946, -0.06267589330673218, 0.2141662985086441], [-0.15902885794639587, 0.22969919443130493, 0.17561376094818115, -0.017994821071624756, 0.08009126782417297, -0.07012555748224258, 0.060996729880571365, 0.15346457064151764, 0.19602809846401215, 0.014853478409349918, 0.14051105082035065, -0.14197242259979248, -0.15344277024269104, -0.12629088759422302, 0.14507341384887695, -0.016399430111050606, -0.0912112146615982], [0.12306822091341019, -0.22603973746299744, -0.23762044310569763, -0.031346239149570465, 0.20089846849441528, 0.06171873211860657, -0.06409869343042374, 0.024033891037106514, -0.138513445854187, -0.18196722865104675, -0.10365492105484009, -0.13600631058216095, 0.05049784854054451, -0.1900680810213089, 0.13311123847961426, -0.08871366828680038, -0.18987537920475006], [-0.11402416229248047, 0.13443514704704285, 0.0039354246109724045, 0.15854422748088837, -0.0054945023730397224, -0.09873155504465103, -0.24110402166843414, -0.15702730417251587, -0.018833689391613007, -0.018234534189105034, -0.15686848759651184, 0.23011331260204315, -0.1355913281440735, -9.353193308925256e-05, 0.06871084123849869, -0.10858077555894852, -0.19244790077209473], [-0.23430219292640686, -0.1718355417251587, -0.061139561235904694, -0.043717991560697556, 0.02112472802400589, -0.13563625514507294, -0.23839323222637177, -0.16097933053970337, 0.17178650200366974, -0.06652933359146118, 0.03071318008005619, -0.1617526262998581, -0.017378678545355797, -0.19827087223529816, 0.18006765842437744, 0.07357326149940491, -0.14207541942596436], [0.18619056046009064, -0.1386396288871765, 0.14582762122154236, 0.05032789334654808, 0.01415994018316269, -0.21860602498054504, -0.08708295971155167, -0.003276625880971551, -0.02262026257812977, -0.1869937777519226, -0.03685234114527702, -0.12683242559432983, 0.10208416730165482, 0.017673127353191376, -0.2172928750514984, 0.23324359953403473, 0.13657671213150024], [-0.11281231790781021, 0.15839767456054688, 0.14191070199012756, 0.19951032102108002, 0.20387139916419983, 0.16362138092517853, 0.2248239666223526, 0.19317615032196045, 0.010537131689488888, -0.1923375427722931, -0.04688751697540283, -0.18613791465759277, 0.17230476438999176, 0.08298442512750626, -0.11723552644252777, 0.18380187451839447, 0.23483511805534363], [0.18773943185806274, -0.06588800251483917, 0.10175077617168427, 0.20385107398033142, 0.22751392424106598, -0.0372619666159153, -0.11138459295034409, 0.1451990306377411, 0.06711377203464508, 0.1905159056186676, -0.07695391029119492, -0.18494698405265808, 0.22921904921531677, -0.1593475043773651, -0.22510574758052826, 0.12815889716148376, 0.013084438629448414], [0.07529206573963165, 0.39708349108695984, 0.011953252367675304, 0.11527682095766068, -0.37047305703163147, -0.1850339025259018, 0.30746060609817505, 0.08603817224502563, -0.22286486625671387, 0.23093312978744507, 0.27557089924812317, 0.5757144689559937, 0.095266193151474, 0.07155878841876984, -0.060152243822813034, -0.3769179880619049, 0.20432107150554657], [0.11115901917219162, -0.17995107173919678, -0.20332728326320648, -0.2372167557477951, 0.15576450526714325, 0.13861510157585144, 0.07701301574707031, -0.18840651214122772, -0.10579782724380493, 0.10373321920633316, 0.10385774821043015, 0.03462328761816025, 0.061318349093198776, 0.03485994413495064, -0.0135115347802639, 0.15612535178661346, 0.10295509546995163], [-0.18660421669483185, 0.13710589706897736, 0.23193861544132233, 0.14195458590984344, 0.02457718551158905, -0.028456490486860275, -0.1592937856912613, -0.11473537981510162, -0.24040403962135315, -0.1873006969690323, 0.02212502993643284, 0.22667196393013, -0.03082188032567501, -0.09603902697563171, -0.013850937597453594, -0.013026641681790352, 0.045194920152425766], [-0.14818882942199707, 0.3951059877872467, 0.07362423837184906, -0.323781281709671, 0.004095601383596659, 0.17201979458332062, -0.19721202552318573, -0.16220566630363464, 0.01656278409063816, 0.021202944219112396, 0.24467964470386505, -0.32076963782310486, 0.13553796708583832, 0.2304820865392685, 0.030846234411001205, -0.3327755033969879, -0.2260291874408722], [-0.04883144050836563, 0.11858553439378738, 0.3525259792804718, -0.1844523698091507, 0.13531692326068878, 0.027407892048358917, 0.049909185618162155, -0.24933360517024994, 0.2460591197013855, -0.22018790245056152, -0.16356363892555237, 0.175733283162117, -0.1925935447216034, 0.0798228308558464, 0.04281201213598251, -0.22654801607131958, -0.04869332164525986], [-0.1226448267698288, 0.3757413327693939, 0.12073036283254623, -0.42060601711273193, -0.04081246256828308, -0.15879569947719574, -0.2284887433052063, -0.22619500756263733, -0.015604223124682903, 0.019721826538443565, -0.015650203451514244, -0.17236566543579102, 0.26687976717948914, -0.20575785636901855, 0.25432974100112915, -0.3735077679157257, 0.05520473048090935], [0.05547389015555382, 0.23147650063037872, 0.1909276247024536, 0.16189655661582947, -0.24167966842651367, 0.16549184918403625, 0.23137499392032623, -0.1666303426027298, -0.23942890763282776, 0.1407579630613327, 0.06514677405357361, -0.06548302620649338, 0.09690671414136887, -0.1436871439218521, 0.011691578663885593, 0.1645326167345047, 0.16545532643795013], [0.44205668568611145, -0.2744305729866028, 0.03408375009894371, 0.3172384798526764, -0.4440653324127197, -0.07060638070106506, -0.18038387596607208, -0.18895970284938812, -0.23358945548534393, 0.2012256681919098, 0.18975651264190674, -0.03217247873544693, 0.10431256145238876, 0.195940762758255, 0.3047613799571991, -0.10249704867601395, 0.020151838660240173], [0.1974465548992157, 0.0989181324839592, -0.23170363903045654, -0.03869275748729706, 0.18399463593959808, -0.12996535003185272, -0.17334824800491333, 0.04691038653254509, -0.1589510291814804, -0.1998504251241684, 0.07364267855882645, -0.052365969866514206, 0.01999443955719471, -0.1646510660648346, -0.114045150578022, -0.054238952696323395, 0.13725978136062622], [0.1775740087032318, 0.2232286036014557, 0.14830701053142548, 0.04502173513174057, 0.21300546824932098, -0.09447387605905533, -0.030922148376703262, -0.13251298666000366, 0.12074556201696396, -0.08887314796447754, 0.20034658908843994, -0.050548069179058075, 0.13290584087371826, 0.0931415855884552, -0.14955537021160126, 0.07836839556694031, -0.2112441509962082], [-0.03951220214366913, 0.0716889277100563, -0.057593751698732376, 0.043610576540231705, 0.07176335901021957, 0.17835669219493866, 0.09825139492750168, 0.20316225290298462, -0.08518827706575394, 0.06482374668121338, 0.16671082377433777, -0.3134837746620178, -0.09274736791849136, -0.12456393241882324, 0.12568646669387817, -0.19171112775802612, -0.13854266703128815], [-0.0330602265894413, 0.0015993816778063774, -0.1368505209684372, 0.12800179421901703, -0.05184204876422882, 0.18467219173908234, 0.09518830478191376, -0.21344999969005585, 0.22117984294891357, -0.05788886547088623, 0.13297922909259796, 0.030936026945710182, -0.11693891882896423, 0.22593247890472412, 0.22734440863132477, 0.07364250719547272, -0.04901348054409027], [0.22439593076705933, 0.17224089801311493, 0.1020495742559433, -0.23830382525920868, 0.042861130088567734, 0.19818849861621857, 0.04676857963204384, 0.1263081580400467, -0.16242101788520813, 0.08369562774896622, -0.06259480863809586, 0.2035931944847107, -0.18431851267814636, 0.028255337849259377, 0.28574880957603455, -0.12284928560256958, -0.024767592549324036], [0.1879921704530716, 0.08921323716640472, -0.18611618876457214, 0.07839003205299377, -0.0019209643360227346, 0.21012510359287262, -0.061636704951524734, -0.17697405815124512, 0.07264707237482071, -0.09838338196277618, -0.18574069440364838, -0.07547944784164429, 0.08226033300161362, -0.051221780478954315, -0.20118127763271332, 0.13825643062591553, -0.23077329993247986], [0.09280024468898773, 0.03348420187830925, 0.15836699306964874, -0.10938069969415665, 0.16897088289260864, 0.2079397588968277, 0.012045785784721375, 0.12897825241088867, -0.11095781624317169, -0.22467409074306488, 0.1964644491672516, 0.11525779962539673, 0.23530957102775574, 0.07510484009981155, -0.2154540866613388, -0.05941787362098694, -0.1504320204257965], [0.10876023769378662, -0.1410391926765442, 0.145539328455925, -0.15275128185749054, 0.22966210544109344, -0.19860801100730896, -0.17315123975276947, 0.14330974221229553, -0.03154384717345238, -0.11748503893613815, 0.1091887429356575, -0.027336178347468376, -0.14904192090034485, 0.21562828123569489, -0.07348625361919403, 0.15429933369159698, 0.019718071445822716], [0.18731825053691864, -0.18260903656482697, -0.2230043113231659, -0.07858922332525253, 0.12209727615118027, 0.16609646379947662, -0.217010036110878, 0.2400500625371933, 0.10383672267198563, 0.08100750297307968, -0.06625841557979584, 0.19943849742412567, -0.20535215735435486, -0.15651226043701172, 0.09729569405317307, -0.00928010605275631, -0.21430224180221558], [-0.029022857546806335, 0.03651599586009979, -0.11104608327150345, -0.21880444884300232, -0.15674404799938202, -0.011638958007097244, -0.12406055629253387, 0.13282451033592224, -0.10534963011741638, 0.0015299627557396889, -0.040356412529945374, -0.16492296755313873, 0.04413073882460594, -0.12792468070983887, 0.2332664430141449, -0.18608896434307098, 0.19057321548461914], [0.05795709043741226, -0.11099272221326828, 0.1718369871377945, -0.1315407007932663, 0.1496911644935608, -0.2098911851644516, -0.06685062497854233, 0.02575245499610901, 0.19678077101707458, -0.06806783378124237, 0.08592323213815689, 0.1687013804912567, 0.18451960384845734, -0.004427602980285883, -0.03656250238418579, -0.1573602855205536, -0.1452563852071762], [-0.10221389681100845, 0.11642184108495712, -0.16194015741348267, -0.06344489753246307, 0.08770646899938583, -0.20809125900268555, -0.10309266299009323, 0.15887975692749023, 0.007434964645653963, -0.04703395813703537, -0.2164333313703537, -0.10811424255371094, 0.13260434567928314, -0.20892426371574402, 0.06925462931394577, -0.2421291172504425, -0.13954588770866394], [0.16101893782615662, -0.11585990339517593, 0.2030237764120102, -0.09562412649393082, -0.0743580013513565, 0.09756378084421158, 0.13111913204193115, 0.15446537733078003, -0.0752795860171318, 0.039411380887031555, 0.14780598878860474, -0.014506470412015915, -0.18856410682201385, -0.028102949261665344, 0.1935095340013504, 0.19173531234264374, 0.11010527610778809], [-0.14494329690933228, -0.003941670060157776, -0.10445296764373779, -0.04774774983525276, 0.15140336751937866, -0.12193768471479416, 0.10264284163713455, -0.06178870052099228, -0.1544804722070694, -0.23908303678035736, 0.11553827673196793, -0.03814532980322838, -0.19288751482963562, -0.06402036547660828, -0.07086899131536484, 0.10358458012342453, -0.10196932405233383], [0.15662436187267303, 0.1954536736011505, 0.2859918177127838, -0.2990245819091797, 0.1769370585680008, -0.14137530326843262, -0.3006476163864136, -0.23441250622272491, -0.1218692809343338, -0.18913979828357697, 0.12827390432357788, 0.14350071549415588, -0.20843197405338287, 0.07073745876550674, 0.20256610214710236, -0.02126241847872734, -0.15996986627578735], [0.15655626356601715, 0.020389007404446602, 0.023048263043165207, 0.1604069173336029, -0.09607432782649994, 0.21169766783714294, -0.0024174607824534178, 0.0009270503651350737, 0.0844578891992569, -0.08596550673246384, -0.06307573616504669, -0.013679919764399529, 0.02141464874148369, 0.18044301867485046, -0.13452211022377014, 0.21103079617023468, -0.20457836985588074], [-0.08356929570436478, -0.20940086245536804, 0.1044955775141716, 0.01736905239522457, 0.1668706238269806, 0.12095805257558823, 0.007533789612352848, 0.07794979214668274, -0.03789297118782997, -0.07902134954929352, -0.168711856007576, -0.1743910014629364, 0.07521551102399826, 0.022784482687711716, -0.11475351452827454, -0.025651028379797935, 0.21804732084274292], [-0.2229878157377243, 0.14226281642913818, 0.11040684580802917, 0.17706675827503204, -0.42531824111938477, -0.011376632377505302, -0.03666655346751213, 0.8775913715362549, -0.15105140209197998, -0.15609394013881683, 0.24534909427165985, -0.006578511092811823, 0.038217075169086456, 0.012719287537038326, 0.07642695307731628, 0.17499764263629913, -0.11488710343837738]], "fc1.bias": [0.1936163306236267, 0.04432430490851402, 0.1566084921360016, -0.24213488399982452, -0.09957823157310486, 0.04105239361524582, -0.042362794280052185, -0.12810665369033813, 0.07237852364778519, 0.06448154151439667, 0.1738337129354477, 0.04553275182843208, 0.19448257982730865, -0.01851258985698223, -0.14273624122142792, 0.09136908501386642, 0.16472135484218597, 0.17059695720672607, 0.09980256110429764, -0.20580117404460907, -0.06394123286008835, -0.046993885189294815, 0.12114723026752472, 0.1063932254910469, 0.04773849621415138, 0.23634345829486847, -0.23533502221107483, -0.1477944552898407, 0.18403857946395874, 0.22800974547863007, 0.17114247381687164, -0.1981176733970642, -0.06634128838777542, 0.07558710128068924, -0.14868684113025665, -0.15467429161071777, 0.0873725563287735, 0.1329713612794876, -0.018503131344914436, -0.21254129707813263, 0.15198776125907898, -0.08968067169189453, -0.2275702953338623, -0.218008890748024, 0.07955393940210342, 0.23329700529575348, 0.20804181694984436, -0.13859474658966064, -0.10824920982122421, 0.18693317472934723, 0.13312500715255737, 0.011530824936926365, -0.20945864915847778, 0.2424468845129013, -0.07972436398267746, -0.010307768359780312, 0.23707684874534607, -0.22537310421466827, -0.006803324446082115, 0.06074785068631172, 0.14405818283557892, 0.08499045670032501, -0.05326775461435318, -0.1802147626876831, 0.10126467049121857, 0.19373993575572968, -0.11900798976421356, -0.0907486155629158, 0.06451234221458435, -0.04447265714406967, 0.11297416687011719, -0.2019452154636383, -0.04154587164521217, 0.12434190511703491, -0.2080378532409668, -0.1505918800830841, 0.10322554409503937, -0.1029638797044754, -0.1337852030992508, 0.19002485275268555, 0.24014230072498322, 0.07919575273990631, 0.04618817940354347, 0.14045073091983795, -0.16380126774311066, -0.14657798409461975, -0.10893164575099945, 0.1283242553472519, -0.03656682372093201, -0.17279671132564545, -0.09311212599277496, 0.13328500092029572, -0.14619983732700348, 0.2135985791683197, -0.11976777017116547, 0.22510088980197906, -0.13003964722156525, 0.0583871454000473, 0.07675207406282425, 0.010102447122335434], "fc2.weight": [[0.7836576104164124, -0.008587852120399475, -0.7437117099761963, 0.3294842541217804, -0.046199407428503036, -0.03546791151165962, 0.01696838065981865, 0.003170609474182129, 1.5780442953109741, 0.7823150157928467, 0.024927303194999695, 0.9261282682418823, 1.4076545238494873, 0.5136905312538147, 0.018962347880005836, 0.7444168925285339, -0.0087289959192276, 0.07830716669559479, 0.1062719002366066, 0.11310618370771408, 0.0007378220907412469, -0.01927180401980877, 0.5602561831474304, 0.052871476858854294, 0.06610074639320374, 0.09549935907125473, -0.059957150369882584, 0.0010767817730084062, -0.08562978357076645, 0.12042491883039474, 0.02667492814362049, 0.056529778987169266, -0.012949836440384388, 0.11322998255491257, -0.6283907294273376, 0.030803298577666283, 0.05187962204217911, 0.009695982560515404, -0.0008772086584940553, -1.7236287593841553, 0.03145572543144226, -0.004682678263634443, 0.045052774250507355, 0.010244381614029408, -0.015278225764632225, 0.13726598024368286, -0.059464823454618454, 0.11139766871929169, -0.015997637063264847, -1.0328599214553833, -0.020618164911866188, -0.02689530700445175, 0.058371905237436295, 0.03382975980639458, 0.007575297262519598, -0.05868871137499809, 0.10466185957193375, -0.07280512154102325, -0.021303504705429077, 0.04209228977560997, -0.7090404629707336, -0.46442922949790955, -1.8537417650222778, 0.06293676793575287, 0.04822729900479317, -0.9988304972648621, -0.05301939696073532, 0.04850097373127937, -0.03214423730969429, -0.09795969724655151, -0.054285679012537, -0.04131891578435898, -0.0066696288995444775, -0.059399429708719254, -1.5364516973495483, 0.11595871299505234, -0.06055320426821709, 0.9244216680526733, -0.7929509282112122, 0.9464821815490723, 0.06534676998853683, -1.7657418251037598, 0.09986263513565063, 0.11506599187850952, 0.4506145417690277, 0.06206038221716881, -0.6207647919654846, 0.013283710926771164, 0.13095049560070038, 0.11685647070407867, 0.054715804755687714, -0.08739922195672989, 0.028298230841755867, -0.09047809988260269, 0.06527046859264374, 0.04415111616253853, -0.7894730567932129, 0.03537268936634064, -0.015972638502717018, 1.7060520648956299]], "fc2.bias": [0.07330546528100967]}