{"fc1.weight": [[0.0775434598326683, 0.27678370475769043, -0.5284024477005005, -0.12271209806203842, 0.1200665831565857, 0.04202347248792648, -0.4142407774925232, 0.11252961307764053, 0.14650842547416687, 0.12427222728729248, -0.29664698243141174, 0.21768522262573242, 0.16963115334510803, 0.13263022899627686, -0.0565854087471962, 0.05806223303079605, 0.29114046692848206, 0.12222207337617874, -0.00012607478129211813, -0.5753775835037231, -0.1693291813135147, 0.12052401155233383, 0.1368139386177063, -0.2865290343761444, -0.1516655683517456, 0.3946619927883148, -0.14836841821670532, -0.08888480067253113, -0.043714433908462524, 0.28421521186828613, 0.09908613562583923, 0.08272286504507065, -0.20993170142173767, 0.09261932224035263, 0.0015269392170011997, -0.10183082520961761, -0.1341431885957718, 0.05548056587576866, 0.060705989599227905, 0.011165275238454342, 0.03539218008518219, 0.004023480694741011, -0.12139496207237244, -0.023433798924088478], [0.07407715171575546, -0.12021607905626297, 0.44602110981941223, 0.09759804606437683, -0.18993572890758514, -0.24111899733543396, 0.39334285259246826, 0.12305962294340134, -0.12662449479103088, -0.0756550058722496, 0.3231642246246338, -0.07928366959095001, -0.19127650558948517, -0.010451513342559338, 0.1290123611688614, 0.11567563563585281, -0.20389309525489807, -0.13910992443561554, 0.052767809480428696, 0.5965349078178406, 0.18046654760837555, -0.39057233929634094, 0.0410466305911541, 0.159196138381958, -0.08226549625396729, -0.20588257908821106, 0.021334445104002953, 0.20278026163578033, -0.05634365975856781, -0.15045498311519623, -0.0616096667945385, -0.2927955687046051, 0.27662160992622375, 0.007097833789885044, -0.0868387445807457, -0.14146098494529724, -0.11661434173583984, -0.04011288285255432, 0.02137075550854206, 0.05177846923470497, 0.0079385070130229, -0.10438250750303268, 0.024239834398031235, -0.06699392199516296], [-0.005203068722039461, 0.3722091019153595, -0.6022722721099854, -0.08936217427253723, 0.12412860989570618, 0.06188882887363434, -0.4196925163269043, 0.041270047426223755, 0.22092433273792267, 0.27762091159820557, -0.3528912365436554, 0.18347087502479553, 0.18729551136493683, 0.055429305881261826, -0.06383422017097473, -0.04947797209024429, 0.1984236091375351, 0.20802173018455505, -0.1648108959197998, -0.42311713099479675, -0.036343690007925034, 0.3475216031074524, 0.1230444461107254, -0.1414724886417389, 0.014207428321242332, 0.26413169503211975, 0.034279197454452515, -0.11610771715641022, -0.06011375039815903, 0.09330546855926514, 0.03448428213596344, 0.2172784060239792, -0.3049282133579254, 0.14556723833084106, 0.11963485181331635, 0.13316220045089722, 0.04530315101146698, 0.015209208242595196, 0.02392267808318138, 0.041008055210113525, -0.0894508883357048, -0.03570358827710152, 0.06915652006864548, -0.1086496040225029], [-0.12767460942268372, 0.4146680235862732, -1.0470945835113525, -0.13159243762493134, 0.395006388425827, 0.3497811257839203, -0.644618570804596, 0.08067536354064941, 0.4976652264595032, 0.23264804482460022, -0.2639612555503845, 0.23293982446193695, 0.574072003364563, 0.1980205923318863, -0.29423391819000244, -0.12899768352508545, 0.6113084554672241, 0.4653468430042267, -0.21407508850097656, -1.0326961278915405, -0.22311405837535858, 0.6091888546943665, 0.21318989992141724, -0.49523141980171204, 0.09589575231075287, 0.5306825637817383, 0.077654629945755, -0.08078233897686005, 0.03981846943497658, 0.18659493327140808, -0.14029410481452942, 0.47578132152557373, -0.5752006769180298, 0.21018455922603607, -0.07899857312440872, -0.07414667308330536, -0.06143299490213394, 0.012705285102128983, 0.03870439901947975, 0.11411047726869583, -0.16428010165691376, -0.01267168764024973, 0.05088707432150841, 0.15697550773620605], [0.16203919053077698, -0.4292071461677551, 0.6264762282371521, -0.04811583459377289, -0.16398249566555023, -0.08044680953025818, 0.40067028999328613, 0.0745815560221672, -0.24194660782814026, -0.09815702587366104, 0.1614174097776413, -0.2301379293203354, -0.4489966928958893, -0.03073076345026493, 0.031560491770505905, -0.07401559501886368, -0.3421880602836609, -0.40727129578590393, 0.1529107391834259, 0.5993555188179016, 0.044900380074977875, -0.2703750431537628, -0.1322425901889801, 0.21853432059288025, 0.0403815396130085, -0.3720204830169678, 0.05622445046901703, 0.17210398614406586, -0.14332769811153412, -0.065665103495121, -0.11111009865999222, -0.18142864108085632, 0.37179136276245117, -0.12196026742458344, -0.11688099801540375, 0.1250360757112503, -0.08308903872966766, -0.13400670886039734, 0.025352634489536285, 0.13772322237491608, 0.04788168892264366, 0.10089261829853058, 0.030203519389033318, 0.06705474853515625], [-0.0302855484187603, 0.1007823571562767, -0.29370906949043274, -0.07000826299190521, 0.046022381633520126, 0.06147023290395737, -0.3950406014919281, -0.043360866606235504, 0.09146073460578918, 0.10252142697572708, -0.23310771584510803, 0.1936558336019516, 0.20597809553146362, 0.2115914672613144, -0.043199148029088974, 0.010092847980558872, 0.32216963171958923, -0.005900980439037085, -0.181837260723114, -0.3478752672672272, -0.15701361000537872, 0.17629332840442657, 0.14986422657966614, -0.20340535044670105, -0.06114472076296806, 0.2981054484844208, -0.00868838932365179, -0.0886695459485054, 0.19518283009529114, 0.18214760720729828, -0.01629575900733471, 0.08633363991975784, -0.2576797306537628, 0.1764889508485794, -0.009048347361385822, -0.027746837586164474, -0.013298967853188515, -0.10584241896867752, -0.07811915874481201, 0.004444469697773457, 0.11237163096666336, -0.0013079188065603375, 0.08533913642168045, -0.07482364773750305], [0.13813765347003937, -0.36996012926101685, 0.6971132159233093, 0.19107678532600403, -0.1253010481595993, -0.14457404613494873, 0.4867606461048126, 0.0815756693482399, -0.334827721118927, -0.3311469852924347, 0.4138830900192261, -0.2748742401599884, -0.4771127700805664, -0.24426531791687012, 0.04575318470597267, -0.01060081273317337, -0.3506525754928589, -0.448122501373291, 0.09914878010749817, 0.8136000633239746, 0.1811547726392746, -0.5150327086448669, 0.036913733929395676, 0.36375361680984497, -0.0105825774371624, -0.45229572057724, -0.05204867199063301, 0.18811284005641937, -0.15631598234176636, -0.24762603640556335, 0.10949967801570892, -0.14060121774673462, 0.35623449087142944, -0.12212800234556198, -0.08943022042512894, 0.043684061616659164, -0.057766661047935486, 0.11482683569192886, -0.026018042117357254, -0.024165457114577293, 0.1316252499818802, 0.11046791076660156, 0.026103751733899117, -0.12805810570716858], [-0.11218010634183884, 0.33286330103874207, -0.7880550026893616, -0.008489785715937614, 0.12028327584266663, 0.1106279119849205, -0.5406549572944641, 0.0867576152086258, 0.37215960025787354, 0.1361268013715744, -0.3660162091255188, 0.17371521890163422, 0.40473634004592896, 0.14651523530483246, 0.0035277777351439, -0.021398289129137993, 0.41726189851760864, 0.2779900133609772, -0.15211468935012817, -0.7288631200790405, -0.14042071998119354, 0.3126196563243866, -0.011742225848138332, -0.2613332271575928, -0.05286898836493492, 0.383457213640213, -0.08236721903085709, 0.015530054457485676, -0.006283202208578587, 0.19846031069755554, -0.1531609743833542, 0.2737123370170593, -0.21570712327957153, -0.02007133886218071, -0.05890814960002899, -0.05401277169585228, 0.0575062520802021, 0.13488709926605225, -0.13243024051189423, 0.08725054562091827, 0.02218807116150856, -0.05518120154738426, -0.15196414291858673, 0.0723940059542656], [-0.04409823939204216, -0.1404121220111847, 0.595775306224823, 0.025692200288176537, -0.08195488899946213, -0.22278723120689392, 0.5060259699821472, -0.005154675338417292, -0.19416965544223785, -0.293172687292099, 0.12675237655639648, -0.21380983293056488, -0.22010073065757751, -0.03070325218141079, -0.03807186707854271, 0.14073331654071808, -0.15959811210632324, -0.18491169810295105, 0.22690153121948242, 0.5600838661193848, -0.03941716253757477, -0.17686468362808228, -0.17339028418064117, 0.17920348048210144, -0.025088638067245483, -0.4341336488723755, 0.05937663093209267, 0.17214076220989227, -0.17168159782886505, -0.2806371748447418, 0.06225649639964104, -0.3431820571422577, 0.24692480266094208, -0.06732471287250519, -0.13817939162254333, 0.11886890232563019, -0.07277362793684006, -0.15125206112861633, 0.12838658690452576, -0.03911517560482025, 0.14716508984565735, -0.03637751191854477, 0.1162964403629303, -0.09869590401649475], [-0.046795476227998734, -0.23257379233837128, 0.31631138920783997, 0.13842599093914032, -0.03169730678200722, -0.16282251477241516, 0.3451206684112549, -0.0025578634813427925, -0.339361310005188, -0.1479596644639969, 0.31789055466651917, -0.010126817040145397, -0.1760677695274353, -0.18528001010417938, 0.026303302496671677, 0.16276149451732635, -0.232669860124588, -0.10697019845247269, 0.018816182389855385, 0.5291960835456848, -0.06447767466306686, -0.373445987701416, 0.052111126482486725, 0.2385743409395218, 0.0491243451833725, -0.18767577409744263, -0.10761858522891998, 0.13185513019561768, -0.01698896661400795, -0.2732708752155304, -0.012840195558965206, -0.3150973916053772, 0.3656424283981323, -0.022614017128944397, -0.1277323067188263, -0.05267620459198952, 0.002148165600374341, -0.06373898684978485, 0.004625511821359396, 0.06386777013540268, 0.08454351127147675, 0.020356973633170128, 0.1345626264810562, 0.02918544039130211], [-0.039120372384786606, 0.07054968923330307, -0.2179907113313675, -0.008828237652778625, -0.09845051169395447, 0.05304916575551033, -0.09781978279352188, -0.1447857916355133, 0.06945610046386719, 0.10496743023395538, -0.13979372382164001, 0.03740997239947319, -0.02480473928153515, -0.0968032255768776, -0.052588582038879395, 0.11401009559631348, 0.06604260951280594, 0.12126254290342331, -0.059912145137786865, -0.14239943027496338, -0.09952941536903381, -0.04350247234106064, -0.09700554609298706, 0.0381704717874527, -0.03524119779467583, 0.045981861650943756, -0.0669296458363533, -0.011810996569693089, 0.03115721419453621, -0.021853717043995857, 0.1368802785873413, -0.11508201062679291, -0.06519472599029541, 0.09735851734876633, -0.12003684788942337, 0.10885800421237946, 0.06865325570106506, 0.06477279961109161, -0.08140458166599274, -0.07079585641622543, -0.015178308822214603, 0.1147916167974472, -0.09421356767416, -0.06647448986768723], [-0.08321157097816467, -0.4141519069671631, 0.5225443243980408, 0.036972302943468094, -0.2947864830493927, -0.30450862646102905, 0.48894456028938293, -0.0739523321390152, -0.13766983151435852, -0.22529897093772888, 0.3793470859527588, -0.05108574405312538, -0.20703473687171936, -0.1087949126958847, 0.22571124136447906, 0.17471498250961304, -0.21332430839538574, -0.28197214007377625, 0.11420147120952606, 0.5476914644241333, -0.024984989315271378, -0.4102824926376343, -0.03392944857478142, 0.35173535346984863, 0.16037790477275848, -0.3673322796821594, 0.14848217368125916, 0.08477743715047836, -0.1852964609861374, -0.25693413615226746, -0.04748353734612465, -0.13454198837280273, 0.19906631112098694, -0.2112758904695511, -0.10086415708065033, 0.13908372819423676, 0.11610829830169678, 0.13774944841861725, -0.020351406186819077, -0.1151372566819191, 0.05154018849134445, -0.05411433428525925, -0.0634513646364212, 0.018743813037872314], [-0.0887480229139328, -0.5726487636566162, 0.8874810338020325, 0.17662285268306732, -0.4272797703742981, -0.24444593489170074, 0.7141346335411072, -0.1455649733543396, -0.43694785237312317, -0.20990270376205444, 0.3719049394130707, -0.07877103239297867, -0.4761831760406494, -0.3222199082374573, 0.017358219251036644, 0.15154050290584564, -0.4402318000793457, -0.3739945888519287, 0.2513929009437561, 0.762830913066864, 0.24602369964122772, -0.46728989481925964, -0.1524127572774887, 0.5378149151802063, 0.056564558297395706, -0.3931429982185364, 0.058466579765081406, 0.26244351267814636, -0.08431971818208694, -0.33699050545692444, 0.049501702189445496, -0.3346596360206604, 0.34754496812820435, -0.02427665702998638, -0.06289149075746536, -0.041104141622781754, -0.11539336293935776, -0.05285404250025749, -0.0802496001124382, -0.02107297070324421, -0.02557692676782608, -0.07394789159297943, -0.06834270805120468, -0.005372536834329367], [-0.12474095076322556, 0.22285278141498566, -0.7957238554954529, -0.03057878650724888, 0.1887238621711731, 0.22762763500213623, -0.5863680243492126, 0.04989827424287796, 0.20133322477340698, 0.11531185358762741, -0.16628769040107727, 0.2733612060546875, 0.23607298731803894, 0.2468802034854889, 0.06066972017288208, -0.07787419855594635, 0.40152648091316223, 0.1608855128288269, -0.23296427726745605, -0.5919573903083801, -0.04638202488422394, 0.30761072039604187, -0.029072154313325882, -0.2694932818412781, -0.06267066299915314, 0.36095258593559265, -0.06600632518529892, -0.08037567138671875, 0.19935454428195953, 0.279619425535202, -0.07055435329675674, 0.21491508185863495, -0.2854057252407074, 0.05782684311270714, 0.035356804728507996, -0.0009158466709777713, 0.023297911509871483, -0.05538764223456383, -0.0053805457428097725, 0.10400974005460739, 0.07482343167066574, 0.01879671774804592, -0.05487476661801338, -0.07616745680570602], [0.004544099792838097, -0.3305718004703522, 0.5769550204277039, 0.03148825094103813, -0.2226134091615677, -0.136527419090271, 0.3812946677207947, 0.02249900810420513, -0.423345685005188, -0.10234114527702332, 0.2497655153274536, -0.2661616802215576, -0.26485440135002136, -0.24545392394065857, 0.0278384517878294, 0.08417928218841553, -0.3083665072917938, -0.34282687306404114, 0.2321307361125946, 0.6218854784965515, 0.12616495788097382, -0.2564260959625244, 0.04087231680750847, 0.3688541650772095, 0.07886471599340439, -0.25555527210235596, 0.07352911680936813, 0.16271279752254486, -0.20907874405384064, -0.3407760560512543, 0.026392729952931404, -0.33128997683525085, 0.4619038999080658, -0.13091370463371277, -0.06484663486480713, -0.0587603859603405, -0.0990012064576149, -0.024809343740344048, -0.05099834129214287, 0.13330428302288055, 0.08433201909065247, 0.011010660789906979, -0.009411555714905262, 0.09964925050735474], [-0.038427721709012985, -0.49764949083328247, 0.6922277808189392, 0.15762299299240112, -0.28056979179382324, -0.3185623586177826, 0.6071735620498657, -0.12885409593582153, -0.37888509035110474, -0.37573447823524475, 0.388874351978302, -0.2894677221775055, -0.3160672187805176, -0.37775224447250366, 0.22889840602874756, 0.220216304063797, -0.32627496123313904, -0.49929025769233704, 0.1539934128522873, 0.8310961723327637, 0.1124572679400444, -0.42750415205955505, 0.08052069693803787, 0.5104389786720276, -0.046128835529088974, -0.4980902075767517, -0.06894711405038834, 0.1462002545595169, -0.13859394192695618, -0.4012431502342224, 0.05617939308285713, -0.4067647457122803, 0.3247692883014679, -0.19242557883262634, 0.0338217094540596, 0.14193500578403473, 0.15452250838279724, 0.06372305750846863, -0.09597565978765488, -0.07406323403120041, -0.05673976242542267, 0.06713588535785675, 0.04222088307142258, 0.08199191838502884], [-0.09108101576566696, 0.5730197429656982, -0.7592304944992065, -0.19184179604053497, 0.23031699657440186, 0.13271869719028473, -0.5442653298377991, -0.10994838178157806, 0.3756881654262543, 0.31933361291885376, -0.27397188544273376, 0.21252311766147614, 0.49054384231567383, 0.2944768965244293, -0.22268705070018768, -0.001933440682478249, 0.3799050748348236, 0.44704025983810425, -0.04958562180399895, -0.8197727203369141, -0.07330767065286636, 0.5236763954162598, 0.11900880187749863, -0.5147349238395691, -0.12745709717273712, 0.41298893094062805, 0.0005950277554802597, -0.1475405991077423, 0.14661471545696259, 0.3270447552204132, 0.08140716701745987, 0.24039578437805176, -0.48049232363700867, -0.05282753333449364, -0.14096464216709137, -0.10918841511011124, -0.14682140946388245, 0.006953197065740824, 0.07528657466173172, -0.014672200195491314, -0.04211845248937607, -0.01621706411242485, 0.0265852939337492, -0.05921328812837601], [-0.017254682257771492, 0.4034340977668762, -0.5255582928657532, -0.10351704061031342, 0.032204993069171906, 0.20391687750816345, -0.45406535267829895, 0.00022035118308849633, 0.20677360892295837, 0.3297078013420105, -0.36454060673713684, 0.07158048450946808, 0.20992761850357056, 0.2540443539619446, -0.041237059980630875, -0.18269099295139313, 0.15606021881103516, 0.22373518347740173, -0.11331620067358017, -0.5901703834533691, -0.0787302702665329, 0.3937433660030365, 0.04836379364132881, -0.4435580372810364, -0.1738283932209015, 0.44515520334243774, 0.12103444337844849, -0.04135353863239288, -0.03587214648723602, 0.3085360527038574, 0.09951069205999374, 0.22970829904079437, -0.3864242136478424, 0.06661196053028107, 0.080132856965065, -0.02668701484799385, -0.03138398006558418, 0.007406910415738821, 0.04333745688199997, 0.11539196968078613, -0.059343840926885605, 0.10830609500408173, 0.11011547595262527, 0.03254249691963196], [0.12449567019939423, 0.017286941409111023, 0.24514827132225037, 0.1172182559967041, -0.06709347665309906, -0.17810937762260437, 0.15129418671131134, 0.10421448945999146, -0.18718045949935913, 0.01444526668637991, 0.20246466994285583, -0.09360820055007935, -0.12615910172462463, -0.0528537891805172, 0.15469558537006378, 0.14431266486644745, -0.22950269281864166, -0.19371244311332703, 0.13045276701450348, 0.1997058242559433, -0.09384530782699585, -0.007869010791182518, 0.098223976790905, 0.16238996386528015, 0.01257850881665945, -0.21709585189819336, -0.03852130472660065, 0.06881383061408997, 0.005783266853541136, 0.030166490003466606, 0.1368490308523178, -0.13446152210235596, 0.3006294071674347, -0.14398925006389618, 0.07811246812343597, -0.15024660527706146, 0.016649605706334114, 0.13429391384124756, -0.061801616102457047, -0.09310982376337051, 0.03868372365832329, -0.09759949147701263, -0.03692396730184555, 0.08383730053901672], [-0.06889812648296356, 0.3032912313938141, -0.6489949822425842, -0.1484428346157074, 0.21881024539470673, 0.07149568945169449, -0.5254165530204773, -0.12205623090267181, 0.4314401149749756, 0.2571905255317688, -0.25907912850379944, -0.01679428108036518, 0.3408578038215637, 0.2328519970178604, -0.23868337273597717, 0.0324084497988224, 0.2873544692993164, 0.3638691008090973, -0.1997051239013672, -0.5862235426902771, -0.17744062840938568, 0.3786729872226715, 0.05687578022480011, -0.43405529856681824, -0.06952893733978271, 0.38752251863479614, 0.021184515208005905, -0.2239992618560791, 0.06744413822889328, 0.20908452570438385, 0.10652636736631393, 0.2704562544822693, -0.4019884169101715, 0.2155836671590805, 0.10251712799072266, -0.13905298709869385, 0.09133365750312805, 0.04821420833468437, -0.13553963601589203, 0.014192278496921062, -0.10110985487699509, 0.10805501788854599, -0.07482621818780899, 0.04309012368321419], [-0.05666327849030495, -0.052812542766332626, 0.17856650054454803, 0.13263441622257233, -0.1673528552055359, -0.0663522481918335, 0.265989750623703, -0.11826632171869278, 0.02352818101644516, 0.04677458480000496, 0.18479329347610474, 0.0984359011054039, -0.1439049243927002, -0.17560173571109772, -0.06470898538827896, 0.16312715411186218, -0.10593441128730774, 0.017651448026299477, 0.039626218378543854, 0.22403380274772644, 0.16706667840480804, -0.1819356083869934, 0.10436464846134186, 0.15869387984275818, 0.043260086327791214, 0.05890999361872673, 0.07190337032079697, -0.06165460869669914, -0.06283967941999435, -0.04341885447502136, 0.04014561325311661, 0.08317634463310242, 0.06044584885239601, -0.09491705149412155, -0.14333856105804443, -0.10058359056711197, 0.130125492811203, 0.07783174514770508, 0.14034098386764526, 0.1649952083826065, 0.15081778168678284, 0.012530801817774773, 0.17980743944644928, -0.07061811536550522], [-0.028054911643266678, 0.07250453531742096, -0.27814966440200806, 0.025890978053212166, -0.09786906093358994, 0.21015997231006622, -0.30706143379211426, -0.00018090388039126992, 0.1681843101978302, 0.1885073482990265, -0.19881826639175415, -0.07980950176715851, 0.04622452333569527, -0.0785803347826004, -0.019755912944674492, -0.1330326795578003, 0.15554891526699066, 0.10780611634254456, -0.027119359001517296, -0.3696219325065613, 0.019163230434060097, 0.023204142227768898, -0.08581678569316864, -0.19644659757614136, 0.00818921159952879, 0.2401961088180542, -0.0693216472864151, -0.17458978295326233, -0.014892768114805222, -0.043185267597436905, 0.1170494332909584, 0.21835793554782867, -0.025707658380270004, 0.053257349878549576, -0.0014928546734154224, 0.09315723925828934, 0.12443651258945465, 0.1382940113544464, 0.11353014409542084, -0.14646224677562714, 0.11550631374120712, 0.08618947863578796, -0.132635697722435, 0.0013797361170873046], [-0.055673014372587204, -0.23430980741977692, 0.6852564811706543, -0.03125448897480965, -0.0610833577811718, -0.11663559824228287, 0.48808398842811584, -0.04731018841266632, -0.3486872911453247, -0.186350479722023, 0.10813383013010025, -0.2032187432050705, -0.3399260640144348, -0.21181315183639526, 0.12528686225414276, -0.026791006326675415, -0.3154340088367462, -0.35792601108551025, 0.18528535962104797, 0.5914964079856873, 0.20341959595680237, -0.2294679880142212, -0.07239918410778046, 0.16872666776180267, 0.12309543788433075, -0.22239573299884796, 0.1564740538597107, 0.048173271119594574, -0.16565315425395966, -0.1832556128501892, 0.11394236236810684, -0.13530032336711884, 0.34665757417678833, 0.043935589492321014, -0.10841920971870422, -0.05048634484410286, -0.03749311715364456, -0.049025651067495346, -0.015267153270542622, 0.13983848690986633, -0.13269279897212982, 0.006604980677366257, 0.07560273259878159, 0.13294970989227295], [-0.007521673571318388, -0.0933871865272522, 0.09107004851102829, 0.1094929575920105, -0.1226639375090599, -0.18048474192619324, 0.2464902400970459, -0.05069279298186302, 0.004301656037569046, -0.09802237153053284, 0.25653311610221863, 0.002238730899989605, -0.06780175119638443, -0.1550132930278778, 0.15968087315559387, 0.19478681683540344, -0.21929802000522614, -0.09420072287321091, 0.07899538427591324, 0.17304350435733795, 0.04438970237970352, -0.1483895182609558, -0.08469076454639435, 0.09548585116863251, -0.013780072331428528, 0.030099691823124886, 0.13388411700725555, -0.041459787636995316, -0.10365808010101318, -0.13575251400470734, 0.13228212296962738, 0.031185811385512352, 0.17107950150966644, -0.011195695027709007, -0.005482595879584551, -0.08345924317836761, 0.03358519822359085, -0.14393943548202515, -0.009735560975968838, 0.024833237752318382, -0.07551707327365875, 0.1149669736623764, 0.02501366287469864, 0.03435716778039932], [0.18415971100330353, -0.18659958243370056, 0.3568449914455414, -0.09188032895326614, -0.1025945171713829, -0.16696618497371674, 0.13446258008480072, 0.03913392126560211, 0.04781937599182129, -0.037564344704151154, 0.16517649590969086, -0.039600808173418045, -0.06428255885839462, -0.1549377292394638, -0.009523631073534489, 0.06662674993276596, -0.2404431700706482, -0.21023030579090118, 0.018806815147399902, 0.2703704535961151, 0.0690484493970871, -0.15765583515167236, 0.057576511055231094, 0.1332743912935257, -0.11429177969694138, -0.10240405052900314, 0.026445893570780754, -0.027704637497663498, -0.013254341669380665, -0.017068827524781227, -0.06368908286094666, -0.13021685183048248, 0.18270188570022583, -0.042229898273944855, 0.05776533484458923, 0.14497727155685425, 0.10973857343196869, 0.1245633214712143, 0.1143772155046463, 0.008544630371034145, 0.012226670049130917, 0.014025452546775341, -0.011289050802588463, -0.08024351298809052], [-0.07811763882637024, -0.045252855867147446, 0.4250045120716095, -0.00036734584136866033, -0.013301965780556202, -0.08202213048934937, 0.3388618528842926, 0.09160270541906357, -0.010340048000216484, -0.1319497525691986, 0.21496213972568512, -0.08798684924840927, -0.24225039780139923, -0.11948686838150024, 0.1879725158214569, -0.012421734631061554, -0.05150003358721733, 0.02694881521165371, 0.09607404470443726, 0.21648183465003967, -0.05728568881750107, -0.17685706913471222, 0.05522843450307846, 0.19312012195587158, 0.10207156836986542, -0.08983452618122101, 0.10975296795368195, -0.05457283928990364, -0.06986397504806519, 0.006312192417681217, 0.11570924520492554, -0.2121012955904007, 0.06077132001519203, -0.023545747622847557, -0.10701250284910202, -0.10988438129425049, -0.08361676335334778, 0.11697260290384293, -0.003960601054131985, 0.12096156179904938, 0.14556531608104706, -0.011426355689764023, 0.09308847784996033, 0.06061682105064392], [-0.05077023804187775, -0.43177521228790283, 0.9259657263755798, 0.21124377846717834, -0.3652787506580353, -0.31666311621665955, 0.5114022493362427, -0.03359202295541763, -0.4318464696407318, -0.2743658423423767, 0.39298561215400696, -0.030041644349694252, -0.364009827375412, -0.17130820453166962, 0.24754448235034943, 0.18043261766433716, -0.4441816806793213, -0.27843284606933594, -0.0031792521476745605, 0.7317200303077698, 0.2877739667892456, -0.5245211124420166, -0.12548966705799103, 0.302726149559021, -0.10391977429389954, -0.4986635744571686, 0.17118224501609802, 0.23716320097446442, -0.21975365281105042, -0.16423878073692322, -0.062160100787878036, -0.1558087319135666, 0.4064587354660034, -0.056552283465862274, -0.08517882227897644, -0.03160770609974861, 0.0551389716565609, 0.030352864414453506, 0.10136568546295166, -0.07847573608160019, -0.0829952135682106, 0.10776394605636597, -0.09861390292644501, -0.07115110009908676], [-0.09286802262067795, -0.06202274560928345, 0.14704908430576324, -0.08832339197397232, 0.13290554285049438, -0.13898798823356628, 0.11791343241930008, 0.14254285395145416, -0.06690403819084167, -0.1557321548461914, 0.07074471563100815, -0.09259798377752304, -0.13186591863632202, -0.15061475336551666, -0.005461736582219601, -0.08779443800449371, 0.003421516390517354, -0.031060433015227318, -0.0075045437552034855, 0.16448836028575897, -0.1031859815120697, -0.016915686428546906, -0.07700367271900177, -0.059151921421289444, 0.025250792503356934, 0.043772827833890915, 0.004431751556694508, 0.04892412945628166, 0.011785007081925869, 0.12240062654018402, 0.14328904449939728, -0.06535830348730087, 0.09901878237724304, -0.1244325041770935, -0.14151355624198914, -0.036089636385440826, -0.1304987668991089, -0.05013309046626091, -0.06897566467523575, 0.11505524069070816, -0.032818637788295746, 0.15592733025550842, -0.019401967525482178, 0.12680400907993317], [-0.026444675400853157, 0.3176470994949341, -0.4395253658294678, -0.12245095521211624, 0.012941884808242321, 0.09992101043462753, -0.39367392659187317, -0.07859183102846146, 0.10356681048870087, 0.17087572813034058, -0.1835438311100006, 0.09144032001495361, 0.21789968013763428, 0.13755229115486145, -0.022914867848157883, -0.016773533076047897, 0.25806862115859985, 0.20028913021087646, -0.08806201815605164, -0.3795856237411499, 0.02014889381825924, 0.1296464502811432, -0.08727263659238815, -0.24581727385520935, -0.016605310142040253, 0.3625529706478119, 0.030261484906077385, -0.18132473528385162, -0.05098433792591095, 0.1701499968767166, 0.0843803733587265, 0.25503042340278625, -0.30421754717826843, -0.01974199339747429, 0.003991292789578438, 0.01784009300172329, -0.06410463154315948, -0.11802276968955994, 0.12340641766786575, 0.013088232837617397, -0.18225160241127014, -0.018833033740520477, -0.03813307732343674, 0.020546957850456238], [0.09217429161071777, 0.015911590307950974, 0.03702002391219139, -0.11600658297538757, 0.17274364829063416, 0.11096807569265366, -0.1046854630112648, -0.0040403492748737335, -0.04755298048257828, 0.0013751430669799447, 0.05538124963641167, 0.1451054811477661, -0.050825588405132294, -0.018831998109817505, -0.057056933641433716, 0.10850869864225388, -0.0277165025472641, 0.16258831322193146, 0.1329532116651535, -0.18414148688316345, 0.09792103618383408, 0.058193471282720566, 0.09838400036096573, -0.0306308101862669, 0.0027032901998609304, -0.059753257781267166, 0.10967164486646652, -0.0035362164489924908, -0.06877753883600235, -0.12927675247192383, -0.10866472125053406, -0.004790284670889378, 0.04935101419687271, -0.06079532206058502, -0.10744481533765793, 0.0240994431078434, 0.01107456348836422, 0.11780869960784912, 0.021060043945908546, 0.09185270965099335, -0.14102311432361603, 0.1328042447566986, 0.0009832282084971666, -0.056547611951828], [0.14130587875843048, -0.26759862899780273, 0.4516356587409973, -0.01163487695157528, -0.025127718225121498, 0.028548721224069595, 0.3571103513240814, 0.019307229667901993, -0.01058062445372343, -0.1629016399383545, 0.3136312663555145, -0.14328785240650177, -0.07159565389156342, -0.13624843955039978, 0.12746936082839966, 0.20184293389320374, -0.266116738319397, -0.22455161809921265, 0.11089938133955002, 0.27415645122528076, 0.05888334661722183, -0.05275897681713104, 0.10564012080430984, 0.26173171401023865, -0.0535372719168663, -0.31501904129981995, -0.09420546144247055, 0.08009398728609085, -0.024531617760658264, -0.24919840693473816, 0.033620722591876984, -0.28440284729003906, 0.14152510464191437, -0.021102650091052055, 0.12130020558834076, -0.04658502712845802, 0.03528110310435295, 0.01458476111292839, -0.0070172445848584175, 0.03654318302869797, 0.11497844010591507, 0.026016756892204285, -0.121104896068573, 0.05188164860010147], [-0.08013912290334702, -0.062357883900403976, 0.0298006534576416, -0.09296220541000366, -0.013386448845267296, 0.10136912018060684, -0.17756205797195435, -0.0550663024187088, 0.007143502589315176, 0.040138646960258484, -0.15332305431365967, 0.006772412918508053, 0.0741477757692337, -0.030669134110212326, -0.07149699330329895, -0.03968232870101929, 0.002803914248943329, 0.12906213104724884, -0.13557694852352142, -0.11173906922340393, -0.13883697986602783, 0.07991442084312439, 0.021363085135817528, -0.0673050582408905, -0.09795322269201279, 0.010807589627802372, 0.07757342606782913, 0.01744437962770462, -0.03306679427623749, -0.015209006145596504, -0.059093624353408813, -0.13397151231765747, -0.1085212379693985, -0.1288565844297409, 0.03897788003087044, -0.14250986278057098, -0.12017390877008438, 0.1443762183189392, 0.016498807817697525, -0.16162514686584473, -0.0955735445022583, -0.014547258615493774, -0.15235890448093414, -0.06315799057483673], [0.10694953799247742, 0.40030983090400696, -0.8690897822380066, -0.0738009512424469, 0.2821439206600189, 0.23306110501289368, -0.47275635600090027, -0.05496619641780853, 0.4169423282146454, 0.27326104044914246, -0.34785565733909607, 0.1400430053472519, 0.4098484218120575, 0.31413325667381287, -0.2171602100133896, -0.021774161607027054, 0.5500471591949463, 0.5169947743415833, -0.2777870297431946, -0.7570959329605103, -0.16364751756191254, 0.34305086731910706, -0.03456616401672363, -0.5277096629142761, -0.18173570930957794, 0.5921471118927002, -0.03902709484100342, -0.14419712126255035, 0.027022255584597588, 0.42135897278785706, -0.007836765609681606, 0.30169615149497986, -0.3731265366077423, -0.0185016468167305, 0.10047494620084763, -0.006560069974511862, -0.01528636272996664, -0.07186950743198395, -0.1156499981880188, -0.0860043540596962, 0.0442902036011219, -0.012019735760986805, -0.017286039888858795, -0.09574217349290848], [0.044462498277425766, 0.23436212539672852, -0.6308890581130981, 0.06452358514070511, 0.35219085216522217, 0.18051353096961975, -0.5641587376594543, 0.03183884918689728, 0.246859610080719, 0.08698946237564087, -0.27342671155929565, 0.03387443348765373, 0.4008868932723999, 0.32112041115760803, -0.10287048667669296, -0.16296647489070892, 0.4840920865535736, 0.22100412845611572, -0.2635909616947174, -0.6547362208366394, -0.0867995098233223, 0.35072433948516846, 0.04085136950016022, -0.4302091896533966, -0.024778394028544426, 0.5379800200462341, -0.07973089814186096, -0.08518113195896149, -0.0034534947481006384, 0.3448305130004883, 0.04314796254038811, 0.21674075722694397, -0.3276885747909546, 0.0018799492390826344, -0.016751786693930626, -0.14306819438934326, -0.1553976684808731, -0.05666713789105415, -0.03638876602053642, -0.04599124193191528, 0.02461347170174122, -0.03970874845981598, -0.07732629030942917, 0.011109618470072746], [-0.03071712702512741, 0.30638042092323303, -0.7882071137428284, -0.01079586986452341, 0.1654941886663437, 0.2722410261631012, -0.6668804287910461, -0.01705804094672203, 0.3576448857784271, 0.13472501933574677, -0.4304693341255188, 0.1739538460969925, 0.2916785478591919, 0.26337331533432007, 0.004090447910130024, -0.09658556431531906, 0.4769258499145508, 0.4056781232357025, 0.0033119122963398695, -0.6357442140579224, -0.01964685507118702, 0.5409724712371826, -0.07587549090385437, -0.43659520149230957, -0.08791560679674149, 0.5997474193572998, 0.04227982833981514, -0.2476465106010437, 0.17917412519454956, 0.1270209103822708, -0.006576246116310358, 0.1415986269712448, -0.2837294042110443, 0.23887361586093903, 0.09375130385160446, -0.042941682040691376, -0.03844704478979111, 0.06620385497808456, -0.012063977308571339, 0.11248955875635147, 0.07996884733438492, -0.0769452452659607, -0.006540508475154638, -0.02483528107404709], [-0.07652195543050766, -0.07540897279977798, -0.04794793203473091, 0.07366965711116791, -0.09146364778280258, -0.14359009265899658, -0.04682840034365654, 0.015055636875331402, 0.09027905762195587, 0.07396877557039261, 0.13613834977149963, 0.008828110061585903, 0.07100462913513184, -0.06455133110284805, 0.06773825734853745, 0.0659705325961113, -0.0970563143491745, 0.004304650705307722, 0.10636139661073685, 0.011270562186837196, 0.092041976749897, -0.14022581279277802, 0.03846508637070656, -0.14109374582767487, 0.14630980789661407, -0.015756431967020035, -0.14252929389476776, -0.018375148996710777, -0.05442193150520325, -0.10591554641723633, -0.08543654531240463, 0.021114977076649666, -0.004967921879142523, -0.12830181419849396, -0.02349289506673813, -0.04440995678305626, -0.029239345341920853, 0.031870629638433456, -0.10459353029727936, -0.016345497220754623, 0.10994245111942291, -0.12275460362434387, 0.07405714690685272, 0.08994030952453613], [-0.18691936135292053, 0.36131301522254944, -0.7121865749359131, -0.07530423253774643, 0.1895637959241867, 0.02990558184683323, -0.40940552949905396, 0.08867590874433517, 0.14511652290821075, 0.0902198925614357, -0.1060778945684433, 0.16757263243198395, 0.31906816363334656, 0.10603296011686325, -0.02874254249036312, -0.07849553972482681, 0.17524324357509613, 0.2619161605834961, 0.0017386486288160086, -0.6596004962921143, -0.23190662264823914, 0.3078570067882538, 0.11745604872703552, -0.18966813385486603, 0.03827817365527153, 0.3767014741897583, -0.0054977573454380035, -0.23044872283935547, 0.20559626817703247, 0.28413626551628113, -0.010322252288460732, 0.281063437461853, -0.41081538796424866, -0.07332650572061539, -0.008974301628768444, 0.11407224833965302, 0.11079570651054382, 0.0319770984351635, 0.08048702031373978, 0.07772993296384811, -0.026295190677046776, 0.04756227135658264, 0.09162536263465881, 0.003002839395776391], [-0.04038185998797417, -0.03457608073949814, 0.16233953833580017, 0.07877715677022934, -0.10855205357074738, 0.07382757216691971, 0.14337216317653656, -0.05777391046285629, 0.04056381434202194, 0.01078164391219616, 0.13681922852993011, 0.03536359593272209, -0.12684769928455353, -0.17978909611701965, -3.6916521821694914e-06, -0.058709532022476196, -0.07212655246257782, 0.029097214341163635, 0.12230437994003296, 0.05581027269363403, 0.07578668743371964, -0.06298871338367462, -0.02650393918156624, 0.0952000543475151, 0.0650409609079361, 0.04283175989985466, 0.09100383520126343, 0.021529048681259155, 0.0930141732096672, -0.06813429296016693, -0.01390810776501894, -0.018346430733799934, 0.21151235699653625, 0.0072019766084849834, -0.13972799479961395, 0.03479292616248131, -0.10052191466093063, -0.11650430411100388, 0.15009234845638275, 0.16954874992370605, -0.07795970141887665, 0.088642917573452, 0.16536620259284973, 0.14536525309085846], [-0.12382076680660248, -0.01487762201577425, -0.24861374497413635, -0.13510680198669434, -0.015203217044472694, 0.03821315988898277, -0.08167286962270737, 0.03489835560321808, 0.23272308707237244, -0.04128366708755493, -0.22695863246917725, 0.13419662415981293, 0.1310340166091919, 0.11317290365695953, -0.20728285610675812, -0.1271820217370987, 0.15791022777557373, 0.024177728220820427, -0.11622024327516556, -0.3988802433013916, 0.10643183439970016, 0.09995173662900925, 0.08886381983757019, -0.021611252799630165, -0.10530827939510345, 0.15925230085849762, -0.07943378388881683, -0.09088699519634247, -0.019509291276335716, -0.015708250924944878, -0.10372108966112137, 0.010647985152900219, -0.2323802262544632, -0.051193784922361374, 0.06288257241249084, 0.029287854209542274, -0.011319540441036224, -0.05104145407676697, 0.12295850366353989, -0.09396631270647049, -0.022899804636836052, -0.09345564246177673, -0.04576769098639488, 0.1255480796098709], [-0.1474318504333496, 0.7728358507156372, -1.260421633720398, -0.2097877413034439, 0.38721200823783875, 0.4458453953266144, -0.718144953250885, -0.07327964901924133, 0.7084699273109436, 0.5040231347084045, -0.532496452331543, 0.3835022449493408, 0.7587851881980896, 0.44407302141189575, -0.19292117655277252, -0.0838795080780983, 0.5570380091667175, 0.6942320466041565, -0.3429901599884033, -1.2304002046585083, -0.3580210506916046, 0.5471583008766174, 0.19955764710903168, -0.6163420677185059, -0.040462467819452286, 0.8074144124984741, -0.0970768928527832, -0.1699228733778, 0.15650351345539093, 0.3114834725856781, -0.08904208987951279, 0.5776851773262024, -0.7486046552658081, 0.21145987510681152, 0.05513795092701912, -0.07621075212955475, -0.08263533562421799, -0.07151667773723602, 0.021009773015975952, -0.026810629293322563, -0.08107484132051468, 0.03140098601579666, 0.039944764226675034, 0.11526002734899521], [-0.1551116704940796, 0.05499844625592232, -0.3081945776939392, 0.0664563849568367, -0.05579068884253502, 0.029374586418271065, -0.16125430166721344, -0.10074961185455322, 0.1109125167131424, 0.0587371364235878, 0.05620899796485901, 0.10524376481771469, 0.1274302750825882, -0.019029658287763596, -0.13645701110363007, 0.09604734927415848, -0.06076807901263237, 0.18131962418556213, -0.06832259893417358, -0.22468838095664978, -0.0768362507224083, 0.027866680175065994, 0.0673762708902359, -0.025925496593117714, -0.005950953811407089, -0.039111167192459106, -0.16342394053936005, -0.17282021045684814, -0.07401867210865021, 0.124692402780056, -0.06111008673906326, 0.03239466995000839, -0.22478006780147552, -0.09237024188041687, 0.12647849321365356, 0.1498051881790161, -0.10979477316141129, -0.13635572791099548, -0.117580845952034, -0.05841616168618202, 0.11761211603879929, 0.08700213581323624, 0.045521173626184464, -0.03264085203409195], [0.11390500515699387, -0.10267950594425201, -0.11269363015890121, 0.12925542891025543, 0.02611377462744713, -0.07589901983737946, -0.05241750180721283, 0.14309586584568024, -0.01992417871952057, 0.09389698505401611, -0.16190558671951294, -0.10632654279470444, -0.07850155234336853, 0.13201579451560974, -0.1608559489250183, 0.02098294533789158, 0.042508963495492935, 0.08137141168117523, 0.051201824098825455, -0.03278156742453575, 0.048024844378232956, -0.11154121905565262, 0.0379960760474205, 0.03762776404619217, -0.09064439684152603, 0.003858765820041299, 0.10032156854867935, 0.012187213636934757, 0.01692328415811062, 0.05933215096592903, -0.056162506341934204, 0.05665021389722824, -0.15087701380252838, -0.11192915588617325, -0.017543401569128036, -0.09313652664422989, -0.012665797956287861, -0.06594851613044739, -0.028999067842960358, -0.15120963752269745, -0.029472321271896362, -0.16300176084041595, -0.07823201268911362, -0.08368755131959915], [0.1372888833284378, 0.5868282914161682, -1.0532578229904175, -0.07312337309122086, 0.2677232325077057, 0.4296450912952423, -0.7300642728805542, 0.05448911339044571, 0.49373504519462585, 0.253576397895813, -0.5150313377380371, 0.07158815115690231, 0.49292242527008057, 0.20694465935230255, -0.17605377733707428, -0.18674615025520325, 0.5084903836250305, 0.4723712205886841, -0.08869069814682007, -0.9439144134521484, -0.2947264313697815, 0.526791512966156, 0.22762496769428253, -0.5714656710624695, -0.05050094798207283, 0.7753089070320129, 0.08503750711679459, -0.2580764889717102, 0.10722406208515167, 0.5086219906806946, -0.11227048933506012, 0.3072136640548706, -0.6342201828956604, 0.22010047733783722, 0.032838065177202225, -0.015765251591801643, -0.05936025083065033, 0.06281612813472748, 0.02879517897963524, 0.12162277847528458, 0.024396799504756927, 0.10782962292432785, -0.06894924491643906, 0.05261082947254181], [0.06264708936214447, -0.39550134539604187, 0.6067582964897156, -0.07264405488967896, -0.03402155637741089, -0.20391735434532166, 0.29570287466049194, -0.07154078036546707, -0.21725216507911682, -0.029925024136900902, 0.3711138367652893, -0.0896168202161789, -0.28625524044036865, -0.13084949553012848, 0.07816091924905777, -0.0027069728821516037, -0.3778104782104492, -0.26100975275039673, 0.20437553524971008, 0.47376859188079834, 0.12178715318441391, -0.2729493975639343, -0.08244109153747559, 0.3268815279006958, 0.014807007275521755, -0.2437269538640976, 0.0674133375287056, 0.007809912320226431, 0.026333702728152275, -0.21999017894268036, -0.024806778877973557, -0.15870359539985657, 0.42038267850875854, -0.18446125090122223, 0.12307856231927872, 0.02189929224550724, 0.08462824672460556, 0.1309085339307785, -0.10794331878423691, 0.15854933857917786, 0.15312884747982025, 0.001994379563257098, 0.00950088445097208, -0.07638151943683624], [0.1338728368282318, -0.20611712336540222, 0.15034647285938263, -0.0666358694434166, -0.11157457530498505, -0.18203610181808472, 0.2933015525341034, 0.022047758102416992, 0.05492500588297844, -0.04725005850195885, 0.007216084748506546, 0.057888053357601166, 0.02281762845814228, -0.06183905154466629, -0.011944679543375969, 0.034113481640815735, -0.010857206769287586, -0.19003050029277802, 0.18271875381469727, 0.1207394078373909, 0.13249853253364563, -0.13797037303447723, 0.08474024385213852, 0.27961665391921997, -0.11664941906929016, -0.218418687582016, -0.12544509768486023, 0.1647285670042038, -0.17548176646232605, 0.07955814898014069, -0.020098665729165077, -0.05961081013083458, 0.2415371686220169, 0.10994993895292282, -0.0918540433049202, 0.09952783584594727, 0.1011669859290123, 0.1443561464548111, 0.1724417507648468, 0.14879319071769714, -0.02311035990715027, 0.11639223247766495, 0.03750878572463989, -0.1322239637374878], [0.159465953707695, -0.46917831897735596, 1.0805060863494873, 0.020036740228533745, -0.4592163860797882, -0.3075772225856781, 0.7946006059646606, 0.04338397830724716, -0.5673441290855408, -0.21441127359867096, 0.42691120505332947, -0.19401703774929047, -0.7244526743888855, -0.2429109364748001, 0.19785447418689728, 0.1813536286354065, -0.5417545437812805, -0.4077499508857727, 0.27930253744125366, 0.9524981379508972, 0.27451226115226746, -0.5192039608955383, -0.014300081878900528, 0.5371337532997131, 0.18183347582817078, -0.6600697040557861, -0.02196526527404785, 0.0745551586151123, -0.17857033014297485, -0.5085557699203491, -0.0052385455928742886, -0.5038297176361084, 0.5069558024406433, -0.07973573356866837, 0.014034219086170197, 0.10581683367490768, -0.04524627700448036, 0.0013861240586265922, -0.03831435367465019, 0.10697437822818756, -0.09151517599821091, 0.009190495125949383, 0.04635949060320854, -0.0536920391023159], [0.08093848079442978, -0.15842022001743317, 0.24005962908267975, -0.09371103346347809, -0.1396905928850174, -0.10587583482265472, 0.3628069758415222, 0.028402604162693024, -0.16256488859653473, -0.03359164670109749, 0.1874302625656128, -0.09405087679624557, -0.02977943979203701, -0.16969478130340576, 0.011603125371038914, 0.18402214348316193, -0.2727307379245758, -0.22356514632701874, -0.07968752086162567, 0.257303923368454, 0.1825946718454361, -0.2481657862663269, 0.05894438549876213, 0.15158827602863312, 0.00334890466183424, -0.16615238785743713, 0.04697471112012863, 0.03962337598204613, -0.11012233793735504, -0.10292615741491318, -0.0198134146630764, 0.046208955347537994, 0.0911867618560791, 0.015266780741512775, -0.07217418402433395, 0.12823724746704102, -0.025406744331121445, 0.09019389748573303, 0.11208843439817429, -0.05482306331396103, 0.12179996818304062, 0.034115053713321686, 0.1224408745765686, 0.07120292633771896], [-0.039378684014081955, 0.6405025124549866, -1.2769798040390015, -0.1651630997657776, 0.5669110417366028, 0.27661582827568054, -0.812969446182251, -0.06827104836702347, 0.660302460193634, 0.2648026943206787, -0.5313884615898132, 0.26740410923957825, 0.8173453211784363, 0.40165144205093384, -0.11596275866031647, -0.12583206593990326, 0.6258167624473572, 0.6332622766494751, -0.23672592639923096, -1.1796684265136719, -0.07384798675775528, 0.5393040180206299, 0.051729269325733185, -0.5943880677223206, -0.11493459343910217, 0.7472505569458008, -0.15211589634418488, -0.25140729546546936, 0.25706398487091064, 0.32421255111694336, -0.1065065860748291, 0.5402993559837341, -0.7150849103927612, 0.06539062410593033, -0.04880569502711296, 0.1455499529838562, -0.14777441322803497, 0.0619165264070034, 0.03844568505883217, 0.06840310990810394, 0.0005815213080495596, 0.049278855323791504, 0.06474246829748154, -0.028222251683473587], [-0.1360318660736084, 0.15571217238903046, -0.07252486795186996, 0.09060151129961014, -0.01788206212222576, -0.10452423244714737, 0.010692301206290722, -0.09090446680784225, 0.10105235129594803, 0.06685864925384521, -0.0625627264380455, 0.0444922149181366, 0.1509404480457306, -0.07629359513521194, -0.006024249829351902, -0.14860951900482178, 0.1571875512599945, 0.056354232132434845, 0.07331953197717667, -0.12778913974761963, -0.09645650535821915, 0.058154717087745667, 0.10072742402553558, 0.028235144913196564, -0.13578280806541443, -0.10190356522798538, 0.05655103921890259, -0.01488280575722456, 0.1274612545967102, 0.020368283614516258, -0.10748209059238434, 0.12714840471744537, 0.037880100309848785, 0.10848025232553482, 0.004496288485825062, -0.002600462641566992, -0.06331831961870193, 0.022763770073652267, 0.09847738593816757, 0.0036306879483163357, 0.060993876308202744, 0.0032257181592285633, 0.13185487687587738, -0.007361697964370251], [0.1064787283539772, -0.3892974257469177, 0.6919410824775696, 0.08986691385507584, -0.24418167769908905, -0.03815191611647606, 0.5189921855926514, -0.0745960995554924, -0.10511579364538193, -0.04927925020456314, 0.16620805859565735, -0.11269327253103256, -0.1968345195055008, -0.28253498673439026, 0.11673907935619354, -0.06749361008405685, -0.15218551456928253, -0.3315228819847107, -0.013978522270917892, 0.5412235856056213, 0.0484420508146286, -0.30061325430870056, -0.04170230031013489, 0.1305798888206482, -0.0363132543861866, -0.18572455644607544, 0.1372373402118683, 0.23178590834140778, -0.0357339046895504, -0.2722141146659851, -0.10942801833152771, -0.2940624952316284, 0.2602008581161499, -0.10816032439470291, 0.10349740833044052, 0.14029461145401, 0.06756584346294403, -0.13515762984752655, 0.049834996461868286, -0.03748531639575958, -0.00961404200643301, 0.04149423912167549, -0.052483439445495605, 0.09563819319009781], [-0.095299132168293, 0.31999671459198, -0.6500749588012695, -0.05803459510207176, 0.17083123326301575, 0.07306771725416183, -0.49422088265419006, 0.09460578113794327, 0.2941160500049591, 0.27314114570617676, -0.12377074360847473, 0.1375645101070404, 0.23717650771141052, 0.24614807963371277, -0.09285812079906464, -0.21050624549388885, 0.21937376260757446, 0.389773964881897, -0.24520063400268555, -0.6076311469078064, 0.004004956688731909, 0.3553355932235718, 0.0982593223452568, -0.3588956296443939, 0.08994897454977036, 0.3933749794960022, 0.058439187705516815, 0.04151986539363861, 0.024882476776838303, 0.19179502129554749, 0.06290090829133987, 0.22166909277439117, -0.3800011873245239, 0.09428256005048752, 0.09053955227136612, -0.0726839005947113, 0.011321742087602615, 0.14779488742351532, 0.023682396858930588, -0.008765095844864845, -0.14550498127937317, -0.03922303393483162, -0.039659470319747925, 0.05658597871661186], [-0.07164475321769714, -0.30719897150993347, 0.7603510618209839, -0.05327734351158142, -0.24707640707492828, -0.3477213978767395, 0.438915491104126, 0.11441226303577423, -0.2922777235507965, -0.1896153837442398, 0.26476162672042847, -0.12948618829250336, -0.40189579129219055, -0.24593929946422577, 0.22068671882152557, 0.21719200909137726, -0.2893725633621216, -0.23270107805728912, 0.1414494514465332, 0.6732467412948608, 0.0890369638800621, -0.3404656946659088, -0.041888847947120667, 0.2782127261161804, -0.07268469035625458, -0.2527835965156555, -0.08540298044681549, 0.17373916506767273, -0.19383403658866882, -0.1627468764781952, -0.07907090336084366, -0.4051450192928314, 0.30890217423439026, -0.08283726125955582, 0.019177939742803574, -0.039525799453258514, -0.04057032987475395, 0.004779457580298185, -0.1382545530796051, -0.09209311753511429, 0.10507438331842422, 0.07594845443964005, 0.02563384734094143, -0.1955316811800003], [-0.04843874275684357, -0.11634115874767303, -0.06114853173494339, -0.14670774340629578, -0.09414634108543396, 0.07280469685792923, -0.11025054007768631, 0.0902712419629097, -0.04488759860396385, 0.1475222408771515, 0.008858033455908298, 0.014028708450496197, -0.089658223092556, 0.15514592826366425, 0.10581004619598389, 0.0503779835999012, -0.03427465260028839, 0.15334871411323547, -0.1067647635936737, -0.030806908383965492, 0.0009274519397877157, 0.03074602410197258, 0.09535381197929382, -0.0691511482000351, -0.0016154590994119644, -0.05685121566057205, 0.036083441227674484, 0.09450089931488037, 0.14937569200992584, -0.07107915729284286, 0.0674997866153717, 0.08107369393110275, -0.14979280531406403, 0.01493050716817379, -0.08720888942480087, 0.09549573808908463, -0.06049834191799164, 0.036460958421230316, -0.12615516781806946, 0.10095281898975372, -0.0753658190369606, -0.039101045578718185, 0.11914397776126862, -0.14334054291248322], [-0.18256749212741852, 0.26627135276794434, -0.484890341758728, -0.15274009108543396, -0.048345278948545456, -0.025240138173103333, -0.3094070553779602, 0.1293174773454666, 0.20901404321193695, 0.11093614995479584, -0.19228550791740417, 0.017962263897061348, 0.15551577508449554, 0.11482440680265427, -0.05183490738272667, 0.0041138953529298306, 0.3202991187572479, 0.21482430398464203, -0.20087489485740662, -0.22125767171382904, -0.049540355801582336, 0.23439574241638184, 0.034273818135261536, -0.3099310100078583, 0.06845204532146454, 0.18765784800052643, 0.13169139623641968, -0.05074390396475792, -0.05243510752916336, 0.22921863198280334, -0.0460410974919796, 0.16516821086406708, -0.2425011843442917, 0.08409124612808228, -0.13459345698356628, -0.02874097228050232, 0.03137708455324173, -0.04491627588868141, -0.11657347530126572, -0.004255285020917654, -0.13044001162052155, 0.06817900389432907, -0.010719736106693745, -0.05472777411341667], [-0.0649343729019165, 0.25024619698524475, -0.7823309302330017, -0.0698181539773941, 0.1857849657535553, 0.35348767042160034, -0.5881783366203308, 0.10301285982131958, 0.31458476185798645, 0.2364559769630432, -0.29671433568000793, 0.2098540961742401, 0.49117276072502136, 0.0703672394156456, -0.07903439551591873, -0.09562914073467255, 0.23685796558856964, 0.4385893940925598, -0.26964280009269714, -0.6845788359642029, -0.22146542370319366, 0.4595818817615509, 0.056741468608379364, -0.5149435997009277, 0.05998118966817856, 0.5027883648872375, 0.10748405009508133, -0.002803998999297619, 0.28921958804130554, 0.2679082453250885, -0.0036221942864358425, 0.2179403156042099, -0.31916889548301697, 0.11740373820066452, 0.10499191284179688, -0.06585260480642319, -0.15575534105300903, -0.02994961105287075, -0.05959250032901764, -0.12018383294343948, -0.015161248855292797, 0.053586095571517944, -0.06224481016397476, 0.08272124081850052], [-0.02500046044588089, 0.42110905051231384, -0.6955553889274597, 0.022644318640232086, 0.34014660120010376, 0.1472131758928299, -0.30014434456825256, 0.018665647134184837, 0.131526380777359, 0.32983139157295227, -0.3963818848133087, -0.006872577592730522, 0.38546890020370483, 0.30161771178245544, -0.16132260859012604, 0.00039440058753825724, 0.44759923219680786, 0.3110642731189728, -0.19483324885368347, -0.7319806218147278, -0.1895664781332016, 0.1807612180709839, 0.12810388207435608, -0.33732104301452637, -0.09413637965917587, 0.229558527469635, 0.03269656002521515, -0.18884117901325226, 0.24331322312355042, 0.24381592869758606, 0.07176520675420761, 0.187583789229393, -0.312529057264328, -0.01685899868607521, 0.10187547653913498, -0.010313568636775017, -0.011722899973392487, 0.07066332548856735, -0.06105213239789009, -0.07131614536046982, 0.09849006682634354, -0.005533461458981037, -0.007398709189146757, 0.07373686134815216], [-0.03328398987650871, -0.30090177059173584, 0.24109666049480438, 0.07562460005283356, 0.059893909841775894, -0.020752688869833946, 0.2586592733860016, 0.005351209081709385, 0.007566465530544519, -0.2347913235425949, 0.08927761018276215, -0.08693964034318924, -0.12273285537958145, -0.14190830290317535, 0.1919165700674057, -0.007519916631281376, -0.035582948476076126, -0.10405561327934265, 0.054025910794734955, 0.3513886630535126, 0.11236566305160522, -0.17206910252571106, 0.09374386817216873, 0.33200061321258545, -0.06993557512760162, -0.21284545958042145, 0.033240869641304016, 0.1259683221578598, 0.06848669797182083, -0.141129732131958, -0.11465906351804733, -0.14177046716213226, 0.344594269990921, -0.03220744803547859, 0.02186392992734909, -0.0792413055896759, 0.1506219357252121, 0.1376272439956665, -0.020419910550117493, 0.012394596822559834, -0.09170186519622803, -0.03609289973974228, -0.04458959400653839, 0.14445820450782776], [-0.07421848922967911, 0.4624229967594147, -1.0754919052124023, -0.15011189877986908, 0.3887403905391693, 0.36934390664100647, -0.5220283269882202, 0.08436333388090134, 0.45289120078086853, 0.38002943992614746, -0.49724069237709045, 0.24974876642227173, 0.6047758460044861, 0.4347589313983917, -0.20040392875671387, 0.035403698682785034, 0.45826295018196106, 0.5318911671638489, -0.2585024833679199, -0.9808414578437805, -0.06524626165628433, 0.5051560997962952, 0.08450546860694885, -0.47087177634239197, 0.05139724165201187, 0.5048498511314392, -0.12700876593589783, -0.25274306535720825, 0.0917104035615921, 0.2423550933599472, 0.00908160675317049, 0.3145100474357605, -0.34672245383262634, 0.09137623012065887, 0.024385172873735428, -0.07120858132839203, 0.069765105843544, -0.03425303474068642, 0.02169724367558956, 0.08716652542352676, -0.08357825875282288, 0.03258831426501274, 0.008409244939684868, 0.03038821741938591], [-0.006278935354202986, -0.2323736697435379, 0.6750102043151855, 0.15708188712596893, -0.30765053629875183, -0.09663207828998566, 0.5308141708374023, 0.10292075574398041, -0.4326297640800476, -0.29945215582847595, 0.4177878201007843, -0.1370183527469635, -0.3238053023815155, -0.1392202526330948, 0.0380883514881134, -0.04493257403373718, -0.46345198154449463, -0.23113900423049927, 0.11144430190324783, 0.5932254195213318, 0.1268029659986496, -0.4002917408943176, 0.016456114128232002, 0.4002539813518524, 0.10294577479362488, -0.4179323613643646, 0.14407286047935486, 0.18041062355041504, -0.24127298593521118, -0.26216986775398254, 0.07938247919082642, -0.19567854702472687, 0.3019927442073822, -0.12100920081138611, -0.1428913176059723, -0.13240264356136322, -0.13068971037864685, 0.07381435483694077, 0.030001111328601837, 0.017038889229297638, 0.08758272975683212, -0.006799601949751377, 0.12280353903770447, 0.05220627784729004], [0.04647421836853027, 1.0852233171463013, -1.886356234550476, -0.26579126715660095, 0.5040730834007263, 0.5470095276832581, -1.2646335363388062, 0.12134435027837753, 0.9756251573562622, 0.6398178339004517, -0.6765890717506409, 0.39696457982063293, 1.1062164306640625, 0.5912516713142395, -0.21226866543293, -0.1488940566778183, 1.068145751953125, 0.8983948826789856, -0.3439461588859558, -1.519758939743042, -0.3735343813896179, 0.8955658078193665, 0.12171593308448792, -0.9125941395759583, -0.018035631626844406, 1.1699531078338623, -0.1180710420012474, -0.35887160897254944, 0.2255040556192398, 0.5736635327339172, -0.15177257359027863, 0.8006543517112732, -0.9000828862190247, 0.16327570378780365, 0.06923626363277435, 0.04629102349281311, -0.01234777458012104, -0.008683715015649796, -0.03952392563223839, 0.043719589710235596, -0.03347766026854515, 0.04518425092101097, 0.023772189393639565, 0.13870199024677277], [-0.04402686282992363, -0.4710194170475006, 0.810287356376648, -0.06710302829742432, -0.33341142535209656, -0.22653158009052277, 0.48292139172554016, -0.01533642690628767, -0.34333041310310364, -0.18600070476531982, 0.3651898205280304, -0.2952212393283844, -0.3139049708843231, -0.1575791835784912, 0.16600029170513153, -0.0277104489505291, -0.35011065006256104, -0.26438242197036743, 0.20921815931797028, 0.6810208559036255, 0.207462877035141, -0.23306410014629364, -0.163680762052536, 0.3852689266204834, 0.08157316595315933, -0.549313485622406, 0.0016296971589326859, 0.14470963180065155, -0.08054149895906448, -0.2784680426120758, -0.0879802331328392, -0.1509637087583542, 0.5432890057563782, 0.047351300716400146, 0.07570347934961319, -0.10625710338354111, -0.1273641288280487, 0.0465020090341568, 0.06729215383529663, 0.08857087045907974, -0.019071538001298904, -0.10718674957752228, -0.08267338573932648, -0.021311234682798386], [-0.03025110252201557, -0.11807506531476974, 0.2356989085674286, -0.10718338936567307, -0.12995605170726776, 0.05863172188401222, 0.1136026680469513, -0.11692602187395096, -0.09596775472164154, -0.13714778423309326, -0.0491202287375927, -0.1739615797996521, -0.19211864471435547, -0.11416102200746536, 0.06164772808551788, -0.02666766569018364, 0.0433952696621418, -0.009548056870698929, 0.04219236224889755, 0.1261354684829712, 0.08451354503631592, -0.010643127374351025, -0.010972998104989529, 0.019729580730199814, 0.04011167213320732, -0.15303656458854675, 0.04377294331789017, 0.16089096665382385, 0.005423413589596748, 0.12339872866868973, 0.053267691284418106, -0.10260897874832153, 0.241611048579216, 0.09723814576864243, 0.012639778666198254, -0.10586681962013245, -0.07809954881668091, -0.09827815741300583, 0.07205154746770859, 0.14205147325992584, 0.0288552138954401, -0.023715363815426826, 0.0971631407737732, -0.07813797146081924], [-0.044654730707407, -0.04049626365303993, -0.054156024008989334, 0.11556124687194824, 0.04849499836564064, -0.08623826503753662, -0.10493253171443939, 0.024637943133711815, 0.05282116308808327, 0.009066355414688587, -0.15155553817749023, 0.0978250652551651, -0.0382683202624321, 0.09321418404579163, -0.07181128859519958, 0.030267544090747833, -0.03958607092499733, 0.06420247256755829, 0.1338840126991272, -0.1944919228553772, -0.06528285890817642, -0.0459413044154644, 0.09799572825431824, -0.010526563972234726, -0.0630972683429718, -0.10443107783794403, -0.10622895509004593, -0.1161762923002243, -0.08043777197599411, 0.12974059581756592, 0.05896417796611786, -0.04322534054517746, 0.07363497465848923, 0.04090734198689461, 0.09341822564601898, -0.08356107771396637, -0.060253579169511795, -0.10409628599882126, 0.021836992353200912, 0.10164382308721542, -0.13415582478046417, 0.07695028185844421, -0.12979000806808472, 0.09643158316612244], [0.1074787825345993, -0.5249243974685669, 0.8702472448348999, 0.0943823829293251, -0.24706996977329254, -0.2592952251434326, 0.5456618070602417, 0.09014271944761276, -0.36328721046447754, -0.2371932417154312, 0.3633190095424652, -0.011374357156455517, -0.5313562154769897, -0.16747543215751648, -0.06670373678207397, 0.08323992788791656, -0.44297441840171814, -0.4900839924812317, 0.13423500955104828, 0.8213761448860168, 0.06126440316438675, -0.3429604470729828, -0.020402707159519196, 0.44294819235801697, 0.12947873771190643, -0.5097020268440247, 0.0679951161146164, 0.08673693239688873, -0.1651787906885147, -0.149563267827034, -0.1340589076280594, -0.18317338824272156, 0.44019439816474915, -0.12272728234529495, -0.00875915214419365, 0.002318201819434762, 0.15511450171470642, 0.13895179331302643, -0.004146200139075518, -0.11548544466495514, -0.11779787391424179, 0.009933285415172577, 0.09147582948207855, -0.15743722021579742], [-0.1254197508096695, 0.12247653305530548, -0.42367023229599, 0.0627443715929985, 0.11573462188243866, -0.04294230416417122, -0.38698941469192505, -0.13604727387428284, 0.009954285807907581, 0.10780511051416397, -0.20362156629562378, 0.17987371981143951, 0.05277198553085327, 0.18417273461818695, 0.053652357310056686, -0.14632919430732727, 0.14708282053470612, 0.20221097767353058, -0.09037109464406967, -0.2060903012752533, -0.16800794005393982, 0.18095239996910095, 0.04467648267745972, -0.26762402057647705, 0.11465846002101898, 0.2556777000427246, 0.079243503510952, -0.16428719460964203, 0.03580605238676071, -0.040378082543611526, 0.026755474507808685, 0.2341616004705429, -0.21141840517520905, -0.0734478160738945, -0.014344854280352592, 0.042262349277734756, 0.029775045812129974, -0.09279180318117142, -0.14651808142662048, -0.05728785693645477, -0.07344178855419159, -0.03269204869866371, 0.06132998317480087, -0.0018662053626030684], [-0.08014889806509018, 0.19787505269050598, -0.3690127730369568, -0.06070387363433838, 0.10634579509496689, 0.21341951191425323, -0.3152627646923065, 0.09111769497394562, 0.06449480354785919, 0.145558699965477, -0.29124826192855835, 0.08726860582828522, 0.019206665456295013, 0.10537856817245483, -0.19232290983200073, -0.05370095372200012, 0.29116547107696533, 0.028864016756415367, -0.18186092376708984, -0.18349553644657135, -0.0529390424489975, 0.13268013298511505, -0.07631001621484756, -0.27023017406463623, -0.013357171788811684, 0.15539588034152985, -0.03589820861816406, 0.03545927628874779, 0.11572901159524918, 0.1387670636177063, 0.001404511509463191, 0.15433110296726227, -0.15259025990962982, 0.10835917294025421, -0.09367236495018005, -0.022816305980086327, -0.0016798865981400013, 0.11681010574102402, 0.038632430136203766, -0.03966261446475983, 0.026683878153562546, -0.0015647780383005738, -0.07885655760765076, 0.04325273633003235], [0.105243980884552, 0.6422775387763977, -1.4351325035095215, -0.21955934166908264, 0.4619714319705963, 0.5492576956748962, -1.0578138828277588, 0.04647744074463844, 0.786780595779419, 0.5475563406944275, -0.3926793038845062, 0.40106531977653503, 0.797295093536377, 0.5223668217658997, -0.2523413896560669, -0.2271728664636612, 0.750145435333252, 0.663905918598175, -0.11447819322347641, -1.261322259902954, -0.360792338848114, 0.6023651957511902, -0.01592370681464672, -0.5818840265274048, -0.14040809869766235, 0.8408982753753662, 0.06547688692808151, -0.16026204824447632, 0.4224790334701538, 0.426308810710907, -0.12722566723823547, 0.49213913083076477, -0.8123552203178406, 0.27616655826568604, -0.12844954431056976, -0.026158366352319717, 0.0028451078105717897, -0.0036914334632456303, 0.1113753691315651, -0.002449010731652379, -0.07910072803497314, 0.020787985995411873, 0.04692253842949867, 0.05330687761306763], [0.01683790795505047, 1.0982658863067627, -1.8392254114151, -0.08172675222158432, 0.6144176125526428, 0.4553147554397583, -1.302067518234253, 0.1398039162158966, 0.9159494042396545, 0.5300365090370178, -0.7833362817764282, 0.200012668967247, 0.9012682437896729, 0.5396475791931152, -0.12443145364522934, -0.1857229322195053, 1.0313152074813843, 0.8942936062812805, -0.2276899814605713, -1.6500145196914673, -0.17342884838581085, 1.0167646408081055, 0.22882330417633057, -0.8253283500671387, -0.17129628360271454, 0.9215856790542603, 0.07671074569225311, -0.21675151586532593, 0.46459195017814636, 0.6592584252357483, 0.023470036685466766, 0.7939133644104004, -0.7271843552589417, 0.12821675837039948, 0.0225556418299675, -0.009052767418324947, -0.0523345023393631, -0.05551842972636223, 0.05366027355194092, 0.056733254343271255, -0.013428082689642906, -0.039196234196424484, -0.018960190936923027, -0.03609767556190491], [0.10657232254743576, 0.4925759732723236, -0.6587445735931396, -0.1925283819437027, 0.2502891719341278, 0.1633954495191574, -0.5021163821220398, -0.10195997357368469, 0.31807684898376465, 0.1646832674741745, -0.31467577815055847, 0.14243362843990326, 0.32056087255477905, 0.118878073990345, -0.2175702303647995, -0.13521188497543335, 0.4550681710243225, 0.45520126819610596, -0.2223794013261795, -0.6510803699493408, -0.24248899519443512, 0.4616788625717163, 0.01565402001142502, -0.3603864312171936, 0.0001748096983646974, 0.4623374044895172, -0.03383726254105568, -0.20993635058403015, 0.07068406790494919, 0.12783820927143097, -0.13980399072170258, 0.3128691613674164, -0.47063127160072327, 0.2325771003961563, 0.14708134531974792, -0.13046322762966156, -0.06870609521865845, -0.06573059409856796, -0.08200720697641373, 0.023136913776397705, -0.01983329840004444, 0.03534260019659996, 0.1135011538863182, -0.043607715517282486], [-0.062234073877334595, -0.19409434497356415, 0.6886232495307922, 0.1111997440457344, -0.2180253267288208, -0.01931137777864933, 0.5176204442977905, 0.07200061529874802, -0.19506892561912537, -0.12431488186120987, 0.26217296719551086, -0.15129593014717102, -0.3344663381576538, -0.04644818976521492, -0.015332085080444813, -0.026578227058053017, -0.14852838218212128, -0.3520188331604004, 0.21224012970924377, 0.37551212310791016, 0.1313663125038147, -0.12393300235271454, -0.10770969837903976, 0.3676542639732361, -0.10800886154174805, -0.3801664710044861, -0.002131104003638029, 0.2501876950263977, -0.047843024134635925, -0.110796719789505, 0.03474259749054909, -0.16770559549331665, 0.3699963092803955, -0.1433337926864624, -0.06453630328178406, 0.07486821711063385, 0.07618292421102524, 0.014833801425993443, -0.08950227499008179, -0.04294212907552719, -0.09702664613723755, -0.05598944425582886, -0.08282932639122009, -0.002561436500400305], [0.01916850544512272, -0.28747400641441345, 0.37262290716171265, 0.043445467948913574, 0.03680143132805824, 0.05064072459936142, 0.38509541749954224, -0.031737521290779114, -0.0007276971009559929, -0.2117951661348343, 0.25567248463630676, -0.04928415268659592, -0.13189446926116943, -0.14274188876152039, -0.03414691239595413, 0.08334725350141525, -0.04035800322890282, -0.21112650632858276, 0.06890809535980225, 0.20272722840309143, 0.03483692929148674, -0.07240621745586395, -0.049495045095682144, 0.1095319613814354, 0.1449415683746338, -0.07674818485975266, 0.08257585763931274, 0.07756170630455017, -0.19203592836856842, -0.10850869119167328, -0.06272992491722107, -0.11357748508453369, 0.269723117351532, -0.11906682699918747, 0.12262499332427979, -0.03400757908821106, -0.08180840313434601, 0.12531375885009766, 0.024170590564608574, -0.04756832495331764, 0.1218804195523262, 0.15237212181091309, -0.07680036872625351, 0.11316987127065659], [0.10421313345432281, 0.3057784140110016, -0.3656325042247772, -0.13476644456386566, 0.047238994389772415, 0.0628843605518341, -0.34447649121284485, -0.12237094342708588, 0.08887521177530289, 0.24714073538780212, -0.022770019248127937, 0.05417325347661972, 0.2076331526041031, 0.041652850806713104, -0.1630527824163437, -0.16277261078357697, 0.0852426141500473, 0.04771073907613754, -0.0863150879740715, -0.45013752579689026, -0.007145069073885679, 0.29197269678115845, -0.08809065818786621, -0.2667290270328522, 0.08569654077291489, 0.09774554520845413, -0.02312391623854637, -0.20325319468975067, -0.06545747816562653, 0.1615954339504242, 0.05232000723481178, 0.018899088725447655, -0.07276807725429535, -0.008878429420292377, -0.10665587335824966, -0.034285131841897964, 0.12064281105995178, -0.11590536683797836, -0.04468502476811409, -0.10281720012426376, -0.08113636821508408, -0.006774340756237507, 0.05400148406624794, 0.15194347500801086], [0.09139854460954666, 0.32604971528053284, -0.9524573087692261, -0.19006863236427307, 0.3687390685081482, 0.35075855255126953, -0.5595856308937073, 0.11063753813505173, 0.4032585024833679, 0.1594667285680771, -0.31735101342201233, 0.15872110426425934, 0.47621437907218933, 0.2078053504228592, -0.12352646887302399, -0.0831373855471611, 0.32474079728126526, 0.42674368619918823, -0.010861340910196304, -0.6094487905502319, -0.06532948464155197, 0.33082759380340576, -0.008580034598708153, -0.3966995179653168, -0.15985539555549622, 0.5760085582733154, 0.0636489987373352, -0.16040971875190735, 0.06750774383544922, 0.34604984521865845, -0.1410488337278366, 0.1446026712656021, -0.4557810425758362, 0.06153891980648041, 0.13747751712799072, -0.12940102815628052, 0.09679511934518814, 0.15432128310203552, 0.10995610803365707, 0.06618312001228333, -0.04318085312843323, -0.08360999822616577, -0.009154699742794037, -0.04578380659222603], [-0.08774901181459427, 0.014610220678150654, 0.27431848645210266, -0.053753048181533813, 0.08737313002347946, -0.17774361371994019, 0.293625146150589, -0.033436521887779236, 0.0002433582121739164, 0.04073675349354744, 0.1758330911397934, 0.011036446318030357, -0.04438382759690285, 0.015595965087413788, 0.07408101111650467, 0.1742904633283615, -0.1431213617324829, -0.025236977264285088, 0.07366262376308441, 0.19830170273780823, -0.09093267470598221, -0.022745473310351372, 0.1399584859609604, 0.11966019123792648, 0.11315441876649857, -0.03304218128323555, -0.0827414020895958, 0.008048979565501213, 0.08520296961069107, 0.10625945031642914, 0.006215226836502552, -0.08800071477890015, 0.04816232621669769, 0.019715972244739532, 0.0005277795135043561, 0.04593080282211304, 0.08562477678060532, -0.13798853754997253, -0.09756927192211151, -0.04417600482702255, 0.11010733246803284, -0.01547271478921175, -0.1078394204378128, -0.13103950023651123], [-0.018863620236516, 0.09839631617069244, -0.3262059986591339, 0.10261502116918564, -0.08066700398921967, 0.14201496541500092, -0.2834845185279846, 0.08552462607622147, 0.1561153531074524, 0.050846949219703674, -0.2558358311653137, 0.18902923166751862, 0.003377149347215891, 0.082687146961689, -0.041683346033096313, -0.11263075470924377, 0.22288580238819122, 0.21603341400623322, -0.08922315388917923, -0.13665132224559784, 0.0645611584186554, -0.040932510048151016, -0.04041323438286781, -0.0732208639383316, 0.022714316844940186, 0.11649025231599808, 0.08033491671085358, -0.04805901274085045, -0.04176222160458565, -0.060825034976005554, -0.07905713468790054, -0.05558380112051964, -0.10686590522527695, -0.042149923741817474, -0.11252856999635696, 0.12818758189678192, 0.061142876744270325, 0.07841183990240097, -0.1014287918806076, 0.054559335112571716, -0.03041796199977398, 0.023789960891008377, 0.059113193303346634, 0.026339862495660782], [-0.14909449219703674, 0.3431684374809265, -0.931418240070343, -0.09205189347267151, 0.11772461235523224, 0.27314499020576477, -0.43086329102516174, -0.08853046596050262, 0.4485631287097931, 0.35061466693878174, -0.3686457574367523, 0.22578798234462738, 0.5496003031730652, 0.3111478090286255, -0.16534191370010376, -0.2679947316646576, 0.4935437738895416, 0.32751408219337463, -0.09812673926353455, -0.9127128720283508, -0.09841571003198624, 0.5774224400520325, 0.04714147746562958, -0.302461713552475, -0.01880529522895813, 0.6112396717071533, 0.06801865994930267, -0.14501699805259705, 0.1878686100244522, 0.3994726240634918, 0.10921160876750946, 0.4067171514034271, -0.4933980703353882, -0.044750601053237915, -0.06637200713157654, -0.039671048521995544, -0.1000082716345787, 0.007444963790476322, -0.12929829955101013, -0.13453629612922668, 0.11577338725328445, 0.06912824511528015, -0.10546362400054932, -0.07585687190294266], [-0.0345972441136837, -0.41128450632095337, 0.8744627833366394, 0.07975805550813675, -0.4111471176147461, -0.38768187165260315, 0.7978460192680359, -0.0653301477432251, -0.5960484147071838, -0.178732767701149, 0.5015414357185364, -0.2764093279838562, -0.7114843726158142, -0.43282827734947205, 0.14548423886299133, 0.18354295194149017, -0.4381978511810303, -0.3776332139968872, 0.0998232439160347, 0.8262439966201782, 0.07306498289108276, -0.5128234028816223, -0.0015675321919843554, 0.5910656452178955, -0.012808434665203094, -0.7484309077262878, 0.11310946941375732, 0.2337755262851715, -0.08536013960838318, -0.4044572114944458, 0.0441451221704483, -0.47170159220695496, 0.5692852139472961, -0.0042721922509372234, -0.13295601308345795, 0.10370777547359467, 0.13995234668254852, -0.0494878813624382, 0.08434132486581802, 0.1041213870048523, 0.10436035692691803, 0.03421435505151749, -0.08512721210718155, -0.07840554416179657], [0.09146716445684433, 0.028584768995642662, -0.02684192731976509, -0.15353214740753174, -0.06087570637464523, -0.07925976067781448, -0.20291447639465332, 0.08089365810155869, 0.06868074834346771, -0.014684089459478855, -0.12637019157409668, 0.055684056133031845, 0.1538575142621994, -0.08288991451263428, -0.18817055225372314, -0.18144558370113373, -0.07301472127437592, 0.16986870765686035, -0.028827080503106117, -0.26112306118011475, -0.07341939210891724, 0.17069311439990997, -0.1259048879146576, -0.0030131919775158167, 0.08770971745252609, 0.1554841250181198, 0.02416118234395981, -0.05110123008489609, -0.06215547025203705, 0.11923132091760635, 0.11976798623800278, 0.1066693589091301, 0.03610829636454582, 0.060549430549144745, 0.0402800627052784, -0.1411324143409729, -0.031079141423106194, 0.08436395227909088, -0.09325303137302399, -0.06931734830141068, 0.0663544312119484, -0.07436653226613998, -0.1287522166967392, -0.10657674074172974], [-0.047771960496902466, -0.06589334458112717, -0.2698496878147125, 0.10013047605752945, -0.019325925037264824, -0.09046979248523712, -0.13726912438869476, -0.14246994256973267, 0.09273504465818405, -0.06130148097872734, -0.08159943670034409, 0.04504016786813736, 0.0034719412215054035, 0.08573301881551743, -0.17152675986289978, 0.07326900959014893, 0.21402360498905182, 0.062138743698596954, -0.10943610221147537, -0.32175371050834656, 0.04731547832489014, -0.04109882190823555, -0.09136032313108444, -0.029149750247597694, 0.1169259175658226, 0.11341573297977448, 0.11843163520097733, -0.08649587631225586, -0.02700226753950119, 0.03890672326087952, 0.07406164705753326, -0.016086459159851074, -0.046861790120601654, -0.1238168329000473, -0.01945834420621395, -0.021565260365605354, 0.05649641528725624, -0.09899597615003586, -0.04431935027241707, -0.017890293151140213, 0.11083269864320755, -0.1272645890712738, 0.04768750071525574, 0.03464951738715172], [0.05320381000638008, 0.317475289106369, -0.7508304119110107, -0.22169405221939087, 0.19493746757507324, 0.2503615915775299, -0.6915618777275085, 0.05266942083835602, 0.23717786371707916, 0.36384883522987366, -0.3363286554813385, 0.2530384659767151, 0.5422203540802002, 0.1282564252614975, -0.18896959722042084, -0.18055692315101624, 0.40570878982543945, 0.4900710880756378, -0.056241147220134735, -0.780212938785553, -0.24178999662399292, 0.5164902806282043, 0.0546317882835865, -0.4918613135814667, -0.07672261446714401, 0.46380066871643066, -0.037324849516153336, -0.11161167174577713, 0.019746290519833565, 0.18082024157047272, -0.11009617149829865, 0.3837061822414398, -0.4780066907405853, -0.002796533517539501, 0.08724736422300339, -0.06307214498519897, -0.041754040867090225, 0.009527087211608887, 0.11024206131696701, 0.08591073751449585, 0.08206941187381744, -0.10164610296487808, 0.015063052996993065, -0.014622059650719166], [-0.032457005232572556, -0.30431246757507324, 0.39987656474113464, 0.03171626850962639, -0.07164571434259415, 0.03878646343946457, 0.33842170238494873, 0.038471855223178864, -0.20202355086803436, -0.1581210494041443, 0.06995906680822372, -0.1281389743089676, -0.08598034828901291, -0.10372618585824966, 0.08520239591598511, 0.1974838525056839, -0.04923580214381218, -0.26369792222976685, -0.03975754976272583, 0.322908490896225, 0.12671829760074615, -0.1276693344116211, 0.06666199117898941, 0.19273337721824646, 0.04057184234261513, -0.25156497955322266, 0.0912688747048378, 0.1475757211446762, -0.04516269266605377, -0.15273551642894745, 0.029622569680213928, -0.050805434584617615, 0.19183118641376495, -0.11423992365598679, -0.009307563304901123, -0.14929991960525513, -0.12974652647972107, 0.00022868908126838505, -0.06193600967526436, -0.10414942353963852, 0.08642751723527908, 0.08195606619119644, 0.17141160368919373, 0.09449120610952377], [-0.14723841845989227, -0.1250343769788742, -0.17139947414398193, -0.09864743053913116, 0.030334504321217537, -0.0450110025703907, -0.0627606138586998, 0.15108422935009003, -0.043657686561346054, -0.0985834151506424, 0.015025568194687366, -0.12025576829910278, -0.08584863692522049, 0.06453857570886612, 0.08474264293909073, 0.08433566242456436, 0.10692323744297028, 0.03481537476181984, 0.0050546834245324135, 0.04222865030169487, 0.02487303875386715, -0.10022184252738953, -0.0902922973036766, 0.10442320257425308, -0.09140752255916595, 0.12563154101371765, 0.07383949309587479, 0.03388439863920212, 0.15423350036144257, -0.021101225167512894, -0.14348240196704865, 0.09337794780731201, 0.07290133833885193, 0.04904186353087425, 0.13680946826934814, -0.0862235352396965, -0.06007932499051094, 0.11741875112056732, 0.11707776039838791, 0.01529114693403244, -0.13329996168613434, -0.1436215490102768, 0.051405277103185654, -0.056508492678403854], [0.04532843455672264, -0.34550657868385315, 0.5545139312744141, 0.1448034644126892, -0.16610993444919586, -0.18169467151165009, 0.45971089601516724, 0.06619598716497421, -0.16119787096977234, -0.16623900830745697, 0.31480032205581665, -0.14219264686107635, -0.24276834726333618, -0.20109215378761292, 0.13125863671302795, -0.06146855652332306, -0.3628576993942261, -0.16689714789390564, -0.017623262479901314, 0.43168529868125916, 0.17523139715194702, -0.25096452236175537, 0.028136251494288445, 0.2605767846107483, -0.051378119736909866, -0.27767375111579895, 0.16097556054592133, 0.07372424006462097, -0.21460115909576416, -0.1482391059398651, 0.1293592005968094, -0.3006841838359833, 0.3467754125595093, -0.17996375262737274, 0.08606397360563278, -0.08842790871858597, -0.05876848101615906, 0.08881301432847977, 0.11329339444637299, -0.020866740494966507, -0.16393698751926422, 0.016841555014252663, -0.01437405962496996, -0.017256177961826324], [-0.020206233486533165, -0.355406254529953, 0.6709659695625305, 0.0029701171442866325, -0.23142150044441223, -0.09927932918071747, 0.34452158212661743, 0.00789804570376873, -0.31187132000923157, -0.14984852075576782, 0.43841248750686646, -0.11364570260047913, -0.5006770491600037, -0.14013426005840302, 0.07167359441518784, 0.1937456727027893, -0.31188762187957764, -0.43736696243286133, 0.11396946012973785, 0.5882854461669922, 0.13015945255756378, -0.36703425645828247, 0.02711089700460434, 0.46998074650764465, -0.05699950084090233, -0.3374488353729248, 0.11441873013973236, 0.24000199139118195, 0.013733423314988613, -0.18350955843925476, -0.098762147128582, -0.08446028083562851, 0.4218481481075287, 0.023517267778515816, -0.15342606604099274, -0.14658115804195404, 0.11302026361227036, -0.006544461473822594, -0.07389289140701294, -0.014650178141891956, 0.07548142969608307, -0.0121202627196908, 0.003791124327108264, -0.1241159662604332], [0.07607758790254593, 0.2642044723033905, -0.6712973713874817, -0.18814249336719513, 0.25081923604011536, 0.20899994671344757, -0.4760659635066986, -0.06545054912567139, 0.259726345539093, 0.0666508823633194, -0.24266622960567474, 0.028702087700366974, 0.34137430787086487, 0.1141621395945549, -0.1514900177717209, -0.138914555311203, 0.14726340770721436, 0.35507088899612427, -0.17562533915042877, -0.5478747487068176, -0.14122115075588226, 0.41968098282814026, -0.013762224465608597, -0.3783120810985565, -0.07678160816431046, 0.30603858828544617, 0.0913439691066742, -0.0823405534029007, 0.20971998572349548, 0.24937109649181366, -0.10827575623989105, 0.3108634054660797, -0.19917771220207214, 0.138315349817276, -0.040376294404268265, -0.11641200631856918, 0.1336880326271057, 0.11393316090106964, -0.13204379379749298, -0.017316114157438278, 0.017209459096193314, -0.1125982254743576, 0.006160029675811529, -0.09422165900468826], [-0.07696346193552017, 0.02258111909031868, -0.21774683892726898, 0.12753866612911224, 0.14934073388576508, 0.025191187858581543, -0.16749876737594604, 0.1366799920797348, 0.12414906173944473, 0.06960636377334595, -0.06111682951450348, 0.0008070581243373454, 0.0423964224755764, -0.03709138184785843, 0.04647790268063545, 0.03803341090679169, 0.045428916811943054, 0.060577698051929474, 0.0069007049314677715, -0.2608228325843811, 0.05508310720324516, -0.022741690278053284, 0.15348570048809052, -0.2639290988445282, -0.0657792016863823, 0.20988410711288452, 0.07471215724945068, -0.11377184092998505, -0.007391319610178471, -0.07816003262996674, -0.08731363713741302, 0.00908776093274355, -0.0140065997838974, 0.152470663189888, -0.06408396363258362, 0.02763950079679489, -0.05271770432591438, 0.04739844426512718, -0.12332022190093994, -0.03684467077255249, -0.16443507373332977, 0.004290261305868626, 0.011519575491547585, 0.1097208559513092], [-0.062052175402641296, -0.6476588249206543, 0.9482943415641785, 0.12552474439144135, -0.27898555994033813, -0.38197529315948486, 0.6786121726036072, -0.13631391525268555, -0.4140089750289917, -0.18242086470127106, 0.5014325976371765, -0.06432736665010452, -0.5887841582298279, -0.29742544889450073, 0.20764842629432678, -0.0012287256540730596, -0.5027796030044556, -0.4646555483341217, 0.29849475622177124, 0.9724294543266296, 0.2498016506433487, -0.4318656921386719, -0.035319942981004715, 0.3539438545703888, 0.11260537803173065, -0.5001538395881653, -0.023435888811945915, 0.00192492944188416, -0.2936401069164276, -0.3785487115383148, -0.09894285351037979, -0.40430665016174316, 0.600750744342804, -0.07984858751296997, -0.10413891077041626, -0.11486867815256119, -0.11879095435142517, 0.03532510623335838, 0.09108591079711914, 0.09802112728357315, -0.10011076182126999, -0.0709352046251297, 0.0007346323691308498, 0.06467181444168091], [0.084170401096344, 0.1864994764328003, -0.5219975113868713, -0.10290445387363434, 0.08186396956443787, 0.0037228448782116175, -0.3917990028858185, -0.08825379610061646, 0.06798764318227768, 0.27290672063827515, -0.19096912443637848, 0.018759718164801598, 0.24244904518127441, 0.07960999011993408, -0.023029541596770287, 0.01997230015695095, 0.26728177070617676, 0.08232904970645905, -0.16015519201755524, -0.28701096773147583, -0.148357555270195, 0.09691165387630463, -0.05129688233137131, -0.34421634674072266, -0.023281486704945564, 0.3165839612483978, -0.11030745506286621, -0.06318582594394684, 0.08681879192590714, 0.05608105659484863, -0.00765635771676898, 0.14284132421016693, -0.1362057328224182, 0.19516335427761078, -0.02437591552734375, 0.13147805631160736, 0.035566020756959915, -0.030248461291193962, -0.07192327827215195, -0.10126037895679474, -0.05816695839166641, -0.04945732653141022, -0.11744879931211472, -0.09262474626302719], [-0.02665785700082779, 0.3353785574436188, -0.8006777167320251, -0.06774623692035675, 0.3877512812614441, 0.18793591856956482, -0.49660661816596985, -0.035733744502067566, 0.19766859710216522, 0.24681836366653442, -0.2852208614349365, 0.2835744023323059, 0.26537397503852844, 0.07551569491624832, -0.05350346118211746, -0.012326288037002087, 0.2795124351978302, 0.27619507908821106, -0.015614158473908901, -0.6495422124862671, -0.02587185986340046, 0.29155871272087097, -0.090216726064682, -0.24278245866298676, -0.05139335244894028, 0.35750362277030945, -0.06811148673295975, -0.2280903160572052, -0.0038595537189394236, 0.22122074663639069, -0.06383400410413742, 0.14462316036224365, -0.38636335730552673, 0.2144811451435089, -0.02024262584745884, -0.06371524930000305, 0.06797761470079422, 0.14915010333061218, -0.06847372651100159, 0.040695738047361374, -0.12432824075222015, -0.0361410453915596, -0.038252897560596466, 0.13789419829845428], [-0.059531815350055695, 0.1196097657084465, -0.2546204626560211, 0.002135238377377391, 0.00023103904095478356, -0.019952116534113884, -0.11395776271820068, -0.11394058912992477, -0.05951991304755211, 0.02328292466700077, -0.10715051740407944, 0.0852222740650177, -0.003745117923244834, -0.019410038366913795, -0.0081707201898098, -0.02674359828233719, 0.053129423409700394, 0.015800388529896736, -0.14209875464439392, -0.12771767377853394, -0.15086543560028076, 0.2093992531299591, -0.10585017502307892, -0.16599024832248688, -0.03519407659769058, 0.050329264253377914, -0.01105455495417118, 0.02736951969563961, -0.10925398021936417, -0.10082339495420456, -0.1405484676361084, -0.04172619432210922, -0.14645959436893463, 0.021335294470191002, 0.07990718632936478, -0.001521526137366891, -0.07008273154497147, 0.10149568319320679, -0.0006239705253392458, -0.06274063885211945, -0.10700411349534988, 0.11287376284599304, 0.01806739903986454, -0.12428071349859238], [-0.045795783400535583, 0.21366067230701447, -0.13345514237880707, 0.08104560524225235, -0.0633954331278801, 0.09680262953042984, -0.20120030641555786, -0.06414869427680969, 0.16057485342025757, 0.18952122330665588, -0.0837145522236824, 0.10958592593669891, 0.22379416227340698, -0.0545789860188961, 0.10950944572687149, 0.08233276009559631, 0.11915367841720581, 0.07737764716148376, 0.09858396649360657, -0.20126216113567352, -0.057211849838495255, -0.04909554123878479, 0.01451596524566412, -0.23515567183494568, -0.14873676002025604, -0.03849717974662781, -0.02879817597568035, -0.14865083992481232, -0.005375101696699858, 0.055614788085222244, -0.06629211455583572, -0.0068360259756445885, -0.22456754744052887, 0.10528560727834702, 0.07299153506755829, 0.11013227701187134, -0.141079381108284, 0.07971902936697006, 0.013380168005824089, -0.05878987908363342, -0.1546754390001297, -0.0635194256901741, 0.013065412640571594, -0.1505754441022873], [0.022691182792186737, 0.22713744640350342, -0.42815926671028137, -0.14473284780979156, 0.07159140706062317, -0.00939978938549757, -0.2519811689853668, 0.03745465725660324, 0.13589885830879211, 0.196735680103302, -0.13395141065120697, -0.047748785465955734, 0.24902908504009247, 0.04797857999801636, -0.09626001119613647, 0.01696915552020073, 0.25299009680747986, 0.2132856845855713, -0.1690809726715088, -0.24891924858093262, -0.16862908005714417, 0.140410915017128, -0.022063536569476128, -0.19874393939971924, 0.02066575177013874, -0.03137623891234398, -0.11409831047058105, -0.07427211850881577, -0.05634118244051933, -0.028737718239426613, 0.0508912056684494, 0.0665334090590477, -0.18350858986377716, 0.15008755028247833, -0.029859546571969986, -0.01410390343517065, -0.007875170558691025, -0.053681880235672, 0.024692237377166748, 0.045726411044597626, 0.03652314096689224, 0.004544227384030819, 0.07103867083787918, -0.15292330086231232], [-0.023008698597550392, -0.040191687643527985, 0.26381421089172363, 0.11880315840244293, -0.11724685877561569, -0.0644901841878891, 0.08751809597015381, -0.12226076424121857, -0.11895506829023361, -0.06598272919654846, 0.022806573659181595, 0.05228119343519211, 0.10052977502346039, 0.008027791976928711, 0.16519451141357422, 0.0629141554236412, -0.033624086529016495, 0.02965756691992283, -0.10022298991680145, 0.06322041898965836, 0.16478964686393738, 0.021359188482165337, 0.03975789621472359, 0.1574295163154602, 0.0677490234375, -0.04041226953268051, 0.09083370119333267, 0.03240452706813812, 0.01827213540673256, -0.024039890617132187, -0.00958093162626028, -0.1592334806919098, 0.10946516692638397, -0.02498473972082138, -0.01527409814298153, 0.031891509890556335, 0.0739860087633133, 0.03523896634578705, -0.07603935897350311, 0.1432867795228958, -0.0165222380310297, -0.06003781408071518, 0.07640315592288971, -0.07164455205202103], [-0.01880146749317646, 0.05413806438446045, -0.070107102394104, -0.12291394919157028, -0.052964914590120316, 0.05357859656214714, 0.06735645234584808, -0.13443252444267273, -0.11170515418052673, 0.1361882984638214, 0.10116907209157944, -0.11106961220502853, 0.0930190309882164, 0.16115400195121765, 0.10573815554380417, -0.14772674441337585, -0.07128147035837173, -0.10358266532421112, -0.003118654014542699, -0.16769742965698242, 0.049537986516952515, 0.06781724095344543, 0.04407834634184837, -0.09532319009304047, 0.13771402835845947, 0.060642894357442856, -0.06408338993787766, 0.043076321482658386, -0.10589391738176346, 0.13720963895320892, -0.02971774712204933, 0.1263868361711502, -0.12111994624137878, 0.14263741672039032, -0.041258979588747025, 0.04475301131606102, -0.04232381284236908, -0.06495684385299683, -0.08286725729703903, -0.14643414318561554, -0.08444815874099731, -0.1232513040304184, 0.06805399805307388, -0.08114594966173172], [-0.08799338340759277, -0.22884738445281982, 0.6318404674530029, -0.00244098505936563, -0.04880760982632637, -0.08612590283155441, 0.45746439695358276, -0.06991273164749146, -0.32734760642051697, -0.29174336791038513, 0.2941080629825592, -0.2152550220489502, -0.24018841981887817, -0.08296143263578415, -0.023296792060136795, 0.15248551964759827, -0.36078089475631714, -0.3900710642337799, -0.008434024639427662, 0.40367111563682556, 0.24027758836746216, -0.24682806432247162, -0.04470457136631012, 0.22398561239242554, 0.11124972999095917, -0.4594554305076599, -0.11016794294118881, 0.17195601761341095, -0.02652723714709282, -0.07017916440963745, 0.1444537341594696, -0.14027100801467896, 0.2764818072319031, 0.08057443052530289, 0.044382814317941666, -0.02759760618209839, -0.063910111784935, 0.08542276918888092, 0.11804112046957016, 0.01744013838469982, 0.05825194716453552, 0.11292646080255508, 0.10882852226495743, -0.033330291509628296], [-0.1373402327299118, 0.3930823802947998, -0.7779870629310608, -0.18501417338848114, 0.2997933328151703, 0.2902030646800995, -0.6675794720649719, 0.14174379408359528, 0.3543967604637146, 0.36210867762565613, -0.3069198727607727, 0.3022812008857727, 0.40050891041755676, 0.3850391209125519, -0.19304488599300385, -0.08586438000202179, 0.334086149930954, 0.5274801254272461, -0.11566992104053497, -0.8585633635520935, -0.11939068138599396, 0.3863137364387512, 0.039015647023916245, -0.32421690225601196, -0.14721450209617615, 0.6199324131011963, -0.0752873346209526, -0.1254783421754837, 0.3027116656303406, 0.26151999831199646, -0.0027651069685816765, 0.37277764081954956, -0.5488967895507812, -0.009838288649916649, -0.13818493485450745, -0.07608961313962936, 0.09130281955003738, -0.06578511744737625, -0.01575874537229538, 0.1000659316778183, 0.07147976756095886, 0.0359981507062912, 0.004612035118043423, -0.0011459477245807648], [-0.06824254244565964, -0.08063572645187378, 0.08952736854553223, 0.14880281686782837, -0.1112569123506546, -0.050124697387218475, -0.07233300060033798, -0.09489688277244568, 0.056228019297122955, 0.043323252350091934, 0.12135569006204605, 0.10726124793291092, -0.1357678771018982, 0.049332085996866226, 0.07325489819049835, -0.040555864572525024, -0.12998083233833313, -0.08380133658647537, 0.10559378564357758, -0.10748343914747238, 0.13832411170005798, 0.13708430528640747, 0.05408734828233719, 0.036924708634614944, -0.050423573702573776, 0.08124621957540512, 0.06621544063091278, 0.1253168284893036, 0.09285466372966766, -0.07302449643611908, 0.11693598330020905, 0.13157352805137634, 0.13638673722743988, -0.06751455366611481, -0.006456919480115175, 0.032305117696523666, 0.12169943749904633, -0.07619273662567139, 0.08293470740318298, -0.0766332820057869, -0.023513931781053543, -0.11671707034111023, -0.044224780052900314, 0.044412363320589066], [-0.07884431630373001, -0.770916759967804, 1.5645902156829834, 0.010477324016392231, -0.6297227740287781, -0.5500673651695251, 1.193074107170105, 0.06337905675172806, -0.8022744059562683, -0.5616401433944702, 0.6422448754310608, -0.45851853489875793, -0.9645650386810303, -0.5550029277801514, 0.16791890561580658, 0.24356144666671753, -0.890418529510498, -0.882733166217804, 0.18404684960842133, 1.512712001800537, 0.3557301461696625, -0.8672490119934082, -0.09894747287034988, 0.6943012475967407, 0.1601310670375824, -1.0512901544570923, 0.04960457235574722, 0.33396387100219727, -0.23614618182182312, -0.6638538241386414, -0.04851216450333595, -0.47356072068214417, 0.7947523593902588, -0.17650364339351654, 0.028093606233596802, -0.04596873000264168, 0.07046998292207718, -0.0076829916797578335, 0.0604107528924942, -0.04811897501349449, -0.08090818673372269, -0.03262137994170189, -0.06426164507865906, -0.09364549070596695], [-0.060724660754203796, 0.27640530467033386, -0.2259606570005417, -0.10171432793140411, -0.00344071420840919, 0.0780826136469841, -0.16023606061935425, 0.1329777091741562, 0.07617288827896118, 0.22897683084011078, -0.08861944824457169, 0.0146388690918684, -0.01263358909636736, 0.04166899248957634, -0.12832756340503693, -0.06633459031581879, 0.24784065783023834, 0.210259348154068, -0.16519400477409363, -0.28118741512298584, -0.017996931448578835, -0.02880346029996872, 0.05426475405693054, -0.08326569944620132, -0.005860959645360708, 0.15654179453849792, 0.1318970024585724, -0.17915816605091095, 0.02602638117969036, 0.16674670577049255, -0.004631404764950275, 0.087349534034729, -0.2979763150215149, 0.15492892265319824, 0.08618450909852982, 0.06482379138469696, -0.10740230232477188, 0.05389542132616043, 0.0559302419424057, -0.03990530967712402, -0.164999857544899, -0.15667501091957092, 0.12957143783569336, -0.10153722018003464], [-0.14799654483795166, 0.6721706390380859, -1.1817773580551147, -0.12078475952148438, 0.3387967050075531, 0.39104706048965454, -0.6203222274780273, -0.01484342385083437, 0.5081256031990051, 0.45693400502204895, -0.5371552109718323, 0.29144608974456787, 0.620499849319458, 0.2416885495185852, -0.22835688292980194, -0.07380297780036926, 0.6856982707977295, 0.647330105304718, -0.23256556689739227, -0.9789609909057617, -0.25562557578086853, 0.6112022399902344, 0.07529440522193909, -0.5649453401565552, 0.04994064196944237, 0.7542263269424438, -0.03229708969593048, -0.21863292157649994, 0.1497092843055725, 0.45230984687805176, 0.06048112362623215, 0.477920800447464, -0.5764018297195435, 0.2500534951686859, 0.05246584117412567, 0.12231405079364777, 0.05743134394288063, -0.027148336172103882, -0.015123453922569752, 0.010606780648231506, 0.006753691006451845, -0.0014467156725004315, -0.0419338196516037, 0.0322946272790432]], "fc1.bias": [0.14502929151058197, -0.21221855282783508, 0.1640370488166809, 0.43454623222351074, -0.22108620405197144, -0.04437645152211189, -0.3338855803012848, 0.31703779101371765, -0.09243930131196976, -0.09837640821933746, -0.07235010713338852, -0.0764545202255249, -0.24599885940551758, 0.30468571186065674, -0.22567208111286163, -0.28061962127685547, 0.3704904615879059, 0.1104295551776886, 0.080914705991745, 0.33192434906959534, -0.17208033800125122, 0.0036395248025655746, -0.22307409346103668, -0.14496639370918274, -0.03843999281525612, -0.05910539999604225, -0.4675689935684204, -0.09338212013244629, 0.0313129723072052, 0.04317425563931465, -0.20010292530059814, 0.09588155895471573, 0.30517953634262085, 0.2239331752061844, 0.3749525249004364, 0.0016716249519959092, 0.1021604984998703, 0.09914207458496094, -0.013203734531998634, 0.5669959187507629, 0.12483234703540802, 0.02606295235455036, 0.5194910168647766, -0.2815340757369995, -0.04961996152997017, -0.384745329618454, 0.010744942352175713, 0.5419440269470215, -0.12802666425704956, -0.15702414512634277, 0.22492019832134247, -0.16553957760334015, -0.010235671885311604, 0.034103576093912125, 0.2623229920864105, 0.3964994549751282, -0.17754459381103516, 0.419022798538208, -0.29781341552734375, 0.7267641425132751, -0.4168378412723541, -0.13493666052818298, 0.03390248864889145, -0.24532605707645416, 0.19428487122058868, 0.0634903833270073, 0.6250525116920471, 0.7736101150512695, 0.2872602045536041, -0.053513795137405396, -0.1340361386537552, 0.019345812499523163, 0.20201610028743744, 0.09352244436740875, -0.06185309588909149, 0.4525933861732483, -0.3719279170036316, -0.09843501448631287, 0.05343686416745186, 0.42655035853385925, -0.12012849748134613, -0.04396754130721092, -0.09489233046770096, -0.31950199604034424, 0.17414413392543793, 0.09263124316930771, -0.44342732429504395, 0.2541672885417938, 0.4181291162967682, 0.03679913282394409, -0.09838371723890305, 0.047297049313783646, -0.011522929184138775, -0.08357422053813934, -0.22866584360599518, 0.28495317697525024, -0.05948220193386078, -0.536777675151825, -0.022722674533724785, 0.43267253041267395], "fc2.weight": [[-1.295516014099121, 1.3057239055633545, -1.288851261138916, -2.5127670764923096, 1.5698812007904053, -0.9581468105316162, 1.958884596824646, -1.6946570873260498, 1.399042010307312, 1.2423996925354004, -0.29333555698394775, 1.516538143157959, 2.2231810092926025, -1.619657039642334, 1.6573988199234009, 2.1361565589904785, -2.074106216430664, -1.5235201120376587, 0.6946233510971069, -1.723935604095459, 0.5521763563156128, -0.7159867882728577, 1.5001899003982544, 0.5781165361404419, 0.691971480846405, 0.7917309403419495, 2.0857012271881104, 0.30200546979904175, -1.1249114274978638, -0.05204974114894867, 1.0889918804168701, -0.2756480872631073, -2.124293804168701, -1.7596180438995361, -1.9289268255233765, 0.053654007613658905, -1.4756522178649902, 0.40022265911102295, -0.6861541867256165, -3.2243728637695312, -0.4460161626338959, -0.16742528975009918, -2.648643970489502, 1.425379991531372, 0.6337134838104248, 2.6978254318237305, 0.816576361656189, -3.116267681121826, -0.17333905398845673, 1.4322739839553833, -1.6077117919921875, 1.7409237623214722, -0.13276885449886322, -1.0200202465057373, -1.8904341459274292, -1.6926466226577759, 0.8462030291557312, -2.4564013481140137, 1.7846384048461914, -4.551032066345215, 1.9164535999298096, 0.42510929703712463, -0.14623869955539703, 2.095752000808716, -0.9399682879447937, -0.8660843968391418, -3.499077320098877, -4.41353178024292, -1.8592884540557861, 1.3655240535736084, 0.8974480628967285, -0.9299379587173462, -1.9566243886947632, 0.49138882756233215, -0.5977882742881775, -2.2345683574676514, 2.562808036804199, -0.35235413908958435, -0.41246363520622253, -2.081284523010254, 0.9355449080467224, -0.009062591940164566, 1.4302204847335815, 1.7160875797271729, -1.5271528959274292, -0.43966054916381836, 2.4791078567504883, -1.0759443044662476, -1.692627191543579, -0.42189812660217285, -0.5349345803260803, -0.7725804448127747, 0.35574871301651, -0.1824978142976761, 1.4577839374542236, -2.165353298187256, 0.10913114249706268, 4.057402610778809, -0.7414599657058716, -2.850095272064209]], "fc2.bias": [-0.0030739533249288797]}