{"fc1.weight": [[-0.2413330376148224, 0.0767868235707283, 0.10101521015167236, 0.013360206037759781, -0.23131300508975983, 0.16401910781860352, -0.01837027817964554, -0.21640491485595703, -0.028795287013053894, 0.1752862185239792, 0.17472481727600098, 0.03683120012283325, -0.23979447782039642, 0.17549647390842438, 0.04566000774502754, -0.15382735431194305, 0.1538577526807785], [-0.06082076579332352, 0.05902625620365143, 0.21996022760868073, -0.03104323521256447, 0.028919698670506477, 0.15576398372650146, 0.09944804012775421, -0.22007009387016296, -0.10512761026620865, 0.1610100418329239, 0.06110937148332596, 0.13952402770519257, 0.17338262498378754, 0.0912744477391243, -0.1488836407661438, 0.1522948294878006, -0.2103198617696762], [0.002940748119726777, -0.17470106482505798, -0.07841503620147705, -0.1889265924692154, 0.23669199645519257, -0.04614836722612381, 0.09796488285064697, 0.07230111211538315, 0.07736658304929733, 0.049226708710193634, 0.08944723755121231, -0.08618316054344177, -0.09173455834388733, -0.02697833999991417, -0.1356857568025589, 0.23634502291679382, -0.08513849228620529], [0.11549161374568939, -0.014570656232535839, -0.01591494306921959, -0.01187274418771267, 0.22494585812091827, -0.1306159794330597, 0.1352561116218567, -0.09617332369089127, -0.18354998528957367, -0.12059284746646881, 0.1585690677165985, -0.04484626278281212, 0.12593252956867218, -0.13381505012512207, 0.18917928636074066, 0.2276449352502823, -0.20536793768405914], [0.015833063051104546, -0.21231098473072052, 0.16508935391902924, 0.22196325659751892, -0.03909192606806755, 0.013761655427515507, 0.039558108896017075, -0.24241361021995544, 0.09948120266199112, 0.06941058486700058, -0.03837602213025093, 0.09405094385147095, -0.07337616384029388, 0.11584287136793137, 0.1479867696762085, 0.191641703248024, 0.15746426582336426], [-0.1783415973186493, -0.13590967655181885, 0.07415778189897537, 0.11196151375770569, -0.14490918815135956, 0.09868506342172623, 0.014206098392605782, 0.08564449101686478, 0.21351805329322815, -0.12198998779058456, -0.07492177188396454, -0.22589066624641418, -0.22686487436294556, -0.07069282233715057, 0.06417213380336761, 0.09524199366569519, 0.08122263848781586], [-0.2435188740491867, 0.25113528966903687, -0.1782780885696411, -0.08746642619371414, 0.2686983346939087, 0.007288739085197449, 0.012324649840593338, -0.014604632742702961, -0.21156832575798035, -0.07804711908102036, 0.17126478254795074, -0.23009175062179565, 0.024508601054549217, -0.052463777363300323, 0.10912561416625977, -0.07402694225311279, -0.059588536620140076], [-0.08863852173089981, -0.09932836890220642, 0.15244968235492706, 0.24061167240142822, 0.21912641823291779, 0.18036451935768127, -0.07810451090335846, 0.1593891680240631, -0.1943066269159317, 0.19393478333950043, -0.008504582569003105, 0.1336553990840912, -0.010620197281241417, 0.032968372106552124, 0.10714622586965561, 0.20043830573558807, -0.06534704566001892], [0.11813580244779587, -0.027403049170970917, 0.20159581303596497, -0.19922678172588348, -0.03819417208433151, -0.17784154415130615, 0.032235197722911835, -0.0449967123568058, 0.21247918903827667, -0.1509082317352295, -0.033220428973436356, 0.07919880002737045, 0.12613889575004578, 0.04235314205288887, -0.20645803213119507, -0.18805243074893951, -0.205910325050354], [-0.04359911382198334, -0.035903915762901306, -0.14231757819652557, 0.20694853365421295, -0.2231878787279129, 0.14393606781959534, 0.1802375763654709, 0.12059921771287918, 0.09055014699697495, 0.05972645804286003, -0.08088431507349014, 0.17115238308906555, -0.13313931226730347, 0.051274374127388, 0.19563479721546173, -0.14806026220321655, -0.21025606989860535], [0.20580963790416718, 0.13943098485469818, 0.04845558479428291, -0.24082866311073303, -0.10861815512180328, -0.0075774164870381355, -0.004008631221950054, -0.11540894955396652, 0.07498375326395035, 0.18806175887584686, 0.22859415411949158, 0.11938682198524475, 0.08438505977392197, -0.19866521656513214, 0.14956782758235931, 0.12121756374835968, -0.007399836089462042], [-0.08915328234434128, -0.2127993106842041, -0.02917352132499218, 0.043807726353406906, -0.22472833096981049, 0.036304354667663574, -0.04544171690940857, 0.24195225536823273, -0.19798259437084198, -0.10452203452587128, -0.07707832008600235, 0.21940730512142181, 0.0936812087893486, 0.08673287183046341, 0.059368811547756195, 0.17510172724723816, 0.0640220195055008], [0.0162559375166893, -0.015572156757116318, -0.14638939499855042, -0.0321199931204319, -0.07980003207921982, -0.15962322056293488, -0.09568241983652115, 0.01019211858510971, 0.18857093155384064, 0.05404919758439064, -0.07118774950504303, -0.21371182799339294, -0.12775835394859314, -0.10275880992412567, 0.07832933962345123, 0.14006058871746063, -0.21907520294189453], [-0.22205427289009094, 0.13853909075260162, -0.04855070635676384, -0.11918877065181732, -0.1505546122789383, -0.19789917767047882, 0.029852906242012978, -0.1177566796541214, -0.1910698413848877, 0.14502523839473724, -0.011327714659273624, -0.2077496349811554, -0.03722825273871422, 0.03747479245066643, -0.1674000769853592, -0.049541741609573364, 0.0038067353889346123], [0.14785365760326385, 0.10998407006263733, -0.10477250814437866, 0.02075064554810524, 0.07416483759880066, 0.15199387073516846, -0.18452495336532593, 0.11622304469347, -0.19963355362415314, 0.012078081257641315, -0.17121756076812744, -0.13091880083084106, -0.16989167034626007, -0.08432454615831375, -0.20311729609966278, 0.05721381679177284, -0.1260165125131607], [0.007505642715841532, 0.2622848451137543, -0.1330665647983551, -0.10652020573616028, -0.06876833736896515, -0.15116582810878754, 0.215093731880188, 0.17253640294075012, -0.053883008658885956, 0.18441711366176605, 0.22289665043354034, -0.12356776744127274, -0.0930660292506218, 0.23212845623493195, -0.005942898336797953, -0.24587686359882355, -0.1332472413778305], [-0.16052161157131195, 0.1647898405790329, -0.05279480665922165, -0.1756758838891983, -0.14652679860591888, 0.109413743019104, 0.10074450075626373, -0.1249375194311142, -0.03939158469438553, -0.2091156542301178, 0.2305167317390442, -0.1884213238954544, -0.196761816740036, -0.22144939005374908, 0.15173783898353577, -0.10976467281579971, 0.05095681920647621], [0.30509716272354126, -0.342181921005249, -0.04339172691106796, 0.15511277318000793, 0.1382683366537094, -0.06561976671218872, 0.09021678566932678, 0.018990639597177505, -0.20970143377780914, 0.11483725160360336, -0.08085161447525024, -0.031116146594285965, 0.22409546375274658, 0.09002452343702316, 0.010912156663835049, -0.2568723261356354, -0.1775694340467453], [0.09317646920681, -0.10069269686937332, -0.15310439467430115, -0.0511738583445549, 0.11798311769962311, 0.21419772505760193, -0.22191306948661804, 0.16996575891971588, 0.11777178198099136, 0.16091778874397278, -0.16894511878490448, -0.22583909332752228, -0.16821467876434326, -0.12729953229427338, 0.10267123579978943, 0.16963675618171692, -0.20019857585430145], [0.021177710965275764, -0.20723290741443634, 0.21828483045101166, -0.06502831727266312, 0.18586397171020508, -0.03313644230365753, 0.096709705889225, 0.16074062883853912, -0.19739936292171478, -0.19509081542491913, 0.15010303258895874, 0.15433211624622345, -0.08025895804166794, 0.09327660501003265, -0.18747587502002716, 0.15218371152877808, -0.20756329596042633], [-0.13681285083293915, 0.039210233837366104, 0.14599479734897614, 0.17697277665138245, 0.1070808544754982, -0.22548484802246094, -0.04253748431801796, -0.0719599723815918, -0.08853495866060257, -0.16365258395671844, -0.0070291487500071526, 0.055339738726615906, -0.21285954117774963, 0.1808306872844696, 0.12856599688529968, -0.19602692127227783, 0.2108452320098877], [0.13829801976680756, -0.16031639277935028, -0.029410777613520622, 0.04084104299545288, -0.1608039140701294, 0.025284530594944954, 0.09110528230667114, 0.1967300921678543, -0.22911660373210907, -0.11380575597286224, 0.024886809289455414, -0.17563828825950623, -0.24192574620246887, -0.09207162261009216, 0.18189558386802673, 0.028744516894221306, 0.12809592485427856], [0.22978708148002625, 0.21989867091178894, 0.12376729398965836, 0.14992567896842957, -0.07832988351583481, 0.17264173924922943, 0.16591787338256836, -0.04061538353562355, -0.2263149619102478, 0.23440103232860565, 0.13086068630218506, -0.1971704363822937, -0.040051039308309555, -0.1362990140914917, 0.09845662862062454, -0.09186180680990219, -0.005453417543321848], [0.10999078303575516, -0.01970583386719227, 0.21641328930854797, 0.15847189724445343, -0.23345009982585907, 0.09655632823705673, -0.19782526791095734, 0.14702075719833374, 0.19553682208061218, 0.04277268797159195, 0.0800885483622551, -0.146418496966362, 0.09020797908306122, 0.20485202968120575, 0.15620073676109314, 0.1890745609998703, 0.03597515821456909], [-0.0015846940223127604, 0.04862206429243088, 0.19221514463424683, -0.15430395305156708, 0.19151298701763153, 0.21407479047775269, 0.14654551446437836, -0.05258576571941376, 0.05433933436870575, -0.06799407303333282, 0.18450555205345154, 0.006308967713266611, 0.12556308507919312, 0.1348777562379837, 0.20586442947387695, -0.041444361209869385, 0.2004346251487732], [0.20768192410469055, -0.20338083803653717, 0.1589442938566208, -0.02064550668001175, 0.06982197612524033, -0.03424471616744995, -0.08495131134986877, 0.010066291317343712, 0.20431523025035858, 0.1370830088853836, -0.053129665553569794, 0.18316935002803802, -0.17436741292476654, -0.1035255715250969, -0.23529839515686035, 0.16960974037647247, -0.09965259581804276], [0.032896265387535095, 0.06326887756586075, 0.24132439494132996, 0.142647847533226, -0.12090056389570236, -0.04873063042759895, 0.01846843771636486, 0.14129234850406647, 0.04727615788578987, 0.18376868963241577, 0.16135576367378235, -0.22216138243675232, 0.10366767644882202, 0.05806615576148033, 0.22329698503017426, -0.19014030694961548, 0.18419481813907623], [-0.007710356265306473, 0.17755842208862305, 0.1453804075717926, 0.04809672385454178, -0.14963623881340027, -0.13902156054973602, 0.04805459827184677, 0.13898521661758423, -0.053044259548187256, -0.09222196787595749, 0.19576510787010193, 0.19512178003787994, -0.15875330567359924, -0.10568214952945709, 0.043170031160116196, 0.1825030893087387, -0.20193208754062653], [-0.20625929534435272, -0.015279031358659267, -0.10368752479553223, 0.04782934486865997, -0.03902705758810043, -0.07141479849815369, 0.037442486733198166, -0.13121835887432098, 0.026602016761898994, 0.1427515298128128, 0.04437714070081711, 0.03171515464782715, 0.032144397497177124, -0.21256186068058014, 0.177291139960289, 0.157965287566185, 0.035300884395837784], [0.09722165763378143, 0.05431588739156723, -0.01685662381350994, 0.06121212616562843, -0.05875100940465927, -0.11239849776029587, 0.08722128719091415, 0.031011834740638733, 0.003437725128605962, -0.03720012307167053, 0.011392825283110142, -0.1308220624923706, 0.06754514575004578, 0.1364581435918808, 0.0757000669836998, 0.1331145018339157, -0.003472564509138465], [-0.058451589196920395, 0.0690285935997963, -0.19219878315925598, 0.10371147841215134, 0.17285196483135223, 0.19323524832725525, -0.23173247277736664, -0.23166273534297943, -0.12537671625614166, 0.11985942721366882, 0.23988647758960724, 0.14443828165531158, -0.01539558731019497, -0.23519381880760193, -0.20608004927635193, 0.009370801039040089, -0.08781541138887405], [0.1730511635541916, 0.10554548352956772, 0.06174449250102043, 0.05163133516907692, -0.13161350786685944, 0.03368673473596573, -0.12875701487064362, 0.11778879910707474, 0.06004093959927559, -0.004927846137434244, 0.018118711188435555, 0.1521250158548355, 0.16013690829277039, -0.16713570058345795, -0.08493480086326599, 0.238060861825943, 0.19484546780586243], [0.001000921824015677, 0.20921637117862701, -0.1769624501466751, 0.20747007429599762, 0.01195422001183033, 0.03322046250104904, -0.13117167353630066, -0.1036316454410553, 0.14245708286762238, -0.09737859666347504, 0.23773857951164246, 0.006576147861778736, 0.022690529003739357, -0.04142050817608833, -0.2406035214662552, -0.23306214809417725, 0.1706213355064392], [-0.08205632865428925, 0.16918672621250153, 0.18329621851444244, 0.011860629543662071, -0.1614157110452652, 0.1854984313249588, -0.23418837785720825, 0.20235809683799744, -0.11865469813346863, -0.13601624965667725, -0.07680385559797287, -0.15636272728443146, -0.20307260751724243, 0.08181659132242203, 0.09010178595781326, -0.23250246047973633, 0.20143766701221466], [0.026484427973628044, -0.019045386463403702, 0.016564607620239258, -0.12394493073225021, 0.04953416436910629, -0.10502109676599503, 0.09219646453857422, 0.19303001463413239, -0.1616031527519226, -0.053289350122213364, -0.1176304742693901, 0.06222284957766533, -0.10083494335412979, -0.1465512067079544, 0.19907614588737488, -0.2001780867576599, 0.2036680281162262], [-0.1088700145483017, -0.13429106771945953, 0.04082817956805229, 0.06957899779081345, -0.03943560644984245, 0.06345070898532867, -0.07991071045398712, -0.2010529786348343, 0.15199902653694153, 0.12233748286962509, 0.05984433367848396, 0.10891841351985931, 0.08059723675251007, -0.09946741163730621, -0.21448937058448792, -0.1094541922211647, 0.14829763770103455], [-0.3414826989173889, 0.23757974803447723, 0.025386542081832886, -0.07150320708751678, -0.027815230190753937, 0.2311054766178131, 0.029623016715049744, -0.011480448767542839, -0.2694431245326996, -0.11652131378650665, 0.10875601321458817, 0.030667517334222794, 0.04503122717142105, 0.03659241273999214, 0.3233916759490967, -0.09289021044969559, -0.06390807032585144], [-0.2775997221469879, -0.06756941974163055, 0.1587122529745102, -0.13974209129810333, -0.031668636947870255, 0.12075693905353546, -0.035986628383398056, 0.0013544822577387094, 0.16755463182926178, -0.1316549926996231, -0.3066324293613434, -0.1534682661294937, -0.11868740618228912, 0.1798160970211029, 0.24872702360153198, 0.18584875762462616, -0.011417384259402752], [0.1606353223323822, -0.0672823041677475, -0.07680024206638336, -0.20049014687538147, 0.07739610224962234, -0.1966443657875061, 0.13310840725898743, -0.03400878980755806, 0.23111900687217712, 0.14496327936649323, 0.20707294344902039, -0.13074015080928802, -0.2334534227848053, 0.2214174121618271, 0.1366918832063675, 0.08421363681554794, -0.03314679116010666], [0.21257136762142181, 0.09388353675603867, 0.10256604850292206, 0.19681227207183838, -0.13711364567279816, 0.17836852371692657, -0.20776879787445068, -0.18365682661533356, 0.11466474831104279, -0.05070442706346512, -0.08450785279273987, -0.1720946580171585, -0.18324406445026398, 0.18731054663658142, -0.06141260638833046, -0.18125244975090027, 0.21966975927352905], [-0.2089579701423645, -0.12436075508594513, -0.19488365948200226, 0.21151670813560486, -0.1356281340122223, -0.19433076679706573, 0.1504507064819336, -0.07649938017129898, -0.057157002389431, 0.22497431933879852, -0.0038342021871358156, 0.1029374897480011, -0.18649010360240936, -0.18421971797943115, -0.23244720697402954, -0.009819233790040016, -0.1301669329404831], [-0.15909402072429657, -0.21680854260921478, -0.19847247004508972, 0.18368394672870636, 0.06613411754369736, -0.23911109566688538, -0.25032711029052734, -0.21295787394046783, 0.21051137149333954, -0.19505922496318817, -0.08347176760435104, 0.028219876810908318, 0.2002410888671875, 0.21268320083618164, -0.10644002258777618, 0.13880105316638947, 0.15205542743206024], [-0.06642013788223267, 0.014393307268619537, -0.12444622069597244, -0.03947142884135246, 0.030794991180300713, 0.23073044419288635, -0.19633549451828003, 0.05551642179489136, -0.21694748103618622, -0.21305568516254425, -0.060996294021606445, -0.03858835622668266, 0.09869200736284256, -0.1677609235048294, 0.060412898659706116, -0.003821885446086526, -0.18208539485931396], [0.1602252721786499, 0.09791781008243561, -0.2207135260105133, -0.08584579825401306, 0.2454921156167984, 0.1227140724658966, -0.0072378371842205524, -0.07974032312631607, 0.19663742184638977, -0.11135616153478622, -0.1904417723417282, 0.00043035621638409793, 0.04600493237376213, -0.14946092665195465, 0.1146475151181221, -0.15726780891418457, 0.18221323192119598], [0.23638291656970978, -0.19944904744625092, -0.08153064548969269, 0.021488551050424576, -0.2425784021615982, 0.19574499130249023, 0.17224816977977753, 0.14500440657138824, -0.024147331714630127, -0.04953001067042351, 0.0699918270111084, 0.20070376992225647, 0.13590417802333832, 0.21817900240421295, -0.17580430209636688, -0.02321687899529934, -0.231307715177536], [0.24133901298046112, -0.17831046879291534, 0.10537030547857285, 0.1297631412744522, 0.22114107012748718, 0.07546882331371307, 0.22914190590381622, 0.20307466387748718, 0.027685539796948433, -0.04153147339820862, 0.2122747302055359, -0.007811810355633497, 0.1341610848903656, -0.12188977748155594, 0.16664846241474152, -0.045419253408908844, 0.23903460800647736], [-0.15320275723934174, 0.11797181516885757, 0.0842268243432045, 0.05483509972691536, -0.09947426617145538, -0.1481466293334961, -0.11937277019023895, 0.10258365422487259, -0.19330056011676788, 0.05473416671156883, -0.16787241399288177, -0.15194042026996613, -0.22042417526245117, -0.15289241075515747, 0.038172535598278046, 0.22199317812919617, -0.07319780439138412], [-0.11533771455287933, 0.1078723594546318, -0.062354546040296555, -0.2015533447265625, -0.21745990216732025, -0.19346925616264343, 0.07760664075613022, -0.1398552507162094, 0.08357062190771103, -0.08583033829927444, -0.08271940797567368, -0.010257258079946041, -0.03712659701704979, 0.2011965811252594, 0.012415778823196888, 0.17087458074092865, -0.08711740374565125], [0.06420815736055374, -0.21426862478256226, 0.07969684153795242, 0.11796091496944427, -0.08917369693517685, 0.20020312070846558, -0.1051061600446701, -0.1621018797159195, -0.2242058515548706, 0.029624788090586662, -0.23482680320739746, -0.09820280969142914, -0.08405166864395142, -0.2330719530582428, 0.17666728794574738, -0.18695616722106934, -0.11587059497833252], [-0.05817524343729019, -0.05401381105184555, 0.11653061211109161, 0.2402454912662506, -0.21862635016441345, -0.22860130667686462, -0.2385978251695633, -0.22378143668174744, -0.23197945952415466, 0.2016097456216812, 0.03834488242864609, -0.1182597279548645, -0.1759328693151474, 0.05233069881796837, 0.08133120834827423, -0.16817055642604828, -0.1463310718536377], [0.09051832556724548, 0.14573833346366882, 0.12171343713998795, 0.22823432087898254, -0.09131492674350739, -0.16896288096904755, -0.1513950079679489, 0.1255856603384018, -0.10657601058483124, 0.030967310070991516, -0.2329929620027542, 0.1940854787826538, 0.16705308854579926, 0.13795028626918793, -0.06313145160675049, -0.09614790976047516, 0.013527002185583115], [-0.23391225934028625, -0.053350817412137985, -0.13285669684410095, 0.23847873508930206, -0.19659672677516937, 0.11570446938276291, -0.07590534538030624, 0.18042416870594025, -0.176413893699646, -0.1603144258260727, -0.09447390586137772, 0.03269101679325104, 0.027836143970489502, 0.044698867946863174, -0.10102839767932892, -0.036985766142606735, -0.05026663467288017], [-0.15432040393352509, -0.14386530220508575, -0.004190140403807163, -0.14706946909427643, -0.015124226920306683, -0.02656971849501133, 0.14348801970481873, -0.12518936395645142, 0.022833609953522682, -0.025150924921035767, 0.07084539532661438, -0.12692445516586304, 0.05003590136766434, -0.04665789380669594, 0.16334214806556702, -0.022064298391342163, 0.06296766549348831], [0.11270342022180557, -0.14682306349277496, 0.02961571514606476, 0.15347862243652344, -0.13441681861877441, 0.11634969711303711, -0.06573323905467987, -0.0950147733092308, -0.09149233251810074, -0.14698098599910736, 0.09770940989255905, -0.22593572735786438, 0.22708629071712494, -0.13510625064373016, -0.054034892469644547, 0.17924776673316956, -0.17757771909236908], [0.07638650387525558, -0.05605780705809593, -0.10405406355857849, -0.09407222270965576, 0.10424870252609253, -0.20264047384262085, 0.21145321428775787, 0.20753636956214905, 0.08453598618507385, -0.19113914668560028, 0.06726706773042679, 0.20400387048721313, 0.04079027473926544, -0.23655104637145996, 0.07928422838449478, 0.17550545930862427, -0.07512534409761429], [-0.40132012963294983, 0.1084824651479721, -0.07323738932609558, 0.0513576976954937, -0.20287564396858215, 0.21811836957931519, 0.13041315972805023, 0.11483588069677353, 0.2227887511253357, -0.2256220281124115, 0.07084675133228302, -0.2147013247013092, 0.24108505249023438, 0.10126711428165436, -0.1314721256494522, 0.025367166846990585, -0.0970049798488617], [-0.07991012930870056, -0.21495644748210907, 0.11261427402496338, -0.12453636527061462, 0.11178086698055267, 0.017748313024640083, 0.047309957444667816, 0.22226862609386444, -0.17434749007225037, 0.0004575981292873621, 0.15002253651618958, -0.13387447595596313, 0.04022298380732536, -0.16304533183574677, 0.009831146337091923, 0.07178054004907608, -0.009592329151928425], [0.18936249613761902, 0.14126591384410858, 0.122166208922863, 0.12391920387744904, 0.04610372707247734, -0.1583593636751175, 0.04003681614995003, -0.12166758626699448, 0.09922176599502563, 0.1823563575744629, -0.1507188379764557, 0.028202176094055176, -0.09312120079994202, -0.1480538249015808, 0.23879578709602356, -0.20646941661834717, -0.08872844278812408], [0.15301573276519775, 0.11517629027366638, 0.22115719318389893, 0.004325078334659338, 0.1350882202386856, -0.06607887893915176, 0.053211893886327744, 0.2373102903366089, -0.1635502576828003, 0.08125406503677368, -0.19304780662059784, -0.2279176115989685, -0.18706762790679932, -0.11310233920812607, -0.23352402448654175, -0.15513603389263153, 0.1328178346157074], [0.015658430755138397, -0.035193104296922684, 0.05291545391082764, 0.1388481706380844, 0.18165574967861176, -0.24129730463027954, 0.09973502159118652, 0.09621168673038483, 0.1006995439529419, -0.03357507288455963, 0.1656765639781952, 0.08631395548582077, 0.18451422452926636, -0.01832742989063263, 0.034735359251499176, 0.13386712968349457, 0.1673257052898407], [-0.013879965990781784, 0.06677353382110596, -0.20523202419281006, 0.17074273526668549, -0.08386969566345215, -0.2007683664560318, 0.03908414766192436, 0.03243982419371605, -0.24239525198936462, 0.23101459443569183, -0.09536915272474289, 0.05595505237579346, 0.10745225846767426, 0.21063047647476196, 0.022011693567037582, 0.1848784238100052, 0.19756847620010376], [0.08064178377389908, -0.2166508585214615, 0.16900448501110077, 0.2233165055513382, -0.02910422720015049, -0.15977364778518677, 0.11599515378475189, 0.20185132324695587, -0.247100830078125, -0.2276904284954071, 0.1641344577074051, 0.04346995800733566, -0.16508989036083221, -0.09619053453207016, -0.24722805619239807, -0.02621368318796158, 0.012246455997228622], [-0.16461403667926788, -0.18109814822673798, -0.0738445445895195, 0.024251023307442665, 0.11629115790128708, -0.15214847028255463, 0.0978984460234642, 0.06315276026725769, -0.06269226968288422, 0.15648676455020905, 0.12361501157283783, 0.07475297898054123, -0.05104417726397514, 0.21401286125183105, 0.16230592131614685, 0.07310609519481659, -0.1703893095254898], [-0.17003357410430908, 0.17082557082176208, 0.15115094184875488, -0.1398218721151352, -0.17434176802635193, -0.23145943880081177, -0.1764034479856491, -0.04945293441414833, 0.1985996514558792, 0.18290996551513672, -0.20830537378787994, -0.2394811511039734, -0.0990762710571289, 0.2116495817899704, 0.2462524026632309, 0.1670226901769638, 0.014471299014985561], [0.025609370321035385, 0.01809651032090187, 0.12492683529853821, -0.1630450338125229, 0.1594502329826355, -0.031886130571365356, -0.07464529573917389, -0.11522524803876877, -0.1339273750782013, 0.026586053892970085, -0.03419683873653412, 0.22013922035694122, 0.19696295261383057, 0.043074678629636765, 0.015261340886354446, -0.09889247268438339, 0.19421057403087616], [-0.22498542070388794, 0.23952938616275787, -0.13104212284088135, -0.2865827679634094, 0.14960764348506927, 0.22043882310390472, 0.23430073261260986, -0.026884794235229492, 0.11244528740644455, -0.10790465772151947, -0.11193143576383591, 0.03417620435357094, -0.21608716249465942, 0.18007789552211761, -0.16700467467308044, 0.2639220654964447, 9.543075429974124e-05], [0.04031605273485184, 0.021285757422447205, 0.016546709463000298, -0.07223880290985107, 0.0001441577187506482, -0.2104693204164505, 0.12258731573820114, 0.19794529676437378, 0.11344461143016815, -0.07803012430667877, -0.1414986103773117, -0.20794543623924255, 0.06942937523126602, 0.1329992264509201, 0.06792199611663818, 0.18380685150623322, 0.04630599915981293], [-0.032331258058547974, 0.03932137414813042, -0.10650884360074997, 0.19040431082248688, 0.05210014805197716, 0.11300253868103027, 0.14794039726257324, -0.020497111603617668, -0.10019698739051819, -0.126324862241745, -0.019179077818989754, 0.07015658169984818, 0.23006436228752136, 0.07379131764173508, 0.16982826590538025, 0.13189463317394257, 0.07373447716236115], [-0.08087415248155594, 0.13464871048927307, 0.16845250129699707, -0.026707926765084267, 0.05402618646621704, 0.24187947809696198, 0.06580717861652374, -0.22435426712036133, -0.21901249885559082, -0.1943703144788742, 0.049980517476797104, -0.0889163464307785, -0.12767209112644196, 0.06078103929758072, -0.06566823273897171, 0.033849410712718964, 0.04142889752984047], [-0.10255590081214905, 0.002829261589795351, -0.15002432465553284, -0.20768365263938904, 0.018929418176412582, -0.05563953146338463, -0.1064227744936943, -0.012116419151425362, -0.007589935790747404, 0.02082960493862629, 0.110795758664608, 0.09998314827680588, -0.17327359318733215, -0.12343937158584595, 0.1727912724018097, -0.035953011363744736, 0.025869371369481087], [0.24038074910640717, -0.11119356751441956, -0.15867680311203003, -0.13887858390808105, -0.18026722967624664, -0.12199120223522186, -0.006571637466549873, -0.06245027482509613, 0.24250783026218414, -0.15528883039951324, 0.015465064905583858, 0.12059961259365082, -0.032581523060798645, -0.04964973032474518, -0.21015934646129608, -0.06930123269557953, 0.012751569040119648], [0.10551688820123672, 0.12054751068353653, 0.14822733402252197, -0.12443725764751434, -0.2214941680431366, 0.07989006489515305, -0.07195019721984863, 0.08940771222114563, 0.04318385198712349, 0.12067371606826782, 0.04280854016542435, 0.1642441302537918, 0.10674136132001877, -0.13424845039844513, 0.17351871728897095, -0.015826672315597534, -0.08858055621385574], [-0.1313716173171997, 0.15772168338298798, 0.056975625455379486, -0.1505860835313797, 0.11071310192346573, 0.04339459165930748, 0.08544937521219254, -0.15529046952724457, -0.27402397990226746, -0.1802550107240677, 0.21957682073116302, -0.21587610244750977, -0.2544914484024048, -0.03574284911155701, 0.09983815997838974, 0.08288723975419998, -0.062374573200941086], [0.07438613474369049, 0.08368398994207382, -0.01918376050889492, -0.19537484645843506, -0.01269915048032999, 0.09288981556892395, -0.0038084122352302074, 0.14344103634357452, 0.03535269945859909, 0.026992881670594215, -0.20229116082191467, -0.22203896939754486, -0.1337273269891739, -0.17345362901687622, 0.09982846677303314, -0.10705257207155228, -0.17927692830562592], [-0.33808276057243347, 0.30776238441467285, -0.017068784683942795, 0.01612274721264839, 0.11630368232727051, 0.03645234927535057, -0.10184698551893234, 0.08155731111764908, -0.1381712704896927, -0.024784252047538757, 0.12082549929618835, 0.01856064982712269, -0.09722375124692917, 0.1560848355293274, 0.25350022315979004, -0.05157337710261345, -0.06495983898639679], [-0.22964522242546082, 0.18189503252506256, 0.1805022656917572, -0.20656079053878784, -0.05919501185417175, -0.23369717597961426, -0.034762512892484665, 0.028186818584799767, 0.06392232328653336, 0.14136600494384766, -0.0915423333644867, -0.052821870893239975, 0.25291362404823303, 0.14876611530780792, -0.16055934131145477, -0.016049519181251526, -0.08753170073032379], [0.000602391897700727, -0.1480012685060501, 0.07608801126480103, 0.21795302629470825, 0.11588138341903687, -0.0184493251144886, -0.036735210567712784, 0.013326233252882957, -0.007982827723026276, -0.0009188681142404675, -0.016536619514226913, -0.12011656910181046, -0.027477513998746872, -0.15498976409435272, 0.2250991016626358, -0.006145525258034468, 0.09591620415449142], [0.1221262514591217, -0.2023986279964447, -0.0890049859881401, -0.1101558730006218, -0.012029681354761124, -0.20739340782165527, 0.17466266453266144, -0.18830403685569763, 0.22034978866577148, -0.005736413411796093, -0.21923887729644775, -0.12706322968006134, -0.046540942043066025, 0.10487520694732666, -0.20199333131313324, -0.2272665798664093, -0.1347682923078537], [-0.032795216888189316, 0.15279518067836761, 0.2188548743724823, 0.08145006746053696, 0.15934550762176514, -0.05941914767026901, -0.20912592113018036, 0.18570008873939514, 0.055072586983442307, -0.16302870213985443, 0.04608982056379318, -0.10791454464197159, 0.13093392550945282, 0.11097429692745209, 0.04858603700995445, 0.19912780821323395, -0.16263459622859955], [0.1827482432126999, 0.0220036543905735, 0.017870265990495682, -0.24049922823905945, 0.22598306834697723, 0.1913241595029831, 0.21909770369529724, 0.016925174742937088, -0.2374320775270462, -0.19989700615406036, 0.06524091213941574, -0.16421334445476532, -0.16666433215141296, 0.11453310400247574, 0.23067894577980042, 0.17635667324066162, -0.20547384023666382], [0.24470290541648865, 0.14868418872356415, -0.17088419198989868, 0.04489259794354439, -0.13829758763313293, 0.07442552596330643, -0.15173667669296265, -0.2198798954486847, 0.05960874259471893, 0.015031387098133564, 0.008832450024783611, 0.015352795831859112, 0.2393953502178192, 0.24118715524673462, 0.04501182585954666, -0.014751771464943886, 0.24040919542312622], [0.06630933284759521, 0.03435461223125458, 0.07636524736881256, -0.21968436241149902, -0.14259274303913116, -0.03642803803086281, 0.11878080666065216, -0.17215128242969513, 0.1484115868806839, -0.03901871666312218, -0.17958736419677734, -0.08591996133327484, 0.2378753125667572, 0.09567836672067642, 0.007219194900244474, -0.09706674516201019, 0.12224462628364563], [-0.1653457134962082, -0.06239921599626541, -0.027781575918197632, -0.0890536978840828, 0.04226335883140564, -0.08651180565357208, -0.17495910823345184, -0.05697208270430565, 0.05605648085474968, -0.21745750308036804, 0.16086676716804504, -0.10253455489873886, 0.13214024901390076, 0.026011448353528976, 0.2275461107492447, -0.11185737699270248, -0.10255885124206543], [-0.22797690331935883, -0.054611433297395706, -0.16803018748760223, 0.16336822509765625, 0.187383234500885, -0.23887422680854797, 0.20966973900794983, 0.07532793283462524, -0.15562964975833893, -0.025505797937512398, -0.15370579063892365, 0.011740613728761673, -0.22681207954883575, 0.10664982348680496, 0.030336352065205574, -0.058826614171266556, 0.1359555870294571], [-0.044212471693754196, 0.08213011920452118, 0.22180713713169098, -0.22420039772987366, -0.2653557360172272, -0.2284410148859024, 0.17235711216926575, -0.03943922743201256, -0.12536032497882843, -0.05784491449594498, 0.14683902263641357, -0.30451440811157227, 0.06327880173921585, 0.09715178608894348, 0.042558103799819946, -0.1886999011039734, 0.056579846888780594], [-0.22965307533740997, 0.048041932284832, 0.0653839111328125, -0.1123042106628418, 0.04118157550692558, 0.0748002752661705, 0.11508611589670181, -0.16009072959423065, -0.1323176771402359, -0.13431784510612488, -0.19733725488185883, -0.061603888869285583, -0.1417548954486847, 0.18194687366485596, 0.14212188124656677, -0.0925888940691948, -0.027675189077854156], [-0.16538342833518982, -0.004784350749105215, -0.12460216134786606, 0.02905874513089657, -0.03012409247457981, -0.0628848597407341, -0.14142978191375732, -0.1376233547925949, 0.21880513429641724, 0.021724727004766464, 0.0898176059126854, 0.001962577924132347, 0.17955350875854492, 0.0010479433694854379, -0.0801367312669754, 0.2013528048992157, -0.13010182976722717], [-0.10315057635307312, 0.06936675310134888, -0.10620249062776566, -0.14177767932415009, 0.15499961376190186, 0.17809098958969116, 0.021731270477175713, -0.022284366190433502, 0.09078498929738998, -0.021164556965231895, 0.002832384081557393, 0.10195145756006241, 0.09126345813274384, -0.1719827651977539, -0.04266579821705818, 0.12372849881649017, -0.05549060180783272], [-0.031855300068855286, -0.0778064876794815, 0.13183243572711945, 0.056704290211200714, -0.09628423303365707, 0.075861856341362, -0.02598331682384014, 0.1864354908466339, 0.20003341138362885, 0.08779037743806839, -0.17120876908302307, 0.116270050406456, -0.22239257395267487, 0.028934646397829056, 0.18405693769454956, 0.17071543633937836, -0.23534701764583588], [0.0441054105758667, 0.05576041340827942, -0.1090216338634491, 0.23119843006134033, 0.08053223788738251, -0.21609890460968018, -0.07526411861181259, -0.028286948800086975, 0.09999081492424011, -0.0993659570813179, 0.0934848040342331, -0.01705157943069935, 0.1319020539522171, -0.22181567549705505, 0.11306755989789963, 0.1155596449971199, 0.18282966315746307], [-0.0677553340792656, 0.12643499672412872, 0.06807131320238113, 0.008670901879668236, -0.1225065067410469, -0.15382076799869537, -0.07375644892454147, -0.0720793604850769, 0.050091926008462906, -0.2123577892780304, 0.10007057338953018, 0.010768350213766098, -0.16860699653625488, 0.025106919929385185, 0.06631896644830704, -0.012878955341875553, -0.038432199507951736], [0.014779635705053806, 0.22466352581977844, -0.22219717502593994, -0.0796482115983963, 0.04371931403875351, 0.1297970861196518, -0.10081074386835098, -0.03006972186267376, 0.12971803545951843, 0.06317800283432007, 0.1257145255804062, 0.06695877760648727, 0.07558371871709824, -0.0007422706112265587, 0.19131802022457123, 0.050731170922517776, 0.19393393397331238], [-0.02712678536772728, 0.03430699184536934, -0.18793192505836487, 0.005305103026330471, 0.0877498909831047, 0.03247620910406113, 0.10754245519638062, 0.12107823044061661, -0.19167225062847137, -0.07737361639738083, 0.18449747562408447, 0.09032215923070908, 0.0500522218644619, -0.08666256070137024, -0.15685364603996277, -0.07199116796255112, 0.14040328562259674], [0.1661975383758545, 0.08206318318843842, -0.10091768950223923, 0.23169435560703278, -0.16579632461071014, 0.19162915647029877, -0.19906194508075714, -0.23587897419929504, -0.15862998366355896, 0.024442799389362335, -0.0631474107503891, 0.0646742507815361, 0.006996564567089081, -0.12088755518198013, -0.02468942292034626, 0.19527022540569305, 0.07891250401735306], [0.09999968856573105, 0.07019159942865372, 0.1929728090763092, 0.16544200479984283, 0.001831375528126955, -0.08410651981830597, 0.054432086646556854, -0.1629302054643631, 0.16705040633678436, -0.03494500368833542, 0.24232444167137146, 0.043226469308137894, 0.030062003061175346, 0.00518863694742322, 0.004918970167636871, 0.05555424094200134, 0.06874172389507294], [0.04475146159529686, 0.07524584978818893, -0.004445817321538925, -0.10945754498243332, 0.09030142426490784, 0.07465597242116928, 0.0942678451538086, 0.1585361361503601, 0.14082807302474976, 0.0669194832444191, 0.0443689189851284, 0.23754607141017914, 0.19399988651275635, 0.179557666182518, -0.07559621334075928, -0.1449970155954361, -0.21308569610118866], [0.019302910193800926, -0.4068041443824768, 0.08927831798791885, 0.03908577933907509, 0.04471208527684212, -0.17377229034900665, 0.10208676010370255, -0.19697946310043335, 0.14407159388065338, 0.14569588005542755, -0.11384141445159912, 0.2549589276313782, -0.1719924658536911, -0.13327385485172272, -0.10176948457956314, 0.15806251764297485, 0.07052171230316162], [-0.07793924957513809, 0.22900496423244476, 0.20579497516155243, 0.10721427947282791, 0.07847228646278381, 0.1466393619775772, 0.2065339833498001, 0.11882828176021576, -0.22395163774490356, -0.11249671876430511, 0.06001109257340431, -0.10612840950489044, 0.023499971255660057, -0.03162708878517151, -0.12582264840602875, -0.08503364771604538, -0.24227336049079895], [-0.2249099314212799, 0.10657716542482376, -0.10796323418617249, -0.18252266943454742, 0.17628324031829834, -0.04521362483501434, -0.18918181955814362, 0.23835210502147675, -0.15476718544960022, 0.14974260330200195, 0.15558573603630066, -0.16348916292190552, -0.13812154531478882, 0.015594158321619034, 0.08836856484413147, 0.021397996693849564, 0.08567215502262115], [0.0769180953502655, 0.14412090182304382, -0.036430954933166504, 0.14631961286067963, 0.17002776265144348, 0.21499979496002197, -0.12151779234409332, 0.08871321380138397, -0.13919128477573395, 0.23037968575954437, 0.2046775370836258, 0.14470922946929932, -0.178636834025383, 0.2251962423324585, -0.06608520448207855, -0.17106401920318604, 0.06806236505508423]], "fc1.bias": [0.20857037603855133, 0.091872937977314, -0.012827174738049507, -0.08237162232398987, 0.02896803990006447, -0.029142526909708977, -0.0887591540813446, 0.0831899344921112, 0.15578465163707733, -0.033965613692998886, -0.23365378379821777, -0.1743549406528473, 0.09301596134901047, -0.16595323383808136, -0.19247281551361084, 0.11664190143346786, -0.10527866333723068, -0.03622289001941681, 0.1646912693977356, 0.05109064280986786, 0.12291643023490906, -0.06407420337200165, -0.22288446128368378, 0.04834800213575363, 0.07496611773967743, 0.13899105787277222, 0.04405796527862549, 0.015652619302272797, 0.08054462820291519, 0.10582631081342697, 0.2159876972436905, -0.22849544882774353, -0.15875396132469177, 0.12001723051071167, 0.23838818073272705, 0.2173031121492386, 0.0024634276051074266, -0.15866175293922424, -0.05805349349975586, 0.15228158235549927, -0.048033375293016434, 0.18908004462718964, 0.21621550619602203, 0.04558376222848892, 0.17781545221805573, 0.13684797286987305, -0.11564623564481735, 0.06419913470745087, 0.13204945623874664, 0.1977568119764328, 0.0689084604382515, -0.07662780582904816, -0.03523381054401398, -0.1026296392083168, -0.12123215943574905, -0.08402666449546814, 0.039931949228048325, 0.1251704841852188, 0.10724446922540665, -0.13632988929748535, 0.17334821820259094, 0.17225109040737152, -0.17512081563472748, 0.043294236063957214, 0.07034918665885925, 0.18808826804161072, 0.15766394138336182, -0.16007199883460999, 0.06724344938993454, -0.137778177857399, 0.06269866228103638, 0.08539792150259018, 0.04903186857700348, -0.0657963752746582, 0.1996665745973587, 0.052374619990587234, -0.0459725521504879, -0.049203839153051376, -0.19941312074661255, -0.12331574410200119, -0.11317182332277298, -0.016917366534471512, 0.17034921050071716, -0.20999595522880554, 0.04603484272956848, 0.2084326595067978, 0.08773200213909149, -0.09141062200069427, -0.05450711399316788, -0.1523473560810089, 0.15705506503582, 0.2234550416469574, 0.22514963150024414, -0.05943585932254791, -0.1336473971605301, -0.17719358205795288, -0.16594690084457397, -0.012752959504723549, -0.19406656920909882, -0.23315651714801788], "fc2.weight": [[0.0002444148121867329, -0.006866540294140577, -0.03148769214749336, -0.1067400723695755, 0.01514090783894062, -0.06058923155069351, 1.0834062099456787, -0.17486974596977234, -0.17609509825706482, 0.0883900448679924, -0.091420017182827, 0.008346903137862682, 0.07892314344644547, -0.03559226915240288, 0.0570310615003109, 0.3518492579460144, 0.09903214126825333, -1.0068376064300537, 0.03598197549581528, -0.15114063024520874, -0.010217797942459583, -0.07338351011276245, -0.024637697264552116, -0.1287234127521515, -0.07817298173904419, -0.051844522356987, -0.10163462162017822, -0.1581522822380066, -0.11756373196840286, -0.09119952470064163, 0.02344409190118313, -0.019976666197180748, -0.095439113676548, -0.03603772073984146, -0.0361737385392189, -0.07467885315418243, 0.8366226553916931, 1.074925184249878, -0.13032032549381256, 0.027490854263305664, -0.028829026967287064, 0.011902694590389729, -0.09508524090051651, -0.11053216457366943, -0.944006621837616, 0.004974395036697388, 0.0808045044541359, 0.05726995691657066, -0.0021938681602478027, 0.0009369373437948525, -0.05147535726428032, -0.032675851136446, -0.047186147421598434, -0.1430417150259018, -0.11743984371423721, 0.6848495602607727, -0.08039724826812744, -0.012979688122868538, -0.032817255705595016, -0.03785044699907303, -0.04332169517874718, 0.05083615705370903, -0.16332799196243286, 1.0429918766021729, -0.14611825346946716, 0.8614494800567627, -0.06201294809579849, -0.12976275384426117, -0.0740949809551239, 0.01151288766413927, -0.04908647760748863, -0.15978951752185822, 1.1018574237823486, -0.08910180628299713, 0.9729850888252258, 1.0129637718200684, -0.1720373034477234, 0.0062288763001561165, 0.007042451296001673, -0.14428013563156128, -0.17947126924991608, -0.09715795516967773, -0.025899022817611694, 0.05954351648688316, 1.083644151687622, -0.01523576956242323, -0.1713382452726364, -0.08096849173307419, -0.0035506163258105516, -0.054052527993917465, -0.0990997776389122, -0.06216017156839371, 0.01593431830406189, -0.08700110763311386, -0.009746191091835499, -0.07864823192358017, -0.977034330368042, -0.15852871537208557, 0.020172227174043655, -0.06891649216413498]], "fc2.bias": [-0.01934617944061756]}