{"fc1.weight": [[-0.023139385506510735, -0.16608476638793945, 0.06911290436983109, 0.03729681670665741, 0.18278317153453827, -0.08840916305780411, 0.1629185676574707, -0.09251121431589127, -0.18396997451782227, 0.10869845002889633, -0.08138254284858704, 0.21748217940330505, -0.14694257080554962, -0.038545187562704086, -0.14337871968746185, -0.3188173472881317, 0.01725061796605587], [-0.05336002632975578, 0.16968122124671936, 0.2125798612833023, -0.0516870878636837, -0.22275231778621674, 0.1122223436832428, -0.19324634969234467, 0.16397465765476227, -0.13784010708332062, 0.18358413875102997, -0.10373803228139877, 0.23520328104496002, 0.05117017775774002, -0.133940190076828, -0.1322517991065979, -0.09736594557762146, 0.13619108498096466], [0.1260497272014618, 0.012716797180473804, -0.19682157039642334, 0.19951264560222626, 0.08880382776260376, 0.18444222211837769, -0.13219279050827026, 0.16111111640930176, -0.0883573666214943, 0.03074110485613346, -0.24508889019489288, 0.11884545534849167, -0.08250582963228226, -0.09484776854515076, 0.11617516726255417, 0.049071647226810455, 0.046504002064466476], [-0.26413363218307495, -0.16409413516521454, -0.19444306194782257, 0.19441433250904083, 0.018717579543590546, 0.15092624723911285, 0.06431268155574799, 0.0736418291926384, -0.22151996195316315, 0.10279574245214462, -0.17834697663784027, -0.0840342715382576, 0.12337159365415573, 0.10034408420324326, 0.1872587502002716, -0.09619371592998505, 0.1864909827709198], [0.16118481755256653, 0.08082426339387894, 0.033074527978897095, -0.13824774324893951, 0.047723766416311264, 0.06916557997465134, 0.19145138561725616, 0.0035282087046653032, -0.0839468240737915, 0.037046123296022415, 0.13153523206710815, 0.16374801099300385, -0.06008656322956085, 0.13499024510383606, 0.03961877152323723, 0.07371271401643753, -0.13749082386493683], [-0.08438265323638916, -0.011056500487029552, 0.09115463495254517, -0.07342203706502914, -0.09930547326803207, 0.18244925141334534, -0.02965191937983036, 0.2510739266872406, -0.18743377923965454, 0.2484939694404602, -0.03142630681395531, -0.05868397653102875, -0.08033628761768341, 0.2184787541627884, -0.1671091616153717, 0.07959946244955063, 0.10189448297023773], [-0.35275429487228394, 0.03556153178215027, 0.2533871829509735, -0.13459165394306183, 0.028761936351656914, 0.2638362646102905, -0.11565816402435303, 0.04692584648728371, -0.16465100646018982, 0.1948934644460678, 0.11928251385688782, -0.03024301305413246, -0.22463944554328918, 0.17802080512046814, 0.19480177760124207, 0.18067334592342377, 0.10897171497344971], [-0.13875851035118103, 0.19009682536125183, -0.14627645909786224, 0.24878959357738495, -0.03840799629688263, -0.15380451083183289, 0.14444440603256226, 0.13645125925540924, -0.2519800364971161, 0.031605951488018036, -0.0182317066937685, 0.026365509256720543, -0.17395861446857452, -0.2403429001569748, -0.057852454483509064, -0.03443756327033043, -0.1738736629486084], [0.2990821301937103, -0.042865265160799026, -0.19377830624580383, 0.2130068689584732, -0.168504998087883, -0.07052043080329895, 0.15056870877742767, 0.07196943461894989, 0.13487587869167328, 0.07689642906188965, -0.19085469841957092, 0.1554432064294815, 0.046403948217630386, -0.15040789544582367, -0.010968262329697609, 0.2057003676891327, 0.19420282542705536], [0.10296565294265747, 0.10461486876010895, 0.1446751058101654, -0.14308448135852814, 0.09250178933143616, 0.03711971640586853, -0.14816759526729584, -0.1950787901878357, 0.19191905856132507, -0.13280685245990753, 0.02806089259684086, 0.11591073870658875, -0.1656942069530487, 0.21780353784561157, -0.07266830652952194, -0.07875444740056992, 0.017316637560725212], [-0.33969947695732117, 0.16582956910133362, -0.23064908385276794, -0.14085006713867188, -0.06784452497959137, 0.24636346101760864, -0.09717991203069687, -0.08447325974702835, 0.17415191233158112, 0.1499152034521103, 0.11465331166982651, 0.24042178690433502, -0.06941341608762741, 0.1412758082151413, -0.16021846234798431, 0.22126337885856628, 0.30241790413856506], [0.15329842269420624, 0.14803217351436615, 0.29596972465515137, -0.13797539472579956, 0.06987027078866959, -0.12619607150554657, -0.18697074055671692, -0.1516689956188202, 0.22238558530807495, 0.08404413610696793, 0.1931968480348587, 0.22358885407447815, -0.11054611951112747, -0.028986958786845207, -0.0048827724531292915, -0.1400352567434311, -0.02277463674545288], [0.2675788998603821, -0.18095897138118744, 0.11762849241495132, -0.004565808922052383, -0.18191754817962646, -0.00017677387222647667, -0.27451324462890625, 0.17878660559654236, 0.27952146530151367, -0.1518590748310089, -0.10233915597200394, 0.22831201553344727, -0.08667619526386261, -0.0853913351893425, 0.20182108879089355, 0.03135956823825836, -0.04684589058160782], [0.04602920264005661, -0.1156759187579155, 0.1363748461008072, -0.022715546190738678, -0.0012632680591195822, -0.27254030108451843, 0.018491044640541077, -0.18365798890590668, 0.18981321156024933, -0.052235402166843414, 0.11133334040641785, -0.07678605616092682, 0.05660240724682808, 0.07015297561883926, 0.0702323466539383, -0.005056094378232956, -0.1981021761894226], [0.1312151849269867, -0.03171830624341965, -0.16335469484329224, 0.17300502955913544, 0.20306514203548431, -0.1994144767522812, 0.04072638601064682, 0.07517439126968384, -0.1013462021946907, 0.16519609093666077, -0.0595817044377327, -0.027358632534742355, -0.23973767459392548, 0.06928461790084839, -0.06067129224538803, -0.17036595940589905, -0.12179975211620331], [0.10528521984815598, -0.02687019109725952, 0.24320396780967712, 0.1941620111465454, 0.0070827556774020195, 0.03208648040890694, 0.1278323084115982, 0.12020931392908096, 0.0162106491625309, 0.40944403409957886, 0.03003499284386635, -0.06789881736040115, -0.2186279147863388, -0.0031573809683322906, 0.2248810976743698, -0.2857883870601654, 0.2895023822784424], [0.09660135209560394, 0.1488945335149765, 0.25215932726860046, 0.14210158586502075, -0.14476172626018524, -0.0010426432127133012, -0.15160463750362396, 0.15931561589241028, -0.13371051847934723, -0.06494636088609695, -0.11002543568611145, 0.10539796203374863, 0.05453968793153763, 0.06379804760217667, -0.23150871694087982, 0.023547781631350517, -0.1353215128183365], [-0.2000429630279541, -0.19250154495239258, -0.06876634061336517, -0.01044430211186409, 0.10361085832118988, -0.06084012612700462, 0.011198516003787518, -0.020801344886422157, -0.22178639471530914, 0.08135562390089035, 0.07275862246751785, -0.21474826335906982, 0.0013008950045332313, -0.11631124466657639, -0.036870624870061874, 0.016511647030711174, -0.18175330758094788], [-0.10721305012702942, -0.15451397001743317, 0.16115668416023254, -0.005146239418536425, -0.052027903497219086, 0.26503804326057434, -0.13290853798389435, 0.13888053596019745, -0.16045323014259338, 0.02484547160565853, -0.021781112998723984, 0.20462153851985931, -0.05648497864603996, 0.23336172103881836, -0.07256433367729187, 0.14492063224315643, -0.042701587080955505], [0.11994428187608719, -0.024166766554117203, -0.023693379014730453, 0.27770963311195374, 0.1382770985364914, -0.09937790036201477, 0.12306820601224899, -0.2820543646812439, -0.21672490239143372, 0.011149442754685879, 0.14712679386138916, -0.12392918765544891, -0.24990853667259216, 0.1628948599100113, -0.11923468112945557, 0.08969746530056, 0.025492070242762566], [-0.11441966146230698, -0.19857947528362274, -0.12193145602941513, 0.006111519876867533, -0.02686365880072117, 0.24027235805988312, 0.22107864916324615, 0.25909799337387085, -0.014095793478190899, -0.04662104696035385, -0.19933974742889404, 0.09350605309009552, -0.15961520373821259, -0.19119606912136078, 0.16841568052768707, -0.015753023326396942, -0.18919622898101807], [-0.009481321088969707, -0.09876403212547302, 0.16712777316570282, 0.054003745317459106, -0.10565461218357086, -0.13616594672203064, -0.15561343729496002, -0.027642451226711273, -0.10393713414669037, 0.17702963948249817, 0.03799805790185928, 0.019337184727191925, 0.06521550565958023, 0.04058152809739113, 0.003501011524349451, -0.33252987265586853, -0.10739507526159286], [0.15543915331363678, -0.17419572174549103, 0.004551793914288282, 0.09859080612659454, 0.14234790205955505, 0.00958204548805952, -0.06110968440771103, -0.23342065513134003, -0.19163735210895538, -0.17484638094902039, -0.13714377582073212, 0.1785246729850769, -0.26308247447013855, 0.060239873826503754, -0.19163836538791656, -0.18735453486442566, 0.2363644540309906], [0.03706509992480278, 0.17110905051231384, -0.1477719098329544, 0.2247411459684372, -0.2403252124786377, -0.017572471871972084, 0.21754992008209229, -0.2222721427679062, -0.15076588094234467, 0.035974860191345215, 0.11395126581192017, 0.12334559112787247, 0.1135837733745575, -0.34048792719841003, 0.25976720452308655, -0.04004888981580734, -0.036091580986976624], [-0.07359755784273148, 0.042377907782793045, 0.0028403736650943756, 0.07012289762496948, -0.05115167051553726, -0.12965913116931915, -0.07701786607503891, 0.10385282337665558, -0.14059904217720032, 0.30973416566848755, 0.15386155247688293, 0.02279835008084774, -0.03434763476252556, -0.1754678189754486, 0.0981701910495758, 0.16732221841812134, -0.09336216002702713], [-0.013157792389392853, -0.056775256991386414, -0.18734315037727356, -0.1126457005739212, 0.05263599753379822, 0.16513726115226746, -0.20884807407855988, 0.07245861738920212, -0.11810767650604248, -0.05248737707734108, -0.13772986829280853, -0.08069218695163727, -0.07321766763925552, -0.28070899844169617, -0.04553522914648056, -0.0635867565870285, -0.25732868909835815], [-0.04684792831540108, -0.14074118435382843, 0.21287119388580322, -0.08215490728616714, 0.04781293496489525, -0.21374498307704926, -0.021763868629932404, -0.026229754090309143, -0.16089360415935516, -0.03905751183629036, 0.08206741511821747, 0.04104692488908768, 0.18810954689979553, 0.216413214802742, 0.07205390185117722, -0.14489434659481049, -0.2102857381105423], [0.10611887276172638, 0.004578511696308851, 0.08256228268146515, -0.10484283417463303, -0.1234036460518837, 0.0014018085785210133, -0.07575643062591553, -0.001307783299125731, 0.10849905014038086, -0.24069325625896454, 0.19452108442783356, 0.14850467443466187, 0.0016285204328596592, 0.1326422393321991, -0.06584841758012772, -0.2367512583732605, 0.16275283694267273], [-0.06523341685533524, 0.09242037683725357, 0.10422292351722717, -0.08639643341302872, -0.11825945973396301, 0.09779232740402222, 0.09048987179994583, 0.14925239980220795, -0.04944942146539688, -0.013402304612100124, -0.08846838027238846, 0.04419684410095215, -0.07136467099189758, -0.10442031174898148, -0.22584302723407745, 0.2370467185974121, 0.0030881112907081842], [0.162798672914505, -0.1107235923409462, 0.03980381786823273, 0.2620747685432434, 0.013160205446183681, -0.031667258590459824, -0.21437640488147736, -0.06574003398418427, -0.2701423466205597, 0.24044713377952576, 0.19225843250751495, 0.233242467045784, 0.15968555212020874, 0.3435524106025696, 0.07364258915185928, -0.05198127403855324, -0.1400117427110672], [0.02459539845585823, -0.01401867251843214, -0.004105912987142801, -0.16275225579738617, -0.12991338968276978, -0.22948503494262695, 0.06560537219047546, 0.08370798826217651, -0.17418895661830902, -0.11779585480690002, 0.06218127906322479, 0.05786190554499626, -0.04617713764309883, 0.07004470378160477, -0.2631833553314209, 0.04046519845724106, 0.029112324118614197], [-0.10913416743278503, -0.08938239514827728, 0.16322249174118042, -0.20275704562664032, 0.06277240812778473, 0.15238262712955475, 0.2256966531276703, -0.14930424094200134, -0.08072204142808914, 0.2827882170677185, 0.1460350900888443, -0.18252500891685486, 0.04441937804222107, 0.2765040099620819, -0.17299528419971466, -0.05577167123556137, -0.04539792239665985], [0.05193948745727539, 0.06605926156044006, 0.08620166033506393, 0.01547746080905199, -0.19502128660678864, 0.16165675222873688, -0.01407996192574501, 0.12016578018665314, 0.030808988958597183, 0.22276058793067932, -0.21245163679122925, 0.20670659840106964, -0.20455189049243927, 0.15295730531215668, -0.06201263144612312, 0.23305891454219818, -0.10077167302370071], [0.06816361844539642, 0.10872839391231537, 0.07547879219055176, -0.003393552266061306, -0.007851306349039078, -0.020785978063941002, -0.13631631433963776, -0.08563541620969772, 0.01857653632760048, 0.16772742569446564, 0.0659916028380394, 0.09193249046802521, 0.16017423570156097, 0.02752484381198883, -0.15273040533065796, 0.19529975950717926, 0.11327537894248962], [0.14144982397556305, -0.059365734457969666, -0.20934738218784332, -0.02130076289176941, 0.07493969798088074, -0.08390612155199051, -0.19167295098304749, 0.0009203627705574036, 0.09133583307266235, -0.1930467039346695, 0.2047136276960373, -0.06372213363647461, -0.13747796416282654, -0.09591720253229141, -0.20613449811935425, 0.14885693788528442, 0.0971151813864708], [0.04004213958978653, 0.1657964587211609, 0.000485807511722669, 0.05069608986377716, -0.2769222855567932, -0.11610250920057297, -0.11796777695417404, -0.2399480640888214, 0.02708388864994049, 0.011284111998975277, 0.25294673442840576, -0.13348324596881866, -0.07370233535766602, -0.03460650518536568, -0.2101336270570755, 0.2691502869129181, 0.03111211024224758], [0.13321775197982788, 0.19870661199092865, -0.24058623611927032, -0.08920219540596008, 0.17743970453739166, 0.11764490604400635, -0.2624691426753998, -0.23159487545490265, 0.14190705120563507, 0.13515183329582214, 0.182173952460289, -0.03702028468251228, -0.045901108533144, 0.26448214054107666, -0.027643542736768723, -0.0040562269277870655, -0.2708815336227417], [0.06926899403333664, 0.03514270856976509, -0.15759222209453583, -0.03179085627198219, -0.11285513639450073, -0.2368345558643341, -0.007334734313189983, -0.1750251203775406, -0.08712231367826462, 0.1194155365228653, -0.14310933649539948, 0.2457173466682434, -0.2795563042163849, 0.032561883330345154, 0.10922170430421829, -0.05014292895793915, 0.1436801552772522], [0.1105966717004776, -0.19831855595111847, -0.1847161054611206, -0.16815876960754395, -0.026764947921037674, -0.0514046810567379, -0.14585424959659576, 0.038049470633268356, -0.1645795702934265, 0.1075911745429039, -0.1309330314397812, 0.16081073880195618, 0.17647096514701843, -0.21469667553901672, 0.14542420208454132, 0.01891159452497959, 0.08317200839519501], [-0.2096438705921173, 0.26016929745674133, 0.16460800170898438, 0.04299243167042732, -0.15606379508972168, 0.08725891262292862, -0.05985102429986, -0.0769435316324234, -0.030461914837360382, -0.22349920868873596, -0.17775937914848328, 0.06975579261779785, -0.10211079567670822, -0.17174899578094482, 0.2611842453479767, 0.13915228843688965, 0.09147532284259796], [-0.059841498732566833, -0.0578729510307312, -0.058151353150606155, 0.09651853144168854, 0.22812135517597198, 0.038925401866436005, 0.02695534937083721, -0.04830243065953255, 0.16149567067623138, -0.16582836210727692, -0.026409480720758438, -0.14485277235507965, -0.06931948661804199, 0.06779830157756805, -0.22456546127796173, 0.08266589790582657, 0.2485775351524353], [0.11468704789876938, -0.17556771636009216, -0.018403979018330574, -0.2590422034263611, -0.18502475321292877, -0.11011125892400742, -0.024035941809415817, -0.0056931134313344955, -0.1123322993516922, -0.1893196403980255, -0.13478143513202667, 0.04156159609556198, -0.23307165503501892, -0.1389266401529312, 0.24294061958789825, -0.1685778647661209, 0.105690136551857], [0.04200102016329765, 0.2458876520395279, 0.2033820003271103, -0.21974729001522064, 0.006323613226413727, 0.21936501562595367, -0.2013460248708725, -0.1370035707950592, 0.13207706809043884, -0.13180944323539734, 0.13749991357326508, 0.007886141538619995, 0.19429129362106323, -0.1805163472890854, 0.10874158143997192, 0.09793604910373688, 0.12124188244342804], [-0.20024850964546204, 0.06513269990682602, 0.160726398229599, 0.28234943747520447, -0.083311527967453, -0.2200908660888672, -0.1562029868364334, 0.1180361658334732, 0.07153283059597015, 0.030120722949504852, -0.13641241192817688, 0.04711512103676796, 0.03304362669587135, 0.008202084340155125, 0.14980876445770264, -0.2368554025888443, -0.007881375961005688], [-0.15222570300102234, 0.15024305880069733, -0.08602958172559738, -0.09607981890439987, 0.026133034378290176, -0.13160492479801178, 0.06369971483945847, 0.05920138582587242, 0.190653994679451, 0.10247530788183212, 0.03136160597205162, 0.1528705656528473, -0.21233218908309937, 0.10824422538280487, -0.2139134407043457, 0.21690773963928223, 0.03602281212806702], [-0.045814353972673416, 0.0018017992842942476, 0.24035866558551788, 0.11831194907426834, 0.10724953562021255, -0.07402248680591583, -0.03565186634659767, -0.2974286377429962, 0.04344247654080391, 0.001774120144546032, -0.22979602217674255, 0.08889327198266983, 0.032621871680021286, 0.09401885420084, 0.07686199992895126, 0.06055615097284317, -0.22437936067581177], [-0.09906367212533951, -0.005477649625390768, -0.10896438360214233, 0.1865021288394928, -0.1425490379333496, -0.016271455213427544, 0.015589484944939613, -0.16727681457996368, 0.005394111853092909, -0.02113746479153633, -0.15594202280044556, 0.0427403450012207, -0.1952601969242096, -0.15926489233970642, -0.012634203769266605, -0.26343652606010437, -0.3291618525981903], [-0.044876016676425934, 0.18102671205997467, -0.18179062008857727, -0.0823826715350151, -0.1671924740076065, -0.00490523548796773, 0.03356030955910683, -0.26957806944847107, 0.08248292654752731, -0.08741383254528046, -0.2577517628669739, -0.02966996282339096, -0.011633796617388725, -0.07212445884943008, 0.005531551782041788, -0.0030000878032296896, 0.2418937385082245], [0.2122337818145752, 0.17331214249134064, -0.009944259189069271, 0.09005152434110641, 0.10203314572572708, 0.0014395337784662843, 0.002087055705487728, 0.24572475254535675, 0.19366927444934845, -0.0015757920918986201, 0.00394321046769619, 0.1408565789461136, -0.0057585230097174644, -0.12978412210941315, 0.1434716135263443, 0.1748628467321396, 0.07491205632686615], [0.12867267429828644, 0.006689420435577631, -0.011949848383665085, 0.10140316933393478, 0.004219527821987867, 0.01521977037191391, 0.06880223006010056, -0.1492278128862381, 0.1830708235502243, 0.18156246840953827, -0.2443741112947464, -0.10831201821565628, -0.14536601305007935, -0.12056200206279755, 0.006993117276579142, -0.14208810031414032, -0.17275504767894745], [0.07103704661130905, 0.14544667303562164, -0.2545919120311737, -0.08255474269390106, 0.08613389730453491, 0.23463074862957, 0.10052759200334549, -0.03529617562890053, -0.11218823492527008, 0.1961452215909958, 0.023384129628539085, 0.09690815210342407, 0.06510523706674576, 0.17556609213352203, 0.24956820905208588, -0.14313079416751862, 0.09833206236362457], [-0.08762528002262115, -0.14664186537265778, -0.0693407952785492, -0.17978030443191528, -0.06257855147123337, -0.13594843447208405, -0.19723466038703918, -0.15890564024448395, -0.1453843116760254, -0.04198781028389931, 0.1722809374332428, -0.10875431448221207, 0.09322482347488403, 0.061107948422431946, 0.014106514863669872, 0.22048388421535492, 0.16373106837272644], [0.2579762041568756, -0.13978606462478638, -0.20738892257213593, 0.12088904529809952, -0.046425752341747284, 0.12157855927944183, -0.03771042078733444, 0.22297903895378113, -0.06755184382200241, -0.2844735085964203, 0.06043737009167671, 0.10768360644578934, -0.08671187609434128, -0.0012065874179825187, -0.2209204137325287, -0.18681000173091888, 0.21443723142147064], [0.2108137458562851, 0.006972355302423239, -0.16396404802799225, -0.12475194782018661, -0.03086593747138977, 0.16945567727088928, -0.28357547521591187, -0.07332304120063782, 0.140391543507576, -0.13088664412498474, -0.027307191863656044, -0.05983279272913933, -0.18501436710357666, -0.02387499436736107, 0.21384304761886597, -0.06057494133710861, 0.2781331539154053], [0.14208532869815826, -0.26932981610298157, 0.18369776010513306, 0.02529071271419525, -0.11346831917762756, 0.17761042714118958, -0.18584319949150085, -0.15762995183467865, -0.08669345080852509, -0.1364729106426239, 0.007479954045265913, 0.18249721825122833, -0.17788001894950867, -0.2072332501411438, -0.013812342658638954, -0.021225297823548317, 0.02532326988875866], [-0.2225455343723297, -0.23266251385211945, 0.15722806751728058, 0.11281275749206543, -0.20333421230316162, -0.33381521701812744, 0.06783173978328705, 0.11335605382919312, 0.18665164709091187, 0.2803986668586731, 0.1431068778038025, 0.056343235075473785, 0.13471980392932892, 0.12261500954627991, -0.2266896814107895, -0.08314210921525955, 0.2211238145828247], [0.08882380276918411, 0.13075418770313263, -0.16566964983940125, -0.1801542043685913, 0.12718631327152252, 0.2070397436618805, 0.057002875953912735, -0.06768917292356491, 0.02568633109331131, -0.1964162290096283, 0.04354611784219742, 0.21214237809181213, 0.13885030150413513, -0.0069846296682953835, -0.126441091299057, 0.11293013393878937, 0.026227694004774094], [0.15685151517391205, 0.1951686143875122, -0.1723507195711136, -0.05187683925032616, 0.05002196133136749, -0.19026190042495728, -0.10191380977630615, 0.18571698665618896, 0.24777598679065704, 0.1105625182390213, 0.22158823907375336, -0.15583881735801697, -0.10239224880933762, 0.03398621082305908, 0.09124874323606491, -0.010285049676895142, -0.17095255851745605], [0.11530051380395889, 0.21503719687461853, 0.1327698826789856, -0.08738362789154053, -0.09464527666568756, -0.33567601442337036, 0.24350634217262268, 0.1845652461051941, 0.0235122162848711, 0.02154763601720333, 0.10600556433200836, 0.06089329719543457, -0.015435365960001945, 0.07549436390399933, 0.030020691454410553, -0.1866941899061203, 0.03266885131597519], [0.10544262826442719, -0.1829255372285843, 0.21504801511764526, 0.24615737795829773, -0.1477164477109909, -0.047621238976716995, 0.17756611108779907, 0.13638320565223694, -0.08355240523815155, 0.41464558243751526, 0.15093418955802917, 0.2505508065223694, -0.01174964476376772, 0.22138966619968414, -0.1338319033384323, 0.1963890641927719, 0.21002431213855743], [0.18799802660942078, -0.1665114164352417, 0.04013312980532646, -0.12833644449710846, -0.007640301715582609, 0.04987316578626633, 0.1806187927722931, -0.03017996996641159, 0.19717061519622803, 0.10610253363847733, -0.04278857260942459, -0.08883839845657349, 0.1279028207063675, 0.14846408367156982, 0.20867593586444855, 0.26575812697410583, -0.09452889859676361], [-0.14754170179367065, 0.1267331838607788, -0.08139997720718384, -0.11264916509389877, 0.2301938235759735, -0.253044068813324, -0.08954136073589325, 0.29175081849098206, -0.06310022622346878, -0.1246836856007576, -0.14082680642604828, 0.02299649454653263, -0.05246344953775406, -0.06567338109016418, 0.026995304971933365, -0.14935098588466644, -0.05786311998963356], [0.024024538695812225, -0.06705458462238312, -0.017133522778749466, -0.21344485878944397, 0.21321699023246765, -0.20217172801494598, 0.1022723987698555, -0.09736079722642899, -0.20326395332813263, -0.04643106833100319, 0.17356939613819122, 0.0012147852685302496, -0.23280853033065796, 0.15518005192279816, 0.09023577719926834, 0.14188270270824432, 0.017865750938653946], [-0.0903862938284874, 0.10233733057975769, 0.1606203317642212, 0.14787626266479492, 0.1490795910358429, 0.03506483510136604, -0.214608296751976, -0.07806194573640823, -0.11054573208093643, 0.10453663766384125, 0.06586921960115433, -0.1117781326174736, -0.1142360270023346, -0.16121605038642883, -0.1619323045015335, 0.20628896355628967, 0.20492176711559296], [-0.11066807061433792, -0.1256393939256668, -0.10277818888425827, 0.22212529182434082, -0.14076319336891174, -0.16464243829250336, 0.08014453947544098, -0.014010261744260788, -0.13663405179977417, -0.020562201738357544, 0.06363514065742493, -0.125656858086586, -0.23451454937458038, -0.0488424189388752, 0.09779553860425949, -0.22034640610218048, 0.12137874215841293], [0.14107662439346313, 0.22916853427886963, -0.14310160279273987, 0.21245653927326202, -0.1772124469280243, -0.12261289358139038, -0.21399517357349396, -0.11613872647285461, -0.10553159564733505, -0.21767574548721313, -0.26437559723854065, 0.1222071573138237, -0.18129698932170868, -0.3121907114982605, 0.09521620720624924, 0.1245005875825882, 0.009070372208952904], [0.18456974625587463, -0.3189775049686432, 0.10721426457166672, -0.14405570924282074, -0.027243725955486298, 0.2117738276720047, -0.12890219688415527, 0.16910837590694427, 0.012425389140844345, -0.03499964252114296, -0.2825563848018646, 0.07957050204277039, -0.14354349672794342, 0.0941920205950737, 0.10564647614955902, -0.1290799230337143, 0.18084415793418884], [0.13925544917583466, -0.031340669840574265, 0.16935373842716217, -0.05960683897137642, 0.09613654762506485, -0.006512175779789686, -0.030471589416265488, -0.017606575042009354, -0.24506354331970215, 0.13997729122638702, -0.0758732333779335, 0.18529272079467773, -0.022680044174194336, 0.017961591482162476, 0.0855138897895813, 0.2217855006456375, 0.14551851153373718], [0.08988403528928757, -0.0175778791308403, -0.14646971225738525, -0.18291914463043213, 0.02692478522658348, -0.09216176718473434, 0.0637589618563652, 0.05373677238821983, 0.022403908893465996, -0.2845253050327301, 0.10474145412445068, -0.1861526072025299, 0.23880688846111298, -0.01351973321288824, 0.14249993860721588, 0.12101668119430542, 0.07112528383731842], [0.19379614293575287, -0.10990417003631592, -0.059566084295511246, 0.2153056412935257, -0.27170783281326294, 0.2359718382358551, -0.0388793870806694, 0.20991182327270508, 0.07332784682512283, -0.2500641345977783, 0.09067849814891815, -0.01672593131661415, 0.20513080060482025, -0.0043883430771529675, -0.03619690611958504, -0.23060736060142517, 0.103278748691082], [0.10476504266262054, -0.021283285692334175, 0.12899330258369446, 0.17403748631477356, 0.06649379432201385, 0.053516287356615067, 0.0976596400141716, 0.03274714946746826, 0.08406972140073776, 0.03443372994661331, -0.09065237641334534, -0.1065634936094284, -0.07582911103963852, -0.12357518076896667, -0.04741235822439194, 0.05434449017047882, -0.013738543726503849], [-0.10555167496204376, -0.10446929931640625, 0.01768227107822895, 0.12225287407636642, 0.21551986038684845, 0.10724342614412308, 0.02884979359805584, -0.08324898779392242, 0.04474501684308052, 0.3042222559452057, 0.2145053744316101, 0.10948027670383453, 0.17850551009178162, 0.0310047697275877, 0.15309707820415497, 0.23446132242679596, 0.23246139287948608], [-0.04135160893201828, -0.0007367055513896048, 0.06472938507795334, 0.11159416288137436, -0.15623445808887482, -0.1004260927438736, 0.24633441865444183, 0.10668742656707764, -0.2769381105899811, 0.03430803120136261, -0.16430674493312836, 0.24140720069408417, -0.027401933446526527, -0.08782941102981567, -0.15063153207302094, -0.12810826301574707, 0.02724684588611126], [-0.04925454780459404, -0.03067740611732006, -0.027839360758662224, 0.13992591202259064, 0.11517855525016785, 0.14287260174751282, 0.01897134631872177, 0.10870935767889023, 0.018990304321050644, -0.11523164063692093, -0.01647351123392582, -0.047470662742853165, 0.20237275958061218, -0.1943889707326889, -0.1264936625957489, 0.2649608552455902, -0.16192036867141724], [0.1134384348988533, -0.05487101152539253, 0.12504763901233673, -0.1386280655860901, 0.05752306059002876, 0.28597983717918396, 0.0848785787820816, 0.21128687262535095, -0.08834078162908554, 0.15848305821418762, -0.2673070430755615, 0.10695769637823105, 0.2578635811805725, 0.12076283246278763, 0.16116222739219666, 0.23944441974163055, -0.1587325781583786], [-0.012693410739302635, -0.13910329341888428, 0.039569124579429626, -0.23434452712535858, -0.23893769085407257, 0.012811425141990185, 0.02528599090874195, 0.048094287514686584, 0.22446346282958984, -0.0711713433265686, 0.11988270282745361, -0.24219751358032227, -0.1102905124425888, -0.03588736429810524, 0.19464625418186188, 0.13192449510097504, -0.0787840411067009], [-0.032120201736688614, -0.07065241783857346, -0.14016321301460266, -0.17693601548671722, -0.016581779345870018, -0.07337356358766556, -0.2801470160484314, 0.0068946722894907, -0.1846688687801361, -0.14794811606407166, -0.17096702754497528, -0.1222599595785141, -0.14344675838947296, -0.26917800307273865, 0.1234830841422081, -0.16148005425930023, -0.10449644178152084], [-0.3009442090988159, -0.24654532968997955, -0.15558995306491852, -0.265625923871994, 0.059283070266246796, -0.13633064925670624, -0.14503832161426544, -0.010642864741384983, 0.03860827535390854, -0.0055718920193612576, 0.10289501398801804, 0.14644332230091095, -0.19127026200294495, 0.08336325734853745, -0.29120221734046936, 0.006348130758851767, -0.12212257087230682], [0.11643326282501221, -0.08491716533899307, -0.034335676580667496, -0.1745591014623642, -0.006036966107785702, -0.11180827766656876, 0.1645747870206833, -0.0343828909099102, 0.09788720309734344, 0.03703555092215538, -0.07278543710708618, -0.13730229437351227, 0.19970639050006866, 0.07420925796031952, -0.17872242629528046, -0.08774411678314209, -0.18575060367584229], [-0.2686842978000641, 0.14098496735095978, -0.12763431668281555, 0.15608614683151245, 0.08248639851808548, 0.18619681894779205, -0.19580839574337006, -0.018462756648659706, 0.028316056355834007, -0.046839240938425064, 0.01182689517736435, 0.03739716485142708, 0.09146399796009064, -0.17864100635051727, 0.11673087626695633, 0.22823119163513184, 0.1443580687046051], [-0.03717906400561333, 0.08314923942089081, 0.08126972615718842, -0.10542569309473038, 0.021298320963978767, -0.004320324398577213, -0.15433114767074585, -0.22745069861412048, -0.0425674207508564, -0.10122951865196228, 0.040196292102336884, -0.3733445405960083, 0.11896681040525436, -0.15143005549907684, -0.2727987468242645, 0.2067410945892334, 0.08154086023569107], [-0.001543101854622364, -0.10558503866195679, -0.08012565970420837, 0.15166215598583221, -0.06958076357841492, 0.13180594146251678, -0.15380218625068665, 0.24737019836902618, -0.21467319130897522, 0.16985253989696503, 0.08997149020433426, 0.052067775279283524, 0.0036290024872869253, 0.2733460068702698, 0.030812757089734077, -0.04639110714197159, -0.14260438084602356], [0.011851885356009007, -0.045264482498168945, -0.27209433913230896, 0.13067854940891266, -0.13075588643550873, 0.001385788433253765, 0.11569861322641373, -0.057878527790308, -0.2517537474632263, -0.12713855504989624, -0.15357112884521484, -0.08298327028751373, 0.12812796235084534, -0.007409017067402601, 0.23056010901927948, -0.15473805367946625, -0.2775554955005646], [-0.42247116565704346, -0.01776178367435932, 0.2064240723848343, -0.13222646713256836, 0.07753870636224747, 0.0960422232747078, 0.006736826617270708, -0.11299222707748413, -0.017120135948061943, 0.3201840817928314, 0.1053500846028328, -0.13328917324543, -0.07420743256807327, 0.04960017651319504, -0.10574246197938919, 0.06529153883457184, 0.3669434189796448], [0.0030378922820091248, -0.11412113904953003, 0.03656270354986191, 0.08407130837440491, 0.15688873827457428, 0.19759175181388855, -0.17628483474254608, -0.11035385727882385, 0.060030918568372726, 0.3073141872882843, 0.2550162374973297, 0.11459823697805405, 0.14530348777770996, 0.40000009536743164, 0.27880820631980896, -0.17650720477104187, -0.025138461962342262], [-0.21537108719348907, -0.05996272340416908, 0.19813430309295654, -0.11243166774511337, -0.00989814568310976, 0.3374463617801666, 0.12536443769931793, 0.1626879721879959, -0.1459072083234787, -0.04139431565999985, -0.016150960698723793, 0.05365137383341789, 0.012221794575452805, -0.035653043538331985, 0.26260602474212646, 0.02446480095386505, -0.05994712933897972], [0.017494846135377884, 0.031177565455436707, 0.04191216826438904, 0.14695145189762115, 0.14288978278636932, -0.17128770053386688, 0.11741045862436295, -0.2894929349422455, 0.21644197404384613, 0.0710747018456459, 0.03345681354403496, -0.1498415172100067, -0.10596716403961182, 0.2032204121351242, -0.1117456927895546, 0.2244853675365448, -0.08188722282648087], [-0.03165097162127495, -0.07406817376613617, 0.1621742844581604, 0.059859227389097214, -0.1838371902704239, -0.15030978620052338, 0.0638483315706253, 0.2067043036222458, 0.15947411954402924, -0.0804227739572525, -0.13189950585365295, 0.0314287506043911, 0.044294655323028564, 0.22455963492393494, 0.07708107680082321, 0.20184998214244843, -0.10013595968484879], [-0.3164460361003876, -0.20738977193832397, -0.0642499178647995, -0.1828983724117279, -0.15090155601501465, -0.2295854687690735, 0.02763470821082592, 0.1302221268415451, 0.10462233424186707, 0.11520268023014069, -0.20802882313728333, 0.04483399912714958, 0.2157324105501175, 0.3093452453613281, -0.2179655283689499, -0.13129165768623352, -0.2119615525007248], [-0.006573025602847338, -0.01535727083683014, 0.08946274220943451, 0.21544186770915985, -0.14336581528186798, 0.0925651416182518, -0.22875937819480896, 0.07817665487527847, -0.026692518964409828, -0.15255433320999146, -0.22361251711845398, -0.14879284799098969, 0.1823008954524994, -0.20443592965602875, 0.1492626965045929, -0.03052120842039585, -0.2594001293182373], [0.1035764291882515, -0.20736515522003174, -0.2234276384115219, 0.005956775508821011, 0.04354258254170418, -0.17391981184482574, -0.10123009979724884, -0.13278889656066895, 0.19275721907615662, 0.10917309671640396, -0.12169662117958069, 0.1882605105638504, -0.15308822691440582, -0.3334196209907532, -0.03692099452018738, 0.04379803687334061, -0.1937664896249771], [0.16801254451274872, 0.21949779987335205, -0.053602468222379684, 0.04205354303121567, 0.086860291659832, -0.06464053690433502, 0.045293401926755905, 0.03160325810313225, 0.11425076425075531, -0.17417682707309723, 0.04761892557144165, -0.24281375110149384, -0.25912389159202576, -0.11350195854902267, 0.03906375914812088, -0.2927921712398529, -0.14324000477790833], [0.29473522305488586, -0.12585851550102234, -0.18910281360149384, 0.0024121031165122986, -0.1724434792995453, 0.057326991111040115, -0.14530661702156067, 0.033119603991508484, 0.1271628588438034, 0.010113063268363476, 0.03646065294742584, 0.17980937659740448, 0.19783790409564972, -0.2537243366241455, 0.09130512177944183, 0.0688394084572792, 0.20659838616847992], [-0.025693649426102638, 0.01498094480484724, 0.21038225293159485, 0.1267288327217102, 0.11705101281404495, -0.003484383225440979, -0.041373997926712036, 0.12339986860752106, -0.24507418274879456, -0.12222804874181747, -0.19308505952358246, -0.002310734009370208, 0.09039007872343063, 0.03251982480287552, -0.20636677742004395, 0.05173616483807564, -0.05155106261372566], [0.13469795882701874, 0.19368605315685272, 0.25004133582115173, 0.0801292359828949, -0.1286226063966751, -0.07188910245895386, 0.20203863084316254, 0.2132466435432434, 0.10015598684549332, -0.3064138889312744, -0.2093835473060608, -0.032006360590457916, -0.27717074751853943, -0.12532910704612732, -0.007611402776092291, 0.012134731747210026, 0.18617480993270874], [0.10235125571489334, -0.012739937752485275, -0.1920299082994461, 0.12370706349611282, -0.10798685252666473, 0.11556410789489746, 0.16387298703193665, 0.15836787223815918, -0.10351866483688354, 0.13216184079647064, 0.13207978010177612, -0.028429297730326653, -0.14551816880702972, -0.28055110573768616, -0.22630484402179718, 0.23376095294952393, 0.1995840072631836], [-0.005012028850615025, 0.055080562829971313, 0.15011130273342133, 0.17645469307899475, -0.174446240067482, -0.2883985936641693, -0.005839013494551182, 0.058476246893405914, 0.2536819279193878, 0.019259411841630936, -0.16025477647781372, 0.10795912891626358, 0.08253423124551773, 0.10804922878742218, -0.05930755287408829, 0.20681029558181763, 0.107854925096035], [0.20563800632953644, -0.0973525121808052, -0.02274344675242901, 0.1092427670955658, 0.10575219243764877, -0.14467591047286987, 0.20161016285419464, 0.08905591070652008, 0.025396239012479782, -0.19014662504196167, -0.16870874166488647, 0.21651770174503326, -0.08077577501535416, -0.022007552906870842, 0.11590082198381424, 0.17440170049667358, 0.185618057847023], [-0.14779861271381378, -0.02821536362171173, -0.07890768349170685, -0.026948314160108566, 0.14608034491539001, 0.005212822463363409, 0.1818418949842453, 0.1681753545999527, -0.26395267248153687, 0.08210831135511398, -0.01978486031293869, -0.2408602237701416, 0.011916177347302437, 0.2972642481327057, -0.09904588758945465, 0.007383665535598993, -0.06591098755598068], [-0.0557221993803978, 0.11101230978965759, 0.08507011085748672, -0.19787035882472992, -0.12407645583152771, 0.2729857861995697, -0.0011467714793980122, 0.2140195369720459, -0.019314663484692574, 0.14372500777244568, 0.09664665162563324, -0.23450224101543427, -0.16944609582424164, -0.09765855222940445, 0.11937099695205688, -0.1974983513355255, 0.21473927795886993], [-0.03447384759783745, 0.18795858323574066, 0.25756633281707764, 0.011869457550346851, 0.176578551530838, 0.16277700662612915, 0.030334580689668655, -0.24963359534740448, 0.08426272124052048, 0.17521575093269348, 0.0362035296857357, -0.03478934243321419, 0.05302663892507553, 0.13157466053962708, 0.0645480751991272, 0.13230659067630768, 0.1814747154712677], [0.24978791177272797, 0.20471112430095673, -0.13802415132522583, -0.01197330467402935, 0.11817388981580734, -0.15401554107666016, 0.07722111791372299, 0.024778790771961212, -0.2640208899974823, 0.1972014456987381, -0.021087635308504105, 0.028453614562749863, 0.04330338537693024, -0.16497887670993805, -0.0027486986946314573, 0.051847659051418304, -0.3392429053783417], [-0.11126267164945602, 0.1786029040813446, -0.06631235033273697, 0.19277851283550262, 0.19819556176662445, 0.2919686734676361, -0.20444224774837494, -0.09633428603410721, 0.23157081007957458, 0.16044895350933075, 0.07934290170669556, -0.24019047617912292, -0.09664718061685562, -0.23816534876823425, 0.21962085366249084, -0.022138044238090515, -0.0007445990340784192], [0.08595214784145355, 0.11039144545793533, -0.13406619429588318, 0.2304888665676117, -0.10603606700897217, -0.17283910512924194, 0.01389202568680048, 0.20178379118442535, -0.14111462235450745, 0.2874028980731964, 0.22735336422920227, 0.24835661053657532, 0.05995262414216995, 0.1367007941007614, -0.16947591304779053, -0.11030609905719757, -0.058712780475616455], [-0.23548628389835358, 0.09449708461761475, 0.014909998513758183, -0.03347088024020195, 0.10280266404151917, -0.026572590693831444, 0.22136151790618896, 0.22538742423057556, 0.06422027200460434, -0.09490682929754257, -0.09298532456159592, 0.058333683758974075, -0.20304274559020996, -0.18751823902130127, -0.15982092916965485, -0.26312974095344543, 0.24626626074314117], [0.15380235016345978, -0.03604409098625183, -0.03890880569815636, 0.16977421939373016, -0.1514068841934204, -0.12045174837112427, 0.14885364472866058, -0.04116396978497505, -0.04543357342481613, 0.1548643559217453, -0.21263757348060608, -0.19680948555469513, -0.18074864149093628, 0.03528084233403206, -0.007710165809839964, -0.20146878063678741, 0.053039371967315674], [-0.08905379474163055, 0.23516370356082916, -0.01990940049290657, -0.07766962796449661, 0.22672788798809052, -0.11144127696752548, -0.23209264874458313, 0.10297001898288727, 0.1474980264902115, -0.03973720595240593, 0.0595535933971405, 0.15044692158699036, -0.1333789974451065, 0.04836024343967438, 0.05068695545196533, -0.023791028186678886, -0.14998027682304382], [0.17197677493095398, 0.1767081767320633, -0.08610756695270538, 0.046140406280756, 0.01650378666818142, -0.06510965526103973, 0.0027891278732568026, -0.1187211275100708, 0.07763906568288803, -0.1347486674785614, 0.2610754072666168, -0.17764729261398315, 0.16583777964115143, 0.13736972212791443, -0.07979419082403183, -0.19671198725700378, -0.12548679113388062], [0.20858004689216614, 0.16599692404270172, 0.04185476526618004, -0.0860191360116005, -0.003404363989830017, 0.13235294818878174, -0.03666902706027031, 0.10099059343338013, 0.14879414439201355, -0.10530918836593628, 0.15670979022979736, -0.20481251180171967, -0.06813839077949524, 0.14093776047229767, -0.15493938326835632, 0.2508799135684967, -0.0846206396818161], [-0.5424492955207825, 0.14658375084400177, -0.029539477080106735, -0.007228391710668802, 0.09721996635198593, 0.1012958213686943, -0.09945893287658691, 0.062157340347766876, -0.0512390211224556, 0.29042571783065796, -0.11887452751398087, -0.020626269280910492, 0.14177200198173523, 0.23097027838230133, -0.008301762863993645, -0.04644326865673065, 0.1716364622116089], [0.08160407841205597, -0.12355029582977295, 0.012321505695581436, 0.07808490097522736, 0.16802814602851868, -0.05107320845127106, -0.09719851613044739, 0.10727061331272125, 0.23012316226959229, -0.16150930523872375, 0.02754855528473854, 0.15452396869659424, -0.13075946271419525, -0.3194412589073181, 0.060188401490449905, 0.1210431382060051, 0.06948594748973846], [-0.4110109806060791, -0.01762845180928707, -0.16097313165664673, -0.16511136293411255, 0.06092122569680214, -0.05547499284148216, -0.020967669785022736, -0.06599526852369308, 0.09698367863893509, -0.1280871033668518, -0.13813985884189606, 0.21769265830516815, 0.04106602072715759, 0.3698585331439972, 0.12755250930786133, 0.07136174291372299, 0.23242680728435516], [-0.2654164731502533, 0.051717359572649, -0.18850091099739075, 0.10760142654180527, 0.22268398106098175, 0.13830843567848206, 0.12233520299196243, 0.16523794829845428, 0.07547322660684586, 0.09485474973917007, 0.18432074785232544, 0.02067418023943901, -0.2198742777109146, 0.3495185673236847, 0.19698411226272583, -0.053083911538124084, 0.10451917350292206], [0.09117035567760468, -0.0775836780667305, -0.07683423906564713, 0.1484709084033966, 0.035738714039325714, 0.0293663889169693, 0.11484892666339874, 0.17665475606918335, 0.15526193380355835, 0.15533648431301117, -0.1616084724664688, 0.15392623841762543, -0.0937541276216507, 0.2350786030292511, -0.1962902694940567, -0.276358038187027, -0.2506323754787445], [-0.08851202577352524, 0.16349856555461884, -0.1497243344783783, 0.09828390926122665, -0.12962213158607483, -0.0023253746330738068, 0.14091911911964417, 0.10572949796915054, 0.18041245639324188, 0.3761714994907379, 0.14187239110469818, -0.07103501260280609, 0.24089188873767853, 0.055933836847543716, 0.10297692567110062, -0.2692650854587555, 0.09885278344154358], [0.21085843443870544, -0.06350291520357132, -0.11974205821752548, 0.2158433049917221, 0.057134971022605896, 0.05717333406209946, 0.184700146317482, 0.02027249149978161, 0.11579902470111847, -0.21539831161499023, 0.12362518161535263, -0.03292124345898628, -0.2474718540906906, -0.10218477994203568, -0.10303835570812225, -0.26338741183280945, 0.28118667006492615], [0.000757840636651963, -0.053683988749980927, -0.17109315097332, 0.2826152741909027, -0.017941344529390335, 0.05961361154913902, 0.032735489308834076, -0.14501284062862396, 0.05832253023982048, -0.1501544564962387, -0.043866392225027084, 0.08171438425779343, 0.050991371273994446, -0.34186819195747375, -0.1031796932220459, -0.22335319221019745, 0.18648512661457062], [0.1884453147649765, -0.17962469160556793, -0.17193500697612762, -0.04697507247328758, 0.18042033910751343, 0.15735866129398346, 0.12638962268829346, 0.11092225462198257, 0.11035432666540146, -0.49218249320983887, 0.09618481993675232, 0.2719112038612366, 0.01805325597524643, -0.31111666560173035, 0.06103789806365967, 0.23268644511699677, -0.2805384695529938], [-0.25855666399002075, 0.12045150250196457, -0.03139489144086838, -0.25296321511268616, 0.20041890442371368, -0.0752996951341629, 0.2773290276527405, 0.1758989691734314, 0.12875644862651825, 0.16007675230503082, 0.2703567147254944, -0.07531659305095673, 0.0969267189502716, -0.3523469567298889, -0.07031325250864029, 0.0895015224814415, 0.19714178144931793], [-0.16496726870536804, -0.0897085890173912, -0.14803984761238098, 0.03485164791345596, 0.1075270026922226, 0.15736453235149384, 0.08191422373056412, -0.10174354910850525, 0.1574186235666275, 0.07009275257587433, -0.12183447182178497, 0.13706247508525848, -0.20654836297035217, -0.26619604229927063, -0.08144395798444748, -0.19130584597587585, 0.08828593790531158], [-0.1559363752603531, -0.0006957181612960994, -0.1599707156419754, 0.18381614983081818, -0.16195140779018402, -0.031681060791015625, 0.12101448327302933, -0.0498829111456871, -0.2540961802005768, 0.012170503847301006, -0.09586545825004578, -0.22087471187114716, -0.1767079085111618, 0.2741958200931549, -0.20382152497768402, -0.040205638855695724, -0.1985730230808258], [0.06893400847911835, 0.052403513342142105, -0.13654044270515442, -0.05260875076055527, 0.04023973271250725, 0.1296079158782959, -0.14179979264736176, -0.06619341671466827, -0.06334194540977478, 0.208884134888649, -0.20879237353801727, 0.07661931961774826, -0.12344875931739807, -0.0011091988999396563, 0.236649289727211, 0.0106240538880229, 0.1148822009563446], [-0.1763894259929657, -0.022966060787439346, 0.09176596254110336, -0.08905435353517532, -0.07813934981822968, 0.16904139518737793, -0.20922353863716125, -0.15154267847537994, 0.04320618510246277, -0.04742774739861488, 0.03338780626654625, 0.08542893081903458, -0.18985560536384583, 0.24022513628005981, -0.179535910487175, -0.023721134290099144, 0.30549731850624084], [-0.10964976996183395, 0.21081148087978363, 0.19713757932186127, 0.1343100219964981, 0.1673172265291214, -0.18221329152584076, -0.13764356076717377, -0.25083184242248535, -0.13891810178756714, -0.21763204038143158, -0.06835564225912094, -0.07583180069923401, -0.026631448417901993, -0.266039103269577, 0.005989279132336378, 0.15236251056194305, -0.1275385618209839], [-0.015573815442621708, -0.019583677873015404, 0.019648078829050064, 0.15193983912467957, -0.01771167851984501, -0.19013991951942444, 0.1165972352027893, 0.19754020869731903, 0.21044112741947174, 0.2083706110715866, 0.06867751479148865, -0.07479648292064667, -0.04916693642735481, 0.13724982738494873, 0.10641427338123322, -0.20006558299064636, -0.06319902092218399], [0.05532949045300484, -0.1719854176044464, -0.05644674599170685, -0.15952631831169128, 0.19084882736206055, -0.03703466057777405, -0.19084399938583374, 0.06422831118106842, -0.10588143020868301, 0.14573505520820618, -0.07042168825864792, 0.05859200656414032, 0.13308396935462952, -0.11109840869903564, 0.04949777200818062, -0.22590012848377228, -0.18424203991889954], [-0.08232352137565613, -0.1438809633255005, 0.19397132098674774, -0.2544862926006317, 0.1322779357433319, -0.09183187037706375, -0.1267687976360321, -0.12881101667881012, -0.29443106055259705, -0.018259475007653236, -0.19077442586421967, -0.21621473133563995, -0.19635674357414246, -0.19648200273513794, 0.0664624571800232, -0.012773027643561363, 0.10903944075107574], [-0.017181508243083954, 0.11091979593038559, -0.12628908455371857, -0.022376324981451035, -0.16560877859592438, -0.04859429597854614, -0.1352900266647339, -0.08426494896411896, 0.08528416603803635, 0.16629871726036072, -0.23490136861801147, 0.17366722226142883, -0.06929421424865723, -0.01361603569239378, -0.07528579235076904, 0.07982026785612106, -0.2412523776292801]], "fc1.bias": [0.14721284806728363, -0.07307478785514832, 0.04650184139609337, 0.03760838136076927, -0.2673511803150177, -0.16033871471881866, 0.049414921551942825, 0.04475650191307068, -0.20512992143630981, -0.25416815280914307, 0.2169978767633438, -0.1850578635931015, -0.10472354292869568, 0.14421702921390533, -0.11228132247924805, -0.007216484751552343, 0.11520610749721527, -0.11800079792737961, 0.24484631419181824, 0.01776161417365074, 0.113338403403759, 0.06244363635778427, 0.17839477956295013, 0.17855516076087952, -0.011138190515339375, -0.011423861607909203, -0.12808603048324585, 0.19782771170139313, -0.21931448578834534, -0.23642340302467346, -0.030290359631180763, -0.10432212054729462, -0.2037878781557083, 0.007969212718307972, -0.14676107466220856, -0.003581930184736848, -0.08567240834236145, -0.2576795518398285, 0.13198503851890564, -0.174764946103096, -0.14230716228485107, 0.04171553626656532, 0.028457827866077423, 0.21842850744724274, 0.20373046398162842, 0.15793509781360626, -0.028123626485466957, -0.1410163789987564, 0.10838201642036438, 0.08599836379289627, -0.04829242452979088, -0.18607041239738464, -0.008846252225339413, -0.24531672894954681, 0.21241533756256104, -0.21729755401611328, 0.20598922669887543, 0.010024444200098515, 0.033910591155290604, -0.22659099102020264, -0.2058454006910324, 0.06522347778081894, -0.15318290889263153, -0.0732421875, -0.16669249534606934, -0.06126122549176216, 0.016559742391109467, 0.07650701701641083, -0.10259003937244415, 0.020720522850751877, 0.23601049184799194, -0.2005491405725479, 0.06599631905555725, -0.006207202561199665, 0.10889234393835068, -0.23109592497348785, 0.1271616667509079, -0.2315281331539154, 0.0162354689091444, 0.0016763702733442187, 0.11958929896354675, 0.023244505748152733, 0.08403965085744858, -0.23031467199325562, 0.034360066056251526, 0.21336260437965393, -0.18834596872329712, -0.09439803659915924, -0.19485105574131012, -0.05235099047422409, -0.08012742549180984, 0.15630239248275757, 0.11826595664024353, -0.12083929777145386, -0.09051521122455597, 0.20095570385456085, -0.1431722491979599, -0.09117991477251053, 0.18150942027568817, -0.2075425088405609, -0.07335551828145981, 0.20590807497501373, 0.15073399245738983, 0.08580870181322098, -0.02875801920890808, 0.16454263031482697, 0.10264000296592712, -0.22241753339767456, 0.07406716048717499, 0.032596465200185776, 0.04533698037266731, 0.1721114218235016, 0.06911278516054153, -0.07384607940912247, -0.06851357221603394, -0.14007426798343658, 0.09355009347200394, -0.057297855615615845, -0.07781461626291275, -0.03670519217848778, 0.08061885833740234, 0.1391209214925766, 0.04750628024339676, 0.19079336524009705, -0.15959885716438293, -0.041545312851667404, -0.08208579570055008, -0.04982881247997284], "bn1.weight": [0.9548816680908203, 0.9729514718055725, 1.0291030406951904, 1.0105321407318115, 1.0612530708312988, 1.022017478942871, 0.9940855503082275, 1.0082924365997314, 0.9904804825782776, 1.003740906715393, 1.1044799089431763, 1.013930082321167, 1.0073426961898804, 1.0031083822250366, 0.9809375405311584, 1.0172470808029175, 0.96373450756073, 0.9345707297325134, 0.9995678067207336, 0.9419914484024048, 0.9605459570884705, 0.9649710655212402, 0.9678530097007751, 0.9567609429359436, 1.0021990537643433, 0.9880478382110596, 1.010862112045288, 0.9669766426086426, 1.0575602054595947, 0.9138593673706055, 1.0226473808288574, 0.9724377989768982, 0.9848164319992065, 1.0246033668518066, 1.0459016561508179, 1.0834174156188965, 1.1037898063659668, 0.9781703948974609, 0.9633608460426331, 1.015271782875061, 0.992024302482605, 0.9995678663253784, 0.9566624164581299, 0.9880593419075012, 1.0078963041305542, 1.0305041074752808, 0.9724804162979126, 0.9668985605239868, 0.965264618396759, 0.9614821076393127, 1.0557944774627686, 0.9992225766181946, 0.9882603287696838, 1.000820279121399, 0.9829143285751343, 0.9794018268585205, 0.9347137212753296, 0.9360391497612, 0.938689112663269, 0.9944420456886292, 0.9786187410354614, 0.986040472984314, 0.9566291570663452, 1.0530407428741455, 0.9637183547019958, 0.9963394999504089, 0.9690832495689392, 0.945807695388794, 0.9941331148147583, 0.9770652651786804, 0.9884835481643677, 1.0305951833724976, 0.9863369464874268, 0.9690735340118408, 1.0090242624282837, 0.9745632410049438, 0.9819861054420471, 0.9847331047058105, 1.104574203491211, 0.9227733016014099, 1.1515928506851196, 0.9853809475898743, 0.950223445892334, 0.9829773902893066, 1.1285501718521118, 1.0177853107452393, 1.038299798965454, 0.9589037895202637, 0.9902731776237488, 0.9779669046401978, 0.9871580004692078, 0.9846939444541931, 1.0213218927383423, 0.9840970635414124, 1.1076531410217285, 0.9736292362213135, 0.9620002508163452, 0.9605363607406616, 0.9430387020111084, 0.9818715453147888, 1.012819528579712, 1.0557935237884521, 1.019208550453186, 0.9877182841300964, 0.9817180633544922, 0.9741763472557068, 0.9584870338439941, 1.0338382720947266, 0.945100724697113, 1.1191530227661133, 0.9357073307037354, 1.0626044273376465, 0.9407016038894653, 0.9826833605766296, 1.0030699968338013, 1.0135350227355957, 0.9740108847618103, 1.0493309497833252, 1.0331330299377441, 0.9644665122032166, 0.9577009677886963, 1.0090488195419312, 0.9602246284484863, 1.0336263179779053, 1.037825584411621, 0.9782508015632629, 0.9593284130096436, 0.9354236125946045], "bn1.bias": [-0.009934363886713982, -0.004649753216654062, 0.04745274409651756, -0.008432609960436821, -0.005515287164598703, -0.015496453270316124, -0.13565237820148468, -0.02217201702296734, -0.006155332084745169, 0.0317983441054821, 0.007785613648593426, -0.059932123869657516, -0.05327315628528595, 0.11875137686729431, 0.12238869071006775, 0.03635866194963455, -0.06886573880910873, 0.0025766324251890182, -0.02773424983024597, -0.011243387125432491, 0.030108798295259476, 0.21586599946022034, -0.05154682695865631, 0.016677528619766235, 0.027555104345083237, 0.04815192520618439, -0.18736518919467926, -0.03326808288693428, 0.05513631924986839, -0.03242875263094902, -0.08523079007863998, -0.006210088264197111, 0.05759454146027565, -0.17103584110736847, 0.051871735602617264, 0.005027757957577705, 0.10765673965215683, -0.15918080508708954, -0.0033577957656234503, -0.07639867812395096, 0.023276984691619873, 0.09492809325456619, -0.0221044160425663, -0.03888580575585365, -0.02272743731737137, 0.11431236565113068, -0.15017007291316986, 0.08613628894090652, -0.015937207266688347, 0.037503667175769806, -0.08977214992046356, -0.002452967455610633, 0.018420275300741196, 0.0029936512000858784, -0.007413754239678383, -0.13538169860839844, -0.03050137683749199, 0.06623394042253494, -0.1860669106245041, -0.04583139717578888, -0.1607990264892578, -0.07378721982240677, -0.03740276023745537, -0.20296816527843475, 0.17528313398361206, 0.03937185928225517, -0.07789814472198486, 0.00041476261685602367, -0.02600286155939102, -0.16481120884418488, -0.026711558923125267, 0.09426538646221161, -0.03360849991440773, 0.002499700989574194, -0.09005787968635559, 0.000467125530121848, -0.03666909411549568, -0.034240227192640305, -0.04914487525820732, -0.08255162835121155, -0.20238208770751953, 0.04148709774017334, 0.06003762036561966, -0.06983787566423416, 0.030539460480213165, -0.09201075881719589, 0.11580633372068405, -0.08009063452482224, -0.09644663333892822, -0.015652988106012344, -0.03598692640662193, -0.05517440661787987, -0.05306003987789154, 0.006282263435423374, 0.025037063285708427, 0.054406579583883286, -0.08463352173566818, 0.009471149183809757, 0.0331207737326622, -0.08354070037603378, 0.029434390366077423, -0.03146611899137497, -0.0036751683801412582, 0.013374313712120056, 0.025448882952332497, 0.04253021627664566, 0.030058542266488075, 0.03794606029987335, -0.03174544498324394, -0.04300706461071968, -0.016220785677433014, 0.0025075539015233517, -0.1454634815454483, 0.14768090844154358, -0.08489826321601868, -0.04022303596138954, -0.047158487141132355, -0.08858150988817215, 0.024133160710334778, -0.06475257873535156, 0.052443042397499084, 0.0663905143737793, 0.0034683088306337595, -0.004670553840696812, -0.12635821104049683, 0.13156868517398834, -0.04768016189336777, -0.06680788844823837], "bn1.running_mean": [-132.13397216796875, -129.89637756347656, -85.7260971069336, -133.2735595703125, 128.7858428955078, -115.99217987060547, 5.2634358406066895, -132.9632110595703, 52.74517059326172, 21.424041748046875, -65.60936737060547, 125.56417083740234, 33.51754379272461, 128.75308227539062, -112.82929229736328, 55.72529220581055, -60.80781173706055, -94.74821472167969, -72.66222381591797, -15.092345237731934, -70.78060913085938, -114.22706604003906, -209.9482879638672, 61.88994216918945, 26.37529182434082, -204.95614624023438, 42.44129943847656, -5.421441078186035, -26.33272933959961, 14.078152656555176, -106.42061614990234, 37.79243850708008, -56.52663040161133, 79.56050109863281, -40.19773864746094, -11.776134490966797, 16.04789924621582, -162.37527465820312, -78.84123992919922, 3.7352662086486816, 8.41938304901123, -162.3062286376953, 193.8905029296875, -62.441654205322266, -1.4825801849365234, 61.3996696472168, -226.1772918701172, -119.29901123046875, 216.86021423339844, -51.543697357177734, 30.959142684936523, -37.39469528198242, -152.52981567382812, -68.6028060913086, -103.96756744384766, -11.111187934875488, 82.39974975585938, 102.74694061279297, 108.48208618164062, 105.28738403320312, 243.4194793701172, -85.80429077148438, 50.354774475097656, -11.201933860778809, -177.7491455078125, -155.93560791015625, -121.97901916503906, 71.0486831665039, 145.65821838378906, -30.506614685058594, 69.96979522705078, 239.4008331298828, -138.59548950195312, 103.72364044189453, 157.5089111328125, 64.86251831054688, -261.7972106933594, -224.6770782470703, 22.22307777404785, 31.864652633666992, -15.919768333435059, -107.10232543945312, -123.74357604980469, -20.992431640625, 131.75552368164062, 68.63702392578125, 133.75563049316406, 91.08623504638672, -180.39401245117188, -55.27435302734375, -91.92577362060547, -19.26268768310547, 48.349849700927734, -49.15785598754883, 37.106571197509766, -36.605892181396484, 88.84196472167969, 119.90965270996094, -61.15269470214844, -55.122222900390625, 212.10545349121094, 34.656776428222656, 78.17121124267578, -39.31022262573242, -101.43626403808594, -149.24365234375, 33.624698638916016, 83.46315002441406, 132.2569122314453, -103.98975372314453, 103.58505249023438, -54.5875358581543, 48.68165969848633, -102.420654296875, 72.41934967041016, -28.34519386291504, -101.2686767578125, 180.29502868652344, 200.2133026123047, -136.26632690429688, -267.7946472167969, -79.73237609863281, -161.5895538330078, 35.650489807128906, 64.57322692871094, -79.34896087646484, -155.28758239746094, -145.0364990234375], "bn1.running_var": [376.3345947265625, 116.60538482666016, 213.79006958007812, 192.63075256347656, 127.8729019165039, 108.95748901367188, 136.89317321777344, 101.0546646118164, 85.32494354248047, 93.10901641845703, 80.80303192138672, 276.4574279785156, 98.66439056396484, 123.75405883789062, 262.6717834472656, 99.67264556884766, 55.94476318359375, 86.05870819091797, 94.27943420410156, 47.81917190551758, 121.8746337890625, 199.3773193359375, 762.3814086914062, 82.41575622558594, 44.00215530395508, 409.1380920410156, 26.50724983215332, 65.71317291259766, 24.008209228515625, 105.82786560058594, 116.3681869506836, 102.02070617675781, 51.77669906616211, 100.73853302001953, 90.99478149414062, 40.176021575927734, 37.34247589111328, 311.36468505859375, 237.67691040039062, 128.3621063232422, 29.003225326538086, 461.4937438964844, 616.2910766601562, 32.14789962768555, 69.56975555419922, 118.30439758300781, 449.3671569824219, 70.76361846923828, 315.9850769042969, 69.50345611572266, 26.643165588378906, 72.55802917480469, 698.309326171875, 133.38121032714844, 346.64410400390625, 47.927711486816406, 122.9451904296875, 111.85002899169922, 193.23501586914062, 62.208831787109375, 360.4854431152344, 45.08309555053711, 43.268455505371094, 38.50845718383789, 411.06903076171875, 259.10589599609375, 470.05938720703125, 29.711137771606445, 207.25819396972656, 215.84646606445312, 26.39276123046875, 474.74200439453125, 239.17352294921875, 150.79624938964844, 182.22837829589844, 109.49658966064453, 633.728759765625, 389.4698181152344, 17.214664459228516, 150.4054718017578, 114.51420593261719, 300.2178955078125, 241.7963409423828, 128.50396728515625, 99.29103088378906, 116.22373962402344, 263.4111022949219, 84.076416015625, 210.67507934570312, 88.09488677978516, 256.98028564453125, 54.87166213989258, 99.52722930908203, 28.104736328125, 42.434383392333984, 104.315185546875, 110.8299560546875, 29.32152557373047, 24.72377586364746, 58.324066162109375, 743.6536254882812, 15.320683479309082, 193.07810974121094, 148.1929473876953, 96.79326629638672, 341.1457214355469, 119.61425018310547, 82.65324401855469, 194.392822265625, 67.98771667480469, 30.79554557800293, 46.26676940917969, 95.30033111572266, 291.3409729003906, 135.0035400390625, 174.21426391601562, 202.7096710205078, 98.29292297363281, 785.1973266601562, 193.9292755126953, 513.63720703125, 83.98937225341797, 144.089599609375, 170.15725708007812, 51.798099517822266, 160.37384033203125, 224.26318359375, 156.4838409423828], "bn1.num_batches_tracked": 8840, "fc2.weight": [[-0.05432049185037613, -0.012019766494631767, 0.024345703423023224, -0.05401626229286194, -0.08524993062019348, -0.03694592043757439, 0.048048850148916245, -0.08069239556789398, 0.04163941368460655, -0.019491268321871758, 0.12227186560630798, -0.07515540719032288, 0.10020714998245239, 0.008546991273760796, -0.038260091096162796, -0.025357723236083984, -0.03801145404577255, -0.05912432819604874, -0.09175902605056763, 0.055864859372377396, 0.021237321197986603, -0.05551017075777054, 0.04720381647348404, 0.0518469475209713, -0.09632518887519836, 0.023062920197844505, -0.05170365795493126, 0.049583036452531815, 0.027839375659823418, -0.06944996118545532, -0.1049395427107811, -0.05895990505814552, -0.07756400108337402, -0.0392550528049469, 0.07771947979927063, 0.08225352317094803, -0.12764084339141846, -0.07339092344045639, -0.028117120265960693, 0.009626273065805435, -0.06050750985741615, 0.07984684407711029, 0.05600941553711891, -0.03569323942065239, 0.007561038713902235, 0.059948790818452835, -0.06661885976791382, 0.01828368380665779, -0.004612843040376902, 0.005862371996045113, -0.04215399920940399, -0.06139899790287018, 0.08753664791584015, 0.06885428726673126, 0.03881814703345299, -0.02865992859005928, 0.06123979017138481, -0.02017563208937645, 0.049278080463409424, -0.0363403744995594, -0.012014550156891346, 0.04158618301153183, -0.050939932465553284, 0.11549870669841766, 0.031675711274147034, 0.05432391166687012, 0.020781127735972404, -0.04081081598997116, -0.013226348906755447, -0.012643949128687382, -0.03283819556236267, -0.1309104859828949, 0.04926764965057373, 0.0035356422886252403, 0.05501113459467888, 0.05133861303329468, 0.08373735100030899, 0.0160212479531765, -0.09171471744775772, 0.04960429295897484, -0.14012521505355835, -0.05539477616548538, -0.05965806916356087, 0.08408895879983902, -0.0720137506723404, 0.054099515080451965, 0.024402648210525513, 0.03399355337023735, 0.0008603387395851314, -0.008712748996913433, 0.06997522711753845, -0.003920054994523525, 0.04588979482650757, -0.02846849150955677, 0.1034301370382309, 0.0753815770149231, -0.00621876260265708, 0.0421738475561142, 0.0074592474848032, 0.03618522733449936, -0.02412259764969349, -0.04079289361834526, -0.06403964757919312, 0.009736815467476845, 0.02235938236117363, -0.045178599655628204, 0.005812179297208786, -0.09302694350481033, 0.0019907159730792046, 0.12659986317157745, 0.008179107680916786, 0.065267413854599, 0.03799991309642792, -0.018267745152115822, -0.046550266444683075, 0.07890373468399048, -0.03839524835348129, -0.004634305369108915, 0.03366849571466446, 0.022737668827176094, -0.005923667922616005, 0.06010778993368149, 0.037372786551713943, -0.023717960342764854, -0.06724784523248672, -0.003935734275728464, -0.014750075526535511, -0.061001673340797424], [-0.05553121492266655, 0.01036718301475048, -0.040941763669252396, 0.07452631741762161, 0.04633835703134537, -0.04006706923246384, -0.06330835074186325, 0.043070029467344284, -0.10497212409973145, -0.006652574986219406, -0.10084091126918793, 0.0034959844779223204, 0.004163066856563091, 0.014091340824961662, 0.08402270078659058, 0.0175431277602911, -0.009407966397702694, -0.0016661229310557246, 0.06577730178833008, -0.01474799681454897, 0.020169159397482872, -0.016144905239343643, -0.011795541271567345, -0.049652352929115295, 0.03175845742225647, 0.02368948608636856, 0.10347232222557068, -0.0768982544541359, -0.035595692694187164, -0.027551285922527313, 0.03146423399448395, -0.003364101517945528, 0.03227313235402107, -0.011045213788747787, -0.05875973403453827, -0.06370827555656433, 0.09261481463909149, 0.03735145553946495, -0.03979628160595894, -0.07220859825611115, 0.020759062841534615, -0.04229786992073059, -0.043552298098802567, 0.016260631382465363, -0.07434029132127762, 0.01989210583269596, 0.023093057796359062, -0.02481919527053833, 0.04445638507604599, -0.05493636801838875, 0.04013577476143837, 0.050660569220781326, -0.014085575006902218, -0.035095565021038055, -0.03832128271460533, 0.0019938840996474028, 0.03305744007229805, -0.038233451545238495, 0.008179793134331703, 0.09014566987752914, -0.013773664832115173, -0.09215198457241058, 0.015941128134727478, -0.06534603238105774, 0.045424915850162506, 0.008868074044585228, -0.009913524612784386, 0.01975729689002037, 0.044058170169591904, -0.03138704597949982, -0.052816323935985565, 0.057103417813777924, 0.028035759925842285, 0.02668251469731331, -0.03521269932389259, 0.007005741354078054, -0.012001430615782738, 0.050779614597558975, 0.097337506711483, 0.04656318947672844, 0.11933454871177673, -0.030116217210888863, -0.042309217154979706, 0.02263120748102665, 0.12540219724178314, -0.09554051607847214, 0.04394073411822319, -0.040322139859199524, 0.032159339636564255, 0.09331534057855606, -0.06867948174476624, -0.02063298411667347, -0.03503357619047165, 0.06589750945568085, -0.052268750965595245, 0.024120481684803963, -0.07949645072221756, -0.0014267473015934229, -0.029180943965911865, 0.008068534545600414, 0.062419991940259933, 0.0866897776722908, 0.04827047139406204, 0.09274473041296005, 0.04668600484728813, -0.035836923867464066, 0.02686815895140171, 0.07251808792352676, -0.048725198954343796, -0.09401358664035797, -0.022743714973330498, -0.07249470055103302, 0.00957159698009491, 0.06722258031368256, 0.06622350215911865, -0.06588953733444214, 0.0651644617319107, -0.060216378420591354, -0.07285567373037338, -0.06760076433420181, -0.030363766476511955, -0.03959552198648453, 0.045098621398210526, -0.053927067667245865, 0.041503917425870895, -0.024448085576295853, 0.043287940323352814, -0.025084562599658966], [0.06890702247619629, -0.050888460129499435, -0.046838175505399704, 0.08202546834945679, 0.07463053613901138, 0.12158013135194778, -0.08726834505796432, -0.015436630696058273, -0.015996774658560753, -0.018334878608584404, -0.07413381338119507, 0.10083793848752975, -0.02686760015785694, -0.006295694503933191, -0.00770371500402689, 0.0019048997201025486, 0.005258028861135244, 0.013917211443185806, 0.024428488686680794, -0.04713869094848633, 0.004259055480360985, -0.05486730486154556, 0.03941773250699043, -0.05902573838829994, 0.10609455406665802, 0.0077580115757882595, -0.04267505928874016, -0.003189986338838935, -0.10361025482416153, -0.021212443709373474, 0.06765209883451462, 0.007462589535862207, -0.007166307419538498, 0.0381200797855854, -0.13428868353366852, -0.03796768933534622, 0.1443081945180893, 0.05531817302107811, 0.008335598744452, -0.04613862186670303, 0.06295284628868103, -0.010053228586912155, -0.07894550263881683, 0.080570288002491, -0.10671564191579819, 0.06793298572301865, -0.03116098791360855, 0.0012281815288588405, 0.0005840288940817118, -0.006399444304406643, 0.10124869644641876, -0.014240450225770473, -0.0034604633692651987, -0.07183058559894562, 0.008304496295750141, -0.003534810384735465, -0.029335714876651764, -0.047373320907354355, 0.05288909003138542, 0.057225555181503296, 0.032601647078990936, -0.025042058899998665, 0.05261300131678581, -0.06358104199171066, 0.030323239043354988, 0.015833381563425064, -0.04444434866309166, -0.002810707548633218, 0.041384972631931305, -0.0391487255692482, -0.026067625731229782, 0.029317349195480347, 0.04700160026550293, -0.05631178617477417, -0.03488963097333908, -0.007840377278625965, -0.0578681081533432, 0.04758875072002411, 0.08487928658723831, -0.003473207587376237, 0.14272744953632355, 0.039026204496622086, 0.023528100922703743, -0.02045607939362526, 0.11358485370874405, -0.0870455950498581, 0.06503088772296906, -0.029618950560688972, 0.049078356474637985, 0.042566414922475815, -0.006025031674653292, -0.040791429579257965, -0.07976577430963516, 0.11068475246429443, -0.044167257845401764, 0.0368996299803257, 0.05316166952252388, -0.02165604941546917, -0.002681806916370988, -0.003999072592705488, -0.03460180014371872, 0.10072102397680283, 0.022515496239066124, 0.05660161003470421, -0.07310930639505386, -0.03594508767127991, 0.05872252956032753, -0.00035766151268035173, -0.005840431433171034, -0.15025180578231812, -0.042604632675647736, -0.03186677396297455, 0.050643716007471085, -0.02342367358505726, -0.007143479771912098, -0.06696368008852005, -0.09189493954181671, -0.002491777064278722, 0.044238172471523285, 0.033767856657505035, 0.06490865349769592, -0.10916069895029068, -0.05979796126484871, -0.11224259436130524, 0.07371816784143448, -0.029479173943400383, 0.06281580775976181, 0.002961287973448634], [0.03721219673752785, 0.008094122633337975, 0.003863309044390917, -0.010639572516083717, -0.062274739146232605, -0.03814265877008438, -0.07187169045209885, -0.05487033352255821, 0.06065256521105766, -0.023026660084724426, 0.09755584597587585, 0.012456941418349743, 0.05744633078575134, -0.09269654005765915, -0.08460443466901779, 0.06301552802324295, -0.020552845671772957, 0.041644301265478134, 0.04089672118425369, -0.006099168211221695, 0.0032944318372756243, -0.08642654865980148, 0.04386049881577492, -0.004368546884506941, -0.05559162795543671, 0.0855766236782074, 0.1024024710059166, 0.013259757310152054, -0.08808500319719315, 0.020132895559072495, -0.05385700240731239, -0.12467552721500397, 0.020376652479171753, -0.11220090091228485, 0.074037104845047, -0.005384365096688271, -0.05100416764616966, 0.0755821242928505, -0.04963706061244011, -0.04934881255030632, -0.01759062334895134, -0.08493292331695557, 0.03471098840236664, -0.056330788880586624, -0.08223465830087662, 0.1683603823184967, 0.06033802032470703, 0.07788439095020294, -0.02577214688062668, -0.059118907898664474, 0.0011667561484500766, -0.010715989395976067, 0.01441898476332426, 0.005279102828353643, 0.06069447845220566, -0.039485134184360504, -0.026075487956404686, -0.06230593100190163, 0.06285471469163895, -0.031388428062200546, -0.06250321865081787, 0.07129714637994766, -0.062418751418590546, -0.15046235918998718, -0.09108453243970871, 0.036250654608011246, 0.027918042615056038, -0.05626888573169708, 0.05576189234852791, 0.05790066346526146, 0.049867670983076096, 0.07900486141443253, -0.037393830716609955, 0.022106308490037918, -0.03711014240980148, 0.015265405178070068, 0.060398202389478683, -0.02931663580238819, -0.0540553480386734, -0.027016567066311836, -0.20837512612342834, -0.074701227247715, -0.05052848905324936, 7.710213685641065e-05, -0.09708206355571747, 0.0880955308675766, 0.10059191286563873, -0.041036851704120636, -0.021690858528017998, -0.03273341432213783, 0.053822122514247894, 0.07531919330358505, -0.005627651233226061, -0.005474267993122339, 0.05630243942141533, 0.03230951353907585, -0.07513725012540817, -0.06347686797380447, 0.035486992448568344, 0.051843587309122086, 0.08998658508062363, 0.038163598626852036, -0.05177371948957443, -0.07291271537542343, 0.010701783001422882, -0.04773007705807686, -0.07077578455209732, -0.09019998461008072, 0.01584978960454464, 0.023188522085547447, -0.004336319863796234, 0.01121243555098772, 0.004300010856240988, -0.08270490169525146, -0.028976868838071823, 0.04137183353304863, 0.08341584354639053, 0.09161738306283951, 0.13826993107795715, 0.07082530111074448, -0.026584558188915253, -0.05886107310652733, -0.004043396562337875, 0.04187849164009094, 0.047368861734867096, -0.0739821270108223, -0.011718370951712132, -0.03704524040222168], [-0.0796726644039154, -0.03797566145658493, -0.11048372089862823, 0.11030210554599762, 0.08682271838188171, 0.029754746705293655, -0.1130870059132576, 0.0920853316783905, -4.611046097124927e-05, 0.07321249693632126, -0.07112646847963333, -0.053992029279470444, -0.08032573014497757, 0.03580892086029053, 0.0013428867096081376, 0.043995752930641174, 0.08004117757081985, 0.050481222569942474, 0.07515906542539597, -0.038122061640024185, -0.019307486712932587, 0.0017366782994940877, -0.008502693846821785, -0.0541582927107811, 0.0519033782184124, -0.07875783741474152, 0.1034904420375824, 0.007131281308829784, -0.08718357980251312, 0.024750756099820137, 0.08919494599103928, 0.04280338063836098, 0.024069128558039665, 0.07270341366529465, 0.004220081493258476, -0.07450586557388306, 0.08193609118461609, 0.07686270773410797, -0.07512349635362625, -0.08348541706800461, 0.028535842895507812, -0.0254517775028944, -0.05048082768917084, 0.0511847548186779, -0.1081448569893837, -0.04962607100605965, 0.06471849232912064, -0.041187770664691925, 0.017698710784316063, -0.028189975768327713, 0.10105068236589432, 0.07195703685283661, -0.033023614436388016, -0.057037170976400375, -0.08509864658117294, 0.005320893134921789, -0.018428172916173935, 0.04421735182404518, -0.03223000094294548, 0.0015163455391302705, -0.041422728449106216, -0.06402668356895447, 0.0032260490115731955, -0.03797079622745514, -0.0669381320476532, -0.017678193747997284, -0.01651938445866108, 0.08432228863239288, 0.002078906400129199, -0.003685217583552003, -0.03483540192246437, 0.04895070940256119, 0.053202398121356964, -0.0628410056233406, -0.03833678737282753, 0.017383117228746414, -0.01810096763074398, -0.019689880311489105, 0.13002082705497742, -0.05687475576996803, 0.09452887624502182, 0.08475985378026962, -0.04344279691576958, 0.01658262312412262, 0.0496862567961216, -0.06275995820760727, 0.13359586894512177, 0.07739192992448807, 0.021799828857183456, 0.029908418655395508, -0.03499945253133774, -0.01778748258948326, -0.09861396253108978, 0.026279978454113007, -0.11902692914009094, -0.04912310466170311, 0.047306738793849945, 0.0041023725643754005, 0.02519010566174984, -0.06558720022439957, 0.019243353977799416, 0.018123868852853775, 0.06365170329809189, 0.0851106271147728, -0.012909883633255959, 0.04704331234097481, 0.04299548640847206, 0.017110679298639297, -0.04510141536593437, -0.05789703130722046, 0.011966804042458534, -0.1241566613316536, 0.020877396687865257, 0.013164298608899117, 0.04448363929986954, -0.026573607698082924, -0.009070026688277721, -0.07213965803384781, 0.03747031092643738, -0.022587483748793602, -0.058994561433792114, 0.028621731325984, 0.038299303501844406, -0.07275785505771637, 0.051777053624391556, -0.005665704142302275, 0.05164138972759247, 0.023845424875617027], [-0.0030228467658162117, 0.025612013414502144, -0.04623078182339668, 0.0027316114865243435, 0.08021780848503113, 0.04723000153899193, -0.07191035151481628, 0.0913507267832756, -0.06276486814022064, -0.017225133255124092, -0.1440373808145523, 0.0037556730676442385, -0.023237664252519608, 0.06582716107368469, 0.036655526608228683, 0.0917641893029213, 0.05899360030889511, -0.03836023062467575, 0.05194462835788727, -0.05510927736759186, -0.012980545870959759, -0.051591526716947556, 0.06159989535808563, -0.011270178481936455, 0.044471848756074905, 0.0025427956134080887, 0.015466158278286457, 0.004404064733535051, -0.011040332727134228, 0.054074205458164215, -0.027516888454556465, 0.08261403441429138, 0.015272054821252823, -0.08032587170600891, -0.005796374287456274, -0.07977135479450226, 0.07963570952415466, 0.05917731299996376, 0.04522547125816345, -0.09301985800266266, 0.01295778714120388, -0.0009225158719345927, 0.06582550704479218, 0.03942844644188881, 0.011126391589641571, 0.05063458904623985, -0.04359971359372139, 0.050778429955244064, 0.05305297300219536, -0.04929742217063904, 0.01753498800098896, 0.045467495918273926, 0.007862754166126251, -0.08391202986240387, -0.016907263547182083, 0.05721762776374817, 0.056687742471694946, 0.025550924241542816, -0.03739810362458229, 0.025021931156516075, -0.01257090363651514, -0.038926344364881516, 0.036943431943655014, -0.07641472667455673, -0.01860218308866024, -0.10110683739185333, -0.013357996009290218, -0.012462851591408253, -0.061273325234651566, -0.024245694279670715, -0.061331942677497864, 0.08734918385744095, 0.021760407835245132, 0.05173565447330475, -0.054411690682172775, -0.06934383511543274, -0.045908957719802856, -0.008009611628949642, 0.06878259778022766, -0.02297171764075756, 0.10374845564365387, -0.07803680747747421, 0.02731773443520069, -0.048329148441553116, 0.0965084359049797, -0.07110051065683365, 0.07830385863780975, 0.056134819984436035, 0.06316576898097992, 0.043962497264146805, -0.06024644151329994, -0.005781863816082478, 0.00013787031639367342, 0.04450611770153046, -0.14725646376609802, -0.012552161701023579, -0.06843271851539612, -0.026223355904221535, 0.04328194260597229, -0.04388859122991562, -0.009317888878285885, 0.07407183200120926, -0.06443912535905838, -0.018974177539348602, -0.031871479004621506, 0.00864811148494482, 0.042195748537778854, 0.009635472670197487, -0.048926711082458496, -0.1304728090763092, 0.0051057911477983, -0.041706379503011703, 0.08842862397432327, -0.041233036667108536, 0.023793436586856842, -0.07122740149497986, 0.05042335391044617, -0.09522566944360733, -0.08794189244508743, 0.0021174775902181864, 0.09071052074432373, -0.0003464337205514312, -0.018789920955896378, 0.015043139457702637, 0.08739081770181656, -0.05074860155582428, 0.03818556293845177, -0.0272911936044693], [-0.034600645303726196, 0.06308174133300781, -0.07597403973340988, 0.05166691169142723, 0.054110098630189896, 0.04358856752514839, -0.01999376155436039, 0.04050743952393532, -0.06572643667459488, 0.036954764276742935, -0.11117260903120041, 0.08689911663532257, -0.06027618795633316, -0.06113012880086899, 0.0448441281914711, 0.09547004848718643, 0.020893141627311707, 0.08472822606563568, -0.010766498744487762, -0.0028340881690382957, -0.03414549306035042, -0.03736264631152153, -0.029683731496334076, -0.030705614015460014, 0.004453806672245264, 0.040629781782627106, 0.0757574662566185, -0.06085417792201042, -0.036282312124967575, 0.03827688843011856, 0.10403885692358017, -0.006175530608743429, 0.09451713413000107, -0.048001743853092194, -0.06275863945484161, -0.11916404962539673, 0.10859543830156326, 0.028087662532925606, 0.006191435270011425, -0.017303043976426125, 0.0519927442073822, -0.07656072080135345, 0.065127894282341, 0.08400532603263855, -0.09204472601413727, -0.06937802582979202, -0.0021839295513927937, -0.03493566811084747, 0.03482072427868843, -0.07669094949960709, 0.009471784345805645, 0.04506846144795418, -0.04048290476202965, -0.0008848559227772057, 0.002585998736321926, 0.027860743924975395, 0.04932548105716705, 0.004803790710866451, 0.02837163396179676, 0.055724188685417175, -0.016200872138142586, -0.04838167876005173, 0.004388116765767336, -0.018722912296652794, -0.02003007009625435, -0.07212679833173752, -0.008784973993897438, -0.022752393037080765, -0.04244835302233696, 0.03357559069991112, -0.0741070881485939, 0.05553087964653969, 0.02212643437087536, 0.016952969133853912, -0.06533195078372955, -0.03390682861208916, 0.022633474320173264, 0.03788937255740166, 0.10205283761024475, -0.0011044188868254423, 0.05211300030350685, 0.004460374359041452, -0.026220517233014107, -0.08738867938518524, 0.06380905956029892, -0.04616128280758858, 0.07988573610782623, 0.07392266392707825, 0.033842697739601135, 0.07003722339868546, 0.017755309119820595, -0.003483108477666974, -0.03351474180817604, 0.010060436092317104, -0.1113106831908226, -0.07439747452735901, -0.0069250864908099174, 0.04294121637940407, 0.015270951204001904, -0.0657254159450531, -0.029067186638712883, 0.0696386992931366, 0.026484791189432144, 0.00889157596975565, -0.04280611127614975, 0.026334498077630997, -0.02661246620118618, 0.1092941015958786, 0.0541822612285614, -0.09270375221967697, -0.044588521122932434, -0.0981893390417099, 0.005104685202240944, 0.0512535460293293, 0.01096517127007246, -0.06175217404961586, -0.044531505554914474, -0.006657851859927177, 0.020091669633984566, 0.012281511910259724, 0.014490232802927494, -0.012527723796665668, -0.02622402273118496, -0.04897192120552063, 0.08079196512699127, -0.09353532642126083, -0.03613024577498436, 0.013342974707484245], [0.011538835242390633, 0.0017119531985372305, 0.08187466114759445, -0.09168699383735657, -0.08740608394145966, -0.08977103978395462, 0.060058362782001495, 0.009941504336893559, 0.04060400649905205, -0.054360244423151016, 0.10891372710466385, -0.0699119046330452, 0.07504954189062119, -0.022797800600528717, 0.0071089016273617744, -0.061377864331007004, -0.05711286514997482, 0.005621430464088917, -0.06667660921812057, 0.03591805696487427, 0.030231844633817673, 0.05308370664715767, 0.07548518478870392, 0.020605197176337242, -0.0550050213932991, 0.06986179947853088, 0.0015964919002726674, 0.044484809041023254, 0.09406670182943344, 0.026662282645702362, -0.03722357004880905, -0.022601492702960968, -0.047260891646146774, -0.007694867439568043, 0.054289210587739944, 0.06081287935376167, -0.11236754804849625, -0.07450875639915466, -0.06778348982334137, 0.07265480607748032, -0.01724277436733246, 0.06715013831853867, -0.044640641659498215, -0.05880182981491089, -0.048843078315258026, -0.0418114960193634, -0.03951302543282509, -0.03565601259469986, -0.005887842271476984, -0.03294006735086441, -0.03874307498335838, 0.018509574234485626, -0.07320450991392136, 0.07727336883544922, -0.0838979184627533, -0.04813147336244583, 0.053087782114744186, 0.03798167034983635, -0.07820046693086624, -0.013158750720322132, 0.052232809364795685, 0.035676199942827225, -0.003291849046945572, 0.028463199734687805, 0.005822602193802595, 0.08109908550977707, 0.04390259087085724, -0.06184377893805504, -0.0742516741156578, 0.026429761201143265, 0.052959706634283066, -0.07083259522914886, -0.02972272038459778, -0.037260301411151886, 0.09178469330072403, 0.03484954684972763, -0.05831972882151604, -0.011744765564799309, -0.07149133831262589, -0.017604360356926918, -0.1043890044093132, -0.01510412897914648, -0.01277311984449625, 0.08997193723917007, -0.1110723614692688, 0.027143219485878944, -0.05828571319580078, 0.06066586822271347, 0.008948296308517456, -0.04297439008951187, 0.04220297932624817, 0.03108719363808632, 0.022763337939977646, -0.030639443546533585, 0.10472206771373749, -0.013211783021688461, -0.013141408562660217, -0.002587126102298498, -0.03634548932313919, 0.04989425465464592, 0.0785287395119667, -0.0576593242585659, -0.05173634737730026, -0.03617892786860466, 0.016836171969771385, 0.047382526099681854, 0.03282608836889267, 0.04786914214491844, -0.06467991322278976, 0.0723056048154831, 0.03674877807497978, 0.0670970156788826, -0.007481806445866823, 0.0023192449007183313, -0.013473587110638618, -0.002308629686012864, 0.06584423780441284, 0.04589346796274185, 0.04748877137899399, 0.011402430012822151, -0.01689061149954796, 0.04797063767910004, 0.04408610239624977, 0.10659154504537582, -0.07327844947576523, -0.017633017152547836, -0.05862103030085564, 0.007217178586870432], [-0.032348405569791794, -0.0514218732714653, -0.012092404998838902, -0.03109014220535755, -0.030913131311535835, -0.08174795657396317, -0.012681983411312103, -0.09831123054027557, -0.016893425956368446, -0.023998048156499863, 0.12080661952495575, -0.06904125958681107, 0.08825468271970749, -0.03970653936266899, 0.002197947818785906, -0.07130768895149231, -0.10081177949905396, -0.04163671284914017, -0.0009398204274475574, 0.02930430881679058, 0.04524663835763931, -0.002941373735666275, 0.016624467447400093, 0.07463496923446655, -0.012816130183637142, 0.06849008798599243, -0.051042359322309494, 0.040204018354415894, 0.04261276125907898, -0.004053215496242046, 0.01448468491435051, 0.004635309800505638, 0.0038305623456835747, 0.07777994126081467, -0.002495177322998643, 0.07987714558839798, -0.11552774161100388, -0.02216157503426075, -0.02323012426495552, 0.014715270139276981, -0.061271458864212036, 0.01483676303178072, -0.033949170261621475, -0.044462770223617554, -0.03910568356513977, 0.015293894335627556, 0.04162105545401573, -0.045460522174835205, 0.012954818084836006, 0.06597421318292618, -0.09857054054737091, -0.09207094460725784, 0.02859457954764366, 0.011257510632276535, 0.05668812245130539, -0.05446117743849754, 0.04146654158830643, -0.036392416805028915, 0.03583924099802971, -0.06948801130056381, 0.03279021382331848, 0.08411175012588501, 0.03337136283516884, -0.0024151671677827835, -0.0009159257751889527, 0.019267000257968903, -0.04361672326922417, -0.05287051200866699, 0.05589177832007408, 0.020277366042137146, 0.042033348232507706, -0.040980808436870575, 0.003139598062261939, 0.02569207362830639, 0.06251195073127747, 0.02895941026508808, 0.0276473555713892, -0.07585617899894714, -0.06327968835830688, -0.02652648463845253, -0.05867189168930054, -0.056212492287158966, 0.04513294994831085, 0.03744840994477272, -0.08870348334312439, 0.03448527306318283, 0.07800958305597305, -0.023547686636447906, -0.04456911236047745, 0.009220514446496964, 0.08661381900310516, 0.06891494244337082, 0.03262417018413544, 0.0025936844758689404, 0.1217183992266655, 0.029750054702162743, 0.01889950968325138, -0.03415099158883095, 0.01386887114495039, 0.05446171015501022, -0.041323140263557434, -0.05918975546956062, -0.013093617744743824, 0.04632801562547684, -0.027976414188742638, -0.037939272820949554, -0.068442702293396, -0.11001148819923401, -0.026500659063458443, 0.1162368506193161, 0.007539764046669006, 0.11013199388980865, -0.046523310244083405, -0.0013021804625168443, -0.03167975693941116, 0.006113584153354168, -0.012512543238699436, 0.0771288201212883, -0.01728121191263199, 0.06407459825277328, -0.038268495351076126, 0.03221558406949043, 0.002327349502593279, 0.10004458576440811, -0.0863950327038765, -0.008364308625459671, -0.05829460918903351, 0.05952110141515732], [-0.027650289237499237, 0.06372153759002686, -0.041109222918748856, 0.05420202389359474, 0.12165500968694687, 0.0364411324262619, -0.09055420011281967, 0.025085993111133575, 0.018967043608427048, 0.07027105987071991, -0.14526139199733734, -0.05074641853570938, -0.08950784802436829, 0.010827500373125076, -0.0959768146276474, 0.11706309765577316, 0.014159578830003738, 0.02870747819542885, 0.06304313242435455, -0.048735424876213074, -0.013262861408293247, -0.02316177636384964, 0.07424972206354141, -0.09725257754325867, 0.019027909263968468, -0.06875239312648773, -0.016217391937971115, 0.03033977560698986, -0.0575326606631279, -0.0018619897309690714, 0.07649125158786774, 0.07147340476512909, -0.028276773169636726, 0.0280806515365839, -0.016878653317689896, -0.0906657949090004, 0.06750388443470001, 0.04687494784593582, -0.06859775632619858, -0.039360906928777695, 0.04156755656003952, -0.039993636310100555, -0.010899952612817287, 0.05593588948249817, 0.025272903963923454, -0.05277654156088829, 0.027447866275906563, -0.009926420636475086, 0.1005479022860527, 0.030902894213795662, 0.07341530174016953, 0.06025007367134094, -0.057332634925842285, 0.00500461645424366, -0.06417867541313171, 0.005289244465529919, -0.04366978257894516, -0.03298172727227211, 0.025132223963737488, 0.07268144935369492, -0.030326884239912033, -0.014836291782557964, 0.013438007794320583, -5.78610815864522e-05, 0.014315484091639519, 0.0451669916510582, 0.031414736062288284, 0.001918270019814372, -0.01598769798874855, -0.04110961779952049, -0.015919668599963188, 0.033520713448524475, 0.040122587233781815, 0.014101393520832062, -0.07515421509742737, 0.0071144080720841885, -0.025210246443748474, 0.04248512536287308, 0.11201771348714828, -0.040114279836416245, 0.059961456805467606, 0.09836934506893158, 0.05037524178624153, -0.08895816653966904, 0.09028022736310959, -0.004115566145628691, -0.03160979598760605, -0.011975535191595554, 0.06282354891300201, 0.01903175190091133, 0.039548590779304504, -0.049914631992578506, -0.07773461937904358, 0.06806295365095139, -0.08913657069206238, -0.03829691559076309, -0.024165937677025795, -0.02574000135064125, 0.002418023068457842, -0.045276056975126266, -0.007614013738930225, 0.06891971081495285, 0.030357439070940018, 0.07973886281251907, -0.05826234817504883, 0.030872605741024017, -0.030815517529845238, 0.059700656682252884, -0.010346148163080215, -0.1243702694773674, 0.009094398468732834, -0.07801250368356705, 0.0995732992887497, -0.09960588067770004, 0.08296964317560196, -0.10243120044469833, 0.01399889774620533, -0.03608250990509987, 0.039539940655231476, 0.023818019777536392, -0.055718325078487396, 0.006523843854665756, -0.04375483840703964, -0.009064925834536552, 0.023653531447052956, -0.04814327135682106, -0.037739645689725876, -0.047603167593479156]], "fc2.bias": [-0.0363052599132061, -0.07285657525062561, 0.036550622433423996, 0.07377692312002182, -0.01875443384051323, 0.02276839129626751, 0.031122660264372826, -0.09173870831727982, -0.019258813932538033, 0.0713382437825203], "bn2.weight": [0.032493650913238525, 0.007899886928498745, 0.061473600566387177, 0.21744967997074127, 0.02888697385787964, 0.007989735342562199, 0.01423576194792986, 0.03279951959848404, 0.005581574514508247, 0.002326757414266467], "bn2.bias": [0.0, 0.0, 0.0, 0.0, 0.0, 0.0, 0.0, 0.0, 0.0, 0.0], "bn2.running_mean": [-0.08078239858150482, -0.045417625457048416, 0.07962261140346527, -0.1512400507926941, 0.012060005217790604, -0.016742141917347908, -0.019582029432058334, -0.07094241678714752, -0.03874658793210983, 0.03906799852848053], "bn2.running_var": [0.12583953142166138, 0.12996163964271545, 0.09995327889919281, 0.06594947725534439, 0.12284385412931442, 0.0898720920085907, 0.1382143795490265, 0.0909920409321785, 0.11795512586832047, 0.14601550996303558], "bn2.num_batches_tracked": 8840}