{"fc1.weight": [[-0.24677668511867523, -0.08391427993774414, -0.07476739585399628, -0.19562241435050964, 0.05435522645711899, 0.2679086923599243, -0.19239802658557892, 0.14455153048038483, 0.14172422885894775, 0.02891784906387329, 0.2028714269399643, -0.00334931630641222, 0.20678648352622986, 0.017695173621177673, 0.10436423867940903, -0.0186457559466362, 0.047857463359832764], [-0.09246215969324112, -0.10541541129350662, 0.18778902292251587, 0.25258684158325195, -0.07377323508262634, 0.1222882866859436, 0.03709244728088379, 0.08770151436328888, -0.09215958416461945, 0.3624671995639801, -0.10224027186632156, 0.17677247524261475, 0.17008106410503387, 0.33349332213401794, -0.19062121212482452, -0.08684815466403961, 0.27910271286964417], [-0.13781382143497467, 0.05803579464554787, 0.04942150041460991, -0.005077308975160122, -0.2093675136566162, -0.16507069766521454, 0.2805728614330292, 0.05440906062722206, 0.004950052592903376, -0.0686560794711113, -0.03272145614027977, 0.057404883205890656, -0.05214270204305649, -0.020209232345223427, 0.0023113442584872246, 0.033619511872529984, -0.048402510583400726], [-0.028881767764687538, 0.10878627002239227, 0.0905596911907196, 0.07926314324140549, 0.09749751538038254, -0.24856573343276978, -0.07956970483064651, -0.034753989428281784, -0.09281637519598007, -0.21318261325359344, -0.2852385938167572, -0.08617203682661057, 0.09287504851818085, 0.0008879543747752905, -0.042215678840875626, 0.18074694275856018, 0.27865245938301086], [-0.2392691671848297, -0.09624405950307846, -0.06350850313901901, 0.07516572624444962, -0.23699961602687836, -0.02350098453462124, -0.06712108850479126, 0.025151725858449936, 0.14894990622997284, 0.13853448629379272, -0.1630433052778244, -0.2175074964761734, -0.019535839557647705, 0.04683246091008186, -0.1070675402879715, 0.15268106758594513, -0.058666449040174484], [0.20098833739757538, -0.0767938494682312, 0.15944266319274902, 0.12437276542186737, 0.12454488128423691, 0.15548154711723328, 0.03392023593187332, 0.14236588776111603, 0.0011163130402565002, -0.057842738926410675, 0.01573045365512371, 0.0202157124876976, 0.07551328837871552, -0.07806359231472015, 0.09554523229598999, 0.036941684782505035, -0.23314931988716125], [-0.017626535147428513, -0.11435489356517792, 0.09137916564941406, -0.07755677402019501, 0.2855698764324188, -0.279720276594162, -0.017724284902215004, 0.11159432679414749, 0.12104910612106323, -0.30264273285865784, 0.024291496723890305, 0.16946923732757568, -0.2309841811656952, -0.38330408930778503, 0.21822592616081238, 0.05675540864467621, -0.24992762506008148], [0.019799116998910904, -0.19552481174468994, 0.0027955027762800455, -0.14673572778701782, 0.1137007400393486, 0.11278281360864639, -0.22037334740161896, -0.00904628075659275, 0.08782833814620972, 0.1972280889749527, 0.05058152228593826, -0.43285879492759705, 0.16041578352451324, 0.17897440493106842, 0.02086159959435463, 0.15440158545970917, -0.11232227832078934], [-0.14103494584560394, -0.2078220248222351, 0.053107354789972305, -0.1298322081565857, -0.0065759941935539246, 0.24686682224273682, 0.11357889324426651, -0.016226818785071373, -0.1253906488418579, 0.3771137595176697, 0.09885644167661667, 0.1588032990694046, 0.05091128498315811, 0.2886461913585663, 0.18317236006259918, 0.059968385845422745, 0.0009749446762725711], [0.0004863008507527411, -0.23257635533809662, 0.1488720029592514, 0.176876038312912, 0.08897208422422409, -0.24283550679683685, 0.11293806880712509, -0.2536989152431488, 0.05872045457363129, -0.2121179699897766, -0.10229266434907913, 0.11710966378450394, 0.25120434165000916, -0.027631839737296104, -0.10218753665685654, 0.0862894281744957, -0.0004976688069291413], [-0.1291636973619461, 0.13007380068302155, 0.002225680975243449, -0.03452717512845993, 0.14625906944274902, 0.09884640574455261, -0.05103334039449692, -0.13194729387760162, -0.1971919685602188, 0.13333764672279358, 0.18679924309253693, 0.1687249392271042, 0.16673046350479126, -0.18676228821277618, 0.01448126696050167, -0.22584889829158783, -0.04420180991292], [-0.12774738669395447, 0.10683956742286682, -0.06937713176012039, 0.16969527304172516, -0.09647982567548752, 0.02602369524538517, -0.1652219146490097, -0.1426057517528534, -0.20302490890026093, -0.03979267179965973, 0.07442270219326019, -0.19856691360473633, -0.0739288255572319, 0.21825170516967773, 0.0231454037129879, -0.15539897978305817, -0.057974088937044144], [-0.30879947543144226, -0.10154730081558228, 0.06927382200956345, -0.09759794175624847, 0.08363944292068481, 0.20083461701869965, -0.010254057124257088, 0.23824253678321838, 0.10977977514266968, -0.11371906846761703, -0.15061022341251373, -0.010406708344817162, 0.17079342901706696, 0.15626072883605957, -0.23779992759227753, -0.05662182345986366, 0.07004444301128387], [0.12915007770061493, -0.20706889033317566, 0.00598114961758256, 0.18367280066013336, 0.1402120143175125, -0.25572896003723145, 0.06846708059310913, 0.12217377871274948, -0.0024306820705533028, 0.18169790506362915, -0.046872492879629135, -0.08937437832355499, -0.1450277864933014, -0.10101824998855591, -0.0777745246887207, 0.11493770033121109, 0.014163344167172909], [-0.2542109489440918, 0.05980786681175232, 0.14420484006404877, -0.024652495980262756, 0.005024374928325415, 0.12459828704595566, -0.043042831122875214, -0.007696553133428097, -0.15734191238880157, -0.05626724660396576, -0.13335683941841125, 0.25907567143440247, 0.1438523679971695, -0.12196528166532516, 0.1406182050704956, 0.03329205885529518, -0.028676608577370644], [-0.15790709853172302, 0.11339941620826721, -0.12172472476959229, -0.10894067585468292, -0.07170670479536057, -0.11204185336828232, -0.06312097609043121, -0.026030033826828003, 0.16766032576560974, -0.27416303753852844, 0.19430068135261536, 0.1685665398836136, -0.09086485207080841, 0.06939977407455444, -0.19842636585235596, 0.21938517689704895, 0.1709563136100769], [-0.5391231775283813, 0.14947684109210968, -0.13938334584236145, -0.04960371181368828, 0.16857047379016876, -0.17217805981636047, 0.19569973647594452, 0.17796699702739716, -0.1661299765110016, 0.22245851159095764, -0.07273095101118088, -0.03373382240533829, -0.11127494275569916, -0.21175071597099304, -0.19713975489139557, 0.1442866325378418, 0.02433130145072937], [0.02247544750571251, -0.11381728947162628, 0.04157343879342079, -0.08262722939252853, -0.10127093642950058, 0.1393492966890335, 0.1937197893857956, 0.05219442769885063, -0.08235634863376617, -0.08643534034490585, -0.22624340653419495, 0.025063415989279747, 0.11711025983095169, -0.0589415542781353, -0.18899933993816376, 0.21306058764457703, -0.24785546958446503], [0.3416072130203247, 0.08974476158618927, -0.15888234972953796, -0.0652063712477684, -0.21734774112701416, -0.25359177589416504, -0.17201758921146393, -0.1428513526916504, -0.2373642474412918, -0.17833490669727325, 0.14718762040138245, 0.0673026442527771, 0.23238787055015564, -0.12571699917316437, 0.08373662084341049, 0.07096922397613525, -0.10755717754364014], [-0.035758405923843384, 0.0607575923204422, 0.11769986897706985, -0.10005262494087219, -0.09601479023694992, -0.08248792588710785, -0.21555273234844208, -0.05547172576189041, 0.028022469952702522, -0.11174803227186203, -0.1724018156528473, 0.030215628445148468, 0.009437245316803455, -0.02080390974879265, 0.034776471555233, 0.2510736882686615, 0.07579827308654785], [0.0020599819254130125, 0.1578761637210846, -0.08500904589891434, -0.1697525978088379, 0.22119183838367462, 0.36317136883735657, 0.04905278608202934, -0.14358343183994293, -0.008087444119155407, -0.1791829764842987, -0.007079278118908405, -0.19809474050998688, 0.0388895720243454, -0.09910959750413895, -0.15278078615665436, 0.07873857021331787, -0.22799405455589294], [-0.19212207198143005, -0.23019562661647797, 0.02722579427063465, -0.055795397609472275, 0.1801004558801651, 0.20061516761779785, 0.12554903328418732, 0.09729258716106415, -0.03731636330485344, -0.20388957858085632, -0.07484076172113419, 0.09562067687511444, -0.26152199506759644, 0.03235635161399841, -0.04145502299070358, -0.29557305574417114, 0.27942758798599243], [0.12682344019412994, -0.053571444004774094, 0.26904791593551636, 0.1732330024242401, 0.2694024443626404, 0.22646692395210266, -0.12325659394264221, 0.011377704329788685, -0.18245908617973328, 0.1419968605041504, 0.026334388181567192, 0.2357150912284851, -0.043603185564279556, 0.09175077080726624, 0.23489126563072205, -0.07218087464570999, -0.10946954041719437], [0.09453596919775009, -0.10183898359537125, -0.07963421195745468, 0.02020844630897045, 0.09264808148145676, -0.022693147882819176, 0.00210205209441483, 0.025202665477991104, -0.1365145444869995, 0.060261860489845276, -0.11990780383348465, -0.12456064671278, 0.20627783238887787, -0.0627923384308815, -0.24063552916049957, -0.22725993394851685, -0.2507704198360443], [0.09729384630918503, 0.15608789026737213, 0.048387497663497925, -0.23539094626903534, -0.036244284361600876, 0.07118642330169678, -0.0642574280500412, 0.21191149950027466, 0.21200980246067047, 0.19635678827762604, -0.23383451998233795, 0.21432292461395264, -0.08454985171556473, -0.009813320823013783, -0.018479133024811745, -0.2278122752904892, 0.10438398271799088], [-0.056015122681856155, -0.03434661030769348, 0.12895162403583527, -0.07297337055206299, -0.035967715084552765, -0.11548049002885818, -0.11230000853538513, -0.18944670259952545, -0.05838838219642639, -0.23153331875801086, -0.10118628293275833, -0.09822051227092743, 0.20421601831912994, 0.06176159158349037, -0.03206977993249893, 0.15421152114868164, -0.1366237848997116], [0.011820487678050995, -0.1846272051334381, -0.14817248284816742, 0.006478814873844385, -0.07156204432249069, 0.29255878925323486, 0.004378064069896936, 0.02490241453051567, 0.1083701029419899, -0.010304385796189308, -0.2276129424571991, -0.08133013546466827, 0.06916079670190811, -0.20821642875671387, -0.12155608832836151, -0.0795157179236412, 0.25823381543159485], [-0.0023288934025913477, -0.22182013094425201, 0.04495349898934364, 0.0706622451543808, 0.23234869539737701, 0.0508977547287941, 0.1690129041671753, 0.10164464265108109, 0.08781927824020386, 0.29801151156425476, 0.22407472133636475, -0.07881832122802734, 0.19219401478767395, 0.0654374212026596, -0.11022962629795074, 0.0200734194368124, 0.23261673748493195], [0.07100658863782883, -0.22225545346736908, 0.0762820765376091, -0.10659267008304596, 0.06513900309801102, 0.08302317559719086, -0.14882905781269073, -0.16176176071166992, -0.039477694779634476, 0.2906043231487274, 0.2097751796245575, 0.015905290842056274, 0.07998088002204895, 0.17749851942062378, 0.13234061002731323, 0.025869831442832947, 0.1766580045223236], [0.08592961728572845, 0.255651593208313, -0.02518165111541748, -0.07496079802513123, 0.22497865557670593, 0.04865071177482605, -0.06728511303663254, 0.05105096474289894, 0.2010568231344223, -0.04489576071500778, -0.14560499787330627, 0.14069736003875732, 0.221061572432518, 0.004435316659510136, -0.1751720905303955, 0.0025519065093249083, 0.016266746446490288], [0.08392538875341415, 0.1738518923521042, -0.1767025589942932, -0.0305943563580513, 0.24761837720870972, -0.09457078576087952, 0.15082311630249023, 0.1413911134004593, -0.1624474823474884, -0.04037031531333923, 0.32869213819503784, 0.07243146747350693, 0.1362854242324829, -0.04467130824923515, 0.14512066543102264, -0.13474948704242706, 0.1255365014076233], [0.21779634058475494, -0.1363324671983719, 0.25592073798179626, -0.10035238415002823, 0.10933090001344681, 0.020596999675035477, -0.11183923482894897, -0.036916181445121765, 0.03130465745925903, 0.3039756715297699, 0.048645373433828354, 0.08635430783033371, 0.24795378744602203, 0.3417254686355591, 0.01853492483496666, -0.13322369754314423, -0.06157797574996948], [-0.13268327713012695, -0.25947311520576477, -0.20960943400859833, 0.02070310339331627, 0.11973027139902115, 0.1534251868724823, -0.06929826736450195, -0.2717795670032501, 0.01644185185432434, 0.04509494826197624, 0.25621914863586426, -0.1943373829126358, -0.12337145954370499, -0.1443304866552353, -0.051036540418863297, -0.08540420979261398, -0.21409787237644196], [0.08926576375961304, 0.15987494587898254, 0.1044544130563736, -0.10731728374958038, -0.09672089666128159, -0.00509981345385313, -0.1316841095685959, 0.2085193693637848, -0.20765340328216553, -0.2608396112918854, 0.02159060724079609, 0.05403878539800644, -0.11093854159116745, 0.10583541542291641, -0.3079281449317932, -0.11085768789052963, 0.12440450489521027], [-0.15261979401111603, 0.1941445767879486, -0.017833534628152847, 0.09009912610054016, 0.026859208941459656, -0.0495300367474556, 0.2648999094963074, -0.020334633067250252, -0.15507885813713074, 0.19429005682468414, 0.01673653908073902, -0.2666569948196411, -0.1199517548084259, 0.1749005764722824, -0.04636235162615776, 0.09682873636484146, 0.15309876203536987], [0.06278096139431, 0.10087644308805466, 0.23664236068725586, -0.11856004595756531, -0.1595456600189209, 0.020293699577450752, 0.18736422061920166, 0.0498475581407547, 0.14906343817710876, 0.09170730412006378, 0.04204043745994568, 0.06941739469766617, -0.03945185989141464, -0.08326323330402374, -0.07938826084136963, 0.09713572263717651, 0.08187706768512726], [0.2564070522785187, 0.012602781876921654, -0.07288628816604614, -0.012962554581463337, -0.08832477033138275, -0.09462857246398926, 0.210418239235878, -0.09690403193235397, 0.15270112454891205, 0.2168659269809723, -0.24232251942157745, -0.07193347066640854, 0.06855183094739914, -0.1937187761068344, 0.1127401813864708, 0.2946816682815552, -0.09793563932180405], [-0.2904454469680786, -0.14808136224746704, -0.19319109618663788, 0.1299600899219513, -0.15966583788394928, 0.1399715095758438, 0.13627757132053375, -0.03024027869105339, 0.008727336302399635, 0.12520986795425415, -0.17296016216278076, 0.09864571690559387, -0.18826866149902344, 0.07790796458721161, -0.09373960644006729, 0.14022687077522278, 0.1998281031847], [-0.2524569034576416, -0.017359692603349686, -0.029133059084415436, -0.10728117823600769, -0.17302201688289642, -0.23630332946777344, -0.08197497576475143, -0.13992862403392792, -0.24151398241519928, 0.12776878476142883, -0.10515866428613663, 0.04699932038784027, 0.05619487166404724, -0.24727122485637665, -0.28063690662384033, 0.005849867127835751, 0.025527289137244225], [0.07589584589004517, 0.07903984189033508, 0.22592781484127045, -0.3097631335258484, -0.05523703992366791, -0.0592782236635685, 0.03752725198864937, 0.07176622748374939, 0.10415181517601013, -0.05218111723661423, 0.01523563452064991, -0.26760971546173096, 0.12127964198589325, -0.27435609698295593, -0.17919334769248962, -0.018814250826835632, 0.005815071053802967], [0.19393685460090637, -0.1717677265405655, -0.15389606356620789, 0.06210430711507797, -0.04279903694987297, 0.18600621819496155, 0.10121166706085205, -0.34294840693473816, 0.1862410604953766, -0.22407975792884827, 0.2631939947605133, -0.014515857212245464, 0.23149356245994568, -0.008260272443294525, 0.09277000278234482, 0.04018273577094078, -0.021574487909674644], [0.22729220986366272, -0.2626102566719055, -0.09365230053663254, 0.021338269114494324, -0.17367126047611237, -0.21630725264549255, 0.0994342714548111, -0.09717459976673126, -0.07260287553071976, -0.2843214273452759, 0.04200856015086174, 0.10018087178468704, -0.17630156874656677, -0.2634587287902832, -0.10689625144004822, -0.03979317843914032, 0.14872312545776367], [-0.0933191254734993, -0.004450238309800625, -0.17637573182582855, 0.037130024284124374, 0.020233716815710068, -0.0974508672952652, -0.08677621930837631, -0.10838449746370316, -0.16959194839000702, 0.007169921416789293, 0.21625907719135284, 0.045099932700395584, -0.029147792607545853, 0.05670168250799179, -0.027144042775034904, -0.09905438870191574, 0.0841163694858551], [-0.14422893524169922, -0.12685079872608185, -0.22495777904987335, -0.04778819531202316, -0.00979867298156023, -0.21967242658138275, 0.1456739902496338, -0.023228026926517487, -0.20076316595077515, -0.04744870588183403, -0.21920855343341827, 0.05636465549468994, 0.21461281180381775, -0.1673375815153122, 0.12814556062221527, -0.1369081735610962, -0.012828891165554523], [-0.09231550246477127, 0.015171824023127556, 0.0414804145693779, -0.10107540339231491, 0.14149904251098633, 0.05822903290390968, 0.1269981861114502, 0.09704919904470444, -0.0016174560878425837, 0.06315245479345322, -0.26799651980400085, -0.08333799242973328, -0.13885469734668732, 0.09428124874830246, 0.15608270466327667, 0.3030153512954712, 0.30991676449775696], [0.17183279991149902, 0.20477187633514404, -0.2803533375263214, 0.03290887922048569, -0.15919415652751923, 0.16547805070877075, -0.15005038678646088, 0.19402749836444855, -0.023466743528842926, -0.11685697734355927, 0.1924351453781128, -0.08018612861633301, -0.050792496651411057, 0.24755075573921204, -0.0651874765753746, -0.20810849964618683, 0.15290328860282898], [-0.08454792201519012, 0.18659678101539612, -0.17647497355937958, 0.1600160151720047, 0.018374981358647346, -0.2169533669948578, -0.13417533040046692, 0.003609269857406616, -0.10451308637857437, -0.025973882526159286, 0.00617976114153862, 0.02638973295688629, -0.04214298725128174, -0.09523402154445648, -0.04997013509273529, -0.00790999736636877, -0.2519788146018982], [0.02907615713775158, -0.09813164174556732, -0.25084996223449707, -0.02506016381084919, 0.0818777084350586, 0.10481365025043488, 0.12278693914413452, -0.1893865168094635, -0.17535361647605896, -0.2024002969264984, -0.15492431819438934, -0.04166587069630623, 0.07930321991443634, 0.06927651166915894, 0.061233844608068466, -0.1182924211025238, -0.1951615959405899], [-0.1727060228586197, 0.22576184570789337, -0.15412330627441406, 0.03470200300216675, 0.0150774996727705, -0.17684940993785858, 0.22610920667648315, 0.17153190076351166, -0.03557807207107544, 0.06357716023921967, 0.2413080632686615, 0.1902727335691452, 0.02110704965889454, 0.05479854717850685, 0.07966319471597672, 0.05143172666430473, -0.026271140202879906], [0.00541797885671258, 0.07691679149866104, 0.23119612038135529, 0.16096480190753937, 0.18488970398902893, 0.23174822330474854, -0.06316565722227097, 0.11591075360774994, 0.20019826292991638, 0.2574821412563324, -0.14561618864536285, -0.09981825202703476, 0.2586122751235962, 0.0838938057422638, 0.11364440619945526, 0.06096169725060463, -0.06882749497890472], [-0.12613852322101593, 0.23297758400440216, 0.21421357989311218, 0.06269995868206024, 0.09930657595396042, -0.07004955410957336, -0.1107601672410965, 0.12111576646566391, 0.13768509030342102, -0.12222913652658463, -0.01085617858916521, 0.06356610357761383, -0.04774795472621918, -0.14228427410125732, -0.1510835886001587, -0.21457462012767792, -0.3015734851360321], [0.11211738735437393, -0.015455251559615135, 0.10301421582698822, -0.18633581697940826, 0.12458176165819168, 0.23799508810043335, -0.09172674268484116, 0.22200408577919006, 0.2037070095539093, 0.09659519046545029, -0.2101270705461502, -0.011512680910527706, 0.18871673941612244, 0.11415860801935196, 0.1475556641817093, 0.19649066030979156, 0.2620619237422943], [-0.2780759334564209, 0.037996139377355576, -0.1441773623228073, -0.10138842463493347, -0.0988318920135498, 0.011336945928633213, -0.14611002802848816, -0.03705165535211563, -0.17089298367500305, -0.23218616843223572, -0.09252256155014038, 0.09683413058519363, -0.20016980171203613, 0.2666609287261963, 0.24347351491451263, 0.12301996350288391, 0.21440769731998444], [-0.0060875979252159595, 0.23116101324558258, 0.020926877856254578, -0.08436249941587448, 0.09609085321426392, 0.09081593155860901, 0.1798238307237625, 0.04541788622736931, -0.09424132108688354, -0.20378051698207855, 0.052631039172410965, -0.019656294956803322, 0.18921732902526855, 0.014573691412806511, -0.1074286624789238, 0.019269287586212158, -0.05098959431052208], [0.17460742592811584, -0.13314314186573029, 0.0502183735370636, 0.03950894996523857, 0.14128103852272034, 0.14043667912483215, 0.27660447359085083, -0.06526534259319305, 0.25274190306663513, 0.3046211302280426, 0.054699886590242386, 0.12775729596614838, -0.06863193958997726, 0.131672665476799, 0.0398174487054348, -0.07989118248224258, -0.2520486116409302], [-0.013311023823916912, 0.14093202352523804, 0.13611729443073273, 0.17748774588108063, -0.018424086272716522, -0.04915977269411087, -0.03292948752641678, 0.1391887217760086, 0.0007600292447023094, -0.023522140458226204, 0.15250736474990845, 0.16743330657482147, -0.12532413005828857, -0.07040733844041824, -0.07850966602563858, 0.20128655433654785, 0.023144971579313278], [0.061148837208747864, -0.07772666960954666, -0.17976626753807068, -0.039424531161785126, -0.17527851462364197, -0.02882378175854683, 0.05964669585227966, 0.061333563178777695, 0.12210370600223541, 0.1082233116030693, -0.02961025759577751, 0.044035837054252625, 0.16247369349002838, 0.0384652316570282, -0.04006192833185196, -0.013174011372029781, -0.01354302279651165], [0.1520778387784958, -0.20843324065208435, -0.202981635928154, 0.18311432003974915, -0.06252799928188324, -0.04773353040218353, -0.16157783567905426, 0.17908501625061035, 0.1322948932647705, -0.014481312595307827, -0.03755248710513115, 0.22237545251846313, 0.17350013554096222, 0.14936256408691406, -0.004664805717766285, -0.21729619801044464, 0.16519945859909058], [-0.10126102715730667, 0.20423519611358643, -0.21070557832717896, 0.14729228615760803, 0.20507413148880005, -0.08396303653717041, -0.03559674322605133, 0.12064129114151001, 0.04673045873641968, -0.17566971480846405, 0.25380051136016846, -0.21929341554641724, -0.06246296316385269, -0.17187140882015228, -0.01795533113181591, -0.20420002937316895, -0.2256087362766266], [-0.08268006891012192, -0.26103630661964417, 0.12300955504179001, -0.007269501220434904, 0.03232967108488083, 0.07509990781545639, 0.1426420956850052, -0.2198183685541153, 0.06071992591023445, -0.14346341788768768, 0.02137286588549614, -0.24206461012363434, -0.15800824761390686, 0.12022524327039719, 0.13863925635814667, 0.01564091444015503, 0.13489556312561035], [-0.0010411691619083285, 0.10795675963163376, -0.2504786252975464, 0.1515268236398697, 0.13351163268089294, 0.25673434138298035, 0.16807691752910614, -0.05156747251749039, 0.0948106124997139, 0.28772518038749695, 0.10997045785188675, -0.16445891559123993, -0.08316483348608017, 0.031085703521966934, 0.10825716704130173, 0.17772209644317627, 0.020433597266674042], [-0.06807353347539902, -0.28315043449401855, -0.0424908846616745, -0.17484483122825623, -0.05989145115017891, 0.19978082180023193, 0.020253296941518784, 0.025504443794488907, 0.07071476429700851, 0.1939205527305603, 0.043414756655693054, 0.2249014973640442, -0.06896211206912994, 0.013325851410627365, 0.15530180931091309, -0.028379017487168312, 0.26959317922592163], [0.08053078502416611, 0.1708192080259323, 0.0032052728347480297, -0.14364005625247955, -0.10205692797899246, 0.24145594239234924, 0.08857740461826324, 0.11335787922143936, 0.19038376212120056, 0.1620468646287918, -0.10887675732374191, 0.17073954641819, -0.13748346269130707, 0.21297749876976013, -0.2060716301202774, 0.26709988713264465, -0.09621208161115646], [-0.10774994641542435, 0.20740672945976257, 0.1478365957736969, -0.04151877760887146, 0.15441302955150604, -0.15112733840942383, 0.12996666133403778, 0.02269509993493557, 0.06602367758750916, -0.2579939067363739, 0.24470597505569458, -0.07838243991136551, -0.03404480218887329, -0.2562313675880432, 0.23475341498851776, 0.029923012480139732, -0.16284745931625366], [-0.1840909868478775, -0.17932577431201935, 0.1893385350704193, 0.14027756452560425, -0.14449498057365417, -0.005952251143753529, -0.09936492145061493, 0.22421351075172424, 0.07186944782733917, -0.0826987698674202, -0.20825503766536713, 0.13925990462303162, -0.027915341779589653, -0.07536719739437103, 0.2271864116191864, 0.10627780854701996, 0.06348506361246109], [0.17537182569503784, -0.03748335689306259, 0.13690318167209625, -0.13866440951824188, -0.07421652227640152, -0.028417188674211502, -0.001482704421505332, -0.2700815200805664, 0.052994657307863235, 0.1655234843492508, -0.022104157134890556, -0.10258771479129791, 0.057925231754779816, -0.07511939108371735, -0.22919058799743652, 0.17895664274692535, -0.01002445351332426], [0.07918397337198257, 0.08020957559347153, -0.08988671749830246, -0.2588978707790375, 0.006450769957154989, 0.19902276992797852, -0.015928134322166443, -0.145440474152565, 0.12533479928970337, -0.0007123172981664538, -0.00758298160508275, -0.10513100028038025, 0.09539975970983505, 0.06592454761266708, -0.14958389103412628, 0.14392918348312378, 0.09641995280981064], [0.14461159706115723, -0.20256078243255615, 0.05721157416701317, 0.028986291959881783, 0.06680382043123245, -0.11540865153074265, -0.18618182837963104, 0.2364935278892517, 0.1523725688457489, 0.025564640760421753, -0.03295661881566048, 0.07239201664924622, -0.08697252720594406, -0.10794862359762192, -0.08256127685308456, 0.015474540181457996, 0.15868178009986877], [0.12741288542747498, -0.09781327098608017, 0.2002003788948059, -0.050842493772506714, -0.004710949491709471, 0.250235915184021, 0.18093425035476685, -0.1014188751578331, 0.14258594810962677, 0.07216248661279678, 0.20246927440166473, 0.02359863556921482, 0.0348275788128376, 0.2352973222732544, 0.0023726557847112417, -0.10491454601287842, -0.25045067071914673], [0.1536606252193451, 0.1565748155117035, -0.07671727985143661, -0.0074182176031172276, 0.08947610855102539, 0.12426195293664932, 0.01473827101290226, -0.2353074997663498, 0.058839257806539536, -0.05812516808509827, -0.25120821595191956, 0.20597481727600098, 0.020373651757836342, -0.11777504533529282, 0.13066813349723816, 0.15999431908130646, -0.08079992979764938], [-0.059526607394218445, 0.050499457865953445, -0.14387758076190948, 0.1228465586900711, 0.0629274919629097, -0.14742641150951385, 0.08031729608774185, -0.02323022484779358, 0.08215732872486115, -0.0020032788161188364, 0.12074998021125793, 0.05003412812948227, 0.2020839899778366, 0.1287001222372055, 0.0292129535228014, -0.1565518081188202, 0.07801323384046555], [0.07107340544462204, 0.04617026448249817, -0.09345857053995132, -0.17872263491153717, -0.17327766120433807, -0.0969412699341774, 0.16545940935611725, 0.1484479457139969, -0.12094283103942871, -0.05888662114739418, -0.27070099115371704, -0.1655167043209076, 0.22179965674877167, -0.1647302508354187, 0.047269318252801895, 0.20057858526706696, 0.055159375071525574], [-0.15401887893676758, -0.017920296639204025, -0.11278211325407028, -0.19129729270935059, 0.19398605823516846, -0.05319515988230705, 0.12207590788602829, 0.15170104801654816, -0.27788206934928894, -0.2380584329366684, -0.16601847112178802, -0.22463802993297577, -0.21579985320568085, 0.0017031885217875242, -0.1439775675535202, 0.20811143517494202, -0.331634521484375], [-0.028445539996027946, 0.10001452267169952, 0.027266347780823708, 0.13477186858654022, -0.004478534683585167, -0.04962652549147606, -0.015938306227326393, 0.013885917142033577, 0.28352877497673035, 0.3432023823261261, -0.031986795365810394, -0.25209978222846985, 0.18069525063037872, 0.17058145999908447, 0.1502186805009842, 0.0077947271056473255, -0.04069562256336212], [-0.022299103438854218, -0.05099960044026375, -0.10965833067893982, 0.06826269626617432, -0.08042377978563309, -0.21022993326187134, -0.01211539562791586, 0.038788389414548874, -0.03145630285143852, 0.03126712143421173, -0.1571064591407776, -0.12154925614595413, 0.3015062212944031, 0.04377751797437668, -0.11155759543180466, -0.04103047400712967, -0.12685824930667877], [0.0708436593413353, -0.1440533995628357, 0.11656897515058517, -0.09171969443559647, -0.1422535926103592, 0.15602847933769226, 0.161215677857399, -0.052468862384557724, -0.24138705432415009, -0.07525129616260529, -0.07635465264320374, -0.3176843523979187, 0.14745540916919708, -0.07191704213619232, 0.16148124635219574, 0.2250666618347168, 0.01462224405258894], [0.04541749507188797, -0.12137790024280548, -0.29074376821517944, -0.09109561145305634, -0.12444417923688889, -0.032544348388910294, 0.09232386201620102, 0.1360315978527069, -0.16626104712486267, 0.13077546656131744, -0.02730260044336319, -0.03881997987627983, -0.12449987232685089, 0.08133523911237717, -0.0394488163292408, 0.18667800724506378, 0.1780158281326294], [-0.0995318740606308, 0.22050988674163818, 0.047011859714984894, -0.16709783673286438, -0.18802525103092194, -0.1654297113418579, 0.20788982510566711, -0.19704662263393402, -0.1452002078294754, -0.24969768524169922, 0.20781521499156952, -0.0836392417550087, 0.12072379142045975, 0.024498650804162025, -0.04281710088253021, -0.023303961381316185, 0.11041530221700668], [-0.14318980276584625, 0.0017645764164626598, 0.0705924928188324, 0.10462366044521332, -0.0680161640048027, 0.08686234056949615, 0.1537407487630844, -0.057952433824539185, -0.004523046780377626, 0.21758562326431274, 0.2689167559146881, 0.19214914739131927, 0.21944451332092285, -0.032403260469436646, 0.23167242109775543, -0.11072976142168045, -0.2933619022369385], [0.17378203570842743, 0.18391549587249756, 0.017384957522153854, -0.11562608927488327, 0.1645534783601761, 0.16029898822307587, -0.11587978154420853, 0.034491147845983505, -0.20802581310272217, 0.08809389173984528, 0.21111084520816803, 0.035108327865600586, -0.11360512673854828, 0.005453947000205517, 0.06063953414559364, 0.18762710690498352, -0.03527132049202919], [0.07123491913080215, 0.15404821932315826, -0.02488117478787899, 0.03553009778261185, 0.1270529329776764, 0.16221486032009125, 0.18962304294109344, -0.06562459468841553, 0.06138864532113075, -0.02482839860022068, 0.0679815411567688, 0.11079291254281998, 0.2779060900211334, 0.3022262156009674, 0.11520780622959137, -0.049309760332107544, -0.2915007472038269], [-0.032006848603487015, 0.2402491718530655, -0.15788167715072632, 0.11668377369642258, -0.18680575489997864, -0.11829317361116409, 0.19191309809684753, -0.008194911293685436, 0.14612838625907898, -0.23513861000537872, -0.17143034934997559, 0.0031368283089250326, 0.03682969883084297, -0.20422481000423431, -0.17722243070602417, 0.26088351011276245, 0.09657037258148193], [-0.1210285946726799, 0.1514337807893753, -0.0284130722284317, -0.12214980274438858, -0.05848047509789467, 0.11771401762962341, 0.09899365901947021, -0.01074252650141716, -0.1538650542497635, -0.025807781144976616, -0.20804104208946228, -0.15687863528728485, 0.11178959161043167, -0.16965550184249878, -0.06854206323623657, 0.1397777646780014, 0.020753230899572372], [-0.11816437542438507, 0.1557506024837494, -0.052305322140455246, 0.06632063537836075, 0.10858213156461716, 0.20762456953525543, -0.07771638035774231, 0.04719150811433792, 0.1474401205778122, -0.030752358958125114, 0.2520630657672882, 0.11699029058218002, 0.13587841391563416, -0.1101631447672844, 0.23927688598632812, -0.14783552289009094, -0.09060323983430862], [-0.1778828501701355, 0.2135140299797058, 0.22413484752178192, 0.08430510759353638, 0.19083751738071442, 0.04842650890350342, -0.14118823409080505, 0.1301564872264862, -0.10262108594179153, -0.19321776926517487, 0.09148994088172913, 0.02692326344549656, 0.03657325357198715, -0.17657777667045593, -0.017797011882066727, -0.052281275391578674, 0.05608873814344406], [0.22262358665466309, -0.14882706105709076, 0.08381704986095428, -0.20917093753814697, -0.11521173268556595, -0.20823998749256134, -0.25448447465896606, 0.03554283827543259, -0.08922699093818665, -0.09720855951309204, 0.10310974717140198, 0.06923448294401169, -0.16866709291934967, -0.11802482604980469, 0.20338116586208344, 0.06868389993906021, -0.18670521676540375], [0.13199222087860107, 0.04933002591133118, -0.017227958887815475, 0.16420862078666687, 0.252636194229126, -0.3282713294029236, -0.12501831352710724, -0.03618592023849487, -0.1476534754037857, -0.25196778774261475, 0.14778877794742584, -0.2325291782617569, 0.17524902522563934, 0.11801033467054367, -0.08488824218511581, 0.10455291718244553, -0.1377105563879013], [0.15228675305843353, 0.12622247636318207, -0.1137649193406105, 0.17535245418548584, 0.0778639018535614, -0.1368420124053955, -0.29815569519996643, -0.1631554812192917, -0.08698588609695435, -0.10719196498394012, -0.020535998046398163, -0.18412791192531586, -0.19803456962108612, -0.14824160933494568, -0.14611096680164337, 0.02112024463713169, 0.23651017248630524], [-0.04566853120923042, 0.16618500649929047, 0.04234999045729637, -0.3055596947669983, 0.23331870138645172, 0.1346248835325241, 0.0036409986205399036, -0.06626640260219574, 0.07905113697052002, -0.14096583425998688, 0.14210578799247742, 0.10058864206075668, -0.20008492469787598, 0.10888681560754776, -0.0705517902970314, 0.015049168840050697, -0.11558100581169128], [0.027200786396861076, -0.2634003460407257, -0.1585436314344406, 0.0997295081615448, -0.24228915572166443, -0.2594992220401764, 0.042591631412506104, 0.06577559560537338, -0.04747333750128746, 0.3326509892940521, -0.03821095824241638, -0.0320526622235775, 0.14440970122814178, 0.17021721601486206, 0.10110089182853699, 0.11944248527288437, -0.15511463582515717], [-0.2090049386024475, -0.11580736190080643, -0.015065759420394897, 0.06107078865170479, 0.11897685378789902, -0.08600406348705292, 0.10485997051000595, 0.03405904024839401, 0.11000010371208191, 0.08744943141937256, -0.2965098023414612, 0.025233807042241096, 0.204188272356987, 0.11393669992685318, 0.09974741190671921, 0.37279295921325684, 0.15036863088607788], [0.005922385025769472, 0.006899489089846611, 0.012755727395415306, -0.11363621056079865, -0.1084408313035965, -0.026640960946679115, -0.24738843739032745, 0.0062639182433485985, -0.3068338632583618, -0.12117332220077515, 0.1576620191335678, 0.17056423425674438, 0.13147658109664917, -0.10864626616239548, -0.12467650324106216, -0.08727294951677322, 0.10951147973537445], [-0.010551689192652702, 0.20232900977134705, -0.12731894850730896, -0.041668232530355453, -0.1537591516971588, 0.01142409909516573, -0.05152076482772827, 0.18555597960948944, 0.06513004004955292, -0.1627478301525116, -0.1906668096780777, 0.11261600255966187, -0.282095730304718, -0.0029988472815603018, 0.009191066958010197, -0.2896654009819031, -0.06634142994880676], [0.0557086355984211, 0.06297139823436737, 0.08842276781797409, -0.19875293970108032, -0.09177049249410629, 0.27400070428848267, 0.06125449761748314, -0.211093008518219, 0.06330378353595734, 0.009715876542031765, -0.13052985072135925, 0.07284970581531525, -0.1683383285999298, 0.29033416509628296, -0.02558247186243534, 0.21964731812477112, -0.01699196919798851], [0.1892261505126953, 0.08274488896131516, 0.09679216146469116, 0.1328943818807602, 0.11603675037622452, 0.35662269592285156, -0.10106659680604935, -0.14851248264312744, -0.1957789659500122, 0.20696790516376495, 0.12111734598875046, 0.02381760999560356, -0.1090615764260292, 0.25413742661476135, 0.25016531348228455, -0.16476792097091675, 0.08343513309955597], [0.15904228389263153, 0.04450862482190132, 0.12753701210021973, 0.0041040885262191296, 0.0930679440498352, 0.2302185297012329, -0.17384037375450134, -0.059143099933862686, -0.04119352623820305, -0.0986679196357727, 0.05478743836283684, 0.00023307939409278333, 0.15397022664546967, 0.011589250527322292, -0.013498549349606037, 0.19453461468219757, -0.1453520506620407], [0.2733106315135956, -0.23512002825737, -0.131461039185524, -0.0871715098619461, 0.11286050081253052, 0.039145249873399734, 0.0778045728802681, -0.18913158774375916, -0.06470078229904175, 0.006734020076692104, -0.19715885818004608, -0.2226274013519287, 0.06449617445468903, -0.08890519291162491, 0.16848474740982056, 0.0031831907108426094, 0.26457682251930237], [0.025718864053487778, -0.25031349062919617, -0.29113587737083435, 0.0031840642914175987, 0.10540268570184708, -0.08560644835233688, 0.07837861031293869, 0.10587158054113388, -0.09656311571598053, -0.05471416190266609, -0.05981835722923279, -0.19023576378822327, -0.1854390949010849, -0.030294394120573997, -0.17212225496768951, -0.1752588003873825, -0.03707479313015938], [0.1151387169957161, -0.11439747363328934, -0.010443606413900852, 0.13799479603767395, -0.011607861146330833, 0.0678011104464531, 0.022637948393821716, -0.1343494951725006, -0.08202914893627167, -0.2669951319694519, -0.06246376782655716, 0.22304898500442505, 0.09032674878835678, -0.1741774082183838, -0.10804615914821625, 0.1679254174232483, 0.18325857818126678], [0.04685935750603676, -0.24342457950115204, 0.08934210240840912, 0.11224638670682907, 0.1701991707086563, -0.11160364747047424, 0.1883181929588318, 0.17114850878715515, -0.15327291190624237, 0.22487303614616394, 0.15090033411979675, 0.16652190685272217, 0.10626423358917236, 0.3725290894508362, 0.08252620697021484, -0.13047340512275696, -0.003980238456279039], [-0.16429224610328674, -0.20222926139831543, -0.05420221760869026, 0.09614484757184982, -0.004367089364677668, -0.063107930123806, -0.037701770663261414, 0.15813767910003662, -0.18677736818790436, -0.2156459391117096, 0.14358890056610107, -0.17964446544647217, -0.20969602465629578, -0.133668914437294, 0.23611019551753998, -0.20211069285869598, -0.08783181756734848], [0.24237577617168427, 0.02789354883134365, -0.14730902016162872, -0.24819301068782806, -0.011476434767246246, -0.19072362780570984, -0.14717991650104523, -0.18851901590824127, 0.16699331998825073, 0.09674721211194992, -0.041896384209394455, -0.035926248878240585, 0.2397811859846115, -0.19560901820659637, -0.05190221220254898, 0.19563622772693634, -0.16727997362613678], [0.1483098715543747, -0.042240750044584274, -0.1282843053340912, -0.04202272742986679, -0.15970206260681152, -0.20210444927215576, 0.1044665053486824, -0.13522638380527496, -0.040784914046525955, 0.0706096887588501, -0.15384609997272491, -0.13376356661319733, 0.06736471503973007, -0.17115579545497894, 0.09357738494873047, 0.17444905638694763, -0.13375261425971985], [0.02791307121515274, -0.07965485751628876, -0.08207972347736359, 0.08008232712745667, -0.17762981355190277, -0.16577249765396118, 0.053285278379917145, 0.2516401410102844, -0.18433284759521484, 0.21475806832313538, 0.20121437311172485, -0.0016184806590899825, -0.05462983623147011, 0.2841172218322754, -0.29179057478904724, 0.060377124696969986, -0.20170114934444427], [-0.07745254039764404, -0.047873057425022125, 0.01000581681728363, -0.20376531779766083, -0.20967519283294678, 0.14542989432811737, 0.13392247259616852, 0.08283524960279465, -0.2786807715892792, 0.27023643255233765, -0.1453632265329361, 0.030321065336465836, -0.04957097768783569, 0.08622381836175919, -0.015474161133170128, 0.21462421119213104, -0.1463276594877243], [-0.022529030218720436, 0.28227296471595764, -0.13442935049533844, 0.03952656686306, 0.033402808010578156, 0.04504169523715973, -0.023813171312212944, 0.18533097207546234, -0.22460225224494934, 0.2667649984359741, 0.13963009417057037, 0.10039453953504562, -0.20100633800029755, 0.37713363766670227, 0.17975638806819916, 0.03033621236681938, 0.09005004167556763], [0.19202083349227905, -0.18624450266361237, -0.15453946590423584, 0.22191163897514343, 0.09610920399427414, -0.11297870427370071, 0.08749211579561234, 0.09149990975856781, 0.20385617017745972, -0.21869683265686035, -0.07275199145078659, -0.03085550293326378, -0.2203446924686432, -0.17372053861618042, -0.16152718663215637, -0.23446279764175415, -0.04559357836842537], [-0.17826947569847107, -0.12911638617515564, 0.144398033618927, 0.2111787497997284, 0.0009087953367270529, 0.08193059265613556, 0.2575399577617645, 0.08908969908952713, -0.18381524085998535, -0.13582441210746765, -0.07122085988521576, 0.12261056900024414, 0.2510068714618683, -0.027808314189314842, -0.08382833003997803, 0.17395752668380737, 0.011555111035704613], [0.10118930041790009, 0.1384517103433609, -0.1638559252023697, 0.01687593199312687, -0.1019894927740097, 0.17613635957241058, 0.2563166320323944, 0.11392350494861603, 0.27071642875671387, 0.04736461490392685, -0.15098951756954193, -0.11313793063163757, 0.044278986752033234, 0.16426026821136475, -0.24194477498531342, 0.15398375689983368, 0.23872023820877075], [-0.14045119285583496, 0.061693303287029266, 0.13709206879138947, 0.16366128623485565, 0.12352387607097626, 0.22807617485523224, -0.12952306866645813, -0.049348991364240646, -0.14912031590938568, 0.2067667692899704, -0.27332356572151184, 0.258807897567749, -0.1547749638557434, -0.16608813405036926, 0.025866111740469933, -0.09239339083433151, 0.15832297503948212], [0.08620233833789825, 0.09722793102264404, 0.05562233179807663, 0.08491801470518112, 0.1380692571401596, -0.038314566016197205, 0.09962165355682373, 0.12675102055072784, -0.09987860918045044, -0.255234956741333, -0.16458360850811005, -0.152772918343544, -0.00788179412484169, 0.023398151621222496, -0.145064577460289, 0.11063271015882492, 0.261215478181839], [-0.19345442950725555, 0.1848459541797638, -0.10777308791875839, -0.1934574693441391, -0.14370492100715637, 0.10425416380167007, -0.12290921062231064, 0.05556202679872513, 0.23195143043994904, -0.020633667707443237, -0.08310213685035706, 0.14600560069084167, 0.22175098955631256, -0.07067564129829407, -0.042403314262628555, -0.0006324861315079033, 0.08612506836652756], [0.1852303147315979, -0.23919686675071716, -0.2175634354352951, -0.09547315537929535, 0.1464034616947174, -0.11080485582351685, 0.012147854082286358, -0.11326910555362701, 0.20335395634174347, -0.05134882777929306, 0.2445552945137024, -0.03163600340485573, 0.11609653383493423, -0.16484522819519043, -0.1197521984577179, 0.22810371220111847, -0.19146625697612762], [0.057016707956790924, -0.07594961673021317, 0.21189798414707184, -0.10131031274795532, 0.06680335849523544, 0.2242330014705658, -0.0801037847995758, -0.07851716876029968, 0.16408178210258484, 0.07924791425466537, 0.20308521389961243, 0.004961431957781315, 0.1909910887479782, 0.25396716594696045, -0.09586066752672195, -0.0030997542198747396, 0.14341068267822266], [0.00984097458422184, 0.19950561225414276, -0.06574437767267227, 0.13344252109527588, -0.19329741597175598, 0.11494553089141846, -0.21415609121322632, -0.07192744314670563, -0.08945254981517792, 0.16486898064613342, -0.1134369820356369, 0.059537146240472794, -0.14298419654369354, -0.11412052810192108, -0.03779895231127739, -0.12514802813529968, 0.2557649612426758], [-0.14041809737682343, -0.0456598736345768, 0.2164527177810669, -0.19369210302829742, -0.1136903241276741, -0.14881198108196259, -0.11016996204853058, -0.04128387197852135, 0.11008872091770172, -0.042258698493242264, 0.03151429444551468, 0.05023180693387985, 0.2423095703125, -0.18054641783237457, 0.12184732407331467, 0.04812435060739517, -0.1744825690984726], [0.20480933785438538, -0.21046589314937592, 0.0834842249751091, -0.24116766452789307, 0.27923861145973206, -0.261385053396225, 0.1408807337284088, -0.07359826564788818, 0.0849173441529274, -0.18834257125854492, 0.010826078243553638, 0.017351137474179268, -0.19501513242721558, 0.00028042905614711344, -0.08272029459476471, 0.24360047280788422, 0.12125417590141296], [0.09416694194078445, 0.004663371481001377, 0.14881101250648499, 0.11297637224197388, 0.012022427283227444, -0.06940952688455582, -0.20521463453769684, -0.06537679582834244, -0.011447031982243061, 0.43755388259887695, 0.11145070195198059, 0.14525432884693146, 0.16073556244373322, 0.14181922376155853, 0.2841681241989136, -0.24615833163261414, -0.12665767967700958], [0.028969448059797287, -0.1203678697347641, -0.19252635538578033, 0.2172754853963852, 0.10478901118040085, -0.04815980792045593, -0.12873589992523193, 0.1866782158613205, -0.06494468450546265, -0.1314515620470047, -0.08430732041597366, 0.004741043783724308, -0.11474814265966415, -0.14624473452568054, -0.1845787614583969, 0.020888391882181168, -0.06517284363508224], [0.05658303573727608, -0.10262748599052429, -0.00045755994506180286, 0.1665639728307724, -0.026636231690645218, -0.05725385621190071, 0.03311176970601082, 0.08049371838569641, -0.17355555295944214, 0.3257860541343689, -0.1630662977695465, 0.20306366682052612, 0.21729320287704468, 0.16907508671283722, 0.08399182558059692, -0.23605018854141235, 0.2400834709405899], [0.22222527861595154, 0.12710925936698914, -0.0038505359552800655, -0.22748641669750214, 0.21544122695922852, 0.190677672624588, -0.06958679109811783, -0.11658241599798203, 0.12146210670471191, 0.18953831493854523, 0.16020746529102325, -0.009231725707650185, -0.20303569734096527, -0.0344080924987793, -0.16724377870559692, -0.21217487752437592, -0.2150326371192932], [-0.019425341859459877, -0.09766338765621185, 0.18162651360034943, -0.28299516439437866, 0.09010550379753113, -0.12146297097206116, 0.19209377467632294, -0.034799739718437195, 0.09903447329998016, -0.16251733899116516, -0.05720529705286026, -0.19958309829235077, 0.01380261778831482, -0.3259705603122711, 0.26798468828201294, -0.09609188139438629, 0.021198924630880356], [-0.01271046046167612, 0.11345773190259933, -0.169414222240448, -0.05077304691076279, 0.0694911926984787, 0.273457795381546, -0.16930770874023438, 0.1758362501859665, 0.04480012133717537, 0.08738929778337479, 0.13710522651672363, 0.007916586473584175, 0.0232088603079319, -0.32482925057411194, 0.017693031579256058, 0.28744009137153625, -0.11968760192394257], [-0.14090083539485931, -0.10465481132268906, 0.012728787027299404, 0.2410432994365692, 0.005304396618157625, -0.14051303267478943, -0.17674358189105988, 0.16571097075939178, -0.20709703862667084, -0.2160758227109909, -0.21904805302619934, -0.020640376955270767, -0.07925589382648468, -0.019607407972216606, -0.0773702934384346, -0.22160521149635315, -0.13442744314670563], [-0.45051366090774536, -0.05481262132525444, -0.13236801326274872, -0.07535801082849503, 0.1780693382024765, 0.19633159041404724, -0.0828385129570961, 0.20959649980068207, 0.033075615763664246, -0.1862240433692932, 0.10969467461109161, 0.038372792303562164, -0.051000647246837616, 0.24810142815113068, 0.01692887768149376, 0.09107184410095215, 0.30488574504852295], [-0.17677240073680878, 0.16114027798175812, -0.01705078035593033, -0.09516572952270508, 0.2501170337200165, 0.06720604747533798, 0.045618608593940735, 0.19669215381145477, 0.06494468450546265, -0.008133023977279663, 0.06387916952371597, -0.2209327667951584, 0.18196958303451538, -0.09235166013240814, -0.18470072746276855, -0.13247063755989075, 0.14260831475257874], [-0.13438598811626434, -0.21524514257907867, 0.03443043678998947, 0.07943030446767807, -0.11084607988595963, -0.07292216271162033, 0.1859339326620102, 0.19902274012565613, 0.24643468856811523, 0.30793482065200806, -0.029075782746076584, -0.01789931021630764, 0.14537867903709412, 0.044287096709012985, 0.15968964993953705, -0.09783238172531128, 0.06985222548246384], [-0.16997243463993073, 0.12558333575725555, -0.22682198882102966, 0.1937796175479889, 0.01755758374929428, 0.37836766242980957, 0.21989713609218597, -0.021300317719578743, -0.19722430408000946, 0.007594991475343704, -0.13447518646717072, 0.0710681676864624, -0.12852761149406433, 0.358951210975647, -0.1122908666729927, 0.05451628938317299, -0.028966788202524185]], "fc1.bias": [-0.050751615315675735, 0.0655074492096901, -0.04710733890533447, -0.062121301889419556, -0.18257398903369904, 0.18109609186649323, 0.17183884978294373, -0.04420667141675949, -0.07309377938508987, 0.2243574857711792, 0.12853790819644928, -0.05657114088535309, -0.22689272463321686, 0.06245321035385132, -0.12756837904453278, 0.17268963158130646, 0.13309809565544128, 0.08906622231006622, 0.04144851863384247, 0.18602076172828674, 0.06680043786764145, 0.1625540554523468, 0.1797858476638794, -0.23584973812103271, -0.10566104203462601, -0.04076056554913521, 0.10773356258869171, 0.20750485360622406, 0.049115054309368134, 0.06194246560335159, -0.04864160344004631, -0.05213974043726921, 0.23921799659729004, 0.036540236324071884, 0.03645520284771919, -0.04135476052761078, -0.2023964524269104, 0.2142212837934494, 0.04998861998319626, 0.18290647864341736, 0.17872226238250732, -0.13705451786518097, 0.1980963498353958, 0.05494337156414986, 0.09329588711261749, -0.05741952359676361, -0.17685268819332123, 0.03584437072277069, -0.07563312351703644, 0.15753480792045593, -0.07116850465536118, 0.22634634375572205, -0.055314838886260986, 0.2269323319196701, -0.11263631284236908, -0.16831852495670319, -0.10637055337429047, 0.18286719918251038, 0.1148967444896698, -0.18687550723552704, 0.007375592831522226, 0.09425004571676254, 0.12568342685699463, -0.038217153400182724, 0.0673941969871521, -0.1437186300754547, 0.031425535678863525, 0.18118588626384735, -0.0801021009683609, -0.025942133739590645, -0.17488528788089752, -0.11065851151943207, 0.2187114655971527, -0.015793442726135254, -0.21167543530464172, 0.07018304616212845, -0.08995386213064194, 0.18335850536823273, 0.06083478033542633, -0.20466011762619019, -0.02348412200808525, -0.20179741084575653, 0.024253254756331444, 0.23785772919654846, 0.20423752069473267, -0.21974314749240875, 0.20118780434131622, -0.14027969539165497, 0.21352851390838623, -0.13270357251167297, 0.08437217026948929, -0.0014094796497374773, -0.12613345682621002, 0.22311221063137054, -0.03684607148170471, 0.08218500763177872, -0.08150918036699295, -0.06844796985387802, -0.04512045904994011, -0.024907264858484268, 0.21046045422554016, -0.03541380912065506, 0.14947600662708282, 0.15673315525054932, -0.13600970804691315, -0.12718503177165985, 0.10806351155042648, 0.0531131885945797, -0.18577328324317932, 0.23886623978614807, -0.17813684046268463, 0.07808822393417358, -0.22810232639312744, 0.20973455905914307, 0.11833787709474564, 0.0055266013368964195, -0.0857016071677208, -0.07301882654428482, -0.18011735379695892, -0.05084986984729767, -0.21734127402305603, 0.07371391355991364, 0.0445377342402935, 0.2545934319496155, 0.1571437269449234, -0.16137665510177612, 0.027490882202982903, -0.05153965577483177], "bn1.weight": [0.9960737228393555, 1.007404088973999, 1.0502984523773193, 1.0594264268875122, 0.9578417539596558, 1.039491891860962, 1.1266988515853882, 1.0523756742477417, 1.0191866159439087, 0.974138081073761, 1.0456461906433105, 0.9547849893569946, 1.0521292686462402, 0.9409465789794922, 1.0055185556411743, 1.038515329360962, 1.1306815147399902, 1.0149279832839966, 0.9714459776878357, 1.0422401428222656, 1.0675643682479858, 0.964036226272583, 1.027748942375183, 0.9691713452339172, 0.9416695237159729, 1.0068318843841553, 0.9863677620887756, 1.0171470642089844, 1.0273536443710327, 0.949207067489624, 1.0107389688491821, 1.0361220836639404, 0.9409356713294983, 0.9962251782417297, 1.0458450317382812, 1.054945707321167, 0.9482802748680115, 0.9923089742660522, 0.9759718775749207, 1.0687109231948853, 0.9818166494369507, 0.9620396494865417, 0.9626016616821289, 0.9868704676628113, 0.9732023477554321, 0.9676052927970886, 0.9861754179000854, 0.9575145840644836, 1.0337731838226318, 0.9623603224754333, 0.9824591279029846, 0.9961432218551636, 0.98343425989151, 1.0174788236618042, 0.9852205514907837, 0.9583941698074341, 0.9702262282371521, 0.9444835782051086, 0.967605471611023, 0.9790077805519104, 1.008575201034546, 0.933550238609314, 0.9968034029006958, 1.0485073328018188, 0.9863654971122742, 1.0188268423080444, 1.0169544219970703, 0.9454199075698853, 1.0177221298217773, 0.9176308512687683, 1.0015965700149536, 1.0379691123962402, 1.0382112264633179, 1.0470585823059082, 1.044471263885498, 0.9956039786338806, 0.9737828373908997, 1.0654851198196411, 0.9804214239120483, 1.0020867586135864, 1.0186824798583984, 0.9961453080177307, 0.9972429275512695, 1.000929832458496, 0.9852129220962524, 0.9962148070335388, 0.9407018423080444, 1.0554373264312744, 1.0003349781036377, 0.9618514180183411, 1.0447837114334106, 0.9853014349937439, 0.9840695858001709, 1.0182478427886963, 1.0148882865905762, 0.9893863797187805, 0.970209002494812, 0.9655988812446594, 0.9726272821426392, 0.9738474488258362, 0.9859622120857239, 1.1056044101715088, 1.030822992324829, 0.9920779466629028, 0.9811370372772217, 1.0063865184783936, 0.9819272756576538, 0.9293620586395264, 0.9370625615119934, 0.8924789428710938, 1.0058915615081787, 0.981777548789978, 0.9544762969017029, 1.0393673181533813, 0.9489049911499023, 0.9729750752449036, 1.0067940950393677, 1.0807228088378906, 0.9895826578140259, 0.9578546285629272, 1.0375750064849854, 1.0897889137268066, 0.967718243598938, 0.9852006435394287, 1.077938437461853, 0.9877409934997559, 0.9759493470191956, 1.0005462169647217], "bn1.bias": [0.10187828540802002, -0.12297628819942474, -0.04950759932398796, -0.09663000702857971, 0.07749796658754349, -0.03924230858683586, 0.06483415514230728, -0.013209384866058826, -0.10764438658952713, -0.011877373792231083, -0.006172364577651024, 0.057588424533605576, 0.02528899721801281, 0.11435981094837189, -0.14872761070728302, 0.01718115247786045, -0.06784795969724655, 0.15719245374202728, -0.034521330147981644, -0.043223440647125244, 0.0013375993585214019, 0.032383717596530914, -0.051500529050827026, 0.07579602301120758, -0.0730707123875618, -0.07171311974525452, 0.04438583180308342, 0.05828532204031944, -0.06386146694421768, -0.07265135645866394, -0.04188206046819687, -0.056548863649368286, -0.02845202572643757, -0.042069483548402786, -0.09091611951589584, -0.025367029011249542, -0.1159653440117836, 0.07670947164297104, 0.04887521639466286, 0.052204668521881104, 0.002606141148135066, 0.16665402054786682, 0.05333783105015755, -0.011306444182991982, -0.1303931176662445, -0.02204648219048977, 0.10122609883546829, 0.0457032136619091, -0.11876412481069565, -0.01315261423587799, -0.03630773350596428, -0.11338469386100769, 0.05515950918197632, 0.0033747213892638683, -0.03802934288978577, -0.053529053926467896, -0.0033173628617078066, 0.15709803998470306, -0.05424175411462784, -0.07205037772655487, -0.02637142688035965, 0.11233898997306824, -0.020276248455047607, 0.056844066828489304, 0.033353373408317566, -0.016699910163879395, -0.02966010384261608, 0.03607910871505737, -0.04283366724848747, -0.06667853146791458, -0.0716431587934494, 0.017472155392169952, 0.0848032534122467, 0.02961600571870804, 0.2524208724498749, -0.01892915368080139, -0.002256642561405897, 0.026066310703754425, -0.08885084092617035, 0.015475483611226082, -0.04541024938225746, -0.008947032503783703, -0.06984523683786392, 0.17005431652069092, -0.020687421783804893, 0.01897556148469448, -0.032942693680524826, 0.14044541120529175, 0.03215133026242256, 0.05766600742936134, -0.08642276376485825, -0.006851698271930218, 0.11076290905475616, -0.02914658561348915, 0.03408806398510933, -0.06922066956758499, 0.05703573673963547, 0.07249776273965836, -0.03999039903283119, 0.025927698239684105, 0.020014025270938873, -0.03017013892531395, 0.0487966313958168, -0.042609088122844696, -0.005197532940655947, 0.06048354133963585, -0.017034048214554787, 0.010021360591053963, -0.004887312650680542, -0.11984139680862427, -0.12974408268928528, -0.024902835488319397, -0.026199448853731155, 0.004191590938717127, -0.009244936518371105, 0.022948594763875008, 0.1285514533519745, -0.09705658257007599, 0.0997474193572998, 0.010532978922128677, 0.03780616447329521, 0.011714674532413483, -0.0451849140226841, -0.0005466236034408212, 0.045919883996248245, 0.07341711223125458, -0.0679253414273262, 0.1763688623905182], "bn1.running_mean": [50.167850494384766, -48.108089447021484, 5.449984550476074, -4.944531440734863, -142.72445678710938, 166.04010009765625, 120.88141632080078, 53.50922775268555, 56.70311737060547, 107.94140625, 5.1837263107299805, -177.8242950439453, -65.83218383789062, 16.574796676635742, 1.8624587059020996, -3.298922300338745, -119.2662124633789, -16.734718322753906, 6.417486667633057, -13.186546325683594, 35.52904510498047, -149.16238403320312, 118.78001403808594, -119.76954650878906, -57.7395133972168, 12.914972305297852, -133.8997802734375, 186.76953125, 77.08826446533203, 105.7341079711914, 169.5142364501953, 135.83895874023438, -101.41554260253906, -165.0944366455078, 4.407548427581787, 130.0346221923828, 145.68838500976562, -189.45907592773438, -256.7162780761719, 69.544921875, 183.0563507080078, -116.51814270019531, -102.70665740966797, -114.24916076660156, 67.79150390625, -122.92591094970703, -107.9805908203125, -101.00967407226562, 115.84075927734375, 219.62001037597656, -7.590456008911133, 179.35107421875, -165.9250946044922, 111.33349609375, 180.30043029785156, 84.95138549804688, -17.28656768798828, -71.85148620605469, 0.339306116104126, 30.893451690673828, 119.69322967529297, -19.625776290893555, 36.56745147705078, 238.48941040039062, -10.593242645263672, 37.05387496948242, 36.326019287109375, -12.021162986755371, 168.35447692871094, 77.62430572509766, 67.97352600097656, 6.087291717529297, -135.61187744140625, 148.84788513183594, -66.52091979980469, 67.9287338256836, -127.33032989501953, 42.366943359375, 169.9067840576172, 98.14716339111328, 219.48501586914062, 11.003018379211426, -52.7319221496582, 152.5430450439453, 55.99362564086914, -22.58458709716797, 99.00993347167969, -152.3074951171875, 62.383888244628906, -40.225852966308594, 122.58738708496094, -133.4446258544922, -220.53533935546875, 11.047513008117676, 44.50682067871094, 128.73721313476562, 12.234742164611816, -222.61695861816406, 15.32933235168457, 116.37032318115234, -128.14981079101562, 82.22171020507812, 1.3228774070739746, -109.0380630493164, -104.44210815429688, -13.329113960266113, -91.90343475341797, 85.9222640991211, 50.111289978027344, -133.27447509765625, 22.116470336914062, -21.124116897583008, 147.47738647460938, 159.14527893066406, -210.8712921142578, 100.7919692993164, 138.311279296875, 85.59854888916016, -156.1245880126953, -52.688438415527344, 4.080889701843262, 138.74403381347656, 72.7603988647461, -261.0841064453125, -41.07833480834961, 49.96900177001953, 91.08775329589844, -132.98797607421875], "bn1.running_var": [89.90900421142578, 76.0390853881836, 34.63808059692383, 69.3184814453125, 196.15367126464844, 98.49256896972656, 103.3189926147461, 160.7980194091797, 31.643892288208008, 81.99513244628906, 100.54563903808594, 167.1484375, 48.20301818847656, 63.34229278564453, 59.33424377441406, 57.749107360839844, 75.72274780273438, 45.175594329833984, 98.08348846435547, 65.1045913696289, 135.77859497070312, 309.7421569824219, 91.81094360351562, 227.17808532714844, 106.34011840820312, 67.11409759521484, 282.9991149902344, 196.74249267578125, 21.905288696289062, 283.4985656738281, 316.0341491699219, 74.49329376220703, 152.480224609375, 247.51976013183594, 108.78263854980469, 219.2194061279297, 171.91017150878906, 297.4364929199219, 359.9910888671875, 149.6958770751953, 139.2361297607422, 509.3777770996094, 91.57005310058594, 123.84481048583984, 161.41070556640625, 229.9634246826172, 54.530517578125, 144.87539672851562, 311.847900390625, 523.4215698242188, 147.2306671142578, 282.7356872558594, 140.20404052734375, 281.6307067871094, 181.3721923828125, 99.61840057373047, 48.61380386352539, 409.0624084472656, 60.71013641357422, 68.73875427246094, 195.68661499023438, 68.53022003173828, 67.86267852783203, 902.9706420898438, 43.485633850097656, 49.7142333984375, 80.62784576416016, 120.02239227294922, 207.8314666748047, 101.03868865966797, 78.89715576171875, 98.95088958740234, 120.46564483642578, 327.3616638183594, 77.0075912475586, 170.45579528808594, 338.83489990234375, 196.22296142578125, 344.49188232421875, 116.5121841430664, 502.0352783203125, 111.60223388671875, 60.53504943847656, 354.42572021484375, 200.46470642089844, 170.2205047607422, 90.96978759765625, 243.49180603027344, 231.74359130859375, 244.69696044921875, 304.7176513671875, 211.66757202148438, 374.89459228515625, 54.69490432739258, 57.68502426147461, 126.83666229248047, 118.48929595947266, 731.8522338867188, 45.89219284057617, 83.5698471069336, 292.66912841796875, 96.16987609863281, 79.182373046875, 262.57049560546875, 117.03614807128906, 48.62773132324219, 375.12591552734375, 92.68254089355469, 76.7197494506836, 151.76417541503906, 23.159879684448242, 88.55484771728516, 79.80218505859375, 206.93661499023438, 313.93017578125, 179.9978485107422, 81.01616668701172, 64.71544647216797, 441.3127136230469, 149.50025939941406, 112.3187255859375, 279.3065185546875, 138.7478485107422, 677.7432250976562, 41.6648063659668, 221.5146484375, 63.228458404541016, 86.89962768554688], "bn1.num_batches_tracked": 8840, "fc2.weight": [[-0.00128628546372056, -0.004210749641060829, 0.10208277404308319, 0.04250551015138626, -0.06159492954611778, 0.0627879723906517, 0.08499077707529068, -0.009448615834116936, -0.06647157669067383, -0.011263919994235039, 0.008194409310817719, 0.0845969021320343, -0.063047394156456, 0.021154316142201424, 0.05589408427476883, 0.05618135258555412, 0.05283895879983902, -0.015722671523690224, 0.004683554172515869, 0.13170652091503143, -0.15523241460323334, 0.0029030588921159506, -0.045189399272203445, 0.015411323867738247, 0.026747891679406166, 0.053594838827848434, 0.013377097435295582, -0.038796063512563705, 0.0021795909851789474, -0.004355782177299261, -0.094145767390728, 0.04703598842024803, 0.017360232770442963, -0.0738469660282135, -0.08012372255325317, -0.03780311346054077, 0.03012867644429207, -0.042029969394207, -0.08549866080284119, -0.13710568845272064, 0.06706879287958145, -0.06591568887233734, 0.11262291669845581, -0.021716397255659103, 0.0017855828627943993, -0.03204595670104027, 0.021074216812849045, 0.04133777320384979, -0.1275109350681305, -0.05374161899089813, -0.053675707429647446, 0.014382283203303814, -0.026948070153594017, -0.03176998347043991, -0.047075480222702026, -0.01245814748108387, -0.027714675292372704, 0.03548303246498108, -0.061808932572603226, -0.0652906745672226, -0.011415568180382252, 0.017149385064840317, 0.042830370366573334, 0.13482409715652466, 0.009661954827606678, 0.0441301055252552, 0.0492902435362339, 0.03362904116511345, 0.016165008768439293, -0.05199890583753586, -0.055995162576436996, 0.07976921647787094, -0.11535730957984924, -0.06031900644302368, -0.056451018899679184, 0.07471004873514175, -0.03228677064180374, 0.035564590245485306, -0.02503282204270363, 0.007978645153343678, 0.05375036597251892, 0.04943610727787018, -0.0015221465146169066, 0.09618737548589706, -0.05051989480853081, 0.03257355839014053, -0.06359930336475372, -0.0043925940990448, 0.08722782135009766, 0.007705167401582003, 0.027704859152436256, 0.00044149384484626353, 0.08797258883714676, -0.02654854767024517, -0.06529290229082108, 0.04396069422364235, 0.021398210898041725, -0.0906188040971756, 0.03799579292535782, -0.015204988420009613, 0.06160684674978256, -0.06396207958459854, -0.09305043518543243, -0.06809016317129135, 0.04358828812837601, -0.08799517899751663, 0.02795051969587803, -0.08070395141839981, -0.025551872327923775, -0.053508952260017395, 0.08593741804361343, 0.0647624135017395, 0.027776846662163734, -0.08772294223308563, 0.027429526671767235, -0.10276483744382858, -0.03557947278022766, -0.06013764068484306, 0.0717487558722496, -0.05413825437426567, -0.03699684515595436, 0.0947013571858406, -0.037842996418476105, 0.07672561705112457, 0.04897752031683922, 0.0842059850692749, 0.006949638947844505, 0.03994161635637283], [-0.07767539471387863, -0.023959506303071976, 0.03293038532137871, 0.009508571587502956, 0.020574046298861504, 0.10389155149459839, 0.017541803419589996, -0.007816472090780735, -0.023493893444538116, 0.0906035304069519, 0.060654059052467346, -0.028204910457134247, -0.09571976959705353, -0.0021827074233442545, 0.050366535782814026, 0.09930618852376938, 0.09836580604314804, -0.05499783530831337, 0.0201326422393322, 0.09111019968986511, -0.09805227816104889, 0.055486150085926056, 0.030254412442445755, -0.07885273545980453, 0.048205506056547165, 0.0328829251229763, -0.06566840410232544, -0.027501976117491722, -0.06328414380550385, 0.0373942069709301, 0.02420174703001976, -0.1349766105413437, 0.07987144589424133, 0.030716847628355026, 0.04460780695080757, -0.021426908671855927, -0.008053578436374664, -0.09073437750339508, -0.07484908401966095, 0.06676031649112701, 0.011581704951822758, 0.041212230920791626, -0.03151664882898331, -0.026233986020088196, 0.05880133435130119, -0.04117370396852493, -0.013832082971930504, 0.057095665484666824, -0.12598703801631927, 0.014290310442447662, 0.0161861814558506, 0.04912341758608818, 0.009012926369905472, -0.03449863940477371, 0.030145350843667984, -0.037483781576156616, 0.0947616845369339, -0.01982601173222065, -0.04926230013370514, 0.025241496041417122, -0.09913663566112518, 0.009497486054897308, 0.0026877454947680235, 0.0682855099439621, -0.08640725910663605, -0.11370883882045746, -0.02933974750339985, 0.06799923628568649, -0.07074267417192459, -0.05777100473642349, -0.05878358334302902, 0.01569930836558342, -0.10364729166030884, 0.019658183678984642, 0.0062261661514639854, 0.0708654448390007, 0.07041091471910477, 0.0703824982047081, 0.06280224025249481, -0.01652277261018753, -0.10191114246845245, 0.08650635182857513, 0.07599948346614838, 0.012956703081727028, -0.022646861150860786, 0.05617419257760048, -0.08608931303024292, 0.09591542184352875, -0.06740488857030869, 0.004581297282129526, 0.018620679154992104, -0.06802032887935638, 0.08065884560346603, 0.04919857904314995, -0.10711382329463959, 0.011937638744711876, 0.01612759567797184, 0.0015741538954898715, 0.04566647857427597, -0.004378101788461208, 0.04397931322455406, -0.07343070954084396, -0.04491839557886124, -0.08635680377483368, -0.00012190117558930069, -0.009860696271061897, -0.022236661985516548, -0.0203118734061718, -0.04738011583685875, 0.010429536923766136, 0.05320381000638008, 0.010673904791474342, 0.023193180561065674, -0.05831187963485718, -0.03850127011537552, -0.08324137330055237, 0.006806890480220318, -0.045719556510448456, 0.0037650507874786854, -0.054633915424346924, -0.06299146264791489, 0.005401793401688337, -0.03557465597987175, 0.07028436660766602, 0.11196693032979965, 0.042507000267505646, -0.04779771342873573, -0.001691527315415442], [0.06589190661907196, 0.06349705159664154, -0.032718222588300705, -0.06665633618831635, 0.003819664940237999, -0.014021390117704868, -0.1478620320558548, 0.07508816570043564, 0.0847104862332344, -0.04073077812790871, -0.07476016134023666, 0.001103897113353014, 0.06903720647096634, 0.01094362884759903, -0.03374994918704033, -0.07873991131782532, -0.10152042657136917, 0.05794307962059975, -0.019641607999801636, 0.004465620964765549, 0.06181260570883751, -0.06632939726114273, 0.08123846352100372, 0.017795033752918243, -0.04682473465800285, 0.017058581113815308, -0.0939699336886406, -0.007005383260548115, 0.06470663845539093, -0.008074737153947353, 0.07458131015300751, 0.09926657378673553, -0.04426947236061096, 0.07293230295181274, -0.06849920749664307, -0.004259379580616951, 0.028211064636707306, 0.04291834682226181, 0.0691857635974884, 0.05891379714012146, -0.033470649272203445, -0.06772051751613617, -0.012411095201969147, 0.018919218331575394, -0.046786118298769, -0.04762474074959755, 0.008627732284367085, 0.04311361163854599, 0.07543230801820755, 0.02950822003185749, 0.014962313696742058, -0.08269282430410385, -0.013573800213634968, 0.08909464627504349, -0.012848840095102787, -0.010507043451070786, -0.022080184891819954, 0.016321279108524323, 0.012346851639449596, -0.011365129612386227, 0.044249117374420166, 0.011747648008167744, -0.05590907111763954, 0.027030549943447113, 0.0009465883485972881, 0.12349559366703033, 0.05369804427027702, 0.05428355559706688, 0.007448358461260796, 0.0461803637444973, 0.07116237282752991, -0.09942878782749176, 0.1164412871003151, 0.10456858575344086, -0.02273748256266117, -0.03582780063152313, -0.0016242275014519691, -0.010591505095362663, -0.0049382951110601425, -0.003317947033792734, 0.06117399409413338, -0.06993421912193298, -0.06088973954319954, -0.04640506953001022, 0.004222562070935965, -0.07608980685472488, -0.05403532460331917, -0.05298230051994324, -0.032272305339574814, 0.008442395366728306, -0.07862671464681625, 0.04665106534957886, 0.0037185479886829853, -0.09238956868648529, 0.01961958408355713, -0.06825298070907593, -0.047328826040029526, -0.03871295973658562, -0.058045290410518646, -0.017572881653904915, 0.002140272641554475, 0.05846747010946274, 0.06158997491002083, 0.02134745754301548, -0.046912435442209244, 0.07559472322463989, -0.06638946384191513, 0.001941295457072556, 0.08658719062805176, -0.060292016714811325, -0.09013479948043823, -0.050499070435762405, -0.061719413846731186, 0.001006421516649425, -0.053784456104040146, 0.03509325906634331, 0.023230716586112976, 0.056360650807619095, -0.025634825229644775, 0.04934775084257126, 0.06303181499242783, -0.01847059465944767, 0.04833690822124481, 0.0988440066576004, -0.11692225188016891, 0.06958356499671936, 0.09261346608400345, 0.08463180065155029], [0.05311800539493561, -0.02941817417740822, -0.07540196925401688, -0.023886434733867645, 0.07043841481208801, -0.04522863030433655, -0.04252404347062111, 0.0442669540643692, -0.003983835689723492, 0.024938970804214478, -0.14051879942417145, -0.03605318441987038, 0.07392595708370209, -0.07320428639650345, -0.020891183987259865, -0.07287905365228653, -0.16863887012004852, 0.06747939437627792, -0.044183503836393356, 0.044478848576545715, 0.054200105369091034, -0.024577999487519264, -0.037418365478515625, 0.06388799846172333, 0.0025296162348240614, -0.0441289022564888, -0.06902577728033066, 0.051489755511283875, 0.13277383148670197, -0.0666276067495346, 0.03675467520952225, 0.059664398431777954, 0.022573385387659073, -0.0020859914366155863, -0.04624427109956741, 0.040335386991500854, 0.023448878899216652, -0.07589912414550781, -0.03167203441262245, -0.07070931047201157, -0.04375959187746048, -0.023118171840906143, 0.0033953089732676744, -0.013308705762028694, -0.01216471940279007, -0.0043967547826468945, 0.10352888703346252, 0.02384256199002266, -0.004687066189944744, 0.05799759551882744, -0.05102057009935379, -0.013351569883525372, 0.059865258634090424, -0.013735413551330566, 0.021256614476442337, -0.035087160766124725, 0.03688120096921921, -0.0069531649351119995, -0.0819738581776619, 0.08085369318723679, 0.042764242738485336, -0.0704350471496582, 0.042849455028772354, 0.043794915080070496, 0.04364083707332611, 0.040282703936100006, 0.02777766063809395, 0.04170102998614311, 0.05796653777360916, -0.00983695313334465, 0.052516695111989975, 0.009581154212355614, 0.043433431535959244, -0.03755626454949379, -0.12705855071544647, -0.02307632379233837, -0.028358910232782364, 0.1350807547569275, 0.06472230702638626, -0.06222809478640556, 0.029130537062883377, -0.039048172533512115, 0.023952066898345947, 0.03976592421531677, 0.07840836048126221, 0.03177942335605621, 0.07491113245487213, -0.07783845067024231, 0.004382584244012833, -0.03366413339972496, -0.0005212213727645576, 0.0044027999974787235, 0.022571172565221786, -0.011860697530210018, 0.03667077049612999, 0.029510635882616043, -0.08589960634708405, 0.043106559664011, -0.018409380689263344, -0.05171738564968109, 0.021180246025323868, 0.04302462190389633, 0.04397161677479744, 0.04479158669710159, -0.10986334830522537, -0.02404005639255047, 0.04563106968998909, 0.012617745436728, -0.07203670591115952, -0.031001964583992958, 0.015151357278227806, 0.056918032467365265, 0.026746340095996857, 0.020125914365053177, -0.05007413774728775, 0.026114244014024734, -0.08636800199747086, 0.028199080377817154, 0.05099791660904884, 0.055274516344070435, 0.04709848761558533, -0.14525429904460907, -0.07781964540481567, 0.013899130746722221, -0.059924621134996414, 0.03689483925700188, -0.00800193753093481, 0.11467242240905762], [-0.07981305569410324, -0.03321319818496704, 0.05341017246246338, 0.08866173028945923, -0.02706250548362732, 0.03372270613908768, 0.13815228641033173, -0.0654100701212883, -0.07864174246788025, 0.03167970851063728, -0.0033571706153452396, 0.10146445035934448, -0.06988898664712906, 0.03981989622116089, 0.07849955558776855, 0.12795019149780273, 0.08700641989707947, -0.0629294142127037, 0.029309513047337532, -0.026343919336795807, -0.0648457407951355, 0.07108975946903229, -0.06942937523126602, -0.0665750503540039, 0.047014109790325165, 0.03545231744647026, 0.029797038063406944, 0.020789381116628647, 0.0005382526433095336, -0.039663150906562805, -0.060201629996299744, 0.049152690917253494, 0.024577172473073006, -0.09145468473434448, -0.02076309360563755, -0.05445936322212219, 0.07274322211742401, -0.00465373694896698, -0.011706552468240261, -0.05342698469758034, -0.013598542660474777, 0.06981488317251205, 0.004502351861447096, 0.0063104997389018536, 0.029160834848880768, 0.03254122659564018, -0.013669582083821297, -0.022991355508565903, 0.01623319648206234, 0.01590764708817005, -0.04136624187231064, 0.011492217890918255, -0.05387159436941147, -0.06660304218530655, -0.06407297402620316, -0.04992421716451645, -0.0454985573887825, 0.010422226041555405, 0.008707133121788502, -0.01727675460278988, -0.05050751194357872, 0.013954585418105125, 0.0016530158463865519, 0.06306621432304382, -0.043893106281757355, 0.03112814761698246, -0.03534694388508797, 0.05260644853115082, -0.009121641516685486, 0.0832647755742073, -0.07168420404195786, 0.11273394525051117, -0.07386025041341782, -0.08711514621973038, -0.010797583498060703, 0.04603830352425575, 0.04417656362056732, 0.027760909870266914, -0.022787710651755333, 0.003809681162238121, 0.04058120399713516, 0.042520444840192795, 0.06950671225786209, 0.006387175060808659, -0.06424526125192642, 0.10262200981378555, 0.011470974422991276, -0.007742502260953188, 0.03887568414211273, 0.0658901110291481, 0.027950435876846313, -0.041773173958063126, 0.052731603384017944, 0.015261642634868622, -0.059013720601797104, -0.08193529397249222, -0.027841445058584213, -0.02742215432226658, 0.0055451770313084126, -0.0018363799899816513, -0.056329768151044846, -0.08949915319681168, -0.060308560729026794, -0.06646696478128433, -0.0005584597238339484, -0.08113593608140945, -0.008386272937059402, 0.034767795354127884, -0.05750325322151184, -0.006484513636678457, 0.06930127739906311, 0.024048112332820892, 0.061720047146081924, -0.0341573990881443, 0.033456895500421524, -0.023758700117468834, -0.08042880892753601, -0.06740553677082062, 0.025921717286109924, 0.020246488973498344, -0.011525554582476616, 0.1147761344909668, -0.00419164914637804, -0.017196958884596825, 0.10026395320892334, -0.02200479246675968, -0.07009942829608917, 0.007764045149087906], [-0.08002343028783798, -0.03667395934462547, 0.0676376149058342, 0.08139541000127792, 0.024276239797472954, 0.05590876191854477, 0.10533107817173004, -0.08936025947332382, -0.03626410290598869, 0.019497958943247795, 0.04717342555522919, 0.06937866657972336, -0.011885312385857105, 0.013559256680309772, 0.10769649595022202, 0.05787775665521622, 0.024106929078698158, -0.07881394773721695, 0.006373773328959942, 0.0359114408493042, -0.007766699884086847, -0.02461320161819458, 0.06657791137695312, 0.05859164521098137, -0.01957906037569046, 0.11001446098089218, 0.02304445579648018, -0.110385961830616, -0.03422250226140022, 0.02642090432345867, 0.08554141223430634, 0.0495588518679142, 0.02218731679022312, -0.04040145501494408, 0.032127998769283295, -0.10821156948804855, -0.02517670951783657, -0.014609728939831257, 0.025684010237455368, -0.09882950782775879, 0.03558165952563286, 0.06971557438373566, -0.012956284917891026, 0.027695873752236366, 0.07355371862649918, 0.0407402440905571, -0.04967085272073746, 0.05759558454155922, 0.024102209135890007, -0.01881089061498642, 0.07208432257175446, 0.0829906091094017, -0.11896956712007523, -0.09791557490825653, -0.0028762430883944035, 0.018265999853610992, -0.0014218551805242896, 0.07226026058197021, 0.06842022389173508, -0.009383401833474636, 0.03638283535838127, -0.03548815846443176, 0.05805756524205208, -0.105791375041008, 0.022029930725693703, 0.0641685277223587, 0.10883050411939621, 0.021580208092927933, 0.018769167363643646, 0.01657133921980858, 0.028668368235230446, 0.010904689319431782, -0.05535297468304634, -0.06603582948446274, -0.07260023802518845, 0.06442630290985107, 0.0449247844517231, -0.08067157864570618, 0.016105789691209793, -0.10462495684623718, -0.08485981822013855, -0.04304986447095871, 0.14478091895580292, 0.11322042346000671, -0.04777209833264351, 0.039176277816295624, 0.03350409120321274, 0.012141512706875801, 0.06243439018726349, -0.03668734431266785, 0.1059943214058876, -0.03353017196059227, 0.04148561507463455, 0.08146616816520691, -0.0705016627907753, 0.04236443713307381, -0.021945834159851074, 0.07151447236537933, 0.019242487847805023, -0.07939799129962921, 0.08804477751255035, -0.08990488201379776, -0.03731159865856171, 0.056556351482868195, 0.028352001681923866, -0.006606108043342829, -0.07457119971513748, 0.015904314815998077, -0.05835190415382385, -0.008084770292043686, 0.04048541933298111, 0.023735225200653076, -0.0033293538726866245, -0.10947709530591965, -0.0523434542119503, 0.0019061954226344824, 0.08775519579648972, 0.0007556559285148978, 0.07003787159919739, -0.008956014178693295, -0.10153035819530487, 0.03684205934405327, 0.04349594563245773, -0.0545576736330986, 0.06378696858882904, -0.08628088980913162, 0.053753502666950226, 0.013819226995110512], [0.08450496941804886, 0.029387278482317924, -0.12511210143566132, -0.04994693025946617, 0.04346800595521927, -0.10765253007411957, -0.11720088124275208, 0.1118125319480896, 0.05069682374596596, -0.007642236538231373, -0.08824755996465683, -0.010170480236411095, 0.06673518568277359, -0.032647889107465744, -0.031293489038944244, -0.08160898089408875, -0.1375984102487564, 0.12209504842758179, -0.02843291126191616, -0.07870220392942429, 0.05532870441675186, -0.005909782834351063, 0.03633687272667885, 0.0321149080991745, 0.015452536754310131, 0.0345856137573719, -0.02638605237007141, 0.0273725762963295, 0.045555274933576584, 0.005026374012231827, 0.028689773753285408, 0.14603452384471893, -0.00530371954664588, 0.030198343098163605, -0.004540721885859966, 0.09025264531373978, -0.0736587718129158, -0.02020806446671486, -0.021458467468619347, -0.017462581396102905, -0.012401926331222057, 0.02177787758409977, 0.009900634177029133, 0.022208772599697113, -0.028564197942614555, 0.09768832474946976, 0.0077117495238780975, -0.009397587738931179, -0.030142366886138916, 0.018105044960975647, -0.04442799091339111, 0.024756358936429024, -0.07912087440490723, 0.06873369961977005, 0.029468759894371033, -0.01739417389035225, -0.030911365523934364, -0.041703034192323685, 0.0010005844524130225, 0.07040952891111374, 0.09045830368995667, -0.040699414908885956, -0.025855649262666702, 0.02643335983157158, 0.07987868785858154, 0.08927962183952332, 0.08210037648677826, 0.003923998214304447, 0.0061036464758217335, 0.05011827126145363, 0.007124678231775761, -0.05979311838746071, 0.08256200700998306, 0.06272216886281967, -0.07857628911733627, -0.05066755786538124, -0.0418069027364254, -0.010057046078145504, 0.04857635498046875, 0.08314761519432068, 0.036127056926488876, -0.03921537101268768, -0.10368889570236206, 0.06535269320011139, 0.027924874797463417, -0.09110724180936813, -0.041953783482313156, -0.09233742952346802, 0.044627491384744644, -0.03380680829286575, -0.09254270792007446, 0.05903312936425209, -0.002695156494155526, -0.08886969834566116, 0.030712246894836426, -0.02805515006184578, -0.029741913080215454, -0.10104601085186005, -0.08603757619857788, 0.024556497111916542, 0.03440548852086067, 0.0873255580663681, 0.04378153011202812, -0.0424320250749588, 0.014157754369080067, 0.019363349303603172, -0.06335120648145676, 0.02314046397805214, 0.030035357922315598, 0.04278421774506569, -0.011100752279162407, -0.023656034842133522, 0.005501491017639637, -0.004463669378310442, -0.05669299140572548, -0.013070721179246902, -0.08825621753931046, 0.006694342475384474, 0.08640330284833908, 0.0671619325876236, -0.01419069617986679, -0.06827323138713837, -0.06779848784208298, 0.008630676195025444, -0.0939028188586235, -0.06103194132447243, 0.010654686018824577, 0.12747922539710999], [0.041997238993644714, 0.068547822535038, -0.11817263066768646, -0.10246249288320541, 0.03720381110906601, -0.08174021542072296, -0.11643364280462265, 0.07570251822471619, 0.09183369576931, 0.013280847109854221, -0.1007821261882782, -0.01796502061188221, 0.06798545271158218, -0.04213174432516098, -0.05763717740774155, -0.07129351794719696, -0.09008464217185974, 0.1060391291975975, -0.05451180413365364, -0.022058218717575073, 0.03789488971233368, -0.0191304013133049, 0.02550046518445015, -0.06451424211263657, 0.023900145664811134, -0.06681019067764282, -0.036770034581422806, -0.02930457331240177, 0.05778542906045914, -0.01859164424240589, -0.025551317259669304, 0.1002582535147667, -0.02296077273786068, 0.08446531742811203, -0.06409935653209686, 0.1111450344324112, -0.01917198859155178, -0.05763743445277214, -0.012387842871248722, -0.01978892832994461, -0.06215224787592888, 0.015343930572271347, 0.06990271806716919, 0.019466092810034752, 0.05577036738395691, 0.014097083359956741, 0.07190915197134018, 0.022823764011263847, 0.10095522552728653, 0.03189952298998833, -0.03125593811273575, 0.01416998915374279, -0.012293730862438679, -0.018629493191838264, -0.0022831326350569725, -0.03820835426449776, -0.03431706503033638, 0.011735374107956886, -0.0069915228523314, 0.08935807645320892, 0.013084550388157368, -0.003191085997968912, -0.01664549857378006, 0.06858105212450027, 0.04247482493519783, 0.07463733106851578, 0.02027973346412182, 0.044884562492370605, 0.024187583476305008, 0.0003922524629160762, 0.0063114953227341175, -0.032274872064590454, 0.05971571058034897, 0.11022078990936279, -0.05971763655543327, -0.054771557450294495, -0.0908116027712822, -0.037328559905290604, -7.473475852748379e-05, 0.06913556158542633, 0.09974384307861328, -0.012691166251897812, -0.06165900453925133, 0.06374476104974747, 0.03386624529957771, -0.04932921379804611, -0.007161704357713461, -0.02448868378996849, 0.01007739920169115, 0.004856132436543703, -0.04889640957117081, -0.04252809286117554, -0.0065290178172290325, -0.046472929418087006, 0.036166418343782425, 0.011091228574514389, -0.049703650176525116, 0.008087527938187122, -0.04182671010494232, -0.008194762282073498, -0.025185685604810715, 0.09839899092912674, 0.056307438760995865, 0.041304703801870346, -0.047695551067590714, 0.026447046548128128, -0.05387858673930168, 0.044967424124479294, -0.03956818953156471, -0.030426692217588425, -0.0799473375082016, -0.05437837541103363, 0.030942905694246292, 0.05758393555879593, 0.005079235881567001, 0.040053125470876694, -0.11019710451364517, 0.012204622849822044, 0.006531775463372469, -0.0123776625841856, 0.02561029978096485, -0.11500179767608643, -0.04972519353032112, 0.05653373524546623, -0.10402798652648926, 0.06044308468699455, 0.05811060220003128, 0.016124766319990158], [0.030771374702453613, -0.050447385758161545, 0.07180818170309067, 0.08190245181322098, -0.07457161694765091, 0.11661666631698608, 0.08245734125375748, -0.06957496702671051, -0.058892615139484406, -0.010673249140381813, 0.0833219364285469, -0.0029269945807754993, -0.08491882681846619, -0.039748918265104294, -0.04769664630293846, 0.0556766614317894, 0.13901858031749725, -0.019433194771409035, 0.06172613427042961, 0.07355144619941711, -0.054229408502578735, 0.0636625587940216, -0.010494961403310299, 0.021585684269666672, 0.027418402954936028, 0.08274175226688385, 0.020831860601902008, -0.06988903135061264, -0.05139082670211792, -0.023876914754509926, 0.010956989601254463, -0.00883722584694624, 0.024753287434577942, -0.019520318135619164, 0.10549605637788773, -0.11821620911359787, -0.011805739253759384, -0.07015247642993927, -0.021893510594964027, 0.01661314256489277, 0.0019871073309332132, 0.015983985736966133, -0.00039805364212952554, -0.03367514908313751, -0.05376157537102699, -0.04503157362341881, -0.004684932995587587, 0.014250691048800945, -0.0503285676240921, -0.024051522836089134, -0.038917940109968185, 0.04224209114909172, 0.032479021698236465, -0.10400103032588959, -0.009287597611546516, -0.04409369081258774, 0.018036607652902603, 0.05635533109307289, -0.049822285771369934, 0.003504915861412883, -0.07713254541158676, 0.045400481671094894, 0.06951113045215607, -0.01797684282064438, -0.07375602424144745, -0.0865105465054512, -0.07090494781732559, 0.056924138218164444, -0.06054029241204262, 0.0170794315636158, -0.04639153182506561, 0.08825667947530746, -0.035515643656253815, -0.09593792259693146, -0.019363675266504288, 0.009944777935743332, -0.03470098599791527, 0.04256705567240715, 0.020653756335377693, -0.024981649592518806, 0.0432402528822422, 0.05255797877907753, -0.04299648106098175, -0.016464971005916595, 0.07109351456165314, -0.0022697963286191225, 0.029590174555778503, 0.14180026948451996, 0.09805595874786377, 0.08222488313913345, 0.0251713115721941, -0.08690644800662994, 0.012348238378763199, 0.03008265607059002, -0.06137166544795036, 0.015983404591679573, 0.03175785019993782, -0.07354046404361725, 0.039234280586242676, 0.025661936029791832, 0.09695225208997726, -0.12308426201343536, -0.040271781384944916, -0.04035729914903641, -0.03649746626615524, -0.07946706563234329, 0.022026294842362404, 0.036902155727148056, -0.014197546057403088, -0.029950028285384178, 0.02064337581396103, 0.04488227888941765, 0.03948238864541054, 0.03918531537055969, 0.07729291915893555, -0.023485641926527023, -0.0014520715922117233, -0.10998661071062088, -0.0484754703938961, 0.005839197896420956, -0.10836251080036163, 0.04550160840153694, -0.07604735344648361, -0.019033687189221382, 0.09550590068101883, -0.049262139946222305, 0.014901213347911835, -0.03950628638267517], [-0.02718990109860897, -0.06682654470205307, 0.09180133044719696, 0.11178495734930038, -0.04131508618593216, 0.10496614873409271, 0.15730686485767365, -0.06602461636066437, -0.0863269492983818, 0.045987263321876526, -0.014216159470379353, 0.03313891217112541, -0.050725843757390976, 0.012877206318080425, -0.003933312371373177, 0.045444175601005554, 0.09824977815151215, -0.07711455225944519, 0.07167888432741165, 0.12842029333114624, -0.16275618970394135, -0.022488990798592567, -0.03662121295928955, 0.016763560473918915, 0.016505016013979912, 0.028962036594748497, 0.07726698368787766, -0.01076788455247879, 0.004280143417418003, 0.08250585198402405, 0.030899198725819588, 0.030188867822289467, -0.04586607962846756, -0.0801834836602211, 0.09027909487485886, -0.10399851948022842, -0.0004298220737837255, -0.0457349456846714, 0.011909647844731808, -0.05922076478600502, 0.0664580762386322, 0.058388300240039825, 0.10411432385444641, -0.05423635244369507, -0.010145560838282108, -0.04693164303898811, 0.03581639379262924, 0.049110013991594315, -0.1006307452917099, -0.00791417807340622, -0.0017615276155993342, -0.015056258998811245, 0.0005768131813965738, -0.023006627336144447, -0.005251035094261169, 0.06120835989713669, -0.01603497937321663, -0.03541339188814163, -0.049943502992391586, 0.010157001204788685, -0.12585875391960144, 0.003084834897890687, 0.03562771901488304, 0.05860365927219391, -0.024189407005906105, -0.051742251962423325, -0.027517175301909447, -0.05382068455219269, -0.054831769317388535, 0.00833304412662983, -0.06634750962257385, 0.14497217535972595, -0.08247414231300354, 0.00623070914298296, 0.029579348862171173, 0.025449177250266075, 0.009411502629518509, 0.12496274709701538, 0.03391222655773163, -0.04380205273628235, -0.07081767171621323, -0.017000965774059296, -0.0020063116680830717, 0.048499900847673416, 0.014350374229252338, 0.08169294148683548, -0.0282740481197834, -0.04037449136376381, -0.06586681306362152, -0.05208957567811012, 0.1004473865032196, 0.017948893830180168, 0.06861237436532974, 0.015012755990028381, -0.05572468414902687, -0.08535191416740417, 0.043664682656526566, 0.02498864009976387, 0.06650875508785248, -0.03364894911646843, 0.07441377639770508, -0.05723092332482338, -0.08199024200439453, -0.059996310621500015, -0.04702693596482277, -0.10287074744701385, 0.07811509817838669, -0.037961140275001526, -0.028010036796331406, -0.03909038007259369, 0.06270772963762283, 0.11099807173013687, 0.05775918811559677, -0.07124856859445572, -0.05635562166571617, -0.06433446705341339, -0.0316941998898983, -0.11949028819799423, 0.04816298186779022, 0.04784167930483818, -0.02649272233247757, 0.08285348117351532, 0.012509309686720371, 0.026632685214281082, 0.0907263308763504, 0.0862717553973198, -0.03966893255710602, 0.002478917594999075]], "fc2.bias": [0.0975119099020958, -0.04661225527524948, -0.03771260753273964, 0.07794727385044098, 0.028019145131111145, 0.04892890155315399, 0.03714020922780037, -0.0811450183391571, -0.06178083270788193, -0.05534277856349945], "bn2.weight": [0.08118749409914017, 0.0030289452988654375, 0.008254907093942165, 0.11946800351142883, 0.01656375266611576, 0.1367219239473343, 0.008039613254368305, 0.0076056672260165215, 0.021043363958597183, 0.017407862469553947], "bn2.bias": [0.0, 0.0, 0.0, 0.0, 0.0, 0.0, 0.0, 0.0, 0.0, 0.0], "bn2.running_mean": [0.037451937794685364, -0.1462348848581314, 0.07814250886440277, 0.12467938661575317, 0.008459764532744884, 0.3984692692756653, 0.013218208216130733, -0.09677976369857788, -0.13574260473251343, 0.05974092707037926], "bn2.running_var": [0.046340689063072205, 0.07123976945877075, 0.06726198643445969, 0.05198897048830986, 0.0538942776620388, 0.15444834530353546, 0.08484248071908951, 0.06380580365657806, 0.04936003312468529, 0.0747721716761589], "bn2.num_batches_tracked": 8840}